#mdl#2#214
#rdr#3/0/0
1:b,
18:u:N1F0X0 = %X[0,0],
19:u:N1F0L1 = %X[-1,0],
#qrk#3
1:T,
1:O,
1:I,
#qrk#134
1:b,
13:u:N1F0X0 = 46,
15:u:N1F0L1 = _x-1,
13:u:N1F0X0 = 32,
13:u:N1F0L1 = 46,
14:u:N1F0X0 = 118,
13:u:N1F0L1 = 32,
14:u:N1F0X0 = 105,
14:u:N1F0L1 = 118,
14:u:N1F0L1 = 105,
14:u:N1F0X0 = 115,
14:u:N1F0X0 = 112,
14:u:N1F0L1 = 115,
14:u:N1F0X0 = 248,
14:u:N1F0L1 = 112,
14:u:N1F0X0 = 114,
14:u:N1F0L1 = 248,
14:u:N1F0L1 = 114,
14:u:N1F0X0 = 102,
14:u:N1F0L1 = 102,
14:u:N1F0X0 = 116,
14:u:N1F0L1 = 116,
14:u:N1F0X0 = 110,
14:u:N1F0X0 = 229,
14:u:N1F0L1 = 110,
14:u:N1F0L1 = 229,
14:u:N1F0X0 = 100,
14:u:N1F0X0 = 101,
14:u:N1F0L1 = 100,
14:u:N1F0L1 = 101,
14:u:N1F0X0 = 104,
14:u:N1F0L1 = 104,
13:u:N1F0X0 = 98,
13:u:N1F0L1 = 98,
14:u:N1F0X0 = 103,
14:u:N1F0X0 = 121,
14:u:N1F0L1 = 103,
14:u:N1F0L1 = 121,
14:u:N1F0X0 = 111,
14:u:N1F0L1 = 111,
13:u:N1F0X0 = 97,
14:u:N1F0X0 = 108,
13:u:N1F0L1 = 97,
14:u:N1F0L1 = 108,
14:u:N1F0X0 = 107,
14:u:N1F0L1 = 107,
14:u:N1F0X0 = 117,
14:u:N1F0L1 = 117,
14:u:N1F0X0 = 109,
14:u:N1F0L1 = 109,
14:u:N1F0X0 = 106,
14:u:N1F0L1 = 106,
13:u:N1F0X0 = 35,
13:u:N1F0L1 = 35,
13:u:N1F0X0 = 45,
13:u:N1F0L1 = 45,
13:u:N1F0X0 = 70,
13:u:N1F0L1 = 70,
13:u:N1F0X0 = 76,
13:u:N1F0L1 = 76,
13:u:N1F0X0 = 63,
13:u:N1F0L1 = 63,
13:u:N1F0X0 = 79,
13:u:N1F0L1 = 79,
13:u:N1F0X0 = 71,
13:u:N1F0L1 = 71,
13:u:N1F0X0 = 83,
13:u:N1F0X0 = 99,
13:u:N1F0L1 = 83,
13:u:N1F0L1 = 99,
14:u:N1F0X0 = 119,
14:u:N1F0L1 = 119,
13:u:N1F0X0 = 65,
13:u:N1F0L1 = 65,
14:u:N1F0X0 = 230,
14:u:N1F0L1 = 230,
13:u:N1F0X0 = 82,
13:u:N1F0L1 = 82,
13:u:N1F0X0 = 72,
13:u:N1F0L1 = 72,
14:u:N1F0X0 = 216,
14:u:N1F0L1 = 216,
13:u:N1F0X0 = 69,
13:u:N1F0L1 = 69,
13:u:N1F0X0 = 86,
13:u:N1F0L1 = 86,
13:u:N1F0X0 = 74,
13:u:N1F0L1 = 74,
13:u:N1F0X0 = 77,
13:u:N1F0X0 = 49,
13:u:N1F0L1 = 77,
13:u:N1F0L1 = 49,
15:u:N1F0X0 = 8230,
15:u:N1F0L1 = 8230,
14:u:N1F0X0 = 171,
14:u:N1F0L1 = 171,
14:u:N1F0X0 = 187,
14:u:N1F0L1 = 187,
13:u:N1F0X0 = 50,
13:u:N1F0L1 = 50,
13:u:N1F0X0 = 51,
13:u:N1F0L1 = 51,
13:u:N1F0X0 = 52,
13:u:N1F0L1 = 52,
13:u:N1F0X0 = 53,
13:u:N1F0L1 = 53,
13:u:N1F0X0 = 66,
13:u:N1F0L1 = 66,
13:u:N1F0X0 = 54,
13:u:N1F0L1 = 54,
13:u:N1F0X0 = 55,
13:u:N1F0L1 = 55,
13:u:N1F0X0 = 56,
13:u:N1F0L1 = 56,
14:u:N1F0X0 = 244,
14:u:N1F0L1 = 244,
13:u:N1F0X0 = 57,
13:u:N1F0L1 = 57,
13:u:N1F0X0 = 48,
13:u:N1F0L1 = 48,
14:u:N1F0X0 = 242,
14:u:N1F0L1 = 242,
13:u:N1F0X0 = 73,
13:u:N1F0L1 = 73,
13:u:N1F0X0 = 84,
13:u:N1F0L1 = 84,
14:u:N1F0X0 = 234,
14:u:N1F0L1 = 234,
13:u:N1F0X0 = 68,
13:u:N1F0L1 = 68,
13:u:N1F0X0 = 75,
13:u:N1F0L1 = 75,
13:u:N1F0X0 = 78,
13:u:N1F0L1 = 78,
0=-0x1.f9a8b0c7c46c8p-1
1=-0x1.5c7a7209cde83p-1
2=0x1.9027424cc2c68p-1
3=0x1.759fd44df5609p+0
4=-0x1.f8bced49edddcp-1
5=-0x1.53f039900c529p+0
6=-0x1.4e7b461b5ff7dp+0
7=0x1.809de6288bda1p-1
8=0x1.20485a0afd027p+1
9=0x1.ba7ab7b4ed60ap-3
10=-0x1.005f3fa612224p-4
11=-0x1.87b0d0b45e158p-3
12=0x1.8246a15fd84dp-10
14=-0x1.6e8fd63c3e8a7p-11
15=-0x1.4d8a852a9adp-1
16=0x1.45b39bf1fd63bp+1
17=-0x1.30308f6de9b6ep+1
18=-0x1.ff7207c47cc35p-5
19=0x1.aec21e826d546p-3
20=-0x1.7d683de187871p-3
21=0x1.cfe514bf8008p-4
22=-0x1.27eb5c2d2c339p-4
23=-0x1.780e928702267p-5
24=0x1.449cd7498ec64p+1
25=-0x1.53fa4df3511f6p-1
26=-0x1.2b83ba987385ap+1
27=-0x1.793735865151bp-4
28=-0x1.b1e519db5ec7cp-3
29=0x1.3a4e071910d4bp-2
30=-0x1.0d46e6f69f262p-3
31=-0x1.31700debf073bp-4
32=0x1.ac1a478031d42p-3
33=-0x1.7d18d8229ff59p-3
34=-0x1.ff6981b7c34cap-5
35=0x1.e18d38cf204ddp-3
36=0x1.b0bcce303d6a7p-5
37=-0x1.1fd62938e8a38p-3
38=0x1.5b1738327d6c8p-4
39=-0x1.3e7ae8d759257p-8
40=-0x1.e32de51cd84ebp-5
41=0x1.2a5dec132dc4cp-4
42=-0x1.cce7a36953064p-3
43=-0x1.308bc3e90a2c5p-3
44=0x1.81c76072fbb9cp-2
45=-0x1.84f6f42119b18p-5
46=-0x1.b03516aa9921p-5
47=0x1.a6ccb88d0e383p-4
48=-0x1.3810fcf8503f3p-4
49=-0x1.b497a8925f386p-5
50=0x1.0f49c2345a511p-3
51=-0x1.958244fe7e7f9p-3
52=-0x1.1c4fc9db5dfaep-2
53=0x1.ea1e99246a3cep-2
54=-0x1.bb46bd221dcd3p-5
55=-0x1.889c95dfa52cbp-5
56=0x1.ae285ca816498p-4
57=-0x1.65ec76484d048p-3
58=0x1.9e072796b9688p-5
59=0x1.b135d54ee1cbfp-4
60=0x1.c5a18cf1137c1p-5
61=-0x1.da671f6f5fcd2p-6
62=-0x1.9592bf0e188a5p-6
63=-0x1.2fe35d694858fp-4
64=-0x1.a92dc36e61ce3p-5
65=0x1.08587923d702bp-3
66=-0x1.22f604327b3dcp-3
67=-0x1.0b473c77bae16p-2
68=0x1.9fcfeb5ac59abp-2
69=-0x1.6f997f99551a2p-3
70=0x1.41ba380b5921p-5
71=0x1.06bdca725b11p-3
72=-0x1.cd1ef9d194b9cp-4
73=-0x1.05071e7a32f2bp-2
74=0x1.7b5c89b8652f1p-2
75=-0x1.8ee92d42d8925p-4
76=-0x1.2a94c8132796cp-3
77=0x1.f824b8482e573p-3
78=-0x1.858db43a54791p-3
79=0x1.681bf460b9aa2p-7
80=0x1.66d45b4927017p-3
81=-0x1.2a9957c46cbb3p-4
82=0x1.de6202a91f186p-4
83=-0x1.594bd32c74bcap-5
84=0x1.4ab8b78f66749p-3
85=-0x1.50febe292175dp-3
86=0x1.9acbfa1ff5357p-5
87=-0x1.eb731145600ebp-3
88=-0x1.71d9c122d0f5p-2
89=0x1.30f8cf33ac75fp-1
90=-0x1.d4d729c51a36dp-3
91=-0x1.a7d23fb295c3cp-4
92=0x1.507767cca5deap-2
93=-0x1.5c8ecdbcb581p-2
94=-0x1.d806b2b8800c4p-4
95=0x1.824978b30ffadp-2
96=0x1.4ad189280f523p-4
97=-0x1.f78366d09718cp-6
98=-0x1.ee9398ae17b98p-5
99=-0x1.1a1d391d1ac05p-4
100=-0x1.b284e687c6a0fp-5
101=0x1.ff965f8832d95p-4
102=0x1.f887bdfa12c7p-5
103=-0x1.c8a7d1577f7e8p-6
104=-0x1.1c50f1900a276p-5
105=-0x1.1dd4d8582d879p-4
106=-0x1.b254e55498d4fp-5
107=0x1.019aff14d75c2p-3
108=-0x1.6d47f0bbf4d22p-4
109=-0x1.66a2a390de4dfp-3
110=0x1.11b0fac1398e4p-2
111=-0x1.01baccaf670dp-4
112=-0x1.083b87c33dabap-4
113=0x1.0b1683ccecc4p-3
114=-0x1.d651a646e1e22p-4
115=0x1.17975eeebea17p-4
116=0x1.aae1160c567bep-5
117=-0x1.e6d34acf73442p-5
118=-0x1.6758cfe4af165p-5
119=0x1.b34cc08145fap-4
120=-0x1.b8849f8814058p-5
121=-0x1.42e175b6d1d7ap-3
122=0x1.b9ddbac4c8d77p-3
123=-0x1.a17980d2b1fa6p-3
124=-0x1.467e94181954dp-3
125=0x1.7709b73f32d0cp-2
126=-0x1.0248133622babp-2
127=-0x1.196cf6ac0e34ep-2
128=0x1.0f615b55ff0e3p-1
129=-0x1.bc4e786e2c80fp-4
130=-0x1.5089b06f2c97bp-3
131=0x1.1a66231ceea55p-2
132=-0x1.af650e97667bep-3
133=-0x1.9689e6e8057c9p-5
134=0x1.075d9b911c8d4p-2
135=-0x1.1e406cca62351p-3
136=-0x1.9f064a6f3746ap-5
137=0x1.8c1d58f9ca6ebp-3
138=-0x1.acb8671ebe446p-6
139=-0x1.2e55e83209f16p-3
140=0x1.79c92b0a1c73cp-3
141=-0x1.85b08c1a824abp-3
142=-0x1.e4d621b00195ap-4
143=0x1.3f1b7b430ebbap-2
144=-0x1.04d4822ac3799p-4
145=-0x1.791d5efb193d6p-4
146=0x1.45144a2688c0bp-3
147=-0x1.3618d971b7fdbp-4
148=-0x1.8a346f77305e6p-6
149=0x1.928df14661253p-4
150=0x1.238192c549746p-5
151=-0x1.8b541cebb63d7p-4
152=0x1.ceff544ed6f82p-5
153=-0x1.f07be3e33a0d6p-4
154=-0x1.802aa698e9c05p-6
155=0x1.23ecedc17c019p-3
156=0x1.17fe8e4b1d81fp-6
157=-0x1.47716fa69b6dap-4
158=0x1.d3b7bccbae067p-5
159=-0x1.093d8e1857488p-3
160=-0x1.d03eccfb9e754p-4
161=0x1.f7784e29c0fa8p-3
162=0x1.d56e1b9b33f04p-4
163=-0x1.244037a182367p-5
164=-0x1.84db4c1943ba3p-4
165=-0x1.23f23660918fcp-5
166=0x1.d20c7736489f6p-4
167=-0x1.8159dd8e861f3p-4
168=-0x1.0b93dd9a66d3ap-6
169=-0x1.74f2dbf524002p-6
170=0x1.58b0c3162f01cp-5
171=-0x1.663e3de585a3cp-9
172=0x1.9c8d61b732369p-6
173=-0x1.4116df64ebe73p-6
174=0x1.655432cf05f4cp-11
176=-0x1.dcd7c31ae50bp-13
177=-0x1.69513cca76bep-13
179=0x1.7719b135c3dbfp-9
180=0x1.1671138fd3a3p-13
183=-0x1.2b97b9e5432a8p-11
185=0x1.cd788903bfe44p-9
186=0x1.6de6dc10fd152p-5
187=-0x1.a6aeaf2e9ccffp-7
188=-0x1.378ee143260c4p-5
189=-0x1.a4d46e1ee094fp-7
190=0x1.719b6accb167cp-5
191=-0x1.3d8187297a2cp-5
197=0x1.65e4d92d0ef87p-10
204=0x1.5e0af72a5ae1p-14
210=-0x1.7b7942b6fd7bp-13
212=0x1.4f59b6d48b6adp-9
227=0x1.23435788ca031p-10
228=-0x1.312525f19de26p-8
229=-0x1.224260939983dp-8
230=0x1.8b106b0207d57p-7
231=-0x1.05b06dfcf8e02p-8
232=-0x1.0642d94102532p-9
233=0x1.1a900ec2f12fp-7
240=0x1.df8ac2d151c9ap-9
242=-0x1.504a1f838a85bp-9
243=-0x1.4a0bb1419a692p-9
244=-0x1.3ef4dfd8c42bap-10
245=0x1.b5ddaa0960eddp-8
257=0x1.47b9fe4590c5dp-10
270=0x1.5ead36691f52ep-8
272=-0x1.045142d847564p-8
275=0x1.6e4c31089e9f7p-9
276=-0x1.746e8371425eap-8
277=-0x1.65ecece0fb52dp-8
278=0x1.cee35162c539cp-7
282=0x1.99e0e582d4568p-13
329=0x1.9f3c8762cdfa4p-11
366=0x1.79989520b7c18p-12
369=-0x1.7b52ac68552cp-16
371=0x1.5e24eb2ba105p-9
