#mdl#2#2808
#rdr#18/10/0
1:b,
21:u:code-1LLL =%X[-3,0],
21:u:code-1LL  =%X[-2,0],
21:u:code-1L   =%X[-1,0],
20:u:code-1X   =%X[0,0],
20:u:code-1R   =%X[1,0],
20:u:code-1RR  =%X[2,0],
20:u:code-1RRR =%X[3,0],
13:*100:%x[ 0,1],
13:*100:%x[ 0,2],
13:*100:%x[ 0,3],
13:*100:%x[ 0,4],
13:*100:%x[ 0,5],
13:*100:%x[ 0,6],
13:*100:%x[ 0,7],
13:*100:%x[ 0,8],
13:*100:%x[ 0,9],
14:*100:%x[ 0,10],
#qrk#3
1:T,
1:I,
1:O,
#qrk#833
1:b,
17:u:code-1LLL =_x-3,
17:u:code-1LL  =_x-2,
17:u:code-1L   =_x-1,
17:u:code-1X   =2351,
17:u:code-1R   =2361,
15:u:code-1RR  =32,
17:u:code-1RRR =2319,
7:*100:Lo,
9:*100:23:T,
9:*100:12:T,
8:*100:1:T,
8:*100:4:T,
8:*100:6:T,
9:*100:25:T,
8:*100:2:F,
9:*100:19:F,
8:*100:5:F,
17:u:code-1LLL =_x-2,
17:u:code-1LL  =_x-1,
17:u:code-1L   =2351,
17:u:code-1X   =2361,
15:u:code-1R   =32,
17:u:code-1RR  =2319,
17:u:code-1RRR =2358,
9:*100:19:T,
9:*100:26:T,
9:*100:10:T,
8:*100:7:T,
9:*100:18:T,
9:*100:21:T,
9:*100:16:F,
9:*100:24:F,
17:u:code-1LLL =_x-1,
17:u:code-1LL  =2351,
17:u:code-1L   =2361,
15:u:code-1X   =32,
17:u:code-1R   =2319,
17:u:code-1RR  =2358,
17:u:code-1RRR =2367,
7:*100:Zs,
9:*100:11:F,
9:*100:21:F,
9:*100:18:F,
17:u:code-1LLL =2351,
17:u:code-1LL  =2361,
15:u:code-1L   =32,
17:u:code-1X   =2319,
17:u:code-1R   =2358,
17:u:code-1RR  =2367,
17:u:code-1RRR =2351,
9:*100:28:T,
8:*100:9:F,
9:*100:26:F,
9:*100:22:F,
9:*100:13:F,
17:u:code-1LLL =2361,
15:u:code-1LL  =32,
17:u:code-1L   =2319,
17:u:code-1X   =2358,
17:u:code-1R   =2367,
17:u:code-1RR  =2351,
17:u:code-1RRR =2366,
9:*100:22:T,
9:*100:13:T,
9:*100:27:T,
8:*100:9:T,
15:u:code-1LLL =32,
17:u:code-1LL  =2319,
17:u:code-1L   =2358,
17:u:code-1X   =2367,
17:u:code-1R   =2351,
17:u:code-1RR  =2366,
15:u:code-1RRR =32,
7:*100:Mc,
9:*100:27:F,
9:*100:28:F,
9:*100:12:F,
8:*100:0:F,
17:u:code-1LLL =2319,
17:u:code-1LL  =2358,
17:u:code-1L   =2367,
17:u:code-1R   =2366,
17:u:code-1RRR =2325,
9:*100:29:T,
9:*100:11:T,
9:*100:15:T,
8:*100:5:T,
9:*100:17:T,
9:*100:20:T,
17:u:code-1LLL =2358,
17:u:code-1LL  =2367,
17:u:code-1X   =2366,
17:u:code-1RR  =2325,
17:u:code-1RRR =2368,
9:*100:24:T,
17:u:code-1LLL =2367,
17:u:code-1L   =2366,
17:u:code-1R   =2325,
17:u:code-1RR  =2368,
9:*100:23:F,
8:*100:3:F,
17:u:code-1LL  =2366,
17:u:code-1X   =2325,
17:u:code-1R   =2368,
17:u:code-1RRR =2360,
17:u:code-1LLL =2366,
17:u:code-1L   =2325,
17:u:code-1X   =2368,
17:u:code-1RR  =2360,
17:u:code-1RRR =2348,
8:*100:1:F,
9:*100:10:F,
9:*100:29:F,
17:u:code-1LL  =2325,
17:u:code-1L   =2368,
17:u:code-1R   =2360,
17:u:code-1RR  =2348,
17:u:code-1LLL =2325,
17:u:code-1LL  =2368,
17:u:code-1X   =2360,
17:u:code-1R   =2348,
17:u:code-1RRR =2375,
17:u:code-1LLL =2368,
17:u:code-1L   =2360,
17:u:code-1X   =2348,
17:u:code-1RR  =2375,
8:*100:2:T,
8:*100:4:F,
17:u:code-1LL  =2360,
17:u:code-1L   =2348,
17:u:code-1R   =2375,
8:*100:0:T,
8:*100:7:F,
8:*100:6:F,
9:*100:25:F,
17:u:code-1LLL =2360,
17:u:code-1LL  =2348,
17:u:code-1X   =2375,
17:u:code-1RRR =2396,
7:*100:Mn,
9:*100:20:F,
17:u:code-1LLL =2348,
17:u:code-1L   =2375,
17:u:code-1RR  =2396,
8:*100:3:T,
17:u:code-1LL  =2375,
17:u:code-1R   =2396,
17:u:code-1LLL =2375,
17:u:code-1X   =2396,
17:u:code-1RRR =2350,
17:u:code-1L   =2396,
17:u:code-1RR  =2350,
8:*100:8:T,
17:u:code-1LL  =2396,
17:u:code-1R   =2350,
17:u:code-1RRR =2381,
17:u:code-1LLL =2396,
17:u:code-1X   =2350,
17:u:code-1RR  =2381,
17:u:code-1RRR =2332,
17:u:code-1L   =2350,
17:u:code-1R   =2381,
17:u:code-1RR  =2332,
9:*100:14:F,
17:u:code-1LL  =2350,
17:u:code-1X   =2381,
17:u:code-1R   =2332,
17:u:code-1RRR =2342,
17:u:code-1LLL =2350,
17:u:code-1L   =2381,
17:u:code-1X   =2332,
17:u:code-1RR  =2342,
17:u:code-1RRR =2379,
9:*100:14:T,
17:u:code-1LL  =2381,
17:u:code-1L   =2332,
17:u:code-1R   =2342,
17:u:code-1RR  =2379,
17:u:code-1RRR =2306,
17:u:code-1LLL =2381,
17:u:code-1LL  =2332,
17:u:code-1X   =2342,
17:u:code-1R   =2379,
17:u:code-1RR  =2306,
17:u:code-1LLL =2332,
17:u:code-1L   =2342,
17:u:code-1X   =2379,
17:u:code-1R   =2306,
8:*100:8:F,
17:u:code-1LL  =2342,
17:u:code-1L   =2379,
17:u:code-1X   =2306,
9:*100:17:F,
17:u:code-1LLL =2342,
17:u:code-1LL  =2379,
17:u:code-1L   =2306,
9:*100:16:T,
17:u:code-1LLL =2379,
17:u:code-1LL  =2306,
17:u:code-1LLL =2306,
9:*100:15:F,
17:u:code-1RRR =2361,
17:u:code-1RR  =2361,
17:u:code-1RRR =2376,
17:u:code-1RR  =2376,
17:u:code-1R   =2376,
17:u:code-1RRR =2404,
17:u:code-1X   =2376,
17:u:code-1RR  =2404,
17:u:code-1L   =2376,
17:u:code-1R   =2404,
17:u:code-1RRR =2311,
17:u:code-1LL  =2376,
17:u:code-1X   =2404,
17:u:code-1RR  =2311,
7:*100:Po,
17:u:code-1LLL =2376,
17:u:code-1L   =2404,
17:u:code-1R   =2311,
17:u:code-1LL  =2404,
17:u:code-1X   =2311,
17:u:code-1LLL =2404,
17:u:code-1L   =2311,
17:u:code-1RRR =2344,
17:u:code-1LL  =2311,
17:u:code-1RR  =2344,
17:u:code-1RRR =2357,
17:u:code-1LLL =2311,
17:u:code-1R   =2344,
17:u:code-1RR  =2357,
17:u:code-1X   =2344,
17:u:code-1R   =2357,
17:u:code-1L   =2344,
17:u:code-1X   =2357,
17:u:code-1LL  =2344,
17:u:code-1L   =2357,
17:u:code-1LLL =2344,
17:u:code-1LL  =2357,
17:u:code-1LLL =2357,
17:u:code-1RRR =2341,
17:u:code-1RR  =2341,
17:u:code-1R   =2341,
17:u:code-1X   =2341,
17:u:code-1L   =2341,
17:u:code-1LL  =2341,
17:u:code-1LLL =2341,
17:u:code-1RRR =2346,
17:u:code-1RR  =2346,
17:u:code-1R   =2346,
17:u:code-1RRR =2352,
17:u:code-1X   =2346,
17:u:code-1RR  =2352,
17:u:code-1L   =2346,
17:u:code-1R   =2352,
17:u:code-1LL  =2346,
17:u:code-1X   =2352,
17:u:code-1LLL =2346,
17:u:code-1L   =2352,
17:u:code-1LL  =2352,
17:u:code-1LLL =2352,
17:u:code-1RRR =2354,
17:u:code-1RR  =2354,
17:u:code-1R   =2354,
17:u:code-1X   =2354,
17:u:code-1L   =2354,
17:u:code-1LL  =2354,
17:u:code-1LLL =2354,
17:u:code-1RRR =2330,
17:u:code-1RR  =2330,
17:u:code-1R   =2330,
17:u:code-1X   =2330,
17:u:code-1L   =2330,
17:u:code-1LL  =2330,
17:u:code-1LLL =2330,
17:u:code-1RRR =2324,
17:u:code-1RR  =2324,
17:u:code-1R   =2324,
17:u:code-1X   =2324,
17:u:code-1L   =2324,
17:u:code-1RRR =2369,
17:u:code-1LL  =2324,
17:u:code-1RR  =2369,
17:u:code-1RRR =2326,
17:u:code-1LLL =2324,
17:u:code-1R   =2369,
17:u:code-1RR  =2326,
17:u:code-1X   =2369,
17:u:code-1R   =2326,
17:u:code-1L   =2369,
17:u:code-1X   =2326,
17:u:code-1LL  =2369,
17:u:code-1L   =2326,
17:u:code-1LLL =2369,
17:u:code-1LL  =2326,
17:u:code-1LLL =2326,
17:u:code-1RRR =2377,
17:u:code-1RR  =2377,
17:u:code-1R   =2377,
17:u:code-1X   =2377,
17:u:code-1L   =2377,
17:u:code-1LL  =2377,
17:u:code-1LLL =2377,
15:u:code-1RRR =57,
15:u:code-1RR  =57,
15:u:code-1R   =57,
15:u:code-1X   =57,
7:*100:Nd,
15:u:code-1L   =57,
15:u:code-1LL  =57,
15:u:code-1LLL =57,
17:u:code-1RRR =2370,
17:u:code-1RR  =2370,
17:u:code-1R   =2370,
17:u:code-1X   =2370,
17:u:code-1L   =2370,
17:u:code-1LL  =2370,
17:u:code-1LLL =2370,
17:u:code-1RRR =2340,
17:u:code-1RR  =2340,
17:u:code-1R   =2340,
17:u:code-1X   =2340,
17:u:code-1L   =2340,
17:u:code-1LL  =2340,
17:u:code-1LLL =2340,
17:u:code-1RRR =2305,
17:u:code-1RR  =2305,
17:u:code-1R   =2305,
17:u:code-1X   =2305,
17:u:code-1RRR =2327,
17:u:code-1L   =2305,
17:u:code-1RR  =2327,
17:u:code-1LL  =2305,
17:u:code-1R   =2327,
17:u:code-1LLL =2305,
17:u:code-1X   =2327,
17:u:code-1L   =2327,
17:u:code-1LL  =2327,
17:u:code-1LLL =2327,
17:u:code-1RRR =2310,
17:u:code-1RR  =2310,
17:u:code-1R   =2310,
17:u:code-1X   =2310,
17:u:code-1L   =2310,
17:u:code-1LL  =2310,
17:u:code-1LLL =2310,
17:u:code-1RRR =2380,
17:u:code-1RR  =2380,
17:u:code-1R   =2380,
17:u:code-1X   =2380,
17:u:code-1L   =2380,
17:u:code-1LL  =2380,
17:u:code-1LLL =2380,
17:u:code-1RRR =2333,
17:u:code-1RR  =2333,
17:u:code-1R   =2333,
17:u:code-1X   =2333,
17:u:code-1L   =2333,
17:u:code-1LL  =2333,
17:u:code-1LLL =2333,
17:u:code-1RRR =2349,
17:u:code-1RR  =2349,
17:u:code-1R   =2349,
17:u:code-1X   =2349,
17:u:code-1L   =2349,
17:u:code-1LL  =2349,
17:u:code-1LLL =2349,
17:u:code-1RRR =2309,
17:u:code-1RR  =2309,
17:u:code-1R   =2309,
17:u:code-1X   =2309,
17:u:code-1L   =2309,
17:u:code-1LL  =2309,
17:u:code-1LLL =2309,
17:u:code-1RRR =2336,
17:u:code-1RR  =2336,
17:u:code-1R   =2336,
17:u:code-1X   =2336,
17:u:code-1L   =2336,
17:u:code-1LL  =2336,
17:u:code-1RRR =2359,
17:u:code-1LLL =2336,
17:u:code-1RR  =2359,
17:u:code-1R   =2359,
17:u:code-1RRR =2335,
17:u:code-1X   =2359,
17:u:code-1RR  =2335,
17:u:code-1L   =2359,
17:u:code-1R   =2335,
17:u:code-1LL  =2359,
17:u:code-1X   =2335,
17:u:code-1LLL =2359,
17:u:code-1L   =2335,
17:u:code-1LL  =2335,
17:u:code-1LLL =2335,
17:u:code-1RRR =2371,
17:u:code-1RR  =2371,
17:u:code-1R   =2371,
17:u:code-1X   =2371,
17:u:code-1L   =2371,
17:u:code-1LL  =2371,
17:u:code-1LLL =2371,
17:u:code-1RRR =2337,
17:u:code-1RR  =2337,
17:u:code-1R   =2337,
17:u:code-1X   =2337,
17:u:code-1L   =2337,
17:u:code-1LL  =2337,
17:u:code-1LLL =2337,
17:u:code-1RRR =2347,
17:u:code-1RR  =2347,
17:u:code-1R   =2347,
17:u:code-1X   =2347,
17:u:code-1L   =2347,
17:u:code-1LL  =2347,
17:u:code-1LLL =2347,
15:u:code-1RRR =45,
15:u:code-1RR  =45,
15:u:code-1R   =45,
15:u:code-1X   =45,
7:*100:Pd,
15:u:code-1L   =45,
15:u:code-1LL  =45,
15:u:code-1LLL =45,
15:u:code-1RRR =44,
15:u:code-1RR  =44,
15:u:code-1R   =44,
15:u:code-1X   =44,
15:u:code-1L   =44,
15:u:code-1LL  =44,
15:u:code-1LLL =44,
17:u:code-1RRR =2328,
17:u:code-1RR  =2328,
17:u:code-1R   =2328,
17:u:code-1X   =2328,
17:u:code-1L   =2328,
17:u:code-1LL  =2328,
17:u:code-1LLL =2328,
17:u:code-1RRR =2321,
17:u:code-1RR  =2321,
17:u:code-1R   =2321,
17:u:code-1X   =2321,
17:u:code-1L   =2321,
17:u:code-1LL  =2321,
17:u:code-1LLL =2321,
17:u:code-1RRR =2323,
17:u:code-1RR  =2323,
17:u:code-1R   =2323,
17:u:code-1X   =2323,
17:u:code-1L   =2323,
17:u:code-1LL  =2323,
17:u:code-1LLL =2323,
15:u:code-1RRR =50,
15:u:code-1RR  =50,
15:u:code-1R   =50,
15:u:code-1X   =50,
15:u:code-1L   =50,
15:u:code-1LL  =50,
15:u:code-1LLL =50,
15:u:code-1RRR =56,
15:u:code-1RR  =56,
15:u:code-1R   =56,
15:u:code-1X   =56,
15:u:code-1L   =56,
15:u:code-1LL  =56,
15:u:code-1LLL =56,
15:u:code-1RRR =48,
15:u:code-1RR  =48,
15:u:code-1R   =48,
15:u:code-1X   =48,
15:u:code-1L   =48,
15:u:code-1LL  =48,
15:u:code-1LLL =48,
17:u:code-1RRR =2343,
17:u:code-1RR  =2343,
17:u:code-1R   =2343,
17:u:code-1X   =2343,
17:u:code-1L   =2343,
17:u:code-1LL  =2343,
17:u:code-1LLL =2343,
17:u:code-1RRR =2331,
17:u:code-1RR  =2331,
17:u:code-1R   =2331,
17:u:code-1X   =2331,
17:u:code-1L   =2331,
17:u:code-1LL  =2331,
17:u:code-1LLL =2331,
15:u:code-1RRR =53,
15:u:code-1RR  =53,
15:u:code-1R   =53,
15:u:code-1X   =53,
15:u:code-1L   =53,
15:u:code-1LL  =53,
15:u:code-1LLL =53,
17:u:code-1RRR =2313,
17:u:code-1RR  =2313,
17:u:code-1R   =2313,
17:u:code-1X   =2313,
17:u:code-1L   =2313,
17:u:code-1LL  =2313,
17:u:code-1LLL =2313,
15:u:code-1RRR =52,
15:u:code-1RR  =52,
15:u:code-1R   =52,
15:u:code-1X   =52,
15:u:code-1L   =52,
15:u:code-1LL  =52,
15:u:code-1LLL =52,
17:u:code-1RRR =2339,
17:u:code-1RR  =2339,
17:u:code-1R   =2339,
17:u:code-1X   =2339,
17:u:code-1L   =2339,
17:u:code-1LL  =2339,
17:u:code-1LLL =2339,
15:u:code-1RRR =55,
15:u:code-1RR  =55,
15:u:code-1R   =55,
15:u:code-1X   =55,
15:u:code-1L   =55,
15:u:code-1LL  =55,
15:u:code-1RRR =49,
15:u:code-1LLL =55,
15:u:code-1RR  =49,
15:u:code-1R   =49,
15:u:code-1X   =49,
15:u:code-1L   =49,
15:u:code-1LL  =49,
15:u:code-1LLL =49,
15:u:code-1RRR =51,
15:u:code-1RR  =51,
15:u:code-1R   =51,
15:u:code-1X   =51,
15:u:code-1L   =51,
15:u:code-1LL  =51,
15:u:code-1LLL =51,
17:u:code-1RRR =2334,
17:u:code-1RR  =2334,
17:u:code-1R   =2334,
17:u:code-1X   =2334,
17:u:code-1L   =2334,
17:u:code-1LL  =2334,
17:u:code-1LLL =2334,
15:u:code-1RRR =46,
15:u:code-1RR  =46,
15:u:code-1R   =46,
15:u:code-1X   =46,
15:u:code-1L   =46,
15:u:code-1LL  =46,
15:u:code-1LLL =46,
15:u:code-1RRR =54,
15:u:code-1RR  =54,
15:u:code-1R   =54,
15:u:code-1X   =54,
15:u:code-1L   =54,
15:u:code-1LL  =54,
15:u:code-1LLL =54,
17:u:code-1RRR =2397,
17:u:code-1RR  =2397,
17:u:code-1R   =2397,
17:u:code-1RRR =2312,
17:u:code-1X   =2397,
17:u:code-1RR  =2312,
17:u:code-1L   =2397,
17:u:code-1R   =2312,
17:u:code-1LL  =2397,
17:u:code-1X   =2312,
17:u:code-1LLL =2397,
17:u:code-1L   =2312,
17:u:code-1LL  =2312,
17:u:code-1LLL =2312,
15:u:code-1RRR =63,
15:u:code-1RR  =63,
15:u:code-1R   =63,
15:u:code-1X   =63,
15:u:code-1L   =63,
15:u:code-1LL  =63,
15:u:code-1LLL =63,
17:u:code-1RRR =2307,
17:u:code-1RR  =2307,
17:u:code-1R   =2307,
17:u:code-1X   =2307,
17:u:code-1L   =2307,
17:u:code-1LL  =2307,
17:u:code-1LLL =2307,
17:u:code-1RRR =2314,
17:u:code-1RR  =2314,
17:u:code-1R   =2314,
17:u:code-1X   =2314,
17:u:code-1L   =2314,
17:u:code-1LL  =2314,
17:u:code-1LLL =2314,
15:u:code-1RRR =40,
15:u:code-1RR  =40,
15:u:code-1R   =40,
15:u:code-1X   =40,
7:*100:Ps,
15:u:code-1L   =40,
15:u:code-1LL  =40,
15:u:code-1LLL =40,
15:u:code-1RRR =41,
15:u:code-1RR  =41,
15:u:code-1R   =41,
15:u:code-1X   =41,
7:*100:Pe,
15:u:code-1L   =41,
15:u:code-1LL  =41,
15:u:code-1LLL =41,
17:u:code-1RRR =2395,
17:u:code-1RR  =2395,
17:u:code-1R   =2395,
17:u:code-1X   =2395,
17:u:code-1L   =2395,
17:u:code-1LL  =2395,
17:u:code-1LLL =2395,
17:u:code-1RRR =2338,
17:u:code-1RR  =2338,
17:u:code-1R   =2338,
17:u:code-1X   =2338,
17:u:code-1L   =2338,
17:u:code-1LL  =2338,
17:u:code-1LLL =2338,
17:u:code-1RRR =2320,
17:u:code-1RR  =2320,
17:u:code-1R   =2320,
17:u:code-1X   =2320,
17:u:code-1L   =2320,
17:u:code-1LL  =2320,
17:u:code-1LLL =2320,
17:u:code-1RRR =2364,
17:u:code-1RR  =2364,
17:u:code-1R   =2364,
17:u:code-1X   =2364,
17:u:code-1L   =2364,
17:u:code-1LL  =2364,
17:u:code-1LLL =2364,
15:u:code-1RRR =39,
15:u:code-1RR  =39,
15:u:code-1R   =39,
15:u:code-1X   =39,
15:u:code-1L   =39,
15:u:code-1LL  =39,
15:u:code-1LLL =39,
17:u:code-1RRR =8205,
17:u:code-1RR  =8205,
17:u:code-1R   =8205,
17:u:code-1X   =8205,
7:*100:Cf,
17:u:code-1L   =8205,
17:u:code-1LL  =8205,
17:u:code-1LLL =8205,
17:u:code-1RRR =2353,
17:u:code-1RR  =2353,
17:u:code-1R   =2353,
17:u:code-1X   =2353,
17:u:code-1L   =2353,
17:u:code-1LL  =2353,
17:u:code-1LLL =2353,
17:u:code-1RRR =2315,
17:u:code-1RR  =2315,
17:u:code-1R   =2315,
17:u:code-1X   =2315,
17:u:code-1L   =2315,
17:u:code-1LL  =2315,
17:u:code-1LLL =2315,
17:u:code-1RRR =2409,
17:u:code-1RR  =2409,
17:u:code-1RRR =2412,
17:u:code-1R   =2409,
17:u:code-1RR  =2412,
17:u:code-1X   =2409,
17:u:code-1R   =2412,
17:u:code-1L   =2409,
17:u:code-1X   =2412,
17:u:code-1LL  =2409,
17:u:code-1L   =2412,
17:u:code-1LLL =2409,
17:u:code-1LL  =2412,
17:u:code-1LLL =2412,
17:u:code-1RRR =2406,
17:u:code-1RR  =2406,
17:u:code-1R   =2406,
17:u:code-1X   =2406,
17:u:code-1L   =2406,
17:u:code-1LL  =2406,
17:u:code-1LLL =2406,
17:u:code-1RRR =2408,
17:u:code-1RR  =2408,
17:u:code-1RRR =2414,
17:u:code-1R   =2408,
17:u:code-1RR  =2414,
17:u:code-1X   =2408,
17:u:code-1R   =2414,
17:u:code-1L   =2408,
17:u:code-1X   =2414,
17:u:code-1LL  =2408,
17:u:code-1L   =2414,
17:u:code-1LLL =2408,
17:u:code-1LL  =2414,
17:u:code-1LLL =2414,
17:u:code-1RRR =2407,
17:u:code-1RR  =2407,
17:u:code-1R   =2407,
17:u:code-1X   =2407,
17:u:code-1L   =2407,
17:u:code-1LL  =2407,
17:u:code-1LLL =2407,
17:u:code-1RRR =2411,
17:u:code-1RR  =2411,
17:u:code-1R   =2411,
17:u:code-1X   =2411,
17:u:code-1L   =2411,
17:u:code-1LL  =2411,
17:u:code-1LLL =2411,
17:u:code-1RRR =2410,
17:u:code-1RR  =2410,
17:u:code-1R   =2410,
17:u:code-1X   =2410,
17:u:code-1L   =2410,
17:u:code-1LL  =2410,
17:u:code-1LLL =2410,
17:u:code-1RRR =2373,
17:u:code-1RR  =2373,
17:u:code-1R   =2373,
17:u:code-1X   =2373,
17:u:code-1L   =2373,
17:u:code-1LL  =2373,
17:u:code-1LLL =2373,
17:u:code-1RRR =2415,
17:u:code-1RR  =2415,
17:u:code-1R   =2415,
17:u:code-1X   =2415,
17:u:code-1L   =2415,
17:u:code-1LL  =2415,
17:u:code-1LLL =2415,
17:u:code-1RRR =2413,
17:u:code-1RR  =2413,
17:u:code-1R   =2413,
17:u:code-1X   =2413,
17:u:code-1L   =2413,
17:u:code-1LL  =2413,
17:u:code-1LLL =2413,
15:u:code-1RRR =74,
15:u:code-1RR  =74,
15:u:code-1RRR =79,
15:u:code-1R   =74,
15:u:code-1RR  =79,
15:u:code-1RRR =73,
15:u:code-1X   =74,
15:u:code-1R   =79,
15:u:code-1RR  =73,
15:u:code-1RRR =78,
7:*100:Lu,
15:u:code-1L   =74,
15:u:code-1X   =79,
15:u:code-1R   =73,
15:u:code-1RR  =78,
15:u:code-1LL  =74,
15:u:code-1L   =79,
15:u:code-1X   =73,
15:u:code-1R   =78,
15:u:code-1LLL =74,
15:u:code-1LL  =79,
15:u:code-1L   =73,
15:u:code-1X   =78,
15:u:code-1LLL =79,
15:u:code-1LL  =73,
15:u:code-1L   =78,
15:u:code-1LLL =73,
15:u:code-1LL  =78,
15:u:code-1LLL =78,
15:u:code-1RRR =33,
15:u:code-1RR  =33,
15:u:code-1R   =33,
15:u:code-1X   =33,
15:u:code-1L   =33,
15:u:code-1LL  =33,
15:u:code-1LLL =33,
15:u:code-1RRR =58,
15:u:code-1RR  =58,
15:u:code-1R   =58,
15:u:code-1X   =58,
15:u:code-1L   =58,
15:u:code-1LL  =58,
15:u:code-1LLL =58,
15:u:code-1RRR =47,
15:u:code-1RR  =47,
15:u:code-1R   =47,
15:u:code-1X   =47,
15:u:code-1L   =47,
15:u:code-1LL  =47,
15:u:code-1LLL =47,
17:u:code-1RRR =2398,
17:u:code-1RR  =2398,
17:u:code-1R   =2398,
17:u:code-1X   =2398,
17:u:code-1L   =2398,
17:u:code-1LL  =2398,
17:u:code-1LLL =2398,
17:u:code-1RRR =2393,
17:u:code-1RR  =2393,
17:u:code-1R   =2393,
17:u:code-1X   =2393,
17:u:code-1L   =2393,
17:u:code-1LL  =2393,
17:u:code-1LLL =2393,
17:u:code-1RRR =2392,
17:u:code-1RR  =2392,
17:u:code-1R   =2392,
17:u:code-1X   =2392,
17:u:code-1L   =2392,
17:u:code-1LL  =2392,
17:u:code-1LLL =2392,
17:u:code-1RRR =2394,
17:u:code-1RR  =2394,
17:u:code-1R   =2394,
17:u:code-1X   =2394,
17:u:code-1L   =2394,
17:u:code-1LL  =2394,
17:u:code-1LLL =2394,
15:u:code-1RRR =34,
15:u:code-1RR  =34,
15:u:code-1R   =34,
15:u:code-1X   =34,
15:u:code-1L   =34,
15:u:code-1LL  =34,
15:u:code-1LLL =34,
17:u:code-1RRR =_x+1,
17:u:code-1RR  =_x+1,
17:u:code-1RRR =_x+2,
17:u:code-1R   =_x+1,
17:u:code-1RR  =_x+2,
17:u:code-1RRR =_x+3,
0=-0x1.82329d595670dp-3
1=0x1.28ea320b98fb4p-3
2=-0x1.92b5d60ed7e1dp-4
3=-0x1.1e98d6b7063a7p-2
4=0x1.9c6b470f59faep-2
5=0x1.7295d756d0c62p-4
6=0x1.2f230c7f13adep-2
7=-0x1.475d01256f9b8p-2
8=-0x1.77e0018bd239ap-3
9=0x1.4b1762b9a150fp-17
10=-0x1.3b276e033fc7ap-17
12=0x1.4b1762b9a150fp-17
13=-0x1.3b276e033fc7ap-17
15=0x1.4b1762b9a150fp-17
16=-0x1.3b276e033fc7ap-17
18=-0x1.58a61d125422ap-7
19=0x1.6f1249563ac78p-6
20=-0x1.88841eb62a796p-7
21=0x1.9342cbc796a71p-8
22=-0x1.7c841cded627p-6
23=0x1.01783fadb3a3cp-6
24=-0x1.0bf9e27b78937p-5
25=0x1.afd8eca093593p-4
26=-0x1.84dd7b20d7413p-4
27=-0x1.4aa44208539d7p-10
28=-0x1.74b816b190bcp-11
29=0x1.bd3ada88db314p-9
30=0x1.fe87f739a1118p-5
31=0x1.ba11c2643ff5cp-3
32=-0x1.294f355ec2489p-2
33=-0x1.6de6ac48e7f0bp-4
34=0x1.01402654a4fe1p-6
35=-0x1.39967145f4a81p-4
36=-0x1.dc3d397d7bdf6p-3
37=0x1.6e66d32e3ab44p-2
38=-0x1.96af851d92636p-3
39=0x1.5ec36e299f3ddp-2
40=-0x1.66e98b5a23976p-3
41=-0x1.3b38d7653825cp-4
42=-0x1.8d60aa15f6687p-4
43=0x1.f894d5d69a758p-4
44=-0x1.96f4a02d76d24p-6
45=-0x1.1947502235774p-5
46=0x1.159f8f09a8648p-4
47=0x1.81ba30feafbcfp-8
48=-0x1.2d1a6d446fd3dp-5
49=0x1.654dd244246aep-4
50=-0x1.88b246edc0abfp-8
51=-0x1.e05f4a8cf3c79p-6
52=-0x1.83192f2eeeffcp-5
53=-0x1.c15374f90944p-6
54=-0x1.0b0bf1412c3e5p-3
55=0x1.9083461f64fd4p-3
56=-0x1.103cc79fc0bd6p-4
57=-0x1.190f524c5322bp-4
58=0x1.d1c8790e6e5d5p-3
59=-0x1.9428779257c04p-5
60=-0x1.3f72ba6f6d7a2p-5
61=0x1.3a53b775e5568p-6
63=-0x1.13dd0dd8424b6p-5
64=-0x1.a1a2f33662674p-5
65=-0x1.f5e420cccf63fp-6
66=-0x1.6519b00ad1488p-4
67=0x1.3deba98401dc3p-4
68=-0x1.16099ab97b06dp-7
69=-0x1.1c7b2d3d39a88p-5
70=0x1.5c92d47ecb22p-5
71=-0x1.a5486d75228b7p-6
72=-0x1.1472221c51475p-5
73=0x1.3a276e49eb37cp-4
74=0x1.f0ce7bbbbc567p-5
75=-0x1.a42fe460d4218p-6
76=-0x1.5832ff3fe5572p-5
77=-0x1.df49531be1606p-6
78=-0x1.262a50cc49314p-4
79=0x1.21a04df478982p-3
80=-0x1.1e746692523f9p-4
81=-0x1.1559fd6891a9fp-5
82=0x1.a5bb7db10847p-3
83=-0x1.19efdacfcb85p-5
84=-0x1.9a8ff984d0cabp-6
86=-0x1.badd3ea27412cp-6
87=-0x1.508f7560012cbp-6
88=-0x1.b4801f4837633p-6
89=-0x1.3b8ca5d088b1ep-6
90=-0x1.392c425c85d01p-4
91=0x1.e5382c7bf402cp-4
92=-0x1.610acfeef02dbp-5
93=-0x1.a34088f35c33fp-5
94=0x1.8bd7922b940dcp-3
95=-0x1.fda79033f1b48p-8
96=-0x1.43ef3f6b6c3b7p-6
97=-0x1.8440f782bf21cp-7
98=-0x1.b6073b2492ebep-6
99=-0x1.0d15416d28448p-6
100=-0x1.645263a31b201p-6
101=-0x1.03bdee08ead76p-6
102=-0x1.aa01a30a71fadp-5
103=0x1.0cbc30f6b2c1ep-6
104=0x1.158f1d92f61efp-5
105=-0x1.f7a48f02caea8p-7
106=0x1.e6e502c232ef1p-7
107=-0x1.0bfd39b09984ep-6
108=-0x1.a605a9f270a77p-6
109=0x1.36e7f4e7cf15dp-6
110=0x1.0dd9bde169defp-4
111=-0x1.e854b82a8824bp-7
112=-0x1.2bc013c4609d4p-6
113=-0x1.03fa48459c24ap-6
114=0x1.57c58042c81cp-7
115=0x1.d1007924607a8p-6
116=-0x1.15b0e3e08e84bp-5
117=-0x1.7d3ae8ac66a66p-5
118=0x1.66a63480b60a6p-4
119=-0x1.4ef71613397e4p-5
120=-0x1.ce49544b5643cp-5
122=0x1.f4c2fe097dc29p-6
123=0x1.24ddd421f579fp-3
124=-0x1.b9c2f1a4d26f4p-5
125=-0x1.115d84dc26bfbp-5
126=0x1.499dc9b94f0a4p-5
128=-0x1.e5263e9ffd5e2p-6
129=-0x1.d8a0c6594f1dep-6
130=0x1.76dab6ae82629p-6
131=-0x1.7062adeca1914p-6
132=-0x1.446ba3c07f8b7p-5
133=0x1.3c1f31d3af066p-6
134=0x1.e552b0d235418p-9
135=0x1.a388d629c34f7p-4
136=-0x1.950b8bf562decp-5
137=-0x1.cdb76f9ea25f5p-6
138=0x1.6cb8d2cf8e592p-3
139=-0x1.db5de14835584p-14
140=-0x1.17250ecfc7948p-4
141=-0x1.2f570f19ba8f4p-4
142=0x1.e696196e84469p-7
143=-0x1.673cc091e4fccp-6
144=-0x1.0fe0bd034c7b1p-3
145=0x1.b8fabee558204p-8
146=0x1.2e9e01eec68b9p-7
147=0x1.a615f5edd38b2p-2
148=-0x1.dbdb1adb9237ap-4
149=-0x1.11b4fc1c0bee7p-4
156=-0x1.4bcebd52a9d8cp-7
157=0x1.d498aec8bb372p-7
158=-0x1.761eced4934ebp-9
159=0x1.1465cf75db439p-7
160=0x1.3711678c643c2p-8
161=-0x1.e8dca18414e1ep-7
163=0x1.96231d4da5f09p-3
164=-0x1.46e26d9f1ea06p-3
165=0x1.584176657237cp-8
166=-0x1.2f5c09fe72634p-9
167=-0x1.50b73a36e0f7p-9
168=-0x1.ec8fd159b5df4p-11
169=0x1.3ca6dc166ebb7p-10
170=-0x1.b0f448846b5dp-13
171=-0x1.519436f138df5p-4
172=0x1.ca6b84441cf0cp-4
173=-0x1.c03ca3ed92761p-6
174=-0x1.938204b61a362p-6
175=0x1.74cc855fae437p-5
176=-0x1.6874983714d3ap-6
177=-0x1.28662986cca2fp-5
178=0x1.9868cabf67038p-4
179=0x1.37a084229a642p-7
180=-0x1.812416b1acff2p-6
181=-0x1.565a96063f7c6p-5
182=-0x1.6030a209d0066p-6
183=-0x1.755a14575da0fp-4
184=0x1.815e1909b22ddp-5
185=0x1.14af70e1adbddp-5
186=-0x1.a831ba6608676p-6
187=-0x1.d1b5e34cb9d0bp-5
189=-0x1.3fb0920e32316p-6
190=0x1.0cd1f2fe8f283p-3
191=0x1.025f398956145p-4
192=-0x1.2cbfd8732515ep-5
193=-0x1.bbae9d71ad977p-5
194=-0x1.737cfa5b27623p-5
195=-0x1.9d2bb5b7572dep-4
196=0x1.52eb096c6580bp-4
197=-0x1.66b6e96515e3ap-8
198=-0x1.bf9a0a40e3798p-6
199=-0x1.bb669945e734p-5
200=0x1.2e743ee2c6cd2p-6
201=-0x1.517a401c06929p-5
202=0x1.9f73d49ea1875p-3
203=0x1.ec359e86c0f3dp-7
204=-0x1.1ffded310d8f8p-5
205=-0x1.ceed5046bd6f5p-5
206=-0x1.59e8ac6e2d0bp-5
207=-0x1.d242b284c5ff3p-3
208=0x1.e8b0e817d2fe2p-4
209=0x1.3b2b902c91dcp-4
210=-0x1.0e1dbfaff5716p-4
211=-0x1.2d099418d15a8p-3
212=0x1.a7bf5215103a1p-6
213=-0x1.bcc921c6d26d4p-5
214=0x1.444843795beaep-2
215=0x1.1abbfb9db5e74p-3
216=-0x1.4235d11e5cbd6p-4
217=-0x1.f53ef03bc18d1p-4
218=-0x1.ac0f8ee7e6c3p-4
219=0x1.30564a15b9a61p-7
220=0x1.29fa345460308p-7
221=-0x1.1ac21a4fbd7e4p-7
222=-0x1.3da8bab059275p-6
223=0x1.68fd1bc188454p-9
225=-0x1.d65d5cd2aea1p-6
226=0x1.22968ffe34825p-5
227=0x1.ebe4bc80a0f98p-7
228=0x1.0136abe03afe3p-4
229=-0x1.4b1cb5d49e76p-5
230=-0x1.e98800eaf1d11p-6
231=-0x1.d86c993368558p-5
232=0x1.a707fcbdccdc4p-4
233=-0x1.758a0bd33ef35p-5
234=-0x1.fb229a0228a8cp-7
235=-0x1.1c33bd3332bap-12
236=-0x1.01118aeafc977p-6
237=-0x1.e4a09110adc27p-6
238=0x1.1fd593e9f0ad7p-3
239=-0x1.8d989c97349dap-7
240=-0x1.0642ce37f25bp-6
241=-0x1.e4640c9e8817ap-6
242=-0x1.da08477813dbap-7
243=-0x1.5adc2609190f6p-8
244=0x1.2797d6ed5b9fp-5
245=-0x1.1cacf745466b2p-5
246=-0x1.7e2b53d5b50fp-6
247=0x1.2b9ff06944674p-5
248=-0x1.e659ce9d618f9p-7
249=-0x1.e1f944ff7d501p-6
250=0x1.00ccd4bf0e4afp-5
251=-0x1.539741d6cb539p-7
252=0x1.5631977aba974p-5
253=-0x1.e6c5d60a65265p-6
254=-0x1.f724e83a779afp-7
255=0x1.2a46254c3c041p-4
256=0x1.f62d88469570dp-10
257=-0x1.00bd54cecefdcp-4
258=-0x1.40da1e3e6f2f1p-5
259=0x1.9471c45e3d603p-6
260=-0x1.f0687f985cbe5p-6
261=-0x1.2ad01859b8129p-4
262=0x1.afa27fed7af84p-7
263=-0x1.8370a95748429p-8
264=0x1.873d8c50709d1p-3
265=-0x1.f407b4523662cp-5
266=-0x1.fcfadec6435ap-6
270=0x1.eb0de131d4cd6p-9
271=-0x1.14ab917e0b0e8p-7
272=0x1.4a8933bd68408p-8
273=-0x1.f63faee26e5aap-7
274=0x1.9bffa393ffb6p-6
275=-0x1.478888e61c061p-7
276=-0x1.c772c5248e914p-4
277=-0x1.733d9349b550ep-2
278=0x1.c0ad461adf093p-2
279=-0x1.b184fc8e23c33p-9
280=0x1.14cf789c5883ep-9
281=0x1.17cdac2f24292p-14
282=-0x1.2aa63131b5c71p-13
283=0x1.5fc00dc18a10dp-9
284=-0x1.841f21cad32e7p-9
286=0x1.846bd793b7273p-7
287=-0x1.c51e5f97ae106p-7
288=-0x1.c772c5248e914p-4
289=-0x1.733d9349b550ep-2
290=0x1.c0ad461adf093p-2
291=-0x1.0c4be7107038p-5
292=-0x1.7a15dc7898cc1p-5
293=0x1.17413f28aedp-4
294=-0x1.76049392aa0b1p-5
295=-0x1.2c820767a65f3p-2
296=0x1.ed1a07b0498d7p-2
297=-0x1.1a6d7e4397614p-5
298=-0x1.3a16d5a502756p-5
299=-0x1.de486069fc0e5p-4
300=-0x1.80e6be66292f3p-6
301=0x1.71a1f6028a2p-5
302=-0x1.9df267de3d323p-6
303=-0x1.682b555364211p-6
304=-0x1.a2b7050614e56p-5
305=-0x1.652d40fe965f6p-6
306=-0x1.55594d8d4e26cp-5
307=0x1.31ecb905b08a2p-3
308=0x1.9204978853a5p-6
309=0x1.12d3329b3355p-5
310=-0x1.b86602d27137ap-5
311=-0x1.d13eb1a054126p-6
312=-0x1.bbb3172010bdep-5
313=0x1.bc9db60c24853p-5
314=-0x1.d0d6848507915p-7
315=-0x1.3f0d6997a446fp-6
316=0x1.0f9c7b504719p-7
317=-0x1.8e72ddee65a4dp-6
318=-0x1.be01483f5f8a9p-6
319=0x1.4e3d33ebb1e3cp-4
320=0x1.2b158c42e9e04p-5
321=-0x1.e27b79ef95102p-8
322=-0x1.1ab7dbfe86151p-5
323=-0x1.640f8867166e2p-6
324=0x1.97c5d60d09d95p-3
325=-0x1.dd01277d1e82p-4
326=-0x1.5c9d57d18b9acp-4
327=-0x1.612dc93ab2dacp-5
328=-0x1.14291a42bc638p-5
330=-0x1.b1d3125e025fep-4
331=-0x1.c50942d930adp-10
332=-0x1.90959442801dcp-5
333=0x1.7927fdbe1d3a8p-2
334=-0x1.37ad33bfa5ef5p-4
335=-0x1.4470bba6ce173p-5
336=0x1.540315dbc9a92p-8
338=-0x1.82ab995a72d3fp-9
339=0x1.78f77c8910e18p-8
340=-0x1.59797ce126faep-7
341=0x1.85549f0ec5fdp-8
342=0x1.88ca8d8b0de71p-2
343=-0x1.490ece38a74e3p-2
344=-0x1.b470ed3582001p-4
345=0x1.979335b2f7ac2p-10
346=0x1.bfd0797440b4p-9
347=-0x1.9a55ec17f3ca1p-8
348=-0x1.9e35698cbca0dp-9
349=0x1.6dd10a9c32942p-9
350=-0x1.6d896505cf2d1p-13
351=-0x1.9bc1b9c8a7cc5p-7
353=0x1.235dc92d28c1ep-6
354=-0x1.5e72bb205588fp-9
355=0x1.a2fb8485c465cp-9
356=-0x1.3cba217074d8ep-12
357=0x1.04dc57be6bddep-2
358=-0x1.32d24dfc7ad95p-3
359=-0x1.d0da23cf6cbdep-4
360=-0x1.b05d9a215a0c4p-5
361=-0x1.08b42c3691705p-4
362=-0x1.7f1d94e1fb8f6p-5
363=-0x1.45c0e8f367d3dp-3
364=0x1.005ef3b6d227ap-9
365=-0x1.54f680af770ddp-6
366=0x1.f622d44ed2ba9p-2
367=-0x1.a03d27c7525adp-4
368=-0x1.957e90bbfcce3p-5
369=0x1.eedcb34b2253ap-3
370=-0x1.60c2553164f3bp-3
371=-0x1.877d1b0f9868ap-4
372=-0x1.77380c9753655p-5
373=-0x1.b6fe1d4bcc1aap-5
374=-0x1.0a62fbe5f66b5p-5
375=-0x1.1db6b37de8ca4p-3
376=-0x1.fe6c28f2255bap-10
377=-0x1.03ffc66f7dfcbp-7
378=0x1.cb0f70540d46dp-2
379=-0x1.771356d08c6abp-4
380=-0x1.84788f70e6f74p-5
381=0x1.6e695cab351dfp-4
382=-0x1.8f0c77cf0ab23p-8
383=-0x1.d0dd91e46ff98p-6
384=-0x1.8cbdd8487dc2fp-5
385=-0x1.a4f3c8c29e3d3p-4
386=-0x1.922bbe6ad236ep-7
387=-0x1.7a24cfb347b57p-4
388=0x1.ac5b9b69b47afp-4
389=0x1.28817482c3dfcp-5
390=0x1.af085099e8ee1p-3
391=-0x1.7ef8d600f2809p-4
392=-0x1.c5194aa703ac3p-5
393=0x1.824d29235cd8fp-3
394=-0x1.c97d54a8f115dp-4
395=-0x1.42f3133b0f481p-4
396=-0x1.9094ec937efb3p-5
397=0x1.48c994aeadcb6p-6
398=-0x1.529c39d540db9p-5
399=-0x1.c1b1126608c85p-4
400=-0x1.d94a70c68eaafp-9
401=0x1.1d946552e43c3p-8
402=0x1.7d73ddf290309p-2
403=-0x1.52b9557a93d0dp-4
404=-0x1.6e3a70dc1f00dp-5
405=0x1.218f4c5569806p-3
407=-0x1.cd3453c1f9927p-5
408=-0x1.c1fdf04f2b598p-5
409=0x1.92eeadf3de2cbp-7
410=-0x1.2cadd3bdf6c07p-6
411=-0x1.cffe41f00115fp-4
412=0x1.ac44eb6d3945p-9
413=-0x1.47bd3019ed744p-8
414=0x1.4d2e318b821bp-2
415=-0x1.709b03fb418ebp-4
416=-0x1.8cd1a27449515p-5
417=0x1.31504faf1a5b9p-6
418=-0x1.6829b93c2a4c2p-6
419=-0x1.d55c2fdedb7b6p-13
420=-0x1.29777a7403569p-3
421=0x1.d03cd72c645c6p-3
422=-0x1.76f230edb1eccp-4
423=-0x1.9f0ce67724f11p-8
424=0x1.f7d37910c4306p-10
425=0x1.d7af0275909bep-9
426=-0x1.377441d444445p-10
427=0x1.4b4e110202568p-8
428=-0x1.338b98e0cbb12p-8
429=0x1.c744ce1332fd4p-7
430=0x1.906fd020fc1bap-8
431=-0x1.3d32bcce03b79p-6
432=-0x1.10a7bacf93286p-9
433=0x1.004ac4b580344p-7
434=-0x1.ccbbfcb3efa58p-8
436=0x1.2201c5259c9efp-6
437=-0x1.b8aab6dad562cp-7
438=-0x1.0e40c8ef44ec2p-4
439=0x1.cc93c7c5157dap-7
440=0x1.a25c933a60eaep-5
441=-0x1.6bf3a567bc439p-6
442=0x1.788fe2db4f23p-12
443=0x1.8b1056aa644ccp-4
444=-0x1.d6ac09d5f456p-6
445=0x1.6e784ada1df9ep-5
447=-0x1.1764aebc27c1ep-6
448=-0x1.153919d723e45p-5
449=-0x1.3691f05617f3fp-5
450=0x1.9762d6ada6f34p-5
451=-0x1.43b1ba0d2d422p-5
452=-0x1.2bf8c31a6c8afp-7
453=-0x1.8b684a71fc8c9p-6
454=-0x1.0239271392c6cp-9
455=0x1.39ccfc012f5ccp-4
456=-0x1.7b5e573b0514ep-5
457=0x1.cf12c06d24adcp-8
458=-0x1.821032887fd16p-7
459=0x1.fe1450d7509a7p-4
460=-0x1.7b89a7ce28b16p-5
461=-0x1.007c6ef4c8479p-5
462=-0x1.05707b35b5313p-4
463=0x1.bfd8bafbe1594p-5
464=-0x1.d673c7e27fb2bp-7
465=-0x1.40e7fe9136b93p-6
466=-0x1.9b2406872e63ep-10
467=-0x1.a20cc7553c8dcp-6
468=-0x1.9b429ba488d42p-7
469=0x1.ac3473a624bc7p-4
470=0x1.2d88c31824452p-5
471=-0x1.5f03cb6bdc1a3p-6
472=-0x1.1e3aa359560f7p-5
473=-0x1.5d3ea4e80b2dbp-6
474=-0x1.c3bbce166ed3ap-4
475=0x1.60002b5095861p-4
476=-0x1.76e212f9f6391p-8
477=-0x1.6e42140d0098dp-5
478=-0x1.5a8746e6a869fp-6
479=-0x1.aeb104cc86b02p-5
480=-0x1.fdde95d8b7b1ap-6
481=0x1.4b94e9882bac6p-3
482=0x1.0346dad91be78p-3
483=-0x1.5b693d9beec93p-6
484=-0x1.79acd9384788p-4
485=-0x1.14d70d078816p-4
486=-0x1.850e737a9fa74p-4
487=0x1.3d08e05e9a5f9p-4
488=-0x1.36a556b1f3ed2p-7
489=0x1.c88ceaecfdda6p-8
490=-0x1.69d319c878464p-8
491=-0x1.c3e327ee0e428p-11
492=-0x1.01040b7277b53p-8
493=0x1.4d3c829251c31p-8
494=-0x1.c718f1f99419bp-10
495=-0x1.b74f13476edfcp-6
496=0x1.0661cdd72c302p-4
497=-0x1.3102bd95ae31dp-5
498=-0x1.05001ebea3856p-7
499=0x1.140d7390e77c1p-6
500=-0x1.065c49cafcf76p-7
501=-0x1.d91d87d22d582p-7
502=0x1.e223360391315p-8
503=0x1.7763ce1e1043ep-7
504=-0x1.e8795413249e1p-5
505=0x1.e87c9f3cee5f6p-5
506=-0x1.1ce8f23edf878p-8
507=-0x1.dafae2cf7a2b7p-4
508=0x1.07052ac2456cp-2
509=-0x1.20868eff913eep-3
510=-0x1.6cf8429ab8df1p-5
511=0x1.977f26661bd72p-4
512=-0x1.29d6eba577d42p-5
513=-0x1.7d4609e4d1e41p-5
514=0x1.c704efe3ad64ap-3
515=-0x1.7fd536df6b94fp-4
516=-0x1.dc3729e94ec98p-6
517=-0x1.cb859e60c75bap-5
518=-0x1.99f96db639781p-6
519=-0x1.b7a1cd741a858p-6
520=0x1.ce756a6b69ed4p-5
521=-0x1.8e38aa3fe311fp-6
522=-0x1.70b8ab04d1eb9p-5
523=0x1.f36a8ff22d9dbp-7
524=-0x1.b7adb11b6fe71p-6
525=-0x1.0e4ab5e92e1bbp-4
526=0x1.9c096a3f45932p-4
527=0x1.40f3284ef9a1ap-5
528=0x1.68b0d66a3d6ccp-4
529=-0x1.4cc8d120f0ea9p-4
530=-0x1.87ed0ee98e51cp-5
531=-0x1.6634fe4c6f0ecp-4
532=0x1.a7fe0f181e967p-4
533=-0x1.4075800a2b1d6p-6
534=-0x1.c976879ceebdcp-6
535=0x1.5c72d848f6341p-7
536=-0x1.932b3d5ff1147p-6
537=-0x1.16cb3d02acaeap-5
538=0x1.fc2222f6bb624p-4
539=0x1.0c3caefc606a1p-5
540=-0x1.c27fc914297d6p-6
541=-0x1.77d0ed00fef95p-5
542=-0x1.aabad500ed0bfp-6
544=0x1.6490444950e2dp-6
545=-0x1.941a47d7f792bp-5
546=-0x1.a669360b60fc6p-5
547=0x1.4d1b8f6b22a0ep-5
548=-0x1.6bc7c52c019d2p-5
549=-0x1.2042dc65e1021p-4
550=0x1.e1af00554e7b2p-5
551=0x1.17576a3078b5cp-5
552=0x1.20e40c449da2ep-3
553=-0x1.4c9911f85eb3cp-4
554=-0x1.6de201c44a7acp-5
555=-0x1.ba23eb1621165p-5
556=0x1.5bc08663fd82cp-4
557=-0x1.c741c547a2b26p-6
558=-0x1.c687684763bcep-6
559=0x1.3f1346f12f008p-4
560=-0x1.6722a047ef495p-6
561=-0x1.8ba9505c8a8f4p-6
562=0x1.d4e9b622d92b6p-6
563=0x1.c79f754b942bp-8
564=-0x1.a205d355f5e22p-8
565=-0x1.e724afedda29fp-6
566=-0x1.26a3317ca56a3p-6
567=-0x1.3fb9b859cda28p-11
568=0x1.f649b860834c5p-10
569=-0x1.2c58ddb197c2p-10
570=-0x1.d0f7d3553118bp-10
571=0x1.1e95867ed1512p-8
572=-0x1.81fd63cc982b7p-9
573=-0x1.498cd3ab427a4p-5
574=0x1.bbdea7fc4a403p-5
575=-0x1.aaec7bfa04957p-7
576=-0x1.f56bb3a05d535p-11
577=0x1.78f5525c99b23p-5
578=-0x1.61b8f1bfabd0dp-5
579=-0x1.5e4ead1ce19fp-6
580=0x1.322006b94ba91p-5
581=-0x1.05bfffada1b5fp-6
582=-0x1.f9f12ef50c7e3p-4
583=0x1.785de180ffa96p-4
584=-0x1.16f168815e678p-9
585=-0x1.fd1840342fac5p-6
586=-0x1.d634d6d9587f9p-5
587=0x1.081cbc58a9adap-6
588=-0x1.422a643a076fep-5
589=0x1.cb37c0e29382fp-3
590=0x1.28d90f5ad1f34p-6
591=-0x1.b15a93772efdap-5
592=-0x1.0a42caff8f11dp-4
593=-0x1.1b8d40c751df8p-5
594=-0x1.082380f9f9a76p-4
595=0x1.7c7d823a4f9e6p-6
596=0x1.35a18100a8744p-5
597=-0x1.4b2d86f6e5c8ap-6
598=-0x1.b7f51c77be9d2p-5
599=0x1.67348ff3a6b48p-5
600=-0x1.6a11be8da9f4cp-8
601=0x1.8db23eaf7534ap-4
602=0x1.6d6ec2d017e38p-6
603=-0x1.236a89eeb0bf5p-5
604=-0x1.7c939d8e09f9cp-5
605=-0x1.81336d564f117p-5
606=-0x1.c130a35c419c6p-5
607=0x1.c01a1cc0f7badp-8
608=0x1.83ee449b292c8p-5
609=-0x1.11b3645d6a04cp-6
610=0x1.7182e7a630306p-6
611=0x1.698a2e7f6a3e1p-6
612=-0x1.6b02241f0ef21p-6
613=0x1.07969e7d311a9p-10
614=0x1.c69ae57469d85p-5
615=-0x1.125112eccd86ap-6
616=-0x1.66570f0ec9266p-6
617=-0x1.7a7b48a6a59b2p-6
618=-0x1.29b9de57419afp-4
619=0x1.6f9281b89828dp-4
620=-0x1.160e510b831d4p-6
621=-0x1.3364dead72e4fp-6
622=-0x1.a110cc8dd4e61p-12
623=0x1.11fda385d8d5bp-5
624=-0x1.112869dd1b0e4p-5
625=0x1.27a500e881202p-3
626=-0x1.87aa3237ab494p-6
627=-0x1.8604ce8d21a59p-6
628=-0x1.5ccf6c077e058p-5
629=-0x1.3571f1175cedbp-6
630=-0x1.95c25d8d7a2dcp-5
631=0x1.3f2369f99505dp-4
632=-0x1.d0d643e17956fp-6
633=-0x1.73d16e3488d1p-7
634=0x1.0961c9f804104p-11
635=-0x1.20b1e4714aa92p-7
636=-0x1.3e25ee79a87b2p-6
637=0x1.9e2151a34c09cp-4
638=-0x1.d8ec5d142495dp-7
639=-0x1.3310c3b33cd6ep-6
640=-0x1.8442acf69cc12p-6
641=-0x1.204e175ef4e7ap-7
642=-0x1.0af3d16475f57p-4
643=0x1.cb87a7b7b90dep-4
644=-0x1.810e5831932b5p-5
645=-0x1.0c613a4f96aap-5
646=0x1.da864c18f50eep-4
647=-0x1.8d76767d393cdp-6
648=-0x1.445342b3dc22bp-6
649=0x1.3ded0402894fbp-6
650=-0x1.f16d41b71b736p-7
651=-0x1.01844cd5e7828p-6
652=-0x1.79e795877a7ecp-6
653=-0x1.d1a2fe04fa5e3p-7
654=-0x1.850f4ff66ad24p-9
655=0x1.82b8bb7e36894p-8
656=-0x1.5fa8371e24973p-9
657=-0x1.7dfae3820eb1ap-8
658=0x1.58bbaa8a6e25bp-7
659=-0x1.4b2de4d2ffd2dp-8
660=-0x1.a130ae7acc86p-5
661=0x1.b8756c8f8643fp-4
662=-0x1.cfa0d62f4cdfp-5
663=-0x1.637f49ecac6d3p-7
664=0x1.66984431c3e1ep-5
665=-0x1.0fce16cfad627p-5
666=-0x1.5cd7f99905939p-8
667=0x1.d66bef34b5234p-7
668=-0x1.4380a5f6389fep-7
669=-0x1.d50ec9b360d8dp-5
670=0x1.8f62259980633p-4
671=-0x1.499c2d0aae5e5p-5
672=-0x1.bf94c5c92b7e1p-6
673=0x1.f632184cffe0ap-5
674=-0x1.3b9998d483af2p-7
675=-0x1.b290f682b4aa2p-6
676=0x1.f7835de7e5c94p-5
677=-0x1.4e620ce07d9bep-6
678=-0x1.cc1bcbb778e61p-8
679=-0x1.29d61216197b4p-5
680=-0x1.13772683c7d44p-6
681=-0x1.623097cf72259p-10
682=0x1.b6afc8cd38f62p-8
683=-0x1.1414260563332p-8
684=-0x1.25db7273ecbbdp-5
685=0x1.26f60d9d3b3c9p-6
686=0x1.6d38c0091a944p-8
687=-0x1.a04e26f0faf3fp-6
688=-0x1.8b5e39a2f66bep-6
689=0x1.902ead618c5b8p-5
690=-0x1.509e3651de7c6p-7
691=0x1.850fd2da463a5p-8
692=0x1.ff888a93efa0dp-9
693=-0x1.cac099e281745p-6
694=0x1.cb913f623b223p-5
695=-0x1.fa123c0ff84fep-6
696=-0x1.74385a1624825p-5
697=0x1.0edaecab20541p-3
698=-0x1.3493caf79242fp-5
699=-0x1.027976db5bec2p-5
701=0x1.88873d860aa4p-6
702=0x1.47c096a2567b8p-5
703=-0x1.605928de7474cp-5
704=-0x1.b806439cdb844p-6
705=-0x1.0b55f50fe4cdcp-5
706=0x1.26e09f98c4a35p-5
707=-0x1.8db46cd70031ap-7
708=-0x1.fe65371551f8dp-7
709=-0x1.abbcb759d9af1p-5
710=-0x1.50e0e17217e8fp-8
711=-0x1.a8e19fd9992b6p-6
712=0x1.f4bdbae1f7aaep-4
713=0x1.e411123a68b4dp-7
715=-0x1.1c633eb81b841p-5
716=-0x1.63096107d7df5p-6
717=0x1.11bf3954f4619p-6
719=-0x1.6e5c9cae4ee8bp-7
720=0x1.f6c32ea3f49f3p-6
721=-0x1.2f900541ba464p-9
722=-0x1.0dac71125b6b6p-5
723=-0x1.3352d83d76082p-10
724=0x1.45e12f581103dp-6
725=-0x1.35ca3a0c4509bp-6
726=0x1.ba953593ee54fp-10
727=0x1.501b2bd7d8abep-8
728=-0x1.7beddf933098ap-8
729=-0x1.f05e6af24e527p-8
730=0x1.87197dc7c002ep-7
731=-0x1.55bd0d199eed8p-8
732=-0x1.436eb6fb9fc4dp-5
733=0x1.edef4f71b6d35p-5
734=-0x1.786988fa75021p-6
735=-0x1.48c29b4c9bc3ap-6
736=0x1.940f8c019bda1p-5
737=-0x1.df29d3ccb6814p-6
738=-0x1.1957cd01643e2p-8
739=0x1.594159a0e1f2cp-7
740=-0x1.c85db00b7dc84p-8
741=0x1.185f97dc8f046p-8
742=0x1.70eaed50bed2p-15
743=-0x1.31497d4c69629p-9
744=-0x1.9055f78a1245cp-4
745=0x1.fa07119bbf714p-4
746=-0x1.a7dd0e23ec0c7p-6
747=-0x1.62868c2eab9bcp-5
748=0x1.d7a2382b87745p-4
749=-0x1.4836d54ea3982p-5
750=-0x1.6f773ef83bfe2p-6
751=0x1.8bad034681bc5p-5
752=0x1.6f526a26a00aep-5
753=-0x1.9479bcce15e99p-6
754=-0x1.b15098f7e28acp-5
755=-0x1.0ad142a0b54eep-5
756=-0x1.e3f8a18ab05eep-6
757=0x1.0d61e4625d288p-4
758=-0x1.38213ca6db031p-5
759=-0x1.2d38643cbb8a2p-5
760=0x1.51e9152de97bcp-8
761=-0x1.5f623d5cde08bp-6
762=-0x1.ebad8e203a8b8p-6
763=0x1.cd61ce886ce72p-4
764=0x1.463689bb40d54p-7
765=0x1.2a162633abd1fp-5
766=-0x1.0f72c52f17ecp-4
767=-0x1.2fb78e95c943dp-5
768=-0x1.79dd7fc64cc08p-12
769=0x1.99644654ff94p-9
770=-0x1.598c42c50b7b6p-9
771=-0x1.3bc1ebda4726fp-6
772=-0x1.92e2dd70b1e56p-7
773=0x1.906a73594d3e9p-7
774=-0x1.11b8b676154bap-5
775=0x1.74206f117620cp-5
776=0x1.ad5957a012c22p-8
777=0x1.86ad7426740e8p-5
778=-0x1.283a1a948f854p-5
779=-0x1.c7635d17c80bap-6
780=-0x1.84771f6b2caep-6
781=-0x1.f2a105d072e69p-8
782=0x1.3fd27cbd6596p-5
783=-0x1.8db88f307e7e5p-7
784=-0x1.d15c5c13d8a3ep-7
785=0x1.d381b5ecd410dp-6
786=-0x1.54c44743a7ad7p-8
787=-0x1.8f0f0083e2e2cp-7
788=0x1.36af6efc4ff66p-6
790=0x1.d512c110849d5p-8
791=-0x1.33ec2a3db6228p-8
792=0x1.80c9f17ac2628p-5
793=-0x1.03a5c56995fb9p-5
794=-0x1.56f62dad35bc2p-7
795=0x1.d8fc742492cfp-6
796=-0x1.caeb034c34712p-6
797=-0x1.0886bd4229a1ep-8
798=0x1.03c0f05d59eb7p-6
799=0x1.665259566be6ap-9
800=-0x1.34e0d89857e38p-6
801=-0x1.11569d33fbdabp-8
802=-0x1.6a9ffed2f4a3fp-8
803=0x1.519144e2cbe27p-7
805=0x1.d49562eec184ap-6
806=-0x1.c51fd4e6a6f8ep-6
807=-0x1.77106bb329451p-8
808=0x1.a3b6f9116639ap-7
809=-0x1.70015f2edac03p-7
810=-0x1.4f17d5e55932dp-6
811=0x1.19e8eef01b5f7p-5
812=-0x1.99b96df4cd8f7p-7
813=0x1.20ddfc16e38a6p-7
814=0x1.d782fe85d792ep-12
815=-0x1.0595b176b5a1ap-7
816=-0x1.6dd55ba02bdabp-6
818=0x1.11e453de8ee98p-5
819=-0x1.ddc555d15406fp-5
820=0x1.67229bc52dc3dp-4
821=-0x1.6949ffc29d71cp-6
822=-0x1.e17e198593404p-6
823=0x1.cf761e4198b5cp-4
824=-0x1.bf08ea21ed589p-6
825=-0x1.5a77dbf5a17c1p-6
826=0x1.85cb351c5cb8cp-7
827=0x1.57f8c24c8c4dp-7
828=-0x1.06f15e8a6d255p-6
829=-0x1.714ea9e69f631p-6
830=-0x1.05f1c573d0d54p-6
831=-0x1.db584c0af77efp-5
832=0x1.8b399a3d83116p-4
833=-0x1.3b0193fb1ae4ap-5
834=-0x1.c4acf424d798cp-6
835=0x1.43feb9270a0dap-4
836=-0x1.5cb5349718305p-6
837=-0x1.78e7cb4f308aep-6
838=0x1.31537e22ec247p-5
839=-0x1.2ff5c88244a6ep-7
840=-0x1.6ae37e105ee9ep-7
841=-0x1.6692570a6229dp-6
842=-0x1.9b6c89874ecfp-7
843=-0x1.9c873a75b7be6p-7
844=0x1.3b50cf5f96196p-6
845=-0x1.0e8fbb78b1b88p-7
846=-0x1.ccaf0cd6e0f98p-7
847=0x1.426458d0edb61p-6
848=-0x1.6f68a5ee5e32dp-8
849=0x1.6fe304b1513fcp-6
850=0x1.b3592143a1ceep-9
851=-0x1.c9f0a26112fcbp-6
852=-0x1.184c84095cb9bp-4
853=0x1.ada5789c4d388p-4
854=-0x1.0b79c9775d768p-5
855=-0x1.b490034f9ef92p-6
856=0x1.0ad84b5319189p-4
857=-0x1.2904bd34ab97p-6
858=-0x1.b827ba0676f9p-6
859=0x1.f8ca6f0ba2f8fp-5
860=-0x1.5322f3ea49d25p-9
861=-0x1.428cf467f0d5dp-6
862=-0x1.0c75ce63ddfcap-5
863=-0x1.3fcf9826ec3a2p-6
864=-0x1.451f4af645784p-4
865=0x1.e2fca31e752aap-4
866=-0x1.110435c520a53p-5
867=-0x1.38ea37948160bp-5
868=0x1.bad521e1187d4p-5
869=-0x1.b35b4d5833e58p-6
870=-0x1.7791b694ea3f4p-5
871=0x1.e39f58345d7cdp-4
872=0x1.a45f3c9279b2cp-7
873=-0x1.4d93c52dfe9c5p-9
874=-0x1.ca22553b6967fp-5
875=-0x1.ca28c69d75727p-6
876=-0x1.410c49807b1fap-5
877=0x1.1f3716e25bb4ap-5
878=-0x1.4bd5d63e9443ap-7
879=-0x1.cf682dbd473efp-7
880=0x1.4972b3bc3dddbp-5
881=-0x1.4be9e24526975p-6
882=-0x1.55e2cd460dfdp-7
883=0x1.94fa52daf26f2p-6
884=0x1.842d966427e0ap-6
885=-0x1.af3b6dfde42b9p-7
886=-0x1.5645878c05ef1p-6
887=-0x1.d37c30a0b3b28p-7
888=-0x1.cc44add6e588fp-6
889=0x1.93ea39614877fp-5
890=-0x1.3f15ed3d63084p-6
891=-0x1.60951e75bf0bep-7
892=0x1.218ca379dd5e2p-6
893=-0x1.8ddadd0a4278ep-7
894=-0x1.149dcf681a84bp-6
895=0x1.742c14d3bb3cbp-5
897=-0x1.34d3a467cb1bap-9
898=-0x1.0ccb42c708edep-6
899=-0x1.20a4f8e19e5e4p-7
900=-0x1.7f5f3d3ac4de2p-8
901=0x1.af0ff8caa59dbp-7
902=-0x1.ddfb31ba352d2p-8
903=-0x1.5c9dd5d7393c6p-8
904=0x1.8ef8871fcb223p-7
905=-0x1.d5f171c6cfeep-8
906=-0x1.f0a705433b975p-6
907=0x1.01a65db88db16p-4
908=-0x1.0bcfb0c89bf22p-5
909=-0x1.ca879be10a1dcp-13
910=0x1.bed48c44cd40cp-13
911=-0x1.03511256e4d9ep-15
912=-0x1.8222a28665d46p-4
913=0x1.bbc5059960903p-3
914=-0x1.f55abe71e422ep-4
915=-0x1.1eafc130a5a1bp-5
916=0x1.6e7cb8af0c413p-4
917=-0x1.e8f3f596e328ep-6
918=-0x1.44b7a2b98dbp-5
919=0x1.7f2e2201fea3ep-3
920=-0x1.538d185659de9p-4
921=-0x1.9a2feb8a8512ep-6
922=-0x1.a17af9c5290f1p-5
923=-0x1.6ff14e4e6fe0ap-6
924=-0x1.0716e08878c2bp-4
925=0x1.021f45b6466c9p-3
926=-0x1.ca4a99c29cabdp-5
927=-0x1.75964072e41bap-5
928=0x1.92cd644f72cb4p-4
929=-0x1.32cc379b570dp-5
930=-0x1.6c4c3052314b5p-5
931=0x1.290f6b29d3249p-4
933=0x1.fdb7dcc4c489ep-7
934=-0x1.af7642fc6e7c2p-5
935=-0x1.cb9711b8aa312p-6
936=-0x1.5f5cfefbd3284p-8
937=0x1.2bc4f51abc5bdp-8
938=-0x1.686736d98b46fp-11
939=-0x1.8bcd3baf58e86p-6
940=-0x1.8c83eb343d933p-8
941=0x1.33a7f34c5c414p-5
942=-0x1.06a5929c1f6bep-16
943=-0x1.76c3df89dfaa9p-11
944=0x1.daaa07064adc5p-11
945=-0x1.85b9a39f0d52fp-6
946=0x1.35fb575bf6b8bp-6
947=0x1.20446ac90768dp-8
948=-0x1.62ed3a5f787c9p-8
949=-0x1.098427dacd952p-6
950=0x1.170402fba74dcp-8
951=-0x1.b682c89d33997p-7
952=0x1.7f2d142c55b5ep-5
953=0x1.9a4a2ace43b38p-9
954=-0x1.03d1002b7c148p-7
955=-0x1.6df59d4e5a534p-7
956=-0x1.2ee71bc3f4d45p-7
957=0x1.571eaffbd0bffp-5
958=-0x1.2521f46ef5ab9p-5
959=-0x1.7a857d5033715p-8
960=0x1.2e795d009bc52p-11
961=0x1.f55a041dc0d7ap-12
962=-0x1.2282be93a880cp-10
963=-0x1.9468d4a191b7ap-7
964=0x1.897b4a2dd77e4p-6
965=-0x1.34e44d25946d8p-6
966=-0x1.d031df8bb1dadp-10
967=0x1.985eb657e06d9p-9
968=-0x1.5d60fe85b4e1ep-10
969=-0x1.1f7a6a9e13597p-8
970=0x1.43bce73408abcp-7
971=-0x1.7d4fb48a6478ep-8
972=-0x1.3bc522b64b338p-10
973=0x1.08c8b14d67549p-9
974=-0x1.a541107173d4bp-11
975=-0x1.d13255ffec06dp-9
976=0x1.40a97d64dee38p-7
977=-0x1.048618497d9a3p-7
978=-0x1.4ac02120e0ab2p-4
979=0x1.29e8f3d166244p-3
980=-0x1.09051c477317bp-4
981=-0x1.0c98bb63e4e18p-6
982=-0x1.c998cd60c6eb7p-5
983=-0x1.07d36ff6fa5bap-6
984=-0x1.71271a2274d64p-5
985=0x1.f9042cc045a6p-3
986=-0x1.74b98c420ed21p-5
987=-0x1.bc7195763b534p-6
988=-0x1.72a16d70d0e95p-5
989=-0x1.12cc1fbe3c3fp-6
991=-0x1.6add964c2dfcp-11
992=0x1.831fbeafacb99p-11
993=-0x1.e41b2cd6c61b6p-8
995=0x1.d52caddc86d1p-7
996=0x1.594b6f5eaa22cp-11
998=-0x1.03f4bcc5d75e2p-9
999=0x1.b19362fa5deeap-11
1000=-0x1.e6e792bb98066p-14
1001=-0x1.0b11cdc9ccb1bp-12
1002=0x1.15cd2c4209e26p-7
1003=0x1.4f2d373d6ec1ap-8
1004=-0x1.e8947b3ed02e1p-7
1005=-0x1.a245d2744d364p-9
1006=0x1.7da0c25e53bb7p-7
1007=-0x1.2656ae6349171p-7
1008=-0x1.4cd319645bc98p-11
1009=0x1.149c55f333b23p-12
1010=-0x1.76775a891f028p-15
1011=-0x1.037f0d23981ecp-6
1012=0x1.b99bc73335824p-6
1013=-0x1.7b5e473fe5986p-7
1014=-0x1.5c257f06b7b36p-6
1015=0x1.811113c7ff034p-5
1016=-0x1.9985cf62eb3c8p-6
1017=0x1.787974080534fp-7
1018=-0x1.9e201b6b996bep-9
1019=-0x1.5e0ed06f49b26p-8
1020=-0x1.58d586e64a644p-5
1021=0x1.80fd619d8e34ep-5
1022=-0x1.90d3364819101p-7
1023=-0x1.d1e41fa39fb15p-7
1024=0x1.af0ed560ffe46p-8
1025=-0x1.0373b5c2721f4p-6
1026=-0x1.680a195fac476p-6
1027=0x1.17bd53f309e2bp-4
1028=0x1.8d3890695f8e2p-6
1029=-0x1.958bf3fb9061dp-8
1030=-0x1.c618d8c922b96p-6
1031=-0x1.2bbefbc566cap-6
1032=-0x1.57ddf1580968p-7
1033=0x1.9e3b9983edb45p-6
1034=-0x1.ecc5690f4f73dp-7
1035=-0x1.aedb5601f525cp-6
1036=0x1.010d48d0eeb8dp-4
1037=-0x1.2a93922bf02fp-5
1038=-0x1.435b5993f96fdp-8
1039=-0x1.05168783491d8p-12
1040=0x1.f038d873cac07p-8
1041=-0x1.9bc9e063e87c9p-13
1042=0x1.bbc452b024265p-10
1043=-0x1.190019f6d7f38p-9
1044=-0x1.76790a106cd8cp-7
1045=0x1.a8b1b16fe2602p-8
1046=0x1.7b30a48ef86b4p-9
1047=-0x1.2a1e61f7246e1p-5
1048=0x1.eb5d55ee834e3p-5
1049=-0x1.837813c58c2dap-6
1050=0x1.9d0c2920fe2f7p-8
1051=0x1.13cbab99a361fp-9
1052=-0x1.1e5f51f29547fp-7
1053=-0x1.c48001e635e9bp-10
1054=0x1.9940ba383634bp-8
1055=-0x1.ad6c21a6068ffp-8
1056=-0x1.9617a6e33cbf6p-9
1057=0x1.0f929437e3635p-6
1058=-0x1.b1e96b4ef867p-7
1059=-0x1.1c34b26565d36p-5
1060=0x1.d7badb30a4b3cp-5
1061=-0x1.76d9a8ac9879p-6
1062=-0x1.d78327cde2535p-8
1063=-0x1.f68960a41e77ep-11
1064=-0x1.b4948c3a78d8ep-8
1065=-0x1.0cf4b099e0367p-6
1066=0x1.3a647c719380ep-4
1067=-0x1.95191662d9e1ep-7
1068=-0x1.6eb950696a0a8p-7
1069=-0x1.25d4f9884f762p-6
1070=-0x1.a7553bcef48cap-8
1071=-0x1.68b29cf8c0d25p-6
1072=0x1.28700bc71afe8p-5
1073=-0x1.e1473913c469p-7
1074=-0x1.a09e911f595acp-7
1075=0x1.5c01d8d03aba2p-6
1076=-0x1.16ffcead50b3ep-7
1077=-0x1.9d33be76d439ep-8
1078=0x1.d79f528b82cc8p-11
1079=0x1.5c171867fb30cp-8
1080=-0x1.53c90d3683d8p-7
1081=0x1.0cf17ecce09efp-11
1082=0x1.7d49f5b706b36p-7
1083=-0x1.426208e4a350fp-7
1084=0x1.445ca9c3e86dp-9
1085=0x1.5b57532d4d728p-8
1086=-0x1.06f73ba6c188fp-7
1087=0x1.dc2c92e9cdf9dp-7
1088=-0x1.a7d6fd7e42b8bp-8
1089=-0x1.e54562db2b8e5p-8
1090=0x1.41ed413e36813p-7
1091=-0x1.c8b9994576c4ep-9
1092=0x1.1082eeacd2ef3p-9
1093=0x1.e5da4f495c4c1p-8
1094=-0x1.3f2cf76bd84d9p-7
1095=0x1.806afa3a072c1p-8
1096=0x1.a1963f6aea186p-8
1097=-0x1.a798716aa958fp-7
1099=0x1.b74f7e0d0742cp-8
1100=-0x1.814379648657cp-8
1101=-0x1.35496395d0db8p-9
1102=0x1.2b013ed87f963p-8
1103=-0x1.37d7ea674dad2p-9
1104=-0x1.3be5ac995d8b8p-7
1105=0x1.e5f26609baf22p-7
1106=-0x1.45f301daa2e25p-8
1107=-0x1.0e18a4e29b474p-6
1108=0x1.0c161d77ef1a2p-5
1109=-0x1.09e0ed235d7a6p-6
1110=-0x1.5d34277fce249p-7
1111=0x1.06da7645a2859p-5
1112=-0x1.4af5770832c31p-6
1113=-0x1.5f6e895d14f9dp-5
1114=0x1.5941c25096fbfp-5
1115=-0x1.2ec55358f3f7cp-7
1116=-0x1.4c755dd5fb0e3p-6
1117=-0x1.85a386c39899bp-7
1118=-0x1.2cf7a2f61404cp-6
1119=-0x1.949a160bc1576p-6
1120=0x1.63aa11a715595p-4
1121=0x1.6cb4daa09cb8p-5
1122=-0x1.f6ff775cbf4fep-11
1123=-0x1.3e57f30501a41p-5
1124=-0x1.d6a07f3f47bep-6
1125=-0x1.00e3a06397a8bp-8
1126=0x1.02ff3716fd38dp-7
1127=-0x1.07041cc882a5p-8
1128=-0x1.b9487ad36f96p-7
1129=0x1.d907fffd40e38p-7
1130=-0x1.c98a6eaaa7d86p-9
1131=-0x1.2d5d2b1e13662p-6
1132=0x1.8a1b5d06127fcp-5
1133=-0x1.ea7c9f7d7f2bep-6
1134=-0x1.d2192ba7aa0f8p-13
1135=0x1.cbdb2603ee92fp-7
1136=-0x1.437fb76e06b98p-6
1137=-0x1.1725859f121cfp-6
1138=-0x1.375a788d9c08ap-6
1139=-0x1.c2674516d8258p-7
1140=-0x1.2924c3a7eead1p-5
1141=0x1.060797653e70ep-4
1142=0x1.cd335484b73a4p-10
1143=0x1.b82687e0191c5p-5
1144=-0x1.150151e04c8a9p-5
1145=-0x1.16f63e502b572p-6
1146=-0x1.555be9ec95a14p-9
1147=0x1.5c3a0d75a9819p-8
1148=-0x1.a46446f1c0298p-9
1151=0x1.1b5554b776fp-8
1152=-0x1.5ee077a31e1efp-7
1154=0x1.b97e52f7d907ep-7
1155=-0x1.c2d2b98b14acap-5
1156=0x1.b26a503a3865fp-6
1157=0x1.c11c0a33b3043p-6
1158=-0x1.3bae2df674f04p-6
1159=-0x1.ebd4391b045ecp-6
1160=-0x1.0e2b1b609c99ap-7
1161=-0x1.d5eb8841b99e8p-9
1162=0x1.0cb8333b732b8p-4
1163=0x1.0d137043b9396p-4
1164=-0x1.544eb83c21d5p-6
1165=-0x1.1a8cecc7d2138p-5
1166=-0x1.1281eb9a0084fp-5
1167=0x1.fabc96f8b8666p-9
1168=0x1.c4e47931c657bp-9
1169=-0x1.deb9ec854c388p-8
1170=0x1.129566d27d209p-6
1171=0x1.4db25ed3d25b4p-12
1172=-0x1.6b2183c21e78ep-7
1173=-0x1.8757471aa8372p-7
1174=0x1.23b0bac821f59p-6
1175=-0x1.5849bfa46c306p-8
1176=-0x1.049d089d2e122p-6
1177=0x1.09784cb95a79dp-5
1178=-0x1.202820ea1b6dcp-6
1179=-0x1.4b7445107d8dap-6
1180=0x1.c5737d5257464p-5
1181=-0x1.9fbc5a2068975p-7
1182=-0x1.0df93c1e56a07p-6
1183=0x1.99c2dd9c135d9p-7
1184=0x1.fea817f9fb80fp-9
1185=0x1.db03006dc11e9p-7
1186=-0x1.9e8cffc3936f3p-6
1187=-0x1.ed6ff8e031ffdp-7
1188=-0x1.8ba74b9001c39p-9
1189=0x1.59d692ec42d7p-7
1190=-0x1.5705d1e389b87p-7
1191=-0x1.39ad09ab24512p-7
1192=0x1.5adc9cdd406c7p-8
1193=0x1.17e9b24f2568ep-8
1194=-0x1.1b9db35685ccep-8
1195=0x1.4b4fc191d6f3ep-7
1196=-0x1.d3c91192d46f9p-8
1197=-0x1.432d79db6285p-8
1198=-0x1.d702c1a0cd229p-7
1199=0x1.228176f3e07f9p-6
1200=0x1.eeb7731087964p-7
1201=-0x1.8fb24d7079493p-7
1202=-0x1.3f90f245efb83p-8
1203=0x1.3d2bb45b55394p-8
1204=0x1.6d15ada1431c1p-14
1205=-0x1.4ad19904a9521p-8
1206=-0x1.5c8d8812fef12p-8
1207=0x1.594963da72ac7p-7
1208=-0x1.55b485717da18p-8
1209=-0x1.4e987b32227adp-8
1210=0x1.78ed68eb4dcbep-7
1211=-0x1.b9db737ef876cp-8
1212=0x1.9aedd35232b54p-7
1213=-0x1.2f0550cc71097p-6
1214=0x1.49566140e4056p-8
1215=-0x1.463c823dc7fe3p-8
1216=-0x1.8f45a02a9aaa5p-6
1217=0x1.d2102954a0928p-6
1218=-0x1.da5e427c522c4p-16
1219=-0x1.5b19cd77315c3p-10
1220=0x1.b291e6d308122p-10
1221=0x1.dab8cb66d5384p-7
1222=-0x1.03536e6cc601ap-6
1224=0x1.dbc1ed0f6b1c2p-6
1225=-0x1.92e9cd0e18de7p-6
1226=-0x1.4bcd8007e4745p-8
1227=0x1.dd212c6d3ff98p-8
1228=-0x1.0b74d5a28aa1dp-8
1229=-0x1.a0f2e79c61205p-9
1230=0x1.e8cdf4484e21cp-4
1231=-0x1.b33f7f6e1e28ap-4
1232=-0x1.ac0e54fdb4468p-7
1233=-0x1.26edc93113677p-9
1234=-0x1.3506103eeda38p-8
1235=-0x1.15c0ddf756ffbp-9
1236=0x1.5a3dd9b838124p-4
1237=-0x1.7a687569478fep-4
1238=-0x1.3c086a86206afp-7
1239=0x1.272581e17b774p-5
1240=-0x1.2b6aa45fa7615p-7
1241=-0x1.34ee33ce956a2p-9
1242=0x1.4e4993c20e57cp-10
1243=-0x1.46c09314e608bp-7
1244=0x1.f12f1cf5f2673p-8
1245=-0x1.399bbfdfdc84bp-8
1246=-0x1.58cb752fc9907p-6
1247=0x1.90be7d1cc9012p-6
1248=-0x1.4fb7201a3eb1ep-9
1249=-0x1.e95e9875d04fep-8
1250=0x1.36ea497ddeee6p-7
1251=0x1.512062748d3c9p-6
1252=-0x1.202925d2d46ccp-6
1253=-0x1.3833eb2f5740bp-8
1254=0x1.223a5ea78ffd1p-7
1255=-0x1.8b8eb9474478fp-8
1256=-0x1.4bac708bed70ep-9
1257=-0x1.ea52eaffddb7cp-8
1258=0x1.cb67ffff9bb7ap-7
1259=-0x1.abb27157c36eep-8
1260=-0x1.a9e420c06ed63p-9
1261=0x1.aee5b68a653fp-8
1262=-0x1.b25205052e81p-9
1263=-0x1.553d55acf2cabp-8
1264=0x1.df517a15c8d4dp-8
1265=-0x1.0fb1c23713671p-10
1266=-0x1.000ed9b981701p-8
1267=0x1.7651e933dd7a4p-9
1268=0x1.106d05dff0bdap-10
1269=-0x1.a9354a2e768e1p-10
1270=0x1.444ae931a9ea4p-7
1271=-0x1.e14e4bb761d4p-8
1272=-0x1.460c1b50533a8p-11
1273=0x1.4b63dda298c3bp-9
1274=-0x1.0ed206d151e58p-9
1275=0x1.0eb56213c7fe2p-10
1276=0x1.02a5a5a21835cp-10
1277=-0x1.0da77a9af1c66p-9
1278=-0x1.fa00466567905p-8
1279=0x1.6a13df879326fp-7
1280=-0x1.ed83d64ffadfep-10
1281=-0x1.bcee3b018148p-15
1282=0x1.8f6090a6b324p-8
1283=-0x1.d3efa2b86843cp-8
1284=-0x1.180ef64634ad6p-7
1285=0x1.f0135d209f7d6p-6
1286=-0x1.63d93913a0201p-6
1287=-0x1.aebf63f592174p-8
1288=0x1.2482824cef42dp-9
1289=0x1.1d51d6a18544cp-8
1290=-0x1.4a61fd36f1222p-6
1291=0x1.fb4bad44ea81dp-6
1292=-0x1.735f566b6e9bep-7
1293=0x1.a945a5142cd04p-10
1294=0x1.1ee74a64158aap-7
1295=-0x1.612df719f1304p-7
1296=-0x1.4753c8159998ep-8
1297=0x1.16bdce6d687bep-11
1298=0x1.035f2ba08ca2bp-7
1299=-0x1.29364fbc666cfp-6
1300=0x1.b687040ae3ffdp-6
1301=-0x1.049b9cf188338p-7
1302=0x1.c64de7af96ec8p-8
1303=0x1.4c5acb4951d2fp-9
1304=-0x1.4ddd3c8b10b64p-7
1305=-0x1.45039d3b5d593p-7
1306=0x1.17d11a6db8a8p-6
1307=-0x1.d4728b989101dp-8
1308=-0x1.6f3b21f2bda4ep-8
1309=0x1.252f0ae3bacfap-7
1310=-0x1.2baf006b5a7e3p-8
1311=-0x1.67d6fb74bd176p-10
1312=0x1.0e6893ae6b88dp-10
1315=0x1.3e5d3fb2515d8p-10
1316=-0x1.c78c38d49f35ap-10
1317=-0x1.b313c97daa831p-10
1318=0x1.3054863317f6cp-15
1319=0x1.f244f03934359p-10
1320=0x1.79cefec8616e2p-10
1321=0x1.1cd0578906ecbp-10
1322=-0x1.390d16c2e7ca7p-9
1323=-0x1.6da4db6ac3807p-9
1324=0x1.316d9694edfc4p-8
1325=-0x1.cc0750a2fa5d1p-10
1326=0x1.28df00b6593dap-8
1327=-0x1.1fd0ee5ab84e2p-7
1328=0x1.07cb208388b22p-8
1329=0x1.4276715e6814cp-8
1330=-0x1.ff96cec8881d2p-9
1331=-0x1.2a36638b9b21p-11
1332=-0x1.b94e433a2dadbp-10
1333=0x1.5eb24dd9ab5bp-8
1334=-0x1.bb15c7fe9f216p-9
1336=0x1.5eb9461f44638p-7
1337=-0x1.0c10567991205p-7
1338=-0x1.ac63dce856f31p-8
1339=-0x1.1bec8f0ecf848p-7
1340=0x1.ef3b79b5034fep-7
1341=-0x1.3e6cf32f4c3f8p-7
1342=0x1.d4f357b77e172p-7
1343=-0x1.ce9e58d9b01a8p-9
1344=0x1.b9ee075b8a705p-7
1345=0x1.e4098e72040f8p-12
1346=-0x1.6cd4d311ae08ep-7
1347=-0x1.a2638db9dd413p-9
1348=0x1.6f53a894affdfp-9
1349=-0x1.52b61719fb64dp-11
1350=-0x1.f9550f2b8eab8p-7
1351=0x1.a1af74dc39954p-6
1352=-0x1.49a488b9190e4p-7
1353=-0x1.a47862e49d772p-8
1354=0x1.97c0ac2bd0a2p-6
1355=-0x1.5176e689dc37fp-6
1356=-0x1.59b0a37704182p-7
1357=0x1.1f67334ecd826p-6
1358=-0x1.c7bdb9b9413eap-8
1359=-0x1.fd09def18f482p-6
1360=0x1.fea568aae1087p-5
1361=-0x1.03eca6be43eb7p-5
1362=-0x1.5d8677291ff53p-8
1363=0x1.932b8b64d4747p-7
1364=-0x1.c80b1d0037205p-8
1365=-0x1.e7a0167a5fecfp-6
1366=0x1.b72c18714b779p-6
1367=-0x1.1c9ba16c13a6cp-7
1368=-0x1.c2aaf32db7044p-10
1369=0x1.ab9a8ae2de4f2p-7
1370=-0x1.725b6cc1ee27p-7
1371=-0x1.feaf0299db571p-7
1372=0x1.4fa0dafa3a02ap-6
1373=-0x1.085da81d68539p-7
1374=-0x1.65f3a0a1b038bp-13
1375=-0x1.289c3a900ee7ep-13
1376=0x1.b801de606f348p-9
1377=0x1.c007c5d0a8f1cp-8
1378=0x1.78434682c664p-9
1379=-0x1.e5006d20e8b2bp-8
1380=-0x1.18d9baa94a64p-7
1381=0x1.1a7132d2ba896p-7
1382=-0x1.5df17dabf1227p-10
1383=-0x1.1cd57c74b7ceep-8
1384=0x1.3f17d9a5aecb9p-6
1385=-0x1.ef5fa33d366c2p-7
1386=-0x1.cabb4b137f015p-7
1387=0x1.7d133474e7b3ap-6
1388=-0x1.2f75168e2a02fp-7
1389=-0x1.240b9762fbf2cp-8
1390=0x1.079b4dc5601afp-7
1391=-0x1.9a95e8de16a96p-9
1392=-0x1.cb42f9b67ff82p-10
1393=0x1.378d3f63e7054p-9
1394=-0x1.05062d2d166e1p-10
1396=0x1.57f60bf030eap-15
1397=-0x1.3cb398904a4c2p-11
1398=-0x1.5a718b2b2361cp-11
1399=0x1.0720125b4bbd2p-9
1400=-0x1.1066ccaed26ccp-9
1401=-0x1.0b79f3c4a7ca8p-9
1402=0x1.8a8a9c132df5dp-13
1403=0x1.ed7a5b3fe64adp-10
1404=0x1.7d3ada956c97dp-10
1405=0x1.277415c9042e5p-9
1406=-0x1.fbad91266fb2fp-9
1407=-0x1.0ca20281f47edp-8
1408=0x1.eae33f52f72b8p-8
1409=-0x1.baed3252d888ap-9
1410=-0x1.796029c43813ap-9
1411=0x1.754f8940b63bbp-8
1412=-0x1.6fa9a16e0784fp-9
1413=-0x1.357435651958ep-9
1414=0x1.7d9092a6b076ap-9
1415=-0x1.b5750ba8f326p-11
1416=-0x1.196fbcd979cf2p-10
1417=0x1.8264b1ddb53a3p-9
1418=-0x1.d5309df8718d8p-10
1419=-0x1.52f7822d4403ap-10
1420=0x1.85591446a5d59p-9
1421=-0x1.1f2f4f592feb7p-9
1422=-0x1.61c682bafdb04p-10
1423=-0x1.1d3ff5cccf3e1p-8
1424=0x1.5912bd8e02224p-8
1425=0x1.2c56e2aeeaed6p-8
1426=-0x1.03dfff4b474p-8
1427=-0x1.4a0e50ccc0016p-10
1428=-0x1.51fc8eced3084p-10
1429=0x1.52504ab8f8a7ap-9
1430=-0x1.5195d6f131978p-10
1432=0x1.b87a169cb722ep-8
1433=-0x1.2a5cb30e9796cp-8
1434=-0x1.51aad90a2eab6p-10
1435=-0x1.f41d209803316p-9
1436=0x1.27eadd8053e51p-8
1437=-0x1.d0c39fd3edbbcp-9
1438=-0x1.345a9c11987a3p-7
1439=0x1.b1c9d259ae15bp-7
1440=-0x1.9d8acbb75ebf4p-12
1441=-0x1.6bc02526b735p-16
1442=0x1.8c27cc48ab6c3p-11
1443=0x1.0954265089bf4p-8
1444=-0x1.ad9471f50a9bbp-9
1445=-0x1.4d5c07226681ap-10
1446=0x1.41bc183e73fa1p-7
1447=-0x1.219f890170a2fp-8
1448=-0x1.6cb289218fb92p-8
1449=0x1.2f038b3e433ddp-10
1450=0x1.326311c78164p-12
1451=-0x1.8933e57c563f6p-11
1452=-0x1.14ec0d4c2c768p-7
1453=0x1.37fb7c8322659p-6
1454=-0x1.5aa599e64cf56p-7
1455=-0x1.27f368cb37ae8p-10
1457=0x1.772f01e913bbcp-10
1458=-0x1.d2875822a3724p-7
1459=0x1.9c12743639dc6p-6
1460=-0x1.65383e7604f8ap-7
1461=0x1.2bde115e20514p-10
1462=0x1.29da293a84c8dp-10
1463=-0x1.350af723fb60ap-9
1464=-0x1.1b52952996331p-7
1465=0x1.972e252ff314cp-7
1466=-0x1.edd8f8ca46694p-9
1467=-0x1.4f2a170dd58e7p-9
1468=0x1.0cb8336314e93p-8
1469=-0x1.916210d24e74dp-10
1470=-0x1.842ae1c130ae8p-9
1471=0x1.a78af79724d15p-8
1472=-0x1.06ab899ad62eep-8
1473=-0x1.a830adb44d27bp-10
1474=0x1.d35ef5c26bd68p-9
1475=-0x1.fd0b345802e4cp-10
1476=-0x1.6cd27a3f22f3cp-10
1477=0x1.69d088d34f88cp-10
1478=-0x1.eb8ab5a2d49ccp-13
1480=0x1.d87b095ae7dd9p-12
1481=-0x1.d22e6b194b748p-12
1482=-0x1.53c169d8e67dcp-12
1483=-0x1.3962df6cd05f6p-12
1484=0x1.41928ca0d1d2p-11
1485=0x1.39e734fed28dcp-11
1486=-0x1.353e53b7cb73ep-12
1487=-0x1.73f6312974075p-12
1488=-0x1.23e63204a1394p-11
1489=0x1.2da16b78fd41ap-10
1490=-0x1.310787b0a51e4p-11
1491=-0x1.6c1c680b32579p-11
1492=0x1.70bc4d52069c9p-10
1493=-0x1.6f07155c26aefp-11
1494=-0x1.c9494db294373p-12
1495=0x1.fa7967d54a5edp-12
1496=-0x1.28648164c92ap-13
1497=-0x1.5f83bc3bf44fcp-14
1498=0x1.3d2d8fb7da28fp-12
1499=-0x1.e66576d0bd354p-13
1500=0x1.c3cdad456be45p-19
1505=0x1.12012578d3f2cp-19
1507=-0x1.b2e0d6e9ccadp-20
1509=-0x1.1a8a1a3f847p-17
1510=0x1.14ce237a7f876p-14
1511=-0x1.c3086b9069bbfp-15
1512=-0x1.479315da9672ep-10
1513=0x1.707add0964efp-7
1514=-0x1.1c52f51b8309dp-7
1515=-0x1.9fd4b0b77152p-9
1516=0x1.458b9ae8916c6p-8
1517=-0x1.9fbc9ca819932p-9
1518=-0x1.bc057f6a0775ep-9
1519=0x1.3f6063d4406d8p-7
1520=-0x1.255b0dbc3c04ep-8
1521=0x1.0dcc19ea067fcp-8
1522=-0x1.ccf9e40e7e964p-9
1523=-0x1.0bd2e103c3a23p-10
1524=-0x1.0932ca1e11fb3p-15
1525=0x1.aaa8d59c01892p-15
1526=-0x1.043d86c2b2f98p-16
1529=-0x1.e0db898c79c9bp-20
1533=0x1.63b1b38dfd3d4p-10
1534=0x1.42cbf6d067391p-10
1535=-0x1.08b8414153448p-9
1536=-0x1.07d9bbc18e5a6p-9
1538=0x1.452b1b6728016p-9
1539=0x1.1d5d3baf0790fp-9
1540=0x1.e26a6e3f9bc5dp-11
1541=-0x1.9319f9b5d49c6p-9
1542=-0x1.31c0d80869e4fp-8
1543=0x1.74e93969182aap-7
1544=-0x1.b746f7222febcp-8
1545=-0x1.a518c031d065ep-8
1546=0x1.33d3c0439dedfp-7
1547=-0x1.68fddfee7fe52p-9
1548=-0x1.9762893a68a5dp-10
1549=0x1.32bc4bdada5dcp-9
1550=-0x1.06e43b6c8a303p-10
1551=-0x1.3b1df858351a5p-12
1552=0x1.1bf41d00b91fp-11
1553=-0x1.54faf8c5e73c6p-12
1554=-0x1.30c5a08d95585p-9
1555=0x1.024fc5f3fcc49p-8
1556=-0x1.a6c8e2e4f989ep-10
1557=-0x1.b78ece01d9c25p-9
1558=0x1.7fbdc70afe9d5p-7
1559=-0x1.3d5ea9dae2d85p-7
1560=-0x1.74f707aa30e46p-7
1561=0x1.7ccd801cce1ccp-6
1562=-0x1.6355748a50bd2p-7
1563=-0x1.1a3406c313099p-6
1564=0x1.2769e62d910bdp-5
1565=-0x1.346d1cae2994bp-6
1566=-0x1.239e8abbd9191p-6
1567=0x1.915683473dc95p-6
1568=-0x1.b6153e85fc2b7p-8
1569=-0x1.0b2a3f2c2c85cp-8
1570=0x1.7cbdbf088bb08p-9
1571=-0x1.024292821d7fap-12
1572=-0x1.cc03ce3919d9bp-12
1573=0x1.5364b738ec1a3p-8
1574=-0x1.173277df86fbbp-8
1575=0x1.413c5c251a5e4p-12
1576=-0x1.4d25df5abf5ep-12
1577=0x1.6a5dc070d5374p-19
1578=-0x1.9e5a6c2c3d6a7p-14
1579=0x1.e14cfec8d42d7p-13
1580=-0x1.5c073f7688b16p-13
1581=-0x1.c0213d4db972ap-13
1582=0x1.15b9b51896ca8p-11
1583=-0x1.3eb89110e8748p-12
1584=-0x1.133a85b0d730fp-12
1585=0x1.590d7954d8976p-11
1586=-0x1.9236327f719c1p-12
1588=0x1.3c9235361b4e4p-12
1589=-0x1.c731712dee011p-11
1590=-0x1.a89a22735bf7cp-16
1591=-0x1.51ca304429866p-14
1592=0x1.86456d5377075p-13
1593=-0x1.1a682924b82a8p-12
1594=0x1.d0dc1f327ab7ep-9
1595=-0x1.ec3a112f4c839p-9
1596=0x1.c40deb2cd8073p-13
1597=-0x1.50d393348b06ap-13
1598=-0x1.770c1f9eb9f9cp-15
1599=-0x1.f58de07ff47fp-9
1600=0x1.fc3d4f021b5eep-11
1601=0x1.a627f7f5dc392p-9
1602=0x1.4b5b849ca2272p-15
1603=0x1.8e309038411b9p-15
1604=-0x1.18f46cf393f99p-14
1605=0x1.e5d9af088c8fcp-11
1606=0x1.f8d35f7f5532cp-8
1607=-0x1.2abe7f93318bfp-7
1608=-0x1.5075cb0360adp-7
1609=0x1.e628546da3254p-7
1610=-0x1.08484fc3a3752p-8
1611=0x1.2f97449690ba1p-9
1612=-0x1.23727f179aec6p-9
1613=0x1.1ca0296d31052p-9
1614=0x1.8a499a904f8acp-8
1615=-0x1.2de13d22c2ee2p-8
1616=-0x1.f9260e7fe1fd1p-12
1617=0x1.bbfef2c515767p-13
1618=0x1.7df2920db5d43p-11
1619=-0x1.b4e60edae1bbfp-11
1620=0x1.4ec325979f1bdp-11
1621=0x1.adb67e050b7eep-9
1622=-0x1.8caf1c1b6ad34p-9
1623=-0x1.25dd906f6eb62p-9
1624=-0x1.2659ee151b783p-8
1625=0x1.dc84c39ef8c05p-8
1626=0x1.efcaa5d74c4b7p-8
1627=-0x1.31d345d057d18p-8
1628=-0x1.36e74df785bf5p-9
1629=-0x1.4fa6bcb9d8306p-8
1630=0x1.e46c4790105bbp-8
1631=-0x1.27f5ce5d4342fp-9
1632=-0x1.0ab57245b02c5p-9
1633=0x1.cbb70a99a6fbap-9
1634=-0x1.7bee901a72fbfp-10
1635=-0x1.bdc5bdf512efp-11
1636=0x1.889d4fee63ff3p-9
1637=-0x1.4bc359c766c52p-9
1638=0x1.4ca80cc4755e7p-12
1639=0x1.c4a60ed04a186p-11
1640=-0x1.efd1228d4f44fp-11
1641=-0x1.bf02173022418p-11
1642=-0x1.ce8b2ef271b0cp-10
1643=0x1.6ca4ebc707323p-9
1644=0x1.0d41a6dff624dp-9
1645=-0x1.4580e460b66b7p-10
1646=-0x1.fd0701a29ee2bp-11
1647=-0x1.16016e8acab57p-10
1648=0x1.11d56f37ecbecp-9
1649=-0x1.0d4fcf855ef87p-10
1650=-0x1.081b265ae89acp-10
1651=0x1.1214b4056f8d5p-9
1652=-0x1.23710e1758959p-10
1653=-0x1.07dc0d343ca11p-10
1654=0x1.b4cd7eab681b7p-10
1655=-0x1.8811136e4087cp-11
1656=-0x1.450f70bb3e649p-13
1657=0x1.c1e282412c8cdp-16
1658=-0x1.81727d89ea19fp-15
1659=-0x1.cc0430b3f92a5p-15
1660=-0x1.37c3c296f7fdfp-12
1661=0x1.8bda892e78472p-12
1662=0x1.6188959a172fbp-11
1663=-0x1.55f65ac97867ap-12
1664=-0x1.0c2fc525401ecp-12
1665=-0x1.3b63810193f82p-12
1666=0x1.2c02fe457d3b4p-13
1667=0x1.a5bbf7b988d88p-14
1668=0x1.08050a37aa0dep-14
1669=0x1.d1d26bee0cde1p-13
1670=-0x1.4f6c4ef19fe4p-12
1671=-0x1.6fd5e508cd2bap-12
1672=0x1.4bc7601445e3ep-11
1673=-0x1.1b0ea0a656403p-12
1674=-0x1.e241840fb5f41p-13
1675=0x1.7fd3cb3f7639p-12
1676=-0x1.299b57f54c688p-13
1677=-0x1.7f5de9fffd594p-14
1678=0x1.838670107a47cp-13
1679=-0x1.564e4e0c8cda1p-14
1680=-0x1.83cbb86064215p-14
1681=0x1.01f23d5c8bc6cp-10
1682=-0x1.cc5b18b196985p-11
1683=0x1.44ca43f2dd44dp-11
1684=0x1.f25eeaa7b775ep-10
1685=-0x1.fce43d3f8068ap-10
1686=-0x1.bea1997adfba4p-10
1687=-0x1.e69fae1c27903p-9
1688=0x1.6449bc6032d22p-8
1689=0x1.2250088d08e17p-8
1690=-0x1.5f31467827d13p-11
1691=-0x1.87e0eb314e18bp-9
1692=-0x1.f3ffdd1bd52a3p-9
1693=0x1.d3053a88e1571p-8
1694=-0x1.b07550a6c088dp-9
1695=-0x1.a95afa2c1f507p-9
1696=0x1.922c98ca8796cp-10
1697=0x1.bbedb7b1371bep-10
1698=0x1.5bb43675c006fp-10
1699=0x1.c0614731d36acp-11
1700=-0x1.1cde75345942ap-9
1701=0x1.19d5d4304b16p-10
1702=0x1.3e1f1d153ee82p-11
1703=-0x1.1ec48fdf46521p-9
1705=0x1.5b8cab541be23p-8
1706=-0x1.1e3b85061ba32p-8
1707=-0x1.ac8bee8459614p-9
1708=-0x1.84ffc0cb95ac8p-7
1709=0x1.d0ec0d96a9aa6p-7
1710=0x1.d2fa6151ffe6ap-7
1711=-0x1.8dcb2bf084308p-7
1712=-0x1.a9a7fd835a61p-9
1713=-0x1.1c436676de63ap-7
1714=0x1.aa573f8b4b9f3p-7
1715=-0x1.1b5d0e8144064p-8
1716=-0x1.3df50d914ad3dp-8
1717=0x1.3db89f4d02c1cp-7
1718=-0x1.3cb18d61242a5p-8
1719=-0x1.2d769a20c561dp-8
1720=0x1.1b650920349d7p-7
1721=-0x1.0888d4780d45p-8
1722=-0x1.6c9e5ef7b409bp-12
1723=0x1.39bae6d9bdca1p-12
1724=-0x1.07084ffe9effap-14
1725=-0x1.2b9e25fa2ca12p-15
1727=0x1.f369dcb9c4d4bp-15
1729=0x1.7020504e45817p-12
1730=-0x1.b2a88a9f60758p-12
1731=-0x1.273a1de15d33ap-11
1732=0x1.8ad374f28ec4ap-10
1733=-0x1.e817aec70c2e6p-11
1734=-0x1.cd7da1e2c9fe8p-11
1735=0x1.1faa3b56d68a8p-10
1736=-0x1.b13da1fa989c7p-13
1737=-0x1.0617b83a6a07ap-13
1738=0x1.3b87969c8ff08p-16
1739=0x1.00727b06e496fp-12
1740=-0x1.d034dc85194eep-12
1741=0x1.1298083d02192p-11
1742=-0x1.a6dd1c28c434ap-13
1743=0x1.1b88424444f12p-13
1744=0x1.b67ece13b8352p-13
1745=-0x1.3703980bd07b9p-12
1746=-0x1.c5b36c3840148p-10
1747=0x1.fad2ed4967579p-9
1748=-0x1.23b4b5da5a1e1p-9
1749=-0x1.53b427c974a7ep-9
1750=0x1.7b34c2a45ba6ep-8
1751=-0x1.a120163015955p-9
1752=-0x1.2bec8bb1770cfp-9
1753=0x1.6c501ffb7eaa9p-9
1754=-0x1.9d97a9fe7a28cp-11
1755=-0x1.c0b237ded6294p-9
1756=0x1.949b6fbd9062ap-8
1757=-0x1.66ef604d1d867p-9
1758=-0x1.db4dcd95020d3p-11
1759=0x1.be18527c70906p-9
1760=-0x1.776aef2f05cabp-9
1761=-0x1.1c82a0b2e3854p-9
1762=0x1.af7a0b27d512fp-9
1763=-0x1.4002f4c182b85p-10
1764=-0x1.aa72ff9861f32p-9
1765=0x1.f4aaf4eaca88p-8
1766=-0x1.1ea6d17702fdap-8
1767=-0x1.645d5615b3bbdp-12
1768=0x1.804bcaa8b8f01p-11
1769=-0x1.1d7f81429bd06p-12
1770=-0x1.29f0b4c4d22a8p-8
1771=0x1.49fe4dfdc9ca9p-7
1772=-0x1.6941438f2b09ep-8
1773=-0x1.917e2476d1cbep-12
1774=0x1.6d404129900ddp-10
1775=-0x1.07bbde8a4dc2bp-10
1776=-0x1.2dc0a0d73e4e1p-8
1777=0x1.e4ec4c9863bf6p-8
1778=-0x1.75c6ec6acee59p-9
1779=-0x1.b58b203c99cb8p-10
1780=0x1.465237ecf340bp-9
1781=-0x1.a7dd81fde60b2p-11
1782=-0x1.8dfe64e449e26p-12
1783=0x1.bc76fcd30830dp-10
1784=-0x1.43920e48da184p-10
1785=0x1.006497255bea2p-12
1787=-0x1.84ff634b277a2p-12
1788=-0x1.575b455f81824p-12
1790=0x1.b64c69b9f972ap-12
1791=0x1.005a2411bb137p-12
1792=0x1.21d06c4a5180dp-12
1793=-0x1.13dc34353c63dp-11
1794=-0x1.c7a5552aea409p-11
1795=0x1.862d930d663bep-10
1796=-0x1.3e60b3b32e062p-11
1797=-0x1.371b18aacbd58p-11
1798=0x1.42cc8ea8bfd98p-10
1799=-0x1.4828e769ffa8dp-11
1800=-0x1.3d8c01bb0b22ep-11
1801=0x1.f9f49e5e5fb37p-11
1802=-0x1.610cafb28426fp-12
1803=-0x1.8413e00417c22p-13
1804=0x1.efc59be038d78p-12
1805=-0x1.4d0635c337da6p-12
1806=-0x1.676d3e25b528p-11
1807=0x1.d70d1646bcc6ep-11
1808=-0x1.038b7cd33cc0cp-13
1809=0x1.ae79575029f56p-13
1810=0x1.16a3d658b2e03p-10
1811=-0x1.59271478ebf5cp-10
1812=-0x1.489d369e9ff63p-10
1813=0x1.e663db4959e77p-10
1814=-0x1.a5a988d9ec94cp-11
1815=-0x1.aa0a7d38a93e8p-11
1816=0x1.14e2586af6b3fp-8
1817=-0x1.bc5cf8ad3094dp-9
1818=-0x1.8f9149bb5eb04p-9
1819=0x1.25843aa5fefa5p-8
1820=-0x1.6eb77d08439d9p-10
1822=0x1.3157c5f06be3ep-10
1823=-0x1.1f26c1e201a56p-10
1824=-0x1.703f8e1442ep-12
1825=0x1.4d9397b6e4582p-10
1826=-0x1.f3eef0925887bp-11
1827=-0x1.98a3ee3c78b13p-15
1828=0x1.1e543aa889962p-11
1829=-0x1.1145fe9f8ccf9p-11
1830=-0x1.6fc59dd0faff7p-13
1831=0x1.3de4e78135016p-10
1832=-0x1.48d40268b71eep-10
1833=-0x1.11e9207481586p-10
1834=0x1.81bf07bba9e92p-15
1835=0x1.240272f73606ep-10
1836=0x1.2221dfe43d305p-11
1837=0x1.8981c12d55f95p-10
1838=-0x1.1243f6470b6f3p-9
1839=-0x1.2e7f84f86a4c2p-9
1840=0x1.df36e8b5a28d8p-9
1841=-0x1.54cfc187996cbp-10
1842=-0x1.8e963a43997c4p-10
1843=0x1.8c1d8bf3df929p-9
1844=-0x1.b7e9f3c197387p-10
1845=-0x1.aa96e6e637f0bp-10
1846=0x1.7b7b8d3ce7e16p-9
1847=-0x1.28b715248fd47p-10
1848=-0x1.b62c8dadc713bp-12
1849=0x1.df8fb87efe60dp-11
1850=-0x1.02722a2712a52p-11
1851=-0x1.08d01da737cd3p-11
1852=0x1.77592cca75b38p-10
1853=-0x1.e7dc1642f8b1ep-11
1854=-0x1.3481ff29737d9p-11
1855=-0x1.7a2d2e05b32b3p-9
1856=0x1.c5860f912172cp-9
1857=0x1.ac39767957f1p-9
1858=-0x1.5dcb40d4263dap-9
1859=-0x1.36ec6d37c4b9ap-11
1860=0x1.ac39767957f1p-9
1861=-0x1.5dcb40d4263dap-9
1862=-0x1.36ec6d37c4b9ap-11
1863=-0x1.c5e4b3adc4a95p-13
1864=-0x1.1394dcc6fbcd8p-12
1865=-0x1.3e71f69ff79cfp-13
1866=-0x1.9f6665e79a0cep-11
1867=-0x1.caee96a52879p-10
1868=-0x1.4d8dd4d6f2976p-12
1869=0x1.19cdf4e63a693p-8
1870=-0x1.4adb2d2961bc9p-11
1871=-0x1.88d7a3cce3c8fp-13
1872=-0x1.878faf0bf2eb6p-11
1873=-0x1.5759ecc4640d4p-9
1874=0x1.bad31fd68dd49p-9
1875=0x1.46579a64f616ap-9
1876=-0x1.bd118c773688ap-10
1877=-0x1.98e63368b715ap-11
1878=-0x1.423457d7f9534p-10
1879=0x1.d9fa1b73d65d6p-10
1880=-0x1.293669fb05e2p-11
1881=-0x1.0553606262b89p-10
1882=0x1.7a504fa56a63bp-10
1883=-0x1.0d70bdad0b1a4p-11
1884=-0x1.8fa2a5a29a43p-11
1885=0x1.553eb9dde1aebp-9
1886=-0x1.deca200784b74p-10
1887=-0x1.7342cb288fe31p-10
1888=0x1.de55c6ca79353p-9
1889=-0x1.2d2808a2027a2p-9
1890=0x1.e8fd73c1dbd3p-5
1891=-0x1.c7f2621eb701bp-5
1892=-0x1.078de9719006ap-8
1893=-0x1.2e2441274f16ap-10
1894=-0x1.fae099862a0dfp-10
1895=0x1.b94359147576p-9
1896=0x1.92110541e418fp-9
1897=-0x1.ee1fa9f57efb6p-10
1898=-0x1.125668347dc6dp-10
1899=-0x1.dd669f1988334p-10
1900=0x1.e1977605dab87p-9
1901=-0x1.e29dbe53d3231p-10
1902=0x1.72bd5c72df9b6p-13
1903=0x1.624b5613b5b5fp-17
1904=-0x1.3cbb5b8c5cacdp-13
1906=0x1.7a9e5d56ef4cp-11
1907=-0x1.488623e91b472p-11
1908=-0x1.13800e3a60bd6p-11
1909=-0x1.468fc02fd2492p-11
1910=0x1.5ccbac75dd134p-10
1911=0x1.01a4b8737fde2p-10
1912=-0x1.ca663fdc3881p-12
1913=-0x1.21d980cfcdep-11
1914=-0x1.86bead652a668p-11
1915=0x1.36aabc61b3facp-10
1916=-0x1.d101b2261f0b1p-12
1917=-0x1.1193926501874p-11
1918=0x1.3f3265c55f1p-10
1919=-0x1.6871201e06422p-11
1920=-0x1.fd9a564bff397p-12
1921=0x1.0117afe40e7c4p-10
1922=-0x1.fa1a2ecad251fp-12
1923=-0x1.56794f2c6897ap-15
1924=0x1.6c0d2c9da2e14p-14
1925=-0x1.a9bd85e3ad35ep-15
1926=0x1.51caca71d1105p-14
1927=0x1.2f33e3fdb37fcp-16
1928=-0x1.96f21e5fa6d28p-14
1929=-0x1.11c2a809d3243p-14
1930=-0x1.f4e4460f1bba7p-13
1931=0x1.2e93daedbc8a9p-12
1932=0x1.640e09aa8a3dcp-12
1933=-0x1.314c9f1f34016p-12
1934=-0x1.19daad7dc96e1p-14
1935=-0x1.f67dd50659afp-14
1936=0x1.e4b1fc6413f12p-13
1937=-0x1.a03d39dc2ca27p-14
1938=-0x1.7770c78f6059cp-14
1939=0x1.a4b139a8fdfdfp-15
1940=0x1.adaa4c33b20fap-16
1941=0x1.48d890b7d9c8cp-16
1942=0x1.01e47320d355p-16
1943=-0x1.d2c8c1e4f828p-15
1944=-0x1.648ef4c64081ap-12
1945=0x1.1e206dd7daac9p-10
1946=-0x1.7cedb8fccb264p-11
1947=-0x1.53bb1deb5e23ap-11
1948=0x1.a35b0a91988c8p-10
1949=-0x1.eca5d9fb1ea9dp-11
1950=-0x1.dff89350762dep-11
1951=0x1.35bc4de8735fap-10
1952=-0x1.0a55d68778a38p-12
1953=-0x1.7d0d268954778p-13
1954=0x1.0021028cd5a4ap-10
1955=-0x1.a2e0f904076afp-11
1956=-0x1.92af9667e2f94p-11
1957=0x1.8ecbe16c4878ap-10
1958=-0x1.84930f33f9c3bp-11
1959=-0x1.2cd4cbcfb50adp-12
1960=-0x1.75a55d9545842p-11
1961=0x1.1724cb4ec4f44p-10
1962=0x1.15eb2f33882a8p-10
1963=-0x1.6caa23cc1c02ap-11
1964=-0x1.d46dd6db83f5cp-12
1966=0x1.15764790d6b66p-15
1967=-0x1.94d171360113bp-15
1968=-0x1.2df22049c68d4p-17
1970=0x1.0d0a240d1cdbp-18
1971=0x1.5d20cc57c5da8p-17
1972=-0x1.3943a9bb22d7fp-14
1973=0x1.7753f6b4d1bd9p-15
1975=0x1.9ef657d74b238p-14
1976=-0x1.b26c037c8b4eep-14
1977=-0x1.be01fe9c7dcf2p-14
1978=0x1.36b9301ab1cadp-13
1979=-0x1.ee51dbc9cb3dbp-17
1980=0x1.88b42b7d046a4p-19
1982=-0x1.ee7c06a958bap-17
1983=0x1.8f4817bfce394p-19
1984=0x1.eaa48b184aac7p-16
1985=-0x1.73989ad36558ap-15
1991=0x1.e805692a6e5p-20
1995=-0x1.248f0e5597705p-18
1996=0x1.a47b9317f3a29p-15
1997=-0x1.26acfdc2b0539p-15
1998=-0x1.6f53c15152805p-16
1999=0x1.318fa06256d6p-18
2000=0x1.3332a135991a8p-18
2001=0x1.e8a32b7574e7cp-18
2002=-0x1.d02aacc968d08p-18
2004=-0x1.78dbb6452b219p-22
2005=0x1.0d210b267a9ddp-16
2006=-0x1.a253c95135693p-17
2007=0x1.0dd45dfeb7705p-14
2008=-0x1.2ab3439caf8f1p-15
2009=-0x1.c91b88f87cc01p-19
2010=-0x1.63e3d71ea232dp-18
2011=-0x1.04425e53f6f06p-14
2012=0x1.098ad68587ecap-14
2014=0x1.9292ad89169c3p-13
2015=-0x1.9c47b120d09ebp-13
2016=-0x1.201639126afa2p-12
2017=0x1.483f607bfceb6p-11
2018=-0x1.63be4d6c267a2p-12
2019=-0x1.571fdf419cff3p-13
2020=0x1.87a61bd591093p-13
2022=0x1.db73805794bf6p-15
2023=-0x1.8d9d85b9df98cp-16
2024=-0x1.b2ee4e1ac7c44p-16
2025=-0x1.65a9e328c3efap-16
2026=0x1.383cd62c2ce03p-15
2027=-0x1.813936c76e239p-16
2028=-0x1.8af75c1f832f6p-12
2029=0x1.446e28edb42a5p-10
2030=-0x1.ff67d249c9e63p-11
2031=-0x1.5726948c119fbp-10
2032=0x1.76949d7a54ce8p-10
2033=-0x1.f7e2756d186a9p-13
2034=-0x1.41a55d70a2a58p-11
2035=0x1.96142e8b44522p-9
2036=-0x1.63daa307cafe2p-9
2037=-0x1.24e2c8815e7f9p-8
2038=0x1.147aff34509d7p-7
2039=-0x1.0348923fac33ap-8
2040=-0x1.def5d29fc0827p-9
2041=0x1.69a07cf4c4516p-8
2042=-0x1.f8e8995b62467p-10
2043=-0x1.d6602228eb6bp-10
2044=0x1.72537ee59e08fp-9
2045=-0x1.a252f4f32d3ccp-10
2046=-0x1.815de4f9dcea4p-10
2047=0x1.6d162995b23ap-9
2048=-0x1.55b863b040aa5p-10
2049=-0x1.a5ef879b300a5p-14
2050=-0x1.4133b75bf5c93p-11
2051=0x1.8574fc5d9a41bp-11
2052=0x1.a2c9b0b5089acp-11
2053=0x1.5e1da31aa68c6p-18
2054=-0x1.7216deccebcdcp-11
2055=-0x1.bc8fe8207a2b1p-11
2056=0x1.c7721edc1c81ap-12
2057=0x1.0073a0aa5c1d9p-12
2058=-0x1.ba74d12f03caep-14
2059=0x1.2c43adf69f3e8p-10
2060=-0x1.19dc35236e2a5p-10
2061=-0x1.258599827b138p-10
2062=0x1.19e4161bde1c2p-10
2063=-0x1.3f2ba0c59361ep-16
2065=0x1.6443df92b26a7p-13
2066=-0x1.7ab84509d3994p-13
2067=-0x1.93ab46188122p-13
2068=0x1.2320150d4f49ap-12
2069=-0x1.0fb5336507506p-14
2071=0x1.5a7e6a4f23e5ep-16
2072=-0x1.b7b2a58d7e217p-17
2074=-0x1.4c8ee468be10ap-15
2075=0x1.dd07a63a1274p-15
2076=0x1.7f898f1ba9ba4p-16
2077=-0x1.fce78bf6154d8p-16
2078=0x1.b43a49f479dp-23
2079=-0x1.ab4a47c7f60cp-16
2080=0x1.f277b678ee9b8p-14
2081=-0x1.84954dc0af655p-14
2082=-0x1.20753d8447b43p-14
2083=0x1.23eb09ff62f4cp-15
2084=0x1.2e1d7c42fe03fp-16
2085=0x1.e580dfe4edaf2p-16
2086=-0x1.ca94dd9688f76p-16
2087=-0x1.676d6d9243e0fp-20
2088=-0x1.cca30252cd0b9p-18
2089=0x1.fb2cccc687544p-16
2090=-0x1.c6cfc92a048d6p-16
2091=0x1.85b7770783c0ep-12
2092=-0x1.4741ed22f73a6p-15
2093=0x1.cd33aa46fca38p-12
2094=0x1.9f9c86a71c738p-8
2095=-0x1.1b4264bc28265p-10
2096=-0x1.83fa8849ed8cep-9
2097=-0x1.2861d244af0bbp-9
2098=-0x1.0358403b2aa2cp-7
2099=0x1.36bbec24b1e13p-7
2100=0x1.1bf92e989bad7p-7
2101=-0x1.d9270ce256828p-8
2102=-0x1.29782575df785p-9
2103=-0x1.3ebb46faff565p-8
2104=0x1.f66c4d148f592p-8
2105=-0x1.6dccc4e3f2c97p-9
2106=-0x1.9a5bbadc30c29p-9
2107=0x1.898cc99647e42p-8
2108=-0x1.7728910131ffp-9
2109=-0x1.522038e01d91dp-9
2110=0x1.3bccaec05b95dp-8
2111=-0x1.23e3dd516c617p-9
2112=0x1.f65e62a6a7ed6p-18
2114=-0x1.6fc6fffda36p-24
2119=-0x1.be04fabb9a55ap-18
2120=0x1.319ab22eddfb8p-17
2122=0x1.4a2868500fcaep-15
2123=-0x1.878b05f87a60ap-15
2125=0x1.6a2968398ec86p-19
2130=0x1.7d6d32838a27cp-17
2132=-0x1.2752cfdf22401p-19
2133=-0x1.a3ab33acb1719p-12
2134=0x1.0888a6f3cb4c1p-9
2135=-0x1.a4fbf25e10247p-10
2136=-0x1.09884fdaa9774p-9
2137=0x1.b7e72ee62ed9ap-9
2138=-0x1.59932f78b0b5cp-10
2139=-0x1.69511c8bc2018p-10
2140=0x1.b58fd5d24c7b5p-9
2141=-0x1.fea4007a7cedap-10
2142=-0x1.08b66be1bdf84p-9
2143=0x1.fabc605e5bb3fp-9
2144=-0x1.e0e15a5ae16ddp-10
2145=-0x1.2c7b510d27f64p-10
2146=-0x1.2f90fd02471dfp-15
2147=0x1.5991ed0e270e4p-10
2148=0x1.a8ba96c8153bdp-10
2149=-0x1.e8909bebcc2dbp-10
2151=-0x1.cca041e50be1bp-14
2152=0x1.976cf9a3d1bbap-11
2153=-0x1.be805d7aa6eabp-11
2157=0x1.92b56c95cfc92p-17
2158=-0x1.8baa91cf74b6cp-17
2163=-0x1.2586deb378378p-17
2164=0x1.67e2e3a25b6d8p-15
2165=-0x1.1d4bd7412b7dp-15
2167=-0x1.0b172fe297e81p-16
2168=0x1.96468758d31fcp-16
2169=0x1.49f831bc7961fp-16
2170=-0x1.bf1a9bbf9546bp-17
2172=0x1.465d5d88ce4b4p-13
2173=-0x1.0a5bdf224b86ap-15
2174=-0x1.ec283b0cf054ep-15
2175=0x1.16d7a5e245d49p-20
2178=0x1.31fdb31a262e2p-15
2179=-0x1.806e85becdd66p-14
2182=-0x1.79744f2a639e4p-13
2183=0x1.3f87b82c9d627p-13
2184=0x1.bdfe482de40eap-15
2185=0x1.8eda98126466ep-15
2186=-0x1.e17a31ff8af6ep-14
2187=-0x1.8373e3d2f5fcdp-13
2188=0x1.d5451dbc2e26fp-13
2189=-0x1.0b702bb234246p-15
2191=0x1.19419bb75987ap-15
2192=-0x1.77902ccf7f112p-15
2193=-0x1.9394f766b76f5p-17
2194=0x1.0d5f89d49f8b5p-14
2195=-0x1.61267e6f934c2p-15
2200=0x1.4a9cf5a59baep-18
2201=-0x1.c092f7e976327p-18
2202=-0x1.51cba5e55a411p-17
2203=-0x1.245ef5ca9988ap-17
2204=0x1.c404209426ac9p-16
2205=0x1.7c27c75d7f4cp-18
2206=0x1.5140670f3bd8ap-15
2207=-0x1.ea7c9a7f7c6edp-15
2208=-0x1.1ac218ef99f82p-14
2209=0x1.4ba9711d5937cp-14
2210=-0x1.afa066429ffbdp-18
2211=0x1.48293b69a637dp-16
2212=-0x1.2eef355aee1aep-15
2213=0x1.029704a2a6909p-17
2214=0x1.9ad507c632b04p-18
2217=-0x1.58c5ae0d8c18dp-13
2218=0x1.664429df90568p-12
2219=-0x1.5a6e30bec3ce1p-13
2220=-0x1.e17ce796fd9c3p-13
2221=0x1.94057bbfb7ef7p-12
2222=-0x1.2d399af5a17e2p-13
2223=-0x1.1afaabb7ab76cp-13
2224=0x1.8040b935d873dp-12
2225=-0x1.cc3251c134a85p-13
2226=-0x1.c245aabbc31e7p-13
2227=0x1.6402d70c2c2ap-12
2228=-0x1.f3c0d1f98f24p-14
2229=-0x1.ca8d0b8f7eb51p-14
2230=0x1.16f6c0e6e9f73p-12
2231=-0x1.57ac1e5291c46p-13
2232=-0x1.7686fb7f0e2f2p-13
2233=0x1.3f8132880be48p-12
2234=-0x1.de4de93c71accp-14
2235=-0x1.7dfb41ffaeea4p-14
2236=0x1.59c8e163dffcfp-14
2238=-0x1.faf31002c1d42p-12
2239=-0x1.6736bf3e409c7p-10
2240=0x1.a19485ac1e242p-10
2241=0x1.812d5385ed195p-10
2242=-0x1.90b21eaf5239dp-11
2243=-0x1.4a1c5b1cf5117p-11
2244=-0x1.69f2d37b46cf1p-10
2245=0x1.9da27ab1ab832p-9
2246=-0x1.ce279349b6245p-10
2247=0x1.6adecf470b4aep-6
2248=-0x1.143517d9e0612p-6
2249=-0x1.ff53e54b9b464p-9
2250=-0x1.445062dcbf015p-10
2251=-0x1.a0dea79178a07p-11
2252=0x1.417022c0e6bc2p-9
2253=0x1.30639928a5a9dp-9
2254=-0x1.80f2fdd1529ffp-10
2255=-0x1.822686fba18a8p-11
2256=-0x1.6c5e85a1a490ep-10
2257=0x1.3c5cda7fda26p-9
2258=-0x1.0930a0bfb5ab4p-10
2259=0x1.de5ce14da92b9p-16
2260=-0x1.39887455762f3p-17
2261=-0x1.c7fa8b08b4dfp-20
2262=0x1.a78095424727cp-17
2263=-0x1.75d1776d77cc2p-17
2266=-0x1.5300924c1a3aep-15
2267=0x1.cb3f2bb341d9ep-16
2268=0x1.8bae7861d6cb1p-16
2270=-0x1.aa98a2206c6b4p-16
2271=-0x1.21d4dd37953d4p-15
2272=0x1.45380280464c4p-15
2273=-0x1.b7e5d9ed839b2p-22
2278=0x1.6f8b6517882p-17
2279=-0x1.dfdc9c3fadfa8p-17
2280=-0x1.c79c9fe269666p-13
2281=0x1.923b4608e287dp-12
2282=-0x1.e137d9dd11b1fp-13
2283=-0x1.2ee419c9c0864p-13
2284=-0x1.5676851508bdfp-12
2285=0x1.03970d2eda131p-11
2286=0x1.c0ee8ebeb5d84p-12
2287=-0x1.421c58903070dp-13
2288=-0x1.1b9825fc668b9p-12
2289=-0x1.54a1401c99f24p-13
2290=0x1.14fda721100c2p-11
2291=-0x1.8111b119dfccep-14
2292=-0x1.0818db0bfb1a5p-11
2293=0x1.a5c8782d2c418p-11
2294=-0x1.3090c31f01302p-12
2295=-0x1.9737ae7ed0c45p-14
2296=-0x1.015cb4e5aa25cp-14
2297=0x1.68f6ae61bcac8p-11
2298=-0x1.a6406e4216f6cp-15
2299=0x1.610d332772506p-15
2301=0x1.a817faf5e60afp-11
2302=0x1.18134bd20c4abp-10
2303=-0x1.00440d0d366f7p-9
2304=0x1.5c69d8fde3d07p-16
2305=0x1.a96e97ce61abfp-14
2306=-0x1.984f5d9d8c7afp-14
2307=-0x1.61245deaa569cp-9
2308=0x1.7e06f4390355ap-8
2309=-0x1.99544338343bap-9
2310=-0x1.147b210096d3ap-14
2311=0x1.d6f5f9a29832bp-14
2312=-0x1.15c986db533a2p-16
2314=-0x1.4f5b668b7627p-8
2315=0x1.6b9f5014a0db9p-8
2316=0x1.6c80a2d2dc16cp-8
2317=-0x1.e393075313154p-9
2318=-0x1.83f2a358f6bd5p-10
2319=-0x1.95a8b967d58bdp-10
2320=0x1.46640ab860d0bp-9
2321=-0x1.77367558b9a01p-11
2325=-0x1.0f42259a40246p-19
2326=0x1.ab98bb5f179c2p-16
2327=-0x1.f9a153291d5cbp-16
2328=-0x1.18412a46b0dffp-15
2329=0x1.733929b9076ddp-14
2330=-0x1.6da045a4191dap-15
2331=0x1.932c658ce78ebp-10
2332=-0x1.79c5d295cac52p-10
2333=-0x1.63c0458c2b0b7p-14
2334=-0x1.510bec0e516f8p-17
2335=-0x1.049093d0a07a3p-14
2336=0x1.6c0d2f0ef6b6fp-14
2337=0x1.428bb3628d31cp-14
2338=-0x1.e2798f28da60cp-15
2339=-0x1.576bfb6ab4638p-20
2340=-0x1.dbd00331c6c2ap-16
2341=0x1.fb286d1a56345p-15
2342=-0x1.c967644ff3d46p-16
2343=-0x1.bdfc5814363c8p-17
2344=0x1.a5d97f6773ddcp-17
2347=0x1.10f989f6e0c88p-15
2348=-0x1.4ff80ed7f3b72p-16
2349=-0x1.2f3f2e3f902e9p-15
2350=0x1.00a0dad65c3cbp-14
2351=-0x1.0432ef60434eap-16
2352=-0x1.85ab64913ab08p-17
2353=0x1.639d1d4d80434p-15
2354=-0x1.729bcc21e941bp-16
2355=-0x1.4e2f77dd8a4e2p-17
2356=-0x1.219a6c43eef49p-16
2357=0x1.4f2786cb43b78p-15
2358=0x1.394a21f78bcdcp-15
2359=-0x1.18540ccd6b915p-16
2361=-0x1.2abf2ca4a023ep-16
2362=0x1.3549722ca9d2fp-15
2363=-0x1.d235d050ca90bp-17
2364=0x1.94a5866aa7ca5p-16
2365=0x1.b9f40a20b6952p-21
2366=-0x1.666302c72e352p-16
2367=0x1.b405a4326a801p-17
2368=0x1.77c9cbd71f0aap-14
2369=-0x1.3f927242da261p-14
2370=-0x1.3bfac26b210bap-14
2371=-0x1.0fb578f8a0394p-13
2372=0x1.c075c7800b2b1p-13
2373=0x1.8979becca52fcp-13
2374=-0x1.0d4bfd18cd336p-14
2375=-0x1.877bdd56b10d9p-14
2376=-0x1.93322cde9e868p-14
2377=0x1.329affde7c228p-13
2378=-0x1.3b28252376631p-15
2379=-0x1.b66ec223e53bep-15
2380=0x1.a660c6ceab5a2p-14
2381=-0x1.c06046cd4ba18p-15
2382=-0x1.04a1caeb0c01ep-15
2383=0x1.342883d36d22ap-15
2385=-0x1.6afdf7904936ap-13
2386=0x1.d05b187772cf8p-12
2387=-0x1.10f8052c46d63p-12
2388=-0x1.46d1814c86b9cp-13
2389=0x1.b60e3d5103bafp-12
2390=-0x1.4020f8ba1c6f3p-12
2391=-0x1.8944384cf263ap-13
2392=-0x1.5d9647e5c949cp-11
2393=0x1.b1b922e2ec128p-11
2394=0x1.9f4665d879348p-11
2395=-0x1.b66bea5c6ca2fp-12
2396=-0x1.7b76a6db1d621p-12
2397=0x1.9f4665d879348p-11
2398=-0x1.b66bea5c6ca2fp-12
2399=-0x1.7b76a6db1d621p-12
2400=-0x1.18f89e725bb6fp-14
2401=-0x1.b0e26b1746d5fp-15
2402=-0x1.54d35a976ca53p-15
2403=-0x1.b3b9469f35cacp-13
2404=-0x1.0e41f9d8bc10cp-12
2405=-0x1.7372fb60d5aecp-13
2406=0x1.1c29a72e325b3p-10
2407=-0x1.88325e0dc9b96p-14
2408=-0x1.23a694f95c2bcp-13
2409=0x1.15b28db9406c4p-7
2410=-0x1.0440624acc655p-7
2411=-0x1.10cd99aa8c406p-11
2412=-0x1.3889110f03b59p-11
2413=0x1.3a9734a01b50ep-10
2414=-0x1.36503af47eb8fp-11
2415=0x1.e4f6b162eb27dp-13
2417=-0x1.dd00bcf338ep-12
2419=0x1.dbfa3eee77564p-12
2420=-0x1.dfea639880d9cp-12
2421=0x1.a34737f4ec3f1p-13
2422=0x1.7b16509e64a04p-14
2423=-0x1.14e65bcd68232p-11
2424=-0x1.16220258e93b2p-11
2425=0x1.0bdb9ea1901c4p-10
2426=-0x1.f6803b5b059bdp-12
2427=0x1.4bb028b04a756p-7
2428=-0x1.37ee5c98317cp-7
2429=-0x1.35c7a444db654p-11
2430=0x1.4bb028b04a756p-7
2431=-0x1.37ee5c98317cp-7
2432=-0x1.35c7a444db654p-11
2433=0x1.332fa77a29322p-15
2434=-0x1.243647c976c1ap-11
2435=-0x1.c50f9e420134cp-15
2436=0x1.4f8ca382c03e4p-7
2437=-0x1.1ccf379392f91p-7
2438=-0x1.077547364bb41p-11
2439=-0x1.7379785cb80fdp-13
2440=-0x1.02239c0e1214dp-12
2441=-0x1.c5af811cfacb7p-15
2442=0x1.d9099056e5e46p-12
2443=-0x1.2397cbb6d4e4dp-10
2444=0x1.12e5d462e9dcfp-11
2445=0x1.f55336ca7e353p-12
2446=-0x1.c24f23119d865p-12
2447=-0x1.c21e0ed2bb0bcp-16
2448=-0x1.09886ef0b5ccap-13
2449=0x1.33bd17396f74cp-12
2450=-0x1.59b2fd5d59c0cp-13
2452=0x1.a82f6372ceca9p-21
2453=-0x1.247b357a937a4p-17
2454=0x1.9ad828c68616cp-17
2455=0x1.fcf7cf37ea0dep-16
2456=-0x1.81eccf9291583p-16
2457=-0x1.c250c2bf0ed65p-16
2458=0x1.b40405163c22dp-15
2459=-0x1.352e3ccdea03p-16
2460=-0x1.d8c00d924ca5cp-15
2461=0x1.85aef7f7a8a41p-13
2462=-0x1.eae4193e188ffp-14
2463=-0x1.b79d36339ccf7p-14
2464=0x1.762364af8db6ap-13
2465=-0x1.17fbfa0dec1adp-14
2466=-0x1.bc7b13725bd0dp-16
2467=0x1.150bde3b65b6cp-14
2468=-0x1.b9f1ac97a8312p-16
2470=0x1.84541b181c9c9p-15
2471=-0x1.0888ddd767d51p-15
2472=-0x1.a0242e2b5b744p-17
2473=0x1.1ae2c61edeec1p-14
2474=-0x1.f04ffa6c78af1p-15
2475=-0x1.cb6eb030c055p-15
2476=0x1.8ab065a7171d9p-14
2477=-0x1.26303879b66c4p-15
2478=-0x1.1078ee8d5bdfcp-15
2479=-0x1.b19c7c6bb60bdp-14
2480=0x1.2936aaeb345c6p-13
2481=0x1.062437cd4f254p-13
2482=-0x1.9f0c3ead3529cp-15
2483=-0x1.42def105b16f3p-14
2484=-0x1.cd3101bfd1f6bp-14
2485=0x1.bd4951137d1a8p-13
2486=-0x1.7ab8b68186b5ap-14
2487=-0x1.3d187cd467778p-15
2488=0x1.31e7a477fef2cp-13
2489=-0x1.84fded8627c95p-14
2490=-0x1.a9309d26d51a1p-16
2491=0x1.ffae55800f175p-16
2493=0x1.59c9b7114b5f1p-14
2494=-0x1.9ca5517117139p-16
2496=0x1.8a3d7a21ed986p-14
2497=0x1.3753620bf6a52p-14
2498=-0x1.7ea7a9b56883p-13
2499=-0x1.2b5f687c6c927p-13
2500=-0x1.28c15eec7be78p-11
2501=0x1.611e0e1d4fc1cp-11
2502=0x1.7e000fba2eee8p-11
2503=-0x1.467f6f825dc6ep-11
2504=-0x1.32bf8b81d4eb8p-13
2505=-0x1.0dbffa581938ep-11
2506=0x1.7a98594b8ecfp-11
2507=-0x1.9a0d06db05925p-13
2508=-0x1.b7738048021cap-13
2509=0x1.07559b40f0fd3p-11
2510=-0x1.26473be4788b3p-12
2511=-0x1.26533460ffa25p-13
2512=-0x1.002190c72817fp-12
2513=0x1.a9e6efeda2d33p-12
2514=-0x1.3f8d6d36f5683p-15
2515=0x1.0f8205a9e79dep-20
2516=0x1.95669c703f14dp-15
2517=0x1.88c484b9e9777p-16
2518=0x1.f9b3cf734f5e6p-15
2519=-0x1.9c80519a98a81p-14
2520=-0x1.6775973b68a64p-13
2521=0x1.5d69ba10c81ep-12
2522=-0x1.3a0967f356d2ep-13
2523=-0x1.9af92cf38acffp-13
2524=0x1.af4df7615fa4ep-12
2525=-0x1.aa4e4cdc63b36p-13
2526=-0x1.ba7d239b89124p-14
2527=0x1.02116534d2df3p-13
2528=-0x1.85cb447d7be84p-15
2529=0x1.8d9dff78d41fap-14
2530=-0x1.ef9e9d6b48928p-14
2531=0x1.d89fce2c74edbp-17
2532=0x1.0f97806dc33a6p-14
2533=-0x1.bdd34a762cdaap-16
2534=-0x1.7da661c8209d9p-16
2536=0x1.bfcd630aaf496p-13
2537=-0x1.fbeeb0f266595p-13
2538=0x1.c64e9ec3615e8p-12
2540=-0x1.d06b517e88985p-12
2541=-0x1.5ae305b89f52dp-12
2542=0x1.98bee6057cce5p-17
2543=0x1.6e6959eff368dp-12
2544=0x1.b8c68d9d0d0d6p-8
2545=-0x1.93271941128e2p-8
2546=-0x1.26a685a31fcd9p-11
2547=0x1.bb10ef278abap-8
2548=-0x1.c0bdb8401a11ap-8
2549=0x1.b268c900806a8p-15
2550=0x1.4c5a631352a9p-15
2551=0x1.4a24d92a1d3c6p-13
2552=-0x1.b68fe6e1c2a9dp-13
2553=-0x1.31a41a946d1cap-14
2554=0x1.a37ed115fabfbp-12
2555=-0x1.1b2736ea4d304p-12
2556=-0x1.63414e06ae8cep-17
2557=0x1.5ccb98f0af5d3p-15
2558=-0x1.4b65d93ff6628p-16
2559=-0x1.cba1db4d560e9p-15
2560=0x1.e3553c4e8c9b9p-14
2561=-0x1.a91ea9b626eeep-15
2562=-0x1.0c4c3aab02a04p-14
2563=0x1.620b427e8876ep-13
2564=-0x1.8521606c6cc2ap-14
2565=-0x1.c81ebf62da394p-14
2566=0x1.1eeca2879ef82p-12
2567=-0x1.4075706b000dap-13
2568=-0x1.c81ebf62da394p-14
2569=0x1.1eeca2879ef82p-12
2570=-0x1.4075706b000dap-13
2572=-0x1.7c9ec08c56022p-15
2574=-0x1.0b63ad692f687p-14
2575=0x1.96ba6acf52537p-12
2576=-0x1.130ed285e2ef1p-13
2577=-0x1.816088775f1bp-16
2578=-0x1.772bda1abea87p-15
2579=-0x1.c33b095fe2488p-20
2580=-0x1.47285934d6ad2p-13
2581=0x1.eb3a11adb548fp-13
2582=-0x1.157a870c1bac5p-14
2583=-0x1.b31cfd95a7182p-15
2584=0x1.5d50370f30808p-14
2585=-0x1.54c21a2420c4cp-16
2587=0x1.ad88c1864d091p-17
2588=-0x1.284a281b6b5ebp-17
2613=0x1.f4b34cf18ab67p-15
2614=-0x1.7ce25d246a17ep-15
2615=-0x1.4c3231aa92597p-19
2617=-0x1.178936e2c056cp-16
2618=0x1.9e9f9bdcb5172p-16
2619=0x1.31d70d48ef87bp-16
2620=-0x1.5f7f224aaa3ebp-17
2622=-0x1.22bddf04a4fd3p-16
2623=0x1.ff1871135ccp-16
2624=-0x1.1b6ea78319166p-20
2626=-0x1.65ecca31c9b34p-18
2627=0x1.d334d9261808fp-17
2628=0x1.399f405c87d8dp-15
2629=-0x1.d7b75558b83e8p-16
2632=0x1.137be8fba56fap-14
2633=-0x1.ab1b988930172p-14
2634=-0x1.9cf7d43d3113cp-14
2635=0x1.5b9f27fe9a4b6p-13
2636=-0x1.aca2f007a241bp-14
2637=0x1.5fb0269d20d65p-14
2639=-0x1.688c09ccec8c3p-15
2640=-0x1.185190b9f784ep-13
2642=0x1.1e4a3e468598ep-15
2643=-0x1.0251a13b0a8e3p-14
2644=0x1.8eeb5a592ab92p-15
2645=0x1.0a85978167f68p-17
2647=0x1.2416e6422aafep-11
2648=-0x1.05728199190f8p-11
2649=-0x1.38e7e5c239218p-15
2650=0x1.3d2a40b380c4bp-14
2651=-0x1.11e3af4483eep-15
2652=-0x1.e2a47647dba0ap-12
2653=0x1.4e610c1eadac2p-11
2654=-0x1.62580d107c99cp-13
2655=-0x1.9d17e2e8dec78p-14
2656=0x1.1336a837b7cap-11
2657=-0x1.9e0ca45f479e5p-12
2658=0x1.082d41816c749p-16
2661=-0x1.00917f2b3ab33p-12
2662=0x1.8e15536969374p-13
2663=0x1.255a5523a87f8p-15
2665=0x1.0954412655fe3p-12
2666=-0x1.7ea3246781cdcp-13
2667=0x1.aee1b7ba95c0dp-14
2668=-0x1.d9eb5a47a2c2p-17
2669=-0x1.7ccf954876842p-14
2670=-0x1.fa52215656e72p-14
2671=0x1.e513655a7f432p-13
2672=-0x1.ddece927214ccp-14
2673=0x1.cfa5ccd1e4012p-12
2674=-0x1.718dcb8c98518p-12
2675=-0x1.13667edc8dc22p-13
2676=-0x1.a11aeb2e76214p-13
2678=0x1.6b21bcabb7dd4p-14
2679=-0x1.54562249bcfd2p-12
2680=0x1.f21f33bf731dp-10
2681=-0x1.82968164570c8p-10
2682=-0x1.f6b62fe8b3c1cp-10
2683=0x1.182bdf8f7cd7ap-8
2684=-0x1.33675fdb72c0dp-9
2685=-0x1.5b83d099b6a93p-10
2686=0x1.172e1eea1566fp-9
2687=-0x1.f7c94c4541e34p-13
2688=0x1.e0635aaf0a074p-14
2690=-0x1.876c19a7b7646p-12
2691=-0x1.c016075991bfp-14
2692=0x1.c53699d09114ap-13
2693=-0x1.0682d1be869fdp-13
2694=-0x1.b13b6e8e98c84p-15
2695=0x1.b87a5352b1d84p-13
2696=-0x1.a0e207a0bb816p-13
2697=0x1.9a8dda003c4bp-12
2698=-0x1.84c8f79162d46p-13
2699=-0x1.0695dc6f95951p-12
2701=0x1.fafe299f03d84p-16
2702=-0x1.f829314b9601bp-17
2703=-0x1.a2ef4bf527c3ap-13
2704=-0x1.443ae5da3811ep-12
2705=0x1.6bb691ee7cbb1p-11
2706=-0x1.f7220e644eed2p-17
2707=0x1.9c9bc7036e5fcp-16
2709=0x1.a2ba0b2930337p-12
2711=-0x1.55e5f05ad739dp-11
2712=-0x1.d96ddaeebec1cp-14
2713=0x1.54c2ee51c3abcp-12
2714=-0x1.a18ca3e17625ap-13
2715=-0x1.043da5541fe5cp-10
2716=0x1.bc7634cb53d22p-10
2717=-0x1.6a1c01b1b3a64p-11
2718=-0x1.4d6ed79180c3p-12
2719=0x1.a58f1846b5cf8p-11
2720=-0x1.ec17527bbd1aep-12
2721=-0x1.45ce067a5f8dap-12
2722=0x1.ae638b8a5565ap-11
2723=-0x1.d376b46b98be1p-12
2724=-0x1.3f5d02c2ba742p-12
2725=0x1.8d43ceaf83da4p-12
2727=-0x1.4a33483227082p-13
2728=0x1.96111746e8a51p-11
2729=-0x1.31cabd51e41e3p-11
2730=0x1.2b6a93e3b7ba2p-16
2732=-0x1.01f801463d208p-15
2733=-0x1.c61485bc7f7e6p-15
2734=0x1.5b8a3396d4d7dp-13
2735=-0x1.c285f9f2527b6p-14
2736=-0x1.b65388e9818afp-17
2737=0x1.b9a32f3876b2bp-13
2738=-0x1.0937089523fcap-12
2739=0x1.e84f72008df94p-12
2740=-0x1.d36074a0bdfadp-13
2741=-0x1.39c2bb4a46fd9p-12
2742=-0x1.fe9a7c249d031p-13
2743=-0x1.4fb3606f80b73p-11
2744=0x1.011260aed5271p-10
2745=0x1.b2f21878b7d9cp-11
2746=-0x1.a01c18d1c2548p-16
2747=-0x1.8570cdfacc75fp-11
2748=-0x1.396707ba7f774p-10
2749=0x1.2a1cd8a4eea6fp-9
2750=-0x1.17a81af103b58p-10
2751=-0x1.b7e89e2f1531cp-11
2752=0x1.872eb518e547fp-10
2753=-0x1.31e46cacb2919p-11
2754=-0x1.8e4e4ff3b5fbp-13
2755=0x1.eb78eb658cacp-11
2756=-0x1.4d2d3185c5056p-11
2757=0x1.2443a900880dfp-14
2758=0x1.3ec26f720e3f8p-14
2759=-0x1.d6e2cb04816efp-14
2760=-0x1.cee5b9df9c21bp-14
2761=0x1.b74f23a0bce4ap-15
2762=0x1.687a08f15812dp-15
2764=0x1.1b2d05daff9b9p-13
2765=-0x1.21609a0128ba6p-13
2766=-0x1.096d2bab08d7ap-12
2767=0x1.c03bbb27e7e9fp-11
2768=-0x1.35300815af4d5p-11
2769=-0x1.7e246ae1a7389p-12
2770=0x1.359404d8a8915p-12
2771=0x1.d0de58c2658d8p-15
2772=0x1.1933d67b16612p-13
2773=-0x1.628e6004b85f8p-17
2774=-0x1.06c9b6db28414p-13
2775=-0x1.876ec59d5946ep-13
2776=0x1.6f7bca3eea032p-12
2777=-0x1.72045ab4e876ap-13
2778=0x1.afb89453393ap-14
2780=-0x1.d09d4492d0755p-15
2781=-0x1.2d92337de4ca4p-14
2782=0x1.fa10c16b85baep-14
2783=-0x1.5a05705007f1fp-14
2784=-0x1.7be6f618ad32ap-14
2785=0x1.68c18ddb7cce4p-14
2787=-0x1.7063d03ad8ddcp-14
2788=0x1.3157eb5d690ecp-11
2789=-0x1.fc8dff893dba6p-12
2790=-0x1.b03d07c89735bp-13
2791=0x1.d49e364eef806p-13
2793=0x1.d78774db30cf1p-14
2794=-0x1.d267b57138d4p-17
2795=-0x1.adb4ec2afad4bp-14
2796=-0x1.2aeb76703f1p-14
2797=0x1.552a6551f43adp-13
2798=-0x1.3c18f6da008e7p-14
2800=0x1.d40a3cdb63164p-18
2806=0x1.32e4a1eee6658p-17
2807=-0x1.2d8812823e1dep-17
2808=-0x1.e6f0013aa9edep-17
2809=0x1.f43282bc5e55fp-15
2810=-0x1.209dc1c9705fbp-15
2811=-0x1.63e0cb98be902p-15
2812=0x1.39068d686e3e9p-14
2813=-0x1.60720b9cdbb51p-16
2815=0x1.60a8adecb386bp-16
2816=-0x1.25ab785b130a5p-17
2817=0x1.ff1356c1b2b38p-19
2818=0x1.3ac0ea2f66a84p-19
2819=-0x1.6fe1c9fb15e1ap-18
2820=0x1.512110e4adf4ap-11
2821=-0x1.eb62046487b0fp-12
2822=-0x1.82cbf35ba0b99p-15
2823=-0x1.c775338b335b7p-15
2824=-0x1.e7a52d4476844p-16
2825=0x1.8db299b2155a7p-14
2827=0x1.02d3906919648p-12
2828=-0x1.68767bda78cd8p-12
2829=-0x1.66a705ff1509cp-11
2830=0x1.bd59181e17642p-10
2831=-0x1.06db068032c5ep-10
2832=-0x1.1d8954bc2592bp-10
2833=0x1.b6fc96787b5a3p-10
2834=-0x1.294c7b191681dp-11
2835=-0x1.772e71b2994f2p-12
2836=0x1.48e687d3846bep-11
2837=-0x1.065e41a23da1cp-12
2838=-0x1.2f6dc401de1cdp-16
2839=-0x1.41c11894dadfdp-15
2840=0x1.10850061beab3p-14
2842=0x1.039c541c6edbbp-15
2843=-0x1.2baa00f17b2c3p-15
2845=0x1.15617b132ae72p-15
2846=-0x1.2cb4d650f3f9dp-15
2847=-0x1.2351434f46074p-14
2848=0x1.31ea63dbc5346p-13
2849=-0x1.c7534649277c5p-14
2850=-0x1.0980a4e06d637p-13
2851=0x1.0305d9431c2a2p-11
2852=-0x1.7cc8d8a53fffep-12
2853=-0x1.b4721aea79d5cp-13
2854=0x1.bbcb46e0e530bp-13
2856=0x1.554bb175c1b48p-15
2858=-0x1.313c92c27fbb6p-14
2859=-0x1.aa280efba7be3p-15
2860=0x1.3e617b7614ff4p-13
2861=-0x1.a60b81cf6901fp-14
2862=-0x1.8b8d5edd2d2eep-15
2863=0x1.016b7a35fd383p-13
2864=-0x1.0a675b17c24bap-14
2865=-0x1.0143270f562c1p-15
2866=-0x1.0a9fc8c09178ep-13
2867=0x1.52d9bc402e45p-13
2868=-0x1.0143270f562c1p-15
2869=-0x1.0a9fc8c09178ep-13
2870=0x1.52d9bc402e45p-13
2871=0x1.0ba800f953f3ap-13
2872=-0x1.790ca5c28aa31p-14
2873=-0x1.3eb969fa3cfap-15
2874=0x1.0ba800f953f3ap-13
2875=-0x1.790ca5c28aa31p-14
2876=-0x1.3eb969fa3cfap-15
2877=0x1.0ba800f953f3ap-13
2878=-0x1.790ca5c28aa31p-14
2879=-0x1.3eb969fa3cfap-15
2880=-0x1.21f9f2e142988p-13
2881=0x1.b06cdd526b8e9p-12
2882=-0x1.12c5a96861dfcp-12
2883=-0x1.21f9f2e142988p-13
2884=0x1.b06cdd526b8e9p-12
2885=-0x1.12c5a96861dfcp-12
2886=-0x1.21f9f2e142988p-13
2887=0x1.b06cdd526b8e9p-12
2888=-0x1.12c5a96861dfcp-12
2889=-0x1.21f9f2e142988p-13
2890=0x1.b06cdd526b8e9p-12
2891=-0x1.12c5a96861dfcp-12
2892=-0x1.007402e6bd2b2p-10
2893=0x1.f532438b056dep-10
2894=-0x1.e327640bdc548p-11
2895=-0x1.d1a4ddb13c288p-13
2896=-0x1.5293e0939c819p-13
2897=-0x1.461ab3066fd35p-12
2898=-0x1.29b2f0357fc23p-12
2899=0x1.38b928695ed3cp-9
2900=-0x1.0de81cf3655d3p-11
2901=-0x1.d5f6379a061p-12
2902=-0x1.38e991bb3c6cep-12
2903=-0x1.2c3d98deb554cp-14
2904=-0x1.3678aeb782ca7p-12
2905=0x1.6118ba0554008p-11
2906=-0x1.7f0e8ad9bcd38p-12
2907=-0x1.3678aeb782ca7p-12
2908=0x1.6118ba0554008p-11
2909=-0x1.7f0e8ad9bcd38p-12
2910=-0x1.3678aeb782ca7p-12
2911=0x1.6118ba0554008p-11
2912=-0x1.7f0e8ad9bcd38p-12
2913=-0x1.3678aeb782ca7p-12
2914=0x1.6118ba0554008p-11
2915=-0x1.7f0e8ad9bcd38p-12
2916=-0x1.98b7e31dcfe36p-12
2917=0x1.22f620eb01095p-11
2918=-0x1.4114487d9399fp-13
2919=-0x1.98b7e31dcfe36p-12
2920=0x1.22f620eb01095p-11
2921=-0x1.4114487d9399fp-13
2922=-0x1.98b7e31dcfe36p-12
2923=0x1.22f620eb01095p-11
2924=-0x1.4114487d9399fp-13
2925=-0x1.98b7e31dcfe36p-12
2926=0x1.22f620eb01095p-11
2927=-0x1.4114487d9399fp-13
2928=-0x1.ee8f43a31e24cp-14
2929=0x1.ec7f97198dd7cp-13
2930=-0x1.b7c700aa5bfd4p-14
2931=-0x1.ee8f43a31e24cp-14
2932=0x1.ec7f97198dd7cp-13
2933=-0x1.b7c700aa5bfd4p-14
2934=-0x1.ee8f43a31e24cp-14
2935=0x1.ec7f97198dd7cp-13
2936=-0x1.b7c700aa5bfd4p-14
2937=-0x1.ee8f43a31e24cp-14
2938=0x1.ec7f97198dd7cp-13
2939=-0x1.b7c700aa5bfd4p-14
2940=-0x1.6a557efecb95p-15
2941=-0x1.b6f19184ec835p-14
2942=0x1.3574ce115c82cp-13
2943=-0x1.6a557efecb95p-15
2944=-0x1.b6f19184ec835p-14
2945=0x1.3574ce115c82cp-13
2946=-0x1.6a557efecb95p-15
2947=-0x1.b6f19184ec835p-14
2948=0x1.3574ce115c82cp-13
2949=0x1.0f8c8a3735d1ap-13
2950=-0x1.bd19319d0daf1p-14
2951=-0x1.7ab7c75de32cp-17
2952=0x1.0f8c8a3735d1ap-13
2953=-0x1.bd19319d0daf1p-14
2954=-0x1.7ab7c75de32cp-17
2955=-0x1.d8452ae7b3f5cp-15
2956=0x1.7fd7464d4dc36p-14
2957=-0x1.0809b7d1d9bd9p-15
2967=0x1.24ef21f4ebcdap-15
2968=-0x1.0b5e8fbbde032p-15
2988=0x1.ef977d7550036p-15
2989=-0x1.c2f9ac8d1fbaap-15
3021=-0x1.3fd12d8d840f6p-16
3022=0x1.9ffca4ec031aap-15
3023=-0x1.381255a0db23ap-16
3024=-0x1.cd74fd7cd7053p-16
3025=0x1.373afb5956c52p-14
3026=-0x1.71acc22542811p-15
3027=-0x1.73428cea4427dp-15
3028=0x1.3c2ebdf268d22p-14
3029=-0x1.164fd0f39f0efp-15
3030=-0x1.aabf3287ea7d3p-15
3031=0x1.28c05a8210fap-13
3032=-0x1.3d35f46aff3b7p-14
3034=0x1.4774e7d6d6798p-18
3035=-0x1.fd6257d040d62p-20
3036=-0x1.c424d06435aa6p-18
3037=0x1.fac6f182fb0cap-16
3038=-0x1.74c83dba2201cp-16
3039=-0x1.eb1b1cc16649p-16
3040=0x1.b6fb1ef01f314p-15
3041=-0x1.6008d70acb295p-16
3049=-0x1.755d9ac4b3631p-17
3050=0x1.971d72adcd2ecp-17
3051=0x1.80480b3aafb98p-18
3054=-0x1.cefa65a21910ep-18
3055=0x1.e86937d47f292p-16
3056=-0x1.b1d56806601ep-17
3057=-0x1.c7d21a9124e0cp-16
3058=0x1.8add107e61734p-15
3059=-0x1.53c943ddf3eb1p-17
3060=-0x1.92d438d9ad39bp-18
3061=0x1.db6fd98d6e80cp-17
3063=-0x1.02d891fb9bb2bp-18
3064=0x1.9c98ba30a9f98p-16
3065=-0x1.0e36af9bf7885p-17
3072=-0x1.7883c3cf46927p-16
3073=0x1.6db4ad8d6ec0bp-14
3074=-0x1.f36563c1f6fb8p-15
3075=-0x1.d57cc7035bd3cp-16
3076=0x1.1167087c6d398p-14
3077=-0x1.a6fc1ba25f837p-16
3078=-0x1.4aa0e5e2de864p-15
3079=0x1.942f8a3a847d4p-14
3080=-0x1.a856ed32ddd55p-15
3081=-0x1.8b0117e79e8fbp-15
3082=0x1.d30edf1bb734cp-15
3083=-0x1.9da7bc10eededp-18
3100=0x1.c6111cafdeffbp-19
3108=0x1.7c7aac924262ap-17
3109=-0x1.42b1494291b2p-17
3114=0x1.e73eed10d14ep-17
3115=-0x1.9663efe6f3934p-17
3117=0x1.df56caef01922p-15
3118=-0x1.da4e18463b9f1p-15
