#mdl#2#284
#rdr#9/1/0
1:b,
18:u:N1F0X0 = %X[0,0],
18:u:N1F1X0 = %X[0,1],
19:u:N1F0L1 = %X[-1,0],
19:u:N1F1L1 = %X[-1,1],
19:u:N1F0L2 = %X[-2,0],
19:u:N1F1L2 = %X[-2,1],
18:u:N1F0R1 = %X[1,0],
18:u:N1F1R1 = %X[1,1],
#qrk#3
1:T,
1:I,
1:O,
#qrk#297
1:b,
15:u:N1F0X0 = 1574,
13:u:N1F1X0 = lo,
15:u:N1F0L1 = _x-1,
15:u:N1F1L1 = _x-1,
15:u:N1F0L2 = _x-2,
15:u:N1F1L2 = _x-2,
15:u:N1F0R1 = 1575,
13:u:N1F1R1 = lo,
15:u:N1F0X0 = 1575,
15:u:N1F0L1 = 1574,
13:u:N1F1L1 = lo,
15:u:N1F0L2 = _x-1,
15:u:N1F1L2 = _x-1,
15:u:N1F0R1 = 1587,
15:u:N1F0X0 = 1587,
15:u:N1F0L1 = 1575,
15:u:N1F0L2 = 1574,
13:u:N1F1L2 = lo,
15:u:N1F0R1 = 1605,
15:u:N1F0X0 = 1605,
15:u:N1F0L1 = 1587,
15:u:N1F0L2 = 1575,
15:u:N1F0L1 = 1605,
15:u:N1F0L2 = 1587,
15:u:N1F0R1 = 1606,
15:u:N1F0X0 = 1606,
15:u:N1F0L2 = 1605,
15:u:N1F0L1 = 1606,
15:u:N1F0R1 = 1609,
15:u:N1F0X0 = 1609,
15:u:N1F0L2 = 1606,
13:u:N1F0R1 = 32,
13:u:N1F1R1 = zs,
13:u:N1F0X0 = 32,
13:u:N1F1X0 = zs,
15:u:N1F0L1 = 1609,
15:u:N1F0R1 = 1603,
15:u:N1F0X0 = 1603,
13:u:N1F0L1 = 32,
13:u:N1F1L1 = zs,
15:u:N1F0L2 = 1609,
15:u:N1F0R1 = 1734,
15:u:N1F0X0 = 1734,
15:u:N1F0L1 = 1603,
13:u:N1F0L2 = 32,
13:u:N1F1L2 = zs,
15:u:N1F0R1 = 1662,
15:u:N1F0X0 = 1662,
15:u:N1F0L1 = 1734,
15:u:N1F0L2 = 1603,
15:u:N1F0L1 = 1662,
15:u:N1F0L2 = 1734,
15:u:N1F0R1 = 1736,
15:u:N1F0X0 = 1736,
15:u:N1F0L2 = 1662,
15:u:N1F0L1 = 1736,
15:u:N1F0R1 = 1548,
13:u:N1F1R1 = po,
15:u:N1F0X0 = 1548,
13:u:N1F1X0 = po,
15:u:N1F0L2 = 1736,
15:u:N1F0L1 = 1548,
13:u:N1F1L1 = po,
15:u:N1F0R1 = 1583,
15:u:N1F0X0 = 1583,
15:u:N1F0L2 = 1548,
13:u:N1F1L2 = po,
15:u:N1F0R1 = 1749,
15:u:N1F0X0 = 1749,
15:u:N1F0L1 = 1583,
15:u:N1F0R1 = 1585,
15:u:N1F0X0 = 1585,
15:u:N1F0L1 = 1749,
15:u:N1F0L2 = 1583,
15:u:N1F0R1 = 1610,
15:u:N1F0X0 = 1610,
15:u:N1F0L1 = 1585,
15:u:N1F0L2 = 1749,
15:u:N1F0L1 = 1610,
15:u:N1F0L2 = 1585,
15:u:N1F0L2 = 1610,
15:u:N1F0R1 = 1604,
15:u:N1F0X0 = 1604,
15:u:N1F0L1 = 1604,
15:u:N1F0L2 = 1604,
15:u:N1F0R1 = 1735,
15:u:N1F0X0 = 1735,
15:u:N1F0L1 = 1735,
15:u:N1F0L2 = 1735,
15:u:N1F0R1 = 1586,
15:u:N1F0X0 = 1586,
15:u:N1F0L1 = 1586,
15:u:N1F0L2 = 1586,
15:u:N1F0R1 = 1578,
15:u:N1F0X0 = 1578,
15:u:N1F0L1 = 1578,
15:u:N1F0L2 = 1578,
15:u:N1F0R1 = 1588,
15:u:N1F0X0 = 1588,
15:u:N1F0R1 = 1602,
15:u:N1F0X0 = 1602,
15:u:N1F0L1 = 1588,
15:u:N1F0L1 = 1602,
15:u:N1F0L2 = 1588,
15:u:N1F0L2 = 1602,
13:u:N1F0R1 = 45,
13:u:N1F1R1 = pd,
13:u:N1F0X0 = 45,
13:u:N1F1X0 = pd,
13:u:N1F0L1 = 45,
13:u:N1F1L1 = pd,
13:u:N1F0L2 = 45,
13:u:N1F1L2 = pd,
15:u:N1F0R1 = 1582,
15:u:N1F0X0 = 1582,
15:u:N1F0L1 = 1582,
15:u:N1F0L2 = 1582,
15:u:N1F0R1 = 1576,
15:u:N1F0X0 = 1576,
15:u:N1F0L1 = 1576,
15:u:N1F0L2 = 1576,
15:u:N1F0R1 = 1608,
15:u:N1F0X0 = 1608,
15:u:N1F0L1 = 1608,
15:u:N1F0L2 = 1608,
15:u:N1F0R1 = 1726,
15:u:N1F0X0 = 1726,
15:u:N1F0L1 = 1726,
15:u:N1F0L2 = 1726,
15:u:N1F0R1 = 1739,
15:u:N1F0X0 = 1739,
15:u:N1F0L1 = 1739,
15:u:N1F0L2 = 1739,
15:u:N1F0R1 = 1574,
15:u:N1F0R1 = 1711,
15:u:N1F0X0 = 1711,
15:u:N1F0L1 = 1711,
15:u:N1F0L2 = 1711,
13:u:N1F0R1 = 46,
13:u:N1F0X0 = 46,
13:u:N1F0L1 = 46,
13:u:N1F0L2 = 46,
15:u:N1F0R1 = 1709,
15:u:N1F0X0 = 1709,
15:u:N1F0L1 = 1709,
15:u:N1F0L2 = 1709,
15:u:N1F0R1 = 1744,
15:u:N1F0X0 = 1744,
15:u:N1F0L1 = 1744,
15:u:N1F0L2 = 1744,
15:u:N1F0R1 = 1594,
15:u:N1F0X0 = 1594,
15:u:N1F0L1 = 1594,
15:u:N1F0L2 = 1594,
15:u:N1F0R1 = 1670,
15:u:N1F0X0 = 1670,
15:u:N1F0L1 = 1670,
15:u:N1F0L2 = 1670,
15:u:N1F0R1 = 1567,
15:u:N1F0X0 = 1567,
15:u:N1F0L1 = 1567,
15:u:N1F0L2 = 1567,
13:u:N1F0R1 = 58,
13:u:N1F0X0 = 58,
13:u:N1F0L1 = 58,
13:u:N1F0L2 = 58,
15:u:N1F0R1 = 1580,
15:u:N1F0X0 = 1580,
15:u:N1F0L1 = 1580,
15:u:N1F0L2 = 1580,
15:u:N1F0R1 = 8211,
15:u:N1F0X0 = 8211,
15:u:N1F0L1 = 8211,
15:u:N1F0L2 = 8211,
13:u:N1F0R1 = 99,
13:u:N1F1R1 = ll,
13:u:N1F0X0 = 99,
13:u:N1F1X0 = ll,
13:u:N1F0R1 = 97,
13:u:N1F0X0 = 97,
13:u:N1F0L1 = 99,
13:u:N1F1L1 = ll,
14:u:N1F0R1 = 115,
14:u:N1F0X0 = 115,
13:u:N1F0L1 = 97,
13:u:N1F0L2 = 99,
13:u:N1F1L2 = ll,
14:u:N1F0R1 = 101,
14:u:N1F0X0 = 101,
14:u:N1F0L1 = 115,
13:u:N1F0L2 = 97,
14:u:N1F0L1 = 101,
14:u:N1F0L2 = 115,
14:u:N1F0L2 = 101,
13:u:N1F0R1 = 33,
13:u:N1F0X0 = 33,
13:u:N1F0L1 = 33,
13:u:N1F0L2 = 33,
14:u:N1F0R1 = 171,
13:u:N1F1R1 = pi,
14:u:N1F0X0 = 171,
13:u:N1F1X0 = pi,
14:u:N1F0L1 = 171,
13:u:N1F1L1 = pi,
14:u:N1F0L2 = 171,
13:u:N1F1L2 = pi,
14:u:N1F0R1 = 187,
13:u:N1F1R1 = pf,
14:u:N1F0X0 = 187,
13:u:N1F1X0 = pf,
14:u:N1F0L1 = 187,
13:u:N1F1L1 = pf,
14:u:N1F0L2 = 187,
13:u:N1F1L2 = pf,
15:u:N1F0R1 = 1563,
15:u:N1F0X0 = 1563,
15:u:N1F0L1 = 1563,
15:u:N1F0L2 = 1563,
15:u:N1F0R1 = 1601,
15:u:N1F0X0 = 1601,
15:u:N1F0L1 = 1601,
15:u:N1F0L2 = 1601,
13:u:N1F0R1 = 55,
13:u:N1F1R1 = nd,
13:u:N1F0X0 = 55,
13:u:N1F1X0 = nd,
13:u:N1F0R1 = 48,
13:u:N1F0X0 = 48,
13:u:N1F0L1 = 55,
13:u:N1F1L1 = nd,
13:u:N1F0L1 = 48,
13:u:N1F0L2 = 55,
13:u:N1F1L2 = nd,
13:u:N1F0L2 = 48,
13:u:N1F0R1 = 49,
13:u:N1F0X0 = 49,
13:u:N1F0L1 = 49,
13:u:N1F0R1 = 50,
13:u:N1F0X0 = 50,
13:u:N1F0L2 = 49,
13:u:N1F0R1 = 53,
13:u:N1F0X0 = 53,
13:u:N1F0L1 = 50,
13:u:N1F0L1 = 53,
13:u:N1F0L2 = 50,
13:u:N1F0L2 = 53,
14:u:N1F0R1 = 100,
14:u:N1F0X0 = 100,
14:u:N1F0R1 = 118,
14:u:N1F0X0 = 118,
14:u:N1F0L1 = 100,
14:u:N1F0L1 = 118,
14:u:N1F0L2 = 100,
14:u:N1F0R1 = 108,
14:u:N1F0X0 = 108,
14:u:N1F0L2 = 118,
14:u:N1F0L1 = 108,
14:u:N1F0L2 = 108,
16:u:N1F0R1 = 65281,
16:u:N1F0X0 = 65281,
16:u:N1F0L1 = 65281,
16:u:N1F0L2 = 65281,
15:u:N1F0R1 = 1688,
15:u:N1F0X0 = 1688,
15:u:N1F0L1 = 1688,
15:u:N1F0L2 = 1688,
13:u:N1F0R1 = 95,
13:u:N1F1R1 = pc,
13:u:N1F0X0 = 95,
13:u:N1F1X0 = pc,
13:u:N1F0L1 = 95,
13:u:N1F1L1 = pc,
13:u:N1F0L2 = 95,
13:u:N1F1L2 = pc,
13:u:N1F0R1 = 54,
13:u:N1F0X0 = 54,
13:u:N1F0L1 = 54,
13:u:N1F0L2 = 54,
13:u:N1F0R1 = 34,
13:u:N1F0X0 = 34,
13:u:N1F0L1 = 34,
13:u:N1F0L2 = 34,
13:u:N1F0R1 = 52,
13:u:N1F0X0 = 52,
13:u:N1F0L1 = 52,
13:u:N1F0L2 = 52,
13:u:N1F0R1 = 51,
13:u:N1F0X0 = 51,
13:u:N1F0L1 = 51,
13:u:N1F0L2 = 51,
15:u:N1F0R1 = 1642,
15:u:N1F0X0 = 1642,
15:u:N1F0L1 = 1642,
15:u:N1F0L2 = 1642,
15:u:N1F0R1 = _x+1,
15:u:N1F1R1 = _x+1,
0=-0x1.dd6b05b3b33aap-5
1=0x1.8858df99e77d2p-4
2=-0x1.61196de268885p-5
3=-0x1.16ad2c55a0038p+0
4=0x1.cdb4ea3821287p-1
5=-0x1.239a6a20c471bp-1
6=0x1.a7094066ca9b2p+0
7=-0x1.1b3623bfd4301p+1
8=-0x1.5463830e26f77p-1
9=0x1.93d9f92f5c28ap-1
10=-0x1.7a8d74b0e058ep-1
12=-0x1.8453b389cb0a4p+0
13=0x1.1873002e54b6ap+1
14=-0x1.a7228b3f969bfp+0
15=0x1.2e34d47d104ep-4
16=-0x1.293df7689d01ap-4
18=0x1.2e34d47d104ep-4
19=-0x1.293df7689d01ap-4
21=0x1.2e34d47d104ep-4
22=-0x1.293df7689d01ap-4
24=0x1.2e34d47d104ep-4
25=-0x1.293df7689d01ap-4
27=0x1.4537b01b6cf3p-1
28=-0x1.159bf37cde031p-1
29=-0x1.591936a2d289bp-4
30=-0x1.f8559ba146524p-4
32=0x1.d58b61128b0b8p-7
33=-0x1.8faf46cf6ad11p-2
34=0x1.fd193f9f50444p-2
35=-0x1.608451aadf859p-4
36=-0x1.55927dcb39d76p-3
37=0x1.adf00f3047635p-3
39=-0x1.7292d1aba5ccp+0
40=0x1.3c4d0ebb4734ap+0
41=-0x1.09a5d6a565f4p-1
54=-0x1.3b0281074511ap-3
55=0x1.9d3200271b12p-5
57=-0x1.30e851246197p-4
58=0x1.0ff4a89b09cb7p-4
61=0x1.2b393e11ee1b1p-3
62=-0x1.fa9f7f5d233c1p-2
63=-0x1.09d58217cecb4p-7
66=-0x1.8baa0dffb2ffdp-6
67=0x1.f85c596d2496p-5
68=-0x1.99eb65a719d07p-5
72=0x1.a95e4bdd5c49p-8
81=-0x1.bc59c4c3dfec1p-4
82=0x1.15cac588f9e54p-3
84=-0x1.029c106a2473dp-2
85=0x1.75b0bdd6f510ap-2
86=-0x1.2f4229e1e8857p-4
94=0x1.b785a6b152275p-5
95=-0x1.13e6aae74ff48p-3
96=-0x1.cb84786ff3ab6p-2
97=0x1.33bc8f291d2adp-1
98=-0x1.421a5309d0037p-3
99=-0x1.92197c20b9b54p-5
100=0x1.6aabc278b7c1ap-6
102=0x1.612d278fb63bap-2
103=0x1.7e6c14526332p-5
104=-0x1.b15e236e22a56p-1
105=0x1.612d278fb63bap-2
106=0x1.7e6c14526332p-5
107=-0x1.b15e236e22a56p-1
108=-0x1.548dfade5f56cp-1
109=-0x1.01c282d577167p+1
110=0x1.64b3d399af658p+1
111=-0x1.548dfade5f56cp-1
112=-0x1.01c282d577167p+1
113=0x1.64b3d399af658p+1
114=-0x1.72e8d870aac56p-5
116=-0x1.1e0162596ac16p-4
117=-0x1.57969a86843afp-6
119=0x1.8c75b114d55e8p-5
123=0x1.30ec4be41e89fp+1
124=-0x1.0fcb2c3baaba9p+1
125=-0x1.ce649c32d854bp-3
126=0x1.30ec4be41e89fp+1
127=-0x1.0fcb2c3baaba9p+1
128=-0x1.ce649c32d854bp-3
136=0x1.1f21e397ced6ap-7
141=-0x1.3cd9d3b85e639p-4
142=0x1.f24e47001d743p-3
143=-0x1.d8cb40d8dfcccp-3
144=-0x1.3cd9d3b85e639p-4
145=0x1.f24e47001d743p-3
146=-0x1.d8cb40d8dfcccp-3
150=-0x1.20444731fcf11p-4
151=0x1.8ee74137738a5p-3
152=-0x1.15f59851b2da6p-5
157=0x1.d2c7e80cf27cp-12
160=-0x1.472da1621b8dap-4
165=0x1.73c69168322d7p-3
166=-0x1.679f7b2e2324p-3
169=0x1.0872be538b9cep-6
174=-0x1.8572d3923be9dp-5
175=0x1.a539e404f846fp-4
177=0x1.1789e60d53dc6p-7
178=0x1.fd5debbd27b89p-3
179=-0x1.47e7992473de8p-2
180=0x1.4554313410e8cp-2
181=0x1.457e415ba66b1p-1
182=-0x1.13011c86a8d54p+0
183=0x1.72110756f588fp+0
184=-0x1.355b03a79673ap+0
185=-0x1.01e398c428b06p-3
186=0x1.16ed56dc2672ep+2
187=-0x1.bb90671db8102p+1
188=-0x1.9b66be6280f5dp-1
189=0x1.02d8594656328p-6
190=-0x1.c584427b49226p-6
192=-0x1.f6dc7078acc9p-10
194=0x1.850e7746e3d4ap-4
195=0x1.642eb44f28048p-4
196=-0x1.f7158d6bc62fdp-2
197=0x1.d2bffd4a0821bp-3
198=-0x1.fa3573399de7p-7
204=0x1.d0ccd431694d7p-5
207=0x1.c37700069250bp-3
208=-0x1.d8f9d6d9c7a9ap-5
210=0x1.c4eb1f2d7cdeep-3
211=-0x1.7f871e55a216ap-3
213=-0x1.547bae1d3deecp-2
214=0x1.e8d0f75043756p-2
215=-0x1.fc94a210523c7p-5
216=-0x1.9ad628c30f416p-4
217=0x1.d8ea579030cf6p-3
218=-0x1.9090937f8b431p-4
219=-0x1.3502fce92cd6fp-4
220=0x1.a0d946f3aa9acp-4
222=-0x1.84068bee1690ap-3
223=0x1.0266bc4a2d785p-2
226=0x1.19a97bf2e3f56p-4
227=-0x1.818de490bd215p-6
228=0x1.55d3ebbdf8d7ep-2
229=-0x1.7b00c9ec2a60bp-3
230=-0x1.7e2a9bd45b0e1p-4
231=-0x1.e1e4fc805cf4cp-5
240=0x1.4068858f8754ap-2
241=-0x1.9fb7284b3cea5p-2
249=-0x1.601c6441099c4p-6
250=0x1.5b4111b5610b3p-4
252=-0x1.990f0ec18ec94p-4
253=0x1.0d5ac0dd8b949p-3
255=-0x1.31ec1b54d8059p-3
256=0x1.73f4f4a807246p-3
258=-0x1.107cb4fd5cf3ep-4
259=0x1.6e3eb2a164e0cp-4
262=0x1.50787c9a7d77dp-6
263=-0x1.328d47ff09c11p-6
265=0x1.6ae573080b857p-6
267=-0x1.45f3e4065aa22p-2
268=0x1.1e9287a855676p-1
269=-0x1.06d9671bdeb63p-3
270=0x1.8e645bea7cdbp-4
271=-0x1.9b12e964fbf8ap-3
272=-0x1.5ddafe96e2edp-6
273=0x1.bd41ff4bab3aep-4
274=-0x1.366ff9d220a53p-5
279=-0x1.a18702f09038cp-7
280=0x1.0c3be645d01b8p-4
282=0x1.46f52b3305064p-4
283=-0x1.7e5406a8729b2p-6
288=-0x1.c414a3e03dd7ap-4
291=-0x1.f4ef8efe74b1ap-7
292=0x1.5dd84b2663d8dp-6
294=-0x1.79627ff37563ep-4
295=0x1.9382a7a106a0dp-3
296=-0x1.2dea00e9f8fc2p-4
297=0x1.37b140e875258p-3
299=-0x1.e886020e79642p-5
306=-0x1.032d29c18d926p-5
308=0x1.e41bd1e3a5aep-5
315=-0x1.e62fe15afe15ep-10
316=0x1.667ab7536193ap-8
330=-0x1.c650354dab41bp-5
331=0x1.291692f636f96p-3
333=-0x1.e815c0300402ep-5
334=0x1.2a1e89659b36fp-3
336=-0x1.e0f287a46494p-12
339=-0x1.21275d6c5fb4p-9
360=-0x1.51021bba4b634p-8
361=-0x1.4d47c2e72a35dp-5
362=0x1.be70a780528eep-3
363=0x1.d05afa5fef0c4p-2
364=-0x1.ad671d9be1f7dp-2
366=-0x1.b18dd79d6fa7cp-4
367=0x1.16a94462649eap-3
369=-0x1.57c0442f39ad6p-5
370=0x1.c996b4a6f4cbap-5
372=0x1.303e39ab632fbp-2
373=-0x1.144f8203527b3p-2
375=-0x1.0331fb49949f9p-4
376=0x1.8a7b93c78dc6cp-4
379=0x1.33fb6562af4a7p-6
408=-0x1.07c5ff6e264f8p-4
409=-0x1.70b4470a93ffap-4
410=0x1.5716906e29b49p-2
423=0x1.6b260590f6b47p-3
424=0x1.4257fc37ea555p-4
425=-0x1.798991d1409aep-2
426=0x1.649e63f4f540dp+0
427=-0x1.0c0f401cdf84fp+0
428=-0x1.129ca2e987b68p-2
432=0x1.6506a74f9304dp-5
438=-0x1.1e60232458afp-3
439=0x1.5f99b326fc1f4p-3
447=0x1.7f77a663a06b2p-2
448=-0x1.5d0f69a97c50fp-2
450=-0x1.1608a0206f005p-4
451=0x1.99559d337eeabp-4
454=0x1.1a08ced67d76p-11
463=0x1.bd2abdc603c65p-6
466=0x1.bee96a0a31582p-7
474=0x1.3e4d68e706d0cp-4
475=-0x1.3d291d49901b7p-4
477=-0x1.c5569b7d277ep-9
478=0x1.c323b80d24cd4p-7
486=0x1.1cd98bc650022p-2
487=-0x1.b22eda029fe87p-3
498=0x1.42db6309c829ap-2
499=-0x1.1ba364a8bf3efp-2
534=-0x1.056b4aefdf2dbp-5
535=0x1.7f964abecc02p-3
536=-0x1.d7a3d01dce89ap-5
540=-0x1.bee123d4f23ap-3
541=0x1.9c892af2cf71ep-2
542=-0x1.0e581a9d0c9b6p-4
549=-0x1.4983681e59e62p-7
550=0x1.22fa9d667e56ap-5
552=-0x1.c1422d6a90709p-3
553=0x1.9c76d20fb6796p-2
554=-0x1.09c0ffb01431p-4
562=0x1.689c0b24e6b05p-6
567=-0x1.0de802861a128p-3
568=0x1.25f47e0d7369bp-2
569=-0x1.5895d1f7bb44fp-6
579=-0x1.4d273f93e227p-7
580=0x1.0bd1ab5794bep-5
594=0x1.242e140dc9012p-1
595=-0x1.564fc6964ee21p-2
596=-0x1.eb9878c3bf37bp-4
615=0x1.dcb343ca28ca7p+0
616=-0x1.d6d4edd0528b7p+0
618=0x1.dcb343ca28ca7p+0
619=-0x1.d6d4edd0528b7p+0
627=0x1.12d47f40be278p-3
629=-0x1.c7be12205b0ep-4
630=0x1.12d47f40be278p-3
632=-0x1.c7be12205b0ep-4
633=0x1.a3c3f20876f4bp+0
634=-0x1.70fd758888477p+0
635=-0x1.455bf974b106cp-4
636=0x1.a3c3f20876f4bp+0
637=-0x1.70fd758888477p+0
638=-0x1.455bf974b106cp-4
679=0x1.6faca726f6342p-4
684=-0x1.01f253c19a07ap-1
685=0x1.68dd461c08906p-1
686=-0x1.389c35f4619dcp-4
690=-0x1.906028b2fab22p-3
691=0x1.017a26fb72ac7p-2
696=-0x1.542a184ac379p-1
697=0x1.b227ac568a0cp-1
698=-0x1.0112784b16afap-4
705=-0x1.03e38d4722ba2p-4
706=0x1.120b73e3b4fbap-3
717=-0x1.0dcd47d1ed57ap-3
718=0x1.56283a1beb9f9p-3
735=-0x1.86b3dd3ef16a5p-4
736=0x1.2028027c22c3p-3
813=-0x1.aafa972cf54f4p-5
814=0x1.a4862f87c2564p-3
815=-0x1.7a08bbbe82a7p-5
816=-0x1.aafa972cf54f4p-5
817=0x1.a4862f87c2564p-3
818=-0x1.7a08bbbe82a7p-5
819=-0x1.e12ee76842e7ep-4
820=0x1.1902401396c98p-3
822=-0x1.e12ee76842e7ep-4
823=0x1.1902401396c98p-3
849=0x1.2942c17227d0cp-2
850=-0x1.28a3e455d2ee6p-2
862=0x1.0ca6ef56bac1p-8
