#mdl#2#1406
#rdr#18/10/0
1:b,
21:u:code-1LLL =%X[-3,0],
21:u:code-1LL  =%X[-2,0],
21:u:code-1L   =%X[-1,0],
20:u:code-1X   =%X[0,0],
20:u:code-1R   =%X[1,0],
20:u:code-1RR  =%X[2,0],
20:u:code-1RRR =%X[3,0],
13:*100:%x[ 0,1],
13:*100:%x[ 0,2],
13:*100:%x[ 0,3],
13:*100:%x[ 0,4],
13:*100:%x[ 0,5],
13:*100:%x[ 0,6],
13:*100:%x[ 0,7],
13:*100:%x[ 0,8],
13:*100:%x[ 0,9],
14:*100:%x[ 0,10],
#qrk#3
1:T,
1:I,
1:O,
#qrk#664
1:b,
17:u:code-1LLL =_x-3,
17:u:code-1LL  =_x-2,
17:u:code-1L   =_x-1,
15:u:code-1X   =83,
16:u:code-1R   =104,
16:u:code-1RR  =111,
16:u:code-1RRR =119,
7:*100:Lu,
8:*100:9:T,
9:*100:18:T,
9:*100:23:T,
9:*100:26:T,
9:*100:28:T,
9:*100:29:T,
9:*100:27:F,
8:*100:5:F,
9:*100:21:F,
17:u:code-1LLL =_x-2,
17:u:code-1LL  =_x-1,
15:u:code-1L   =83,
16:u:code-1X   =104,
16:u:code-1R   =111,
16:u:code-1RR  =119,
15:u:code-1RRR =32,
7:*100:Ll,
8:*100:4:T,
9:*100:19:T,
9:*100:12:T,
9:*100:11:T,
8:*100:1:T,
9:*100:10:F,
9:*100:13:F,
8:*100:2:F,
8:*100:3:F,
17:u:code-1LLL =_x-1,
15:u:code-1LL  =83,
16:u:code-1L   =104,
16:u:code-1X   =111,
16:u:code-1R   =119,
15:u:code-1RR  =32,
15:u:code-1RRR =65,
8:*100:7:T,
9:*100:28:F,
9:*100:26:F,
9:*100:18:F,
9:*100:12:F,
8:*100:8:F,
8:*100:6:F,
9:*100:17:F,
15:u:code-1LLL =83,
16:u:code-1LL  =104,
16:u:code-1L   =111,
16:u:code-1X   =119,
15:u:code-1R   =32,
15:u:code-1RR  =65,
16:u:code-1RRR =108,
8:*100:5:T,
9:*100:10:T,
8:*100:0:F,
8:*100:1:F,
9:*100:16:F,
9:*100:14:F,
8:*100:7:F,
16:u:code-1LLL =104,
16:u:code-1LL  =111,
16:u:code-1L   =119,
15:u:code-1X   =32,
15:u:code-1R   =65,
16:u:code-1RR  =108,
7:*100:Zs,
9:*100:16:T,
9:*100:19:F,
9:*100:20:F,
16:u:code-1LLL =111,
16:u:code-1LL  =119,
15:u:code-1L   =32,
15:u:code-1X   =65,
16:u:code-1R   =108,
9:*100:11:F,
9:*100:22:F,
16:u:code-1LLL =119,
15:u:code-1LL  =32,
15:u:code-1L   =65,
16:u:code-1X   =108,
9:*100:27:T,
9:*100:24:F,
15:u:code-1LLL =32,
15:u:code-1LL  =65,
16:u:code-1L   =108,
15:u:code-1RRR =98,
9:*100:20:T,
8:*100:6:T,
15:u:code-1LLL =65,
16:u:code-1LL  =108,
15:u:code-1RR  =98,
16:u:code-1RRR =111,
8:*100:9:F,
16:u:code-1LLL =108,
15:u:code-1R   =98,
16:u:code-1RRR =117,
9:*100:25:F,
15:u:code-1X   =98,
16:u:code-1RR  =117,
16:u:code-1RRR =116,
15:u:code-1L   =98,
16:u:code-1R   =117,
16:u:code-1RR  =116,
9:*100:14:T,
8:*100:0:T,
9:*100:15:F,
15:u:code-1LL  =98,
16:u:code-1X   =117,
16:u:code-1R   =116,
9:*100:21:T,
9:*100:13:T,
8:*100:4:F,
15:u:code-1LLL =98,
16:u:code-1L   =117,
16:u:code-1X   =116,
15:u:code-1RRR =78,
8:*100:2:T,
8:*100:8:T,
16:u:code-1LL  =117,
16:u:code-1L   =116,
15:u:code-1RR  =78,
15:u:code-1RRR =83,
16:u:code-1LLL =117,
16:u:code-1LL  =116,
15:u:code-1R   =78,
15:u:code-1RR  =83,
15:u:code-1RRR =73,
16:u:code-1LLL =116,
15:u:code-1X   =78,
15:u:code-1R   =83,
15:u:code-1RR  =73,
15:u:code-1L   =78,
15:u:code-1R   =73,
9:*100:15:T,
8:*100:3:T,
15:u:code-1LL  =78,
15:u:code-1X   =73,
15:u:code-1RRR =81,
9:*100:29:F,
15:u:code-1LLL =78,
15:u:code-1L   =73,
15:u:code-1RR  =81,
15:u:code-1RRR =76,
9:*100:17:T,
15:u:code-1LL  =73,
15:u:code-1R   =81,
15:u:code-1RR  =76,
15:u:code-1LLL =73,
15:u:code-1X   =81,
15:u:code-1R   =76,
16:u:code-1RRR =113,
9:*100:22:T,
15:u:code-1L   =81,
15:u:code-1X   =76,
16:u:code-1RR  =113,
9:*100:23:F,
15:u:code-1LL  =81,
15:u:code-1L   =76,
16:u:code-1R   =113,
16:u:code-1RRR =101,
15:u:code-1LLL =81,
15:u:code-1LL  =76,
16:u:code-1X   =113,
16:u:code-1RR  =101,
16:u:code-1RRR =114,
15:u:code-1LLL =76,
16:u:code-1L   =113,
16:u:code-1R   =101,
16:u:code-1RR  =114,
16:u:code-1RRR =121,
16:u:code-1LL  =113,
16:u:code-1X   =101,
16:u:code-1R   =114,
16:u:code-1RR  =121,
16:u:code-1LLL =113,
16:u:code-1L   =101,
16:u:code-1X   =114,
16:u:code-1R   =121,
16:u:code-1RRR =109,
16:u:code-1LL  =101,
16:u:code-1L   =114,
16:u:code-1X   =121,
16:u:code-1RR  =109,
16:u:code-1LLL =101,
16:u:code-1LL  =114,
16:u:code-1L   =121,
16:u:code-1R   =109,
16:u:code-1RRR =100,
16:u:code-1LLL =114,
16:u:code-1LL  =121,
16:u:code-1X   =109,
16:u:code-1RR  =100,
16:u:code-1LLL =121,
16:u:code-1L   =109,
16:u:code-1R   =100,
16:u:code-1LL  =109,
16:u:code-1X   =100,
16:u:code-1LLL =109,
16:u:code-1L   =100,
16:u:code-1LL  =100,
16:u:code-1LLL =100,
16:u:code-1RRR =102,
16:u:code-1RR  =102,
16:u:code-1R   =102,
16:u:code-1X   =102,
16:u:code-1RRR =104,
16:u:code-1L   =102,
16:u:code-1RR  =104,
16:u:code-1LL  =102,
16:u:code-1LLL =102,
15:u:code-1RRR =99,
15:u:code-1RR  =99,
15:u:code-1R   =99,
16:u:code-1RRR =110,
15:u:code-1X   =99,
16:u:code-1RR  =110,
15:u:code-1L   =99,
16:u:code-1R   =110,
15:u:code-1LL  =99,
16:u:code-1X   =110,
15:u:code-1LLL =99,
16:u:code-1L   =110,
16:u:code-1LL  =110,
16:u:code-1LLL =110,
16:u:code-1RRR =105,
16:u:code-1RR  =105,
16:u:code-1R   =105,
9:*100:25:T,
16:u:code-1X   =105,
16:u:code-1L   =105,
16:u:code-1LL  =105,
16:u:code-1LLL =105,
16:u:code-1RRR =115,
16:u:code-1RR  =115,
16:u:code-1R   =115,
16:u:code-1X   =115,
16:u:code-1L   =115,
16:u:code-1RRR =112,
16:u:code-1LL  =115,
16:u:code-1RR  =112,
16:u:code-1LLL =115,
16:u:code-1R   =112,
16:u:code-1X   =112,
16:u:code-1L   =112,
16:u:code-1LL  =112,
15:u:code-1RRR =97,
16:u:code-1LLL =112,
15:u:code-1RR  =97,
15:u:code-1R   =97,
15:u:code-1X   =97,
15:u:code-1L   =97,
15:u:code-1LL  =97,
15:u:code-1LLL =97,
9:*100:24:T,
16:u:code-1RRR =103,
16:u:code-1RR  =103,
16:u:code-1R   =103,
16:u:code-1X   =103,
16:u:code-1L   =103,
16:u:code-1LL  =103,
16:u:code-1LLL =103,
15:u:code-1RRR =46,
15:u:code-1RR  =46,
15:u:code-1R   =46,
15:u:code-1RRR =89,
15:u:code-1X   =46,
15:u:code-1RR  =89,
7:*100:Po,
15:u:code-1L   =46,
15:u:code-1R   =89,
15:u:code-1LL  =46,
15:u:code-1X   =89,
15:u:code-1LLL =46,
15:u:code-1L   =89,
15:u:code-1LL  =89,
15:u:code-1LLL =89,
15:u:code-1RRR =58,
15:u:code-1RR  =58,
15:u:code-1R   =58,
15:u:code-1X   =58,
15:u:code-1L   =58,
15:u:code-1LL  =58,
15:u:code-1LLL =58,
15:u:code-1RRR =45,
15:u:code-1RR  =45,
15:u:code-1RRR =56,
15:u:code-1R   =45,
15:u:code-1RR  =56,
15:u:code-1RRR =57,
15:u:code-1X   =45,
15:u:code-1R   =56,
15:u:code-1RR  =57,
7:*100:Pd,
15:u:code-1L   =45,
15:u:code-1X   =56,
15:u:code-1R   =57,
7:*100:Nd,
15:u:code-1LL  =45,
15:u:code-1L   =56,
15:u:code-1X   =57,
15:u:code-1LLL =45,
15:u:code-1LL  =56,
15:u:code-1L   =57,
15:u:code-1LLL =56,
15:u:code-1LL  =57,
15:u:code-1LLL =57,
15:u:code-1RRR =74,
15:u:code-1RR  =74,
15:u:code-1R   =74,
15:u:code-1X   =74,
15:u:code-1L   =74,
15:u:code-1LL  =74,
15:u:code-1LLL =74,
16:u:code-1RRR =120,
16:u:code-1RR  =120,
16:u:code-1R   =120,
16:u:code-1X   =120,
15:u:code-1RRR =84,
16:u:code-1L   =120,
15:u:code-1RR  =84,
16:u:code-1LL  =120,
15:u:code-1R   =84,
16:u:code-1LLL =120,
15:u:code-1X   =84,
15:u:code-1L   =84,
15:u:code-1LL  =84,
15:u:code-1LLL =84,
16:u:code-1RRR =118,
16:u:code-1RR  =118,
16:u:code-1R   =118,
16:u:code-1X   =118,
16:u:code-1L   =118,
15:u:code-1RRR =49,
16:u:code-1LL  =118,
15:u:code-1RR  =49,
16:u:code-1LLL =118,
15:u:code-1R   =49,
15:u:code-1X   =49,
15:u:code-1L   =49,
15:u:code-1LL  =49,
15:u:code-1LLL =49,
15:u:code-1RRR =44,
15:u:code-1RR  =44,
15:u:code-1R   =44,
15:u:code-1X   =44,
15:u:code-1L   =44,
15:u:code-1LL  =44,
15:u:code-1LLL =44,
15:u:code-1RRR =67,
15:u:code-1RR  =67,
15:u:code-1R   =67,
15:u:code-1X   =67,
15:u:code-1L   =67,
15:u:code-1LL  =67,
15:u:code-1LLL =67,
15:u:code-1RRR =86,
15:u:code-1RR  =86,
15:u:code-1R   =86,
15:u:code-1X   =86,
15:u:code-1L   =86,
15:u:code-1LL  =86,
15:u:code-1LLL =86,
15:u:code-1RRR =66,
15:u:code-1RR  =66,
15:u:code-1R   =66,
15:u:code-1X   =66,
15:u:code-1L   =66,
15:u:code-1LL  =66,
15:u:code-1LLL =66,
15:u:code-1RRR =40,
15:u:code-1RR  =40,
15:u:code-1R   =40,
15:u:code-1X   =40,
7:*100:Ps,
15:u:code-1L   =40,
15:u:code-1RRR =41,
15:u:code-1LL  =40,
15:u:code-1RR  =41,
15:u:code-1LLL =40,
15:u:code-1R   =41,
15:u:code-1X   =41,
7:*100:Pe,
15:u:code-1L   =41,
15:u:code-1LL  =41,
15:u:code-1LLL =41,
15:u:code-1RRR =50,
15:u:code-1RR  =50,
15:u:code-1R   =50,
15:u:code-1X   =50,
15:u:code-1L   =50,
15:u:code-1LL  =50,
15:u:code-1LLL =50,
15:u:code-1RRR =77,
15:u:code-1RR  =77,
15:u:code-1R   =77,
15:u:code-1X   =77,
15:u:code-1L   =77,
15:u:code-1LL  =77,
15:u:code-1LLL =77,
15:u:code-1RRR =48,
15:u:code-1RR  =48,
15:u:code-1R   =48,
15:u:code-1X   =48,
15:u:code-1L   =48,
15:u:code-1LL  =48,
15:u:code-1LLL =48,
15:u:code-1RRR =68,
15:u:code-1RR  =68,
15:u:code-1RRR =79,
15:u:code-1R   =68,
15:u:code-1RR  =79,
15:u:code-1RRR =88,
15:u:code-1X   =68,
15:u:code-1R   =79,
15:u:code-1RR  =88,
15:u:code-1L   =68,
15:u:code-1X   =79,
15:u:code-1R   =88,
15:u:code-1LL  =68,
15:u:code-1L   =79,
15:u:code-1X   =88,
15:u:code-1LLL =68,
15:u:code-1LL  =79,
15:u:code-1L   =88,
15:u:code-1LLL =79,
15:u:code-1LL  =88,
15:u:code-1LLL =88,
15:u:code-1RRR =72,
15:u:code-1RR  =72,
15:u:code-1R   =72,
15:u:code-1X   =72,
15:u:code-1L   =72,
15:u:code-1LL  =72,
15:u:code-1LLL =72,
15:u:code-1RRR =87,
15:u:code-1RR  =87,
15:u:code-1R   =87,
15:u:code-1X   =87,
15:u:code-1L   =87,
15:u:code-1LL  =87,
15:u:code-1LLL =87,
15:u:code-1RRR =63,
15:u:code-1RR  =63,
15:u:code-1R   =63,
15:u:code-1X   =63,
15:u:code-1L   =63,
15:u:code-1LL  =63,
15:u:code-1LLL =63,
16:u:code-1RRR =122,
16:u:code-1RR  =122,
16:u:code-1R   =122,
16:u:code-1X   =122,
16:u:code-1L   =122,
16:u:code-1LL  =122,
16:u:code-1LLL =122,
16:u:code-1RRR =106,
16:u:code-1RR  =106,
16:u:code-1R   =106,
16:u:code-1X   =106,
16:u:code-1L   =106,
16:u:code-1LL  =106,
16:u:code-1LLL =106,
16:u:code-1RRR =107,
16:u:code-1RR  =107,
16:u:code-1R   =107,
16:u:code-1X   =107,
16:u:code-1L   =107,
16:u:code-1LL  =107,
16:u:code-1LLL =107,
15:u:code-1RRR =71,
15:u:code-1RR  =71,
15:u:code-1RRR =82,
15:u:code-1R   =71,
15:u:code-1RR  =82,
15:u:code-1X   =71,
15:u:code-1R   =82,
15:u:code-1L   =71,
15:u:code-1X   =82,
15:u:code-1LL  =71,
15:u:code-1L   =82,
15:u:code-1LLL =71,
15:u:code-1LL  =82,
15:u:code-1LLL =82,
15:u:code-1RRR =69,
15:u:code-1RR  =69,
15:u:code-1R   =69,
15:u:code-1X   =69,
15:u:code-1RRR =75,
15:u:code-1L   =69,
15:u:code-1RR  =75,
15:u:code-1LL  =69,
15:u:code-1R   =75,
15:u:code-1LLL =69,
15:u:code-1X   =75,
15:u:code-1L   =75,
15:u:code-1LL  =75,
15:u:code-1LLL =75,
15:u:code-1RRR =85,
15:u:code-1RR  =85,
15:u:code-1R   =85,
15:u:code-1X   =85,
15:u:code-1L   =85,
15:u:code-1LL  =85,
15:u:code-1LLL =85,
15:u:code-1RRR =80,
15:u:code-1RR  =80,
15:u:code-1R   =80,
15:u:code-1X   =80,
15:u:code-1L   =80,
15:u:code-1LL  =80,
15:u:code-1LLL =80,
15:u:code-1RRR =59,
15:u:code-1RR  =59,
15:u:code-1R   =59,
15:u:code-1X   =59,
15:u:code-1L   =59,
15:u:code-1LL  =59,
15:u:code-1LLL =59,
15:u:code-1RRR =39,
15:u:code-1RR  =39,
15:u:code-1R   =39,
15:u:code-1X   =39,
15:u:code-1L   =39,
15:u:code-1LL  =39,
15:u:code-1LLL =39,
15:u:code-1RRR =70,
15:u:code-1RR  =70,
15:u:code-1R   =70,
15:u:code-1X   =70,
15:u:code-1L   =70,
15:u:code-1LL  =70,
15:u:code-1LLL =70,
17:u:code-1RRR =8211,
17:u:code-1RR  =8211,
17:u:code-1R   =8211,
17:u:code-1X   =8211,
17:u:code-1L   =8211,
17:u:code-1LL  =8211,
17:u:code-1LLL =8211,
15:u:code-1RRR =51,
15:u:code-1RR  =51,
15:u:code-1R   =51,
15:u:code-1X   =51,
15:u:code-1L   =51,
15:u:code-1LL  =51,
15:u:code-1LLL =51,
15:u:code-1RRR =52,
15:u:code-1RR  =52,
15:u:code-1R   =52,
15:u:code-1X   =52,
15:u:code-1L   =52,
15:u:code-1LL  =52,
15:u:code-1LLL =52,
15:u:code-1RRR =53,
15:u:code-1RR  =53,
15:u:code-1R   =53,
15:u:code-1X   =53,
15:u:code-1L   =53,
15:u:code-1LL  =53,
15:u:code-1LLL =53,
16:u:code-1RRR =124,
16:u:code-1RR  =124,
16:u:code-1R   =124,
16:u:code-1X   =124,
7:*100:Sm,
16:u:code-1L   =124,
16:u:code-1LL  =124,
16:u:code-1LLL =124,
15:u:code-1RRR =95,
15:u:code-1RR  =95,
15:u:code-1R   =95,
15:u:code-1X   =95,
7:*100:Pc,
15:u:code-1L   =95,
15:u:code-1LL  =95,
15:u:code-1LLL =95,
15:u:code-1RRR =34,
15:u:code-1RR  =34,
15:u:code-1R   =34,
15:u:code-1X   =34,
15:u:code-1L   =34,
15:u:code-1LL  =34,
15:u:code-1LLL =34,
15:u:code-1RRR =38,
15:u:code-1RR  =38,
15:u:code-1R   =38,
15:u:code-1X   =38,
15:u:code-1L   =38,
15:u:code-1LL  =38,
15:u:code-1LLL =38,
15:u:code-1RRR =37,
15:u:code-1RR  =37,
15:u:code-1R   =37,
15:u:code-1X   =37,
15:u:code-1L   =37,
15:u:code-1LL  =37,
15:u:code-1LLL =37,
15:u:code-1RRR =55,
15:u:code-1RR  =55,
15:u:code-1R   =55,
15:u:code-1X   =55,
15:u:code-1L   =55,
15:u:code-1LL  =55,
15:u:code-1LLL =55,
15:u:code-1RRR =54,
15:u:code-1RR  =54,
15:u:code-1R   =54,
15:u:code-1X   =54,
15:u:code-1L   =54,
15:u:code-1LL  =54,
15:u:code-1LLL =54,
15:u:code-1RRR =33,
15:u:code-1RR  =33,
15:u:code-1R   =33,
15:u:code-1X   =33,
15:u:code-1L   =33,
15:u:code-1LL  =33,
15:u:code-1LLL =33,
15:u:code-1RRR =90,
15:u:code-1RR  =90,
15:u:code-1R   =90,
15:u:code-1X   =90,
15:u:code-1L   =90,
15:u:code-1LL  =90,
15:u:code-1LLL =90,
15:u:code-1RRR =47,
15:u:code-1RR  =47,
15:u:code-1R   =47,
15:u:code-1X   =47,
15:u:code-1L   =47,
15:u:code-1LL  =47,
15:u:code-1LLL =47,
16:u:code-1RRR =246,
16:u:code-1RR  =246,
16:u:code-1R   =246,
16:u:code-1X   =246,
16:u:code-1L   =246,
16:u:code-1LL  =246,
16:u:code-1LLL =246,
16:u:code-1RRR =233,
16:u:code-1RR  =233,
16:u:code-1R   =233,
16:u:code-1X   =233,
16:u:code-1L   =233,
16:u:code-1LL  =233,
16:u:code-1LLL =233,
16:u:code-1RRR =231,
16:u:code-1RR  =231,
16:u:code-1R   =231,
16:u:code-1X   =231,
16:u:code-1L   =231,
16:u:code-1LL  =231,
16:u:code-1LLL =231,
17:u:code-1RRR =_x+1,
17:u:code-1RR  =_x+1,
17:u:code-1RRR =_x+2,
17:u:code-1R   =_x+1,
17:u:code-1RR  =_x+2,
17:u:code-1RRR =_x+3,
0=-0x1.5aa9354ba46c5p-2
1=0x1.976b3f9775ae6p-3
2=-0x1.3a5bdfbcaa098p-2
3=-0x1.e2752bec71e4bp-3
4=0x1.77403eb9244fp-3
5=0x1.e7d6e9eb4716cp-4
6=0x1.1a823e0d30f6p-2
7=-0x1.c0cabb311a4bap-1
8=-0x1.d1df804be1a5cp-2
9=0x1.b2097395e2056p-6
10=-0x1.a06520a08391cp-6
12=0x1.b2097395e2056p-6
13=-0x1.a06520a08391cp-6
15=0x1.b2097395e2056p-6
16=-0x1.a06520a08391cp-6
19=0x1.4b570bb3f30e7p-5
20=-0x1.68d652eb47e84p-9
21=0x1.015f941942e3cp-1
22=-0x1.12d1649a1923ap-1
26=0x1.ad4f8976c2d33p-4
27=0x1.94363e92579b4p-5
28=-0x1.b354b4af2fa6cp-5
30=0x1.9971cd616bdep-7
31=0x1.653b797364bc2p-4
32=-0x1.b83ff0296bc07p-2
33=0x1.1cea4bc1e1d28p-1
34=-0x1.56c6a29f7d108p+0
35=-0x1.43d4408b2e0a9p-3
36=-0x1.2cb200438f53dp-1
37=0x1.bed612e3b5bcp+0
38=-0x1.07c341873f58dp-3
39=0x1.c443fa9d6ce7cp-5
40=-0x1.8bec511bad80ep-5
42=0x1.eebed23a4604p-3
43=-0x1.0991fda739047p-2
44=-0x1.4bd73e4e7b15ap-5
45=0x1.79fbfa41cbfa5p-2
46=-0x1.6cdb7552a6213p-3
47=-0x1.02b8644f2b0fap-4
48=-0x1.f3a8aa055ebeep-5
49=0x1.13472ffd4c1bbp-5
50=-0x1.06673a21c06d6p-9
51=-0x1.353ea171c073p-5
52=-0x1.a532ba0f0822fp-6
53=-0x1.caa1c5339c94ap-7
54=-0x1.d2f97c815537dp-6
55=0x1.78461f503255dp-6
56=-0x1.1377a6e876267p-3
57=0x1.4a6b475cdb45ep-3
58=0x1.71ac52a56c83p-2
59=-0x1.713b75118e294p-3
61=-0x1.77a3ca5b6b7aep-2
62=0x1.32c6e4fa43b05p-5
63=-0x1.413116a2d5446p-8
66=-0x1.111bc10cfbaacp+0
67=0x1.13fd92162979p+0
68=-0x1.057394f3b8388p-4
69=-0x1.063ce30bab48ep+0
70=0x1.89cf4bf91f4d6p+0
71=-0x1.59220fa065418p-7
72=-0x1.98c1010acc3a5p-3
73=0x1.7c6e1355b3df8p-9
74=-0x1.ebd448e31e328p-7
75=-0x1.60d56532b3af8p-7
76=-0x1.5657fb545186ap-6
77=-0x1.5ca4a03267613p-7
78=0x1.2098a94b7081p-4
79=-0x1.5ce8a2cf6f33bp-4
81=-0x1.a9c69a5b412f2p-3
82=0x1.c37878624822dp-4
83=0x1.c699175ca4016p-3
84=0x1.d34cb921f3277p-2
86=-0x1.8392614b74f3cp-3
87=-0x1.e7c05bdbc0606p-4
88=-0x1.178ad387a5b11p-5
89=-0x1.0a2300761ec99p-4
90=-0x1.0b8e40e81a196p-1
91=0x1.cafb988bd3038p-2
92=-0x1.4a5ce8f4cc4ebp-7
93=-0x1.27e6cda537c11p-1
94=0x1.189616c5bda98p+0
95=-0x1.4189cfea7a644p-4
97=0x1.15d1551b2617bp-8
99=-0x1.e8614159c7798p-9
100=-0x1.3df5cebe1e9ap-11
101=-0x1.90d8a7bccdd95p-12
103=0x1.dd42f0e8449c7p-5
104=-0x1.30993436f3e1dp-4
105=0x1.c0f7f5411bac6p-6
106=0x1.6ac264f37a1dep-2
107=-0x1.f4a9b0eebbd4ep-6
108=-0x1.b001dcba59ac6p-4
109=-0x1.f7d414fc67798p-4
114=0x1.e80772d31a733p-3
115=-0x1.89a06b4c1fa01p-2
116=-0x1.29f5718acba5ap-3
117=0x1.acf9cad795fb3p-1
118=-0x1.2279e1ede9f05p-1
119=-0x1.7019712a55646p-7
120=-0x1.55c3dba92e753p-9
121=0x1.1beaf4326375dp-3
122=-0x1.aa63efbc36b23p-5
123=-0x1.21886ceaf9b6bp-6
124=-0x1.dc767de8f4ecap-8
126=0x1.c330b07b93a7ap-1
127=-0x1.07948b8dda04ep-4
128=-0x1.b37a401660a56p-4
129=0x1.0ddaa7172fb6bp-1
130=-0x1.56e57706ce927p-1
132=-0x1.09640553c8752p-1
133=0x1.1c13bc6b33557p-1
134=-0x1.8b3eb1ddf3c84p-2
135=0x1.c42cd4699bb2ap-2
136=-0x1.5f0e0224d1ffdp-2
137=-0x1.8c70756fa8a39p-4
138=0x1.88d74ea57388bp-2
139=-0x1.9d7b7e9fc78a8p-5
140=-0x1.02a660a4b1afdp-3
141=0x1.8cd3a18f07936p-3
142=-0x1.10b695b2dcbf9p-2
143=-0x1.88af34cfa5896p-2
145=0x1.b266550ee8df8p-3
146=0x1.7198754f784b6p-3
147=-0x1.32612cfeec056p-10
148=-0x1.7841775bcc18cp-6
149=-0x1.fe46d0c6bb0b1p-7
156=-0x1.56990670b51f8p-3
157=0x1.be396d1e35965p-3
159=-0x1.debf0ca461bcep-3
160=0x1.66271bb7396bcp-3
161=-0x1.85c08a6116826p-6
162=0x1.f6c2661f8f758p-4
165=-0x1.224dbf77e3802p-4
166=0x1.095af80e535d3p-5
168=0x1.a5c6ef4e0367ap-2
169=-0x1.418c9d18a8707p-2
170=-0x1.7bba305122349p-4
171=-0x1.0286bc6b5c448p+1
172=0x1.466fba25601d3p+0
173=-0x1.29b104d8ea7d5p+0
174=-0x1.4961709ed0ad3p+0
175=0x1.68d650ff04502p-2
176=-0x1.6ca1defa84c9bp-2
177=-0x1.087ef55607b86p+1
178=0x1.05e7521ca76cfp+0
179=-0x1.acfc16fb7085cp-1
180=0x1.92ff984cac9d8p-1
181=-0x1.601eb5aab45b2p-1
182=-0x1.5486b7fd9493cp-3
183=-0x1.4e26dd894aec2p-3
184=0x1.18a04e5ba1a34p-6
185=-0x1.bf7d7e96a394bp-5
186=-0x1.3eb1435edf12fp-6
187=-0x1.4dc6b4d4711eep-2
188=-0x1.120e13471cfd2p-4
189=-0x1.b189a24be065p-7
190=0x1.3c0f4de144e8p-1
191=-0x1.0300c0677e125p-7
192=-0x1.8ccd6cf45fda8p-5
193=-0x1.a692f16483c51p-6
194=-0x1.0a0431fecee48p-6
195=-0x1.5300163957b88p-2
196=0x1.77f56ee35ea3p-3
197=-0x1.397a243fd7ab1p-4
199=0x1.b89583118c0ecp-2
200=-0x1.72620a99b5004p-2
201=-0x1.fd8151e9d6c01p-4
202=0x1.d377cc87d52b6p-4
203=0x1.432d20f424ed8p-4
204=-0x1.2e59ed9cc1748p-3
205=-0x1.ba0be26a12bb4p-5
206=-0x1.924133c6649aap-6
207=0x1.6328001deb1e1p-1
208=-0x1.35e4488c1b245p-2
209=-0x1.0fd4281bfaafdp-2
210=-0x1.0824be27fc56cp-3
212=-0x1.1f7d7cda060eap-2
213=-0x1.ca2bf9ce0447fp-1
214=-0x1.0c959a0a5cd9dp-2
216=0x1.1a3f786a5b4e4p+1
217=-0x1.15eb56d38e76fp-1
218=-0x1.37469710b771p-5
219=-0x1.5481bc35bc308p-3
220=0x1.98231c98b54f8p-2
221=-0x1.89320590f0a46p-1
222=-0x1.b4dfe3a11b792p-3
223=-0x1.0e0d24e134bf7p-6
224=0x1.0d880755b05dep-2
225=0x1.468b376501bc3p-2
226=0x1.1b411615f0808p-4
227=0x1.3d920c4455a1p-3
228=-0x1.d638d0a4edabbp-2
229=-0x1.265938ea1b46ep-2
230=-0x1.7209f42999bb8p-2
231=-0x1.9d66e47839a64p-2
232=0x1.15268d1b8fa3ap-3
233=-0x1.b073c5056b581p-4
234=-0x1.6b49afacc4e9ap-2
235=0x1.2781d3990249ap-2
236=0x1.b08b648bb2941p-4
237=0x1.64be32a8ca995p-4
238=0x1.b531e2d0bf21fp-6
239=-0x1.ce5d3b96fd8bfp-3
240=-0x1.e2c65a6ec27f2p-3
241=-0x1.78b5f364f8008p-5
242=-0x1.6daf579df36e2p-5
243=0x1.01886430b1846p-2
244=-0x1.c4f5a736008fcp-3
245=-0x1.9dd0a67f8ac88p-5
246=0x1.0d1844e38fe3bp-2
247=-0x1.c682022fb83afp-4
250=0x1.073ad3459b9ap-5
251=-0x1.1e1017b8307a3p-5
252=0x1.50b1339a02601p-6
253=-0x1.ee32d30465dd3p-5
254=-0x1.ed6927b67eecap-7
255=-0x1.88a249297b405p-8
256=0x1.a731a54fd4038p-4
257=-0x1.34ca8b60a9ccbp-4
258=0x1.3ede560d5f88ep-1
259=-0x1.325cbea56f447p+0
260=0x1.85705a89275a1p-2
261=-0x1.44dd77a09ce41p-1
262=0x1.bf35c5517e82ap-1
263=-0x1.9cf50a3d4981cp-2
264=0x1.4d056863680fep-8
265=-0x1.653097ecc7ecep-4
266=-0x1.d814de3f14752p-6
267=0x1.c33698b6dbab5p-5
268=0x1.1764112900996p-5
269=-0x1.bb3dad57d988cp-5
270=0x1.46723282253dfp-7
271=0x1.d2efde170a307p-3
272=-0x1.586b10790b409p-3
273=-0x1.4a479d666ac1fp-4
274=-0x1.5ef787920a35ep-8
276=0x1.5584a5b5dc139p-4
277=-0x1.07ca8b98e25fp-4
278=-0x1.50c90ee541e06p-6
279=0x1.01dba0d263778p-5
280=0x1.1fbf9e944fed9p-2
281=-0x1.35ae3a1cf0acbp-4
282=-0x1.113e07516ea72p-4
283=-0x1.c27ab04c3aa89p-8
284=-0x1.5753d015ce726p-4
285=-0x1.29b50f133befdp-2
286=0x1.265a4a5ce517cp-3
287=0x1.ecd702476cc1ap-5
288=0x1.712d2e468d609p-3
289=-0x1.b1cc75c85ab7cp-3
290=-0x1.5509289b1a82ap-4
294=-0x1.051b4cdef859ap-3
295=0x1.5f077c4186761p-3
297=-0x1.66ed9a7ba6c1bp-3
298=0x1.3a735485128b8p-5
300=-0x1.5095c954639dbp-2
301=0x1.64074a497faa5p-2
302=-0x1.7cb96a26e6fd6p-5
303=-0x1.7a66614043d84p-9
305=0x1.6c57afc1f9f66p-6
306=-0x1.134abb9eb94e2p-5
307=0x1.c894f7c39e7dfp-4
308=-0x1.cd787446ca4a7p-2
312=0x1.0ee4e576967f2p-4
313=0x1.b14fcb3aaa5bp-5
314=-0x1.e0a7d5633e45fp-4
315=-0x1.3eb8066d8ca8bp-1
316=0x1.704f4c097c6c5p-3
317=-0x1.cea65a3d6303bp-1
318=-0x1.e60c5a91d3d68p-3
319=0x1.ae872899da76cp-5
320=0x1.34035a099ceadp-2
321=0x1.3c8d7844d9331p+0
322=-0x1.5068f5fbec215p-2
323=-0x1.783defed35e73p-4
324=-0x1.1fe95da100b7ep-2
325=0x1.3dab07b0673dap-2
326=-0x1.d3b4d0e9d80d6p-4
327=-0x1.3577371ba3cdep-3
328=0x1.4b170a484f961p-3
329=0x1.03f0794947c5ap-5
331=0x1.4d307cc38274cp-2
332=-0x1.328a3a434c96ap-3
333=-0x1.b5aedd68d147bp-5
334=-0x1.605755844798cp-5
335=-0x1.d060f54cf8d5cp-6
336=0x1.b879828bac024p-3
338=-0x1.f923d341b4a4dp-4
339=-0x1.e7f77ccefa85p-4
340=0x1.d224f527d0fb2p-3
341=0x1.70daf0f5636cp-7
342=-0x1.66b0c1a666504p-4
343=-0x1.20c0a456f914ap-2
344=-0x1.d6f7b27c3c9a1p-4
345=0x1.f3ffa0c4640a4p-2
346=-0x1.099d3bc30551bp-2
347=-0x1.5ef59fc03fdf9p-4
348=0x1.1eea64aeb2d58p-4
349=0x1.7e5de01496eedp-5
350=-0x1.000fb1e655171p-3
351=-0x1.ad8d89779c6d6p-4
352=-0x1.6d6a986bc186bp-5
353=-0x1.b1066957fdf6bp-3
355=0x1.862ed83643ccbp-2
356=0x1.152b05f9aa8fap-6
357=-0x1.15856901409c8p-4
358=-0x1.4192997875783p-5
359=-0x1.9ec7dae267276p-7
360=0x1.2ca6121552b99p-5
361=0x1.350622bc1a8b2p-7
362=-0x1.75f4d0bb579d2p-4
363=0x1.d30d128fea9fep-4
364=-0x1.08d9d56f80a34p-3
365=0x1.1525f7ade306cp-3
366=0x1.af0e14922d035p-5
367=0x1.711643fe0ff2cp-4
368=-0x1.3beb10199b9e4p-2
369=-0x1.8e03f212f55c5p-3
370=-0x1.73449aa64c23ap-5
371=-0x1.6537de214512cp-6
372=-0x1.5b6d12e511d84p-5
373=0x1.21042bb691865p-2
374=-0x1.811351d08e8bap-3
375=-0x1.ccca4e23dfa1ep-3
376=0x1.37910fc563a0cp-4
377=0x1.335e1f6d6c93p-2
378=-0x1.02a15e9000a26p-3
379=0x1.c0773168a3482p-4
380=-0x1.303e8f5155933p-1
381=0x1.52f33b8586418p-3
382=-0x1.d9c5ef03e399fp-3
383=-0x1.40f95a017794cp-4
384=0x1.46b70bc4e46bap-3
385=-0x1.16c7221bc31d2p-4
386=-0x1.094a81bc2d1c5p-3
387=-0x1.e9c73f32c08eep-6
388=-0x1.0ff8f6ba73f8fp-2
389=-0x1.f1918455c50e2p-3
390=0x1.3b16e793a62dap-3
391=0x1.a72e7c17a42bap-3
392=0x1.009df320a9e77p-2
393=0x1.48d680baffdap-4
394=-0x1.c01a030fd62dcp-4
395=-0x1.c3ad1294970a4p-5
396=0x1.cc5471f98eb73p-2
397=-0x1.f98e4df9f2fc7p-3
398=-0x1.4305f574742d1p-6
399=0x1.1345318724a08p-3
400=-0x1.f2e86814a36b4p-3
401=0x1.cea9a6bfd8c35p-5
402=-0x1.4f0f818ba13d1p-6
403=0x1.166e0bc177c53p-5
404=-0x1.6cfe71d145dfcp-3
405=0x1.91e188dacc2a2p-3
406=-0x1.e9834c8ba18f5p-4
407=-0x1.1b434859a1877p-5
408=-0x1.ffb6a23257b4p-8
409=0x1.d9aaee99f6f4cp-8
412=-0x1.666f455033321p-7
413=-0x1.df016a5bb9dc8p-7
414=-0x1.3ee46264f2c23p-8
417=0x1.4f917e3479327p-8
418=0x1.2dec822ab3bccp-8
420=0x1.3df21e26e1b5cp-2
421=0x1.f6da5b7978d8dp-3
422=-0x1.ea02bb47a05efp-2
423=0x1.25b9ec9d59ecep-3
424=-0x1.756effbd1646cp-4
426=0x1.495087b2518a9p-4
427=-0x1.6a1fd2bf297fep-5
429=-0x1.75b391cf664c6p-4
430=-0x1.09eace426bb9cp-6
431=-0x1.505ca776172aap-2
432=-0x1.6bd359975e0cp-5
433=-0x1.19336c9f055ep-4
434=0x1.5c90157bfcc7ep-1
435=0x1.c419430e27bdcp-4
436=0x1.a1eb6443329e9p-3
437=-0x1.35559e912bc7bp-2
438=-0x1.19e1509024bcap-2
439=-0x1.2ae2aa7479e18p-4
440=-0x1.e56d219ae69edp-4
441=-0x1.e62a1b4ff3bbep-5
442=0x1.0faf1b0b0c152p-4
443=-0x1.db82caed7eb3fp-5
444=0x1.49b5c66a757cdp-3
445=0x1.c2471a537c1eap-5
446=-0x1.1f970107e95ep-3
447=-0x1.7d557c404ce6p-3
448=0x1.2e809f0f1526p-3
450=-0x1.1316852daeef6p-4
451=-0x1.c26e5edafad42p-7
453=0x1.4e728b5c20209p-4
454=0x1.2da73009eed2p-4
455=-0x1.a701e858f4b3cp-4
456=-0x1.c25d7d6a973b6p-4
457=0x1.213e97d0ca84cp-4
458=0x1.ae7fb21855b75p-4
459=0x1.2a88ad95c302cp-5
460=0x1.5f3576adb86f2p-5
461=-0x1.0eecd88b0e4c7p-2
462=0x1.a0797116e4de1p-4
463=-0x1.526a0a9da1d8ap-4
464=-0x1.e0c88853c447ap-6
465=0x1.904f1ee7da2adp-4
466=0x1.8b80efb4e412p-4
467=-0x1.8145c10b9539p-3
468=0x1.7240aa2c0443p-2
469=-0x1.67ab6bd4d0337p-2
470=-0x1.f74eb412cf706p-6
471=0x1.b920053efd05cp-5
472=0x1.a136c81084fb4p-5
473=0x1.4bd2e5f7bee7ap-6
474=-0x1.25138a7b9b92fp-3
475=-0x1.537bcbf7c6d23p-4
476=-0x1.e9c0cbea976e4p-4
478=0x1.04fdf0b7bdc37p-2
479=-0x1.dfd1dba007fcap-5
480=-0x1.02f0526e4d342p-1
481=0x1.2b54baaf8be04p-2
482=0x1.f78da7c3a5be3p-6
483=-0x1.f90431a1cbb9ep-3
484=0x1.61403c02de5ebp-4
485=-0x1.6fff84285554ap-3
486=0x1.2d6e5cc202e47p-1
487=-0x1.51f951504a741p-2
488=-0x1.1045bcf0d81ddp-4
489=0x1.9ae58b4e1ad62p-3
490=0x1.7a4bb418b762fp-5
491=-0x1.8002bc1592a46p-6
492=-0x1.5003ffbc97c51p-4
493=-0x1.7a53fb3ed3503p-4
494=0x1.4af6cb679907p-3
495=-0x1.32d4fade85e87p-2
496=0x1.1588fd51e2731p-3
497=-0x1.5e99f5d9e4e46p-3
498=0x1.57b9ed9d07fc4p-2
499=-0x1.4337801250a46p-2
500=-0x1.bd4d0d9956de6p-4
501=-0x1.0694dd44b4b98p-3
502=0x1.4717c1409442bp-2
503=-0x1.6e1c2d571c867p-4
504=-0x1.1d2c1568990f2p-2
505=0x1.29e469ec46f79p-2
506=-0x1.09e96146021cap-4
507=0x1.77a1728b60ffep-8
508=0x1.08a20b486d074p-5
511=-0x1.601a392bf4281p-3
512=-0x1.e894ca8d7ccc4p-5
513=0x1.075c9f4b5fb68p-2
514=-0x1.27c907048aad3p-4
516=0x1.a83da8d3b83bp-2
517=-0x1.4b7afabc341ccp-2
518=-0x1.1e6c56a11fcc2p-4
519=-0x1.672b38dc58d3p-9
520=0x1.6c4386dcdf268p-7
522=-0x1.0a0dca68d37c5p-1
523=-0x1.8ed51f8d43cc7p+0
524=0x1.179a929df4a35p+1
525=-0x1.82d5f146de8ecp-6
526=0x1.c19a6e6908decp-7
528=0x1.20ac391d47636p-7
529=-0x1.bb7a7c57f288fp-7
531=-0x1.0a0dca68d37c5p-1
532=-0x1.8ed51f8d43cc7p+0
533=0x1.179a929df4a35p+1
534=-0x1.a3562c48b4ef7p-4
535=-0x1.62aeb338134edp-2
536=0x1.295a265b59dc5p-1
537=-0x1.a1756522e1167p-2
538=-0x1.2127260c1955ep+0
539=0x1.af2973172ffafp+0
540=-0x1.8bb307217b85p-7
541=-0x1.55178b5887e2ap-6
542=-0x1.e50f20e9b0ec2p-2
543=-0x1.8936f24e05c95p-3
544=0x1.587ff5298bfe3p-2
545=-0x1.88ff40a8b8178p-4
546=-0x1.52740c6f5350bp-2
547=0x1.ac971ab38c085p-2
548=0x1.088499cf617a1p-6
550=0x1.68003df28565ap-4
551=-0x1.b4dc135c883aap-4
552=0x1.353b8e3630bacp-5
553=-0x1.2ee74b27868ddp-4
554=-0x1.ca620baccb8f3p-6
555=-0x1.adf8861e57376p-3
556=0x1.c7c957dccdadep-2
557=-0x1.ef173a7d9c707p-4
558=-0x1.8ad65d09c9564p-3
559=0x1.8dc745ae74018p-3
560=-0x1.7d2d69630f982p-3
561=-0x1.58273562b6c6ap-4
562=0x1.fa40b33d995fdp-5
563=0x1.81921665f5673p-3
564=-0x1.10022f14af8eap-6
565=-0x1.cd90fe4769fdp-4
566=-0x1.d4a239f2b202ap-5
567=0x1.f2276d76c7521p-6
568=0x1.d205ea9d4f18bp-3
569=-0x1.42f8e0ad1935bp-4
570=0x1.4e4de75d129cfp-3
571=0x1.7714b60fa1092p-2
572=-0x1.39733e23fcc7cp-3
573=-0x1.91e87352327c6p-2
574=-0x1.6f45036a7a43ep-4
575=0x1.ca0c31fa9026ap-4
576=0x1.3f194778ac55ap-4
577=-0x1.7e92962bd37d6p-4
578=-0x1.19cee8a3f5c57p-5
579=-0x1.b0b24b23ed35ep-5
580=0x1.0740e00f65d31p-4
581=-0x1.31b5362891dcp-8
582=0x1.4901ebc2e85cdp-3
583=-0x1.429d23ce2b9fbp-4
585=0x1.05264bb1a1e4fp+1
586=-0x1.04482b88fbd37p+1
587=-0x1.2c7de58bd13d2p-4
592=0x1.abaee86ab1a39p-8
594=0x1.437290602aebbp-2
595=-0x1.4811587914efp-7
596=-0x1.2370711bda704p-2
597=-0x1.445aecfabf99ap-2
598=0x1.503fc20fa58ap-3
599=-0x1.0f9aefc555e2bp-2
600=-0x1.319edb9dd7a14p-4
601=0x1.7d3bb65be972ap-6
602=-0x1.6a1ffcd080954p-5
603=0x1.55eebfa09a67dp-1
604=-0x1.279aa5e87ceb9p-2
605=-0x1.9c669ffc3f7c8p-5
606=0x1.341a20750cd11p-1
607=-0x1.8eb719cb026b8p-6
608=-0x1.cf97dcce405f6p-4
609=-0x1.6b93a53b9187dp-5
610=-0x1.518a759e34221p-2
611=-0x1.22158a23ce8c3p-2
612=-0x1.674198533624cp-4
613=0x1.231d71b91e94fp-2
614=0x1.a0cf8e6da6378p-2
615=0x1.56b25ec56adeap-1
616=-0x1.9250a533072dcp-3
617=-0x1.671fa3ffd6157p-5
618=-0x1.73381c95ef4ep-9
621=-0x1.ec73b1739496p-4
622=0x1.052fe0f2a5d2dp-2
623=-0x1.2097471ec91dep-3
624=-0x1.3f69f19461a1fp-2
625=0x1.8a39067b2a0d2p-2
626=-0x1.7a962be4f0368p-10
627=-0x1.b0ba6376bc1a5p-3
628=0x1.73ace996260eep-3
629=-0x1.0aec08ddd8e01p-5
630=-0x1.575d728c57994p-2
631=0x1.321ccb8d170e1p-2
632=-0x1.dde67844c1a73p-9
633=-0x1.a61e0a12a08bbp-2
634=0x1.9d9c208d7a423p-1
635=-0x1.bd756bd5df059p-3
636=0x1.732b71436071ep-4
637=-0x1.23a7b64980666p-3
638=0x1.04274d0ee7807p-2
639=-0x1.482f74e2f3871p-7
640=-0x1.92fa3d2caa8f8p-8
641=-0x1.844b49be0d51p-9
642=-0x1.a6b204e6c9cdbp-2
643=0x1.10800c8038d4fp-1
644=-0x1.1847a5a1b35efp-3
645=-0x1.2a90714ec24bap-2
646=0x1.bf2e0481adfe9p-2
647=-0x1.c4eefab4e517dp-2
648=-0x1.2708d4a55b8f6p-4
649=-0x1.ba210a4989296p-7
650=0x1.088286cdfbab7p-2
652=-0x1.673b7808954aap-7
653=-0x1.2a9cd089c490ep-12
654=-0x1.4af255bba4174p-4
655=0x1.1ce8d5011185cp-3
656=-0x1.12ad423ad2cf3p-3
657=-0x1.128f1ed6a4f8p-6
658=0x1.b7ed97f29a6dcp-6
660=-0x1.57e6aa5346056p-3
661=0x1.ff28fd689b398p-4
662=-0x1.4e7b89d4b9daep-6
663=-0x1.4ee09afd6a986p-6
664=0x1.26685a3dee6b8p-6
666=-0x1.feb322195dce6p-4
667=0x1.f9fda727456bep-4
668=-0x1.58e04516da6e4p-5
671=-0x1.6d2b383bb1595p-1
672=0x1.05a75fb96ebcfp-5
673=0x1.50ad5b13ed33p-4
674=0x1.7f852468d8625p-1
675=-0x1.ef0b27164f7aep-3
676=-0x1.a6ce59face857p-5
677=-0x1.1fe9b6a4921ebp-5
678=-0x1.1495a9d1f4dp-10
679=0x1.0055deecc075p-3
680=-0x1.50b63510633e9p-4
681=0x1.0721c23147463p-3
682=-0x1.c717bdc917f3dp-2
683=-0x1.783a71b379f9ap-3
685=0x1.2d66273ab2adcp-3
686=-0x1.a88c03efedda8p-4
687=-0x1.e6e49b481291ap-3
688=-0x1.fbf250a83ded8p-5
689=-0x1.316cc35971f2cp-5
690=-0x1.6cd2636e01366p-8
691=0x1.1f8d7babc338ap-6
693=0x1.98eead9177441p-5
694=-0x1.2b01e6a03f184p-5
696=-0x1.4fac281b51bb7p-4
697=0x1.93f4c7cc9df0cp-4
699=-0x1.56db4b5826ecp-4
700=0x1.b95987c1a2d7cp-5
702=0x1.b050e6a200574p-5
704=-0x1.3b246be741916p-3
705=0x1.5f18d6de041c6p-3
707=-0x1.75cabfb7ea07p-3
708=-0x1.069529d43d451p-6
709=0x1.86bae63b55919p-5
711=0x1.c4666724d7985p-6
712=-0x1.a08bde38d13edp-4
713=-0x1.19afda2d018e5p-4
714=-0x1.325db16d9de31p-6
715=0x1.8529ae02a5046p-6
717=-0x1.59674e60f6247p-4
718=0x1.2dccf6574c78cp-5
719=0x1.858a7a38fd3b6p-6
720=-0x1.4f78497adeb92p-4
721=0x1.2be165d7f827ap-4
723=-0x1.858f5432890ebp-5
724=0x1.4678a5e40ab27p-3
725=-0x1.c12f2f3e3f157p-4
726=-0x1.1d4b73969c71ap-3
727=-0x1.3a8a1f2a4c836p-5
729=-0x1.b4cb496964393p-7
730=0x1.9462f7cb1e00bp-3
731=-0x1.0b2c38ff1440ep-4
732=0x1.28862916d2223p-4
733=-0x1.8ff3a3e2cab3p-4
734=-0x1.6e1798721a7b2p-5
735=0x1.e9a6bd780eec5p-3
736=-0x1.2bd2bdb215f62p-3
738=-0x1.dd8a640732a4ep-4
739=0x1.cb751b04c73eap-4
741=0x1.5417b131da3bp-11
742=0x1.10222a61e66a2p-3
743=-0x1.07bda59d37624p-3
750=0x1.6676237b07c86p-1
751=-0x1.418f88851bedfp-1
753=-0x1.5d0d9afa31de1p-6
754=0x1.8d339d68ba7f4p-7
755=-0x1.6ffbf31443ca4p-6
756=0x1.068e845c0e403p-2
757=-0x1.6ab7849d8961dp-2
758=0x1.416fd23366fdfp-2
759=-0x1.b116b57ea958bp-4
760=0x1.3805af433e7adp-3
761=-0x1.0faf3d3348696p-2
762=-0x1.375f8a3a0f5c8p-4
763=-0x1.1a9859a33f2ccp-8
764=-0x1.482ea48807128p-5
765=-0x1.0faeae93e0126p-2
766=0x1.54e3a56d77946p-2
767=-0x1.375387dc2b4ep-7
768=0x1.3f6e7a2f54aa2p-4
769=0x1.fd23810cdf06ap-3
770=0x1.be0bcbcdb9e59p-9
771=-0x1.afcde51ee2af7p-2
772=0x1.01b13bdbae1f6p-5
773=-0x1.1df69c03f49d7p-4
774=-0x1.329be8fefc6cp-8
777=-0x1.ab2b7880ba2dep-9
778=0x1.5419ab90e4ac3p-3
779=-0x1.5d3c2589cbd97p-5
780=-0x1.807d0d00d8339p-2
781=0x1.847a9813665d8p-4
782=-0x1.a060f89c9a9f7p-4
783=0x1.accb568d4faeep-3
784=0x1.5072fbe930319p-5
785=0x1.09a72ba8b1742p-3
786=-0x1.1d8c216421163p-4
787=-0x1.7d688868d6ceep-6
788=-0x1.36ce1b295f0bp-6
789=-0x1.16d51f26a7369p-5
792=-0x1.3563c00eae5fap-5
793=0x1.e375ed496fe48p-8
795=-0x1.2105c00d42c2ap+0
796=0x1.2a20da6961a16p+0
797=0x1.259c8ffd19868p-7
798=-0x1.53b1f3f7438e7p-2
799=0x1.b7f9c8e4137f9p-2
800=-0x1.248663fce7654p-4
801=-0x1.88d4c2bc35bcep-2
802=0x1.d906c00b5379dp-3
803=-0x1.772184c8bfdfep-4
804=-0x1.135ceb8593c66p-6
805=0x1.53932a44f1d53p-4
807=-0x1.943bf830ed822p-8
808=-0x1.fe2199316ad11p-8
809=-0x1.92fc659fe614fp-9
810=-0x1.6d8c99d6430afp-2
811=0x1.615ab0044d60bp-3
812=0x1.8435aa47075a8p-5
813=0x1.0347c33fbebe6p-1
814=-0x1.862d42e7d2154p-1
815=0x1.7c0ee04b1fa58p-1
816=-0x1.d5d94358786c1p-2
817=0x1.49c6e0d85ff25p+0
818=-0x1.18814cb074cc6p-1
819=-0x1.3fc090cb2c25p-2
820=-0x1.2b9a0f4308484p-6
821=-0x1.67ce46ecddd14p-3
822=-0x1.5cb3d57663b87p-5
823=0x1.f78dcb6f1ccc4p-4
824=-0x1.bc3c1e1931a9ap-6
825=-0x1.4187b18614c68p-2
826=-0x1.90466d50b94bcp-3
827=0x1.bed260979e4b5p-8
828=0x1.6faeb06658f8p-4
829=0x1.84691b640b6e7p-2
830=-0x1.4286ef68d310bp-8
831=0x1.b6ef394b21951p-5
832=-0x1.48c2821fc776fp-3
833=-0x1.037bbea927f8dp-4
834=-0x1.3f97c04b1ad1cp-4
835=0x1.4aeef2659c7f1p-4
837=0x1.1303db7903d59p-3
838=-0x1.2fa812ecd9a7ep-3
840=-0x1.2083e238309c6p-2
841=0x1.5b264b3da8546p-2
842=-0x1.d6b1b48c1bbp-5
846=0x1.2e25d0a35b98p-5
847=-0x1.cdff084dd2851p-6
848=-0x1.aba5c0684bfa9p-5
849=-0x1.02cc940ac5962p-1
850=0x1.173d574603607p-1
852=0x1.0aeb6a9b52b1ep-1
853=-0x1.fad6408c3dc95p-3
854=-0x1.b67a76198f2f5p-4
855=-0x1.d222a07f22262p-5
856=-0x1.4fad294350aap-6
857=-0x1.75f48987690bp-6
858=-0x1.e6f6d98161822p-2
859=0x1.fca8b4f243cb3p-2
860=-0x1.b100cfcdf55f7p-11
861=-0x1.4c892f1cdb242p-3
862=-0x1.3f02c3d0213c2p-2
863=0x1.3f846f704d91bp-2
864=-0x1.87ce424f869e4p-5
865=0x1.00bbe59c4e69ap-2
866=0x1.3e711caeb6028p-5
867=-0x1.3ae8077974873p-2
868=-0x1.817c628a2749p-6
869=-0x1.a59fe056bd48ep-4
870=-0x1.4b470243d74eep-4
871=0x1.10575d46cebadp-3
872=-0x1.745909fa3e17p-7
873=-0x1.bba1ed80230cfp-3
874=0x1.88dc5903a09ap-3
875=-0x1.0c1653004429p-11
876=0x1.c2418f7f51baep-9
877=-0x1.0a0825f974664p-9
882=0x1.e9b6ab3fd6a14p-4
883=-0x1.bb34538fd1117p-4
885=0x1.259f0f3def11dp-6
886=-0x1.40610da4fc63ep-6
891=-0x1.161718354de4cp-8
892=0x1.72355233721d8p-9
895=0x1.1ab13ace9b97ap-6
896=-0x1.c7436e404a8dap-7
897=-0x1.1b89310463ac6p-6
898=0x1.04bad2177c708p-6
900=-0x1.741355d80490ep-4
901=0x1.adbcb4dc109efp-3
902=-0x1.046c3107ecc6p-10
903=-0x1.6f2ce50c4a21p-4
904=0x1.25607c77ae0cbp-3
906=0x1.df465181f8a67p-4
907=-0x1.215dc77863428p-5
908=-0x1.0308ab47f2e2dp-6
909=-0x1.b1afe1ee39386p-4
910=0x1.102d632950b0ap-3
912=-0x1.a6c4dc0d20075p-4
913=0x1.b85887dbdbec4p-5
915=-0x1.c58e9473727a5p-3
916=0x1.226d0d2843a3cp-3
917=-0x1.7d230b8976892p-4
918=-0x1.0f0c73742be36p-3
920=-0x1.ffd87882fa914p-3
921=-0x1.d089ed2fd60ddp-5
922=0x1.64fad4e2484a7p-5
924=-0x1.41949d8c1880dp-4
925=-0x1.03fd6d6df0078p-6
926=-0x1.807dc909d3bbp-8
927=-0x1.8d2672801e9b2p-3
928=0x1.13897aa0e75ap-2
929=-0x1.54ce2cb8d7278p-6
930=0x1.132b462f9a1c2p-6
931=-0x1.aaa89df79256fp-4
932=0x1.364e1af057c03p-2
933=-0x1.026bd1a831238p-6
934=0x1.87e2f01152edp-2
935=-0x1.383abcdcddf09p-2
936=-0x1.9b4e4053fff53p-3
937=-0x1.c24938f412b48p-7
938=-0x1.82997d02565adp-6
940=0x1.a4d10cebb040ap-6
942=0x1.70598c3911734p-3
943=-0x1.34cd6b7f89ac1p-3
945=-0x1.196376725f03dp-4
946=0x1.37dbd33646bb4p-4
948=0x1.8ef05b51b70b1p-4
949=0x1.aec517411c21p-8
950=-0x1.54355ebc6edaap-4
951=0x1.4983bfc733b8dp-2
952=-0x1.43cfae31d8c61p-4
953=-0x1.06f7b6d5243dcp-2
954=-0x1.05627c7bd6a7bp-2
955=0x1.0981c61d6a001p-4
956=0x1.e833a9e0bedc2p-4
957=-0x1.0e82a930bb523p-6
958=-0x1.78280dd2d5df9p-7
960=-0x1.bf207f82072c8p-8
961=0x1.4e64e19a8917cp-4
963=0x1.ba80d365cb6bap-5
964=0x1.92800b6c8b354p-6
972=0x1.077fa4ade74e4p-4
973=-0x1.05c91ae905d64p-5
974=0x1.58238bb5263eep-5
975=0x1.296bdc54ec1b2p-4
976=-0x1.066cd67bf77a8p-1
977=0x1.6d24abba7003ep-2
978=0x1.fc69848384dd9p-3
979=0x1.694b2eb6d4805p-3
981=-0x1.114e70ea93241p-2
982=-0x1.274faf621489ep-5
983=-0x1.f0bdad529a7f8p-4
984=0x1.800dab37d6ab9p-4
985=-0x1.410ecee3179f8p-4
990=-0x1.59fd7892d4b55p-5
991=0x1.220a4c80b800ep-4
993=-0x1.691753b7868d9p-3
994=0x1.a3dde6c6d711cp-3
999=-0x1.2477c451e3424p-4
1000=0x1.64cc97a1ebc96p-4
1005=-0x1.784f823823425p-3
1006=0x1.190e10cd9058bp-5
1007=-0x1.1a187ed0967cp-12
1008=-0x1.d0931ab8b8f3ep-3
1009=0x1.a841f770c0542p-3
1010=-0x1.2a69de59ba96ep-4
1011=0x1.05f7d32834f7ep-6
1012=0x1.8d1b49c2ed46fp-9
1020=-0x1.3b5c55a0b0f9p-5
1021=0x1.daf20330a33cep-5
1026=-0x1.f8a941829f016p-2
1027=0x1.4519c1f919c1bp-2
1028=-0x1.1110da94f82aap-4
1029=-0x1.33488dcb3a8dap-1
1030=0x1.17b3e0eb1a101p+0
1031=-0x1.5799725cb9b36p-2
1032=0x1.b4b49c68f0eap-7
1033=-0x1.fad86e22b716p-6
1034=0x1.5a786a4745c34p-3
1035=-0x1.f31a7f14b583ep-5
1036=-0x1.bf54bbbd81e85p-7
1037=-0x1.95c1fa25e8357p-8
1041=0x1.5ef9899566143p-6
1042=-0x1.21652145a13bep-6
1047=-0x1.1a3cfc3b50d55p-4
1048=0x1.78888ddf94655p-4
1060=-0x1.b7450903f72ap-10
1062=0x1.d162ac0228648p-8
1063=-0x1.831afc41bb7d4p-9
1071=-0x1.073a6361912eap-3
1072=0x1.409656141ca94p-5
1073=-0x1.4c1d8d6db99b3p-5
1075=-0x1.2a508460f0365p-4
1083=-0x1.f43976418d721p-2
1084=0x1.0af105cfd7137p-1
1085=-0x1.01dc12d5560f2p-4
1086=-0x1.92c1b11975d02p-9
1087=0x1.919c407269b5ap-8
1089=-0x1.3acbd1f0de1bbp-3
1090=0x1.123296e9b81d2p-3
1095=0x1.fd96553653568p-4
1096=-0x1.6a538073c3283p-4
1097=-0x1.0e1ec44de7138p-3
1098=-0x1.1cd12a7556d97p-2
1099=0x1.341f23d937b67p-3
1100=-0x1.7911b5576055ap-6
1102=-0x1.0b3ed9713eba9p-6
1104=-0x1.1723c554aa689p-7
1105=0x1.3af990df966a4p-11
1107=0x1.889a49a8900eap-3
1108=-0x1.12f2d566a67c6p-3
1109=-0x1.36e0b5a477656p-8
1110=-0x1.2acafba013606p-4
1111=0x1.9c3c1aee27a3cp-5
1113=-0x1.242ab7dedbf94p-3
1114=0x1.1cca48e0f7f28p-3
1115=-0x1.11df92b5751bfp-7
1117=-0x1.b311a3f0470ecp-13
1119=-0x1.756c264bd258bp-6
1120=0x1.ce540e054ddc8p-3
1121=-0x1.a91422ad9e1fep-8
1122=-0x1.2027b3e79455p-3
1123=0x1.3d2575537f459p-3
1126=-0x1.fa19458754f43p-6
1128=0x1.ec33f820d1468p-5
1129=-0x1.2133be9653324p-3
1131=-0x1.38fd06cc5339dp-4
1132=0x1.ec124b6569dd6p-5
1134=-0x1.7cdd4ec1b7feap-4
1135=0x1.c507b0423a471p-4
1137=-0x1.bf708c6aec43bp-11
1138=0x1.8c745cda45515p-11
1140=-0x1.dc534f886889fp-5
1141=0x1.5fcfd17148c05p-5
1143=-0x1.129b459fa147bp-8
1145=-0x1.f5a545ec7155cp-9
1146=0x1.48bef0fb2e207p-3
1147=-0x1.21baae9f1ce62p-3
1152=-0x1.63ba5a298931fp-3
1153=0x1.393d22bc21c02p-3
1155=-0x1.82edc36fa8e66p-4
1156=0x1.696796da8f403p-4
1158=-0x1.9bcd8f97e1cb3p-3
1159=0x1.b0a427bebf18fp-3
1160=-0x1.222061028f718p-4
1161=0x1.817bb1e95a431p-4
1162=-0x1.5c729bc2f8a63p-4
1164=0x1.6dbf357271f5cp-2
1165=-0x1.92e7aca94d2bap-3
1167=0x1.f4cffda9e0366p-4
1168=-0x1.33c79af9e72acp-6
1169=-0x1.55afe6c124508p-8
1170=0x1.0f494f4d0cb7ep-5
1171=-0x1.2a970fc1a6b6p-5
1177=-0x1.ac0a1c6bdf2b4p-9
1179=0x1.8a84872ec6c78p-5
1180=-0x1.60f64eb23e0a2p-4
1182=-0x1.a6397393686c4p-3
1183=0x1.c7b2273b6a05bp-3
1184=-0x1.03795667f5444p-9
1185=-0x1.af724c72cecfep-7
1186=0x1.fcddb43a1f935p-4
1187=-0x1.bdf1f5f6b121p-5
1189=-0x1.1ec93a53de4bp-9
1191=0x1.7c002ffd98d86p-6
1192=-0x1.4058b4362c3f9p-4
1193=0x1.518b81f9936a6p-5
1197=0x1.d33b0cc3290eap-6
1198=-0x1.e077e22b68ce8p-6
1201=-0x1.d7da57c84f1eap-9
1206=-0x1.12e0e84c7d0dbp-3
1207=0x1.c9a70be502748p-4
1209=-0x1.e8f88f6dbd436p-4
1210=0x1.cb28ccbd740d5p-4
1212=-0x1.4cb063fd9235ep-4
1213=0x1.7614c8e20adfdp-4
1215=-0x1.1618dcee9d5ffp-2
1216=0x1.e6fe25eb27656p-4
1217=0x1.9b9fe4d6ee319p-6
1218=-0x1.13aa9b3e89eep-4
1219=0x1.7d8ed82cf7b5dp-4
1220=-0x1.39c9cc6979a5ep-8
1221=0x1.48773f00ffb39p-7
1222=0x1.4822f34a8c9c3p-3
1223=-0x1.5e0e0ad05a21p-3
1224=0x1.dba896d2b8b7ap-4
1225=-0x1.c4fc68d15a962p-5
1227=0x1.1d05eaaaeb175p-3
1228=-0x1.8689e6a733518p-5
1229=-0x1.35b246b9bedd2p-3
1230=-0x1.2f8ab3c8594b8p-4
1231=0x1.3fcb50ef73ff8p-4
1233=-0x1.219760e4e4277p-2
1234=0x1.641a7f564c861p-2
1235=-0x1.a34d7bf48e9d2p-6
1236=-0x1.5554d31269364p-5
1237=0x1.0db46c9260f26p-4
1238=-0x1.070ee75e5d2dp-10
1239=-0x1.f935415fd67abp-7
1240=0x1.3da52242e706cp-5
1241=-0x1.d242bce4f7c4p-10
1242=-0x1.45c6a08906761p-4
1243=0x1.54829a199b03ap-4
1245=-0x1.6e83d4e7bdfa2p-5
1246=0x1.cfda58ed29a61p-6
1248=-0x1.def89d237cb67p-4
1249=0x1.8c80b0c8c55aap-4
1251=-0x1.55d62d74cf5b8p-5
1252=0x1.6c7c4bf4b79c8p-5
1253=-0x1.c84d86ee34b37p-7
1255=-0x1.a8b15c8ddd307p-2
1256=-0x1.8bca9cc276688p-3
1257=-0x1.35e1cc629666ap-5
1258=0x1.aa14f8cd28a36p-2
1259=0x1.e41997c27d171p-5
1260=-0x1.e850f464b7d5ap-5
1261=-0x1.26dc6d6b7c78ap-6
1262=-0x1.0c202d6e156c8p-10
1263=0x1.36b353cf79cc5p-5
1264=-0x1.0d707b71a3d1p-5
1265=-0x1.feac03722659p-6
1266=-0x1.b20e12fe2847ap-2
1267=0x1.35a12cc93142bp-1
1268=-0x1.def40109e25f8p-4
1269=0x1.430fd51d0bb56p-4
1270=-0x1.0c06e96109266p-4
1271=-0x1.0f70b6399d412p-10
1273=0x1.f272365eede66p-6
1274=-0x1.6a97acff4679ep-8
1275=-0x1.e6a3f7b8457dcp-7
1276=0x1.3c700f4541821p-6
1278=-0x1.552e0b2cbe4d9p-2
1279=0x1.591892b3ea968p-2
1280=-0x1.d481037ed202ap-6
1281=0x1.94ac056ae0687p-1
1282=-0x1.af9f5a30b357ep-1
1284=-0x1.9813ef33777adp-2
1285=0x1.9547d77df2f1cp-2
1286=-0x1.93e78c0b51a9fp-4
1287=-0x1.f92779ce62992p-4
1288=0x1.b1449ed125fd2p-4
1290=0x1.0705d7b7a4a0fp-4
1291=-0x1.cd5fbf7927748p-5
1293=-0x1.18e6f03ac2ee8p-3
1294=0x1.0d4fdc6f09cefp-3
1296=-0x1.1a41864d760f5p-4
1297=0x1.96bce3e8eec47p-5
1299=0x1.2bafad513e8c1p-4
1300=-0x1.4fad6c28dd73p-4
1304=0x1.983b18f1806f8p-10
1308=-0x1.b933e2e926acfp-4
1309=0x1.ed4ffa9c86217p-5
1314=-0x1.38df10b49edb4p-3
1315=0x1.59501837610cdp-3
1316=-0x1.363dfc6b9c3a4p-7
1317=-0x1.c6ebf8ea264f5p-3
1318=0x1.9fe8f2afb4c06p-3
1320=-0x1.43f6d190647a3p-2
1321=0x1.59a6a294b66fcp-4
1323=-0x1.30f5917f46addp-4
1324=-0x1.d386c19198d31p-8
1325=0x1.3c26b46170a7bp-4
1326=0x1.4baa488c46fe4p-6
1327=0x1.d6ad0dfb6c95ap-8
1328=-0x1.5ef9480735f2ap-5
1329=-0x1.bce5f898ad102p-2
1330=0x1.284e398bbeee5p-2
1331=-0x1.821561256377bp-5
1332=0x1.bf40fe7f5e5ccp-6
1334=-0x1.2baaa9877adap-6
1335=-0x1.b5cc347b4a2bbp-5
1336=0x1.6c1f61374c6fbp-5
1338=-0x1.1fc4af01e1836p-2
1339=0x1.80691593a9396p-3
1340=-0x1.97695798dd2b6p-9
1341=-0x1.97c8e90eb5df4p-5
1342=0x1.26f6189b86837p-4
1343=-0x1.d6adf7b2b518ep-4
1344=-0x1.56a43ea743fefp-4
1345=0x1.291f6908f2461p-5
1346=0x1.bd08216761d05p-6
1347=-0x1.d44eb6b000574p-9
1351=-0x1.620da7756314ap-7
1353=-0x1.24ee74f22fba2p-7
1354=0x1.e10868f72f1edp-9
1355=-0x1.31567ed57e18p-12
1356=-0x1.1e4d13d8b2276p-3
1357=0x1.60cb310bf5ff7p-4
1359=-0x1.c840ac3cdb4bdp-5
1360=0x1.30f33c98aa32bp-5
1365=0x1.26887a83a8f6p-4
1366=-0x1.3443a729a8a71p-7
1368=-0x1.34fd1cf77eeabp-6
1369=0x1.e39eb4ed04485p-5
1370=-0x1.dabbf77306e51p-7
1372=0x1.e99529af9e967p-8
1374=0x1.6cfd8a3678c36p-5
1375=0x1.438734a14bc72p-5
1376=-0x1.40f6a1cbdde64p-7
1377=-0x1.2209b62a05bf9p-2
1378=0x1.444838d308689p-1
1379=-0x1.36462144990dfp-2
1380=-0x1.7b9dceb4bf3d5p-12
1381=0x1.257b0e109e7b2p-12
1383=-0x1.a97a42afd4feap-2
1384=0x1.a1d1ea4dcfb23p-2
1385=-0x1.f446ac758c0b1p-3
1386=0x1.c457f8ffd1e19p-5
1387=-0x1.9e8200a5cb6aep-5
1389=0x1.20fe8e8a52a06p+1
1390=-0x1.227957b749d09p+0
1391=-0x1.1440bc6e51eacp-1
1392=0x1.34d23bb377853p+0
1393=0x1.947812a90c1c8p+0
1394=-0x1.d177750b7a0a9p-3
1395=0x1.0d527b5f267f4p+1
1396=-0x1.2d5bb39125176p+1
1397=-0x1.2446d023bb11dp-2
1398=-0x1.6111cba79faacp-1
1401=-0x1.96112c07eea12p+0
1402=0x1.c93239d8c0c74p+0
1407=-0x1.4475c0360d0ebp+0
1408=0x1.7df854fe43752p+0
1409=0x1.b3c5fc5c92f18p-11
1413=0x1.80d9f2d3d507ap-2
1414=-0x1.744fe6c592ba9p-2
1422=0x1.14c6550bbe1d2p-4
1423=-0x1.c9e46a96dbbf4p-5
1431=-0x1.e552453aa4befp-8
1432=0x1.7447ccf2fb0f4p-7
1446=-0x1.c022474123163p-5
1447=0x1.7326671fe277ep-4
1449=-0x1.a3eac2e5cb972p-5
1450=0x1.225f1224f1c4p-4
1461=-0x1.07bed162d3e3cp-8
1462=0x1.bf4bd6864746ap-7
1464=-0x1.1ddd203e8c395p-2
1465=0x1.0343a302024a1p-1
1466=-0x1.1f55307937bdep-3
1470=-0x1.41615e5e522f4p-4
1471=0x1.b7a61b101232cp-4
1473=-0x1.17c06fe02fffap-2
1474=0x1.021a8d274d80fp-1
1475=-0x1.1f30a77273f5ep-3
1479=-0x1.ef9e431aab488p-3
1480=0x1.fcd0f7fdaf74p-2
1481=-0x1.117d4cd619509p-3
1485=-0x1.19230511d53dcp-2
1486=0x1.46191f63e237ep-2
1491=-0x1.d4e181963a826p-4
1492=0x1.28b4c3bcfb59cp-3
1494=-0x1.5dc2797ac5abep-1
1495=0x1.c60a24ac55349p-1
1496=-0x1.5dcf2e5df14a3p-5
1497=-0x1.0ba1efa167cfep-2
1498=-0x1.1f6c4f0fd2d0ap-5
1499=-0x1.582f3eeed53p-8
1500=-0x1.5e8516042c818p-3
1501=0x1.3cd5bf180b10fp+0
1502=-0x1.77d6ab62dacaap-7
1503=-0x1.8b4555c001c6ap-7
1506=-0x1.8da2f2757b5cdp-3
1507=0x1.b7c81a47e43b4p-3
1512=-0x1.a50c2b671a2ccp-7
1513=0x1.9709d1938aad8p-6
1521=-0x1.430bfe7e0f2b2p-8
1522=0x1.94ab8a24219f8p-7
1527=0x1.a8f4d89afa12fp-5
1528=-0x1.222bcb4c4519cp-5
1567=0x1.94ce3efd6d32ep-9
1568=-0x1.eb5641934f498p-8
1572=0x1.0177757c04bddp-2
1573=-0x1.890b932c48b19p-3
1586=-0x1.2a36104625554p-7
1587=-0x1.48d56410d1332p-3
1588=0x1.60637d5dfbb3ap-3
1590=-0x1.304e4083b2b96p-6
1591=0x1.6d421830a1252p-6
1593=-0x1.86161641b7bb5p-7
1594=0x1.c456ad0c34cp-7
1596=0x1.5aa26c101a8aep-7
1597=-0x1.0d63ea567fc8p-7
1602=0x1.106bf70886c39p-2
1603=-0x1.d78e297ef1eb6p-3
1605=0x1.45106aecf52eap-5
1606=-0x1.3bde02a77c5a9p-5
1609=0x1.e2fd80b1c54b8p-9
1614=0x1.d2c8a3e2cfc9p-5
1615=-0x1.0b43714f7bb1p-4
1620=-0x1.45171a466eb0fp-5
1621=0x1.2f5aa5d46b821p-4
1626=-0x1.b38f2ba2ab32ep-9
1627=0x1.b45f385b97538p-7
1629=-0x1.7834fcd5c88e6p-3
1630=0x1.925885a00bdap-3
1632=-0x1.5f1c1e739aef4p-4
1633=0x1.8216101970d8bp-4
1641=-0x1.24fbf915c76d1p-3
1642=0x1.33fb28090cea6p-3
1644=0x1.05bbad0589d39p-3
1646=-0x1.2e4cf0af96981p-3
1647=0x1.268c30b79bd21p+0
1648=-0x1.15de272c6e337p+0
1649=-0x1.6f3d7a98f13cap-6
1650=0x1.3fe1936620b48p-4
1651=-0x1.9905bfe37fe9dp-3
1652=0x1.f9cfdac06683p-5
1653=0x1.826734fe91881p-3
1654=-0x1.85fec7ba74e58p-3
1656=0x1.cb435f13e3fd9p-4
1657=-0x1.b5ca233e33554p-4
1662=0x1.d1576a3d8a218p-7
1663=-0x1.09e468e12fc4fp-7
1668=0x1.486365b00b9e1p-8
1669=-0x1.b498b28d2b2e8p-8
1671=-0x1.9d3be8a0b6383p-6
1672=0x1.1853761034f27p-5
1693=0x1.ec306a3cec7dp-10
1701=-0x1.b1fdd8e7d4482p-8
1702=0x1.d43ed1673425ep-6
1704=0x1.0b07e23c0ee1p-9
1710=-0x1.ecb0f7f29b529p-8
1711=0x1.8f8473c041ee4p-8
1713=-0x1.3d4b5f984b9f5p-11
1714=0x1.09580ca6b8765p-10
1746=0x1.3a63d3e44cc8cp+0
1747=-0x1.35ace93103b3fp+0
1749=-0x1.361508066dd61p-12
1750=0x1.e6d0da8ab23fp-9
1752=0x1.76c48e8a6467dp-6
1753=-0x1.0a73426d4e0bfp-6
1755=-0x1.b3589f7ca114dp-7
1756=0x1.1ddcce0be44d8p-5
1758=-0x1.1e8c5aabd9fcp-7
1759=0x1.e696402f6caf9p-7
1761=-0x1.e33d8a0ce78e4p-11
1762=0x1.1378b19a70635p-5
1764=0x1.3a5d49a5c9bd6p+0
1765=-0x1.2f128288c61e2p+0
1767=0x1.3a5d49a5c9bd6p+0
1768=-0x1.2f128288c61e2p+0
1771=-0x1.0609876c9c158p-6
1773=0x1.3c634c68e44ccp+0
1774=-0x1.232fd8ef0bdb6p+0
1779=0x1.279b470ca83f2p-6
1780=-0x1.53205f293e247p-6
1791=-0x1.134052be91e14p-4
1792=0x1.76ba3edbb5793p-4
1794=-0x1.c29ce6772c84dp-4
1795=0x1.28b65c47396a4p-3
1797=-0x1.0f57781b1c773p-3
1798=0x1.4100a0a77e9b4p-3
1801=0x1.737ceba524f4p-11
1806=-0x1.7071bd187acaep-6
1807=0x1.bf6f305cbf042p-6
1812=0x1.053ec2be591e2p-6
1813=-0x1.9ef310bfe4b5dp-7
1821=-0x1.81e28c4aee978p-7
1822=0x1.a84ab901674aap-5
1824=-0x1.335d88527ffd4p-2
1825=0x1.30d15576736c8p-2
1827=-0x1.b3da498215f0ep-2
1828=0x1.b23189de966c7p-2
1830=-0x1.5aa8d0f675ef7p-7
1831=0x1.33b96f7b00d5ap-7
1833=-0x1.4806027063ca8p-6
1834=0x1.d1f44f991da3bp-6
1836=-0x1.477e8c73362cp-8
1837=0x1.240ba695b3cf2p-6
1839=-0x1.91e73cb1c3deap-4
1840=0x1.117ae66cb50fbp-3
1842=-0x1.149797d1b30c8p-7
1843=0x1.33598607cea5bp-6
1846=0x1.6038c093ba18p-12
1857=-0x1.1f046f7ddd041p-8
1858=0x1.5c404d87b51cep-6
1878=-0x1.189e89fc7dc49p-5
1879=0x1.7ac3d938cd16ap-5
1881=-0x1.85fb923eba2ep-13
1887=0x1.9f8b107369ff8p-6
1888=-0x1.bc073c0cfa366p-7
1890=-0x1.0d837e2d8292fp-5
1891=0x1.9d239f2c23c4p-5
1896=-0x1.7d3bf170dda07p-4
1897=0x1.8f053fdcbf077p-4
1902=-0x1.039d7cf24c17dp-5
1903=0x1.6f9547875ce09p-5
1908=-0x1.3bd244ce1cbbcp-8
1909=0x1.83b642de1cbf8p-8
1911=0x1.cc899777ba573p-5
1912=-0x1.7d9a4e15f136bp-5
1915=0x1.d504914a2df2ep-8
1917=0x1.ac50dde966561p-4
1918=-0x1.7fc8cac226e8ap-4
1923=0x1.b8e34dd24e19p-4
1924=-0x1.a2e37004734a5p-4
1935=0x1.0ba7d081d51c4p-5
1936=-0x1.0037a5b931502p-7
1938=-0x1.f51e3d619a4cp-15
1944=0x1.d65535839a5adp-3
1945=-0x1.c972a9de3e13fp-3
1947=-0x1.27c43170f1f55p-15
1965=0x1.f5db6bc8480cfp-3
1966=-0x1.bdf4149078d39p-3
1968=0x1.9385e4a169ffcp-4
1969=-0x1.755a02d5e9928p-4
1989=0x1.948e72a87734p-11
1990=-0x1.7132110f6a698p-10
1992=0x1.62034c05d2522p-9
1993=-0x1.b04f50c91316cp-10
2001=-0x1.b2ef9e90eb2eap-7
2002=0x1.0802b75d1c5cap-6
2019=-0x1.d4d5a5373af56p-5
2020=0x1.9768c548a8b3cp-4
2022=0x1.050c526028182p-7
2023=-0x1.059436169d47ep-7
2025=-0x1.43e35920592c8p-9
2028=-0x1.e1293dc0c269cp-6
2029=0x1.d7890383cb714p-7
2031=0x1.4b1e8a3f5eb86p-5
2032=-0x1.b1f2947442b01p-5
2037=0x1.e3db20409c98ep-9
2038=-0x1.2ce31f9995337p-9
2040=0x1.abd2d17f91273p-7
2041=-0x1.3506a271f41f4p-7
2070=-0x1.d55952c28c0ecp-7
2071=0x1.521822e0e3b99p-6
2076=-0x1.4ec58db26f598p-7
2077=0x1.b2e7169c4ed04p-6
2079=0x1.7d89ede31e693p-8
2080=-0x1.a6fcba322644bp-8
2082=0x1.4688911aa81a4p-6
2083=-0x1.ee7ec11b8c096p-7
2085=0x1.a2dba0126c8ddp-8
2086=-0x1.9619f20328dep-9
2089=0x1.9eebff0c69591p-6
2091=-0x1.4a8b5f3ebb212p-6
2092=0x1.ab349c51efef4p-6
2097=-0x1.77d1a04bff134p-5
2098=0x1.3b920373939bap-4
2100=-0x1.f25a6a393e735p-3
2101=0x1.0200acb907b76p-2
2103=-0x1.db4ee3a14b92fp-5
2104=0x1.06165437106edp-4
2109=-0x1.8fe8a196daec8p-9
2110=0x1.5b515cf5a53bbp-6
2115=-0x1.080db7cd9f678p-9
2116=0x1.6ecebdbd522f2p-9
2130=-0x1.c29b08819baaep-8
2131=0x1.19dd665c9979cp-6
2133=-0x1.9cec9f64e79c9p-5
2134=0x1.8a87ffc263207p-5
2136=-0x1.19eda46044ffbp-5
2137=0x1.4fd6611a954bfp-5
2148=0x1.4e404e5af2c51p-4
2149=-0x1.1589dd52bc47dp-4
2152=0x1.8731b3a5e937p-10
2154=-0x1.d460226195f3ap-7
2155=0x1.5da8bfd92830ep-6
2157=-0x1.b36bfb3e23911p-10
2158=0x1.9c742f7faa123p-10
2175=-0x1.1560f68077053p-5
2176=0x1.c71bf11953429p-6
2191=0x1.7f1587234b70dp-4
2192=-0x1.dcf954295b01bp-4
2193=0x1.0a7e2fb5bcc3ap+1
2194=-0x1.fc7db97c15b8ap+0
2195=-0x1.a559b3d2d9082p-5
2196=0x1.b19d3c9d0a403p-1
2197=-0x1.68ae376c78718p-1
2198=-0x1.c0ae6ab821f3bp-4
2199=0x1.16fb181bd0d51p-1
2200=-0x1.fb3bed970142ep-2
2211=0x1.e8592b6fc45a1p-5
2212=-0x1.bc279f1b2394p-5
2247=0x1.2667b9b62d065p-8
2248=-0x1.24429632de10ep-8
2253=-0x1.8c0660f0a40dp-5
2254=0x1.ae5c28500b261p-5
2256=-0x1.80a0accfd5973p-6
2257=0x1.b6c710a291bf4p-6
2295=-0x1.61f06ae0d82a3p-6
2296=0x1.873c5acb39ac4p-6
2379=0x1.b802dd434aae5p-4
2380=-0x1.4574a8197fd0cp-4
2382=0x1.9d7155eeb6666p-2
2383=-0x1.70f0d142ffef8p-2
2385=0x1.80a863cbec013p-2
2386=-0x1.52912776b0982p-2
2388=0x1.01bbcc9dcb1aap+0
2389=-0x1.d0e29fb985d6bp-1
2390=-0x1.55a0477a6c278p-8
2391=0x1.71d3d99fe401p+0
2392=-0x1.6f000ed7d622dp+0
2394=0x1.1ee3d6ba403e2p-7
2395=-0x1.1953140dc16cdp-7
2397=0x1.1b15e36db1ca1p-5
2398=-0x1.0c067353f00b7p-5
2433=0x1.4e03c30b4028cp-9
2434=-0x1.15c4bf56df91ap-8
2445=-0x1.eddaa024ef65cp-9
2446=0x1.cdc169a6f554dp-9
2454=0x1.33dc14c092f03p-5
2455=-0x1.3228ebe023c7fp-5
2472=-0x1.1b99bc8e90131p-5
2473=0x1.424c4ea267c22p-5
2475=-0x1.ac2f63e1a41c4p-5
2476=0x1.d9fd20e22ece3p-5
2493=0x1.640fb7e5ca386p-4
2494=-0x1.512c2a75323d4p-4
2496=0x1.e52405e6a862cp-8
2497=-0x1.3688afea3f6bfp-8
2527=0x1.46166460ca4a8p-11
2532=-0x1.de758d5995736p-6
2533=0x1.5eb094b0418cdp-5
2535=-0x1.6d36878377ae6p-3
2536=0x1.8484dbc5239b4p-3
2544=0x1.092df3b737d7bp-3
2545=-0x1.03602ccc21f0dp-3
