#mdl#2#1761
#rdr#18/10/0
1:b,
21:u:code-1LLL =%X[-3,0],
21:u:code-1LL  =%X[-2,0],
21:u:code-1L   =%X[-1,0],
20:u:code-1X   =%X[0,0],
20:u:code-1R   =%X[1,0],
20:u:code-1RR  =%X[2,0],
20:u:code-1RRR =%X[3,0],
13:*100:%x[ 0,1],
13:*100:%x[ 0,2],
13:*100:%x[ 0,3],
13:*100:%x[ 0,4],
13:*100:%x[ 0,5],
13:*100:%x[ 0,6],
13:*100:%x[ 0,7],
13:*100:%x[ 0,8],
13:*100:%x[ 0,9],
14:*100:%x[ 0,10],
#qrk#3
1:T,
1:I,
1:O,
#qrk#691
1:b,
17:u:code-1LLL =_x-3,
17:u:code-1LL  =_x-2,
17:u:code-1L   =_x-1,
15:u:code-1X   =86,
16:u:code-1R   =105,
16:u:code-1RR  =115,
15:u:code-1RRR =97,
7:*100:Lu,
9:*100:23:T,
9:*100:14:T,
9:*100:18:T,
9:*100:22:T,
8:*100:0:T,
8:*100:5:T,
9:*100:25:T,
9:*100:24:F,
9:*100:26:F,
17:u:code-1LLL =_x-2,
17:u:code-1LL  =_x-1,
15:u:code-1L   =86,
16:u:code-1X   =105,
16:u:code-1R   =115,
15:u:code-1RR  =97,
15:u:code-1RRR =32,
7:*100:Ll,
9:*100:11:F,
8:*100:6:F,
8:*100:3:F,
9:*100:17:F,
9:*100:19:F,
9:*100:12:F,
9:*100:21:F,
8:*100:9:F,
17:u:code-1LLL =_x-1,
15:u:code-1LL  =86,
16:u:code-1L   =105,
16:u:code-1X   =115,
15:u:code-1R   =97,
15:u:code-1RR  =32,
8:*100:9:T,
9:*100:16:T,
8:*100:2:T,
8:*100:7:T,
15:u:code-1LLL =86,
16:u:code-1LL  =105,
16:u:code-1L   =115,
15:u:code-1X   =97,
15:u:code-1R   =32,
16:u:code-1RRR =108,
8:*100:6:T,
9:*100:17:T,
9:*100:27:F,
9:*100:14:F,
9:*100:25:F,
16:u:code-1LLL =105,
16:u:code-1LL  =115,
15:u:code-1L   =97,
15:u:code-1X   =32,
16:u:code-1RR  =108,
7:*100:Zs,
9:*100:10:F,
8:*100:1:F,
9:*100:28:F,
9:*100:29:F,
8:*100:7:F,
16:u:code-1LLL =115,
15:u:code-1LL  =97,
15:u:code-1L   =32,
16:u:code-1R   =108,
8:*100:8:T,
8:*100:5:F,
9:*100:15:F,
15:u:code-1LLL =97,
15:u:code-1LL  =32,
16:u:code-1X   =108,
8:*100:1:T,
9:*100:29:T,
9:*100:28:T,
9:*100:22:F,
8:*100:4:F,
15:u:code-1LLL =32,
16:u:code-1L   =108,
15:u:code-1RRR =79,
9:*100:27:T,
9:*100:19:T,
9:*100:12:T,
9:*100:23:F,
16:u:code-1LL  =108,
15:u:code-1RR  =79,
16:u:code-1RRR =109,
9:*100:16:F,
16:u:code-1LLL =108,
15:u:code-1R   =79,
16:u:code-1RR  =109,
15:u:code-1X   =79,
16:u:code-1R   =109,
15:u:code-1RRR =65,
15:u:code-1L   =79,
16:u:code-1X   =109,
15:u:code-1RR  =65,
15:u:code-1RRR =78,
8:*100:0:F,
9:*100:20:F,
15:u:code-1LL  =79,
16:u:code-1L   =109,
15:u:code-1R   =65,
15:u:code-1RR  =78,
15:u:code-1RRR =83,
8:*100:3:T,
9:*100:10:T,
8:*100:2:F,
15:u:code-1LLL =79,
16:u:code-1LL  =109,
15:u:code-1X   =65,
15:u:code-1R   =78,
15:u:code-1RR  =83,
15:u:code-1RRR =73,
9:*100:18:F,
16:u:code-1LLL =109,
15:u:code-1L   =65,
15:u:code-1X   =78,
15:u:code-1R   =83,
15:u:code-1RR  =73,
15:u:code-1LL  =65,
15:u:code-1L   =78,
15:u:code-1X   =83,
15:u:code-1R   =73,
9:*100:24:T,
9:*100:20:T,
15:u:code-1LLL =65,
15:u:code-1LL  =78,
15:u:code-1L   =83,
15:u:code-1X   =73,
15:u:code-1RRR =81,
15:u:code-1LLL =78,
15:u:code-1LL  =83,
15:u:code-1L   =73,
15:u:code-1RR  =81,
15:u:code-1RRR =76,
8:*100:8:F,
9:*100:13:F,
15:u:code-1LLL =83,
15:u:code-1LL  =73,
15:u:code-1R   =81,
15:u:code-1RR  =76,
15:u:code-1RRR =45,
15:u:code-1LLL =73,
15:u:code-1X   =81,
15:u:code-1R   =76,
15:u:code-1RR  =45,
16:u:code-1RRR =102,
15:u:code-1L   =81,
15:u:code-1X   =76,
15:u:code-1R   =45,
16:u:code-1RR  =102,
16:u:code-1RRR =114,
9:*100:11:T,
15:u:code-1LL  =81,
15:u:code-1L   =76,
15:u:code-1X   =45,
16:u:code-1R   =102,
16:u:code-1RR  =114,
16:u:code-1RRR =229,
7:*100:Pd,
15:u:code-1LLL =81,
15:u:code-1LL  =76,
15:u:code-1L   =45,
16:u:code-1X   =102,
16:u:code-1R   =114,
16:u:code-1RR  =229,
16:u:code-1RRR =103,
15:u:code-1LLL =76,
15:u:code-1LL  =45,
16:u:code-1L   =102,
16:u:code-1X   =114,
16:u:code-1R   =229,
16:u:code-1RR  =103,
16:u:code-1RRR =101,
15:u:code-1LLL =45,
16:u:code-1LL  =102,
16:u:code-1L   =114,
16:u:code-1X   =229,
16:u:code-1R   =103,
16:u:code-1RR  =101,
16:u:code-1LLL =102,
16:u:code-1LL  =114,
16:u:code-1L   =229,
16:u:code-1X   =103,
16:u:code-1R   =101,
16:u:code-1RRR =228,
16:u:code-1LLL =114,
16:u:code-1LL  =229,
16:u:code-1L   =103,
16:u:code-1X   =101,
16:u:code-1RR  =228,
16:u:code-1LLL =229,
16:u:code-1LL  =103,
16:u:code-1L   =101,
16:u:code-1R   =228,
16:u:code-1LLL =103,
16:u:code-1LL  =101,
16:u:code-1X   =228,
9:*100:15:T,
16:u:code-1LLL =101,
16:u:code-1L   =228,
15:u:code-1RRR =69,
16:u:code-1LL  =228,
15:u:code-1RR  =69,
16:u:code-1RRR =110,
16:u:code-1LLL =228,
15:u:code-1R   =69,
16:u:code-1RR  =110,
15:u:code-1X   =69,
16:u:code-1R   =110,
16:u:code-1RRR =100,
15:u:code-1L   =69,
16:u:code-1X   =110,
16:u:code-1RR  =100,
15:u:code-1LL  =69,
16:u:code-1L   =110,
16:u:code-1R   =100,
15:u:code-1LLL =69,
16:u:code-1LL  =110,
16:u:code-1X   =100,
16:u:code-1LLL =110,
16:u:code-1L   =100,
8:*100:4:T,
9:*100:21:T,
16:u:code-1LL  =100,
16:u:code-1RRR =118,
16:u:code-1LLL =100,
16:u:code-1RR  =118,
9:*100:13:T,
16:u:code-1R   =118,
16:u:code-1RRR =105,
16:u:code-1X   =118,
16:u:code-1RR  =105,
16:u:code-1L   =118,
16:u:code-1LL  =118,
16:u:code-1LLL =118,
16:u:code-1RRR =104,
16:u:code-1RR  =104,
16:u:code-1R   =104,
16:u:code-1X   =104,
16:u:code-1L   =104,
16:u:code-1LL  =104,
16:u:code-1RRR =116,
16:u:code-1LLL =104,
16:u:code-1RR  =116,
16:u:code-1R   =116,
16:u:code-1X   =116,
16:u:code-1L   =116,
16:u:code-1LL  =116,
16:u:code-1LLL =116,
9:*100:26:T,
16:u:code-1RRR =115,
16:u:code-1RRR =107,
16:u:code-1RR  =107,
16:u:code-1R   =107,
16:u:code-1X   =107,
16:u:code-1L   =107,
16:u:code-1LL  =107,
16:u:code-1LLL =107,
16:u:code-1RRR =246,
16:u:code-1RR  =246,
16:u:code-1R   =246,
16:u:code-1X   =246,
16:u:code-1L   =246,
16:u:code-1LL  =246,
16:u:code-1LLL =246,
16:u:code-1RRR =112,
16:u:code-1RR  =112,
16:u:code-1R   =112,
16:u:code-1X   =112,
16:u:code-1L   =112,
15:u:code-1RRR =46,
16:u:code-1LL  =112,
15:u:code-1RR  =46,
16:u:code-1LLL =112,
15:u:code-1R   =46,
15:u:code-1RRR =68,
15:u:code-1X   =46,
15:u:code-1RR  =68,
16:u:code-1RRR =117,
7:*100:Po,
15:u:code-1L   =46,
15:u:code-1R   =68,
16:u:code-1RR  =117,
15:u:code-1LL  =46,
15:u:code-1X   =68,
16:u:code-1R   =117,
15:u:code-1LLL =46,
15:u:code-1L   =68,
16:u:code-1X   =117,
15:u:code-1LL  =68,
16:u:code-1L   =117,
15:u:code-1LLL =68,
16:u:code-1LL  =117,
16:u:code-1LLL =117,
16:u:code-1RRR =111,
16:u:code-1RR  =111,
16:u:code-1R   =111,
16:u:code-1X   =111,
16:u:code-1L   =111,
16:u:code-1LL  =111,
16:u:code-1LLL =111,
15:u:code-1RRR =58,
15:u:code-1RR  =58,
15:u:code-1R   =58,
15:u:code-1X   =58,
15:u:code-1L   =58,
15:u:code-1LL  =58,
15:u:code-1LLL =58,
15:u:code-1RRR =56,
15:u:code-1RR  =56,
15:u:code-1RRR =57,
15:u:code-1R   =56,
15:u:code-1RR  =57,
15:u:code-1X   =56,
15:u:code-1R   =57,
7:*100:Nd,
15:u:code-1L   =56,
15:u:code-1X   =57,
15:u:code-1LL  =56,
15:u:code-1L   =57,
15:u:code-1LLL =56,
15:u:code-1LL  =57,
15:u:code-1LLL =57,
15:u:code-1RRR =74,
15:u:code-1RR  =74,
15:u:code-1R   =74,
15:u:code-1X   =74,
15:u:code-1L   =74,
15:u:code-1LL  =74,
15:u:code-1LLL =74,
16:u:code-1RRR =121,
16:u:code-1RR  =121,
16:u:code-1R   =121,
16:u:code-1X   =121,
16:u:code-1L   =121,
16:u:code-1RRR =120,
16:u:code-1LL  =121,
16:u:code-1RR  =120,
16:u:code-1LLL =121,
16:u:code-1R   =120,
16:u:code-1X   =120,
16:u:code-1L   =120,
16:u:code-1LL  =120,
16:u:code-1LLL =120,
15:u:code-1RRR =99,
15:u:code-1RR  =99,
15:u:code-1R   =99,
15:u:code-1X   =99,
15:u:code-1L   =99,
15:u:code-1LL  =99,
15:u:code-1LLL =99,
15:u:code-1RRR =49,
15:u:code-1RR  =49,
15:u:code-1RRR =44,
15:u:code-1R   =49,
15:u:code-1RR  =44,
15:u:code-1X   =49,
15:u:code-1R   =44,
15:u:code-1L   =49,
15:u:code-1X   =44,
15:u:code-1LL  =49,
15:u:code-1L   =44,
15:u:code-1LLL =49,
15:u:code-1LL  =44,
15:u:code-1LLL =44,
15:u:code-1RRR =98,
15:u:code-1RR  =98,
15:u:code-1R   =98,
15:u:code-1X   =98,
15:u:code-1L   =98,
15:u:code-1LL  =98,
15:u:code-1LLL =98,
15:u:code-1RRR =86,
15:u:code-1RR  =86,
15:u:code-1R   =86,
16:u:code-1RRR =106,
16:u:code-1RR  =106,
16:u:code-1R   =106,
16:u:code-1X   =106,
16:u:code-1L   =106,
16:u:code-1LL  =106,
16:u:code-1LLL =106,
15:u:code-1RRR =66,
15:u:code-1RR  =66,
15:u:code-1R   =66,
15:u:code-1X   =66,
15:u:code-1L   =66,
15:u:code-1LL  =66,
15:u:code-1LLL =66,
15:u:code-1RRR =40,
15:u:code-1RR  =40,
15:u:code-1R   =40,
15:u:code-1X   =40,
7:*100:Ps,
15:u:code-1L   =40,
15:u:code-1RRR =41,
15:u:code-1LL  =40,
15:u:code-1RR  =41,
15:u:code-1LLL =40,
15:u:code-1R   =41,
15:u:code-1X   =41,
7:*100:Pe,
15:u:code-1L   =41,
15:u:code-1LL  =41,
15:u:code-1LLL =41,
15:u:code-1RRR =50,
15:u:code-1RR  =50,
15:u:code-1R   =50,
15:u:code-1X   =50,
15:u:code-1L   =50,
15:u:code-1LL  =50,
15:u:code-1LLL =50,
15:u:code-1RRR =88,
15:u:code-1RR  =88,
15:u:code-1R   =88,
15:u:code-1X   =88,
15:u:code-1L   =88,
15:u:code-1RRR =77,
15:u:code-1LL  =88,
15:u:code-1RR  =77,
15:u:code-1LLL =88,
15:u:code-1R   =77,
15:u:code-1X   =77,
15:u:code-1L   =77,
15:u:code-1LL  =77,
15:u:code-1LLL =77,
15:u:code-1RRR =48,
15:u:code-1RR  =48,
15:u:code-1R   =48,
15:u:code-1X   =48,
15:u:code-1L   =48,
15:u:code-1LL  =48,
15:u:code-1LLL =48,
15:u:code-1RRR =70,
15:u:code-1RR  =70,
15:u:code-1R   =70,
15:u:code-1X   =70,
15:u:code-1L   =70,
15:u:code-1LL  =70,
15:u:code-1LLL =70,
15:u:code-1RRR =63,
15:u:code-1RR  =63,
15:u:code-1R   =63,
15:u:code-1X   =63,
15:u:code-1L   =63,
15:u:code-1LL  =63,
15:u:code-1LLL =63,
16:u:code-1RRR =196,
16:u:code-1RR  =196,
16:u:code-1R   =196,
16:u:code-1X   =196,
16:u:code-1L   =196,
16:u:code-1LL  =196,
16:u:code-1LLL =196,
15:u:code-1RRR =71,
15:u:code-1RR  =71,
15:u:code-1RRR =82,
15:u:code-1R   =71,
15:u:code-1RR  =82,
15:u:code-1X   =71,
15:u:code-1R   =82,
15:u:code-1L   =71,
15:u:code-1X   =82,
15:u:code-1RRR =84,
15:u:code-1LL  =71,
15:u:code-1L   =82,
15:u:code-1RR  =84,
15:u:code-1LLL =71,
15:u:code-1LL  =82,
15:u:code-1R   =84,
15:u:code-1LLL =82,
15:u:code-1X   =84,
15:u:code-1L   =84,
15:u:code-1LL  =84,
15:u:code-1LLL =84,
15:u:code-1RRR =75,
15:u:code-1RR  =75,
15:u:code-1R   =75,
15:u:code-1X   =75,
15:u:code-1L   =75,
15:u:code-1LL  =75,
15:u:code-1LLL =75,
15:u:code-1RRR =67,
15:u:code-1RR  =67,
15:u:code-1R   =67,
15:u:code-1X   =67,
15:u:code-1L   =67,
15:u:code-1LL  =67,
15:u:code-1LLL =67,
15:u:code-1RRR =85,
15:u:code-1RR  =85,
15:u:code-1R   =85,
15:u:code-1X   =85,
15:u:code-1L   =85,
15:u:code-1LL  =85,
15:u:code-1LLL =85,
15:u:code-1RRR =80,
15:u:code-1RR  =80,
15:u:code-1R   =80,
15:u:code-1X   =80,
15:u:code-1L   =80,
15:u:code-1LL  =80,
15:u:code-1LLL =80,
15:u:code-1RRR =87,
15:u:code-1RR  =87,
15:u:code-1R   =87,
15:u:code-1X   =87,
15:u:code-1L   =87,
15:u:code-1LL  =87,
15:u:code-1LLL =87,
15:u:code-1RRR =72,
15:u:code-1RR  =72,
15:u:code-1R   =72,
15:u:code-1X   =72,
15:u:code-1L   =72,
15:u:code-1LL  =72,
15:u:code-1LLL =72,
16:u:code-1RRR =214,
16:u:code-1RR  =214,
16:u:code-1R   =214,
16:u:code-1X   =214,
16:u:code-1L   =214,
16:u:code-1LL  =214,
16:u:code-1LLL =214,
16:u:code-1RRR =119,
16:u:code-1RR  =119,
16:u:code-1R   =119,
16:u:code-1X   =119,
16:u:code-1L   =119,
16:u:code-1LL  =119,
16:u:code-1LLL =119,
15:u:code-1RRR =89,
15:u:code-1RR  =89,
15:u:code-1R   =89,
15:u:code-1X   =89,
15:u:code-1L   =89,
15:u:code-1LL  =89,
15:u:code-1LLL =89,
15:u:code-1RRR =51,
15:u:code-1RR  =51,
15:u:code-1R   =51,
15:u:code-1X   =51,
15:u:code-1L   =51,
15:u:code-1LL  =51,
15:u:code-1LLL =51,
15:u:code-1RRR =52,
15:u:code-1RR  =52,
15:u:code-1R   =52,
15:u:code-1X   =52,
15:u:code-1L   =52,
15:u:code-1LL  =52,
15:u:code-1LLL =52,
15:u:code-1RRR =53,
15:u:code-1RR  =53,
15:u:code-1R   =53,
15:u:code-1X   =53,
15:u:code-1L   =53,
15:u:code-1LL  =53,
15:u:code-1LLL =53,
15:u:code-1RRR =95,
15:u:code-1RR  =95,
15:u:code-1R   =95,
15:u:code-1X   =95,
7:*100:Pc,
15:u:code-1L   =95,
15:u:code-1LL  =95,
15:u:code-1LLL =95,
15:u:code-1RRR =34,
15:u:code-1RR  =34,
15:u:code-1R   =34,
15:u:code-1X   =34,
15:u:code-1L   =34,
15:u:code-1LL  =34,
15:u:code-1LLL =34,
15:u:code-1RRR =38,
15:u:code-1RR  =38,
15:u:code-1R   =38,
15:u:code-1X   =38,
15:u:code-1L   =38,
15:u:code-1LL  =38,
15:u:code-1RRR =59,
15:u:code-1LLL =38,
15:u:code-1RR  =59,
15:u:code-1R   =59,
15:u:code-1X   =59,
15:u:code-1L   =59,
15:u:code-1LL  =59,
15:u:code-1LLL =59,
15:u:code-1RRR =39,
15:u:code-1RR  =39,
15:u:code-1R   =39,
15:u:code-1X   =39,
15:u:code-1L   =39,
15:u:code-1LL  =39,
15:u:code-1LLL =39,
15:u:code-1RRR =37,
15:u:code-1RR  =37,
15:u:code-1R   =37,
15:u:code-1X   =37,
15:u:code-1L   =37,
15:u:code-1LL  =37,
15:u:code-1LLL =37,
16:u:code-1RRR =122,
16:u:code-1RR  =122,
16:u:code-1R   =122,
16:u:code-1X   =122,
16:u:code-1L   =122,
16:u:code-1LL  =122,
16:u:code-1LLL =122,
15:u:code-1RRR =55,
15:u:code-1RR  =55,
15:u:code-1R   =55,
15:u:code-1X   =55,
15:u:code-1L   =55,
15:u:code-1LL  =55,
15:u:code-1LLL =55,
16:u:code-1RRR =197,
16:u:code-1RR  =197,
16:u:code-1R   =197,
16:u:code-1X   =197,
16:u:code-1L   =197,
16:u:code-1LL  =197,
16:u:code-1LLL =197,
15:u:code-1RRR =54,
15:u:code-1RR  =54,
15:u:code-1R   =54,
15:u:code-1X   =54,
15:u:code-1L   =54,
15:u:code-1LL  =54,
15:u:code-1LLL =54,
16:u:code-1RRR =233,
16:u:code-1RR  =233,
16:u:code-1R   =233,
16:u:code-1X   =233,
16:u:code-1L   =233,
16:u:code-1LL  =233,
16:u:code-1LLL =233,
15:u:code-1RRR =33,
15:u:code-1RR  =33,
15:u:code-1R   =33,
15:u:code-1X   =33,
15:u:code-1L   =33,
15:u:code-1LL  =33,
15:u:code-1LLL =33,
15:u:code-1RRR =90,
15:u:code-1RR  =90,
15:u:code-1R   =90,
15:u:code-1X   =90,
15:u:code-1L   =90,
15:u:code-1LL  =90,
15:u:code-1LLL =90,
16:u:code-1RRR =113,
16:u:code-1RR  =113,
16:u:code-1R   =113,
16:u:code-1X   =113,
16:u:code-1L   =113,
16:u:code-1LL  =113,
16:u:code-1LLL =113,
17:u:code-1RRR =8211,
17:u:code-1RR  =8211,
17:u:code-1R   =8211,
17:u:code-1X   =8211,
17:u:code-1L   =8211,
17:u:code-1LL  =8211,
17:u:code-1LLL =8211,
15:u:code-1RRR =47,
15:u:code-1RR  =47,
15:u:code-1R   =47,
15:u:code-1X   =47,
15:u:code-1L   =47,
15:u:code-1LL  =47,
15:u:code-1LLL =47,
15:u:code-1RRR =93,
15:u:code-1RR  =93,
15:u:code-1R   =93,
15:u:code-1X   =93,
15:u:code-1L   =93,
15:u:code-1LL  =93,
15:u:code-1LLL =93,
17:u:code-1RRR =_x+1,
17:u:code-1RR  =_x+1,
17:u:code-1RRR =_x+2,
17:u:code-1R   =_x+1,
17:u:code-1RR  =_x+2,
17:u:code-1RRR =_x+3,
0=-0x1.0c2dc44b6606ep-2
1=0x1.74bd3c11e57ap-6
2=-0x1.2c6c44f41bddcp-2
3=-0x1.c93079fdf85a9p-3
4=0x1.9abe72a7d8869p-2
5=0x1.3875275f999f7p-4
6=0x1.092dedc6eda8ep-1
7=-0x1.0a137d01e3af8p-1
8=-0x1.02dfd18e2e84ap-1
9=0x1.ae4b895ad14efp-7
10=-0x1.94f34f7a0fe2ep-7
12=0x1.ae4b895ad14efp-7
13=-0x1.94f34f7a0fe2ep-7
15=0x1.ae4b895ad14efp-7
16=-0x1.94f34f7a0fe2ep-7
18=0x1.cba626780d2f9p-5
19=-0x1.675ce6ff32005p-5
21=0x1.14363156d667cp-4
22=-0x1.8aeb04b8fc5dcp-4
23=0x1.8ae5184d55d6ep-6
24=0x1.05f5c48f122e2p-9
25=0x1.b2af631bfd866p-7
26=-0x1.2bebc09c53cb8p-5
27=0x1.89954be87b6d8p-6
28=-0x1.0df3bb1ea6ad4p-8
29=-0x1.f33275fb826b5p-6
30=0x1.fc276d45d7f2ep-5
31=0x1.41abc0529927p-5
32=-0x1.3a1ab1f03a785p-2
33=0x1.faad40442227bp-4
34=-0x1.22c7135ff65a6p-1
35=-0x1.fc17c4150854ap-4
36=-0x1.dbff466491fbfp-3
37=0x1.2b24322e6b66fp+0
38=-0x1.f11a5a1038289p-4
39=0x1.1a7ed0509b9d6p-4
40=-0x1.ba123acd961d3p-5
42=0x1.2d6a877059d9ap-5
43=0x1.14022e0dec5e9p-5
44=-0x1.2eb5841c9b1d2p-3
45=0x1.0aa5aacce05ep-3
46=0x1.15e62e3057f6p-2
47=-0x1.64f587d01a2a1p-3
48=-0x1.08e86e9f5dfe6p-3
49=-0x1.7a8e25e1575aep-5
50=0x1.df14a79f38a1ap-6
51=-0x1.87fba0c2ea26ep-6
52=-0x1.f3452e40012f2p-6
53=-0x1.707b030a021a8p-7
54=-0x1.6f180de41499bp-2
55=0x1.984d76106baffp-2
56=-0x1.69fb6ddc18644p-5
57=-0x1.75eeaa32c944p-2
58=0x1.2830bde29c4d1p-1
59=-0x1.be477834ea00ap-6
60=-0x1.ac824a7c39006p-5
61=0x1.314ac9b6d4dbp-3
62=-0x1.fe19c4bbc61f1p-5
63=-0x1.109302620db88p-5
64=-0x1.2171089ad7aaep-5
65=-0x1.ac7d4e43ddcc9p-6
66=-0x1.fe99693d0f2a6p-3
67=0x1.35c7b10fc173dp-2
68=-0x1.59445f0d77cb1p-4
69=-0x1.512c633e8d05p-2
70=0x1.f547b19ad4837p-4
71=-0x1.9f261ec4effdp-3
72=0x1.e51519dc4d93dp-5
73=0x1.efe53457d5c08p-3
74=0x1.9b97a34c816p-3
75=-0x1.1f4f421462af6p-3
76=-0x1.35c0351c05bcdp-4
77=-0x1.e011c13531e0bp-5
78=-0x1.719d78ef8d66cp-3
79=0x1.b48d22b0161fap-3
81=-0x1.c788a5ff0bdb7p-5
82=0x1.9955d94390727p-3
83=-0x1.38b337c6b587ep-3
84=-0x1.80b022d4df3dbp-4
85=0x1.04c6d710a2649p-3
86=0x1.d51a53809e773p-4
87=-0x1.3297d4d87d9f3p-5
88=-0x1.02ff8205ee617p-5
89=-0x1.c50901f9a20dfp-7
90=-0x1.0b44a0d9727dbp-1
91=0x1.1e3aebf1ac496p-1
92=-0x1.6652d3cac9b75p-4
93=-0x1.f9f4e2886acc6p-2
94=0x1.643c2a4e63589p-1
95=-0x1.d8c4a8de59984p-5
96=-0x1.88dd9034063edp-5
97=0x1.63b37747dc839p-4
98=-0x1.4e3891b31c821p-6
99=-0x1.b6f8cbf3f11d1p-6
100=-0x1.23e6ab3d34168p-5
101=-0x1.5deb729bd1c39p-6
103=0x1.2691ad4cf894cp-3
104=-0x1.5b2c9842b272ep-3
105=0x1.c1074422fb848p-6
106=0x1.0dbb6c6d2880cp-1
107=-0x1.d2c665cbf8c3dp-4
109=-0x1.a4afc1768e60ep-5
110=-0x1.f3048b09177cep-6
111=-0x1.384915b7dcf42p-5
112=-0x1.3d4246642bc93p-5
113=-0x1.6a4e46e0025bdp-6
114=-0x1.292dd58fb026p-3
115=0x1.034136aa51413p-3
116=-0x1.73284f0be48ep-5
117=-0x1.0269ca7793459p-3
118=0x1.94e5049a6a1e5p-2
119=0x1.5020eb3079ec5p-2
120=-0x1.fd75305dc2f4dp-7
121=0x1.17dbc87a3148p-8
122=-0x1.61c8085c05343p-2
123=-0x1.c556f19c531a9p-5
124=-0x1.51fbfd48afcb2p-6
125=-0x1.88880688e90b9p-5
126=0x1.c995c2af9135bp-3
127=-0x1.ad27b017288b8p-4
128=-0x1.6779ba559179bp-4
129=0x1.debb0de3f3aa5p-4
130=-0x1.c7efba7f541abp-2
131=-0x1.897ce846b4228p-4
132=0x1.44360c7229b0ep-5
133=0x1.8d67fa681a24bp-4
134=0x1.3ab8e7c15c5adp-6
136=-0x1.5b20808d915dap-5
137=-0x1.03112fddf2472p-5
138=-0x1.4aea6fd0d361ap-4
139=0x1.89e360c5d558ap-4
140=-0x1.4f9f4a3ce65cdp-4
141=-0x1.9a79fd317962ap-3
142=0x1.68ddc0a670d81p-5
143=0x1.0b35393f99c15p-4
144=-0x1.0b7ecd95b8b3fp-4
145=0x1.71667ca0d82b4p-4
146=-0x1.6feccec739924p-4
147=0x1.77acf3d931071p-4
148=-0x1.af28c09e75d41p-5
149=-0x1.99794556d359fp-5
156=-0x1.28a7a7157c35ap-6
157=0x1.b156b31d3ee5bp-6
159=-0x1.fa16d106ff13p-7
160=0x1.8d1b84309d53ap-5
161=-0x1.3b71760723d21p-5
162=-0x1.17c15296f6d78p-3
163=0x1.2faf71e78ad73p-4
164=0x1.918ea436dbcccp-5
165=-0x1.05ebf884fe7f9p-4
166=0x1.8ef415ebc038dp-6
167=0x1.341d95cbf2be7p-5
168=0x1.d1ae0f366993fp-5
170=-0x1.06d3f8cfc2accp-4
171=-0x1.ce954453f190dp-1
172=0x1.2bfb9fd69c3c7p+0
173=-0x1.97bde582229b9p-1
174=-0x1.7d05acf300364p-3
175=0x1.495433fb8aeap-1
176=-0x1.0fb91a9d79aa4p-2
177=-0x1.2ae54aa37c302p+1
178=0x1.26ddfec945bafp+0
179=-0x1.544ace9a6533fp-1
180=0x1.3444100104b05p+0
181=-0x1.730fa518c782cp-2
182=-0x1.8043a9937f41cp-3
183=0x1.22ccd1ad9c673p-4
184=0x1.0b8ea905a0836p-4
185=-0x1.72b9dccbba036p-5
186=0x1.abca28c209016p-5
187=-0x1.4fac43b7d31fbp-3
188=0x1.058fb874b1445p-2
189=-0x1.e188aa493a829p-6
190=0x1.7afd2a658f42dp-3
191=-0x1.daf745e637573p-3
192=0x1.366816fde1cefp-4
193=-0x1.bdeef92f976c3p-4
194=-0x1.8f6e4a3943832p-4
195=0x1.172d0b3fc2719p-2
197=-0x1.e8db1db343cadp-3
198=-0x1.8f0f40a36ab65p-3
199=0x1.7dada27211804p-9
200=-0x1.989ef783980a1p-3
201=-0x1.c82529be1404ap-3
202=0x1.a0bf8c09e9dfdp-5
203=-0x1.7cae0df258e84p-9
204=0x1.e2a876859c91cp-1
205=-0x1.05aefc0c39e8p-2
206=-0x1.34b2f9f865d36p-4
207=0x1.8c3bef84b5855p-6
208=-0x1.f66d9b413cb9p-8
209=-0x1.814bec9ad99dbp-4
210=-0x1.2ee12e28d24f1p-5
211=-0x1.c7661e6ad4336p-4
212=-0x1.51af60f191ef6p-7
213=0x1.855187457ddd2p-5
214=0x1.ecea506ab188ap-5
215=0x1.9ab47bfe0239dp-8
216=-0x1.47a461f5b2252p-5
217=-0x1.8c290c4a4b1f8p-5
218=-0x1.cabec831a6841p-5
219=-0x1.2f168d8587a63p-3
220=0x1.92d8f63a040dcp-3
221=-0x1.46ebfe1786bc2p-3
222=-0x1.a29cf2d8518a4p-6
223=0x1.1b1b5b7510cbfp-3
224=0x1.56ea7ad23348bp-5
225=-0x1.1c1c49a806012p-4
226=0x1.53113159ab774p-4
227=0x1.add4fded2d1f4p-6
228=0x1.7a64ff026cdeep-5
229=-0x1.1375d9a4c0e9ep-3
230=-0x1.42c5668e1dccfp-3
231=0x1.8f92c7838c479p-4
232=0x1.474eadc66e1b7p-3
233=-0x1.73b7d9d43aee4p-4
234=-0x1.938cd0559834ap-4
235=-0x1.b88bbd3b1dc46p-6
236=0x1.45d74f3cf4ap-7
237=-0x1.63c2803467dap-3
238=0x1.1b62889f87a8p-3
239=-0x1.4b72f38b0084p-6
240=0x1.cb16a9932462dp-2
241=-0x1.a90650d0cee45p-3
242=-0x1.3ad7dcaf15ab6p-4
243=0x1.299261ba1c355p-7
244=0x1.fb403634e2a58p-6
245=-0x1.8fff1a41246aap-4
246=-0x1.0312efaaab241p-5
247=-0x1.0f4f066ab07dap-4
248=-0x1.39b4937cf373dp-2
249=0x1.e487ca35f6453p-8
250=0x1.f12700a4cde61p-4
251=0x1.33127ede5cd06p-2
252=0x1.ce677cf5dc091p-5
253=-0x1.bea2017e205cfp-5
254=-0x1.6f6e10f5b963fp-5
255=0x1.b2cf836b13e98p-3
256=0x1.64238a03a8696p-4
257=-0x1.df03128f7c43bp-4
258=-0x1.1959d626ce11p-11
259=-0x1.a86844453f06p-5
260=0x1.15c31b77cc03bp-2
261=-0x1.1460c281106b3p-3
262=0x1.213b636be7ca2p-4
263=-0x1.71197da125b06p-2
264=0x1.0bbe51a87f9ap-1
265=-0x1.a6d2eb17097e6p-3
266=-0x1.ba99c436cf36ep-4
267=0x1.a7b34beb25776p-5
269=-0x1.5b276429b3191p-3
270=0x1.29e029b2f70a1p-3
271=-0x1.8914860f06eabp-4
273=-0x1.68f8a47f3472cp-2
274=0x1.424971bf194b8p-3
275=-0x1.14e9d4ba5268bp-4
276=0x1.4db3861b9bb44p-2
277=-0x1.addffc2ba827fp-3
278=-0x1.6fd341bdbd1b7p-3
282=-0x1.0e2ac37f03e88p-12
283=0x1.13d1131fa704dp-9
285=-0x1.988eafe97ebb7p-3
286=0x1.3a99b49852c36p-3
287=-0x1.341c2dd5b55aap-9
288=0x1.7b8ed818907d8p-7
290=-0x1.e682b997bbedbp-6
291=0x1.eed9265bc749ep-4
292=-0x1.3dac1e1ec5818p-4
293=-0x1.3cb46bb778af3p-7
294=-0x1.0fd69a89b9ea4p-6
295=0x1.86169b009830bp-2
296=-0x1.a2a26548fce81p-1
297=-0x1.7f309c184f122p-3
298=0x1.ade4a58941bb5p-4
299=-0x1.710f7a1fb949dp-7
300=-0x1.7f6ed355411b3p-4
301=0x1.1e26dec91f2d2p-5
302=0x1.02433684d6c9cp-2
303=0x1.de0c202fb653cp-4
304=0x1.499e02605ecccp-3
305=-0x1.43f8d0999bb59p-3
306=-0x1.f5184aad4696ep-3
307=-0x1.96df387e413bbp-4
308=-0x1.84ced47f64942p-3
309=0x1.b6fb6b5e33b1ep-1
310=-0x1.aa51dcc340edbp-2
311=-0x1.44bfcb2fed04cp-4
312=-0x1.a42793cb2e90bp-4
313=-0x1.dbf6672545c4ep-3
314=-0x1.dfa2b884310f1p-3
315=-0x1.e5f5d24f7045cp-3
316=0x1.562fa68d7b269p-5
317=0x1.d340269f8efaep-4
318=0x1.53fce0cc1c77dp+0
319=-0x1.5309ada49d60dp-2
320=-0x1.f53617d9c18f1p-5
321=-0x1.2d1a03d587c1fp-4
322=0x1.9bccb9bbda613p-5
323=0x1.18600b6a65b0ap-7
324=-0x1.a67fcebd61058p-3
325=0x1.9d431e3f980fbp-5
326=-0x1.ad6af7cc8f373p-6
327=0x1.b996b099fc718p-4
328=0x1.3f258295a7118p-5
329=0x1.3e772d575f003p-4
330=-0x1.142161e07693ap-4
331=-0x1.d53e45268c96bp-6
332=-0x1.9c6f2a9bb009bp-5
333=-0x1.1fc432baa62b7p-8
334=0x1.907f50070ba5p-5
335=-0x1.385913551a673p-4
336=-0x1.13ef1e2ce391cp-2
337=0x1.5304ef5aed519p-2
338=-0x1.0ca7a3fd2938ap-3
339=0x1.508969317f81fp-3
340=-0x1.1b973616a0598p-8
341=0x1.c4f5bed3e6a61p-4
342=-0x1.65ff38066c15cp-5
343=-0x1.5d768d60e9558p-5
344=-0x1.64971cbb0732dp-5
348=0x1.a51afa2ac30fdp-4
349=-0x1.65889444aea3dp-6
350=-0x1.7b76de60ff19bp-6
352=0x1.79d077fe976bap-11
353=-0x1.9db59fd04ea85p-9
354=-0x1.212be8d94d0bp-4
355=0x1.a6f4611f57262p-4
356=-0x1.280168ab8f6bap-4
357=0x1.90e3f3a88a51cp-3
358=0x1.05f7461dcf8d2p-3
359=-0x1.f063c08e57b83p-2
360=0x1.633baac0bcda1p-6
361=-0x1.afa6efdc18eafp-7
363=0x1.b59576055764ep-14
365=-0x1.35a80b6d274fbp-6
366=0x1.c04ac9adc23bbp-4
367=-0x1.017b0b02087e2p-2
368=0x1.a65bcd53c494fp-2
369=-0x1.54ccbb24910e6p-4
370=0x1.2f3ed7c6bb79cp-3
371=-0x1.721440c4f3828p-4
372=-0x1.0b9eac2ae6456p-2
373=-0x1.68b0fabab8cf4p-3
374=-0x1.7c9f5c390af15p-2
375=-0x1.d3dd329ded52p-3
376=0x1.1db196134eb8p-2
378=-0x1.5bfaff791cf9bp-5
379=-0x1.a7e51626fa29ep-5
380=-0x1.d99df97c5d995p-3
381=-0x1.55634ed84c66cp-7
382=0x1.736eb67feb53bp-3
383=0x1.006f55d44551ap-2
384=-0x1.1a8351d918c3ep-2
385=-0x1.4f413f78e20abp-4
386=-0x1.3a72e8c3ed5e6p-4
387=0x1.f125dfcfd7e0bp-4
388=0x1.4e4fa4593362dp-6
389=-0x1.877165ad5afp-3
390=0x1.6695e2ddb2775p-2
391=-0x1.71d7cdef6393ap-3
392=-0x1.04ffa833aa0a6p-3
393=-0x1.915557794f905p-3
394=0x1.87a0b5d2d6becp-3
395=0x1.57503ed59a0fep-7
396=0x1.6165d4b33299dp-4
397=-0x1.c778c50d60239p-4
398=-0x1.3831d67fda60dp-4
399=-0x1.0731189759f46p-8
400=0x1.69ed6156260eap-4
401=-0x1.3294f7d0f27d2p-3
402=-0x1.4237e477be27ep-2
403=0x1.62cde243d835ap-3
404=-0x1.c98cdade28289p-3
405=0x1.5feb1d1f743ap-5
406=0x1.420f9c4d260f7p-4
407=0x1.7ab30939b2e53p-4
408=0x1.f22c8a3afde34p-3
409=-0x1.5450b337a982ep-4
410=-0x1.1ee30731b8dcep-4
411=-0x1.4cb4f00f382b6p-5
412=0x1.252d8abf43923p-3
413=-0x1.24b50df76fbcap-3
414=-0x1.deea9993068bap-5
415=0x1.f4c5cb173a82ap-7
416=0x1.f0acaf7603875p-4
417=-0x1.adde77e0207fcp-4
418=0x1.819e46b826f5fp-4
419=-0x1.69692fd5be9abp-4
420=0x1.c9473044fdccep-4
421=-0x1.88fe81dce7bdep-4
422=-0x1.c85b5917a622cp-4
423=0x1.c2b0aea55ba08p-8
424=-0x1.2899a94c7edc6p-6
426=0x1.2a3d87f77582ep-8
427=0x1.26062ac010728p-8
428=-0x1.b5c71b35c4219p-7
429=-0x1.22148cf127c0dp-5
430=0x1.a7ffd2ca0336fp-5
431=-0x1.40d8cf51cabaep-5
432=-0x1.8a41762ef0c58p-2
433=-0x1.240b4739d8fe8p+0
434=0x1.8711e6ad7ead7p+0
435=0x1.8e12e775e688dp-7
436=-0x1.3f7cd540833aep-8
438=-0x1.8a41762ef0c58p-2
439=-0x1.240b4739d8fe8p+0
440=0x1.8711e6ad7ead7p+0
441=-0x1.2dc5d40c9096p-4
442=-0x1.e789b72b70d02p-3
443=0x1.1faa6e220070fp-1
444=-0x1.0d2af509eebacp-2
445=-0x1.c2b43c3fba31dp-1
446=0x1.7dcf908a924d6p-1
447=-0x1.991aef8634393p-6
448=-0x1.1d541b1986112p-5
449=-0x1.bf051eedcbb98p-2
450=0x1.b3606d5e21b99p-4
451=0x1.12aadbb835c1dp-4
452=-0x1.75090a1f899bfp-3
453=-0x1.fb65e49bc988p-5
454=-0x1.8d7e0852a5c18p-2
455=-0x1.4b4590c092b53p-2
456=-0x1.c2a2d2391e23p-5
457=0x1.b72a53436974fp-3
458=0x1.1d89a7b844c8p-2
459=0x1.00b1e2da6d1e8p-2
460=-0x1.050f589212e7cp-3
461=-0x1.be5eda3f4eff6p-4
462=-0x1.235f05483940ap-5
463=0x1.90e9bf9719e3p-3
464=-0x1.554ee3de0698ep-3
465=-0x1.724be027ee11ep-2
467=-0x1.c73605382eb1cp-3
468=-0x1.3f1640cfe4669p-7
469=0x1.abb9b9e0ca22dp-3
470=0x1.e2cb6363c1b8p-4
471=0x1.65f684aa318f1p-3
472=-0x1.35d3a3ebae0cap-4
473=-0x1.3149905dcc803p-4
474=-0x1.71c990316d0b8p-8
475=-0x1.0cdfd7e4fbbecp-6
476=-0x1.c65595067aa66p-4
477=0x1.92db8f9977f9cp-3
478=-0x1.46649118ce89fp-3
479=0x1.5bda0cb64c5fcp-3
480=-0x1.0516834737e13p-4
481=0x1.573c34a6a4b7ep-3
482=-0x1.0be968748a264p-2
483=-0x1.e3c6b0c1d307p-5
484=-0x1.2c3b329c482dcp-5
485=-0x1.10dc5776db3e3p-4
486=0x1.9d1f681642b8dp-5
487=0x1.8a1bf274cc5b6p-6
488=-0x1.cfd739fe9b542p-4
489=0x1.ee0b0ba197c23p-9
490=0x1.519f3dcf58558p-5
491=-0x1.2b2deb01e9495p-2
492=0x1.fc1c5bc1c3769p-5
493=0x1.4ad67cbe37cf5p-6
494=0x1.8bfd4ffbd8469p-3
496=-0x1.c86c1857ace35p-6
497=-0x1.1173f21808238p-5
498=0x1.a3e8277e8cb97p-4
499=0x1.d6b65aa68c51cp-6
500=-0x1.373598f79c79dp-3
501=-0x1.6ffc8a895ae6bp-4
502=-0x1.632fa5e970ea9p-5
503=-0x1.02a7429ef0bb3p-7
504=-0x1.00257f8b0315fp-5
505=0x1.b098e7cd71b1ap-4
506=-0x1.3bdc908d0a82p-5
507=0x1.1fb9c41b4df3bp-2
508=-0x1.f10a6511f8c3dp-4
509=-0x1.1f5993935e788p-3
510=0x1.eeaa80f232af7p-10
511=0x1.8757a5fee527p-8
512=-0x1.23890378a52f8p-6
513=0x1.bf15a58794b5p-4
514=-0x1.3dd2738b7d4p-4
516=0x1.8f438ed71335ep+0
517=-0x1.7899128009651p+0
518=-0x1.17e85665d0aebp-3
519=-0x1.8b5a4a92da914p-8
520=0x1.5135f7713c612p-6
521=-0x1.92cbaeab72cdap-8
522=0x1.086c114d58ee5p-1
523=-0x1.a9ff386da7abbp-5
524=-0x1.2191e86e54af9p-2
525=-0x1.572574ab9b98p-2
526=0x1.9ad3df55c24bcp-6
527=-0x1.2814490f8c971p-3
528=-0x1.c19ff7c5809a2p-2
529=0x1.d30f8f403dc49p-7
530=-0x1.5cf228f5e5857p-4
531=0x1.5a3ece5d9cbadp+0
532=-0x1.3a841ed599fefp-2
533=-0x1.d53e3cf96b43bp-5
534=0x1.29ac5e169c398p-2
535=-0x1.11dcb77b08e6bp-3
536=-0x1.b5b8c66792801p-4
537=0x1.953e0266907cbp-3
538=-0x1.e29fc51107b85p-5
539=-0x1.1031b2f638002p-3
540=-0x1.844981db10ddap-5
541=-0x1.0a8c59461abcp-14
542=-0x1.265eb2d86aa5dp-5
543=0x1.745f9e43dfd3p-3
544=-0x1.efa5fe2780057p-5
545=-0x1.6150bb015fce9p-6
547=0x1.1a5c8e39f3ba4p-10
548=-0x1.09e6428f0aa7ap-3
549=-0x1.2d470c209067p-4
550=-0x1.15bfb92bcb47p-6
551=-0x1.04ffbec03b2c7p-5
552=-0x1.f46dbd3872802p-5
553=0x1.854bf8a1073d1p-4
554=0x1.f9616e9f425a9p-4
555=0x1.eb8d617505b33p-3
556=-0x1.095a5e481bf4ep-3
557=-0x1.15f2c7b3e759dp-3
558=0x1.1d6b63b3dc46ep-3
559=-0x1.6fe8ca8fe9c97p-4
561=-0x1.331684f20f3ccp-4
562=0x1.8585c7977413dp-2
563=-0x1.269aef8273eb8p-2
564=-0x1.a5247a9223f3ap-5
565=0x1.7c9778b433c29p-5
566=-0x1.75997637f0cb3p-6
567=-0x1.5534b5fe4c42ep-2
568=0x1.77c06613018c5p-2
569=-0x1.39a0633d0185fp-6
570=-0x1.3055523dc2e44p-2
571=0x1.b5d140ae4f1e6p-2
572=-0x1.15393377556e8p-5
573=-0x1.760b5aca2d1a2p-5
574=0x1.4ef3e1f2bdfddp-4
575=-0x1.9ac83b72104afp-10
576=-0x1.3ad0fe1b6799ap-7
577=-0x1.cefd20f484436p-7
578=-0x1.3b901af975abdp-7
579=-0x1.0ec1bd4404a88p-2
580=0x1.74942b96e4bb2p-2
581=-0x1.0dbb66631487bp-4
582=-0x1.b69cd25b00bf2p-2
583=0x1.1b4ab89a72d85p-2
584=-0x1.bafd5964b07b3p-4
585=0x1.c5eed43bf4892p-6
586=0x1.58fddb61c44e5p-3
587=0x1.1990dd0f4e972p-7
588=-0x1.9f36c8ff808fbp-6
589=-0x1.1a416be2a2fd6p-6
590=-0x1.085fc5ed571f8p-6
591=0x1.094e5e48437eap-6
592=-0x1.c168ff164f1c8p-7
593=-0x1.88dd292f347d6p-5
594=0x1.ad4600176e6aap-4
595=0x1.357e4082458ccp-4
596=-0x1.5afb2bb8ccdcp-4
597=-0x1.8c7f2890f9c4ep-7
598=0x1.333a21248aac9p-8
599=0x1.e9d0ed237522cp-5
600=-0x1.2b086e15e9cb9p-6
601=-0x1.84271c9b2565p-9
602=-0x1.bc928e472f9a8p-7
603=0x1.17220a64ffe49p-2
604=-0x1.0f40d72941b88p-7
605=-0x1.a4b4589941104p-5
606=0x1.9425d9ac97138p-8
607=0x1.2377181407ddap-2
608=-0x1.4cd3e9cf7bd0fp-5
609=-0x1.f9b46e45b5087p-4
610=-0x1.4b1d0f378359bp-4
611=-0x1.845b78742aa46p-5
612=0x1.51ecdf2f6d155p-1
613=-0x1.7b2924890e2f8p-3
614=-0x1.354558c8265b6p-4
615=0x1.a2acf91572e9fp-3
616=-0x1.3b9be25e2f734p-5
617=-0x1.b4e88818153bep-4
618=0x1.7a885ce34daa6p-3
620=-0x1.0e1e91e5f5d97p-4
621=0x1.70ebcf5d57408p-9
622=0x1.d96895def31efp-6
623=0x1.57cbf87b4677ep-8
624=-0x1.2079f7323cd5ep-7
625=-0x1.3078f00d38ca9p-5
626=-0x1.314038c752076p-5
627=-0x1.8efffc1cf9e33p-2
628=0x1.73cb1e3e00e3ap-3
629=-0x1.f27e66c0fbee4p-6
630=-0x1.5bf36df86566fp-4
631=0x1.36450df7c2758p-4
632=-0x1.6240d221dfafep-7
635=-0x1.26bf8a62783d6p-9
636=-0x1.5e1e719059ab2p-1
637=0x1.591ffdabfc04ap-1
638=0x1.5360721b1cdc1p-4
639=-0x1.1d50a1f43ae03p-2
640=0x1.4456d54e1043ep-2
641=0x1.bb87782788288p-1
642=-0x1.2cdb990c859e9p-2
643=0x1.60ee815a782c1p-1
644=-0x1.1e4b70571270cp-3
645=-0x1.26a54efc5b227p-2
646=-0x1.fd5a20a27a921p-5
647=-0x1.b390f7979e79fp-3
648=-0x1.40da852b1c77cp-3
649=0x1.20ec16403c198p-3
650=-0x1.52d44f4dd4278p-5
651=0x1.6fd64202e5539p-7
652=-0x1.c93321ae8db44p-3
653=-0x1.f3d58ce8ac8d4p-7
654=-0x1.954677ecf731cp-4
655=0x1.6f3f85ab13d69p-2
656=-0x1.f8c7b7f336bbep-9
657=-0x1.9dcc30608ebc4p-5
658=-0x1.b9b0cdbeb2fcep-6
659=-0x1.a96261d37f5d3p-7
660=-0x1.3879868d6edcfp-4
661=0x1.dd567eb5e6af9p-5
662=-0x1.32b8a92165b73p-6
663=-0x1.da465d1aeb555p-6
664=-0x1.f0f98764c99a5p-3
665=-0x1.0593362a88632p-3
666=-0x1.31e8de3a6c298p-5
667=0x1.29f2e13854c84p-2
668=0x1.1f20ed71ae791p-4
669=-0x1.32931b7cd9ebep-6
670=-0x1.a6cbd002b3df4p-6
671=-0x1.9ec0bddb88402p-6
672=0x1.1e07337cdb76dp-2
673=-0x1.23b61f8e4d754p-4
674=-0x1.7f65cda33e353p-4
675=0x1.2042f2dab57adp-2
676=0x1.34cc5d49b69f8p-7
677=-0x1.39fcc5b293c43p-4
678=-0x1.eb3c09eed20b3p-5
679=-0x1.3d1104145fce4p-8
680=-0x1.3238acc80d81bp-5
681=0x1.112d84e52af1p-7
682=-0x1.dfd58a3577cccp-6
683=-0x1.81472698765e9p-6
684=-0x1.4535e342b1ab3p-6
685=0x1.a9f1449b52861p-6
686=-0x1.1fe977b76e7f6p-8
687=0x1.6be72fe6cf4ep-4
688=-0x1.4bdd594b3d1d5p-4
690=-0x1.6dbf2917dd18bp-6
691=0x1.30437fbe0025dp-6
693=0x1.9562ba47911a8p-4
694=-0x1.07770075a02e1p-7
695=-0x1.49024b1cb3ecbp-3
696=0x1.2aab6bac72dfbp-2
697=-0x1.12922b983eb6fp-1
698=-0x1.5f905825caaap-4
699=-0x1.b35ef804a8ffp-5
700=0x1.091a07dd89b29p-2
701=0x1.4dd0f8cfb142fp-3
702=-0x1.c62b09f6a1a2cp-4
703=-0x1.5c084e27d8c6fp-4
704=-0x1.08ea2edba90fap-3
705=-0x1.7cdc91fa0fff7p-5
706=0x1.046605d20d605p-5
707=-0x1.6432ad09ed15ep-6
711=-0x1.c8bb4f851d04p-5
712=0x1.6a0cc0aefef25p-5
714=0x1.0f278bda93c07p-6
715=-0x1.8ff787c41876p-7
717=-0x1.91017184b6f1p-7
718=0x1.60490e8494326p-9
719=0x1.7d4a3079ca367p-7
720=0x1.55f510979f81ap-5
721=-0x1.d9ba6b6d394d5p-6
722=-0x1.49ab76e22acb2p-9
723=-0x1.e087d0da4755ep-5
724=0x1.0d9aa68622d53p-4
726=0x1.703d6dacf16edp-8
727=0x1.5249d4dd9484ep-8
728=-0x1.85303a807517p-6
729=0x1.6fd7c7273be89p-5
730=-0x1.3c6660126237dp-5
732=0x1.28cac255ac904p-11
734=-0x1.93e3668d7570ap-8
735=0x1.033c559828682p-6
736=0x1.a67b3dbcc6a18p-4
737=-0x1.cda904b645e87p-4
738=0x1.a85e2541c38bp-4
739=-0x1.292f75b362968p-3
740=-0x1.0b71c67aeabbbp-2
741=-0x1.0580e5026bdacp-3
742=0x1.e6081042b85cep-3
743=0x1.aee5c126e43e8p-3
744=0x1.1a2c7b127ab89p-5
745=-0x1.6b62afa6c8796p-5
746=-0x1.9ffed19e6843p-5
747=-0x1.b44757daa3dffp-4
748=0x1.2009f511b7898p-2
749=-0x1.cabce49077e7fp-4
750=-0x1.c38eb54e36a59p-4
751=0x1.d46bcad4b4a8dp-3
752=0x1.5d8e59fe822a1p-2
753=0x1.69cab78836254p-5
754=-0x1.ff9df8b991c75p-8
755=-0x1.0fb7e39990603p-2
756=0x1.a4c67f7bf3792p-4
757=-0x1.3837eca251e6ap-4
758=-0x1.1c15e37f23a9ep-3
759=-0x1.3177dac03243cp-11
760=0x1.0038e4f4e6c0ep-9
762=0x1.068767fe034a6p-7
763=-0x1.1071c42342496p-9
765=-0x1.f869ca4c5d764p-7
766=0x1.c2d85cd10369cp-7
768=0x1.e39af00351673p-5
769=-0x1.5d1c6c421ddbap-5
770=-0x1.1b044e1b8db21p-8
771=-0x1.01f408b690fb7p-6
772=0x1.2787c87221b7ap-5
773=-0x1.98a9db4ad59f6p-7
774=0x1.3e7c9147da2eap-6
775=-0x1.effa6675bb31ap-9
776=-0x1.6092fc02d70abp-5
777=0x1.61c28d9bb05a8p-8
778=-0x1.31be29a138dd9p-2
779=-0x1.86c8f82748732p-3
780=0x1.09f607fea5524p-6
781=0x1.80a91d804861ep-4
782=0x1.a0a2932f1dbcap-3
783=-0x1.4031ff64384e1p-5
784=-0x1.2d817eecd9624p-6
785=-0x1.60e5d6b275d5bp-6
786=-0x1.16567da999925p-2
787=0x1.2bc7dd597c039p-2
788=-0x1.2a416e07f12adp-5
789=-0x1.7138723109e94p-3
790=0x1.6bca0c6610cb9p-4
791=-0x1.2547ecfda5299p-4
792=-0x1.d7cdb45a90fcbp-5
793=0x1.35340ea7f9c3bp-2
794=0x1.eac9cdb43022p-8
795=-0x1.0df6e279d33ep-5
796=-0x1.08afdfe186804p-5
797=-0x1.976747ac7ebb9p-6
798=-0x1.35b245ad3feep-4
799=0x1.16929a8972d36p-3
800=-0x1.274622ec80592p-4
801=-0x1.21596681a822dp-6
802=-0x1.9be65482d024ap-6
803=0x1.5c7c80a09f75bp-7
804=-0x1.ded8d9d062eeep-4
805=0x1.681c5b1da37a3p-3
806=0x1.31147ff41f736p-6
807=0x1.ca06c982fc37fp-6
808=-0x1.601b1474d0ddbp-4
809=-0x1.2e3aec7a5015ep-4
813=0x1.82e74fe9e4fcp-8
814=-0x1.65fc7dda37dd2p-8
819=-0x1.080d301f023dcp-9
820=0x1.9db24dc44e28p-9
822=0x1.b0288219f0a8fp-14
823=-0x1.eb26d1d028fb6p-9
825=0x1.e8165f26ea9cfp-9
827=-0x1.1f97b407f72afp-8
828=0x1.858906b04237fp-4
829=0x1.10a46ab99590fp-5
830=-0x1.9b402512d064dp-4
831=0x1.12239bd67e6fcp-6
832=-0x1.935934cfd0b7p-5
833=0x1.5646e6590a4f5p-4
834=-0x1.ad3b7798c52e9p-5
835=0x1.2f8b2a1aead76p-3
836=-0x1.821b1b7e94411p-3
837=0x1.416908ab4135fp-2
838=-0x1.4c3660e02174bp-3
839=-0x1.1cd5962d43719p-4
840=0x1.314a53c9d1a0cp-4
841=-0x1.96b218dc82426p-5
843=-0x1.5e7a1cacbe51p-6
844=0x1.1822a899f391ap-4
845=-0x1.d9e44d1a24f1dp-6
847=0x1.100696164918fp-5
848=-0x1.0c98102ffc368p-5
849=-0x1.ea2c4b4688b82p-6
850=0x1.ce8b198c6b88ap-5
851=-0x1.d93287a956b72p-8
852=0x1.4a119f9a4ec9fp-6
853=-0x1.c681489c5f3c4p-11
854=-0x1.a44ea9a4e8a5ep-6
855=-0x1.c32330630be16p-5
856=0x1.334c08d410895p-4
857=-0x1.27fff0597682bp-7
858=-0x1.07d96e3159678p-4
859=0x1.63e8b0447788dp-4
860=-0x1.8d369827a9c14p-7
861=-0x1.633aaadecf02bp-5
862=0x1.38f0805c1ec7ep-4
863=-0x1.aca92cdef2d3p-7
864=-0x1.b7b2cce6c286cp-5
865=0x1.212cff4b1c87bp-4
866=-0x1.f6eaf742369c3p-8
867=-0x1.24f727381bc47p-4
868=0x1.8cef07ea4bdfap-4
869=-0x1.4aba12cbee8dcp-5
870=-0x1.c1b6dc0f6573bp-4
871=0x1.0ee2c0d8b1a57p-4
872=-0x1.2967eae78f862p-3
873=0x1.a5c6ee64cf4c8p-7
874=0x1.ae890f72b4bf9p-4
875=0x1.6802d3aec4e9dp-4
876=-0x1.0178f2ff5217cp-5
877=-0x1.a31b9a2f10d89p-7
878=-0x1.62dcdd8fc84f2p-7
879=0x1.7aafea1656f21p-3
880=-0x1.7a08b2d9be125p-3
881=-0x1.1f7f10d0edf9cp-5
882=0x1.138cffe7d05c2p-1
883=-0x1.d43a99ce05e2fp-3
884=0x1.d0671fabc95e6p-4
885=-0x1.b0356d5f5ecf4p-8
886=0x1.db3979157cdeap-6
887=0x1.d15527b824292p-9
888=-0x1.1bb62f23191edp-2
889=-0x1.22744445cb0a5p-5
890=-0x1.db97a42e9d566p-4
891=-0x1.8300905a8b698p-7
892=0x1.427dce17ce2b1p-6
894=-0x1.09c87cd2eabcp-14
895=0x1.6e9417cdc846ap-7
896=-0x1.29faa3e154b56p-8
897=-0x1.1cce87414081p-2
898=0x1.429f6998cf774p-2
899=-0x1.d070a70013a75p-7
900=-0x1.c4f6c294955a7p-6
901=0x1.57851c1fe5c4cp-5
902=-0x1.71b1b16b838eap-8
903=-0x1.4f3a975fb4949p-6
904=0x1.e3a5cd1c2313cp-6
906=0x1.d5a8d0e6152b2p-8
907=-0x1.65b2796d93636p-8
909=-0x1.321a101569286p-6
910=0x1.52eba489fcad1p-5
911=-0x1.043e2435e722p-7
912=-0x1.9465f770dd9d8p-6
913=0x1.40429f2b12ab8p-5
914=-0x1.b76b740fdaac4p-9
915=0x1.2865146637bedp-8
916=-0x1.502f2cb8c342dp-8
921=0x1.fd32ac95139bcp-4
922=-0x1.6c23c661e5094p-5
923=-0x1.7e8e9a3e284eep-4
924=0x1.0136f1b3e02b9p-8
925=-0x1.bbaad30eb218cp-6
926=-0x1.0b2f4acd2426p-3
928=0x1.f1d448fdb2a12p-5
929=0x1.af87a41c1f829p-4
930=0x1.1853182593e1cp-3
931=-0x1.bed9034f5f38p-4
932=-0x1.1182deb6b353cp-4
933=0x1.921227d6623ccp-7
934=0x1.0bca7ff3cebafp-4
935=-0x1.665f593fa52e3p-4
936=-0x1.9158c1ce6bd8bp-6
937=-0x1.82817d6eb05dbp-4
938=-0x1.72f1b6a63a0a1p-4
939=-0x1.130aa5f2176fap-5
940=0x1.00876d93065b7p-3
941=0x1.091cc8a294f38p-5
942=0x1.dad597d1262e5p-7
943=-0x1.66b1460c88f34p-5
944=-0x1.2a34d576ccb36p-5
945=-0x1.b24ab250c2071p-5
946=0x1.ca68eac92bcp-4
947=-0x1.051adc27a9c3ep-5
948=-0x1.e931336b48cc8p-8
949=0x1.bd8f347a58472p-6
950=-0x1.592dbd95dc809p-7
954=0x1.6265116afc27dp-7
955=-0x1.f17b064c68366p-9
957=-0x1.cc065857f781ap-5
958=0x1.995d9b8a87f42p-4
959=-0x1.192ebb09026d5p-6
960=-0x1.75eb4fbc3ef95p-4
961=0x1.9edb1caea1e42p-4
963=-0x1.3b1e0ecf631dap-3
964=0x1.47f8c5a9e1966p-3
966=-0x1.5369e34fc9d6p-2
967=0x1.7098e26908d37p-2
968=-0x1.c7cceb8ec332ap-8
969=-0x1.3cf02060b27aap-2
970=0x1.65d2026e20d78p-2
971=-0x1.04948f4da2348p-6
972=0x1.211685f07fe1ap-8
974=-0x1.49e4ff3d21cap-7
975=-0x1.8ff41b5f2dd09p-10
976=0x1.7516748b62853p-7
977=-0x1.65de9f964fe62p-10
978=-0x1.727ef694e4f54p-7
979=0x1.38393bea7a8dap-5
980=-0x1.2b1ba164c1b6dp-6
981=-0x1.7f8acef003b33p-4
982=0x1.3fa65180c8d4ep-3
983=-0x1.f4d80bfd00d6ep-6
984=-0x1.76e46040dfbd7p-5
985=0x1.ab6c7396555p-5
986=-0x1.439bfc3d43b8fp-7
987=-0x1.8a3a369914d9dp-4
988=0x1.06ee05cba201cp-4
990=-0x1.4847e099a4e3cp-3
991=0x1.1e8245861acfbp-3
992=-0x1.703010adeafa1p-5
993=-0x1.c65ee3d1f7419p-3
994=-0x1.5c96cf1fd429bp-7
995=-0x1.58b765e1f7a79p-2
996=0x1.0c06c700c473cp-7
997=0x1.6d76214b3ead1p-3
998=0x1.6a078bdc110d5p-2
999=-0x1.6b8a8336ba531p-4
1000=-0x1.dd7c36cc17e44p-5
1001=-0x1.13e3ad544d7ep-4
1002=-0x1.139c8f9a5d5fbp-8
1003=0x1.c7044dec7c29dp-6
1004=-0x1.5ecf67d586c5fp-7
1005=-0x1.3efa7b035f222p-6
1006=0x1.5dd74ab772d99p-4
1007=-0x1.da6156f437924p-5
1008=-0x1.ee98486b97af6p-3
1009=0x1.be82702735afp-2
1010=-0x1.5a4efb1bccec1p-3
1011=-0x1.1c44b9f82b04cp-5
1012=0x1.9d8b53acf75p-5
1014=0x1.2b1498701cc66p-6
1015=-0x1.0615357455ef7p-6
1016=-0x1.1a7de6c0899cp-12
1017=-0x1.3254459826768p-7
1018=0x1.57598ed56a686p-6
1019=-0x1.33ace7399c8b8p-6
1020=-0x1.f35fcc40d30d4p-3
1021=0x1.be184f1853ff9p-2
1022=-0x1.5a38f1ff225c7p-3
1023=-0x1.6b4a3434e2a2ep-4
1024=0x1.afbbd2d9f37ddp-8
1025=-0x1.7dbfde853582ep-8
1026=-0x1.b5b95871067cdp-4
1027=0x1.c7048896bd5eep-2
1028=-0x1.2c592a6cf5745p-3
1029=-0x1.cb83a67cc46fep-7
1030=-0x1.d08345cf1de72p-9
1032=-0x1.006e8db2b3a25p-6
1033=0x1.01d7c0c2cc5fp-6
1035=-0x1.fb80be84a26a2p-5
1036=0x1.c5050360377b1p-5
1038=-0x1.20d49abb825a8p-2
1039=0x1.48ccc707d87bbp-2
1040=-0x1.08e618245a699p-6
1041=-0x1.70c92edd743b1p-6
1042=0x1.a9e47345e2b8cp-5
1043=-0x1.d16a3281ba2a9p-8
1045=0x1.b6e3a4aa68581p-6
1046=-0x1.1291a2e5dfb5dp-6
1047=-0x1.cfcbde71935f4p-6
1049=0x1.5c1a17e43edacp-5
1050=-0x1.3b4f26c731063p-4
1051=0x1.0ffa7d0873a8ep-4
1056=-0x1.da6b9f9053b96p-6
1057=0x1.59e335bbb82a1p-5
1059=-0x1.ae181fe5a4c7cp-5
1060=0x1.bbdcdb5abf489p-5
1062=-0x1.fe36a52e18133p-4
1063=0x1.b3b4c75b577f3p-3
1064=-0x1.c8eb3d672a8fcp-5
1065=0x1.ecdd5659e64c7p-5
1066=-0x1.8b2b00411be14p-5
1070=-0x1.638fdfab42df6p-7
1071=0x1.4850fae751be1p-4
1072=-0x1.a88e85bb24abap-7
1073=-0x1.0ba0f98f999bbp-5
1074=0x1.dcaae8a77d93ap-8
1075=-0x1.fab019e54f566p-9
1077=0x1.fe7203dc08289p-10
1078=0x1.092a620581ff2p-8
1080=0x1.3e94e91af832ep-5
1081=-0x1.168304c13366ep-6
1082=-0x1.eff3e916b33dfp-9
1083=-0x1.f5afc4db85048p-6
1084=0x1.a8d55c365ce11p-5
1085=-0x1.3f1f06266ec9cp-7
1086=-0x1.ee52cfde9b325p-6
1087=0x1.578961640831cp-6
1089=-0x1.dca0cef4cd66ep-4
1090=0x1.d734e15f842b5p-4
1091=0x1.2495e2f881a5fp-6
1093=0x1.6516b4037f0a8p-9
1095=0x1.0e9ec480cc9f5p-11
1096=0x1.9dbf6994e3e87p-9
1097=-0x1.cea3840f7898ap-6
1100=0x1.7714ecc19cc02p-8
1101=-0x1.f0ede6aeb8dbdp-6
1102=0x1.1439d51ecbfb6p-4
1103=-0x1.8fae5b4b928a2p-5
1104=-0x1.d8971a90715d1p-9
1105=0x1.f38740a3ed2c5p-7
1106=-0x1.54b8e20a24ba3p-8
1107=0x1.58abfe756603ap-6
1108=-0x1.67ce1343a81c3p-6
1110=-0x1.f13dcd9ec4deap-6
1111=0x1.7f5b159a0f31dp-5
1112=-0x1.410ab7140ab78p-5
1113=0x1.17ceeb5aedabp-7
1114=-0x1.0e64acb94220bp-8
1116=0x1.cd80d35f0e754p-6
1117=-0x1.3bb11a8091786p-7
1118=-0x1.74c7d64b9d125p-7
1119=-0x1.2c9ce8de66169p-4
1120=0x1.a758216068e4ap-4
1121=-0x1.f2cdd549f2bdfp-5
1122=0x1.6b540f1040bc6p-10
1123=-0x1.ccc5fa9cdafe7p-7
1124=0x1.d86f21cae5905p-6
1125=-0x1.3dbbe074db837p-4
1126=0x1.746175b6da21bp-4
1127=-0x1.2600d3261bfb8p-8
1128=0x1.bce4351d1731bp-5
1129=-0x1.09829b527a352p-5
1131=-0x1.25b9f9685f868p-4
1132=0x1.4ad50b65737cbp-4
1133=-0x1.f1041bbf1d4a2p-5
1134=0x1.fb0ad2f7faa01p-7
1135=-0x1.87c382bd1ec9bp-7
1137=-0x1.3d80e2d186576p-8
1138=0x1.cc009a30507f7p-8
1140=0x1.16d2bf7cfd48fp-3
1141=-0x1.eac8e951078bdp-4
1142=-0x1.27e6bef0940a7p-8
1143=-0x1.50c1cc7ff0ff8p-6
1144=0x1.62e969061a5b5p-6
1145=-0x1.21a9ddcc1d3f2p-7
1146=0x1.9d34fbb44d30ap-2
1147=-0x1.0fe11786237bp-2
1148=-0x1.939b0af55aab2p-4
1149=0x1.1acc5b8d25ee8p+0
1150=-0x1.6ba148688eb7fp-1
1151=0x1.53efe6cf8fe22p-1
1152=-0x1.b0448af79d748p-2
1153=0x1.195093a523127p-2
1154=-0x1.d8a31a0db0b3ep-2
1155=-0x1.923cc9b406918p-3
1156=-0x1.4edf8e1e141aep-6
1157=-0x1.881dc2729b3acp-4
1158=0x1.1f52ec5110353p-8
1159=0x1.95f6924c61538p-7
1160=-0x1.3c17a6ed78699p-5
1161=-0x1.17c717bf7f67bp-6
1162=0x1.ad3d9a41b8ff4p-6
1163=-0x1.cdfed89007231p-8
1164=0x1.c69066f842675p-6
1165=-0x1.640a6ec9a45bp-8
1166=-0x1.ca54dc5b2c399p-8
1167=0x1.468850db9fea4p-8
1170=0x1.bf4f745f6b336p-4
1171=-0x1.94ba1134135a2p-4
1173=-0x1.fa3ec335728fep-8
1174=-0x1.935eb8e2dcb6cp-16
1175=0x1.72f397619f34bp-10
1176=0x1.fe6a7a16ad1a3p-8
1177=0x1.1e34dbb522db1p-11
1178=-0x1.9c2e4db465c3fp-9
1180=0x1.e025095b6cdb2p-11
1182=-0x1.d9cb2fd364c1ap-5
1183=0x1.f5ef7d30897dfp-5
1184=0x1.c6967dd3b8cffp-5
1188=0x1.0b9f0b9b6e659p-7
1189=0x1.518e8f758466fp-7
1190=-0x1.41a44b9063df3p-6
1191=-0x1.d15911c6d4c91p-6
1192=0x1.221022da2cbd6p-6
1193=0x1.363fd1164c32dp-8
1194=-0x1.1630929d4a5e9p-4
1195=0x1.4ebc8c7647744p-4
1197=-0x1.0ab13e1585052p-2
1198=0x1.a98591ff967a1p-2
1199=-0x1.026fd75eee115p-3
1200=-0x1.101890bc6519bp-9
1201=0x1.40e1a9b851f46p-6
1202=-0x1.87f5221741cfp-6
1204=0x1.dcceb7802ac49p-10
1206=0x1.90d3f3fc958f7p-10
1207=-0x1.da205111675e9p-6
1208=-0x1.8411101c8ff4bp-7
1209=-0x1.47be8e173c2acp-4
1210=0x1.2d20ac59990eap-5
1212=-0x1.94bb3b70e0d21p-9
1213=0x1.8a72581554f66p-8
1215=0x1.7063d5cefb559p-3
1216=-0x1.1286db43de772p-3
1217=-0x1.c8b5a01d85646p-9
1218=0x1.5368daec904acp-9
1219=0x1.2501165a8fc23p-5
1220=-0x1.65ae92d68f2f7p-5
1221=-0x1.fbfd5f02b57d8p-6
1222=0x1.c69c5e6a67fa7p-6
1223=-0x1.1978179d628cap-7
1224=-0x1.7b88bd17457aep-4
1225=0x1.68a45d521dc14p-4
1226=-0x1.1c2a36f873c21p-6
1227=-0x1.c021ac8f8d23p-3
1228=0x1.1c930a1fba1a4p-3
1230=-0x1.ee43a80eb1d8ap-3
1231=0x1.1f2e1b84b079bp-1
1233=0x1.974d6feb20146p-7
1234=-0x1.ccb94a09c2fbfp-4
1235=0x1.648ba741d9307p-6
1236=-0x1.cdd684a9758b1p-6
1237=-0x1.5ca689c830109p-8
1238=-0x1.fbbc7ec7b60ebp-7
1239=-0x1.81cd0e4ae6124p-2
1240=0x1.9e9196c779362p-2
1241=-0x1.4f8f159a488dp-6
1242=-0x1.bb085f9b502a7p-4
1243=0x1.736db58708f8fp-3
1244=0x1.44ebea3b4ffb7p-2
1245=-0x1.eb7f6d959b952p-4
1246=0x1.ec8c177baf90fp-3
1247=-0x1.1a58b18c98742p-4
1248=-0x1.6e7e05ee2da77p-2
1249=-0x1.c7e5c05054d94p-5
1250=-0x1.d5bde0cd35242p-3
1251=0x1.ac11270cba11ap-5
1252=-0x1.6a29e1460cb1p-5
1254=0x1.3d308546b85e7p-6
1255=-0x1.126ee39df23f5p-7
1256=-0x1.5a41d20cd112ep-8
1257=0x1.830c63265da04p-3
1258=-0x1.27de952c0974ap-3
1260=-0x1.033b903b76587p-5
1261=0x1.1e82e85750435p-6
1263=0x1.66f56842d3c98p-9
1264=0x1.f72d9f4e096dep-8
1265=-0x1.e026282e0b64bp-5
1267=0x1.8c266ca6e07dcp-9
1268=-0x1.3fd1c10247a04p-5
1269=0x1.3069292815fc1p-6
1270=0x1.9440663ef11b3p-8
1271=0x1.0c088c8fad872p-8
1272=-0x1.80c8ab221c1b4p-7
1273=-0x1.5ced5cf5c74b6p-8
1275=0x1.999b0ec06152ap-9
1276=-0x1.ee08c05f711fap-5
1277=0x1.bdffc0e18d67p-5
1278=-0x1.ce761920e80d8p-4
1279=0x1.091306ea39a2cp-3
1280=-0x1.e20bddee89271p-6
1281=-0x1.04459b1bb9aeep-6
1282=0x1.2470da37f44d5p-6
1283=-0x1.a11c9d2953debp-7
1284=-0x1.b80b1967b20e8p-4
1285=0x1.c61fd6037a4bep-5
1286=0x1.311c4c892d22fp-7
1287=-0x1.15ec59346dfbp-5
1288=0x1.1423ec95757e8p-7
1293=-0x1.810e6610ff11dp-6
1294=0x1.468f4fc9a5d87p-5
1295=-0x1.9b3904c02cbe1p-8
1296=-0x1.48a3af20df48cp-8
1297=0x1.0e27ff13d4672p-11
1299=-0x1.375d0fa3d0291p-5
1300=0x1.84c6f69484049p-5
1302=-0x1.d7ab39d409587p-4
1303=0x1.14e4402aaeec5p-4
1304=0x1.80001edca5083p-5
1305=0x1.d2659c02cb187p-5
1306=-0x1.b7a7277dcd1a6p-6
1307=-0x1.1e686c72fad74p-10
1308=-0x1.8fa6670e65bdap-7
1312=0x1.e37e37adeba49p-9
1313=-0x1.077692064b833p-7
1314=0x1.b2e81d58d326ap-12
1315=-0x1.74a7e8764ad07p-8
1316=0x1.b7697a232494p-13
1317=-0x1.9e15cc6ae5515p-6
1318=0x1.58021f0f26e43p-5
1320=0x1.30372a42800d8p-3
1321=-0x1.6b9411d96fd85p-4
1322=-0x1.7076eeb11a039p-10
1323=-0x1.eca228e637e6cp-7
1324=0x1.ee5c9a880be77p-6
1325=-0x1.ce38032c4b57cp-7
1326=-0x1.e86628dc96ab2p-3
1327=0x1.0d2998aa65ccp-2
1328=-0x1.4156cc80ed54ap-4
1329=0x1.219da39c9218ep-3
1330=-0x1.6062d8b03c518p-3
1331=-0x1.d6e1ec1c28257p-8
1332=0x1.a564b50105f33p-5
1333=-0x1.3bd2ce21244bp-5
1335=0x1.6df51c187f57cp-10
1336=0x1.343de924e2021p-7
1337=-0x1.805936d9637a2p-6
1338=-0x1.0a6d4f4018413p-3
1339=0x1.19e70a0f27e21p-3
1340=-0x1.be9b656fe5f8cp-7
1341=-0x1.7c147ef0b57d7p-3
1342=0x1.b8c22de50cd87p-3
1343=0x1.67821b665030ep-10
1344=0x1.4beb3174e9964p-7
1345=0x1.158f79906257ep-6
1346=-0x1.bb148eb8f713dp-6
1347=-0x1.1de787fade2cfp-7
1348=-0x1.b122aba456c31p-7
1349=-0x1.399ca3b0f2312p-7
1350=0x1.4a6fa9dc324a4p-6
1351=0x1.b98e608fe41bp-8
1352=-0x1.e74fe4047882fp-6
1353=-0x1.9da5a6f613ae8p-5
1354=0x1.85089884c5238p-5
1355=-0x1.c250a966015a4p-11
1356=-0x1.48ff07df15142p-4
1357=0x1.ecccaccb0942dp-5
1358=-0x1.69e1cf9cba191p-10
1359=0x1.97fa72a942735p-5
1360=-0x1.7a1659315af5bp-6
1362=-0x1.44c3f7ff6b4dap-7
1363=0x1.3c45613868d3fp-6
1364=-0x1.7859b0b5037dfp-7
1365=-0x1.2e3e70346335ap-5
1366=0x1.c55eaa04c6fabp-6
1367=-0x1.980e4ca5e7b6cp-8
1368=-0x1.75b333e4c2173p-4
1369=0x1.4b8d623848909p-4
1370=-0x1.e42c39dd59a0cp-8
1371=-0x1.3e49d47b10525p-6
1372=0x1.f1df91e61aa3p-7
1374=-0x1.712e4db3b03bep-7
1375=0x1.72ccc2abf2b07p-7
1377=0x1.f3df64f3c031ap-9
1378=-0x1.531138a3e18b3p-6
1379=0x1.8dd6052c1c425p-6
1380=0x1.445db5a5e7546p-6
1381=-0x1.f5b9a3b7b5322p-6
1382=0x1.abf86bac90032p-9
1383=-0x1.669d363942b1ep-11
1384=0x1.178aff624153ap-7
1386=-0x1.41970032296d1p-6
1387=0x1.0c41ef8b629f6p-5
1388=-0x1.41d29e6c4fb11p-8
1389=-0x1.e1924ab8dd7efp-8
1390=0x1.ff6890aed2c45p-9
1395=0x1.9ec3915a12124p-10
1396=-0x1.9378ac264f7e5p-10
1401=0x1.aedb3bdbfea07p-8
1402=-0x1.d223a2b84b154p-7
1403=0x1.56a1a4098c3e5p-7
1405=0x1.f2656bb2d19e8p-10
1407=0x1.67497a0f29103p-4
1408=-0x1.d7cb4569704dap-5
1410=-0x1.15f04a9d97e6bp-5
1411=0x1.45595d33f8bd4p-5
1412=-0x1.e6c7b40ea7f42p-10
1413=0x1.ba13c832b4864p-4
1414=-0x1.104fbb72f1d3fp-3
1415=0x1.78ff878274501p-10
1416=0x1.3815586d4886ap-3
1417=-0x1.6f229c4ff15e6p-4
1418=-0x1.2a36bf388b00bp-5
1419=0x1.6f364fc66329bp-6
1422=-0x1.46b1a4034aa3bp-5
1423=0x1.7bd42b317142p-2
1424=-0x1.ae58bf73fb1f9p-2
1425=0x1.cb426d7a508ffp-4
1426=-0x1.5080ae75319ccp-5
1427=-0x1.74e8a90e7fcf7p-5
1428=0x1.30a7ac62db885p-3
1429=-0x1.c01916d407032p-11
1430=-0x1.3ddaa9f4cdff8p-2
1431=0x1.d655d56940234p-3
1432=-0x1.aa7f2d10f3374p-3
1433=-0x1.1924f7acadecbp-7
1434=0x1.2f2d4f05e6a83p-7
1435=-0x1.55418f40ceac8p-7
1437=0x1.f09bb19e62cc7p+0
1438=-0x1.3248027910579p+0
1439=-0x1.402ff519b277p-1
1440=0x1.502bf60ab9d39p-2
1441=0x1.877aefb587d6fp-5
1442=-0x1.8bc8ca10c19b7p-3
1443=0x1.e2c2aefaebb22p+0
1444=-0x1.457e56bc5affp+0
1445=-0x1.723a9dccf98b5p-2
1446=-0x1.8b83cdc56deap-1
1447=-0x1.9192219858e8ap-7
1449=-0x1.4f2f5698b943ap+0
1450=0x1.44e22f1c2a0b3p+0
1451=-0x1.8163d22082fe4p-5
1452=-0x1.e666da4e47eb6p-8
1454=0x1.e201ede66841ap-9
1455=-0x1.fabae8f49e01fp-7
1456=0x1.c4e830699c1e4p-8
1457=0x1.288a9f904f4a1p-7
1458=-0x1.07b1d2c14b3f3p+0
1459=0x1.f80b13120ef34p-1
1461=0x1.82f46b7110f84p-4
1462=-0x1.711e6b2fdbf7fp-4
1464=0x1.711cefb945091p-5
1465=-0x1.f561615549834p-5
1466=0x1.3872e2ac4fcc8p-7
1467=0x1.d28877065cf18p-3
1468=-0x1.20b1d766a0dadp-3
1469=-0x1.60a89db7f3bf8p-8
1471=0x1.dfad3f03a870ap-9
1473=0x1.b150003b33p-23
1476=-0x1.0e149771464c4p-5
1477=0x1.99cac4abbc143p-6
1479=0x1.fdad3ee9f8533p-8
1480=-0x1.68d3d958fe781p-10
1482=0x1.9c0fda70f0244p-10
1483=-0x1.14f3eb6585e03p-8
1485=-0x1.12d4cdee54512p-10
1486=0x1.915a8ce79d5fap-8
1487=-0x1.d1a2f96020921p-10
1490=-0x1.4031a069af346p-8
1491=-0x1.b5ce400fa60e5p-8
1492=0x1.894ecabb24904p-6
1493=-0x1.3af54172102ffp-5
1494=-0x1.6524dbb4f2296p-4
1495=0x1.aefd22e00732ap-5
1496=0x1.87223f18b9daep-8
1497=0x1.6e3d314c0ca0bp-4
1498=-0x1.9ec63452aac1ap-4
1499=0x1.a7a79dbd7c05ap-6
1500=-0x1.ac3c348db9dd7p-7
1501=0x1.a17d7f7ee3267p-6
1502=-0x1.3007a2c304f06p-6
1503=-0x1.3168bd4f1e1dap-3
1504=0x1.6c62f2213a5cdp-3
1505=-0x1.8a8bf03eba2afp-6
1506=0x1.3f73f711cc29fp-5
1507=-0x1.9a18d2bf6950cp-6
1508=-0x1.19cdfd244d83cp-12
1509=0x1.89c2456ff04d6p-5
1510=-0x1.0b422d17a5ddep-4
1515=-0x1.78b850401ddbap-7
1516=0x1.55863a5adc2e1p-6
1518=-0x1.800a515d0360dp-12
1519=0x1.18b7a0b852c8ep-6
1520=-0x1.f8a94bcba48c7p-8
1521=0x1.cb6d7a65527a1p-7
1522=-0x1.74f40f9cddd9p-8
1530=0x1.ebbb2b3bef5e8p-6
1531=-0x1.a41440f06aba5p-6
1533=-0x1.4792d4cd96b57p-7
1534=0x1.0844e03b71404p-6
1536=-0x1.15fc2091c7e46p-7
1537=0x1.e5e57a05ec801p-7
1539=-0x1.5529b091f4347p-5
1540=0x1.042c80d5a2fa4p-4
1541=-0x1.fffd9ca2e6b64p-8
1543=0x1.877cc6febf51p-9
1545=-0x1.19e6a98311439p-4
1546=0x1.956039f64f6f3p-4
1547=-0x1.1a4308de7c8a9p-7
1548=-0x1.b46ad0c224993p-9
1549=0x1.541ec2bbfdb0ap-7
1551=-0x1.0147287c40baep-3
1552=0x1.42ca537036981p-3
1553=-0x1.5aa0f01d4311fp-7
1554=-0x1.182d32dff8bd8p-1
1555=0x1.7d0af32ae8ef3p-1
1556=-0x1.3243b13422895p-3
1557=-0x1.5cec98b9aca5fp-2
1558=0x1.3b688e02dfda1p-5
1559=-0x1.23fa3b7ed4f05p-4
1560=-0x1.423e2c2f90621p-4
1561=0x1.8253c1c9d0321p-1
1562=-0x1.af0c7b4264a9dp-5
1563=-0x1.506de32995b2fp-5
1564=-0x1.1eba8e88cb6d6p-6
1566=-0x1.69f2638cfdae9p-6
1567=0x1.a1f0bb7acf128p-6
1569=-0x1.2bcf4c9f302e1p-4
1570=0x1.fccb1d0ae422ap-4
1571=-0x1.54484f0cd730dp-6
1575=-0x1.248b6d130c9d3p-4
1576=0x1.b1f79a1f67d89p-4
1577=-0x1.66728264fa708p-9
1581=0x1.1cb6edf41da2ap-4
1582=-0x1.b879ee9eb80e1p-5
1583=-0x1.619545963b3b5p-8
1584=-0x1.1a35267b3d16p-9
1585=0x1.f4fe6413022a8p-8
1587=0x1.2471ded181ba7p-8
1589=-0x1.63c70c5cba3ccp-7
1590=0x1.b82d348135594p-4
1591=-0x1.93925e0ddabaap-4
1596=0x1.45c23730d917p-4
1597=-0x1.402807dc750dep-4
1609=0x1.690bcc0b7b738p-11
1618=0x1.249c86fc48788p-8
1620=0x1.63420739f36fcp-5
1621=-0x1.05299882a9a2fp-5
1624=-0x1.307804732f632p-10
1626=0x1.8c34cb0979fe2p-8
1627=-0x1.b94a01c234b6ap-9
1629=-0x1.a796c66579261p-5
1630=0x1.9bd0552a50421p-5
1635=-0x1.e1642375ef2f1p-10
1636=0x1.55b41744b3f39p-9
1641=-0x1.d565a7187d7f7p-7
1642=0x1.aef928e479665p-7
1644=0x1.8226eabb5cf12p-8
1645=-0x1.3d3de66d19032p-8
1647=0x1.e01cfd0aecabp-10
1648=-0x1.edeef1004638cp-10
1650=-0x1.30985f2291296p-6
1651=0x1.8919e85ef8dfcp-5
1653=-0x1.82579e0058f25p-8
1654=-0x1.bf0c576b240cap-7
1655=0x1.fc84b0e004da8p-6
1656=0x1.078055da78a2p-4
1657=-0x1.3a93720134dedp-5
1659=-0x1.6859926c934bbp-4
1660=0x1.6cb8ab5badbb8p-4
1662=-0x1.e59adf39f1067p-7
1663=0x1.c498520300fd8p-6
1664=-0x1.75cfcc8a1b352p-8
1665=0x1.4460c3c3060e5p-6
1666=-0x1.750f5ef46b51dp-5
1667=0x1.1ba343c4cd695p-6
1668=0x1.fd9bdf78b0c25p-6
1669=-0x1.9138c5ba5334cp-8
1671=-0x1.53bf285b38c12p-5
1672=0x1.74a87874ee5d3p-5
1674=-0x1.173ca4c76619bp-3
1675=0x1.210ad3c460d74p-3
1677=-0x1.ed627e8583f1ep-9
1678=0x1.eb1ac03f7ceb5p-8
1680=-0x1.dddc89860d7e2p-10
1681=0x1.6effec301fc6ep-9
1683=-0x1.51f8e89a6b6ecp-6
1684=0x1.0ac6441587bc1p-5
1685=-0x1.0be743b28ef6bp-8
1686=-0x1.667c05305d7c6p-6
1687=0x1.192ce128cb95bp-5
1689=0x1.f84ba503e578ep-3
1690=-0x1.f12c50d3f1f7dp-8
1691=-0x1.a558c711093dcp-3
1692=-0x1.245ca01ce850dp-3
1693=0x1.6dc8128d9da29p-3
1694=-0x1.aa7e5bd5c62b6p-7
1695=0x1.d137eeca19b2ep-1
1696=-0x1.aec58157d5cfcp-1
1697=-0x1.7efa1948e7b75p-5
1698=-0x1.1538288b0f10dp-3
1699=0x1.2eea534f016f8p-3
1702=-0x1.838ba36263747p-4
1703=0x1.eb19b4693960fp-4
1704=-0x1.943dfc9e70b39p-5
1705=0x1.29ceedc2764d7p-4
1706=-0x1.93b8a1cb96a91p-8
1707=0x1.af17e95d2bdcfp-3
1708=-0x1.b22ddeecc693cp-3
1710=-0x1.3e2ffa04af3f7p-5
1711=0x1.9d7bea86b8f4p-5
1713=0x1.8f5f02f0cb616p-7
1714=-0x1.c24dbbcb2565ep-8
1716=-0x1.7a2a769285d7dp-4
1717=0x1.86e7a37ac99b6p-4
1719=-0x1.e677bd1521935p-6
1720=0x1.77b059fe273cfp-8
1721=0x1.db39f00a1f8f9p-6
1722=0x1.d42b91bbd0f6cp-6
1724=-0x1.cf61f5f6fa57ep-8
1725=-0x1.1bec18394e83ep-5
1726=0x1.281f79537c8c5p-5
1728=-0x1.4f13b7f309272p-11
1729=0x1.3b6976bace89bp-7
1731=-0x1.1db5d5f118208p-6
1732=0x1.ba4c191764c01p-7
1734=0x1.9af4e75a76186p-10
1736=-0x1.182304bb362fcp-8
1737=0x1.22350f625a0fdp-4
1738=-0x1.082e96d3b5b8p-4
1743=-0x1.a7bad55ec841p-5
1744=0x1.fddb5e18c647p-5
1746=-0x1.80215e8fe4dfap-4
1747=0x1.777566abf492ap-4
1749=0x1.3ce0f3e3e113bp-7
1750=-0x1.edae6f075015cp-8
1752=-0x1.f3a1188941f02p-9
1753=0x1.06bf980c61a6dp-6
1754=-0x1.5a18dc23950fep-9
1756=0x1.c541c58a662cap-8
1759=0x1.e278c256538b2p-8
1761=-0x1.d0e7ba9ee03fp-6
1762=0x1.e05e32ce8d288p-6
1764=-0x1.d9a3eda70eab1p-7
1765=0x1.57167cb6bd899p-6
1767=-0x1.dd067ef66721cp-10
1768=0x1.d0a1b6e63a0aap-10
1809=0x1.91a63117f893bp-1
1810=-0x1.8a36c74341388p-1
1811=-0x1.83802b9c0ef2p-13
1812=-0x1.81ff2eeb86b04p-5
1813=0x1.e71e5cc73950fp-5
1816=0x1.53fb7c73632ccp-9
1817=-0x1.d171642ac590dp-11
1818=-0x1.13b4d3ba1ad29p-6
1819=0x1.2d7ffbdab2accp-5
1820=-0x1.1744ebd7a622ep-9
1821=-0x1.8cacf93355f9ap-8
1822=0x1.ba0b7c6c11cdbp-6
1823=-0x1.5d7789147c8cep-9
1824=-0x1.773cbe05de311p-7
1825=0x1.259fbc90685b9p-5
1826=-0x1.c8cfc30b11cb2p-8
1827=0x1.e94060bca3506p-1
1828=-0x1.d1832bde90313p-1
1829=-0x1.b13668c50d69ep-6
1830=0x1.e9442dbee9a4p-1
1831=-0x1.d18640dd89c1ap-1
1832=-0x1.b14d10f103edcp-6
1834=-0x1.0d1573f4a67b6p-7
1836=0x1.f1a111f99da4bp-1
1837=-0x1.c2309103cf468p-1
1838=-0x1.82b1a3e0d7137p-6
1839=-0x1.062eb42165963p-8
1842=0x1.1d150a6030222p-7
1843=-0x1.1ccda87c1955fp-7
1851=-0x1.33c1a14451aaap-4
1852=0x1.6aba6216d0212p-4
1854=-0x1.d2a7f1d6cd1p-5
1855=0x1.36a9be93274b6p-4
1856=-0x1.d710030c08b6ep-9
1857=-0x1.67230d186735bp-6
1858=0x1.43f5078194debp-5
1859=-0x1.01007454c4e4p-13
1860=-0x1.6324c6482e6dep-4
1861=0x1.c4094a6b013e4p-4
1862=-0x1.98e52370fa503p-8
1863=-0x1.367f2097f83e6p-3
1864=0x1.61e27a9c94f8p-3
1865=-0x1.a54ccd348732ep-8
1866=-0x1.40bec73a43158p-8
1867=0x1.b27f49c0085fep-7
1869=-0x1.58cf2a22c3435p-4
1870=0x1.9268b4ef21491p-4
1875=0x1.33868adc2948ap-10
1876=-0x1.536e341fc084cp-10
1884=-0x1.d3afe06940714p-3
1885=0x1.f677bc2e7b5fcp-3
1886=-0x1.22ae5eca6056fp-9
1887=0x1.63dfcfec677e2p-5
1888=-0x1.75dd21571c211p-6
1889=-0x1.2a8f15c4f09d4p-7
1890=-0x1.317b4395f8474p-9
1891=0x1.ff85ebb238062p-7
1892=-0x1.7a667e0d0e15dp-8
1893=0x1.8342ead49f4dcp-4
1894=-0x1.60ca340bfebd3p-4
1897=0x1.90ecbd2da8d2p-6
1898=-0x1.6dd33c4563b8ap-6
1902=-0x1.5b3fac4c4c541p-6
1903=0x1.75a1388ffb6e7p-5
1904=-0x1.a76fa8e7be4d9p-8
1905=-0x1.8a06d5d75e1d4p-6
1906=0x1.68e7d26409be3p-5
1907=-0x1.de13c2f44a104p-8
1909=0x1.bc876a540397ep-6
1910=-0x1.77b80c4caf9bcp-6
1911=-0x1.bfccb50933759p-6
1912=0x1.a681d4131ed73p-6
1915=0x1.60d6c134aee18p-9
1917=-0x1.06128a283c8efp-4
1918=0x1.501356373f2fbp-4
1919=-0x1.ffc6852fce3eap-8
1920=-0x1.ade179d888d6ap-4
1921=0x1.4a1a495a4e8dep-3
1922=-0x1.5152409f44beep-6
1923=-0x1.4ab3dc68af275p-3
1924=0x1.bad29cc371418p-3
1925=-0x1.a6ebb2cd9f512p-6
1926=-0x1.74f2491350a71p-6
1927=0x1.58bed08f4f1e4p-5
1928=-0x1.af8a912ade0c3p-7
1929=-0x1.215aa817e7cbap-6
1930=0x1.1366d82dbf4f9p-5
1931=-0x1.1329f4eca7f93p-7
1932=-0x1.2fa5e9ba15293p-7
1933=0x1.6a6afc2eb6c8dp-6
1934=-0x1.eaf9c38944562p-9
1935=0x1.5a547adaf6d9cp-6
1936=-0x1.2347fc6533f4p-6
1938=0x1.16d545b7bf1fbp-4
1939=-0x1.049a47dd299b6p-4
1944=0x1.539722dad4e4bp-6
1945=-0x1.f982677d6fe1fp-7
1950=-0x1.8ad1092b827a8p-14
1951=0x1.803fbba3b8112p-14
1953=-0x1.1d3bd96ed5a32p-13
1954=0x1.12e868c6ef852p-12
1963=0x1.0118d43539557p-10
1965=0x1.097da63c2b218p-2
1966=-0x1.c9f76150e94f8p-3
1967=-0x1.c8e8c78fdc82cp-7
1968=0x1.991b431066bbbp-4
1969=-0x1.844d918e7555dp-4
1974=0x1.578a53106e78ap-10
1975=-0x1.fd625714e37p-15
1980=0x1.ba887d6f6c935p-10
2001=0x1.90632c0a6360bp-10
2008=0x1.4f2038b655cdbp-9
2010=0x1.8436a4687e499p-8
2011=-0x1.af0fb40946239p-9
2014=0x1.11063b271ae42p-9
2025=-0x1.68d65d3732fa9p-10
2026=0x1.06f2f3f9f5031p-7
2031=-0x1.dab913917cb4ap-10
2032=0x1.13a2e4a860ca3p-8
2034=0x1.cd80316af96f4p-10
2036=-0x1.75dca8ab6a331p-10
2038=0x1.e1faac3ecc6cp-9
2041=0x1.0e6cec0275e2p-15
2043=-0x1.f4e8a08d7fe0ep-9
2044=0x1.22177af415c5ap-7
2050=0x1.f8cf6c75cf25bp-8
2051=-0x1.c95c326bd6382p-11
2052=-0x1.428322070c88ep-4
2053=0x1.7f26c82d87ba5p-4
2054=-0x1.debace674c14p-14
2056=0x1.110867a303b1bp-10
2064=0x1.2a3f66639c0f5p-5
2065=-0x1.1458e694ce6cap-5
2070=0x1.38d97aac9d7b9p-8
2071=-0x1.587e00898c279p-10
2083=0x1.707d06edbbbbcp-10
2089=0x1.f76db9d68d0ep-14
2094=0x1.1a923861b9236p-10
2095=-0x1.f20cf979d97f7p-10
2098=0x1.6fd97689e5f5ep-11
2100=0x1.02288f4a0df6bp-8
2101=-0x1.33c40e8f68a41p-8
2106=0x1.af41eea3cb98dp-7
2107=-0x1.940fd5100554dp-7
2112=-0x1.e331319db55bdp-8
2113=0x1.eaee3eb1c547bp-8
2115=-0x1.2c4a0f29da594p-7
2116=0x1.56e988b5ffb5dp-7
2125=0x1.11dc6f2f281b2p-11
2127=0x1.121d5b00820efp-8
2128=-0x1.221adcf308bbap-9
2133=-0x1.da40fd61bc697p-6
2134=0x1.0dbaba4f4a23p-5
2161=0x1.cf602c3da0ac6p-12
2166=0x1.084eecda054ebp-4
2167=-0x1.4bb58a4efdc98p-5
2168=-0x1.6d534f9dc714ep-6
2169=0x1.ecc0db95ea82ap-3
2170=-0x1.c6f833c6291b6p-3
2171=-0x1.beda02668daa4p-8
2175=0x1.6147ab86124ddp-5
2176=-0x1.12ded49ef3e85p-5
2177=-0x1.063e834e7397ap-11
2178=-0x1.5a9128398855p-6
2179=0x1.cfcda779fdd8ep-6
2181=-0x1.f4be4629b555ap-8
2182=0x1.625fb7a45d38ep-6
2183=-0x1.7ff733c8e106bp-9
2184=-0x1.1034a220d1acep-8
2185=0x1.a50983db2dc78p-9
2256=-0x1.f262e94add9e2p-9
2257=0x1.700092df7ac0dp-8
2260=0x1.d6c449aa62bb8p-8
2262=-0x1.8b542000285fep-6
2263=0x1.24468c0c84f61p-5
2265=-0x1.249714cdb5db2p-10
2266=0x1.2544609371072p-10
2280=-0x1.61e5fac0e60a8p-10
2281=0x1.1bd307864d1fep-8
2283=-0x1.576fda089c17ap-6
2284=0x1.e774ba4ced8cbp-6
2286=-0x1.b572141f6ac9fp-6
2287=0x1.f484e20bc1p-6
2289=-0x1.00331a89e6801p-8
2290=0x1.c3ac655af9becp-8
2295=-0x1.7bbb8beb0cf6p-7
2296=0x1.a2cc8ea273d96p-7
2298=-0x1.5af5886f3554dp-11
2299=0x1.40bbab1977f2fp-8
2301=-0x1.f52f9a1727bcfp-6
2302=0x1.29b4483110b0bp-5
2304=-0x1.02948214399bap-11
2310=0x1.261d794542d4dp-7
2311=-0x1.12b76dd1c5065p-7
2346=0x1.05ca2b0319902p-3
2347=-0x1.69c863781734dp-4
2348=-0x1.584ea7c6f956p-6
2349=0x1.d8a2985a8f4e7p-3
2350=-0x1.9c75b9783b819p-3
2351=-0x1.91ab8b0f3112p-7
2352=0x1.49e5fbde1c6bep-2
2353=-0x1.04d82de8c39ddp-2
2354=-0x1.1c7358f034bcap-5
2355=0x1.934909144de5p-1
2356=-0x1.4ca451f969e4ap-1
2357=-0x1.95c7a263eaf6dp-4
2358=0x1.577adf9632a07p+0
2359=-0x1.554c550eefc24p+0
2361=-0x1.d354b24005342p-9
2362=0x1.8196debfa8833p-9
2364=0x1.504c5acf3fe99p-3
2365=-0x1.499363b5af03fp-3
2394=-0x1.ee7fd8d2cc97ap-13
2395=0x1.6b011085f664ep-8
2397=0x1.cebd9c6271a81p-4
2398=-0x1.af017b3fbb829p-4
2418=-0x1.4a2f29d8e4ffep-6
2419=0x1.06203425437ebp-5
2421=0x1.6744ec078483p-3
2422=-0x1.671b76fbe14b7p-3
2433=-0x1.eb3ca5029ba7ep-9
2434=0x1.1612b7b300b4p-8
2442=0x1.1f1c299328fe6p-10
2443=-0x1.005d9a7f65458p-10
2463=-0x1.ef471b1d76d2bp-7
2464=0x1.cba3184022b92p-7
2473=0x1.66e42ab5a1011p-10
2475=-0x1.5e9e2420df00ep-5
2476=0x1.944e49abc07fap-5
2478=-0x1.ca70333b57a98p-11
2479=0x1.0d106f91c611ap-7
2481=-0x1.eb4443a14c85ep-7
2482=0x1.dda500a681721p-6
2484=-0x1.d5245a73e24e7p-6
2485=0x1.43f74544f86cbp-5
2487=-0x1.bdbd5302c7f66p-12
2488=0x1.74dbcf1f1c58ep-8
2490=-0x1.01320c2ff3a05p-6
2491=0x1.1dc07503b6687p-6
2505=0x1.53493fa0ec5bfp-9
2506=-0x1.4d80452349453p-9
2523=-0x1.2252e93d494bcp-6
2524=0x1.61b222d91422ep-6
2526=-0x1.b4d3aa6aae8d8p-10
2527=0x1.611de79f51386p-8
2565=0x1.3f008785fc72cp-3
2566=-0x1.168e617708196p-3
2567=-0x1.e9d6630e0565cp-9
2568=0x1.0c00d83dfbb4ep-6
2569=-0x1.fbd537be84f03p-7
2640=-0x1.831431255666cp-12
2641=0x1.5b664e5bf3b3ep-9
2646=-0x1.68e372521eb21p-7
2647=0x1.a0a496262ea62p-6
2649=-0x1.8b51e1164d5c8p-4
2650=0x1.b673241607e7p-4
2652=-0x1.0c26ed222bf6p-14
2653=0x1.bbf13ecc46264p-8
2655=-0x1.57711e92aaa45p-9
2656=0x1.008af0a3e1064p-7
2658=0x1.90bb0b5136cdep-4
2659=-0x1.7107e1d4b9395p-4
2664=0x1.2a5f6495639e4p-8
2665=-0x1.1cbb18df3fbbbp-8
