#mdl#2#2376
#rdr#18/10/0
1:b,
21:u:code-1LLL =%X[-3,0],
21:u:code-1LL  =%X[-2,0],
21:u:code-1L   =%X[-1,0],
20:u:code-1X   =%X[0,0],
20:u:code-1R   =%X[1,0],
20:u:code-1RR  =%X[2,0],
20:u:code-1RRR =%X[3,0],
13:*100:%x[ 0,1],
13:*100:%x[ 0,2],
13:*100:%x[ 0,3],
13:*100:%x[ 0,4],
13:*100:%x[ 0,5],
13:*100:%x[ 0,6],
13:*100:%x[ 0,7],
13:*100:%x[ 0,8],
13:*100:%x[ 0,9],
14:*100:%x[ 0,10],
#qrk#3
1:T,
1:I,
1:O,
#qrk#757
1:b,
17:u:code-1LLL =_x-3,
17:u:code-1LL  =_x-2,
17:u:code-1L   =_x-1,
16:u:code-1X   =115,
16:u:code-1R   =105,
16:u:code-1RR  =116,
16:u:code-1RRR =228,
7:*100:Ll,
9:*100:20:T,
9:*100:23:T,
8:*100:9:T,
8:*100:8:T,
8:*100:3:T,
9:*100:11:T,
8:*100:2:T,
9:*100:24:T,
9:*100:26:T,
17:u:code-1LLL =_x-2,
17:u:code-1LL  =_x-1,
16:u:code-1L   =115,
16:u:code-1X   =105,
16:u:code-1R   =116,
16:u:code-1RR  =228,
15:u:code-1RRR =32,
9:*100:27:T,
9:*100:25:F,
9:*100:11:F,
8:*100:3:F,
8:*100:5:F,
9:*100:22:F,
9:*100:24:F,
8:*100:7:F,
9:*100:21:F,
17:u:code-1LLL =_x-1,
16:u:code-1LL  =115,
16:u:code-1L   =105,
16:u:code-1X   =116,
16:u:code-1R   =228,
15:u:code-1RR  =32,
16:u:code-1RRR =111,
8:*100:4:T,
8:*100:1:F,
9:*100:14:F,
9:*100:17:F,
9:*100:28:F,
16:u:code-1LLL =115,
16:u:code-1LL  =105,
16:u:code-1L   =116,
16:u:code-1X   =228,
15:u:code-1R   =32,
16:u:code-1RR  =111,
16:u:code-1RRR =108,
9:*100:16:T,
8:*100:7:T,
8:*100:5:T,
9:*100:13:T,
9:*100:19:F,
8:*100:8:F,
8:*100:0:F,
16:u:code-1LLL =105,
16:u:code-1LL  =116,
16:u:code-1L   =228,
15:u:code-1X   =32,
16:u:code-1R   =111,
16:u:code-1RR  =108,
16:u:code-1RRR =116,
7:*100:Zs,
8:*100:2:F,
9:*100:23:F,
16:u:code-1LLL =116,
16:u:code-1LL  =228,
15:u:code-1L   =32,
16:u:code-1X   =111,
16:u:code-1R   =108,
16:u:code-1RRR =105,
8:*100:6:T,
9:*100:13:F,
16:u:code-1LLL =228,
15:u:code-1LL  =32,
16:u:code-1L   =111,
16:u:code-1X   =108,
16:u:code-1RR  =105,
9:*100:25:T,
9:*100:20:F,
9:*100:12:F,
9:*100:16:F,
15:u:code-1LLL =32,
16:u:code-1LL  =111,
16:u:code-1L   =108,
16:u:code-1RRR =110,
9:*100:19:T,
9:*100:17:T,
9:*100:14:T,
9:*100:29:F,
16:u:code-1LLL =111,
16:u:code-1LL  =108,
16:u:code-1RR  =110,
9:*100:12:T,
16:u:code-1LLL =108,
16:u:code-1R   =110,
9:*100:27:F,
9:*100:18:F,
16:u:code-1X   =110,
8:*100:6:F,
16:u:code-1L   =110,
9:*100:21:T,
16:u:code-1LL  =110,
16:u:code-1LLL =110,
9:*100:26:F,
9:*100:10:F,
16:u:code-1RRR =100,
9:*100:22:T,
9:*100:18:T,
16:u:code-1RR  =100,
15:u:code-1RRR =97,
8:*100:1:T,
16:u:code-1R   =100,
15:u:code-1RR  =97,
16:u:code-1X   =100,
15:u:code-1R   =97,
16:u:code-1L   =100,
15:u:code-1X   =97,
16:u:code-1RRR =101,
8:*100:9:F,
16:u:code-1LL  =100,
15:u:code-1L   =97,
16:u:code-1RR  =101,
9:*100:10:T,
9:*100:15:F,
16:u:code-1LLL =100,
15:u:code-1LL  =97,
16:u:code-1R   =101,
15:u:code-1LLL =97,
16:u:code-1X   =101,
16:u:code-1L   =101,
16:u:code-1RRR =106,
16:u:code-1LL  =101,
16:u:code-1RR  =106,
8:*100:4:F,
16:u:code-1LLL =101,
16:u:code-1R   =106,
9:*100:29:T,
16:u:code-1X   =106,
16:u:code-1L   =106,
9:*100:15:T,
9:*100:28:T,
16:u:code-1LL  =106,
16:u:code-1LLL =106,
16:u:code-1RRR =117,
16:u:code-1RR  =117,
16:u:code-1R   =117,
16:u:code-1X   =117,
16:u:code-1L   =117,
16:u:code-1LL  =117,
16:u:code-1LLL =117,
16:u:code-1RRR =107,
16:u:code-1RR  =107,
16:u:code-1RRR =121,
16:u:code-1R   =107,
16:u:code-1RR  =121,
16:u:code-1X   =107,
16:u:code-1R   =121,
16:u:code-1L   =107,
16:u:code-1X   =121,
16:u:code-1LL  =107,
16:u:code-1L   =121,
16:u:code-1LLL =107,
16:u:code-1LL  =121,
16:u:code-1RRR =115,
16:u:code-1LLL =121,
16:u:code-1RR  =115,
16:u:code-1R   =115,
16:u:code-1RRR =104,
16:u:code-1RR  =104,
16:u:code-1R   =104,
8:*100:0:T,
16:u:code-1X   =104,
16:u:code-1L   =104,
16:u:code-1RRR =109,
16:u:code-1LL  =104,
16:u:code-1RR  =109,
16:u:code-1LLL =104,
16:u:code-1R   =109,
16:u:code-1X   =109,
16:u:code-1L   =109,
16:u:code-1LL  =109,
16:u:code-1LLL =109,
16:u:code-1RRR =112,
16:u:code-1RR  =112,
16:u:code-1R   =112,
16:u:code-1X   =112,
16:u:code-1L   =112,
16:u:code-1LL  =112,
16:u:code-1LLL =112,
16:u:code-1RRR =118,
16:u:code-1RR  =118,
16:u:code-1R   =118,
16:u:code-1X   =118,
16:u:code-1L   =118,
16:u:code-1LL  =118,
16:u:code-1LLL =118,
16:u:code-1RRR =114,
16:u:code-1RR  =114,
16:u:code-1R   =114,
16:u:code-1X   =114,
16:u:code-1L   =114,
16:u:code-1LL  =114,
16:u:code-1LLL =114,
15:u:code-1RRR =44,
15:u:code-1RR  =44,
15:u:code-1R   =44,
15:u:code-1X   =44,
7:*100:Po,
15:u:code-1L   =44,
15:u:code-1LL  =44,
15:u:code-1LLL =44,
15:u:code-1RRR =84,
15:u:code-1RR  =84,
15:u:code-1R   =84,
15:u:code-1X   =84,
7:*100:Lu,
15:u:code-1L   =84,
15:u:code-1LL  =84,
15:u:code-1LLL =84,
15:u:code-1RRR =46,
15:u:code-1RR  =46,
15:u:code-1R   =46,
15:u:code-1X   =46,
15:u:code-1L   =46,
15:u:code-1LL  =46,
15:u:code-1LLL =46,
15:u:code-1RRR =80,
15:u:code-1RR  =80,
15:u:code-1R   =80,
15:u:code-1X   =80,
15:u:code-1L   =80,
15:u:code-1LL  =80,
15:u:code-1LLL =80,
16:u:code-1RRR =246,
16:u:code-1RR  =246,
16:u:code-1R   =246,
16:u:code-1X   =246,
16:u:code-1L   =246,
15:u:code-1RRR =65,
16:u:code-1LL  =246,
15:u:code-1RR  =65,
16:u:code-1LLL =246,
15:u:code-1R   =65,
15:u:code-1X   =65,
15:u:code-1L   =65,
15:u:code-1LL  =65,
15:u:code-1LLL =65,
16:u:code-1RRR =180,
16:u:code-1RR  =180,
16:u:code-1R   =180,
16:u:code-1X   =180,
7:*100:Sk,
16:u:code-1L   =180,
16:u:code-1LL  =180,
16:u:code-1LLL =180,
15:u:code-1RRR =69,
15:u:code-1RR  =69,
15:u:code-1R   =69,
15:u:code-1X   =69,
15:u:code-1L   =69,
15:u:code-1LL  =69,
15:u:code-1LLL =69,
15:u:code-1RRR =72,
15:u:code-1RR  =72,
15:u:code-1R   =72,
15:u:code-1X   =72,
15:u:code-1L   =72,
15:u:code-1LL  =72,
15:u:code-1LLL =72,
15:u:code-1RRR =76,
15:u:code-1RR  =76,
15:u:code-1R   =76,
15:u:code-1X   =76,
15:u:code-1L   =76,
15:u:code-1LL  =76,
15:u:code-1LLL =76,
16:u:code-1RRR =103,
16:u:code-1RR  =103,
16:u:code-1R   =103,
16:u:code-1X   =103,
16:u:code-1L   =103,
16:u:code-1LL  =103,
16:u:code-1LLL =103,
15:u:code-1RRR =79,
15:u:code-1RR  =79,
15:u:code-1R   =79,
15:u:code-1X   =79,
15:u:code-1L   =79,
15:u:code-1LL  =79,
15:u:code-1LLL =79,
15:u:code-1RRR =33,
15:u:code-1RR  =33,
15:u:code-1R   =33,
15:u:code-1X   =33,
15:u:code-1L   =33,
15:u:code-1LL  =33,
15:u:code-1LLL =33,
15:u:code-1RRR =50,
15:u:code-1RR  =50,
15:u:code-1RRR =53,
15:u:code-1R   =50,
15:u:code-1RR  =53,
15:u:code-1RRR =48,
15:u:code-1X   =50,
15:u:code-1R   =53,
15:u:code-1RR  =48,
7:*100:Nd,
15:u:code-1L   =50,
15:u:code-1X   =53,
15:u:code-1R   =48,
15:u:code-1LL  =50,
15:u:code-1L   =53,
15:u:code-1X   =48,
15:u:code-1LLL =50,
15:u:code-1LL  =53,
15:u:code-1L   =48,
15:u:code-1LLL =53,
15:u:code-1LL  =48,
15:u:code-1LLL =48,
15:u:code-1RRR =85,
15:u:code-1RR  =85,
15:u:code-1R   =85,
15:u:code-1X   =85,
15:u:code-1L   =85,
15:u:code-1LL  =85,
15:u:code-1LLL =85,
15:u:code-1RRR =77,
15:u:code-1RR  =77,
15:u:code-1R   =77,
15:u:code-1X   =77,
15:u:code-1L   =77,
15:u:code-1LL  =77,
15:u:code-1LLL =77,
16:u:code-1RRR =102,
16:u:code-1RR  =102,
16:u:code-1R   =102,
16:u:code-1X   =102,
16:u:code-1L   =102,
16:u:code-1LL  =102,
16:u:code-1LLL =102,
15:u:code-1RRR =78,
15:u:code-1RR  =78,
15:u:code-1R   =78,
15:u:code-1X   =78,
15:u:code-1L   =78,
15:u:code-1LL  =78,
15:u:code-1LLL =78,
15:u:code-1RRR =86,
15:u:code-1RR  =86,
15:u:code-1R   =86,
15:u:code-1X   =86,
15:u:code-1L   =86,
15:u:code-1LL  =86,
15:u:code-1LLL =86,
15:u:code-1RRR =63,
15:u:code-1RR  =63,
15:u:code-1R   =63,
15:u:code-1X   =63,
15:u:code-1L   =63,
15:u:code-1LL  =63,
15:u:code-1LLL =63,
15:u:code-1RRR =83,
15:u:code-1RR  =83,
15:u:code-1R   =83,
15:u:code-1X   =83,
15:u:code-1L   =83,
15:u:code-1LL  =83,
15:u:code-1LLL =83,
15:u:code-1RRR =75,
15:u:code-1RR  =75,
15:u:code-1R   =75,
15:u:code-1X   =75,
15:u:code-1L   =75,
15:u:code-1LL  =75,
15:u:code-1LLL =75,
15:u:code-1RRR =82,
15:u:code-1RR  =82,
15:u:code-1R   =82,
15:u:code-1X   =82,
15:u:code-1L   =82,
15:u:code-1LL  =82,
15:u:code-1LLL =82,
15:u:code-1RRR =89,
15:u:code-1RR  =89,
15:u:code-1R   =89,
15:u:code-1X   =89,
15:u:code-1L   =89,
15:u:code-1LL  =89,
15:u:code-1LLL =89,
15:u:code-1RRR =73,
15:u:code-1RR  =73,
15:u:code-1R   =73,
15:u:code-1X   =73,
15:u:code-1L   =73,
15:u:code-1LL  =73,
15:u:code-1LLL =73,
15:u:code-1RRR =51,
15:u:code-1RR  =51,
15:u:code-1RRR =57,
15:u:code-1R   =51,
15:u:code-1RR  =57,
15:u:code-1X   =51,
15:u:code-1R   =57,
15:u:code-1L   =51,
15:u:code-1X   =57,
15:u:code-1LL  =51,
15:u:code-1L   =57,
15:u:code-1LLL =51,
15:u:code-1LL  =57,
15:u:code-1LLL =57,
15:u:code-1RRR =45,
15:u:code-1RR  =45,
15:u:code-1R   =45,
15:u:code-1X   =45,
7:*100:Pd,
15:u:code-1L   =45,
15:u:code-1LL  =45,
15:u:code-1LLL =45,
16:u:code-1RRR =122,
16:u:code-1RR  =122,
16:u:code-1R   =122,
16:u:code-1RRR =119,
16:u:code-1X   =122,
16:u:code-1RR  =119,
16:u:code-1L   =122,
16:u:code-1R   =119,
16:u:code-1LL  =122,
16:u:code-1X   =119,
16:u:code-1LLL =122,
16:u:code-1L   =119,
16:u:code-1LL  =119,
16:u:code-1LLL =119,
15:u:code-1RRR =99,
15:u:code-1RR  =99,
15:u:code-1R   =99,
15:u:code-1X   =99,
15:u:code-1L   =99,
15:u:code-1LL  =99,
15:u:code-1LLL =99,
16:u:code-1RRR =196,
16:u:code-1RR  =196,
16:u:code-1R   =196,
16:u:code-1X   =196,
16:u:code-1L   =196,
16:u:code-1LL  =196,
16:u:code-1LLL =196,
15:u:code-1RRR =74,
15:u:code-1RR  =74,
15:u:code-1R   =74,
15:u:code-1X   =74,
15:u:code-1L   =74,
15:u:code-1LL  =74,
15:u:code-1LLL =74,
15:u:code-1RRR =52,
15:u:code-1RR  =52,
15:u:code-1R   =52,
15:u:code-1X   =52,
15:u:code-1L   =52,
15:u:code-1LL  =52,
15:u:code-1LLL =52,
15:u:code-1RRR =58,
15:u:code-1RR  =58,
15:u:code-1R   =58,
15:u:code-1X   =58,
15:u:code-1L   =58,
15:u:code-1LL  =58,
15:u:code-1LLL =58,
15:u:code-1RRR =98,
15:u:code-1RR  =98,
15:u:code-1R   =98,
15:u:code-1X   =98,
15:u:code-1L   =98,
15:u:code-1LL  =98,
15:u:code-1LLL =98,
15:u:code-1RRR =34,
15:u:code-1RR  =34,
15:u:code-1R   =34,
15:u:code-1X   =34,
15:u:code-1L   =34,
15:u:code-1LL  =34,
15:u:code-1LLL =34,
15:u:code-1RRR =67,
15:u:code-1RR  =67,
15:u:code-1R   =67,
15:u:code-1X   =67,
15:u:code-1L   =67,
15:u:code-1LL  =67,
15:u:code-1LLL =67,
15:u:code-1RRR =66,
15:u:code-1RR  =66,
15:u:code-1R   =66,
15:u:code-1X   =66,
15:u:code-1L   =66,
15:u:code-1LL  =66,
15:u:code-1LLL =66,
15:u:code-1RRR =81,
15:u:code-1RR  =81,
15:u:code-1R   =81,
15:u:code-1X   =81,
15:u:code-1L   =81,
15:u:code-1LL  =81,
15:u:code-1LLL =81,
15:u:code-1RRR =49,
15:u:code-1RR  =49,
15:u:code-1R   =49,
15:u:code-1X   =49,
15:u:code-1RRR =56,
15:u:code-1L   =49,
15:u:code-1RR  =56,
15:u:code-1LL  =49,
15:u:code-1R   =56,
15:u:code-1LLL =49,
15:u:code-1X   =56,
15:u:code-1L   =56,
15:u:code-1LL  =56,
15:u:code-1LLL =56,
15:u:code-1RRR =68,
15:u:code-1RR  =68,
15:u:code-1R   =68,
15:u:code-1X   =68,
15:u:code-1L   =68,
15:u:code-1LL  =68,
15:u:code-1LLL =68,
16:u:code-1RRR =120,
16:u:code-1RR  =120,
16:u:code-1R   =120,
16:u:code-1X   =120,
16:u:code-1L   =120,
16:u:code-1LL  =120,
16:u:code-1LLL =120,
15:u:code-1RRR =71,
15:u:code-1RR  =71,
15:u:code-1R   =71,
15:u:code-1X   =71,
15:u:code-1L   =71,
15:u:code-1LL  =71,
15:u:code-1LLL =71,
15:u:code-1RRR =87,
15:u:code-1RR  =87,
15:u:code-1R   =87,
15:u:code-1X   =87,
15:u:code-1L   =87,
15:u:code-1LL  =87,
15:u:code-1LLL =87,
16:u:code-1RRR =225,
16:u:code-1RR  =225,
16:u:code-1R   =225,
16:u:code-1X   =225,
16:u:code-1L   =225,
16:u:code-1LL  =225,
16:u:code-1LLL =225,
16:u:code-1RRR =252,
16:u:code-1RR  =252,
16:u:code-1R   =252,
16:u:code-1X   =252,
16:u:code-1L   =252,
16:u:code-1LL  =252,
16:u:code-1LLL =252,
15:u:code-1RRR =54,
15:u:code-1RR  =54,
15:u:code-1R   =54,
15:u:code-1X   =54,
15:u:code-1L   =54,
15:u:code-1LL  =54,
15:u:code-1LLL =54,
15:u:code-1RRR =95,
15:u:code-1RR  =95,
15:u:code-1R   =95,
15:u:code-1X   =95,
7:*100:Pc,
15:u:code-1L   =95,
15:u:code-1LL  =95,
15:u:code-1LLL =95,
15:u:code-1RRR =55,
15:u:code-1RR  =55,
15:u:code-1R   =55,
15:u:code-1X   =55,
15:u:code-1L   =55,
15:u:code-1LL  =55,
15:u:code-1LLL =55,
15:u:code-1RRR =70,
15:u:code-1RR  =70,
15:u:code-1R   =70,
15:u:code-1X   =70,
15:u:code-1L   =70,
15:u:code-1LL  =70,
15:u:code-1LLL =70,
15:u:code-1RRR =88,
15:u:code-1RR  =88,
15:u:code-1R   =88,
15:u:code-1X   =88,
15:u:code-1L   =88,
15:u:code-1LL  =88,
15:u:code-1LLL =88,
15:u:code-1RRR =40,
15:u:code-1RR  =40,
15:u:code-1R   =40,
15:u:code-1X   =40,
7:*100:Ps,
15:u:code-1L   =40,
15:u:code-1LL  =40,
15:u:code-1LLL =40,
15:u:code-1RRR =41,
15:u:code-1RR  =41,
15:u:code-1R   =41,
15:u:code-1X   =41,
7:*100:Pe,
15:u:code-1L   =41,
15:u:code-1LL  =41,
15:u:code-1LLL =41,
15:u:code-1RRR =39,
15:u:code-1RR  =39,
15:u:code-1R   =39,
15:u:code-1X   =39,
15:u:code-1L   =39,
15:u:code-1LL  =39,
15:u:code-1LLL =39,
15:u:code-1RRR =59,
15:u:code-1RR  =59,
15:u:code-1R   =59,
15:u:code-1X   =59,
15:u:code-1L   =59,
15:u:code-1LL  =59,
15:u:code-1LLL =59,
15:u:code-1RRR =47,
15:u:code-1RR  =47,
15:u:code-1R   =47,
15:u:code-1X   =47,
15:u:code-1L   =47,
15:u:code-1LL  =47,
15:u:code-1LLL =47,
15:u:code-1RRR =38,
15:u:code-1RR  =38,
15:u:code-1R   =38,
15:u:code-1X   =38,
15:u:code-1L   =38,
15:u:code-1LL  =38,
15:u:code-1LLL =38,
16:u:code-1RRR =197,
16:u:code-1RR  =197,
16:u:code-1R   =197,
16:u:code-1X   =197,
16:u:code-1L   =197,
16:u:code-1LL  =197,
16:u:code-1LLL =197,
15:u:code-1RRR =90,
15:u:code-1RR  =90,
15:u:code-1R   =90,
15:u:code-1X   =90,
15:u:code-1L   =90,
15:u:code-1LL  =90,
15:u:code-1LLL =90,
16:u:code-1RRR =215,
16:u:code-1RR  =215,
16:u:code-1R   =215,
16:u:code-1X   =215,
7:*100:Sm,
16:u:code-1L   =215,
16:u:code-1LL  =215,
16:u:code-1LLL =215,
16:u:code-1RRR =113,
16:u:code-1RR  =113,
16:u:code-1R   =113,
16:u:code-1X   =113,
16:u:code-1L   =113,
16:u:code-1LL  =113,
16:u:code-1LLL =113,
15:u:code-1RRR =64,
15:u:code-1RR  =64,
15:u:code-1R   =64,
15:u:code-1X   =64,
15:u:code-1L   =64,
15:u:code-1LL  =64,
15:u:code-1LLL =64,
16:u:code-1RRR =233,
16:u:code-1RR  =233,
16:u:code-1R   =233,
16:u:code-1X   =233,
16:u:code-1L   =233,
16:u:code-1LL  =233,
16:u:code-1LLL =233,
15:u:code-1RRR =42,
15:u:code-1RR  =42,
15:u:code-1R   =42,
15:u:code-1X   =42,
15:u:code-1L   =42,
15:u:code-1LL  =42,
15:u:code-1LLL =42,
16:u:code-1RRR =243,
16:u:code-1RR  =243,
16:u:code-1R   =243,
16:u:code-1X   =243,
16:u:code-1L   =243,
16:u:code-1LL  =243,
16:u:code-1LLL =243,
16:u:code-1RRR =245,
16:u:code-1RR  =245,
16:u:code-1R   =245,
16:u:code-1X   =245,
16:u:code-1L   =245,
16:u:code-1LL  =245,
16:u:code-1LLL =245,
15:u:code-1RRR =37,
15:u:code-1RR  =37,
15:u:code-1R   =37,
15:u:code-1X   =37,
15:u:code-1L   =37,
15:u:code-1LL  =37,
15:u:code-1LLL =37,
15:u:code-1RRR =43,
15:u:code-1RR  =43,
15:u:code-1R   =43,
15:u:code-1X   =43,
15:u:code-1L   =43,
15:u:code-1LL  =43,
15:u:code-1LLL =43,
16:u:code-1RRR =229,
16:u:code-1RR  =229,
16:u:code-1R   =229,
16:u:code-1X   =229,
16:u:code-1L   =229,
16:u:code-1LL  =229,
16:u:code-1LLL =229,
16:u:code-1RRR =251,
16:u:code-1RR  =251,
16:u:code-1R   =251,
16:u:code-1X   =251,
16:u:code-1L   =251,
16:u:code-1LL  =251,
16:u:code-1LLL =251,
16:u:code-1RRR =167,
16:u:code-1RR  =167,
16:u:code-1R   =167,
16:u:code-1X   =167,
7:*100:So,
16:u:code-1L   =167,
16:u:code-1LL  =167,
16:u:code-1LLL =167,
16:u:code-1RRR =214,
16:u:code-1RR  =214,
16:u:code-1R   =214,
16:u:code-1X   =214,
16:u:code-1L   =214,
16:u:code-1LL  =214,
16:u:code-1LLL =214,
17:u:code-1RRR =_x+1,
17:u:code-1RR  =_x+1,
17:u:code-1RRR =_x+2,
17:u:code-1R   =_x+1,
17:u:code-1RR  =_x+2,
17:u:code-1RRR =_x+3,
0=-0x1.6a455a6cea282p-3
1=0x1.127df1f3c30c2p-3
2=-0x1.fc719741e45d8p-5
3=-0x1.5635f28166895p-2
4=0x1.4de1e2b1802c7p-2
5=0x1.46f0f76842f54p-3
6=0x1.4304ff55db6b1p-2
7=-0x1.2a9d4c71ff614p-2
8=-0x1.565dec8c7f3b5p-3
9=0x1.e8c2c8e2d359cp-18
10=-0x1.703dcdf602478p-18
12=0x1.e8c2c8e2d359cp-18
13=-0x1.703dcdf602478p-18
15=0x1.e8c2c8e2d359cp-18
16=-0x1.703dcdf602478p-18
18=-0x1.3cd5451371bb8p-10
19=0x1.ed6b3b8b0ba81p-6
20=-0x1.3b435d8800ecap-5
21=-0x1.6ad5e46d1c454p-11
22=0x1.d089209e8b5c9p-6
23=-0x1.01db47f48ac8bp-5
24=-0x1.c4b0d88e39e03p-8
25=0x1.045b3b42f91c1p-5
26=-0x1.aebc403c26afcp-6
28=0x1.296ad015e5241p-7
29=-0x1.2a1a68aed2a6ep-7
30=-0x1.0c1901497dc8p-3
31=0x1.aa56ccf382228p-2
32=-0x1.f999930dc6959p-2
33=-0x1.1b31689df0459p-3
34=0x1.7dc4d7714a593p-3
35=-0x1.f1e47aac08547p-4
36=-0x1.087b7ca19d189p-2
37=0x1.079c814147abcp-1
38=-0x1.0fe1397878647p-2
39=0x1.a02957adf0a53p-3
40=-0x1.e4a154cf6ef95p-3
41=-0x1.dacfa37cf1f3ap-4
42=-0x1.1ca1330b629c2p-4
43=0x1.d5191e0573ae9p-6
44=0x1.e251634e9fef6p-7
45=-0x1.35e92b46bddf4p-6
46=0x1.6dba7dcfaaf6dp-7
47=0x1.9d90c4fc5d22ap-9
48=-0x1.02ca734792c09p-5
49=0x1.49dddff5eca32p-5
50=0x1.2e68ff7d20e0ep-5
51=-0x1.370117bf06b69p-6
52=-0x1.b84242efe43ffp-6
53=-0x1.3763ea70a4c6ap-6
54=-0x1.51d8ececf42fbp-5
55=0x1.385c4b7703d34p-4
56=-0x1.1ecd929e796acp-5
57=-0x1.27b83547679aep-6
58=0x1.a12d01776aa9fp-3
59=-0x1.efdebe1dcabe9p-7
60=-0x1.b83480b036288p-7
61=-0x1.cc6a818c5c3c3p-7
62=-0x1.72184ec5e4972p-7
63=-0x1.447c48fb52775p-7
64=-0x1.180486d60e6edp-6
65=-0x1.24d7c788658b8p-7
66=-0x1.b4b86d463c755p-4
67=0x1.13c1447127cacp-4
68=-0x1.29a11af17b8d4p-6
69=-0x1.3411e49f922acp-5
70=0x1.347f961e470efp-3
71=0x1.06327b6a09f9dp-4
72=-0x1.4a7983952eb72p-5
73=0x1.a669997c1b3a8p-10
74=-0x1.960296a665455p-5
75=-0x1.d5c54216ca60fp-6
76=-0x1.6e396707785dbp-5
77=-0x1.9b27be551fd66p-6
78=-0x1.1efd29d21db3p-5
79=-0x1.0a85c1cd7b273p-7
80=0x1.11c5f886200f3p-4
81=-0x1.de96c0a1d5c51p-7
82=0x1.847a5f0514b06p-6
83=0x1.54a939b2a81bp-4
84=-0x1.7c64c9da2ae74p-7
85=-0x1.15219d88e412ep-5
86=-0x1.7bdc5d14c5ec2p-8
87=-0x1.20edd79b28ffap-7
88=-0x1.b8ea6557b3ce1p-7
89=-0x1.588a45c4dc225p-7
90=-0x1.340c292604bc5p-3
91=0x1.ada4acd5bb924p-5
92=0x1.05e54d4d6c6adp-5
93=-0x1.3556d4ce4155bp-5
94=-0x1.ebbf29e1c6af8p-5
95=0x1.35b73cfe1d334p-5
96=-0x1.1827c07cc19bdp-4
97=0x1.124d5387e5d0ep-3
98=0x1.3269cadbb8026p-4
99=-0x1.6a877d83ebf18p-5
100=-0x1.d7e9b1d805025p-5
101=-0x1.4f5963642b13fp-5
102=-0x1.a5f4ab44cb24fp-4
103=0x1.78bab97e161c5p-3
104=-0x1.4b77bc0617272p-4
105=-0x1.08fd5a6c5b525p-5
106=0x1.90b07e490c28bp-3
107=-0x1.bc7ceb3364026p-6
108=-0x1.5cc6de4843715p-5
109=0x1.052cb3237b8aep-9
110=-0x1.0ccff4854fe61p-5
111=-0x1.cc449911499ffp-6
112=-0x1.5e4574d41cc9p-5
113=-0x1.6b78f53bcf474p-6
114=-0x1.2e4c22ff7e0c5p-4
115=0x1.159a4aaecd573p-3
116=-0x1.f9becd5999a75p-5
117=-0x1.4bc9a83acd0d9p-6
118=0x1.5e24a248c8461p-4
119=-0x1.1f060895623cdp-6
120=-0x1.00d989dbba9bp-5
121=0x1.cbb26eecd040ep-5
122=-0x1.ec714c853bd15p-6
123=-0x1.6bae2d7316667p-6
124=-0x1.f901478e7be86p-6
125=-0x1.ec5c0f6c154f7p-7
126=-0x1.f95f9b124cdbap-5
127=0x1.bd01a3917d6e6p-4
128=-0x1.809194ae10dep-5
129=-0x1.30a72f58bf94ap-6
130=0x1.8a1e2b53a1da7p-4
131=-0x1.043dfd13a276cp-6
132=-0x1.c06ccc92327b7p-6
133=0x1.26167ef85a1bfp-5
134=-0x1.3b23ed4da1e0fp-6
135=-0x1.01a597a10584ap-6
136=-0x1.8064cf079dae4p-6
137=-0x1.982bbbcac72ap-7
138=-0x1.af9a32b2d253bp-6
139=0x1.e05785bc8dcb1p-7
140=-0x1.598388c87e34ap-14
141=-0x1.5d18f24dbfaf9p-7
142=0x1.5141593c6e57dp-4
143=-0x1.72b966759328p-13
144=-0x1.3cdec2a81408ap-7
145=-0x1.4cc3ea06691d8p-7
146=0x1.999108f63cde4p-8
147=-0x1.90b5ad0d9814bp-8
148=-0x1.4a8514b6f98cp-7
149=-0x1.95f98ec3f83e9p-8
156=-0x1.68b6461b41689p-5
157=0x1.9aad11a03b30cp-5
158=-0x1.b367c72e676e3p-7
159=-0x1.23f89c3e36be7p-5
160=0x1.a046996a88a83p-4
161=-0x1.b5aa9d9af1dfbp-5
162=-0x1.ec99193784a72p-6
163=0x1.2ba2e6a3463b2p-5
164=-0x1.35c0dfd4741f5p-7
165=-0x1.e207cf7077f11p-7
166=0x1.ab835202483e2p-8
168=-0x1.389531e455713p-5
169=0x1.22ff089a98e58p-4
170=-0x1.0c8694c5b410ep-5
171=0x1.6ed9336d4bc35p-2
172=-0x1.f62885b3df15cp-3
173=-0x1.aa2eb612ce0e6p-4
174=-0x1.40a0f48fb2fa5p-5
175=-0x1.e69299e8aa948p-5
176=-0x1.c158759615fcap-6
177=-0x1.6241b4e9f3cdep-4
178=-0x1.472fa01de068cp-6
179=-0x1.6b28b1db03b94p-5
180=0x1.1bb15a4770662p-1
181=-0x1.47a9edc7853a7p-4
182=-0x1.145e1d4176decp-5
183=0x1.9c5ac757648a5p-5
184=0x1.6a9110b3aa4ep-11
185=-0x1.ec7c329c261bfp-5
186=-0x1.4867f34120ef5p-4
187=-0x1.f7d60eaa0a934p-4
188=-0x1.30a18d2bdb29p-4
189=-0x1.65cf0b45436d5p-3
190=0x1.09660427d80adp-3
191=0x1.5e0cc2bd4446p-4
192=0x1.8b197ae8a310dp-2
193=-0x1.320d5f363967bp-3
194=-0x1.4fdf393b138e9p-4
195=-0x1.590c45cd058d7p-9
196=0x1.f921256becef4p-7
197=-0x1.4d56eb4af78dfp-5
198=-0x1.865c397839ab1p-5
199=-0x1.1918ef1cd1f59p-6
200=-0x1.2d99483b62252p-6
201=-0x1.886ee3e65e38bp-4
202=0x1.c229f5f185c96p-4
203=-0x1.27faabf09464p-9
204=0x1.173b3456bb4f5p-3
205=-0x1.4d0cb5b90f758p-4
206=-0x1.70ad8528cac25p-5
207=-0x1.f45633b456485p-5
208=0x1.704b94cd4ab1ap-4
209=-0x1.1c3edfbd70a43p-6
210=-0x1.2dc7342e0323ep-5
211=-0x1.9435f0ebf44a9p-9
212=-0x1.2b0aaf4fbdffp-5
213=-0x1.26cc3f9bcfd8cp-4
214=0x1.0812218e7b5e5p-3
215=0x1.8b9d692d129c8p-5
216=-0x1.8f5a37b7f706ep-10
217=-0x1.f2f9b04f189f2p-5
218=-0x1.2a4828522464bp-5
219=-0x1.658f7338fc02ap-9
220=0x1.7700768c1d2bp-8
221=-0x1.8fd7f9283d291p-7
222=-0x1.bb95711f933bap-6
223=-0x1.ef1761447464p-5
224=-0x1.ba313925e86ecp-6
225=-0x1.f2a23daf73d63p-5
226=0x1.882f636e83cd2p-4
227=0x1.3c8d2de851cd3p-5
228=0x1.311ec3202d9eep-4
229=-0x1.a592c99e2351cp-5
230=-0x1.e1e349ea58e4bp-6
231=-0x1.0e94c616db3a6p-7
232=0x1.290d1865fae16p-10
233=-0x1.3b15d47bee672p-10
234=-0x1.457df7653149fp-6
235=-0x1.71ef809fb11fcp-5
236=-0x1.4d9d41a080aebp-6
237=-0x1.7cb7ebb84b8e9p-5
238=0x1.02a0182a8a08ep-4
239=0x1.7eac37cef9821p-5
240=0x1.056a957f76e4fp-4
241=-0x1.4aae495988779p-5
242=-0x1.78d3bf6d1259p-6
243=-0x1.3ec3c33a5f7e9p-3
244=0x1.078d64f60cca1p-3
245=-0x1.79a750dee52d1p-5
246=-0x1.927161845c5bbp-5
247=0x1.eee3d373295a4p-4
248=-0x1.689a4f0d4026ep-6
249=-0x1.4ac4d904c7af6p-4
250=0x1.0782674966a0dp-3
251=0x1.60f4927f56e41p-9
252=-0x1.4cbfca53a231p-6
253=-0x1.35e6adb1024b9p-4
254=-0x1.69c0fab351facp-5
255=0x1.5eb6c067958d3p-7
257=-0x1.b9b9e7908e158p-8
258=-0x1.1912244b12102p-5
259=-0x1.21769fc9a30ecp-4
260=-0x1.0ad35229cdef9p-5
261=-0x1.449988a8994abp-4
262=0x1.6d75cc2012728p-5
263=0x1.c36fe49f56432p-5
264=0x1.6e131a882bd21p-3
265=-0x1.18dce0374a652p-4
266=-0x1.32dd47023465ep-5
267=0x1.018af6d5ad3efp-6
269=-0x1.d8ec6acdb2d48p-6
270=-0x1.1de8287205cf9p-5
271=-0x1.32f76989b4b5p-6
272=-0x1.b7d4fb45faecp-7
273=-0x1.387474bd240e2p-4
274=0x1.032aa84961b71p-5
275=-0x1.1b995513d671ep-8
276=0x1.513d41a1daad5p-3
277=-0x1.009d407d247c1p-4
278=-0x1.1a5d1bc073f49p-5
282=-0x1.ad71796d6853cp-7
283=0x1.2271a9268d684p-6
284=-0x1.3041bcfcd54p-16
285=-0x1.d57daec255753p-5
286=0x1.642b624cca6f7p-5
287=-0x1.d1ef3ed929affp-10
288=-0x1.fba16a2ded12ap-7
289=0x1.5dedd3d8e7401p-5
290=-0x1.826ee131080e2p-5
291=-0x1.a85f508b95278p-12
292=0x1.b4a97d8e3fcecp-7
293=-0x1.7e956707c2f72p-6
294=-0x1.2fa67662c823p-5
295=0x1.b49183de75b17p-5
296=-0x1.c076b56fa9cdap-7
297=-0x1.df07978fdf168p-14
298=0x1.3749dba76edc6p-8
299=-0x1.8acd273d3b192p-8
300=-0x1.fe9c00ce3474fp-5
301=0x1.1e26d23f6c15dp-4
302=-0x1.38adad595542bp-6
303=-0x1.21e9a009e8a06p-6
304=0x1.e7cf98ba5121ap-5
305=-0x1.12e7a90c6c0dp-6
306=-0x1.c2e38a356a8b4p-6
307=0x1.44fae2e14ff08p-5
308=-0x1.e792937494b96p-11
309=-0x1.182279d2b0df3p-6
310=-0x1.98f643dc4c7b2p-6
311=-0x1.dd3e4326f68e9p-7
312=0x1.66da006494c1p-3
313=-0x1.b36b1469c3c35p-4
314=-0x1.49e34b159db8dp-5
315=-0x1.c5f8e2555493dp-5
316=-0x1.9f50fa394b369p-5
317=-0x1.9e62133cf289cp-5
318=-0x1.f8385c07cd9c4p-4
319=0x1.ce88a9dbd0f81p-8
320=0x1.d84b490d06a53p-5
321=0x1.5a763b8d83845p-2
322=-0x1.a20659f784236p-4
323=-0x1.c89f12e030b0cp-5
324=-0x1.43e18adbf9538p-10
325=0x1.017e552ad7714p-9
326=-0x1.a55722698bbc3p-6
327=-0x1.75a1c6b55426p-5
328=-0x1.78193b524606fp-6
329=-0x1.687cfee13dc1bp-5
330=-0x1.831ac1e224de8p-4
331=0x1.273ef1ad5e2c7p-4
332=0x1.cbd4d3aef2713p-5
333=0x1.4b9fe05fa1903p-3
334=-0x1.49606021272e4p-4
335=-0x1.71985a916ec94p-5
336=-0x1.6805a5bba572cp-6
337=0x1.8c4c7df697cfcp-5
338=-0x1.ad5909984ca3bp-6
339=-0x1.914c62c5f13e6p-6
340=0x1.97b2d0acda39bp-6
341=-0x1.efb24eda625edp-7
342=-0x1.8764bdfafb802p-5
343=0x1.095064e7fefbap-4
344=-0x1.dc5ebe0adb633p-14
345=0x1.3590c0829db58p-5
346=-0x1.520e6af3028e5p-5
347=-0x1.740a052a9ac03p-6
348=-0x1.bdf9b7436463dp-4
349=0x1.48db725010756p-4
350=-0x1.8039782c4abb6p-8
351=-0x1.189d4c7c7f175p-5
352=0x1.377703336cf56p-3
353=-0x1.684909e1da5efp-6
354=-0x1.98b7c9ee827f9p-5
355=0x1.fa8339bea7358p-10
356=0x1.66a54f81ddeb9p-5
357=-0x1.32351a1b0e1abp-6
358=-0x1.63681abc8a674p-5
359=-0x1.c90dbc13f5f73p-6
360=-0x1.4be80a62161acp-10
362=0x1.b3d02b442ed92p-8
363=-0x1.a0aab55e58417p-8
364=0x1.f5d62702fe849p-7
365=-0x1.2de26f4164d0ap-7
366=-0x1.919e1b8f35fc4p-5
367=0x1.296642b522e7dp-5
368=-0x1.41707cf1b2192p-7
369=-0x1.9c2dd569fbf8cp-6
370=0x1.a32e798a72022p-5
371=-0x1.aa0aeee5b41cep-6
372=-0x1.28d850bf2487ap-6
373=0x1.b2ba23939cf13p-4
374=-0x1.9d29a3d20f9a7p-4
375=-0x1.bc63a674abb1ap-8
377=0x1.d708f8117e8dep-8
378=-0x1.fd0f7f47c9316p-9
379=0x1.d226ea7204e6p-14
381=-0x1.2265fdb0e325p-6
382=0x1.47a0a37998046p-6
383=-0x1.7c66bdb2a65acp-8
384=-0x1.f1aa7782510a4p-9
385=-0x1.5ba5ff21c8865p-7
386=-0x1.00cd2a2d3da1bp-8
387=-0x1.32501853e63adp-7
388=0x1.64497f9a8d4e5p-5
390=-0x1.3716f6980d0cep-8
391=-0x1.e7e7c2cfe87bbp-8
392=-0x1.07a03ea98dcd5p-8
393=-0x1.a4ee7ae4892abp-5
394=0x1.0cbead4421329p-9
395=0x1.24afb4d970fe6p-4
396=-0x1.41c40bcb3fa87p-6
397=-0x1.79d4128950c17p-5
398=-0x1.9bad6eafab53ap-6
399=-0x1.82841165bb58dp-5
400=0x1.ec2e295cd8cep-5
401=0x1.ef7a452d33e35p-4
402=-0x1.e9365e7157a67p-10
403=-0x1.2c6d2628d6f56p-5
404=-0x1.ccc53ad505aabp-6
405=-0x1.c983280508676p-6
406=0x1.2a2dffa90a331p-6
407=-0x1.5a9dfc2e960fcp-13
408=-0x1.775be246c1437p-8
409=-0x1.0a8fff40e8d09p-6
410=-0x1.a375d7088e5a8p-8
411=-0x1.d13bb86e19ef9p-7
412=0x1.771308aef11bp-5
413=0x1.dcfba2e169c36p-7
414=-0x1.0d40a84b11d88p-7
415=-0x1.7da1d3d47f47ap-7
416=-0x1.bbd896bd8b756p-8
417=-0x1.edefa7246aaeap-4
418=0x1.42485e5105e2cp-4
419=-0x1.6b553e4bdc448p-11
420=-0x1.ad5491e7fc3fap-6
421=-0x1.0221a3a9c324p-4
422=-0x1.d8e4f832e436fp-6
423=-0x1.e9918bf517c8cp-5
424=0x1.1dc2fedd25038p-3
425=0x1.0b039b4de6936p-4
426=-0x1.27b62ae99984cp-5
427=-0x1.853172813c0abp-5
428=-0x1.f494d93075d3ap-6
429=-0x1.9ac1d0dfae2e7p-9
430=0x1.fb6d1c976cc74p-9
431=-0x1.55986b30928f2p-10
432=-0x1.171e990c3c2d4p-5
433=-0x1.6e2e49296bc6cp-5
434=-0x1.1961aef8b1569p-5
435=-0x1.2da2be8ac937ep-4
436=0x1.a53079245917cp-4
437=0x1.f1d66ed62904cp-5
438=0x1.4e8587a65b63ep-4
439=-0x1.f9f2c763138bep-5
440=-0x1.28123a61c905dp-5
441=-0x1.abe21382d74b6p-5
442=0x1.7af29d08e6c8bp-4
443=-0x1.43a3522a36c15p-5
444=-0x1.4b6aa8373c6bap-5
445=0x1.786762d00a8dbp-3
446=-0x1.1fb7c3b491829p-5
447=-0x1.edbb9ddba768dp-5
448=0x1.763ff44866374p-9
449=0x1.25c6f0be1aeadp-7
451=-0x1.d29eb7d66ea41p-5
452=-0x1.0571d195bea13p-5
453=-0x1.7d642fb78067bp-5
454=0x1.2ddb7f1853297p-5
455=-0x1.4f05da31ef022p-11
456=-0x1.3a0f6957dc76fp-6
457=-0x1.838dae3f1f6fap-9
458=-0x1.532cade5c8cb1p-6
459=-0x1.4a23a9b055813p-5
460=0x1.d9d0fa92b3ffp-5
461=0x1.c914a48da4b2ep-5
462=-0x1.1e16576a9cd5bp-8
463=-0x1.06a503a1f6cf3p-5
464=-0x1.622557aad52c1p-6
465=-0x1.7f9b38364c7b5p-7
466=0x1.590011b134384p-6
467=-0x1.44a0146ee7f92p-7
468=-0x1.87a57ccc9fbaep-7
469=0x1.75d05e74ea2c1p-8
471=-0x1.b32e583591e9bp-6
473=0x1.970ab5c7bb548p-6
474=-0x1.95c679aa8347bp-4
475=-0x1.7f9d2c4cfd8b1p-2
476=0x1.e5110da3f14e1p-2
477=0x1.9fe94bc2d82e1p-8
478=-0x1.07fba97b235e6p-6
480=-0x1.14206adb5b9f1p-12
481=0x1.d4b1d481691cp-13
482=-0x1.8b18eeaf5234cp-9
483=-0x1.e3bbc21e37717p-12
484=0x1.8fbfbcedf473p-12
485=-0x1.5612a48695dfcp-8
486=-0x1.95c679aa8347bp-4
487=-0x1.7f9d2c4cfd8b1p-2
488=0x1.e5110da3f14e1p-2
489=-0x1.a544eab7cf362p-6
490=-0x1.a839648855f66p-5
491=0x1.60708f5615bcbp-5
492=-0x1.907f7b58a872ap-5
493=-0x1.2b9499133f5d8p-2
494=0x1.dae12aba0a0d8p-2
495=-0x1.965924ad5b64fp-6
496=-0x1.f08182fc9122ep-6
497=-0x1.7a013e8340a2ap-5
498=-0x1.7ccd0c9d470cfp-4
499=0x1.ff56a913dc319p-5
500=-0x1.1d6ab5d672194p-10
501=-0x1.bae62c7855005p-6
502=0x1.dc5bfbfba67efp-5
503=-0x1.dcb06d4e15de3p-6
504=-0x1.863afb651a45p-5
505=0x1.b88ee4739e6cep-5
506=0x1.ea755cf7c0af2p-5
507=-0x1.aa3a50cd85dbp-7
508=-0x1.63b2b9d43342fp-5
509=-0x1.c62bd1ec811e3p-6
511=0x1.d8addcdaa272p-9
512=-0x1.4f1de72cfe28p-5
513=-0x1.d5e96d97036aap-5
514=0x1.e42b619a270c2p-4
515=-0x1.a589fc337229ap-5
516=-0x1.94dabb15589f4p-4
517=0x1.575b2116c6bdp-11
518=0x1.a51a45ddf55bep-5
519=0x1.b08fceb63afc1p-3
520=-0x1.7536bf9fe1f2ap-4
521=-0x1.9ef62b4d8392dp-5
522=-0x1.369da0cf3898cp-12
525=0x1.8338c1f0c2f61p-6
526=-0x1.5fd851c7380e3p-7
527=-0x1.3e968f8ccb7dp-10
528=0x1.e163948f97b2cp-2
529=-0x1.8b9829866234ep-2
530=-0x1.5724a0738a276p-4
531=-0x1.81d3ce1d898cap-12
532=0x1.df01c5564ad12p-7
533=-0x1.a369bb156dd7ap-6
534=-0x1.0b252892c5c13p-8
535=0x1.fb40e664d8635p-7
536=-0x1.30a19082e53b7p-7
537=-0x1.d7c657dcdd8dcp-7
538=0x1.e9cea59bddf0ep-8
540=0x1.50be57e71df5dp-2
541=-0x1.0062c2e56f274p-2
542=-0x1.66bdf5ad221efp-4
543=-0x1.06ac6f2ff0b05p-5
544=-0x1.9807e7d9cc2e2p-5
545=-0x1.7b82bcf5b6ab7p-6
546=-0x1.23ddd7927df0fp-4
548=-0x1.3b8150db79689p-5
549=0x1.fe3dd0ea15612p-2
550=-0x1.06a6f471041e7p-4
551=-0x1.be93646ee36dbp-6
552=-0x1.02b0e890a4b75p-4
553=0x1.79a1ce2bb40d6p-4
554=-0x1.abe5e95acb909p-7
555=-0x1.39073a11f2dfdp-5
556=-0x1.53dc296deb3f7p-4
557=-0x1.44179def3ca0cp-5
558=-0x1.54a34c52d7b43p-4
559=0x1.761a4c214c741p-3
560=0x1.fc27b7c8a7bc2p-5
561=-0x1.5c0badd02f54ep-10
562=-0x1.16365ea23d51bp-4
563=-0x1.5055d5092aaddp-5
564=-0x1.7c1f6c306aec1p-10
565=0x1.bbf76dd2a661ep-9
566=-0x1.0f54cab9432f2p-9
567=-0x1.9710e06eaf924p-4
568=0x1.cdede179117b6p-5
569=-0x1.169e62a1182fp-7
570=-0x1.d66d47ba8026ep-6
571=0x1.0cb52dc042e8fp-5
572=-0x1.3e8ff59e8a17ap-7
573=-0x1.80c7d7b997a64p-7
574=0x1.17c4ef58070a5p-5
575=-0x1.c6e446a9d9c31p-6
576=-0x1.4bc3f859c2d14p-12
579=-0x1.812670c6efa0bp-4
580=0x1.c2fd5f6f3d3e8p-4
581=-0x1.14b5e1f770292p-5
582=-0x1.66fc7b98cd909p-6
583=-0x1.03df6823a70ep-6
584=-0x1.6351f0cfa9284p-6
585=-0x1.76761e16ded11p-5
586=0x1.4d6e907f46309p-3
587=-0x1.aa0e4f27932d3p-7
588=-0x1.b79539b467e1dp-6
589=-0x1.3c9e37ed56f21p-5
590=-0x1.5973bc26788bep-6
591=-0x1.4562f56b80f65p-4
592=0x1.45d2ed53271d5p-4
593=-0x1.17e955efe059ep-7
594=-0x1.77ce69eb50a87p-5
595=0x1.da68c00115deap-4
596=0x1.83da8f5304a24p-8
597=-0x1.1220833c9ca73p-4
598=0x1.0b730bf45e398p-5
599=0x1.12f150de7c29cp-13
600=0x1.57a37e8e78706p-9
601=-0x1.0b3e03015790bp-4
602=-0x1.3523db97fee98p-5
604=0x1.037ebd8a204c4p-5
605=-0x1.ecf51c99a4019p-5
606=-0x1.02f5156b18d37p-4
607=0x1.4d42526ea147ap-3
608=-0x1.c32ed7b1e4d74p-5
609=-0x1.aa89aab68d2b8p-4
610=0x1.6f52d4dcad09cp-9
611=0x1.68248405eff5dp-7
612=0x1.8859244e08fd2p-3
613=-0x1.9b5da08773fc4p-4
614=-0x1.a9a5812418da8p-5
615=-0x1.5d28541e93ffp-12
617=-0x1.434df3237d59ap-13
618=-0x1.98ee0586d8f59p-6
619=0x1.8666d0a110b22p-5
620=-0x1.8b09bffd2134ep-6
621=-0x1.95374fd46a678p-5
622=0x1.77748d9d6bf5p-13
623=0x1.933b723f22b6bp-5
624=0x1.2a92c266eb954p-4
625=-0x1.3dda660dd0795p-5
626=-0x1.89c3d34459d41p-6
627=-0x1.90b37250c00bp-7
628=0x1.73e51c4ba3672p-5
629=-0x1.032c4d7b5ff16p-5
630=-0x1.6699f9e7547d3p-7
631=0x1.e75ef0a28346dp-7
632=-0x1.cfd56e28dec32p-13
633=-0x1.f0748f2f4129p-6
634=0x1.cea63441772c4p-5
635=-0x1.acb3aa8e7a53fp-6
636=-0x1.7c5dff37ba2bcp-7
637=0x1.bd082a16634f2p-7
638=-0x1.439966069b158p-9
639=-0x1.d406856b2924ap-5
640=0x1.8e6bbbd043aa9p-4
641=-0x1.e4840654f1d75p-6
642=-0x1.a7c7921857c51p-7
643=-0x1.e8d597c51becp-7
644=-0x1.9ea6c87dd08edp-7
645=-0x1.c168b1bc59b81p-6
646=0x1.ae0f2f95fda85p-4
647=-0x1.e8d6f3331a30dp-7
648=-0x1.1a2a33ad0b1bap-6
649=-0x1.827e9fb75acffp-6
650=-0x1.9bdd0f69c78e9p-7
651=-0x1.7aa339f205d89p-5
652=0x1.97314789c538ep-5
653=-0x1.a35ae1a658c1fp-7
654=-0x1.77d9a68542af2p-7
655=-0x1.a300c8ac39c5p-10
656=-0x1.7d07c3342050bp-7
657=-0x1.6af8d4a6ccfaep-6
658=0x1.935ad01268913p-5
659=-0x1.9e8e90fffa1f4p-11
660=-0x1.9c30dce069c68p-7
661=-0x1.2dfa8150d90f7p-6
662=-0x1.5e8e521b55842p-7
663=-0x1.c2d959b25648ap-5
664=0x1.f6f3f481ac7b4p-5
665=-0x1.2ac9037c400c7p-6
666=-0x1.a600a7c7dd19dp-7
667=-0x1.13472d6cff8e8p-5
668=-0x1.b570a111ba24ap-7
669=-0x1.b8fa0d99eb37ap-6
670=0x1.a91d9c85c3f33p-4
671=0x1.b48228998dc08p-10
672=-0x1.05ad266ddde61p-6
673=-0x1.8555417b8418ap-6
674=-0x1.b8b92b3356005p-7
676=0x1.0c28279e43fecp-5
677=-0x1.ddf306f31413p-6
678=-0x1.5f2dde5500fdcp-6
679=-0x1.b823cc2a7705ap-6
680=-0x1.3cbf51347f4e7p-6
681=-0x1.7b90aaa8ac331p-5
682=0x1.2a17f989e801p-4
683=-0x1.4d7d01f9dbf56p-8
684=0x1.56937c4cda888p-4
685=-0x1.6a54770d63f07p-5
686=-0x1.6964672d44718p-6
687=-0x1.644977f14780ep-10
688=0x1.c9db2fcb2a8f7p-8
689=-0x1.74f22ad824595p-8
690=-0x1.de6f181abcbfep-6
691=0x1.2cdf08632905ap-6
692=-0x1.af84945cf4e86p-12
693=-0x1.16c9c9d5c5f5dp-8
694=0x1.79ae5cd3f6ccfp-6
695=-0x1.e32621b695794p-7
696=-0x1.5fed560c1c899p-4
697=0x1.3d154fdfa7735p-7
698=0x1.f6e5b2ff6aaeep-5
699=-0x1.6ff2a32f8beebp-6
700=-0x1.bfc6f1a941f17p-5
701=0x1.3186a4fcbf1c1p-4
702=-0x1.418856329fdfcp-5
703=0x1.19e5751fd3f28p-4
704=0x1.c1b2632b2cf6cp-6
705=-0x1.8c69ab1142f62p-6
706=-0x1.00bc117d50287p-5
707=-0x1.74fbaa73596dap-6
708=-0x1.2e16deac10f6p-11
709=0x1.165ff0dca549fp-11
711=-0x1.247160d6be5d6p-6
712=0x1.1addf86e11076p-5
713=-0x1.11212d47d5974p-6
714=-0x1.0930260a1df1ap-3
715=0x1.1408f97ae3814p-4
717=-0x1.2211e055cddb6p-5
718=-0x1.17e27edee53a2p-6
719=0x1.0342fa7bb30fdp-5
720=-0x1.d817d4612fc14p-5
721=0x1.adf0a1eb6b5d7p-4
722=0x1.f5da5902e0b1cp-6
723=-0x1.2a72b4ac3d22cp-5
724=-0x1.a2ef6d55a5e8ap-5
725=-0x1.0d7293ed0f726p-5
726=-0x1.5305f4acd3088p-13
727=0x1.32cb2750976ddp-6
728=-0x1.749903836f6ap-6
729=-0x1.1d1a7b2ca12a5p-6
730=-0x1.283971de257a4p-5
731=-0x1.12aca974895bdp-6
732=-0x1.3c3bdaebbf86fp-5
733=0x1.074e515e1050bp-4
735=0x1.d8a3b9dbe933ap-5
736=-0x1.064da59f32872p-5
737=-0x1.1da9e1ed201f1p-6
738=-0x1.9fc10df548028p-6
739=0x1.e580662ec5cecp-5
740=-0x1.8d946e2baaf2fp-5
741=-0x1.2543d2aaf556cp-6
742=0x1.4edbe00349cd9p-5
743=-0x1.9c3d89b80f4a8p-6
744=-0x1.561296eb4a399p-6
745=0x1.0566eb2927a2p-6
746=-0x1.3901ecbc7ea15p-6
747=-0x1.3f666f7e0bbbfp-5
748=0x1.da8d4035797c4p-5
749=0x1.bf59c72038418p-11
750=0x1.657385e1c20e5p-5
751=-0x1.3d97132e3dfd2p-5
752=-0x1.42b24bf8eca9fp-6
753=-0x1.a46ba655c8af2p-5
754=-0x1.43ecdc6d4451ep-6
755=0x1.1a3f12153d2fcp-4
756=-0x1.b89194361c9a1p-4
757=0x1.16d0177358945p-6
758=0x1.204b97c1ceb83p-8
759=-0x1.7a45444344ad5p-6
760=-0x1.e356ed5d96d1p-7
761=-0x1.c2f6aee73688ap-6
762=-0x1.b1df20fac9be8p-5
763=0x1.22d09dee44c0fp-4
764=0x1.01af3950546b2p-3
765=-0x1.0852f00268883p-5
766=-0x1.3fc83154c5b99p-5
767=-0x1.e805565bd1d2ep-6
768=0x1.1e0d13ca1000dp-4
769=-0x1.99f08573d9677p-7
770=-0x1.b71e4ef0dd56p-7
771=-0x1.9c83004f99d89p-6
772=0x1.053ed0ae29513p-6
774=0x1.69d6f627fb719p-4
775=-0x1.604e1fb7f60f6p-6
777=-0x1.3ae8b480da473p-5
778=0x1.1b887f45a0ec6p-5
779=0x1.3726b5f437cb8p-6
780=-0x1.faad4ffe65263p-5
781=-0x1.aae131ed6ff2p-6
782=-0x1.6b1e975da82dep-10
783=0x1.b5a311c970e2p-3
784=-0x1.b97107273e326p-5
785=-0x1.017aefdd6aa7ep-5
786=-0x1.8a8ed345f8001p-4
787=0x1.2f63ad19272c5p-4
788=-0x1.7ef99ad0f749bp-8
789=-0x1.a54af8ee388c4p-6
790=0x1.28674928c93eep-6
791=-0x1.6eb7d32d27b3bp-7
792=-0x1.8f01b46db0c8dp-5
793=0x1.8a3a15428f534p-4
794=0x1.1baae07df491dp-5
795=-0x1.c0dd6715610b5p-7
796=-0x1.4c9871f302a94p-5
797=-0x1.9290ddfd3699dp-6
798=0x1.17b6bc244350fp-8
799=-0x1.9ccfeba977e49p-12
801=-0x1.99baf4020ac9dp-5
802=0x1.6b25dd32fb32dp-4
803=-0x1.d4d5ddfd3c4eep-6
804=-0x1.5eb18d003ab2ep-7
805=-0x1.bd924222a40f9p-6
806=-0x1.5d1d536f6048ep-7
807=-0x1.b102af2dee0fep-6
808=0x1.13db165c34178p-3
809=-0x1.09db9034c4f9ep-6
810=-0x1.b63ff47e4c898p-7
811=-0x1.34669e68a8ef9p-6
812=-0x1.6003fe67d653fp-7
813=-0x1.f118dde69629ep-6
814=0x1.c371c60f1b6f6p-5
815=-0x1.95a67f726cb9dp-6
816=-0x1.0c7cdcc021dc8p-7
817=0x1.11c369691f7d6p-5
818=-0x1.d9cce6082229fp-8
819=-0x1.bfc42ce6e1bacp-7
820=0x1.87643e4ab6cbp-6
821=-0x1.7a7c93023cc67p-7
822=-0x1.155ff71154d52p-7
823=-0x1.87d857d383c3bp-7
824=-0x1.995f73b530974p-8
825=-0x1.b98f64b47c9ap-19
826=0x1.46e1fd37d6e86p-11
827=-0x1.022b4de36bf55p-10
828=-0x1.14f2ea80dd04fp-6
829=0x1.60c10bfbaccafp-5
830=-0x1.0c498ca461c9fp-5
831=-0x1.9de02c9f0d1a8p-5
832=0x1.318aec5022615p-5
833=-0x1.776100e24dcdap-11
834=-0x1.6e902a7c971fap-7
835=-0x1.ab72c51e51f88p-6
836=-0x1.8fcb5c7e804f3p-7
837=-0x1.8b24d1d51a372p-6
838=0x1.574f766e5daf5p-4
839=0x1.6947f5a0a9307p-6
840=-0x1.039cd3c990295p-6
841=-0x1.4d2d5f8bc12fep-6
842=-0x1.9c5d73431abc3p-7
843=-0x1.6c8b13c682158p-10
844=0x1.9059cd0919f3dp-9
845=-0x1.9802d378dca0ap-9
846=-0x1.2bd0f856c44a1p-5
847=0x1.f1c65d36f0ffep-7
848=0x1.48a491235d25ap-6
849=-0x1.d3b570c3c5ee4p-9
850=0x1.d9737596e2659p-8
851=-0x1.de100440550ebp-9
852=0x1.228224d091a89p-6
853=0x1.3bbaf81eb7d3ap-6
854=-0x1.1513fb0073645p-5
855=-0x1.036bb54f68475p-8
856=0x1.daadc4c5ab459p-8
857=-0x1.ad62a8c2dc02dp-9
858=-0x1.508d6a47ae201p-5
859=0x1.c7abff45dd13ep-4
860=-0x1.f1fcbc44a4941p-5
861=-0x1.58daa378ab584p-8
862=0x1.1468008e269f4p-6
863=-0x1.48267f42989eap-7
864=-0x1.c010da086dc24p-5
865=0x1.f0b360ea1c824p-5
866=-0x1.749a495afecfp-7
867=-0x1.85c02c782ab41p-6
868=0x1.f7d0bd33ae5aap-5
869=-0x1.fd5728722a1e4p-7
870=-0x1.4d1a398c202dcp-5
871=0x1.78096f00fde5p-5
872=0x1.c2f4d07c23db8p-6
873=-0x1.da8374c787c9ep-8
874=-0x1.291a907895589p-5
875=-0x1.5d8db7185b0a4p-6
876=-0x1.b4314e8ca00fdp-9
877=0x1.78fc479f2b3efp-9
878=-0x1.35c25b9148a51p-10
879=-0x1.162e867a3c2fep-4
880=0x1.c7036c6b2cf7fp-6
881=0x1.f1d934ba53038p-8
882=-0x1.7eb371fab4b84p-7
883=0x1.3dfb12a8510c3p-7
885=-0x1.2b9059cac29cap-4
886=0x1.e0d9d01f38f0ap-6
887=0x1.2020f868a5322p-7
888=-0x1.034c951041684p-6
889=-0x1.ea9471307707ap-7
890=-0x1.33026931834f4p-6
891=-0x1.2ed7159bfad95p-5
892=0x1.f9efceb0c6aaap-5
893=0x1.10a674abfbdf3p-4
894=-0x1.5454b933eff2cp-6
895=-0x1.9c818d0ac59cbp-6
896=-0x1.3f7fca4336f26p-6
898=0x1.759f5cff260fp-10
899=-0x1.bf9f7fceed788p-9
900=-0x1.6eed7557b2056p-6
901=-0x1.2910aa6a80333p-7
902=0x1.4b66f857d0739p-5
903=-0x1.1ad3ad565f48fp-5
904=0x1.cd7cc1134405cp-6
905=-0x1.2269e336a9c25p-6
906=0x1.13823a1548a52p-4
907=-0x1.28ed37aba1f9fp-5
908=-0x1.2d5bfcfaa979bp-6
909=-0x1.5578a961d3c67p-10
910=0x1.5525544f5c87fp-14
911=0x1.df0e235010fbp-12
912=0x1.fce4acc7b7466p-9
913=0x1.4bff10c8509c6p-10
914=-0x1.4f1b418a04315p-7
915=-0x1.65d9b2c952962p-11
916=0x1.653cabb48af02p-7
917=-0x1.6cda922521173p-7
918=-0x1.f90f78a1024ccp-7
919=0x1.746653ae62d04p-6
920=-0x1.361d39a73b0d8p-7
921=-0x1.a83add346d373p-7
922=0x1.009fda5bd994dp-5
923=-0x1.2d8824012216p-5
924=-0x1.439721dd80629p-5
925=0x1.efd8bf0a52718p-6
926=-0x1.49332c7c2f619p-7
927=-0x1.8af90c20046c6p-13
928=0x1.b8ef7bc9fa5f4p-10
929=-0x1.d55064e57d88dp-10
930=-0x1.689948ef011c9p-7
931=0x1.0fd5da24f8522p-11
932=0x1.b5fe6f31e5bbp-7
933=-0x1.2c2b3ef3c963ap-9
934=0x1.a6416d2d0423fp-8
935=-0x1.57384deceb14ap-8
936=0x1.5b80f706916c6p-10
938=-0x1.03052ffddfbd7p-6
939=-0x1.6e5a0c4c7a413p-6
940=0x1.cd272550a6f42p-10
941=-0x1.509576bbb6dc1p-6
942=-0x1.7e0c8edc657e3p-5
943=0x1.e5e7796b4ef31p-10
944=0x1.6939550b3191p-6
945=0x1.b2c9b7aa5e49dp-4
946=-0x1.3c175e0daed05p-5
947=-0x1.62f76e16e18dp-6
948=0x1.96b6b0286c948p-7
950=-0x1.50e62ee9383p-7
951=-0x1.d6a94c543f7fdp-8
952=-0x1.add344a1e04a7p-9
953=0x1.07645bb5be33ap-6
954=-0x1.ea13dbda8ad4fp-6
955=0x1.aff3d18b21ecp-5
956=-0x1.75af98768511dp-6
957=-0x1.957d8ab9c2ad7p-8
958=-0x1.e943d590b89a2p-7
959=-0x1.98f8f649fb326p-8
960=-0x1.e3afe6374601p-7
961=0x1.487396354bf6fp-4
962=-0x1.536a4802b0f81p-7
963=-0x1.2b97ae16ac7c8p-7
964=-0x1.99f8dad84afcap-7
965=-0x1.a09b3e38feed2p-8
966=0x1.d89c243c572e4p-7
967=-0x1.25c97406a59b7p-8
968=-0x1.00bafd540429ep-7
969=-0x1.2cedec40b68cp-7
970=0x1.1b287671bffbcp-6
971=-0x1.091aa3185f62dp-7
972=-0x1.0862cc972a4b8p-5
973=0x1.6d5fdf149c6d2p-6
974=-0x1.b868011a43d2p-15
975=-0x1.d0bb5f6319ba2p-8
976=-0x1.2fea9ec8364e2p-8
977=-0x1.5a4613a8b7735p-8
978=-0x1.0d4dd3c889238p-6
979=0x1.0b4f2361d5ff2p-5
980=0x1.d46a21b8a0002p-7
981=-0x1.2151262c2b647p-7
982=-0x1.8ae96937f6e9ep-7
983=-0x1.0754aa6eaa104p-7
984=-0x1.2fa7a9b037089p-5
985=-0x1.7e50352fbae47p-5
986=0x1.89cc0f7512f6ep-4
987=-0x1.b46353162d8adp-7
988=-0x1.1bbc57d7e6f48p-8
989=0x1.4b307258ab6c5p-4
990=-0x1.e225f0d18388bp-7
991=-0x1.93fd3bea1f05ap-11
992=0x1.7fc3048babd14p-6
993=-0x1.2784a7c45727ap-7
994=-0x1.8a8ebee3c4d33p-7
995=-0x1.7519abf4d26bp-7
996=-0x1.0c75f0d1f9117p-7
998=0x1.c722796e03bd9p-8
999=0x1.a20c52eb05b4cp-8
1000=-0x1.530ca011d63e8p-8
1001=-0x1.3a12877addebfp-10
1002=-0x1.d82a13b767882p-9
1003=0x1.3929d48fcc815p-7
1004=-0x1.75ccf3f9683eap-8
1005=-0x1.77dd158fef213p-8
1006=-0x1.9321e6edbf7f9p-7
1007=0x1.ab4de928a182dp-6
1008=0x1.a728cc8393c38p-6
1010=-0x1.ce01d0f014892p-7
1011=-0x1.1aa073fdc934p-6
1012=0x1.7f15b58fbe6ecp-5
1013=-0x1.87ccf5e981ap-6
1014=-0x1.c66a76e225fc6p-6
1015=0x1.6df6c88aaa515p-5
1016=-0x1.4b8b6403e1206p-7
1017=-0x1.05ed791154983p-6
1018=0x1.2389811447d34p-6
1019=-0x1.a718c96a0a6f8p-9
1020=-0x1.7d9b0e2459aebp-8
1021=0x1.f9add9355b0c1p-7
1022=-0x1.1f845dcf776cap-7
1026=-0x1.92924e296c58p-15
1027=0x1.f23cda43fd2d8p-7
1028=-0x1.80a7348b78963p-6
1029=-0x1.4c735ba50147p-9
1030=0x1.2ba53d04dde6cp-8
1031=-0x1.0d3884ff3b506p-9
1032=-0x1.9fbccebcab5a8p-6
1033=0x1.0e6caecbf8a86p-8
1034=0x1.2c21f17c5e063p-8
1035=-0x1.0dd7ab887083ap-9
1037=0x1.e66e2038fc5b4p-8
1038=0x1.db857f12e7745p-9
1039=0x1.958b3dd25d45fp-8
1040=-0x1.a9c848ac4125bp-6
1041=0x1.db47955b9924cp-8
1043=-0x1.dc04b9316f39ep-10
1044=-0x1.e8e1f98521212p-6
1045=0x1.b957623365deap-5
1046=-0x1.89a89c1c76bedp-6
1047=-0x1.02c0784cbf02p-9
1048=0x1.d7abf022d7028p-8
1049=-0x1.28e2bff9b575p-7
1050=-0x1.bf6a9018bd0efp-6
1051=0x1.742fb697730d3p-6
1052=-0x1.0b771b74f5334p-7
1053=-0x1.6a072d4c52badp-7
1054=0x1.adb9a0831f8a2p-7
1055=-0x1.f45441c63e0cap-9
1056=-0x1.1d1bca075c48ap-7
1057=0x1.4f7d044d4b148p-7
1058=-0x1.89025184c43dep-12
1059=-0x1.4db05384860a5p-8
1060=0x1.3fff1f5773005p-8
1061=-0x1.085017acb94b4p-15
1062=-0x1.0a68fd9e033b4p-9
1063=0x1.6a64d4538b85bp-7
1064=-0x1.20db061ea0151p-7
1065=-0x1.511176fdda9ap-12
1066=0x1.08a957d5b57bfp-8
1067=-0x1.798e70a788c97p-9
1068=-0x1.6e0b6438836b3p-7
1069=0x1.c2277029fe58fp-6
1070=-0x1.4839e3d617598p-6
1071=-0x1.6c7bc7706cd9cp-6
1072=0x1.5e2d1d0a4afd3p-6
1073=-0x1.721539e3db8e6p-12
1074=-0x1.16ee5eadbff9fp-10
1075=-0x1.7abf7a97e7619p-8
1076=0x1.0c5fc18bf35eep-11
1077=0x1.bfe36e1556334p-13
1079=-0x1.0c37e3857d79ep-9
1080=-0x1.18611249aca9fp-9
1082=0x1.c8560f3f7ef8bp-11
1083=-0x1.c7d1e95140908p-6
1084=0x1.010928ca96e66p-5
1085=-0x1.14dc2c9a895fap-7
1086=-0x1.68dcdc1cfd88dp-8
1087=-0x1.a79ff7e265f1p-7
1088=-0x1.692a7f1c7a003p-8
1089=-0x1.c92d9838aa4e4p-7
1090=0x1.8c90c957befe2p-5
1091=-0x1.ed35c338d934cp-10
1092=-0x1.1a50c82907fcfp-7
1093=-0x1.4f2a85ba5422dp-7
1094=-0x1.6bf619141f943p-8
1095=0x1.8edd9c9207043p-13
1096=0x1.f1538ae2300bdp-11
1097=-0x1.30d20c225e5e1p-7
1098=-0x1.44ade29822dcbp-7
1099=0x1.32add084af03bp-6
1100=-0x1.206560e6d0dbbp-7
1101=-0x1.c08a94e9fb0e6p-14
1102=0x1.8967d40eaac6p-16
1104=-0x1.3185203a85052p-7
1105=0x1.13c4b3e717b16p-6
1106=-0x1.71b85d36c2c05p-8
1107=-0x1.13695a11317a9p-11
1108=0x1.4e412e6e44b27p-7
1109=-0x1.373bcee566a38p-7
1110=-0x1.9e2db3ecef0dcp-8
1111=0x1.91e95bd2c54ffp-8
1112=-0x1.3f2cf9841a06ep-13
1113=-0x1.4d579ca475addp-7
1114=0x1.92191165611f8p-14
1115=0x1.77d5089498587p-10
1116=0x1.6d7bcd5e708edp-12
1117=0x1.4664a4c35902fp-10
1118=-0x1.eb1b05ed33c17p-7
1119=-0x1.0c6756094169dp-6
1120=0x1.f950e0cd6a8c3p-6
1121=-0x1.d98ab7fde68efp-7
1122=-0x1.103845d2b3ac7p-6
1123=0x1.425ab72160996p-6
1124=-0x1.8eba60b2e76f1p-8
1125=-0x1.b4b4b9193f674p-8
1126=0x1.554fbf3d3b763p-7
1127=-0x1.aea9079ca04d5p-9
1128=-0x1.2bbe88418d0edp-13
1129=0x1.ae52668bf4f4p-15
1131=-0x1.2f256bc082561p-16
1132=0x1.5d691be78b5e3p-8
1133=-0x1.68ead7e9b6222p-8
1134=-0x1.745439da56c8bp-8
1135=-0x1.2c5120571b51p-8
1136=0x1.d14951bc0741ap-7
1137=0x1.be430179b2094p-7
1138=-0x1.7f4dd5ed6aaap-8
1139=-0x1.2254c944d021bp-7
1140=-0x1.5c366bd32c82bp-7
1141=0x1.426d98b0103cdp-6
1142=-0x1.285c680289c69p-7
1143=-0x1.647d91fd944c6p-7
1144=0x1.229b547573df8p-6
1145=-0x1.18fb6bd24c4c7p-8
1146=-0x1.9bec5dff2c986p-8
1147=0x1.12f4a45c7af61p-7
1148=-0x1.e326f40b3f045p-9
1149=-0x1.a06f38ca18adcp-14
1150=0x1.7c9e2a732ac98p-15
1151=-0x1.2d523325058fcp-11
1152=-0x1.2c8ffea855ea7p-10
1153=0x1.d12bc81b6ff2fp-8
1154=-0x1.a2c251235f769p-8
1155=-0x1.b675fe84d0b5ap-8
1157=0x1.9f1b8f9da489p-7
1158=0x1.94e7691588d7ep-7
1159=0x1.f9202840ed4fp-14
1160=-0x1.65493c2257efap-7
1161=-0x1.845b9f5c60ff6p-7
1162=0x1.76fdb76f21533p-6
1163=-0x1.695771f776d0cp-7
1164=-0x1.a70608088e1cap-7
1165=0x1.fc7aa5a79592fp-7
1166=-0x1.3e4dbfedc8c7ep-8
1167=-0x1.c6ee159795bf3p-8
1168=0x1.0037c7051beb4p-9
1169=0x1.e373e16c151bbp-9
1170=-0x1.4c0652d29aefp-13
1171=-0x1.b0eda1aa8bc25p-9
1172=0x1.5a4689f7b78cep-7
1173=0x1.534c4f21f6c77p-7
1175=-0x1.944bfb6b570a8p-9
1176=-0x1.05ab665aaa795p-8
1177=0x1.b3a82e4497272p-8
1178=-0x1.608b9dde9e984p-9
1179=-0x1.28d1e834cd4f8p-8
1180=0x1.4da2ac3bc8c3ap-7
1181=-0x1.5552568beb8adp-7
1182=-0x1.7dc9ec8435f42p-7
1183=0x1.5769f332d80eap-6
1184=-0x1.30c19c570f9b6p-7
1185=-0x1.5ba9a68b4da55p-7
1186=0x1.a8637750497dep-7
1187=-0x1.13272aa46474cp-8
1188=-0x1.39c7ea9886e4bp-8
1189=0x1.1024618c70d38p-7
1190=-0x1.a9d770b06869ep-9
1191=-0x1.5f038da6d5957p-9
1192=0x1.4eee63e580fb4p-8
1193=-0x1.c5f8865d3ce4p-9
1194=-0x1.dda63dd52562bp-9
1195=0x1.f93509cfec34bp-8
1196=-0x1.09d12fd0848eap-8
1197=-0x1.0bfc12867339dp-8
1198=-0x1.d38f9d71668e9p-7
1199=0x1.2ceb021f8551ep-6
1200=0x1.1b78cb20f5328p-6
1201=-0x1.96acd63d50299p-7
1202=-0x1.3ff8c4f45f81dp-8
1203=0x1.c89342c82a52cp-5
1204=-0x1.3bd50534d80e5p-5
1205=-0x1.19584c616f0bbp-6
1206=-0x1.60d51be97774cp-8
1207=-0x1.3c3ead8b875adp-8
1208=-0x1.eff51c560bf8fp-9
1209=-0x1.9c485dafa2177p-7
1210=-0x1.300f71e283988p-6
1211=-0x1.0c1d4b4d761bbp-7
1212=0x1.2df2163b3b7a7p-4
1213=-0x1.2622dca6bc96cp-7
1214=-0x1.540a969620472p-8
1215=-0x1.47f5900bfe902p-8
1216=-0x1.f729e3b587603p-7
1217=0x1.4db684a2f890dp-6
1218=0x1.5e25922818482p-6
1219=-0x1.282c3b3336071p-6
1220=-0x1.aefc35d452ff6p-9
1221=-0x1.1579f93d200b5p-8
1222=0x1.f374c50876f7ep-8
1223=-0x1.bad4216d03d94p-9
1224=-0x1.06d52655afeaep-10
1225=-0x1.7f6445c752512p-10
1226=0x1.946982fa86c5cp-9
1227=0x1.76295f5d2fddap-9
1228=-0x1.284cf6ac4459ap-10
1229=-0x1.453e2eb437afbp-10
1230=-0x1.642495b4a48ecp-10
1231=-0x1.021d35a9b0f1bp-8
1232=0x1.5bb7162baeebep-8
1233=0x1.58d93900e475dp-8
1234=-0x1.088d688985ec9p-8
1235=-0x1.3eec558a26bf9p-10
1236=0x1.0280ee42680dfp-4
1237=-0x1.8a5ebed54975fp-5
1238=-0x1.ea441933afcc2p-7
1239=-0x1.7f7faf759d0b8p-8
1240=-0x1.a1b3fec4d69e9p-8
1241=-0x1.d53fbe69ad30cp-9
1242=-0x1.7ce2fdccdcb9fp-7
1243=-0x1.d49fd42d85c8p-6
1244=-0x1.a13456b317e3ap-8
1245=0x1.4a276055f811cp-4
1246=-0x1.aed09882da14ap-7
1247=-0x1.47928655c7568p-8
1248=-0x1.1e07a0c9baa79p-10
1249=0x1.0aa3f029bc6b4p-9
1250=-0x1.e9faa66cd5953p-11
1251=-0x1.147d89bcea8b1p-10
1252=0x1.f786a47852b06p-10
1253=-0x1.4319e62fa03a6p-11
1254=-0x1.ed939a8e371c3p-11
1255=0x1.43b106646ec35p-10
1256=-0x1.a55a8f408fbb6p-12
1257=-0x1.0f656e8f59p-7
1258=0x1.f447997fc4954p-7
1259=-0x1.c9339acc02ecap-8
1260=-0x1.ddc896427487p-8
1261=0x1.0057bdad13402p-6
1262=-0x1.1182d2ae82244p-7
1263=-0x1.152960e993e0ep-7
1264=-0x1.c615594e29d74p-6
1265=0x1.28671c44146cfp-5
1266=0x1.13ff17782acd7p-5
1267=-0x1.7b03d336fcf0dp-6
1268=-0x1.59ac59e847327p-7
1269=-0x1.8ace85fcd1fe4p-7
1270=-0x1.004c180ffd8e5p-5
1271=0x1.6311d0f1cc93cp-5
1272=0x1.7b6d75532bf7dp-5
1273=-0x1.2e56fa8a73606p-5
1274=-0x1.34118d987834bp-7
1275=-0x1.25827402eb80fp-7
1276=0x1.0104bfc809dfp-6
1277=-0x1.b87d5c057c367p-8
1278=-0x1.502f3bd6710dfp-11
1280=0x1.dc8fd37b5e902p-10
1281=0x1.b391012618ff7p-10
1282=0x1.7feaa7df31a8fp-17
1283=-0x1.c69f4e84929d3p-11
1284=-0x1.edcd067d0bad1p-11
1285=-0x1.55377169a577ap-9
1286=0x1.d1cc2932920fep-9
1287=0x1.cb2cabc5bb64ep-9
1288=-0x1.54a14b227d59ep-9
1289=-0x1.d5a7a9e65176fp-11
1290=-0x1.df6035f0c3798p-11
1291=0x1.a60a610a42e5bp-10
1292=-0x1.682eb37d1b9e6p-11
1293=-0x1.8adf77c1cf82fp-11
1294=0x1.7d0d9c0d5f9f8p-10
1295=-0x1.6ab5e7b2490c8p-11
1296=-0x1.92a294563bba2p-11
1297=0x1.793da428e6a53p-10
1298=-0x1.5b52db54eae51p-11
1299=-0x1.6198d3b4ca5cep-10
1301=0x1.e283da37decp-13
1302=0x1.4b3552f835675p-13
1304=-0x1.8c7c6c13d2aa2p-13
1305=-0x1.ec37f9da19efep-13
1306=0x1.e63b97537302dp-10
1307=-0x1.2fa200b618abdp-9
1308=-0x1.6a3403316654dp-9
1309=0x1.5ec07d2f638a2p-8
1310=-0x1.522b8103b7173p-9
1311=-0x1.6ae7336dcb3dap-9
1312=0x1.1692029a6dd89p-9
1313=-0x1.96afcb3b99635p-12
1314=-0x1.601862d805d05p-12
1315=-0x1.188dda2c1b52cp-14
1316=0x1.f684d4777e168p-11
1317=-0x1.0f169b0693688p-11
1318=0x1.5557a90fe47f6p-15
1320=0x1.c6b032706037ap-11
1321=-0x1.1fddedff1c035p-15
1322=-0x1.45e485df550aep-11
1323=-0x1.3bd4360f3eeb2p-16
1324=0x1.24d55d4c58de7p-11
1325=-0x1.75a647c075a41p-11
1326=-0x1.68cdb48841762p-11
1327=-0x1.ff6ab20bc8fe2p-10
1328=0x1.5b0a3c519e872p-9
1329=0x1.5d236c6a5f3dcp-9
1330=-0x1.f746cc68fa9e3p-10
1331=-0x1.817a4030e10e1p-11
1332=-0x1.bd491e277c1b1p-11
1333=0x1.795fa3d1dda8cp-10
1334=-0x1.30f050d5988b8p-11
1335=-0x1.589a9cc3df347p-11
1336=0x1.39027d2718a44p-10
1337=-0x1.adc43b4bf9449p-12
1338=-0x1.ec7ad7b2606c4p-12
1339=0x1.affd802bb3cb1p-11
1340=-0x1.6bfd38c92062p-12
1341=0x1.94f6b009d2c36p-20
1342=-0x1.abdfb42931c5cp-18
1347=-0x1.19d8d77c4f679p-18
1348=-0x1.4da0e0d0254d7p-15
1349=0x1.d5b7243325aeep-15
1350=0x1.d01b99a93e9b6p-15
1351=-0x1.535c4572691afp-16
1352=-0x1.33055eb12186ap-16
1353=0x1.d01b99a93e9b6p-15
1354=-0x1.535c4572691afp-16
1355=-0x1.33055eb12186ap-16
1359=-0x1.cd9d371fa9d1ep-18
1361=-0x1.4bbf62094441cp-18
1362=0x1.4c837d58c6b0cp-14
1363=-0x1.e1309e9cff841p-18
1365=-0x1.b99a173df0002p-17
1366=-0x1.1e3ef1dae5ad7p-14
1367=0x1.7b0e8e09fd489p-14
1368=0x1.6f7440356545cp-14
1369=-0x1.24a26d83f60d7p-14
1370=-0x1.2982b4336fc68p-17
1371=-0x1.79778a5e19591p-17
1372=0x1.cfa9ddf172693p-19
1374=-0x1.6c33028ec565dp-11
1375=-0x1.dc1938a680b2bp-11
1376=0x1.04ac518bb20d5p-9
1377=0x1.e642d79dbc649p-10
1378=-0x1.6bf934ea72983p-11
1379=-0x1.bf31558ca44acp-11
1380=-0x1.eaa30ebdcabb2p-11
1381=-0x1.5f4e42d8df116p-9
1382=0x1.db187cb1fb6d2p-9
1383=0x1.e78ad2fcd774ep-9
1384=-0x1.763c1221a8333p-9
1385=-0x1.c0b52ac616557p-11
1386=-0x1.d37b012eee79cp-11
1387=0x1.b5f30c758ccc8p-10
1388=-0x1.93e53f158473dp-11
1389=-0x1.be4533f6658a3p-11
1390=0x1.e31251972507bp-13
1391=0x1.58af21945231bp-14
1392=0x1.22623dd8ff943p-14
1393=0x1.3b9bd50fa2ed4p-16
1394=-0x1.b0d5a86b1d2a7p-12
1395=-0x1.f2dfb22b30095p-11
1396=-0x1.4c296dbf8707cp-10
1397=0x1.6630ab3d30e61p-9
1398=0x1.499ed92e6b6ebp-9
1399=-0x1.f8bbb4ef3fa3bp-11
1400=-0x1.2df74786441fbp-10
1401=-0x1.4e8062e578799p-10
1402=-0x1.dffde995c160dp-9
1403=0x1.442fc89913a6p-8
1404=0x1.487174aeac93dp-8
1405=-0x1.fc8b05bdc204p-9
1406=-0x1.266cdaebdae3ap-10
1407=-0x1.1b6ad3339ae4ep-10
1408=0x1.129912a5a8efp-9
1409=-0x1.078465c4639bep-10
1410=-0x1.183849e7b28p-10
1411=0x1.5adac13389ce8p-10
1412=-0x1.c3cd0fb458dbdp-12
1413=-0x1.24ea9f65fba9ep-11
1414=0x1.306bf3764afb2p-16
1415=0x1.8e2797135bc91p-11
1416=-0x1.fdf83dced3deap-12
1417=-0x1.c1a8500205cdp-17
1418=0x1.510a24233690ap-10
1419=0x1.339d3cd5d9688p-10
1421=-0x1.36cfede62318dp-11
1422=-0x1.5423e06c0163cp-11
1423=-0x1.ecb01a332d8a4p-10
1424=0x1.4c827b5e40c8cp-9
1425=0x1.4594309ab3484p-9
1426=-0x1.eb9a2d4db17cfp-10
1427=-0x1.3a968f28c3817p-11
1428=-0x1.2be2b01e77082p-11
1429=0x1.0bb6989a382d3p-10
1430=-0x1.ce0950dea5525p-12
1431=-0x1.0adae4a72b89cp-11
1432=0x1.0b79efc794b34p-10
1433=-0x1.079322415738cp-11
1434=-0x1.25cca3a33bd75p-11
1435=0x1.137221fc5b8fcp-10
1436=-0x1.7eb78b0dd1932p-12
1437=0x1.2733fb9fee173p-13
1440=-0x1.33dcfe4b9b123p-17
1441=0x1.699c8796108fep-12
1442=-0x1.0265c440d19c1p-11
1443=-0x1.24f6b4c78d876p-11
1444=0x1.8b5f611230ecep-11
1445=-0x1.0f9a6ae282c47p-12
1446=-0x1.556e206714907p-12
1447=0x1.cc46283c1548ep-11
1448=-0x1.4b6851cdb02f4p-11
1449=-0x1.3dbaa66121bbep-11
1450=0x1.0e5848346566ep-10
1451=-0x1.4356038192d98p-12
1452=-0x1.7717a20eb5e0dp-12
1453=0x1.7f2d899a9e379p-11
1454=-0x1.7fc0814a9fc9fp-12
1455=-0x1.b76b0e89358e9p-12
1456=0x1.7b9852a52cd34p-12
1457=-0x1.6e3fee661a11ep-19
1458=-0x1.3463b3c7f147p-11
1459=-0x1.3882000b755f2p-10
1460=0x1.10ce8a76bacfcp-9
1461=0x1.fafcdbaf06e98p-10
1462=-0x1.405aef1a3ed6ap-10
1463=-0x1.70be0082e979ep-11
1464=-0x1.a655706de6cefp-11
1465=-0x1.31886900532c6p-9
1466=0x1.9c3f3b45768b3p-9
1467=0x1.b31080e44c86p-9
1468=-0x1.54a6452079d1cp-9
1469=-0x1.75231668a425ep-11
1470=-0x1.6f7ae5acbc61ep-11
1471=0x1.4d92eb098a24p-10
1472=-0x1.272517bfb1422p-11
1473=-0x1.3c8e093ebd9c3p-11
1474=0x1.d38c7ea9a0312p-12
1475=-0x1.14b63aacab32p-14
1476=-0x1.021eb26f33402p-13
1477=0x1.2eed3ffe06765p-12
1478=-0x1.33f44299baea2p-13
1479=-0x1.6e18844256fd5p-13
1480=0x1.742598d802a96p-12
1481=-0x1.681b4ad3139b6p-13
1482=-0x1.77faa419eff7ap-13
1483=0x1.8220302c3d8d9p-12
1484=-0x1.7a2e59a3f069fp-13
1485=-0x1.7f8484fe56af9p-13
1486=-0x1.63b4ed63117e9p-11
1487=0x1.c7ebc6388ed13p-11
1488=0x1.a9fc6c5ae4deep-11
1489=-0x1.2f031a27347e4p-11
1490=-0x1.d9cde63426ccap-13
1491=-0x1.cd9ffbe8eedf7p-13
1492=-0x1.a0ecf3de6e8c5p-11
1493=0x1.0c6d65bfa878fp-10
1494=0x1.ef0f7502fb8abp-11
1495=-0x1.8eb33bf9b967ap-11
1496=-0x1.6f59818a6dd15p-13
1497=-0x1.6e27aa6e23191p-13
1498=0x1.be6d93da86712p-13
1499=-0x1.6109608ab16f2p-14
1500=-0x1.61a5041441953p-15
1501=0x1.a4de4b67af0ap-14
1502=-0x1.ac236244a8ceap-15
1503=-0x1.1dc920beda468p-14
1504=0x1.00fd2f23fe5ep-13
1505=-0x1.26ac9b96498a6p-15
1506=-0x1.a48ac9453ab92p-17
1507=0x1.23c99a266ec9dp-16
1508=-0x1.00efd3683fea2p-17
1509=-0x1.9571e924e2e52p-15
1510=-0x1.7d1cf16e5089fp-13
1511=0x1.e7783ca6a259dp-13
1512=-0x1.699fd1478c567p-16
1513=0x1.15472e627f2c4p-14
1514=0x1.9d7e77d5622ap-15
1515=-0x1.d728907590278p-15
1516=0x1.a4c427fb8c1fcp-13
1517=-0x1.3be978d8956e2p-13
1518=0x1.a7248dc60fff6p-13
1519=0x1.8acd722ba8adcp-13
1520=-0x1.6a0fcfc9425f6p-12
1521=0x1.2d47d9c321ccp-20
1522=0x1.870a42e8c1566p-13
1523=-0x1.b4503e850340ep-14
1524=-0x1.0038a58293ddp-12
1525=0x1.0717adc2a98aap-11
1526=0x1.52f5179688e9ap-14
1527=-0x1.94c6e80980f08p-10
1528=0x1.5c2b9dc64f51p-8
1529=-0x1.273a24baeca3dp-8
1530=-0x1.39b58d895814p-10
1531=0x1.0636355f1db42p-9
1532=-0x1.5c9cb47d221bap-10
1533=-0x1.c76f96af6da92p-10
1534=0x1.473ce11ba91a4p-8
1535=-0x1.33ebff3ce4bd1p-9
1536=0x1.cc304a3cbec96p-10
1537=-0x1.b8b17813a2891p-10
1538=-0x1.a7dc0e9c40916p-11
1539=-0x1.aa2ac649ab1d4p-12
1540=0x1.4cbadc001b9acp-11
1541=-0x1.cc7e80d27d784p-13
1542=-0x1.2dd4d6b33d07cp-13
1543=0x1.0a2fdf60d943ap-11
1544=-0x1.9a7c8874ef00dp-12
1546=0x1.4531ddbad967ap-10
1547=-0x1.38cbe94a2dc65p-10
1548=-0x1.077efbba466fep-13
1549=0x1.d6912c4c8ce9dp-13
1550=-0x1.687791c105643p-14
1551=-0x1.4f9616d3ed2a2p-12
1552=0x1.07a86056aa279p-12
1553=0x1.4cc01bd6f3f7fp-15
1554=-0x1.42af475b631aap-10
1555=0x1.5d4948b29f023p-9
1556=-0x1.75a05db687938p-10
1557=-0x1.5919fb8b65555p-16
1559=-0x1.7bdc8145bba93p-15
1560=0x1.9875dec72554p-14
1561=0x1.51ffb04965067p-14
1562=-0x1.151b9a28428ecp-14
1563=-0x1.09bca5feafe04p-10
1564=0x1.e53bbd90a3aaep-11
1565=0x1.711e46dcfcb98p-15
1566=-0x1.09c62c2ca5348p-15
1567=0x1.c367ed1bc19d6p-15
1568=-0x1.0794f782b8737p-16
1569=0x1.63668e7e2ae5p-12
1570=0x1.b0bdcb02b2732p-13
1571=-0x1.f4aa44ea4933ap-14
1572=-0x1.7be9c3c9831f8p-15
1573=0x1.888ddbbb6fa73p-14
1574=-0x1.a2965a5482e72p-15
1575=-0x1.f3d409a303c3fp-14
1576=-0x1.d3d4374fc26afp-15
1577=0x1.80aee185b2a2fp-13
1578=0x1.73f1a8af35253p-13
1580=-0x1.2c89936cf30bfp-16
1581=-0x1.4df2c24e2d411p-16
1582=-0x1.292589bc9e6d2p-11
1583=0x1.3eb83cef056c4p-11
1584=0x1.3db54878ece9p-11
1585=-0x1.929d8b1cf51a7p-12
1586=-0x1.bf82a90f2eb91p-13
1587=-0x1.f66564a755fd4p-13
1588=0x1.ed3960562eeb9p-12
1589=-0x1.d1f5f96a6d224p-13
1590=-0x1.d267ca45594p-13
1591=0x1.a7336c064dbf3p-12
1592=-0x1.69e7ab2ca789cp-13
1593=-0x1.925ff0ba67deep-13
1594=0x1.de48a901bdaa6p-13
1595=-0x1.e7638809361b1p-15
1596=-0x1.591ef7dcf8bc3p-10
1597=-0x1.0693b51ca602ap-9
1598=0x1.0e5cbd113fdccp-8
1599=0x1.f5aa01789653p-9
1600=-0x1.c6a1a79084887p-10
1601=-0x1.9851378f3261ap-10
1602=-0x1.caacd7f29927bp-10
1603=-0x1.6a0cf3d5087d4p-8
1604=0x1.dd48e4e6839cap-8
1605=0x1.ebcdb9ffe4386p-8
1606=-0x1.7e695c6366c3p-8
1607=-0x1.b34e8a1ea2828p-10
1608=-0x1.bad26c86c6acep-10
1609=0x1.999405eaac12cp-9
1610=-0x1.7612b2fb3e238p-10
1611=-0x1.9c6d651b8bfefp-10
1612=0x1.005b7abf013p-9
1613=-0x1.4d37f6d9f48d1p-11
1614=-0x1.7063e0c185a22p-11
1615=0x1.e990e18cd8fd5p-10
1616=-0x1.4c4de44a82efp-10
1617=-0x1.8919914d2ee3p-19
1618=0x1.6e7b1bcaa61f6p-19
1619=-0x1.c23e1a7394684p-16
1620=-0x1.73ae597c63e4cp-15
1621=0x1.79fd35646e6c7p-13
1622=-0x1.39faea196ff98p-13
1623=-0x1.53cbcf5d7a48ep-13
1624=0x1.f7b6aa4e9b458p-17
1625=0x1.fdca29dad34bcp-19
1626=-0x1.dc7df284fcdep-17
1627=0x1.4ddb0ae504676p-15
1628=-0x1.e1c0d77062cbdp-13
1629=-0x1.18a4ca0e5931ap-12
1630=0x1.cc439f60762f5p-12
1631=-0x1.17ae1f11c6c82p-13
1632=-0x1.45986fe662b5ap-13
1633=0x1.39320498f61fcp-12
1634=-0x1.1dc5b993bbe8ep-13
1635=-0x1.56dcf2e69e05cp-13
1636=0x1.36b6a72927a41p-12
1637=-0x1.8cb7b2da2e2f3p-14
1638=-0x1.01e5b6c7ad9f8p-11
1639=-0x1.950b6b45aef9bp-11
1640=0x1.94f15df40d876p-10
1641=0x1.75a24535759fap-10
1642=-0x1.26a73b034d6e1p-11
1643=-0x1.3d0334dedb88ap-11
1644=-0x1.617c62e540104p-11
1645=-0x1.131d69d924c12p-9
1646=0x1.6c9df8bc1e6f9p-9
1647=0x1.761339f9399fbp-9
1648=-0x1.20cb87e1070e2p-9
1649=-0x1.5098efba239e1p-11
1650=-0x1.5e095df526a41p-11
1651=0x1.48228466b8ab2p-10
1652=-0x1.2db5d231a409bp-11
1653=-0x1.3342e28df905ep-11
1654=0x1.a49d24107b3c1p-12
1655=-0x1.6a6af52f9442p-21
1656=-0x1.388653e75a5bep-16
1657=0x1.f794ca84e768p-21
1659=-0x1.2395e4cbadb52p-11
1660=-0x1.bcfeb2d9e81f7p-11
1661=0x1.c0ee231910b03p-10
1662=0x1.9fd2e17d5fbep-10
1663=-0x1.5b4bd83d971b8p-11
1664=-0x1.523a252334daep-11
1665=-0x1.77207229c9051p-11
1666=-0x1.20e6ff95e9e4dp-9
1667=0x1.7fd0924a05cfbp-9
1668=0x1.85a16c5dfb418p-9
1669=-0x1.2cd7b6208e1d1p-9
1670=-0x1.5ea1004f0decdp-11
1671=-0x1.69c44fff66306p-11
1672=0x1.40e70d31ef2c6p-10
1673=-0x1.1383f1bdd17bfp-11
1674=-0x1.3682dcc3fdc61p-11
1675=0x1.2d89ea7b2ce67p-10
1676=-0x1.200b1f8bb55c2p-11
1677=-0x1.3fec42381b843p-11
1678=0x1.912444641e9d4p-11
1679=-0x1.0726ac28dd7afp-12
1680=-0x1.8cb9870ca7876p-12
1681=0x1.057b90f2097f7p-10
1682=-0x1.0dbc7007b1df2p-11
1683=-0x1.1c203e42b0daap-11
1684=0x1.26cac1445d4ebp-10
1685=-0x1.2cef6b9f63175p-11
1686=-0x1.323bc80d4cff4p-11
1687=-0x1.0dc5884925679p-9
1688=0x1.5b75f0762251ep-9
1689=0x1.478271b60d7d7p-9
1690=-0x1.d7009fb04b23p-10
1691=-0x1.6b82aed0f90c6p-11
1692=-0x1.a232e401f64f1p-11
1693=-0x1.455918fad5334p-9
1694=0x1.af074824fc72p-9
1695=0x1.cde6af4a71247p-9
1696=-0x1.7a5452fda8ae6p-9
1697=-0x1.49c3988c7b36ap-11
1698=-0x1.3c91e162f0cbfp-11
1699=0x1.56cb013a67c7ap-11
1700=-0x1.5bece99bfb747p-13
1701=-0x1.3c513bc8b309ep-10
1703=0x1.bbecede22dae8p-9
1704=0x1.97749c18d5c0ap-9
1705=0x1.e91dcefb06392p-20
1706=-0x1.af8a5104d899p-10
1707=-0x1.d9b30fad5a106p-10
1708=-0x1.563e25b250c2ep-8
1709=0x1.cd3ba4b27c1a2p-8
1710=0x1.da091da0d7cc6p-8
1711=-0x1.6fa582bd036dp-8
1712=-0x1.a74b7f3bfe277p-10
1713=-0x1.b247ba6057f92p-10
1714=0x1.8fd572edd1104p-9
1715=-0x1.6b203f27f6d78p-10
1716=-0x1.99e73338dee94p-10
1717=0x1.5cf8de2714da4p-10
1718=-0x1.cf8506404de06p-12
1719=-0x1.080ab7ba337a6p-11
1720=0x1.2bfd2e821f6d8p-10
1721=-0x1.a4a1b1a6e8c28p-11
1722=-0x1.37809f2f76903p-10
1723=-0x1.c7c02ef32ad8cp-10
1724=0x1.deb5bc735ea33p-9
1725=0x1.b8e8b5fe2c773p-9
1726=-0x1.5760e5ffa1089p-10
1727=-0x1.87cfeecea9175p-10
1728=-0x1.b1c33593f1482p-10
1729=-0x1.3640f46aa6305p-8
1730=0x1.a3427ce47757cp-8
1731=0x1.a3d4b2114bf77p-8
1732=-0x1.4354ed31875bcp-8
1733=-0x1.7fbc272bbf112p-10
1734=-0x1.6b9f549983e4dp-10
1735=0x1.41908139642f3p-9
1736=-0x1.153ec185f11dbp-10
1737=-0x1.4885f7d86d90bp-10
1738=0x1.448cbe63a6334p-9
1739=-0x1.3e50989b8b836p-10
1740=-0x1.6010f0fd44d1p-10
1741=0x1.adfee491e9185p-10
1742=-0x1.12fa9208da133p-11
1743=-0x1.809f4d0bab48fp-13
1744=-0x1.170889abc223ep-13
1745=0x1.c14f6d510c869p-12
1746=0x1.72808aacade82p-12
1748=-0x1.7de44b643d663p-12
1749=-0x1.97d4a000324b6p-12
1750=-0x1.316060296fc0bp-10
1751=0x1.9998747ccfaaep-10
1752=0x1.897ab8046155fp-10
1753=-0x1.29100757a86p-10
1754=-0x1.789f1165967dep-12
1755=-0x1.796157ce32666p-12
1756=0x1.5554bc1c0295cp-11
1757=-0x1.283c6f1c85699p-12
1758=-0x1.5f5fbd1459faep-12
1759=0x1.5c9f540f02938p-11
1760=-0x1.50d339bc5dd16p-12
1761=-0x1.726b8f669e531p-12
1762=0x1.559418c0e07b3p-11
1763=-0x1.2fb0f0cdd54b7p-12
1764=-0x1.1c0f17aeeb3aap-13
1766=0x1.856469728fb35p-12
1767=0x1.628b406a10917p-12
1769=-0x1.3e7a90dc2ab1fp-13
1770=-0x1.68bd160585db4p-13
1771=-0x1.2b1d2d147033ep-11
1772=0x1.89d24b3c78588p-11
1773=0x1.8f048572e9f9ep-11
1774=-0x1.2abb71e1bd83bp-11
1775=-0x1.7f0cebaa17225p-13
1776=-0x1.aed21eba3a171p-13
1777=0x1.77602cd8fc525p-12
1778=-0x1.2dd6d85d23d73p-13
1779=-0x1.2680f867fe2b2p-13
1780=0x1.1a8c54c15a8c6p-12
1781=-0x1.f9009d003869ap-14
1782=-0x1.15048b495b17ap-13
1783=0x1.5ae9f22a8fe64p-13
1784=-0x1.a36c4feb0aac9p-15
1785=-0x1.e1e6329160836p-13
1786=-0x1.3325d5889edp-21
1787=0x1.0ce6957adf55ap-11
1788=0x1.e77773504d776p-12
1789=0x1.5b87c1cc8735bp-18
1790=-0x1.31941c1e9ed3dp-12
1791=-0x1.60c3e48ce2dcbp-12
1792=-0x1.084385d827db4p-10
1793=0x1.62b76b4eb3ea8p-10
1794=0x1.71afa86aa1535p-10
1795=-0x1.18cefa0059546p-10
1796=-0x1.5a77085bd2996p-12
1797=-0x1.7ddf156bd9d63p-12
1798=0x1.53d95cc5e2692p-11
1799=-0x1.20c7f2d29d9b3p-12
1800=-0x1.45bc4b8ccf76fp-12
1801=0x1.31a189c1e1042p-11
1802=-0x1.147b16a9a5347p-12
1803=-0x1.2ae9824cf981ap-12
1804=0x1.6c09d25e1cdfp-12
1805=-0x1.a3ceb797f951cp-14
1806=-0x1.9ffdc3e69f082p-17
1807=0x1.0963fd68fb82ap-15
1808=-0x1.641c0813a394ap-17
1809=-0x1.0010eec737f57p-15
1810=0x1.902430d928bc6p-14
1811=-0x1.e4434274a5d0ap-15
1812=-0x1.ae6a8b20863c4p-14
1813=0x1.85abae361b4f6p-13
1814=-0x1.0b1880c4d29e2p-14
1815=-0x1.89adad15f5a84p-14
1816=-0x1.3ee205600ab08p-18
1817=0x1.859db7329430ap-14
1818=-0x1.17ca0c0f31f3ep-14
1819=-0x1.5f10ef0b2111cp-13
1820=0x1.ebeeff77a5f44p-13
1821=0x1.3a7dddd5ee63cp-14
1822=0x1.dc4deb36a737ep-14
1823=-0x1.d89dfb1c43dd6p-13
1824=0x1.8d2c59406fa18p-13
1826=-0x1.e6446dca3a6a8p-13
1827=-0x1.fd8f574656afbp-13
1828=0x1.a74eecef08b96p-12
1829=-0x1.3ef71ffd200bap-13
1830=-0x1.6323ce20f135p-12
1831=0x1.e6ca54f797086p-11
1832=-0x1.2929abdf7c63p-11
1833=-0x1.a21c35c2bb954p-14
1834=0x1.8ea585ca35e7p-13
1835=-0x1.02d012d554511p-14
1836=-0x1.235246ac199dap-11
1837=0x1.31f34859d66e3p-10
1838=-0x1.3c0e7160ec906p-11
1839=-0x1.2afbcc5f42c6cp-16
1840=0x1.7e95dccb3b8dcp-14
1841=-0x1.44e739074d54dp-15
1842=-0x1.d3fab7970e0d5p-12
1843=0x1.690fbfae6e9b8p-11
1844=-0x1.fd7d80b84ee12p-13
1845=-0x1.67b9eab2aeddp-15
1846=-0x1.d5049cf6da0b5p-13
1847=0x1.de0e3b41d0921p-13
1848=-0x1.1a9c89ad4808cp-11
1849=0x1.f571614b44e38p-13
1850=0x1.48f11ac9878bcp-13
1851=0x1.37cb35f040843p-14
1852=0x1.1def70d413d11p-11
1853=-0x1.5e9f7f3f6d7bap-11
1854=-0x1.c479b69b3717ap-11
1855=0x1.b74451e75a6e5p-11
1857=-0x1.ac576d8b50ccap-14
1858=0x1.552d159747914p-9
1859=-0x1.4eef6d17df183p-9
1860=-0x1.ac576d8b50ccap-14
1861=0x1.552d159747914p-9
1862=-0x1.4eef6d17df183p-9
1863=-0x1.851cbd75eefep-12
1864=-0x1.9ae6332e61495p-13
1865=-0x1.853d730fba4d5p-12
1866=-0x1.e971cbf24cb36p-11
1867=0x1.d56bbe8686a66p-9
1868=-0x1.dc4a080f6b2a6p-10
1869=0x1.4bc7b0ab247ebp-10
1870=-0x1.9a7f2be459c3bp-11
1871=-0x1.6efe72d6f729cp-12
1872=-0x1.1fe93f8557af3p-9
1873=0x1.72e3676576b04p-10
1874=0x1.4c7ccd2f3a962p-11
1875=0x1.51e99093f74fbp-11
1876=0x1.7876d0bd22a3ep-13
1877=-0x1.33a6464ba24dep-11
1878=-0x1.5f67197082ed2p-11
1879=0x1.3eb1c6aa6c8f4p-10
1880=-0x1.1a3afbf662bffp-11
1882=-0x1.1acb54fa35c42p-16
1884=-0x1.015bd733a9d9cp-23
1885=0x1.7e2dd49811751p-16
1886=-0x1.207df905dbdb5p-15
1887=-0x1.3dcd4acdbc0c7p-15
1888=0x1.59bb581faca4cp-14
1889=-0x1.bbb304d2cc5fcp-16
1890=-0x1.6045fd2b4f0bp-18
1891=-0x1.f0b9d6dcfa54ap-18
1892=0x1.15f27ffa411bfp-15
1893=-0x1.6912f2c0168d3p-15
1894=0x1.9a890b8a537e4p-14
1895=-0x1.83a199ea25915p-15
1896=0x1.0662c07d9705fp-15
1898=-0x1.3d83e76c34a07p-16
1899=-0x1.b7ac9b772f96ap-15
1900=0x1.84824c3868c5p-15
1901=-0x1.4a535aa599ed1p-18
1902=-0x1.0f18a23ba1743p-16
1903=0x1.1403c1d2c5cf7p-15
1904=-0x1.ae1a3189f48f3p-17
1905=-0x1.17a4d2995cb6dp-17
1906=0x1.23ee389213db6p-15
1907=-0x1.291d5a00811a4p-16
1908=-0x1.f48a4dd449266p-17
1909=0x1.91b48a5b99dd7p-15
1910=-0x1.143758b3d2582p-15
1911=-0x1.bd647d7a0a3cfp-16
1912=0x1.9fa6762899414p-19
1913=0x1.01c2958df692fp-18
1914=-0x1.2b2d3db5b2e11p-15
1915=0x1.b6bc1a9fc4892p-16
1916=-0x1.311462082833fp-20
1917=-0x1.a73b880b35d7bp-19
1918=0x1.9fe69d4a04b2cp-16
1919=-0x1.d690d9cff6e5fp-17
1920=-0x1.79621061f0956p-16
1921=0x1.0533d50898c17p-15
1922=-0x1.996bcce085a04p-17
1923=0x1.21c28cae25b6fp-16
1924=-0x1.2f1c7646c31c2p-15
1925=0x1.e7d740495b2b6p-17
1926=0x1.9120a6250fad8p-20
1927=0x1.0c952c6fe0affp-17
1928=-0x1.8b96d333b13f6p-15
1929=-0x1.f801771de6217p-15
1930=0x1.0bc72812efe98p-13
1931=-0x1.ff3a51fd9fe2fp-15
1932=-0x1.614561d2848c4p-14
1933=0x1.ec0f9fd6330d4p-13
1934=-0x1.5a120fa947cacp-13
1935=-0x1.95714dc2cbc4cp-13
1936=0x1.f97a231a0dfbep-13
1937=-0x1.1f24a8f935fb6p-14
1938=-0x1.b98bc0841b52ep-14
1939=0x1.03dc72f8ce1b5p-13
1940=-0x1.66d9cf7577442p-16
1941=-0x1.55a16cc90d1c1p-15
1942=0x1.84fc0c05c2ce8p-14
1943=-0x1.5977519d7bb0cp-15
1944=-0x1.530e9b0245784p-14
1945=-0x1.0845cf64b82b5p-12
1946=0x1.6615277296e55p-12
1947=0x1.4d01a2c204216p-12
1948=-0x1.b832ae93cef56p-13
1949=-0x1.9f7268ab3d2e2p-14
1950=-0x1.e2970f108c15cp-14
1951=-0x1.689353aae7ccp-12
1952=0x1.ea44c8bc582d5p-12
1953=0x1.03b42c00bdab3p-11
1954=-0x1.9fd7a56e67219p-12
1955=-0x1.7a1405171b62fp-14
1956=-0x1.3c7a33fdc0082p-14
1957=0x1.40d1082053cacp-13
1958=-0x1.21e47b2506e2cp-14
1959=-0x1.2669031e00669p-14
1960=0x1.3608d523d6646p-13
1961=-0x1.230cbd7d23453p-14
1962=-0x1.40bd21cb2af4p-14
1964=0x1.184b5b43ca8f8p-14
1965=-0x1.342dad49a2fc2p-11
1966=-0x1.e1655965939f8p-11
1967=0x1.efea1d0ea874cp-10
1968=0x1.ca63925bdbd39p-10
1969=-0x1.66fb4d34dea31p-11
1970=-0x1.94043fd8d957p-11
1971=-0x1.bc7c4beca6d8fp-11
1972=-0x1.3e0888cda9f57p-9
1973=0x1.ae4911f27d578p-9
1974=0x1.afbab9f8a96afp-9
1975=-0x1.4989c191f5dfdp-9
1976=-0x1.943e08f427838p-11
1977=-0x1.93c8d51521565p-11
1978=0x1.6b631ba94316dp-10
1979=-0x1.3e778996be2f8p-11
1980=-0x1.4a760aac2bdeep-11
1981=0x1.c709222dc6edep-12
1982=-0x1.bfa60e08b8bcp-17
1983=-0x1.06446c63be23bp-14
1984=0x1.c4f53cfc1ce7p-18
1986=-0x1.ff94131e02128p-17
1987=0x1.15cfd3e9f571cp-16
1988=-0x1.092a6cc2505b6p-18
1989=-0x1.caf079cf59662p-17
1990=0x1.490fa6db6b707p-15
1991=-0x1.4328e12c989ep-16
1992=-0x1.2d0beba9d4afcp-15
1993=0x1.5a254a78b7421p-14
1994=0x1.95e903673ce3cp-16
1995=0x1.7a284364f8c4p-21
1996=0x1.9add07699445cp-13
1997=-0x1.ae6e924793f5ep-13
1998=-0x1.9e1c79b878ccbp-13
1999=0x1.025b6977ea188p-12
2000=-0x1.9b9958af6660cp-15
2001=-0x1.a905623b9d384p-16
2002=0x1.d973c4e907197p-15
2003=-0x1.164b224e1a978p-15
2004=-0x1.427358c277c54p-17
2006=-0x1.30f8c0ae79304p-17
2007=-0x1.9a418d0036778p-20
2008=0x1.260a0cfe36154p-19
2009=0x1.401048d2df66ap-15
2010=-0x1.332f76852db92p-15
2011=0x1.0136a9c3641abp-12
2012=-0x1.fcf5cee2855cap-13
2013=-0x1.5732363f0606p-12
2014=0x1.5f930f33684aap-12
2015=0x1.f7896b69e4e82p-15
2016=0x1.4faa882940fb3p-15
2017=0x1.51d6a4dfc1df6p-12
2018=-0x1.9736bce1eb901p-12
2019=-0x1.3a83e5b58a52cp-12
2020=0x1.6735ba29ff9bp-15
2021=0x1.91456ce8c8f12p-13
2022=0x1.7df6499dd65dep-13
2023=-0x1.9e0f6563a9837p-12
2024=0x1.b1613e89480aap-13
2025=0x1.9fa3bc4dc6bfp-13
2026=-0x1.a544e739ae98dp-14
2027=-0x1.cfbd7840ae7eap-16
2028=0x1.a346337a17d51p-15
2031=-0x1.123fd7793f9eap-22
2032=0x1.398f80cb1598dp-13
2033=-0x1.d833c930d901ap-13
2034=-0x1.075186298aa3dp-12
2035=0x1.0f460eda3625ap-14
2036=0x1.3248e1b49b099p-15
2037=0x1.7dc10ff07cc14p-19
2038=0x1.960bdc895ea34p-14
2039=-0x1.06522691c7bc7p-12
2040=-0x1.28b45edf3b721p-12
2041=0x1.0acaa162c92bp-11
2042=-0x1.c7aa6532130aap-13
2043=-0x1.022656024df87p-12
2044=0x1.ec2410caeb771p-12
2045=-0x1.526da2c83c88bp-13
2046=-0x1.023e3bf3e699ap-12
2047=0x1.54f666726db22p-12
2048=-0x1.986165ec8d426p-14
2049=-0x1.aa23a31dffae1p-13
2050=0x1.132d4e54d0c1p-16
2051=0x1.7fcf0b4754005p-19
2053=0x1.1c41ffb3d4e87p-14
2054=-0x1.07157a365f8cep-12
2055=-0x1.172e310888009p-12
2056=-0x1.d20742437071p-11
2057=0x1.311219b72d8fep-10
2058=0x1.318e664a0bacep-10
2059=-0x1.c38276259fda3p-11
2060=-0x1.3628fb8fa1a3ep-12
2061=-0x1.3e2bdb7844fe8p-12
2062=-0x1.273b0da043f33p-10
2063=0x1.7908f0d1a88a5p-10
2064=0x1.94bf8f200a44fp-10
2065=-0x1.4fe2e6f599921p-10
2066=-0x1.0a66ef5c756cfp-12
2067=-0x1.126f4ab72bc53p-12
2068=0x1.b8e8c2ed951eap-14
2069=0x1.12d0771513304p-16
2070=-0x1.91d3f78442acdp-15
2074=0x1.c36080a6476bp-16
2075=-0x1.757f670257ebcp-14
2076=-0x1.b60bb8717bd1ep-14
2077=-0x1.4b2a6a45ff431p-13
2078=0x1.4153cb1c307efp-12
2079=0x1.e42a1a642d07p-13
2080=-0x1.f4426710a5333p-14
2081=-0x1.20c691104c416p-13
2082=-0x1.3bb0578521a22p-13
2083=0x1.08ea5b6f87154p-12
2084=-0x1.8819f97ea3a31p-14
2085=-0x1.a8b1cbb110a72p-14
2086=0x1.b0e7946faf743p-13
2087=-0x1.94ee97f918d19p-14
2088=-0x1.b8f8c6fb7ed5fp-14
2089=0x1.868de1d98f306p-13
2090=-0x1.d469e352f1306p-15
2091=-0x1.516133e747634p-14
2092=0x1.6c94fe54ff6ecp-20
2095=0x1.5643f03a8c9fbp-15
2096=-0x1.1f4104438acdfp-13
2097=-0x1.300da4ab4dd4ap-13
2098=-0x1.06d224a753568p-11
2099=0x1.575b6678cd78fp-11
2100=0x1.45a978a2a7665p-11
2101=-0x1.6aaddd6dd1e08p-12
2102=-0x1.6a3a2a347426fp-13
2103=-0x1.8cf74e282336fp-13
2104=0x1.6a3b3e03324b6p-12
2105=-0x1.3567cb43a6abp-13
2106=-0x1.4637b8841d37cp-13
2107=0x1.21114a2cdd23bp-12
2108=-0x1.5a2ac1386adaep-14
2109=-0x1.8d84afb4719efp-14
2110=0x1.9483b9f28d846p-13
2111=-0x1.7d7704c10e304p-14
2119=-0x1.d1aa3f37e0fap-19
2120=0x1.de35a5275e318p-18
2121=0x1.ba95cb14fad56p-18
2122=-0x1.ad35cb56bb8f7p-19
2133=-0x1.1d343584cd0f4p-13
2134=0x1.1101f85917416p-12
2135=-0x1.eba55e1f890acp-14
2136=-0x1.23956762cfe27p-13
2137=0x1.feaf86fe6e6a5p-12
2138=-0x1.6e7725289eecdp-12
2139=-0x1.7eb93d1dc3dbep-12
2140=-0x1.bab0d8b84f8cep-12
2141=0x1.76adf1d651fc6p-11
2142=0x1.56ee8d2b17c7cp-11
2143=-0x1.dc503575e12fp-13
2144=-0x1.1d9fdc0ff4058p-11
2145=0x1.013e6bbe23e9p-22
2146=-0x1.08be587bd71e6p-18
2148=-0x1.725c6ee7f643dp-11
2149=0x1.635e46ff88c24p-10
2150=-0x1.4fda46707491p-11
2151=-0x1.39a70f74d1f5bp-17
2152=0x1.c329c723a3c14p-16
2153=-0x1.2be0c2037b431p-16
2154=-0x1.3dc3c89f34625p-11
2155=0x1.13413413183f2p-10
2156=-0x1.e9354182c6234p-12
2157=-0x1.790102d4d7b81p-15
2158=0x1.e5c4dd9423699p-14
2159=-0x1.3cec57729e41cp-14
2160=-0x1.10e751d84c721p-12
2161=0x1.668641bdc2fd2p-11
2162=-0x1.de14e63243f2ep-12
2163=-0x1.651a8f5424e86p-14
2164=0x1.6ef23a780796ep-12
2165=-0x1.03c471ffc3fa5p-12
2166=-0x1.c480dfbc8df34p-13
2167=0x1.29a06a2d21c94p-12
2168=-0x1.3897b2d036959p-14
2169=-0x1.8ea036d9dcc8p-16
2170=0x1.ad4d30cf1d434p-15
2171=0x1.caec43603acdep-16
2172=0x1.94b49854b8e2ep-15
2173=-0x1.eda6a36fcb9p-21
2174=-0x1.7b42d383c0ab8p-17
2175=-0x1.53d2cf19187bfp-15
2176=0x1.8f5a23fe5244cp-20
2177=0x1.8920961328b04p-15
2178=0x1.43a22fa0b58b6p-15
2179=0x1.616081678d832p-18
2180=-0x1.420db70d91c77p-15
2181=-0x1.501d8833e5c3ap-15
2182=-0x1.a8b5444c14147p-13
2183=0x1.1bc60ea2c809fp-12
2184=0x1.14d0833bfd70cp-12
2185=-0x1.e571f5492a462p-14
2186=-0x1.b27b92bf3485ep-14
2187=-0x1.fc1b88591fd47p-14
2188=0x1.d2ee875216c5p-13
2189=-0x1.8592c115d8448p-14
2190=-0x1.96df0ac38392ep-14
2191=0x1.75d86013ecaa3p-13
2192=-0x1.30a2f02f20512p-14
2193=-0x1.3ae30be58bcacp-14
2194=0x1.b9ddfb2265844p-14
2195=-0x1.f4a8198301bcap-16
2196=-0x1.2298e23b0098ep-17
2198=0x1.4552ee4ff9c1p-17
2199=0x1.e53c744a2e1cdp-18
2200=0x1.303b62c8a3669p-16
2201=-0x1.bfad46b95caaep-15
2202=-0x1.dcba6ec736c6cp-15
2203=-0x1.89c267927f473p-16
2204=0x1.73b233304d6f2p-13
2205=0x1.6920fee40f88fp-13
2206=-0x1.390188fe0089cp-16
2207=-0x1.1ae18d59d2374p-14
2208=-0x1.6e1a0515d0117p-14
2209=-0x1.f1f549bb9e982p-16
2210=0x1.1699f85f12a87p-13
2211=0x1.214e11b8a9117p-13
2212=-0x1.404ca03ce59a1p-15
2213=-0x1.07cf692895414p-14
2214=-0x1.236fa8969eacp-14
2215=0x1.6b440b07ed4a6p-17
2216=0x1.372a54df384a9p-18
2217=-0x1.311c685685e65p-15
2218=0x1.6ddc935198bd4p-21
2221=0x1.6fee6242f6e5dp-16
2222=-0x1.232b2fa55a7a3p-14
2223=-0x1.34776c7939e5bp-14
2224=-0x1.a281438e2d41ep-13
2225=0x1.3210ca5ce678cp-12
2226=0x1.20cd9eec4578ep-12
2227=-0x1.3387ed4d2f7acp-13
2228=-0x1.3031ef0aa8728p-14
2229=-0x1.3f8254f383edbp-14
2230=0x1.39cde1cfdff84p-13
2231=-0x1.0feaa97706933p-14
2232=-0x1.2bbd9b7680458p-14
2233=0x1.2d6b0a77f012cp-13
2234=-0x1.0ae9b4442a6ecp-14
2235=-0x1.246ca025847dep-14
2236=0x1.1ec165cea290cp-13
2237=-0x1.e9cecc8516679p-15
2238=-0x1.6032fa8bf42bep-18
2240=0x1.8932574d874ap-16
2241=0x1.3a240e1bfee2p-16
2242=0x1.6ebab48e8d55bp-18
2243=-0x1.0d71bb4fb3993p-15
2244=-0x1.2ffed1db41ee1p-15
2245=-0x1.578ca155a4162p-14
2246=0x1.31824f12e4517p-13
2247=0x1.da8976c9e0809p-14
2248=-0x1.230e239e0ce7dp-14
2249=-0x1.853308cb9dfb5p-15
2250=-0x1.7f70825d396efp-15
2251=0x1.9b8362ee4992ap-14
2252=-0x1.6f38b914eed8fp-15
2253=-0x1.73d88ef779bcap-15
2254=0x1.8e9fa59425557p-14
2255=-0x1.610931c66611ep-15
2256=-0x1.818c32f4d5635p-15
2257=0x1.7d62c326075fp-15
2258=-0x1.8d3cd94ab6af1p-17
2284=0x1.354172db8c214p-20
2285=0x1.c83735c114b94p-20
2286=0x1.f3a217c9def3cp-20
2290=0x1.7f229a8e08884p-19
2293=0x1.1d6afadf0221fp-19
2301=-0x1.1552a73c7a23p-19
2302=0x1.79ca8c167a2ccp-16
2303=-0x1.6e5373932ab1cp-16
2304=-0x1.25c1e1b3055e4p-15
2305=0x1.b8f089a4512p-15
2306=-0x1.ca62800b3e19p-16
2307=-0x1.690b1b96f6eecp-15
2308=0x1.cb830959e27b6p-14
2309=-0x1.fc5228f2c6459p-15
2310=-0x1.15b6c27a53f3p-14
2311=0x1.170e565779ccbp-12
2312=-0x1.c8e25cf6d0b41p-13
2313=-0x1.8b093a205983cp-13
2314=0x1.4049f278fc7bep-13
2315=0x1.6cba55b409868p-17
2316=0x1.8f6f9d28337f4p-15
2317=0x1.e6616f2a9e05ep-15
2318=-0x1.37b203e86521p-15
2319=-0x1.12d04d79a6f91p-16
2320=0x1.b08ff531c0ba1p-16
2321=-0x1.3ed12fbc45e27p-18
2322=-0x1.f74ad67cb02f7p-19
2323=0x1.5fe1436d17532p-20
2324=0x1.46cf693d1b5f8p-16
2325=0x1.ab8201321fcd2p-17
2326=-0x1.df7f212945df6p-16
2327=0x1.2eed4e5e312fep-17
2329=0x1.11004046524e5p-14
2330=-0x1.1e03d5d7200e6p-14
2331=-0x1.48cb43561ecbbp-14
2332=0x1.911ac33cb906ep-13
2333=-0x1.b53b7dee1dd33p-14
2334=-0x1.48cb43561ecbbp-14
2335=0x1.911ac33cb906ep-13
2336=-0x1.b53b7dee1dd33p-14
2337=-0x1.0c3e732a73afdp-16
2338=0x1.b276636da5818p-15
2339=-0x1.93e4e898ca98dp-16
2340=-0x1.bfcfd225068cp-16
2341=0x1.57f16036ad914p-13
2342=-0x1.cd220266b8a5fp-15
2343=-0x1.35a89e5f557bcp-16
2344=-0x1.9ba1aeaaef556p-16
2345=-0x1.0acde2cef10ffp-17
2346=-0x1.928506e988bf8p-14
2347=0x1.c708bf4cb9bcep-13
2348=-0x1.d75db27ab54b5p-14
2349=-0x1.8b332f364fe55p-14
2350=0x1.d2ff9bbce4f2cp-13
2351=-0x1.f69d430e44914p-14
2352=-0x1.6b4291bdfc868p-14
2353=0x1.9114ca78ae521p-13
2354=-0x1.92b83dfe2aaefp-14
2357=-0x1.5ec4d968f19f7p-18
2358=-0x1.2f14b21db922dp-16
2359=0x1.bbfd5109049b8p-15
2360=-0x1.576700735e5e2p-15
2361=-0x1.e3e0d60cc857cp-15
2362=0x1.f0bc4af2068bp-14
2363=-0x1.35ea57b6ff2acp-14
2364=-0x1.5262b1fcfc8d4p-14
2365=0x1.4699d750daac2p-12
2366=-0x1.0ddc49d2c9277p-12
2367=-0x1.f388fb02807ccp-13
2368=0x1.65a29d96d2f99p-12
2369=-0x1.90e0af9f6eda5p-14
2370=-0x1.80e795698e0b4p-15
2371=0x1.4be1d99a46ba1p-14
2372=-0x1.b8824726842cep-15
2373=-0x1.8d3d89c4f699ap-16
2374=0x1.41e19ee0bccf3p-14
2375=-0x1.f9d53ba8977b2p-15
2376=-0x1.a7a4f6c5c2ed7p-15
2377=0x1.e7ebfb9d9bbep-24
2378=0x1.6266c1ad76f8dp-15
2379=0x1.2bf9b2fa1e2e5p-15
2380=0x1.c12b8dea8ad54p-20
2381=-0x1.b09be0dd9a44ep-15
2382=-0x1.c3ec0b0bb5206p-15
2383=-0x1.a6a02f0b6f87ep-13
2384=0x1.14d94a347bc41p-12
2385=0x1.0649b0f733cdcp-12
2386=-0x1.063ae892001f5p-13
2387=-0x1.4428865bc92bep-14
2388=-0x1.424b66597b8bep-14
2389=0x1.2c0cd856c5017p-13
2390=-0x1.e33f0a3db20eep-15
2391=-0x1.02be506e7d774p-14
2392=0x1.f8746efdbaaefp-14
2393=-0x1.4a1ecd93116eap-15
2394=-0x1.903a1f846019bp-15
2395=0x1.1a3d7c4996257p-13
2396=-0x1.1acdeaec19574p-14
2404=-0x1.0d8af150a78c9p-17
2405=0x1.46fdcbe348d45p-17
2406=0x1.2272d622a0d61p-17
2407=-0x1.4c0b14a97b30fp-19
2413=-0x1.e2d7f3afaa1e4p-18
2414=0x1.6e83f1bbdbeaap-20
2415=0x1.93ee170bbebf9p-20
2416=-0x1.22e324b56f40bp-18
2418=-0x1.1cbc782acacadp-16
2419=0x1.45f8abe8a4fdep-15
2420=-0x1.b3fa80c415eb8p-17
2421=-0x1.e4ddc26b405ddp-17
2422=0x1.4e7e5ac76bccfp-15
2423=-0x1.211e6af05891fp-16
2424=-0x1.032dcc5bb3ba2p-16
2425=-0x1.3ebc539e63e86p-14
2426=0x1.b7722e305035dp-14
2427=0x1.a1cf6a4127bcap-14
2428=-0x1.1dd678192d427p-14
2429=-0x1.2b207bdba26abp-16
2430=0x1.a1cf6a4127bcap-14
2431=-0x1.1dd678192d427p-14
2432=-0x1.2b207bdba26abp-16
2434=-0x1.dbab77ce61fbcp-20
2436=-0x1.5a3099fabed68p-17
2437=-0x1.0d8143e01d0fcp-15
2438=-0x1.3110ec7dae72dp-18
2439=0x1.112c41dde2d42p-13
2440=-0x1.c41f2cb2e7902p-18
2442=-0x1.40ba97658c303p-16
2443=-0x1.b81da924cb4d4p-14
2444=0x1.17d6ec527dbe8p-13
2445=0x1.1104d9d2c856ap-13
2446=-0x1.bc3a43b39c8fcp-14
2447=-0x1.e6eef01cc7f21p-17
2448=-0x1.ad59c1a0e2789p-16
2449=0x1.d8e40d6dfde48p-15
2450=-0x1.73b344664393ap-16
2451=-0x1.7f25e6d94026fp-18
2452=0x1.a067e27ac3035p-16
2453=-0x1.01421b0635404p-16
2454=-0x1.aa2ee3cc43151p-17
2455=0x1.ad3771de2ac3dp-15
2456=-0x1.cd6b380613181p-16
2457=-0x1.4bb9bfdf7967ep-16
2458=-0x1.81c331627b5b4p-14
2459=0x1.fccfd235dcb61p-14
2460=0x1.ec83a85e22c38p-14
2461=-0x1.6d6d42aef8845p-14
2462=-0x1.6b9e81e7d3407p-16
2463=0x1.ec83a85e22c38p-14
2464=-0x1.6d6d42aef8845p-14
2465=-0x1.6b9e81e7d3407p-16
2466=-0x1.b5a81c221a57p-23
2467=-0x1.00434167d925cp-18
2469=-0x1.d866b2f256d64p-17
2470=-0x1.c6b295f775b96p-15
2471=-0x1.543dadd562bfdp-18
2472=0x1.3d1af57643b9bp-13
2473=-0x1.71e31ce25bcbep-17
2475=-0x1.36dc5fce5fa7bp-16
2476=-0x1.c2c452a8c655ep-14
2477=0x1.1bbea0c17bf4ep-13
2478=0x1.156a4caba1553p-13
2479=-0x1.c58fd09188b66p-14
2480=-0x1.e48a9bacb3cfbp-17
2481=-0x1.4cfd56a6b13e1p-16
2483=0x1.d26f137024cafp-17
2488=0x1.98312c8f38964p-21
2491=0x1.433c55a6059bcp-19
2493=-0x1.547d1518c0038p-23
2494=0x1.610a3215fcbc8p-17
2495=-0x1.55be9c00aa7aap-21
2505=-0x1.e6ab229c9df7fp-16
2506=0x1.ed43ed5c9f61fp-15
2507=-0x1.8839bb028b6fcp-16
2508=-0x1.9d94992008eb6p-16
2509=0x1.eddbd703165c8p-15
2510=-0x1.c53d670ab935ep-16
2511=-0x1.a21e61f75339ep-16
2512=-0x1.e385629b7f379p-14
2513=0x1.3d3cf0fc95e74p-13
2514=0x1.2d6728651c823p-13
2515=-0x1.b3ca3cb10113ep-14
2516=-0x1.d1e780cfacaf1p-16
2517=-0x1.05070356c742fp-15
2518=-0x1.3d326e0911829p-13
2519=0x1.908b91795e0acp-13
2520=0x1.882ff8ae43a1ap-13
2521=-0x1.46c8c2b661c1ep-13
2522=-0x1.640f89d77de1ap-16
2523=-0x1.c135e10907aebp-16
2524=0x1.0def45389cd6bp-16
2526=-0x1.242353045cdd9p-19
2528=0x1.8b6a920596f2ap-17
2529=0x1.7c61ed16e59a3p-17
2530=-0x1.1a36be7921298p-16
2535=-0x1.3c8cda6554435p-21
2536=0x1.e57779a5921dfp-16
2537=-0x1.6ccf064256108p-16
2538=-0x1.58d641d56be8cp-16
2539=0x1.5865d328b1342p-16
2540=-0x1.0db4fa3887eeep-23
2542=0x1.ac627dd32b0a1p-22
2554=-0x1.2d4efc50ab03dp-18
2555=0x1.09d94ae0283eep-17
2556=0x1.eb764aaa3568ep-18
2557=-0x1.cb3a9ff638dadp-19
2560=-0x1.7b46a5e01ddbfp-18
2561=0x1.7837ca8322d1dp-17
2562=0x1.2145749d1629p-17
2563=-0x1.60c39cd8479acp-18
2596=-0x1.0d563dbf9ec23p-17
2597=0x1.b84c32223219dp-17
2598=0x1.b53ee952ee8d9p-17
2599=-0x1.17c3826cc87d5p-17
2602=0x1.789bc7d8cd4f8p-22
2653=0x1.098e32271dc6cp-18
2656=0x1.d5f45c69b4a93p-19
2659=0x1.8f6bb6119d3dep-20
2662=0x1.bd5be383e68dcp-20
2692=0x1.3b61a8cad3c22p-20
2695=0x1.918ad4bce0bb6p-17
2696=-0x1.38f2dd07fe32p-22
2697=-0x1.c7341295ed5a2p-20
2698=0x1.ef1f8de936b2cp-20
2770=0x1.1b406f64b5f38p-20
2771=-0x1.78d15ddc99e09p-20
2772=-0x1.afdbf54d870b7p-19
2773=0x1.ebd0ae4bb87fp-17
2774=-0x1.798e1d3aad11bp-19
2776=-0x1.7938184a6814p-21
2777=0x1.deb09a9e6090ep-18
2778=0x1.5f7d5ad162761p-17
2779=-0x1.ad805bfa03f8dp-19
2782=-0x1.463e6ca656e8dp-17
2783=0x1.29b6b09dbf27fp-16
2784=0x1.fd6b608414047p-17
2785=-0x1.6c4110389e694p-17
