#mdl#2#2061
#rdr#18/10/0
1:b,
21:u:code-1LLL =%X[-3,0],
21:u:code-1LL  =%X[-2,0],
21:u:code-1L   =%X[-1,0],
20:u:code-1X   =%X[0,0],
20:u:code-1R   =%X[1,0],
20:u:code-1RR  =%X[2,0],
20:u:code-1RRR =%X[3,0],
13:*100:%x[ 0,1],
13:*100:%x[ 0,2],
13:*100:%x[ 0,3],
13:*100:%x[ 0,4],
13:*100:%x[ 0,5],
13:*100:%x[ 0,6],
13:*100:%x[ 0,7],
13:*100:%x[ 0,8],
13:*100:%x[ 0,9],
14:*100:%x[ 0,10],
#qrk#3
1:T,
1:I,
1:O,
#qrk#852
1:b,
17:u:code-1LLL =_x-3,
17:u:code-1LL  =_x-2,
17:u:code-1L   =_x-1,
15:u:code-1X   =65,
16:u:code-1R   =108,
15:u:code-1RR  =45,
15:u:code-1RRR =90,
7:*100:Lu,
9:*100:28:T,
8:*100:9:T,
9:*100:29:T,
9:*100:26:T,
8:*100:1:T,
9:*100:22:T,
9:*100:10:T,
8:*100:6:T,
9:*100:20:T,
17:u:code-1LLL =_x-2,
17:u:code-1LL  =_x-1,
15:u:code-1L   =65,
16:u:code-1X   =108,
15:u:code-1R   =45,
15:u:code-1RR  =90,
15:u:code-1RRR =97,
7:*100:Ll,
8:*100:2:F,
9:*100:12:F,
8:*100:3:F,
9:*100:21:F,
9:*100:16:F,
8:*100:0:F,
9:*100:23:F,
17:u:code-1LLL =_x-1,
15:u:code-1LL  =65,
16:u:code-1L   =108,
15:u:code-1X   =45,
15:u:code-1R   =90,
15:u:code-1RR  =97,
16:u:code-1RRR =109,
7:*100:Pd,
9:*100:25:T,
9:*100:15:T,
9:*100:13:T,
9:*100:21:T,
9:*100:29:F,
8:*100:9:F,
9:*100:10:F,
15:u:code-1LLL =65,
16:u:code-1LL  =108,
15:u:code-1L   =45,
15:u:code-1X   =90,
15:u:code-1R   =97,
16:u:code-1RR  =109,
9:*100:23:T,
8:*100:4:F,
8:*100:6:F,
16:u:code-1LLL =108,
15:u:code-1LL  =45,
15:u:code-1L   =90,
15:u:code-1X   =97,
16:u:code-1R   =109,
16:u:code-1RRR =110,
9:*100:24:T,
8:*100:7:T,
9:*100:11:T,
9:*100:16:T,
9:*100:27:T,
15:u:code-1LLL =45,
15:u:code-1LL  =90,
15:u:code-1L   =97,
16:u:code-1X   =109,
16:u:code-1RR  =110,
15:u:code-1RRR =32,
8:*100:3:T,
9:*100:11:F,
9:*100:15:F,
9:*100:25:F,
15:u:code-1LLL =90,
15:u:code-1LL  =97,
16:u:code-1L   =109,
16:u:code-1R   =110,
15:u:code-1RR  =32,
15:u:code-1RRR =58,
8:*100:2:T,
8:*100:7:F,
9:*100:26:F,
15:u:code-1LLL =97,
16:u:code-1LL  =109,
16:u:code-1X   =110,
15:u:code-1R   =32,
15:u:code-1RR  =58,
9:*100:19:T,
8:*100:8:F,
16:u:code-1LLL =109,
16:u:code-1L   =110,
15:u:code-1X   =32,
15:u:code-1R   =58,
15:u:code-1RRR =65,
7:*100:Zs,
9:*100:27:F,
9:*100:19:F,
16:u:code-1LL  =110,
15:u:code-1L   =32,
15:u:code-1X   =58,
15:u:code-1RR  =65,
7:*100:Po,
8:*100:0:T,
8:*100:5:F,
8:*100:1:F,
16:u:code-1LLL =110,
15:u:code-1LL  =32,
15:u:code-1L   =58,
15:u:code-1R   =65,
16:u:code-1RRR =101,
8:*100:8:T,
15:u:code-1LLL =32,
15:u:code-1LL  =58,
16:u:code-1RR  =101,
16:u:code-1RRR =114,
9:*100:24:F,
15:u:code-1LLL =58,
16:u:code-1R   =101,
16:u:code-1RR  =114,
16:u:code-1RRR =105,
9:*100:28:F,
9:*100:20:F,
16:u:code-1X   =101,
16:u:code-1R   =114,
16:u:code-1RR  =105,
15:u:code-1RRR =99,
16:u:code-1L   =101,
16:u:code-1X   =114,
16:u:code-1R   =105,
15:u:code-1RR  =99,
9:*100:13:F,
16:u:code-1LL  =101,
16:u:code-1L   =114,
16:u:code-1X   =105,
15:u:code-1R   =99,
16:u:code-1LLL =101,
16:u:code-1LL  =114,
16:u:code-1L   =105,
15:u:code-1X   =99,
9:*100:14:T,
9:*100:12:T,
9:*100:18:F,
16:u:code-1LLL =114,
16:u:code-1LL  =105,
15:u:code-1L   =99,
16:u:code-1RRR =102,
16:u:code-1LLL =105,
15:u:code-1LL  =99,
16:u:code-1RR  =102,
16:u:code-1RRR =111,
15:u:code-1LLL =99,
16:u:code-1R   =102,
16:u:code-1RR  =111,
16:u:code-1X   =102,
16:u:code-1R   =111,
9:*100:14:F,
16:u:code-1L   =102,
16:u:code-1X   =111,
9:*100:17:T,
9:*100:22:F,
16:u:code-1LL  =102,
16:u:code-1L   =111,
16:u:code-1RRR =115,
16:u:code-1LLL =102,
16:u:code-1LL  =111,
16:u:code-1RR  =115,
16:u:code-1LLL =111,
16:u:code-1R   =115,
16:u:code-1RRR =107,
16:u:code-1X   =115,
16:u:code-1RR  =107,
9:*100:17:F,
16:u:code-1L   =115,
16:u:code-1R   =107,
16:u:code-1RRR =108,
8:*100:4:T,
16:u:code-1LL  =115,
16:u:code-1X   =107,
16:u:code-1RR  =108,
16:u:code-1LLL =115,
16:u:code-1L   =107,
16:u:code-1LL  =107,
16:u:code-1RRR =100,
9:*100:18:T,
16:u:code-1LLL =107,
16:u:code-1RR  =100,
16:u:code-1R   =100,
15:u:code-1RRR =83,
16:u:code-1X   =100,
15:u:code-1RR  =83,
16:u:code-1RRR =104,
16:u:code-1L   =100,
15:u:code-1R   =83,
16:u:code-1RR  =104,
16:u:code-1LL  =100,
15:u:code-1X   =83,
16:u:code-1R   =104,
16:u:code-1LLL =100,
15:u:code-1L   =83,
16:u:code-1X   =104,
15:u:code-1LL  =83,
16:u:code-1L   =104,
15:u:code-1LLL =83,
16:u:code-1LL  =104,
16:u:code-1LLL =104,
15:u:code-1RRR =98,
15:u:code-1RR  =98,
15:u:code-1R   =98,
16:u:code-1RRR =117,
15:u:code-1X   =98,
16:u:code-1RR  =117,
15:u:code-1L   =98,
16:u:code-1R   =117,
15:u:code-1LL  =98,
16:u:code-1X   =117,
15:u:code-1LLL =98,
16:u:code-1L   =117,
8:*100:5:T,
16:u:code-1LL  =117,
16:u:code-1LLL =117,
15:u:code-1RRR =45,
15:u:code-1RRR =44,
15:u:code-1RR  =44,
15:u:code-1R   =44,
16:u:code-1RRR =116,
15:u:code-1X   =44,
16:u:code-1RR  =116,
15:u:code-1L   =44,
16:u:code-1R   =116,
15:u:code-1LL  =44,
16:u:code-1X   =116,
15:u:code-1LLL =44,
16:u:code-1L   =116,
16:u:code-1RRR =112,
16:u:code-1LL  =116,
16:u:code-1RR  =112,
16:u:code-1LLL =116,
16:u:code-1R   =112,
16:u:code-1X   =112,
16:u:code-1L   =112,
16:u:code-1LL  =112,
16:u:code-1LLL =112,
16:u:code-1RRR =113,
16:u:code-1RR  =113,
16:u:code-1R   =113,
16:u:code-1X   =113,
16:u:code-1L   =113,
16:u:code-1LL  =113,
16:u:code-1LLL =113,
16:u:code-1RRR =119,
16:u:code-1RR  =119,
16:u:code-1R   =119,
16:u:code-1X   =119,
16:u:code-1L   =119,
16:u:code-1LL  =119,
16:u:code-1LLL =119,
15:u:code-1RRR =81,
15:u:code-1RR  =81,
15:u:code-1R   =81,
15:u:code-1X   =81,
15:u:code-1L   =81,
15:u:code-1LL  =81,
15:u:code-1LLL =81,
16:u:code-1RRR =121,
16:u:code-1RR  =121,
16:u:code-1R   =121,
16:u:code-1X   =121,
16:u:code-1L   =121,
16:u:code-1LL  =121,
16:u:code-1LLL =121,
15:u:code-1RRR =46,
15:u:code-1RR  =46,
15:u:code-1R   =46,
15:u:code-1RRR =91,
15:u:code-1X   =46,
15:u:code-1RR  =91,
15:u:code-1RRR =84,
15:u:code-1L   =46,
15:u:code-1R   =91,
15:u:code-1RR  =84,
15:u:code-1LL  =46,
15:u:code-1X   =91,
15:u:code-1R   =84,
7:*100:Ps,
15:u:code-1LLL =46,
15:u:code-1L   =91,
15:u:code-1X   =84,
15:u:code-1LL  =91,
15:u:code-1L   =84,
15:u:code-1LLL =91,
15:u:code-1LL  =84,
15:u:code-1LLL =84,
16:u:code-1RRR =103,
16:u:code-1RR  =103,
16:u:code-1R   =103,
16:u:code-1X   =103,
16:u:code-1L   =103,
16:u:code-1LL  =103,
16:u:code-1LLL =103,
15:u:code-1RRR =93,
15:u:code-1RR  =93,
15:u:code-1R   =93,
15:u:code-1RRR =68,
15:u:code-1X   =93,
15:u:code-1RR  =68,
15:u:code-1RRR =80,
7:*100:Pe,
15:u:code-1L   =93,
15:u:code-1R   =68,
15:u:code-1RR  =80,
15:u:code-1LL  =93,
15:u:code-1X   =68,
15:u:code-1R   =80,
15:u:code-1LLL =93,
15:u:code-1L   =68,
15:u:code-1X   =80,
15:u:code-1LL  =68,
15:u:code-1L   =80,
15:u:code-1RRR =73,
15:u:code-1LLL =68,
15:u:code-1LL  =80,
15:u:code-1RR  =73,
15:u:code-1LLL =80,
15:u:code-1R   =73,
15:u:code-1X   =73,
15:u:code-1L   =73,
15:u:code-1LL  =73,
15:u:code-1LLL =73,
15:u:code-1RRR =51,
15:u:code-1RR  =51,
15:u:code-1R   =51,
15:u:code-1X   =51,
7:*100:Nd,
15:u:code-1L   =51,
15:u:code-1LL  =51,
15:u:code-1LLL =51,
15:u:code-1RRR =66,
15:u:code-1RR  =66,
15:u:code-1R   =66,
15:u:code-1X   =66,
15:u:code-1L   =66,
15:u:code-1LL  =66,
15:u:code-1LLL =66,
15:u:code-1RRR =50,
15:u:code-1RR  =50,
15:u:code-1R   =50,
15:u:code-1X   =50,
15:u:code-1L   =50,
15:u:code-1LL  =50,
15:u:code-1LLL =50,
15:u:code-1RRR =77,
15:u:code-1RR  =77,
15:u:code-1R   =77,
15:u:code-1X   =77,
15:u:code-1L   =77,
15:u:code-1LL  =77,
15:u:code-1LLL =77,
15:u:code-1RRR =33,
15:u:code-1RR  =33,
15:u:code-1R   =33,
15:u:code-1X   =33,
15:u:code-1L   =33,
15:u:code-1LL  =33,
15:u:code-1LLL =33,
16:u:code-1RRR =118,
16:u:code-1RR  =118,
16:u:code-1R   =118,
16:u:code-1X   =118,
16:u:code-1L   =118,
16:u:code-1LL  =118,
16:u:code-1LLL =118,
15:u:code-1RRR =85,
15:u:code-1RR  =85,
15:u:code-1R   =85,
15:u:code-1X   =85,
15:u:code-1RRR =70,
15:u:code-1L   =85,
15:u:code-1RR  =70,
15:u:code-1LL  =85,
15:u:code-1R   =70,
15:u:code-1LLL =85,
15:u:code-1X   =70,
15:u:code-1L   =70,
15:u:code-1LL  =70,
15:u:code-1LLL =70,
15:u:code-1RRR =74,
15:u:code-1RR  =74,
15:u:code-1R   =74,
15:u:code-1X   =74,
15:u:code-1RRR =69,
15:u:code-1L   =74,
15:u:code-1RR  =69,
15:u:code-1LL  =74,
15:u:code-1R   =69,
15:u:code-1LLL =74,
15:u:code-1X   =69,
15:u:code-1L   =69,
15:u:code-1LL  =69,
15:u:code-1LLL =69,
15:u:code-1RRR =72,
15:u:code-1RR  =72,
15:u:code-1R   =72,
15:u:code-1X   =72,
15:u:code-1L   =72,
15:u:code-1LL  =72,
15:u:code-1LLL =72,
15:u:code-1RRR =87,
15:u:code-1RR  =87,
15:u:code-1R   =87,
15:u:code-1X   =87,
15:u:code-1L   =87,
15:u:code-1LL  =87,
15:u:code-1LLL =87,
15:u:code-1RRR =49,
15:u:code-1RR  =49,
15:u:code-1RRR =57,
15:u:code-1R   =49,
15:u:code-1RR  =57,
15:u:code-1RRR =54,
15:u:code-1X   =49,
15:u:code-1R   =57,
15:u:code-1RR  =54,
15:u:code-1RRR =48,
15:u:code-1L   =49,
15:u:code-1X   =57,
15:u:code-1R   =54,
15:u:code-1RR  =48,
15:u:code-1LL  =49,
15:u:code-1L   =57,
15:u:code-1X   =54,
15:u:code-1R   =48,
15:u:code-1LLL =49,
15:u:code-1LL  =57,
15:u:code-1L   =54,
15:u:code-1X   =48,
15:u:code-1LLL =57,
15:u:code-1LL  =54,
15:u:code-1L   =48,
15:u:code-1LLL =54,
15:u:code-1LL  =48,
15:u:code-1LLL =48,
15:u:code-1RRR =89,
15:u:code-1RR  =89,
15:u:code-1R   =89,
15:u:code-1X   =89,
15:u:code-1L   =89,
15:u:code-1LL  =89,
15:u:code-1LLL =89,
15:u:code-1RRR =71,
15:u:code-1RR  =71,
15:u:code-1R   =71,
15:u:code-1X   =71,
16:u:code-1RRR =122,
15:u:code-1L   =71,
16:u:code-1RR  =122,
15:u:code-1LL  =71,
16:u:code-1R   =122,
15:u:code-1LLL =71,
16:u:code-1X   =122,
16:u:code-1L   =122,
16:u:code-1LL  =122,
16:u:code-1LLL =122,
15:u:code-1RRR =39,
15:u:code-1RR  =39,
15:u:code-1R   =39,
15:u:code-1X   =39,
15:u:code-1L   =39,
15:u:code-1LL  =39,
15:u:code-1LLL =39,
15:u:code-1RRR =82,
15:u:code-1RR  =82,
15:u:code-1RRR =86,
15:u:code-1R   =82,
15:u:code-1RR  =86,
15:u:code-1RRR =78,
15:u:code-1X   =82,
15:u:code-1R   =86,
15:u:code-1RR  =78,
15:u:code-1L   =82,
15:u:code-1X   =86,
15:u:code-1R   =78,
15:u:code-1LL  =82,
15:u:code-1L   =86,
15:u:code-1X   =78,
15:u:code-1LLL =82,
15:u:code-1LL  =86,
15:u:code-1L   =78,
15:u:code-1LLL =86,
15:u:code-1LL  =78,
15:u:code-1LLL =78,
15:u:code-1RRR =75,
15:u:code-1RR  =75,
15:u:code-1R   =75,
15:u:code-1X   =75,
15:u:code-1L   =75,
15:u:code-1LL  =75,
15:u:code-1LLL =75,
15:u:code-1RRR =56,
15:u:code-1RR  =56,
15:u:code-1R   =56,
15:u:code-1X   =56,
15:u:code-1L   =56,
15:u:code-1LL  =56,
15:u:code-1LLL =56,
16:u:code-1RRR =106,
16:u:code-1RR  =106,
16:u:code-1R   =106,
16:u:code-1X   =106,
16:u:code-1L   =106,
16:u:code-1LL  =106,
16:u:code-1LLL =106,
15:u:code-1RRR =79,
15:u:code-1RR  =79,
15:u:code-1R   =79,
15:u:code-1X   =79,
15:u:code-1L   =79,
15:u:code-1LL  =79,
15:u:code-1LLL =79,
15:u:code-1RRR =40,
15:u:code-1RR  =40,
15:u:code-1R   =40,
15:u:code-1X   =40,
15:u:code-1L   =40,
15:u:code-1LL  =40,
15:u:code-1LLL =40,
15:u:code-1RRR =41,
15:u:code-1RR  =41,
15:u:code-1R   =41,
15:u:code-1X   =41,
15:u:code-1L   =41,
15:u:code-1LL  =41,
15:u:code-1LLL =41,
15:u:code-1RRR =52,
15:u:code-1RR  =52,
15:u:code-1R   =52,
15:u:code-1X   =52,
15:u:code-1L   =52,
15:u:code-1LL  =52,
15:u:code-1LLL =52,
15:u:code-1RRR =59,
15:u:code-1RR  =59,
15:u:code-1R   =59,
15:u:code-1X   =59,
15:u:code-1L   =59,
15:u:code-1LL  =59,
15:u:code-1LLL =59,
15:u:code-1RRR =53,
15:u:code-1RR  =53,
15:u:code-1R   =53,
15:u:code-1X   =53,
15:u:code-1L   =53,
15:u:code-1LL  =53,
15:u:code-1LLL =53,
15:u:code-1RRR =67,
15:u:code-1RR  =67,
15:u:code-1R   =67,
15:u:code-1X   =67,
15:u:code-1L   =67,
15:u:code-1LL  =67,
15:u:code-1LLL =67,
16:u:code-1RRR =120,
16:u:code-1RR  =120,
16:u:code-1R   =120,
16:u:code-1X   =120,
16:u:code-1L   =120,
16:u:code-1LL  =120,
16:u:code-1LLL =120,
15:u:code-1RRR =55,
15:u:code-1RR  =55,
15:u:code-1R   =55,
15:u:code-1X   =55,
15:u:code-1L   =55,
15:u:code-1LL  =55,
15:u:code-1LLL =55,
15:u:code-1RRR =63,
15:u:code-1RR  =63,
15:u:code-1R   =63,
15:u:code-1X   =63,
15:u:code-1L   =63,
15:u:code-1LL  =63,
15:u:code-1LLL =63,
15:u:code-1RRR =34,
15:u:code-1RR  =34,
15:u:code-1R   =34,
15:u:code-1X   =34,
15:u:code-1L   =34,
15:u:code-1LL  =34,
15:u:code-1LLL =34,
15:u:code-1RRR =76,
15:u:code-1RR  =76,
15:u:code-1R   =76,
15:u:code-1X   =76,
15:u:code-1L   =76,
15:u:code-1LL  =76,
15:u:code-1LLL =76,
15:u:code-1RRR =47,
15:u:code-1RR  =47,
15:u:code-1R   =47,
15:u:code-1X   =47,
15:u:code-1L   =47,
15:u:code-1LL  =47,
15:u:code-1LLL =47,
15:u:code-1RRR =95,
15:u:code-1RR  =95,
15:u:code-1R   =95,
15:u:code-1X   =95,
7:*100:Pc,
15:u:code-1L   =95,
15:u:code-1LL  =95,
15:u:code-1LLL =95,
15:u:code-1RRR =35,
15:u:code-1RR  =35,
15:u:code-1R   =35,
15:u:code-1X   =35,
15:u:code-1L   =35,
15:u:code-1LL  =35,
15:u:code-1LLL =35,
15:u:code-1RRR =37,
15:u:code-1RR  =37,
15:u:code-1R   =37,
15:u:code-1X   =37,
15:u:code-1L   =37,
15:u:code-1LL  =37,
15:u:code-1LLL =37,
15:u:code-1RRR =38,
15:u:code-1RR  =38,
15:u:code-1R   =38,
15:u:code-1X   =38,
15:u:code-1L   =38,
15:u:code-1LL  =38,
15:u:code-1LLL =38,
16:u:code-1RRR =233,
16:u:code-1RR  =233,
16:u:code-1R   =233,
16:u:code-1X   =233,
16:u:code-1L   =233,
16:u:code-1LL  =233,
16:u:code-1LLL =233,
15:u:code-1RRR =36,
15:u:code-1RR  =36,
15:u:code-1R   =36,
15:u:code-1X   =36,
7:*100:Sc,
15:u:code-1L   =36,
15:u:code-1LL  =36,
15:u:code-1LLL =36,
17:u:code-1RRR =8217,
17:u:code-1RR  =8217,
17:u:code-1R   =8217,
17:u:code-1X   =8217,
7:*100:Pf,
17:u:code-1L   =8217,
17:u:code-1LL  =8217,
17:u:code-1LLL =8217,
17:u:code-1RRR =8212,
17:u:code-1RR  =8212,
17:u:code-1R   =8212,
17:u:code-1X   =8212,
17:u:code-1L   =8212,
17:u:code-1LL  =8212,
17:u:code-1LLL =8212,
17:u:code-1RRR =8220,
17:u:code-1RR  =8220,
17:u:code-1R   =8220,
17:u:code-1X   =8220,
7:*100:Pi,
17:u:code-1L   =8220,
17:u:code-1LL  =8220,
17:u:code-1LLL =8220,
17:u:code-1RRR =8221,
17:u:code-1RR  =8221,
17:u:code-1R   =8221,
17:u:code-1X   =8221,
17:u:code-1L   =8221,
17:u:code-1LL  =8221,
17:u:code-1LLL =8221,
15:u:code-1RRR =42,
15:u:code-1RR  =42,
15:u:code-1R   =42,
15:u:code-1X   =42,
15:u:code-1L   =42,
15:u:code-1LL  =42,
15:u:code-1LLL =42,
15:u:code-1RRR =96,
15:u:code-1RR  =96,
15:u:code-1R   =96,
15:u:code-1X   =96,
7:*100:Sk,
15:u:code-1L   =96,
15:u:code-1LL  =96,
15:u:code-1LLL =96,
16:u:code-1RRR =195,
16:u:code-1RR  =195,
16:u:code-1RRR =179,
16:u:code-1R   =195,
16:u:code-1RR  =179,
16:u:code-1X   =195,
16:u:code-1R   =179,
16:u:code-1L   =195,
16:u:code-1X   =179,
7:*100:No,
16:u:code-1LL  =195,
16:u:code-1L   =179,
16:u:code-1LLL =195,
16:u:code-1LL  =179,
16:u:code-1LLL =179,
15:u:code-1RRR =43,
15:u:code-1RR  =43,
15:u:code-1R   =43,
15:u:code-1X   =43,
7:*100:Sm,
15:u:code-1L   =43,
15:u:code-1LL  =43,
15:u:code-1LLL =43,
17:u:code-1RRR =8216,
17:u:code-1RR  =8216,
17:u:code-1R   =8216,
17:u:code-1X   =8216,
17:u:code-1L   =8216,
17:u:code-1LL  =8216,
17:u:code-1LLL =8216,
15:u:code-1RRR =61,
15:u:code-1RR  =61,
15:u:code-1R   =61,
15:u:code-1X   =61,
15:u:code-1L   =61,
15:u:code-1LL  =61,
15:u:code-1LLL =61,
15:u:code-1RRR =64,
15:u:code-1RR  =64,
15:u:code-1R   =64,
15:u:code-1X   =64,
15:u:code-1L   =64,
15:u:code-1LL  =64,
15:u:code-1LLL =64,
15:u:code-1RRR =88,
15:u:code-1RR  =88,
15:u:code-1R   =88,
15:u:code-1X   =88,
15:u:code-1L   =88,
15:u:code-1LL  =88,
15:u:code-1LLL =88,
15:u:code-1RRR =60,
15:u:code-1RR  =60,
15:u:code-1R   =60,
15:u:code-1X   =60,
15:u:code-1L   =60,
15:u:code-1LL  =60,
15:u:code-1LLL =60,
15:u:code-1RRR =62,
15:u:code-1RR  =62,
15:u:code-1R   =62,
15:u:code-1X   =62,
15:u:code-1L   =62,
15:u:code-1LL  =62,
15:u:code-1LLL =62,
16:u:code-1RRR =123,
16:u:code-1RR  =123,
16:u:code-1R   =123,
16:u:code-1X   =123,
16:u:code-1L   =123,
16:u:code-1LL  =123,
16:u:code-1LLL =123,
16:u:code-1RRR =124,
16:u:code-1RR  =124,
16:u:code-1R   =124,
16:u:code-1X   =124,
16:u:code-1L   =124,
16:u:code-1LL  =124,
16:u:code-1LLL =124,
16:u:code-1RRR =126,
16:u:code-1RR  =126,
16:u:code-1R   =126,
16:u:code-1X   =126,
16:u:code-1L   =126,
16:u:code-1LL  =126,
16:u:code-1LLL =126,
16:u:code-1RRR =183,
16:u:code-1RR  =183,
16:u:code-1R   =183,
16:u:code-1X   =183,
16:u:code-1L   =183,
16:u:code-1LL  =183,
16:u:code-1LLL =183,
16:u:code-1RRR =125,
16:u:code-1RR  =125,
16:u:code-1R   =125,
16:u:code-1X   =125,
16:u:code-1L   =125,
16:u:code-1LL  =125,
16:u:code-1LLL =125,
16:u:code-1RRR =225,
16:u:code-1RR  =225,
16:u:code-1R   =225,
16:u:code-1X   =225,
16:u:code-1L   =225,
16:u:code-1LL  =225,
16:u:code-1LLL =225,
15:u:code-1RRR =94,
15:u:code-1RR  =94,
15:u:code-1R   =94,
15:u:code-1X   =94,
15:u:code-1L   =94,
15:u:code-1LL  =94,
15:u:code-1LLL =94,
16:u:code-1RRR =231,
16:u:code-1RR  =231,
16:u:code-1R   =231,
16:u:code-1X   =231,
16:u:code-1L   =231,
16:u:code-1LL  =231,
16:u:code-1LLL =231,
17:u:code-1RRR =8230,
17:u:code-1RR  =8230,
17:u:code-1R   =8230,
17:u:code-1X   =8230,
17:u:code-1L   =8230,
17:u:code-1LL  =8230,
17:u:code-1LLL =8230,
16:u:code-1RRR =173,
16:u:code-1RR  =173,
16:u:code-1R   =173,
16:u:code-1X   =173,
7:*100:Cf,
16:u:code-1L   =173,
16:u:code-1LL  =173,
16:u:code-1LLL =173,
17:u:code-1RRR =8211,
17:u:code-1RR  =8211,
17:u:code-1R   =8211,
17:u:code-1X   =8211,
17:u:code-1L   =8211,
17:u:code-1LL  =8211,
17:u:code-1LLL =8211,
16:u:code-1RRR =163,
16:u:code-1RR  =163,
16:u:code-1R   =163,
16:u:code-1X   =163,
16:u:code-1L   =163,
16:u:code-1LL  =163,
16:u:code-1LLL =163,
17:u:code-1RRR =_x+1,
17:u:code-1RR  =_x+1,
17:u:code-1RRR =_x+2,
17:u:code-1R   =_x+1,
17:u:code-1RR  =_x+2,
17:u:code-1RRR =_x+3,
0=-0x1.27480b00d8f98p-3
1=0x1.ce68e6de9bf43p-2
2=-0x1.186557618cc1p-4
3=-0x1.d3af10e9b0ea6p-5
4=0x1.bebe4f8740502p-1
5=0x1.305f2c8da89c7p-5
6=0x1.8e4c2f948ad08p-4
7=-0x1.70051bfe6a142p+0
8=-0x1.559de6aa634dbp-1
9=0x1.eda0d5c27ccb6p-6
10=-0x1.de938cf396b06p-6
12=0x1.eda0d5c27ccb6p-6
13=-0x1.de938cf396b06p-6
15=0x1.eda0d5c27ccb6p-6
16=-0x1.de938cf396b06p-6
18=0x1.7fb072eab3cb8p-8
19=0x1.8eef55ad89ab8p-8
21=-0x1.0952c15e0a959p-5
22=0x1.1c1d78d8ce12dp-5
23=-0x1.22af6bccbe31cp-9
24=0x1.63e1c11b28874p-5
25=0x1.8159db4d30a24p-7
27=0x1.d2b74f4261d6fp-4
28=-0x1.6820137834dedp-4
30=-0x1.00be6f8ef04b9p-6
31=0x1.acdfa66184e5p-4
32=-0x1.1c3ed486b2837p+0
33=0x1.006a81e309fb6p-4
34=-0x1.d70e139d7543ap-2
35=-0x1.fddae5b083b74p-4
36=-0x1.4194adbbb0b23p-2
37=0x1.c866f1c861859p-1
39=0x1.75a292c9178bp-6
42=-0x1.997ed52763d37p-3
43=0x1.5520638e40ef4p-2
44=-0x1.772e79a4b9838p-2
45=-0x1.60b868d6c4a15p-5
46=0x1.b5d78c26c7542p-2
48=-0x1.2175a765aa11fp+0
49=-0x1.7dad5ae4b7fe9p-5
50=-0x1.56dca36d9110bp-4
51=-0x1.5b84a9521f31p-12
52=-0x1.2891e3d816b02p-6
54=0x1.7e5c575692978p-2
55=-0x1.1654fdd833393p-3
56=-0x1.7c3929dd40d61p-3
57=0x1.8279192bfa6ddp-1
58=0x1.d5011895d8cb6p-4
59=0x1.18b43921bd251p-1
60=-0x1.16a42f8e3bd93p-2
61=0x1.3e43c603021d2p-4
62=-0x1.fd4c00e3f3265p-2
63=-0x1.3bc1d054c298fp-4
64=-0x1.47cf474bd6848p-3
65=-0x1.72b1a3060a372p-2
66=-0x1.16d03f85fbc97p-7
67=0x1.53e087f8f030bp-3
68=-0x1.0cf361e0ecb91p-4
69=0x1.b971307ec0fcap-6
70=0x1.051e6d672d811p-2
71=0x1.ca1a74027bb1cp-4
72=-0x1.2578750fd72d4p-2
73=-0x1.59a15c10fe5c4p-3
74=-0x1.44842fbbdb7b4p-1
75=-0x1.22f71767bc567p-4
76=-0x1.1d060ef9a26e2p-6
78=-0x1.1438980d74696p-3
79=0x1.4274da1064f65p-3
81=-0x1.6783558c33f4p-1
82=0x1.0c73e24adf477p-2
83=-0x1.1bfd3485052fep-1
84=0x1.6a88d1dc597f7p-1
85=0x1.882a2fe8290abp-5
86=0x1.384a4c8feecb5p-2
87=0x1.f27444e4fa4aap-7
88=-0x1.b93310da91ba4p-7
90=0x1.46f9e00eaf419p-7
91=0x1.45587abfc5448p-10
92=-0x1.db4e649a24edp-4
93=0x1.6fd54e1333c3bp-2
94=-0x1.09f345ffe1a1ep-1
95=0x1.77608a591322cp-8
96=-0x1.d5bcd56801d8p-13
97=0x1.7d81c2781e858p-3
98=0x1.a65075e8fa436p-8
100=-0x1.4498fc365a358p-4
102=-0x1.db62b6beb279p-7
103=0x1.1bcb2ff3574p-8
104=-0x1.d481cd670042ap-6
105=-0x1.e71eb849e59cdp-4
106=0x1.fae282e69626p-4
107=-0x1.38b4a84a181b6p-1
108=0x1.6a64ecb501575p-1
109=-0x1.9a05963873394p-5
110=0x1.67f2da04fad79p-2
111=-0x1.d65e19d3465dfp-4
114=-0x1.9a8c4454cd174p-4
115=0x1.8bc6fff56441bp-4
116=-0x1.20232d75710e7p-2
117=-0x1.44f92a31cb88cp-3
118=-0x1.de7cac249bfc7p-4
120=0x1.7097f94b815dbp-3
121=0x1.70d6924dc21d6p-2
122=-0x1.0cf84b5f29ac1p-6
123=-0x1.b95cc7befb0acp-5
124=-0x1.0c0693ff3189cp-4
126=-0x1.4ad23654085a8p-5
127=0x1.ebd5f631c9p-3
128=-0x1.6fdaa0c97806ep-3
129=0x1.d3071fddb6056p-4
130=0x1.a012d869f492p-3
131=-0x1.017e404f60177p-2
132=-0x1.7e21e53a0814bp-2
133=0x1.43d155d1d28f8p-3
134=-0x1.06019ab0172fp-6
136=-0x1.ef3682b8c6a3ap-6
138=-0x1.cadbcba5636a7p-4
139=0x1.4bdbeb052b10ap-3
140=-0x1.903fb711dc3eap-5
141=0x1.b9749f7805786p-3
142=0x1.67ce3e393791cp-3
143=-0x1.12b222d15b6e9p-2
144=-0x1.3f4374f2407b4p-2
145=0x1.39c44346123bbp-11
146=-0x1.6ee31ebac6465p-7
148=-0x1.1ad034cc1a261p-6
156=-0x1.43d9b4567c3a6p-3
157=0x1.e8574846cf7e1p-3
159=-0x1.2792ed410577bp-3
160=0x1.01a749da46e16p-3
161=-0x1.4f87480983508p-8
162=-0x1.6d702cc51fcbp-1
163=0x1.de4eb41424e2bp-1
165=-0x1.021b368188b4ep-12
166=0x1.f1ea3aa9cb99bp-13
168=0x1.0590d93da4f6p-5
169=-0x1.3a72c2304a6fep-7
170=-0x1.335b07bc0ea4p-5
171=-0x1.495a925691111p-2
172=0x1.28ca649c97eddp+0
173=-0x1.416ed37ee09bcp+1
174=-0x1.ae3178376d7fcp-5
175=0x1.5a0a0aae86ef7p-2
176=-0x1.05c77c62eabd8p-2
177=-0x1.3cf84fe0a67c3p+1
178=0x1.57587580bfc7cp-1
179=-0x1.2f90f06e3ed02p+0
180=0x1.58f913cc3cf47p-2
181=-0x1.1418e2338718p-2
183=-0x1.6916f1d570d11p-5
184=0x1.46826ab789c1fp-4
185=-0x1.525db266e32f9p-2
186=-0x1.9367aed1b3988p-2
187=0x1.eca3650a2bd46p-2
188=-0x1.8ef124b5403c7p-4
189=0x1.3bd1e76380c59p-3
190=-0x1.2938506644473p-3
191=0x1.0f5b83749ec0ep-7
192=-0x1.af4a394e06369p-1
193=-0x1.5ec065f52ab1bp-5
195=0x1.42cb8bc99cedap-3
196=0x1.3e6955fe90598p-3
197=-0x1.496380398f5cbp-3
198=-0x1.015ca24287e85p-4
199=0x1.517833e364283p-3
200=-0x1.d5d806204c6bcp-4
201=-0x1.a490adb720177p-6
202=0x1.781cb9bb2525cp-4
203=0x1.0385053051f45p-3
204=0x1.72c939fab69ebp-2
205=-0x1.2a4551637924fp-2
206=-0x1.72b3ecc4b1c9ep-5
207=-0x1.246930b9b611bp-8
208=0x1.44bb504d5ae64p-3
209=-0x1.20360b09c63b4p-3
210=0x1.75718797a72bdp-7
211=-0x1.39bd94834a55ap-2
212=0x1.5b9fbc8f80ed1p-3
214=0x1.0809c2414bb77p-2
215=-0x1.c3a5ae6ddea9p-4
216=-0x1.3a1adb176e865p-3
217=-0x1.1d364553e1a68p-7
219=0x1.b4e420804d90ep-3
220=0x1.e0af36b4e984fp-7
221=-0x1.7b9d0f6cb4623p-3
222=-0x1.466041fdd9618p-3
223=0x1.98049a3503314p-1
224=-0x1.cfceec2efc4p-3
225=0x1.32db24776ef26p-3
226=0x1.5ec06f8f12e8bp-4
227=0x1.11e06073fb466p-5
228=0x1.7e46d8ce7081fp-3
229=-0x1.e0f467a9bbb2ap-4
230=-0x1.d3232ca9338acp-8
231=0x1.98be182de2c14p-3
232=-0x1.b707e482cb097p-8
233=-0x1.41d84ac5af558p-3
234=-0x1.597b36bea50dp-1
235=0x1.49804548e1682p-4
236=0x1.73d19647fe90cp-2
237=-0x1.a8c29f99f8156p-3
238=0x1.251e79dc96cbep-5
239=-0x1.da1f010f83b99p-2
240=0x1.a8f2cc9d4d153p-1
241=-0x1.c18ef4b088ba7p-3
242=-0x1.3081adc0df7c8p-6
243=0x1.47e9a3d4db5f3p-3
244=0x1.cd483ad70b874p-5
245=-0x1.69a1d5e356f78p-3
246=0x1.1dba6f840cf17p-1
247=-0x1.3535e18c660dbp-1
248=0x1.c99a3afcf75cp-4
249=-0x1.990ad8473a843p-5
250=0x1.119bc1a8d0833p-2
251=0x1.6bf656d1c4d3ep-7
252=-0x1.10299167eb67bp-3
253=-0x1.b2f2af04d1ba8p-5
255=0x1.e6127aa365034p-5
256=0x1.7fa4e74ec1bfap-4
257=-0x1.dfa470201f2b1p-3
258=0x1.1a8e2a15d143bp-3
259=0x1.b90f22dcd895bp-3
260=-0x1.02905a7d7c312p-3
261=-0x1.498d1861affep-6
262=0x1.9bf8652935e79p-5
263=0x1.0d87236efba92p-5
265=-0x1.e25af1aae5daap-5
266=-0x1.72cabc1102ba6p-7
267=0x1.97feebc47af94p-8
268=-0x1.0f5721eee6398p-8
270=0x1.b606027072778p-7
271=-0x1.c204d17c1fac9p-7
273=-0x1.977b1f6a5445ep-9
274=0x1.8f208902b2026p-5
276=0x1.77b9ecab23f87p-1
277=-0x1.52c87f63be48ap-3
278=-0x1.1895936b7e5bcp+0
279=0x1.a86b0d1ae45aep-3
280=-0x1.59d741f926502p-3
282=0x1.53ecaebc07ffdp-5
283=-0x1.2cc5e49f89aa9p-5
284=-0x1.fe19d02e0948ep-10
285=-0x1.6be24ee6c8c4ap-3
286=0x1.aeeefddf49638p-3
288=0x1.77b56b3d7ab3dp-1
289=-0x1.5289874279303p-3
290=-0x1.18936ec2b10afp+0
291=-0x1.643a037ab8fbep+0
292=0x1.e00f1bb277707p-4
294=0x1.583348bd0d882p+0
295=-0x1.9f3dbf777299ap-3
296=-0x1.a1e6cad9b24aap-1
300=-0x1.c7e6bf0998c96p-3
301=0x1.26f402252368fp-2
302=-0x1.2b0156f0668f8p-1
303=-0x1.a06cb1db04d5p-1
304=-0x1.2090dbb2013d7p-2
305=0x1.149426fd87dc2p-1
306=0x1.35d73327893a1p-2
307=0x1.b56f1e23a7bc4p-2
308=-0x1.c895be4930614p-4
309=-0x1.61f03f7ef33e6p-1
311=-0x1.ad22f9593af43p-3
312=-0x1.260fd43a1ded6p-4
313=0x1.4297b98e00654p-4
315=-0x1.ca2207dca43c3p-1
316=0x1.b7d7051292004p-2
317=0x1.d1265ab789f46p-4
318=-0x1.52c590187a1ddp-8
320=-0x1.c926e7640da8dp-1
322=-0x1.0baab8fda708bp-7
324=-0x1.ea9b556ad87b4p-5
325=0x1.59c996c33311ap-4
326=-0x1.e5e8719111d0cp-4
327=-0x1.48f2a4f24c91ep-3
328=0x1.40c20b85d0107p-2
329=-0x1.7d7c34f1d54dap-4
330=0x1.f1decc44140fap-4
331=-0x1.d9e45403ba61cp-5
332=0x1.9d34c2fed51efp-5
334=-0x1.1dcddce709c78p-5
336=-0x1.201042ed537b7p-4
337=0x1.7fe9c200bf6a4p-4
339=-0x1.3c0069b6b20c3p-3
340=-0x1.2dea0cf29e888p-4
341=-0x1.eca0704e2ff11p-2
342=0x1.80f024f3e01cbp-2
343=0x1.3a98e2bf32b0dp-2
344=0x1.bf5277716a039p-3
345=-0x1.40f9f9e134adcp-6
346=-0x1.f676ab9c03943p-7
348=0x1.86b476bb6dad1p-2
349=0x1.e45f65e272714p-5
350=-0x1.69be37b0f9722p-4
351=-0x1.9e8712a453ba4p-4
352=0x1.e5316a819e98bp-3
353=-0x1.37bd47c4db792p-1
354=-0x1.c516b5f59c475p-4
355=0x1.0254bda2ad274p-4
356=0x1.afc26f43fc5fbp-3
357=0x1.fe076153f2857p-3
358=-0x1.c5839ebd4a353p-5
360=0x1.0ab672fc14a0ep-2
361=-0x1.d08cfec9e0a47p-6
362=-0x1.3d7196c77fd9fp-2
363=0x1.1166ae1d72087p-3
364=-0x1.0abba72e55ef6p-2
365=-0x1.b0ca90945003ep-2
366=-0x1.11c57c899f90fp-2
367=0x1.067960b5691c4p-2
368=0x1.6337fb3c2ada5p-3
369=0x1.0f37e5dec8e9dp-1
370=-0x1.593200b13ca39p-2
372=0x1.093996ce5f9f6p-2
373=-0x1.b3f63859f32c8p-4
374=-0x1.4bf37f593795ap-1
375=0x1.00ad48f7c3b4cp-2
376=0x1.5763ddc850c3ep-6
377=0x1.27aeae7335e8bp-3
378=-0x1.2bd99aa579f9dp-3
379=0x1.50070fc49c86ap-2
380=-0x1.1f3c29277cbd1p-2
381=0x1.680069a17cd0fp-2
382=-0x1.c809ab065f7c4p-2
383=-0x1.3f4ce74204faep-3
384=0x1.5aad00aa1439p-6
385=-0x1.11e51b654f5f1p-6
387=0x1.b7cfd9d48fa5fp-2
388=-0x1.ac558cd35d48ap-2
390=0x1.5af5f9c399fd8p-1
391=-0x1.1abde78820539p-1
393=0x1.00a901571882cp-3
394=-0x1.025bc0053b95p-3
396=0x1.91558b81ff095p-5
397=-0x1.d5308bde51da4p-3
399=-0x1.21467acba507ep-7
400=0x1.dab3327f422e1p-7
401=-0x1.0225d544b1308p-9
402=-0x1.5e68b9bd1e9b2p-3
403=0x1.3c4cc440529bep-3
404=-0x1.1272549cf796ap-3
405=-0x1.2c8f94cb9a63ep-1
406=0x1.337c2bd7be186p-1
407=-0x1.f1618587bdda1p-1
408=0x1.d20d7d37b6f3ap-3
409=0x1.e62b341edb692p-5
410=0x1.3dba054013dap-1
412=-0x1.71bd11af74d94p-5
414=-0x1.3050b3a119831p-5
415=-0x1.795df4cb1292fp-7
416=-0x1.29ac36a837f06p-4
417=0x1.07f6ac353d384p+0
419=0x1.86baf435fa15ep-2
420=-0x1.1d04d788e195bp-3
421=0x1.75a54b10ee792p-4
422=-0x1.ac8056d4c1f4ap-2
423=-0x1.64a0821d49ebep-3
424=-0x1.9a5359bcecf19p-6
426=-0x1.f401c29896157p-5
427=0x1.432b1fbec1f5ep-3
428=-0x1.ada73373a828bp-2
429=-0x1.c103326cdd89cp-3
430=0x1.9be44dc7fd719p-3
431=-0x1.c0d5b7f8fcf52p-2
432=0x1.e6607957a36a7p-4
433=0x1.92a2e42495cbap-4
434=0x1.179cf7083697ap-2
436=-0x1.041a0824124bep-4
438=0x1.24d2727ead132p-4
439=-0x1.8297922c5e0b6p-5
440=-0x1.b2ce043d38487p-9
441=-0x1.668f5ed1cb468p-2
442=0x1.d57ea96732713p-2
447=0x1.7cbf3e22836e8p-9
448=0x1.81700d925799cp-6
449=-0x1.1c4e64a98ad7fp-5
450=0x1.79820c73ae73p-1
451=-0x1.df83da495cffdp-1
453=0x1.2b8bc14246bddp-4
454=0x1.d00ea6cfe45f8p-7
456=-0x1.7ed7ea3fbb674p-3
457=0x1.b7257935bef3bp-3
458=-0x1.d9bcb5bc716dcp-5
459=-0x1.7c276cf56b565p-5
460=-0x1.c1d1d495a16afp-7
461=0x1.3934a7b7458a4p-4
462=-0x1.44439c724bf3ep-5
463=0x1.69ac38557ac34p-3
464=-0x1.39374a0f8e32fp-3
465=-0x1.f70778f762246p-4
466=-0x1.9eda547ed8cccp-8
468=-0x1.c3bb550e49ffbp-4
469=0x1.3c3147905dae6p-1
471=-0x1.95a739084159dp-1
472=0x1.5a5301e8ba544p-4
473=0x1.b7649d721a7dbp-4
474=-0x1.19d194c560dd6p-5
475=0x1.e505a48991a77p-5
476=-0x1.242d97c038912p+0
478=-0x1.e5ba3e4c0095ap-9
480=-0x1.9fb9000df4dbcp-3
481=0x1.180a03ecec99cp-2
482=-0x1.52b06c3d5b97cp-5
483=0x1.4a6a6b4106ae8p-2
484=-0x1.434d0a95a7135p-6
485=0x1.eb444b925c469p-4
486=-0x1.724fb52010b4cp-3
487=0x1.0432ceb011a02p-3
488=-0x1.3f14ff766264p-3
489=-0x1.79d09b3830a97p-3
492=-0x1.b48bdce437c05p-3
493=0x1.695a3a4ae8cabp-3
494=-0x1.e37740a4d9ac9p-3
495=-0x1.ee5861cf51018p-1
496=-0x1.61665624801edp-3
497=0x1.f0ba057a0f956p-2
498=0x1.153fdc0127466p-3
499=0x1.0fb92b989ae4ep-2
500=-0x1.2c47797a3eceap-2
502=-0x1.ac9701406a743p-5
503=-0x1.8e9c80b6603bbp-7
504=-0x1.a8a46a4f75ap-4
505=0x1.2476e7205546cp-3
506=-0x1.097a40c29f9a7p-3
507=-0x1.af94a2faf08f5p-1
508=0x1.fcd6190094119p-2
509=0x1.f89646c699df8p-5
510=0x1.45fa89a166da5p-1
511=0x1.d3c97e032979ap-4
512=-0x1.fb16b6b539a14p-4
514=-0x1.43cb3539e338ep-5
516=-0x1.70462923d964fp-2
517=0x1.e89225c5a8e45p-2
522=-0x1.c39624398f475p-4
523=0x1.cf20834728536p-4
524=-0x1.4fb45eb633483p-7
525=0x1.e6cdf00de5d6p-2
526=-0x1.262ec79b3babp-1
527=-0x1.17fe38ac61f5ap-10
528=-0x1.159d3144b1a69p-4
529=0x1.03c900ae2aab1p-6
531=0x1.1ad30a4401257p-1
532=-0x1.4e0c18061dd98p-2
533=-0x1.78c4e74b78014p-4
534=-0x1.88d09d6106cd8p-3
535=0x1.9ee49ebc4b177p-4
536=-0x1.15cbca4f29194p-4
537=-0x1.064fc07a236cp+0
538=0x1.3254cfa1e9aa2p-2
539=0x1.9a8f58866722p-2
540=0x1.8e78dc6e0789cp-2
541=0x1.9714be0c13767p-5
542=-0x1.f6d81ad1fd704p-2
543=-0x1.9db43670a272dp-4
544=-0x1.47a8a1fedbe22p-5
546=-0x1.7c5fa8e184dbep-5
547=0x1.df27a11704b78p-3
548=-0x1.74125dfb55c66p-3
549=0x1.788f5a6faea97p-4
550=0x1.27a0f224bee09p-3
551=0x1.0d1329b30d132p-3
552=-0x1.14b0e7a459927p-3
553=0x1.b3076ee344f7bp-3
554=-0x1.ee26fc1982ff6p-4
558=-0x1.11d0eeccfc9e7p-5
559=0x1.81a1936c660dap-4
560=-0x1.4f60739bd414ep-3
561=0x1.1690ce9b19eb3p-5
562=0x1.21ab6b17be254p-3
563=0x1.4d04343f91645p-3
564=-0x1.eab0e5d8899c6p-6
565=0x1.6e8e08b19342p-7
566=-0x1.56c52a4b1477dp-4
567=-0x1.0f699c97ae9f5p-3
570=-0x1.3ef2463d88e67p-4
571=0x1.fd3180ab4cf5ap-4
572=-0x1.fbad0ff5d2c38p-3
573=-0x1.34fab858e6929p-1
575=-0x1.3caad02655e5ap-5
576=0x1.cf2e0bca9787dp-5
577=0x1.a7c64f1f2be58p-3
578=-0x1.7c402f7f3be07p-4
579=-0x1.aef8d1695bc01p-6
580=-0x1.b733f901b3b68p-6
585=0x1.f48430ea84c55p-2
586=-0x1.3afe886bb99e5p-3
588=0x1.e16ad5df2c77bp-7
589=-0x1.64b7183235d8dp-6
591=0x1.7b6ef23530eefp-6
592=-0x1.42be5461d9f68p-7
594=0x1.2af2f4b2a4448p-1
595=-0x1.07d38e975174bp-2
596=-0x1.269890f701f8fp-1
597=-0x1.ee4d22fdb20a7p-4
598=0x1.03f0c72925581p-3
600=-0x1.849e9d6fd9d0ap-4
601=0x1.c36507689005ap-3
602=-0x1.22fe9586953e9p-2
603=-0x1.880ea58565135p-1
604=0x1.85a364fcdc323p-1
605=0x1.62b0c257b8013p-4
606=0x1.25016e9ac0d1fp-2
607=-0x1.643ba1468e3a8p-2
608=-0x1.f2522818f7a04p-5
609=-0x1.8fb57d4f7c701p+0
610=-0x1.84ab99995b322p-5
611=-0x1.5eff0b385e819p-2
612=-0x1.9768b5fab77c2p-6
613=0x1.e5641283024f6p-5
614=-0x1.2371f1d3cd83ap-5
615=-0x1.c09e26c664bd9p-3
616=0x1.aabdf62b9d415p-2
617=-0x1.6df83626b992cp-4
618=0x1.02cb01551698ap-6
619=-0x1.a204dbfab2815p-5
620=-0x1.2dec7d493b01bp-8
622=-0x1.b2ac800d9887bp-7
624=0x1.69eda987655adp-6
625=0x1.10b8d8e648671p-3
626=-0x1.0e8c81c793c8ap-4
627=-0x1.d58961378e644p-3
628=0x1.03eb6dfaad031p-2
629=0x1.b44f99f6a452bp-6
630=0x1.0caf2f2f26dfcp-4
631=0x1.8f1857138bb3dp-5
632=-0x1.a1737ce3841efp-4
634=-0x1.f5a24b2decdabp-6
636=0x1.2067638feb3d4p-2
637=-0x1.b91cce44ffabep-3
639=0x1.bf70633863b8ep-6
640=-0x1.93c87fc3dc0c9p-7
642=0x1.8a7c82f74c152p-2
643=-0x1.654e3bf1f06a5p-2
644=-0x1.2c1f2ca09f83ep-6
645=0x1.adf2c4f9cae2ep-4
646=0x1.1d56f09ec15e9p-4
647=-0x1.3982c1c631a6cp-1
648=0x1.3d0521b4a7caap-12
649=-0x1.437f27b41586bp-12
651=-0x1.84dc6259ce9ddp-3
652=0x1.7a795ac28cefdp-4
653=-0x1.b37675172cbccp-8
654=-0x1.4366b270f7bc9p-1
655=0x1.93caa098960acp-3
656=0x1.d03c8f68a71eep-6
657=0x1.df5f943ab50b5p-4
658=0x1.3f9cffc2152fp-4
659=-0x1.d954feec3a3bdp-3
661=-0x1.a0228399f947p-6
663=0x1.42d69497b28c3p-3
664=-0x1.7cd2fac4e4716p-5
665=-0x1.06d4881b602dp-3
666=-0x1.690ce21637855p-4
667=-0x1.16a6b68251374p-2
668=0x1.ff086cc21c9edp-8
669=0x1.7ce35ab433c2ep-6
670=0x1.1002fab771425p-2
671=-0x1.4b366b04b4a3ep-3
673=-0x1.4e6decb806914p-6
675=-0x1.222a2f634323ep-4
676=0x1.4f4d52bb72bccp-3
677=-0x1.7d364aee16e5ep-10
678=-0x1.30d925fd744e1p-2
679=0x1.daddcd75813p-3
681=-0x1.73f4628e6d063p+0
682=-0x1.62ad8d6dbab9fp+0
683=0x1.0bea8b4572f74p+2
684=-0x1.38a4851a5c703p-1
685=0x1.fdca34f897f2p-1
687=-0x1.6570c697fcea3p-13
688=0x1.211393302a833p-9
690=-0x1.73f4628e6d063p+0
691=-0x1.62ad8d6dbab9fp+0
692=0x1.0bea8b4572f74p+2
695=0x1.bc542a71aa2bbp-2
696=-0x1.3b513576c3e3ep-1
697=-0x1.cdcf63899c641p-1
698=0x1.20d7be06372e8p+0
699=-0x1.b517177712088p-6
700=-0x1.6a7077ae807d2p-5
701=-0x1.2c51351cb207ap-1
702=0x1.26d5743508f1fp-3
703=-0x1.580da52a7217bp-5
704=-0x1.f216094e11fd3p-4
705=-0x1.2207829115884p-3
706=0x1.207115ddff7e7p-3
707=0x1.e10f2d40e5088p-8
708=-0x1.ac58bd31995cep-7
709=0x1.ccb6cb37412fbp-4
710=-0x1.b11553e604011p-6
711=0x1.49489c6f93da9p-2
714=-0x1.2e3ab7ac79868p-4
715=0x1.e4928a2d6b757p-5
716=-0x1.42fff5b2d23fdp-5
717=-0x1.7d2293f8cb1e7p-4
718=-0x1.1f977a7ef8f9fp-5
719=0x1.035ff9e8372d4p-3
720=0x1.a28da623d0dcp-6
721=0x1.ad356db81c162p-4
722=-0x1.4aa181b63b98fp-3
724=-0x1.7d1d8a2d66621p-6
725=-0x1.1feb231b9eb6cp-7
726=0x1.3402b67184f39p-2
727=-0x1.6062de76e56e3p-3
728=-0x1.7b40d0126f2abp-4
729=0x1.5f56bc24af25ep+1
730=-0x1.6adc70b23514ap+1
732=0x1.c0b345ab881ep-6
735=0x1.23595a73439ccp-2
736=-0x1.18a3809a8ac4fp-2
738=0x1.e6e7e5131b824p-1
739=-0x1.2076c5c62f2f6p-1
740=-0x1.b1033c7d2b829p+0
742=0x1.2084d358d7f8bp-1
743=-0x1.6656e8fc9a76p-7
744=0x1.209ecf0ef375p+0
745=-0x1.19ecf70b7dd5ep-1
746=-0x1.3de4ce580e756p-1
747=-0x1.b5abe20115206p-4
748=-0x1.01a032aeb9e64p-7
750=0x1.62356f93a170dp-1
751=-0x1.df971f5706936p-2
752=-0x1.f10567366841ap-4
753=0x1.4a1ecfe3248aap-4
754=-0x1.84f31e72f04bep-1
755=0x1.b48b824ff8306p-4
756=-0x1.501b0bd4b93a5p+0
757=0x1.96cf1e12fdf3cp-5
758=-0x1.9961e73770777p-2
759=0x1.9fd5a593945bp-1
760=-0x1.15434edfe0299p-2
762=0x1.5e8e442035d78p-10
763=0x1.2f890d49d8d9dp-4
764=-0x1.95351892de46cp-7
765=0x1.58bb7c43714cbp-8
766=-0x1.35ebbf0a01527p-2
767=-0x1.379302c17e153p-4
768=-0x1.eb24a75973305p-5
769=0x1.2315652d4cc5bp-3
770=0x1.373dd5ae06108p-6
771=0x1.e522699734a8cp-6
772=-0x1.36e45e417e212p-6
773=-0x1.7a3ef2251eea8p-11
774=0x1.598dbcb976ee8p-2
775=-0x1.5e39053f71f1bp-5
776=-0x1.c8a8d52f20111p-4
777=0x1.e53dee6e9cf88p-4
778=0x1.ea671c991509dp-5
779=-0x1.804972c1092e1p-6
780=-0x1.9fd598edc310ep-2
781=0x1.61edd0eaaaac8p-4
782=-0x1.039de5abe40d6p-6
783=0x1.21eac5d0ead15p-2
786=0x1.8d4c63934445bp-5
787=-0x1.4c813b6c247c2p-8
788=-0x1.4fdd3f69b454ap-8
789=-0x1.6eb187149ac9ap-3
790=0x1.9d7704ebc9636p-3
791=-0x1.64f8b545881e4p-2
792=-0x1.4a27d19cb0975p+1
793=0x1.1db42e6f60528p+1
794=0x1.7d80dbe985ae9p-16
795=-0x1.967ce0492459bp-6
796=0x1.1c835da5c9912p-6
798=0x1.72f892b38257dp-4
799=-0x1.b25090a7de5c7p-5
801=0x1.77f9c78822dffp-3
802=-0x1.df6681ffcc99bp-4
803=-0x1.e56b5e0f7ae74p-4
804=0x1.2ddc6ade07784p-4
805=-0x1.2a20b50b60e9cp-3
806=-0x1.f1e0e56632564p-1
807=0x1.7634a987618ffp-3
808=-0x1.09974901833ddp-4
809=0x1.f49361c58b8bfp-3
811=-0x1.dc20de978271cp-7
813=-0x1.2d1818249bf47p-4
814=0x1.ec925c2dd0476p-4
815=-0x1.3b31749b01f64p-4
816=-0x1.debe2cc3dca4ep+0
817=0x1.2cbe08273ae26p+1
819=0x1.27a10c97377c6p-4
820=-0x1.2551ba18eeaa6p-7
822=-0x1.80237e4d093b6p-5
823=0x1.cf05be4ec90acp-5
825=0x1.ad4299c221c8dp-3
826=-0x1.237323bf169ep-4
827=-0x1.3a14222c5bdd8p-3
828=0x1.c9051f0e443ap-6
829=0x1.ebfe9ff317aedp-3
830=-0x1.b9ad48308556dp-4
831=-0x1.63a4749ece2a3p-5
832=0x1.58384db36ae86p-4
833=0x1.798ba6ffe589fp-3
834=0x1.012f8e72c17a1p-4
835=-0x1.bacae6c292d2p-4
837=0x1.ab079ba14f63dp-1
838=-0x1.979e31fb71749p-1
840=-0x1.df122f6cbdb44p-4
841=0x1.03433d8de5efep-3
843=0x1.5f00c7085532cp-7
844=-0x1.2289f4f3a2436p-7
846=-0x1.41ac0b7676ed3p-6
847=0x1.e846422a5719cp-6
848=-0x1.3046e1892e211p-8
849=0x1.8f69cf7cda943p-8
850=0x1.041e89f71fccep-5
851=-0x1.a5a87a476da36p-7
852=-0x1.9501ee006b838p-2
853=0x1.0627cfd0302b5p-4
854=-0x1.e93fa588d647p-7
855=0x1.7823c8dc3efb3p-6
856=0x1.6a85fa6d48542p-3
857=-0x1.7516553ab0d47p-3
859=-0x1.1352b4e084908p-8
861=0x1.5ee1424f4b8c6p-4
862=0x1.0aaf7e16adf01p-5
863=-0x1.08b96b9772ef3p-4
864=-0x1.bc3cbf3aecf8p-5
865=-0x1.9f5a3b62a57p-10
866=-0x1.205eb75a990adp-2
867=0x1.d551270168142p-4
868=0x1.16e77b07860dep-3
869=0x1.16d1c69df2a97p-4
871=-0x1.8cc7a3ea28c9cp-6
873=-0x1.a13c8ea378733p-1
874=0x1.d6b190d44724p-1
875=-0x1.910a641297fbp-5
876=0x1.071e13d553bcap-5
877=-0x1.4cd08b2200be9p-6
879=-0x1.5a8a30bfe6e8ep-4
880=0x1.d1528cb3fd59cp-4
882=0x1.4b52559b51bdep-6
883=-0x1.bf19a7342a295p-7
885=-0x1.c0e24facb6e57p-6
886=0x1.548e497e894c6p-4
888=-0x1.5b840808a9e8cp-1
889=0x1.6003e822b1a74p-1
891=-0x1.76756feb386cfp-9
894=-0x1.873574c18206fp-13
895=0x1.7d76b2ab51a37p-9
896=-0x1.028eb7cb5810ap-9
897=0x1.c5ce7c98eb12ap-4
898=-0x1.586a2db0429e1p-6
899=-0x1.95b779d3943f1p-4
900=-0x1.44eff4b7d0cf6p-3
901=-0x1.ef5b068db695cp-2
902=0x1.c7dc629e3f39ep-3
903=0x1.488d5f5310873p-2
904=0x1.12df313b53d55p-3
905=-0x1.c496d355ce40cp-3
906=-0x1.627f21cdec139p-4
907=-0x1.4d1c030b1afbp-6
909=0x1.2c2fda20b0d37p-3
910=-0x1.022752e2cc85ap-4
911=-0x1.8fa49adf32436p-7
912=-0x1.0626e81d3dda4p-1
913=0x1.d60277cfdcecfp-2
915=-0x1.1f54ba050f592p-6
916=0x1.f3f70d61e2827p-5
917=-0x1.2032c04b6f9b8p-5
918=-0x1.ce507bb8e3a36p-1
919=0x1.d52c8aa5b406ap-1
920=-0x1.27efa352df97ep-5
921=0x1.15481b97bccf8p-4
922=0x1.33861ee6d380fp-5
923=-0x1.41330f625bd74p-5
924=0x1.68295fe493956p-5
925=-0x1.d98bf77b28217p-6
926=-0x1.00002d9c520d8p-11
927=-0x1.76ecacae228a4p-2
928=0x1.992fac23bdbb5p-2
929=-0x1.66f42b4686efep-6
930=-0x1.daabd7fed3195p-3
931=0x1.eb5411d5a90ddp-3
932=-0x1.d5bc35e0012b9p-8
933=-0x1.261fdd585e573p-5
934=0x1.cf8a9810da3f3p-4
935=-0x1.034c588659763p-6
936=0x1.a51d244695bb2p-4
937=0x1.672d45c5f027fp-2
938=0x1.26753f4ad4a84p-1
939=-0x1.d096e683d9096p-3
940=-0x1.b1efa6b4f13aap-6
941=-0x1.1472e55a35d83p+0
943=-0x1.cad1d7ab4989ap-7
945=-0x1.01d6fe5559c12p-3
946=0x1.ba1fc775d6e0bp-4
947=-0x1.c09a51f05b1d2p-4
948=-0x1.4d03e53392b8p-11
949=0x1.91bff71333ca1p-3
950=-0x1.7f1644499c742p-3
951=-0x1.3f6943e1a5033p-5
952=0x1.a071f5a5a8cacp-7
953=0x1.c7c3f68f918a4p-9
954=-0x1.db3cb09838ccep-6
957=-0x1.519e096047c53p-8
958=0x1.85d78bfbcc21cp-5
960=-0x1.6c52cd843d11cp-4
961=-0x1.37da130ba5604p-2
962=-0x1.c3fbb51bbd6d3p-6
963=-0x1.4f4f69b6bfe0cp-8
964=0x1.c6350e926a9edp-4
965=-0x1.5b2d5ec994bb1p-7
967=-0x1.c4b32ef057df4p-6
969=0x1.c53add16d9182p-6
970=0x1.90a060bc8691ap-7
972=0x1.54533cb2ddf8ap-2
973=-0x1.a3ce05a526987p-3
975=-0x1.414b9be5fc462p-1
976=0x1.6018f71cd782dp-1
978=0x1.386e0b9ae021ap-4
979=-0x1.3930e4caa6cadp-5
981=0x1.3391d9fddc4a1p-2
982=-0x1.9879919d5c65fp-3
983=-0x1.86abd076f1fcfp-7
984=0x1.880e77a7fb956p-3
985=-0x1.a44d7696d0278p-3
987=0x1.01c0af898e70ep-3
988=-0x1.fb08c2f63d466p-4
990=0x1.d6c119fc1dbd2p-6
991=0x1.e6d7f91cc94fcp-7
992=-0x1.31ee335b59ba7p-7
993=-0x1.2fbf0b182d558p-12
994=0x1.a9cf56ae0a216p-8
996=0x1.b657152f73d8fp-6
997=-0x1.a6a995807a108p-5
999=-0x1.1b09c92f56376p-3
1000=0x1.386fb2a1bd029p-3
1002=0x1.6d3d52c94943bp-7
1003=0x1.ee7809a986086p-8
1005=0x1.60ac4c6a9daccp-1
1006=-0x1.f34da00c3cc1dp-2
1008=0x1.16c34af7d97f1p-5
1009=0x1.59f4040773753p-5
1010=-0x1.a47ca2b98ecf7p-3
1011=-0x1.05d8b7f6dd29fp-1
1012=-0x1.b338439c92b68p-3
1013=-0x1.32a0202c6edf6p-1
1014=0x1.ea1059642f5dep-4
1015=0x1.01d2a3e9b177cp-3
1016=0x1.12ae81b2fac72p-1
1017=0x1.9aa2410c96afdp-5
1018=-0x1.e1ffcc2d85248p-8
1020=-0x1.4deeb8bbf9598p-6
1021=0x1.943692ffa9884p-7
1023=-0x1.22473c6b0ab91p-2
1024=0x1.d2a7f463779c4p-2
1026=-0x1.c57807395910fp-2
1027=0x1.222651cf6e151p-1
1029=-0x1.0b5ce63ce72dep-2
1030=0x1.f4e91cd60c325p-1
1031=-0x1.5a57c805a2023p-2
1032=-0x1.1212308d5c0e1p-3
1033=-0x1.bc1f7a369b51dp-4
1034=0x1.f42a0fdd072b8p-5
1036=-0x1.5438203dda7ap-10
1038=0x1.0651951cd2763p-3
1039=-0x1.164b8723c08c6p-6
1040=-0x1.c359cd83c5b1fp-5
1041=-0x1.86c00e8658835p-2
1042=-0x1.13acfe837519bp-2
1043=-0x1.c9fa97514b8d8p-4
1044=0x1.7dba8350d8007p-6
1045=0x1.725788b390cf6p-4
1046=0x1.7e74dea258bc2p-6
1047=0x1.8f08bc6a42c1ep-6
1048=-0x1.aaf1efb4d446fp-6
1050=0x1.a1f6b41ef9a39p-5
1051=-0x1.5023bd009c189p-5
1053=0x1.6e0607fd9ef3p-6
1054=0x1.70f64c0fabbcfp-6
1056=0x1.a967c84d63edbp-6
1057=-0x1.98891725158fp-7
1059=0x1.915e0dfbbc5f4p-4
1060=-0x1.26c825bfc9c66p-4
1062=0x1.269c2862e4c23p-3
1063=-0x1.4fbaeff4bd2f2p-4
1065=-0x1.4d9c982973e6p-1
1066=0x1.86513003172e1p-1
1068=0x1.f8a7a3f768ec6p-4
1069=-0x1.6cacff3e0714dp-4
1071=0x1.942ce53c12961p-3
1072=-0x1.7fe7f5bb46d51p-5
1074=0x1.a89f5f18c4761p-7
1075=-0x1.12e253f9311a1p-8
1077=-0x1.3040c03425a25p-4
1078=0x1.ef2e84ff24758p-4
1080=0x1.24cc10c683809p-11
1081=0x1.5f3eff292a33ep-10
1083=-0x1.2e0407bbd8eedp-3
1084=0x1.5f5a66c21df1cp-3
1085=-0x1.19783fe45be11p-2
1086=-0x1.3f1fe7dca9ba7p-3
1087=0x1.693a547f75a73p-1
1088=-0x1.32eab1d6f6d9ap-1
1089=-0x1.a5e9cece475f5p-5
1090=0x1.180e1af85c276p-4
1091=0x1.53b6abbde3b59p-3
1092=-0x1.507692b2763e4p-5
1093=-0x1.3b8d99ae93f8p-10
1094=-0x1.840886d273c3cp-8
1095=0x1.6e68f3f9eb694p-2
1096=-0x1.1614c791b66b8p-2
1097=-0x1.37ae3405a7649p-9
1098=-0x1.58ff9a45888d3p-7
1099=0x1.a719bd0665b72p-8
1101=0x1.47c95ff92064ep-5
1102=-0x1.dae10f63211d8p-6
1104=0x1.34635dfe4d944p-6
1105=0x1.7442032de90a8p-6
1106=-0x1.68b019ddb3a66p-7
1107=0x1.5fdd04df941d9p-1
1108=-0x1.4ee46235ff4dep-3
1109=0x1.48cf5cbda24cep-1
1110=-0x1.53476152f8394p-5
1111=0x1.740f6acb0b241p-4
1112=-0x1.fcefc4a4536a6p-2
1113=-0x1.d9ffcd8dae56ap-3
1116=0x1.e5e0cff2613dp-7
1117=0x1.4fc95c037cb8p-6
1119=0x1.1155a86cd035dp-2
1120=-0x1.a54baedf30dbep-2
1122=0x1.f37c6e3c0c57dp-5
1123=-0x1.25e1cb6134688p-5
1125=0x1.67a4864aaa978p-6
1126=0x1.106bb88074226p-6
1127=-0x1.bb15d25f271e7p-8
1128=-0x1.2154ad789f3cfp-6
1129=0x1.679099f6c2fa6p-7
1131=0x1.42b1bb6aa8b6p-3
1132=-0x1.d38fa0d7ff013p-4
1134=0x1.9699a4d730b8p-9
1135=-0x1.4afab6d0dadp-7
1137=-0x1.9c71731d04cb8p-2
1138=0x1.c1b4a070f2e4dp-2
1139=-0x1.375303e090298p-6
1140=-0x1.6f3e78d2e8fe4p-1
1141=-0x1.1079af226ed06p-2
1142=-0x1.adead0b98e29fp-7
1143=-0x1.10861f7758716p-2
1144=0x1.5d3459b8b55ffp-1
1145=-0x1.02e39b2f8538fp-7
1149=0x1.1c786ed1112a8p-6
1150=-0x1.3550d18608988p-7
1152=0x1.296b311c93571p-9
1153=0x1.fdc786cf6aaaep-9
1154=-0x1.f100f06b1cf94p-8
1155=-0x1.ee4f87aa22c51p-4
1156=0x1.5e452183e74c6p-3
1158=-0x1.58bf48a77c1c2p-10
1159=0x1.d88b4488bbccdp-6
1161=-0x1.ab9f4d32cead6p-4
1162=0x1.cdf05dd2853a6p-4
1164=0x1.7f47f125f84b8p-9
1165=0x1.c934162961e0cp-12
1167=0x1.f29b926a93f76p-5
1168=-0x1.3a63354eee4aep-5
1170=0x1.2e9708e315338p-4
1171=-0x1.16486e4d98e62p-3
1173=-0x1.b403065d1fc36p-4
1174=0x1.07d1951051866p-4
1176=-0x1.f92080d1345f5p-5
1177=0x1.b72dfd8807b77p-6
1178=0x1.0251f9fa1251ap-5
1179=0x1.db2a34f0ac524p-2
1180=-0x1.3b03a83840deep-2
1181=-0x1.2ad5f37e937d7p-8
1182=-0x1.0ece7053c1ef8p-1
1183=0x1.7f90a13624477p-1
1185=0x1.830ef8fe71f8fp-2
1186=-0x1.fdb0ffb4e85fcp-2
1188=-0x1.9894c2c9c54a7p-10
1189=0x1.9e8983c6bc11fp-5
1190=-0x1.2a4a3bda538f9p-7
1191=-0x1.0694f81a30506p-1
1192=0x1.0e9b067f41fccp-1
1194=-0x1.1d78d45a318f2p-2
1195=0x1.df249f005518dp-3
1196=-0x1.a9cc7392f3fbcp-7
1197=-0x1.a651731f1821p-8
1198=0x1.1f60cb994dc7dp-7
1200=0x1.498627a3fbccep-4
1201=-0x1.babdcfdaae858p-4
1202=-0x1.bef1654d9514p-16
1203=-0x1.3c237b4c98b18p-3
1204=0x1.7963db26ef99p-3
1206=0x1.69e53a2db8d45p-7
1207=-0x1.4bbccb990d1b1p-6
1209=0x1.921657b8a3939p-3
1210=-0x1.0dfa0eb206cb3p-2
1213=0x1.4d889a0e0cc7ap-8
1215=-0x1.343f5d48d7212p-5
1216=0x1.62647b106489ap-5
1219=-0x1.283837ecf3cb6p-5
1221=0x1.f8b0a76ed7b36p-7
1222=-0x1.14b4c53de9c19p-6
1224=0x1.d9bf452c737f9p-1
1225=-0x1.94ff69f3b76c2p-1
1227=0x1.66e9a08e91bf8p-12
1228=0x1.b9f7ac4b933d9p-9
1230=-0x1.a7909404c42b7p-4
1231=0x1.d600adccfc7f2p-4
1233=0x1.30150b483356p-5
1234=-0x1.ea4314289941ep-8
1236=-0x1.094f7eec3256ap-5
1237=0x1.c797c7a867163p-6
1239=0x1.7344b2f11ced1p-3
1240=-0x1.555292e879088p-4
1242=-0x1.1c467cbc3569cp-6
1243=0x1.36cbd6f996049p-5
1245=-0x1.ae7e47d151758p-2
1246=0x1.72bc58e3c71c3p-2
1248=0x1.387c192c4af55p-4
1249=-0x1.8250e9731fe32p-8
1250=-0x1.1838fc4f10894p-4
1251=0x1.623cfcddd0b55p-4
1252=-0x1.b22c6eb86eb01p-3
1253=-0x1.9ebeedfd18544p-4
1254=0x1.142353df7459fp-3
1255=0x1.d7d7394849a35p-5
1256=0x1.0aa268e33ea61p-5
1258=-0x1.d76c72fae8af2p-7
1259=-0x1.0e29741bffcbbp-7
1260=-0x1.c5c476910b745p-4
1261=0x1.094e40e68339p-3
1263=0x1.6fcf09718606fp-2
1264=-0x1.5345a4c7260eep-2
1266=-0x1.34baea3a78e82p-2
1267=0x1.acf738127974cp-2
1269=-0x1.54628ccbdefd1p-6
1270=0x1.054a7f9a6d0e4p-5
1272=-0x1.06ad08e0ad61bp-6
1273=0x1.1227d5c3a82d4p-5
1275=-0x1.07217caf9184ep-4
1276=0x1.a11bea43915e7p-3
1278=0x1.217b6938117dp-5
1279=-0x1.0f237442f113cp-7
1280=-0x1.57c67a3f252eap-6
1281=0x1.678e454c656acp+0
1282=-0x1.4de426c6f51c8p+0
1284=0x1.355a7bd6c980ap-2
1285=-0x1.40eb4f188c2f5p-2
1286=-0x1.0d53fe21c8a22p-6
1287=0x1.9f205b5a5c0e9p+0
1288=-0x1.fe73d3bbf79a8p+0
1289=0x1.52a94c93f777p-8
1290=-0x1.7b61f871c3e57p-2
1291=0x1.b7f45f055637dp-2
1293=-0x1.30f53586ecc79p-1
1294=0x1.20cbeeb9e8f95p-2
1296=-0x1.7b7dc238fce1cp-3
1297=0x1.3285625e9757ap-2
1299=0x1.a0c71de0102cbp-9
1300=-0x1.a0080712cbff4p-8
1302=-0x1.a906362d10dc1p-4
1303=0x1.c417f06b984ap-4
1304=-0x1.ec7cb9fe856d8p-10
1305=0x1.21d4685c593adp-5
1306=-0x1.dafd318d969ebp-6
1308=-0x1.1daa5f7a2e2b4p-3
1309=0x1.297c39ab82513p-3
1310=-0x1.6ea8291463f56p-8
1311=-0x1.5e71a9ab00b26p-10
1312=0x1.4c738e246c41bp-7
1314=0x1.ddb79c738d25ap-5
1315=-0x1.62efbc50b1216p-7
1317=0x1.cb2688a388fap-13
1318=-0x1.95a68fb629115p-7
1320=0x1.4c44f33247135p-6
1321=0x1.06f07da69c082p-10
1322=-0x1.c9f228353addp-9
1323=-0x1.14c0c05b5bafbp-3
1324=0x1.f508a238d8089p-4
1326=-0x1.5964c4f5aeef3p-2
1327=0x1.57c75ff903bdep-2
1329=-0x1.c60f16ec17d31p-2
1330=0x1.d43bd32346ab1p-2
1332=0x1.fe3cdbf44911ep-4
1333=-0x1.afad12a2d1223p-4
1335=-0x1.86c0ff67d3aecp-8
1336=0x1.bd112f2b1633ap-8
1338=0x1.59cb9021d2354p-4
1339=-0x1.63092a9ba018ap-4
1341=-0x1.25bbc789abb38p-5
1342=0x1.28588d5d9cde7p-5
1344=0x1.4a9631f3eddb1p-3
1345=-0x1.92ea2deb6e99ep-3
1347=-0x1.325253953ad69p-6
1348=0x1.26efc7fe28d6bp-6
1353=0x1.d84cfff1aa8c3p-5
1354=-0x1.0b8b3b6f4bb41p-3
1355=-0x1.5bbe96834fa4ap-8
1356=-0x1.ffbf0b7c70dcfp-4
1357=0x1.30441ebcab6b5p-3
1359=-0x1.6e7b90f135d1ap-1
1360=0x1.4313f78dcbbf7p-1
1362=0x1.023b1b5e67dd2p-5
1363=-0x1.15bf7426a928bp-8
1365=-0x1.e8fcf770a3445p-5
1366=0x1.ac861dc8f191bp-5
1368=0x1.2e81f907fade2p-4
1369=-0x1.36d356231dc2p-5
1370=-0x1.3fe37e7aef8a8p-12
1371=-0x1.12b5195cf6c2cp-4
1372=0x1.264f49f94fb66p-4
1374=0x1.98973d4cc411fp-6
1375=-0x1.3b3266d71b11bp-6
1378=0x1.01ccbb705dbaap-15
1380=0x1.4ee292f049e83p-1
1381=-0x1.2614f6e26c242p-1
1383=0x1.34aa27c9fd29cp-1
1384=-0x1.2f373e8b5d2e6p-1
1386=-0x1.921adf635f70ep-3
1387=0x1.abe90e595bfc8p-3
1389=-0x1.04ac7aae65b3dp-18
1390=0x1.630c2d135a621p-15
1392=-0x1.2a1293b391c5fp-4
1393=0x1.7a8dfc53c08bcp-4
1395=0x1.16f068543690fp-3
1396=-0x1.8515379b04237p-5
1398=-0x1.44f71fd77ea01p-4
1399=0x1.ca4c9564627fp-5
1401=-0x1.ba4dd4246db6p-4
1402=0x1.89e46742cb666p-4
1404=-0x1.6e898e7d2a019p-2
1405=0x1.b99c8b86a3432p-2
1407=0x1.495ed43e69946p-1
1408=-0x1.47265788f1425p-1
1410=-0x1.d19135da9c14bp-4
1411=0x1.37184cd2ca9cbp-3
1413=0x1.4638339d01bbfp-5
1414=-0x1.0dfda1a4e8128p-5
1415=-0x1.bd19bf7c8595p-13
1416=0x1.001641f102834p-4
1417=-0x1.21f368087a7e4p-3
1419=0x1.4126a4e52b41ep-3
1420=-0x1.2432c81571b86p-4
1422=0x1.554900121e908p-6
1423=0x1.b685b03855621p-3
1424=-0x1.fad339032d85fp-6
1428=-0x1.55fe75d88069bp-4
1429=0x1.4f47512c87235p-4
1431=0x1.242289e6c8194p-5
1432=-0x1.26fff5eab09f2p-5
1434=0x1.42000ab725c4cp-2
1435=-0x1.7e9aaca33d0e8p-5
1437=-0x1.fa591f9668d83p-1
1438=0x1.03681b94b40c1p+0
1439=-0x1.6fcb3d02b47fcp-7
1440=0x1.774b7c092330ep-11
1441=-0x1.b3f29f6b098fep-11
1443=0x1.0692f80bc5654p-1
1444=-0x1.a48d712ac8ed6p-2
1446=-0x1.de9a18dd0f196p-4
1447=0x1.477e14b3b6075p-3
1448=-0x1.0e19c1bced328p-7
1449=0x1.a58b55ab20a17p-3
1450=-0x1.989b136839ccep-3
1452=-0x1.3e3ed35d5bbbfp-4
1453=0x1.274da090875a6p-5
1455=0x1.c688d2dd41a08p+0
1456=-0x1.82d3690d91d0fp+0
1457=-0x1.75e872a9e33ap-5
1459=0x1.34b6fc9fe2737p-8
1461=0x1.8c094ba8473f3p+0
1462=-0x1.64faa8e5f7d18p+0
1463=-0x1.33bd9a3c041d1p-5
1467=0x1.60fb43985a774p-2
1468=-0x1.402a655d8416dp-2
1469=-0x1.06ffe0b794d51p-7
1470=0x1.c2d866ccb1364p+0
1471=-0x1.bfc780858c65ep+0
1473=0x1.2eea71dc5c82ep-7
1474=-0x1.188dd8d4cf096p-9
1479=-0x1.3eddaf8f3d199p-2
1480=0x1.9db389c57c308p-2
1482=-0x1.8853cf172df45p-8
1483=0x1.336822eb86a91p-9
1485=-0x1.0c592d3e9c38dp-4
1486=0x1.28a3c36c38e1fp-4
1488=-0x1.57c6694df92a3p-3
1489=0x1.ad95069cee3f9p-3
1491=-0x1.d1a0cb4c2f88fp-4
1492=0x1.297c7a0aa3bf5p-2
1494=0x1.d44733bea54b1p-5
1495=-0x1.73fa12d5e5945p-6
1497=-0x1.e0438b1c356c2p-2
1498=0x1.069a65873ea5p-1
1500=-0x1.ca2c6a3dfc26ep-5
1501=0x1.59d681eb0a7e2p-4
1503=-0x1.ad3834ec38d1cp-2
1504=0x1.b0ad5ad404b6cp-2
1505=-0x1.ba09b3e6b6cf1p-5
1506=0x1.0ad0e3ab0ebe5p-3
1507=-0x1.c5185f4ac32eap-5
1509=0x1.bc0576e1c42ecp-3
1510=-0x1.dcd4fd55950d6p-4
1512=0x1.0ddca1efda938p-3
1513=-0x1.fccb7e41ce956p-4
1515=0x1.9271c4833b4eap-9
1516=-0x1.9af92c28f19edp-9
1518=0x1.4d7d5792e42bep-3
1519=-0x1.160da3a5ef0d7p-3
1521=-0x1.03f798bfdcacap-2
1522=0x1.49bb735c3910ep-2
1524=0x1.c6e9dca054c47p-1
1525=-0x1.b8eac039f215cp-1
1527=-0x1.adc05dd5990e1p-6
1528=0x1.19735691e930cp-4
1530=-0x1.4e6d68c8d8c64p-2
1531=0x1.dc70b0675897fp-2
1533=0x1.ee884d651e2ccp-1
1534=-0x1.c9f7f27cf6aabp-1
1535=-0x1.bb1e1ba1e57e8p-8
1536=0x1.3ad8e472ee7cdp-2
1537=-0x1.7c7174afaeaa8p-4
1539=0x1.2e813433bb3fdp-1
1540=-0x1.a58ad84bc8816p+1
1548=-0x1.e164d35fc1998p-5
1549=0x1.e116ff527474p-5
1551=-0x1.e76cac1d96298p-5
1552=0x1.41e3f8051306dp-6
1557=0x1.f3bb28dcf9e89p-9
1558=-0x1.b9bba43e8fdd5p-9
1560=-0x1.14412ac12be92p-6
1561=0x1.540c839d32ec6p-5
1566=-0x1.02704cc900083p-2
1567=0x1.614a65c10dd0ep-2
1569=0x1.25d503d9510ecp-4
1570=-0x1.de17dcb92a976p-5
1572=-0x1.5c3cf06b0dd58p-1
1573=0x1.5d47782a6777p-1
1575=-0x1.a0e6bfea5d887p-5
1576=0x1.19521054bd9e1p-4
1578=0x1.fbe819754a2cap-5
1579=-0x1.2c61fc8273b8cp-5
1581=-0x1.658799600d86bp-4
1582=0x1.d998deac50ca3p-4
1587=0x1.e75b89ede79f2p-3
1588=-0x1.760831ee6d836p-3
1590=-0x1.c01bf3f61aadap-3
1591=0x1.0a640c89c2db3p-2
1593=-0x1.5e04031d4aa61p-1
1594=0x1.e181def3d4531p-4
1596=0x1.c27835a303634p-3
1597=-0x1.97ad59546e75fp-5
1599=-0x1.e6803b5682ea1p-6
1600=0x1.bf8eac338dedep-6
1601=-0x1.0909fc74ecb28p-18
1602=-0x1.51ab6fb03e652p-2
1603=0x1.89c9b06cccc2dp-2
1605=-0x1.1b83c173ad95p-4
1606=0x1.1b9bbb9efebe4p-4
1608=-0x1.e674591224beep-2
1609=0x1.68a82bbacd7ccp-1
1611=-0x1.688a613dbb392p-2
1612=0x1.604cd461c77p-2
1614=-0x1.de183d2dd5476p-3
1615=0x1.190bdfed670afp-2
1617=0x1.4bec5a123d642p-3
1618=-0x1.ed15e22549c66p-4
1620=-0x1.1e00d5fc949aap-3
1621=0x1.cc5bfe113260ap-3
1622=-0x1.33fff3a21682fp-2
1623=0x1.1e0c7eeb92e7dp-4
1624=-0x1.6a9f43df44627p-3
1625=-0x1.c6a27fb9c0604p-4
1626=-0x1.fe9742131d3fcp+0
1627=0x1.e78ff68df4099p-1
1629=0x1.3d6bf071883a8p-13
1630=-0x1.27109525fa05p-5
1632=0x1.0dfe48474301fp-3
1633=-0x1.f99533dd6fe55p-4
1635=0x1.2e745c12fa55ap-1
1636=-0x1.d6ad601b75d87p-2
1638=-0x1.441d85be134b7p-6
1639=0x1.851885f70d2dap-6
1641=0x1.9ca2f63db3b1cp-3
1642=-0x1.b21ad0a561cccp-4
1644=0x1.60956d0d544b5p-7
1645=-0x1.3c284766265cap-7
1647=-0x1.22f879ea04efdp-11
1648=0x1.0f94e6cc7e517p-10
1650=-0x1.bc001fb8d66dp-8
1651=0x1.9cdfdbca741d4p-8
1653=0x1.61a3d5f7aa7f6p-6
1654=-0x1.4f68287b0a1fdp-5
1656=-0x1.ba12a5f6c112cp-7
1657=0x1.8b7cd902d181cp-8
1659=0x1.2e41ff7abc827p-5
1660=-0x1.6bae0ec888264p-5
1662=-0x1.1c36ce84cc8b5p-2
1663=0x1.060aec9549273p-1
1665=-0x1.c632620413a9bp-8
1666=0x1.83215a1e1853ep-7
1668=-0x1.c089b91ff1656p-6
1669=0x1.c1a7befb42d32p-5
1671=0x1.50ce8c4a9166p-3
1672=-0x1.3535cfbf429c2p-3
1674=-0x1.55ddfe44bbdf4p-6
1675=0x1.95915086df4d6p-5
1677=-0x1.ed9d0647ac81bp-4
1678=0x1.029b7d9d5ba8bp-3
1680=-0x1.24052acb80f2cp-2
1681=0x1.4986fcdaafa1ep-2
1683=-0x1.8c199cd1308e7p-3
1684=0x1.1b9d822fe1038p-2
1686=0x1.31752c64391f7p-5
1687=-0x1.f6791426ca4c1p-6
1689=0x1.239c6424bd29cp-2
1690=-0x1.1af09a2521e67p-2
1692=0x1.958f13cd790a2p-6
1693=-0x1.4dd2f68b35c26p-7
1695=-0x1.d0235be9c6f8bp-2
1696=0x1.032a9b301df61p-1
1698=-0x1.a8de5988982e8p-1
1699=0x1.bbf94917a7a5bp-1
1701=-0x1.611499a4b1d8bp-1
1702=0x1.8fa5f861d0e34p-1
1704=0x1.bf971f6f17892p-8
1707=0x1.855cc16a7832p-6
1710=-0x1.857bfc03dac22p-8
1711=0x1.f5bee71c4ade8p-6
1713=0x1.61ed0bcc3e365p-2
1714=-0x1.c4fa7d3ece276p-3
1716=-0x1.30135d52f7767p+0
1717=0x1.471f751242b52p+0
1719=-0x1.74c7591326661p-1
1720=0x1.a672cafa02ab1p-1
1722=-0x1.3373f5e95076ap-4
1723=0x1.6d69c569569c2p-4
1725=0x1.16828b63bdf03p-2
1726=-0x1.40ca209eb4507p-2
1728=0x1.4d42b85c909cdp-2
1729=-0x1.32efd9f2c5be4p-2
1731=0x1.225520a9de06bp-1
1732=-0x1.fb6d202dc6847p-2
1734=-0x1.1862148c78184p-1
1735=0x1.bf242a998cf1bp-2
1737=-0x1.6b97c83068176p+0
1738=0x1.61e5399f4f9d9p+0
1740=-0x1.19e33cafb88e5p-4
1741=0x1.30da5a3234ea8p-4
1743=-0x1.05113f982e30bp-5
1744=0x1.43b223d881779p-5
1746=-0x1.9974ae04414b6p-6
1747=0x1.ff3cbfcb67b5p-6
1750=-0x1.1b0bb17c1ac85p-13
1752=0x1.396378bc3ebc5p-10
1753=-0x1.99b8873517c22p-10
1755=-0x1.62c6843c3f40bp-3
1756=0x1.347b0a8964294p-2
1758=0x1.9f8f382ee8664p-12
1759=0x1.35ecae99b398p-9
1761=-0x1.dbfd4a2713af5p-1
1762=0x1.1e1960241dda2p+0
1764=-0x1.1c23cd5476edep-2
1765=0x1.0a069f776a8bdp-2
1767=0x1.5ff95d13598e3p-2
1768=-0x1.92c3f52e5b49ep-2
1770=-0x1.01381ff6987fap-4
1771=0x1.801de956b6bf6p-4
1773=-0x1.d19b5834a115fp-3
1774=0x1.0c75cd30446ddp-2
1776=-0x1.ffa5c92e6502bp-4
1777=0x1.bc4ca5baf065fp-4
1779=0x1.c24ff36d6c6a8p-7
1780=-0x1.738eef4d154p-8
1782=-0x1.52d28350c7dffp-1
1783=0x1.b40e1f87daed6p-1
1785=-0x1.9706cbf9357d4p-3
1786=0x1.86db826efac9dp-3
1788=0x1.41aaa76671c9p-14
1789=-0x1.babd248b328b8p-13
1791=0x1.375df120d626ap-4
1792=-0x1.b71c719c02c28p-5
1794=-0x1.fbd4e603797cap-5
1795=0x1.c35ae863ab4ebp-5
1797=0x1.f3b69ad0e13bdp-4
1798=-0x1.e34ed496c8203p-4
1800=0x1.3a88301e77848p-8
1801=0x1.7de61d7ec5406p-8
1803=-0x1.8cd1993c45c84p-9
1804=0x1.2525853646d08p-8
1806=-0x1.21e3f103b7208p-5
1807=0x1.e564b1ffa543dp-5
1809=-0x1.0e8eefb556321p-2
1810=0x1.1836d9033046bp-2
1812=-0x1.b3d113a5ba12ep-2
1813=0x1.0d3dfd23747efp-1
1815=-0x1.3504cca83eeap-4
1816=0x1.4790083a285f1p-4
1818=-0x1.0911e65070ffcp-1
1819=0x1.675bb36ad2989p-1
1821=-0x1.566888b8837d9p-3
1822=0x1.407ee8bda2d11p-2
1824=-0x1.53124bcee8ffp-4
1825=0x1.b3e1970f296a5p-4
1827=-0x1.2fd0cee2578bbp-6
1828=0x1.26370de62f458p-5
1830=-0x1.54aa2737de2c7p-5
1831=0x1.500e42c0f4948p-4
1833=0x1.f9b9c7c63883dp-2
1834=-0x1.341c4d10a177ep-2
1836=-0x1.720752d1dcb7ap-2
1837=0x1.5806c5e874904p-4
1839=0x1.c3896ada94578p-6
1840=-0x1.c53819dfed7b5p-8
1842=-0x1.09a10cfae9a81p-2
1843=0x1.824e08b9f3fb2p-2
1845=-0x1.e3d04cfd5af3bp-8
1846=0x1.2457504e28521p-7
1848=-0x1.0e172ce1f916ep-5
1849=0x1.5a1cb0073d063p-5
1851=0x1.391c34b7dba9p-3
1852=-0x1.a9d8fdeefcecep-3
1854=0x1.1bfed2868272dp-3
1855=-0x1.a483c10038091p-5
1857=0x1.6c7af2394fcf1p-4
1858=-0x1.448644f885b59p-3
1860=0x1.fe2558df7c8cdp-2
1861=-0x1.c1783cd6ec74p-2
1863=-0x1.e5bdb1120f144p-4
1864=0x1.5642057d47688p-3
1866=-0x1.2eb47fb751084p-9
1867=0x1.bd8fbd71cddcbp-9
1869=-0x1.e5c9b64062c0bp-6
1870=0x1.2869d190e249dp-5
1872=-0x1.96dceee7bd9a6p-6
1873=0x1.cc9b13e3ab701p-4
1875=-0x1.dad73f2a051c5p-3
1876=0x1.2bc3f05fab0ccp-2
1878=-0x1.b81cf5b78f99p-1
1879=0x1.186fcee63c306p+0
1881=0x1.f3e077456abe4p-7
1882=-0x1.d1cada28b43ap-8
1884=-0x1.770065132f9d6p-2
1885=0x1.be9320a446464p-2
1887=-0x1.e29675fa44a92p-1
1888=0x1.14c25754e61dfp+0
1890=0x1.5a1be37ac89b7p-2
1891=-0x1.a6cd1ae19f96p-3
1893=-0x1.f65ade141ec46p-3
1894=0x1.27234e9603899p-2
1896=-0x1.1e6d7b632d42ep-2
1897=0x1.188bd95a2ab8bp-1
1899=-0x1.927d289f48502p-3
1900=0x1.0edb864b91a39p-2
1902=-0x1.604cbb320ddb6p-2
1903=0x1.bc6790155a238p-2
1905=-0x1.6efe768afbe2bp-1
1906=0x1.abf554a856abp-1
1908=0x1.2c3f08ab8542p-8
1909=-0x1.951308064a76ep-10
1911=-0x1.65f50206f4019p-1
1912=0x1.b448fcc3ce25p-1
1914=0x1.626eb9366edfbp-2
1915=-0x1.0e93fb5171acep-2
1916=-0x1.0fdfb26a12972p-7
1917=-0x1.521ab5deda51fp-7
1918=0x1.fd1a19d931e29p-7
1920=-0x1.284c305c22b5p-5
1921=0x1.f0386f7847ce6p-5
1923=-0x1.2289e1e36e51p-5
1924=0x1.88f2a3a1b2234p-4
1926=0x1.7dc8e08c5f1fap-9
1927=-0x1.a3b126b50eddp-9
1929=-0x1.d792d7ada40e6p-4
1930=0x1.eead31485bbaap-4
1932=-0x1.06de824e96ad2p-5
1933=0x1.a6204d3138214p-5
1935=-0x1.1698a13c3d1d9p+0
1936=0x1.4d19a8956cda2p+0
1938=0x1.020ba115d0df2p-3
1939=-0x1.174dc5abde6dbp-4
1941=0x1.7fb19867cd4ecp-9
1942=-0x1.ca01780fe9e86p-9
1944=0x1.0070925c04558p-3
1945=-0x1.40221f8b75174p-4
1946=-0x1.ebc8835d67a2ap-8
1947=-0x1.87e217aed939ep-8
1948=0x1.1a9d4dc9c905ep-7
1950=0x1.ceecceee93a59p-6
1951=-0x1.a8352a441f4d3p-6
1953=0x1.641333fa847d5p-4
1954=-0x1.bdea01903b9fp-5
1956=-0x1.483f3051227bfp-5
1957=0x1.03422851da8bap-4
1959=0x1.5c124a05759b4p-2
1960=-0x1.07180657353b8p-2
1962=-0x1.9ae10b2645f7fp-2
1963=0x1.6453d9397e6fdp-2
1965=-0x1.554ef62ac97e6p-3
1966=0x1.cba21461f1a8ap-3
1968=0x1.1113c9df20ec8p-2
1969=-0x1.eebfd352e6e49p-3
1971=-0x1.b453127db78cfp-8
1972=0x1.011151cd3426dp-6
1974=0x1.518568cd39ba1p-3
1975=-0x1.ddcdb5ea3791p-4
1977=-0x1.b71349a203bdcp-9
1978=0x1.5e5df1ddeb3d1p-7
1980=-0x1.1eaf5877cf0a6p-4
1981=0x1.129e28b68755p-3
1983=-0x1.906b285c72ca6p-8
1984=0x1.5a3e613082aefp-10
1986=-0x1.30461624a6577p-4
1987=0x1.82f7385c21035p-5
1989=-0x1.107c4dd32a8fap-10
1990=0x1.03d45a2b71a8cp-9
1992=-0x1.3f941dc28e048p-4
1993=0x1.9dc462868b75fp-4
1995=0x1.3c196a8d65442p-8
1996=-0x1.2de43c14e7326p-8
1998=-0x1.f7624013ab1ffp-3
1999=0x1.1ab3715352e89p-2
2001=0x1.41cb7c7337666p-6
2002=-0x1.efebf230593aap-6
2004=-0x1.057c5546cb093p-5
2005=0x1.4f6e8f1250dep-5
2007=-0x1.51a6287ca217p-4
2008=0x1.4c98bf49fdf0cp-4
2010=0x1.cd1ccebc2e2ep-9
2011=-0x1.bbe6277cb1766p-9
2013=0x1.6123180ab53f8p-9
2014=-0x1.63174cde4f7aap-9
2016=0x1.c889765634103p-3
2017=-0x1.b7d59126c2121p-3
2019=0x1.995217e65adb1p-2
2020=-0x1.634e5a08d3ecbp-2
2022=0x1.2dc1cf60a4513p-3
2023=-0x1.a40fe4cc5d5f4p-7
2025=0x1.409e76a7ebc78p+1
2026=-0x1.36377ac9b8b1ap+1
2028=0x1.fa6b5543c7074p-1
2029=-0x1.9e208fe172a14p-1
2031=-0x1.0778a6b9169afp-1
2032=0x1.02beb0aa97401p-1
2033=-0x1.f1a40f09ce0bp-13
2034=0x1.697e18d6f9e3p+0
2035=-0x1.b9b94ab88aefp+0
2037=0x1.95cf0b25de42bp-2
2038=-0x1.a67714d2c5a92p-2
2040=-0x1.94670abff24fdp-2
2041=0x1.f07a874971411p-2
2043=-0x1.d6f001ae3fc2dp-7
2044=0x1.caa73fd946304p-6
2049=-0x1.08e7464322d58p-7
2050=0x1.d1e6cb6a9bc32p-7
2052=0x1.321ae5cc4aa54p-2
2053=-0x1.fc907c1384fdap-3
2055=-0x1.d6fdc7fe7cd13p-8
2056=0x1.5ed93ecd86e9cp-7
2058=-0x1.8bd234a9192b3p-10
2059=0x1.f8e8f9e7e1aedp-6
2061=0x1.21421758c6e43p-10
2062=-0x1.81ce6c7cc674p-11
2064=0x1.a9c4b81d4c68cp-7
2065=0x1.d1b3f890ce898p-10
2067=-0x1.d3b88fe206beap-2
2068=0x1.436a84306aae1p-1
2073=0x1.40176a1418311p-8
2076=0x1.389718c63c9d2p-9
2079=-0x1.72ac807c82ca8p-1
2080=0x1.94dc741f5f14ap-1
2082=0x1.40033d4dc6cfep-5
2083=-0x1.65fed8850c02ap-6
2085=-0x1.1b9e41f8e08fep-2
2086=0x1.58607f5d2495dp-2
2088=0x1.5b67d9eb642e3p-11
2089=-0x1.fd70000a1778p-11
2091=-0x1.21873c69643bap-2
2092=0x1.81e0c974036bep-2
2094=0x1.8c0261d29286p-10
2095=-0x1.3716b35224cfp-8
2097=0x1.53e01c1e64d84p-5
2098=-0x1.0c0ffa9714b66p-6
2100=-0x1.86563634f3f62p-5
2101=0x1.73b67295c7b96p-3
2102=-0x1.8a536ac4b27eep-10
2103=0x1.442738a06261dp-7
2104=-0x1.3aeb092265242p-7
2106=0x1.788cc2babbd8p-8
2107=-0x1.bd4b34c4672fap-9
2109=-0x1.e8a42bdf12a48p-5
2110=0x1.6449e67c2d2f2p-5
2112=-0x1.4d599ff0b0d2ap-12
2113=0x1.340977a5a3718p-9
2115=-0x1.0e375fae3f185p-3
2116=0x1.c8e7a1b8c643dp-3
2118=-0x1.abbc475ea25cep-11
2119=0x1.0be0e677a4a9p-12
2121=-0x1.276c03485a2b7p-7
2122=0x1.e248716233426p-9
2124=-0x1.905a56400e658p-2
2125=0x1.03a9ca034c66ap-1
2127=-0x1.bac5ee1741547p-4
2128=0x1.c28b3e4ce4023p-4
2130=0x1.280759d1d656p-5
2131=-0x1.e6606d7db5b16p-6
2133=-0x1.40647ba23e7b4p-6
2134=0x1.24e4b8241f08fp-5
2136=0x1.311d1846f9035p-5
2137=-0x1.58674076f5382p-5
2139=-0x1.0ead59b47c67p-15
2140=0x1.26cd8280237f3p-10
2142=-0x1.1a7cd1a6ca5efp-3
2143=0x1.f8096224571d6p-4
2145=-0x1.e2117bb29457cp-10
2146=0x1.cf2665f0f2837p-11
2148=0x1.7faad9797fa2cp-2
2149=-0x1.189e5c7c6ba78p-2
2151=-0x1.af4e8b12a5e9p-3
2152=0x1.079fe635cd7fcp-3
2154=0x1.65399595d90e3p-7
2155=-0x1.cbba4d66f4b6ep-8
2158=0x1.193314eea0527p-11
2160=-0x1.cb27f6daab47ep-8
2161=0x1.fa6e916a72a9p-8
2163=0x1.0444f3d7c04bap-3
2164=-0x1.b178ffcafbcb5p-4
2166=-0x1.f71ce04a4a74ep-2
2167=0x1.4998e5efe4d39p-1
2169=0x1.f4e5725f26998p-11
2170=-0x1.f93ffb3e9efb4p-12
2172=0x1.350ad45989bfp-5
2173=-0x1.ef215a5f21c76p-6
2175=-0x1.02f93ee0515b2p-1
2176=0x1.7cc87b24ebe7ap-1
2178=-0x1.3bea504ed17bbp-2
2179=0x1.72cc1fd64da67p-2
2181=0x1.ad5414e97865ep-12
2182=0x1.a8dc9a7501cb5p-8
2184=-0x1.eb65d6bf9216bp-2
2185=0x1.228695f1a8884p-1
2187=-0x1.67bc749e42ab1p-7
2188=0x1.37cdfdee8c3cap-4
2190=-0x1.20444f492fdf8p-10
2191=0x1.739481c4a7c0bp-10
2196=0x1.6dad565f9a5bp-1
2197=-0x1.2e58e06849adcp-1
2198=-0x1.68229a42f64b4p-5
2199=0x1.7bcd962028488p+1
2200=-0x1.73bec50de7364p+1
2202=-0x1.5ff8863cb6ec3p-4
2203=0x1.96fd19d6c8e55p-4
2205=0x1.a4647d4d70151p-4
2206=-0x1.00e713134d94p-4
2208=0x1.30bea740f291bp-2
2209=-0x1.f98fce147b8d4p-3
2211=0x1.ebafa5c24e696p-11
2212=0x1.21fcb4fb0eaa7p-11
2214=0x1.c64d0f5adbb1ep-3
2215=-0x1.0874ad0f77845p-3
2217=0x1.db504af839383p-1
2218=-0x1.b77dc777ea165p-1
2219=-0x1.b21eb1a96096p-8
2220=0x1.81548620c90ep+1
2221=-0x1.9a299ac0efb25p+1
2223=-0x1.e3c6679b405adp-5
2224=0x1.14e7ecc641c8fp-6
2226=0x1.1477a07aea721p-8
2227=-0x1.e1ab86d2e6a3ep-9
2229=-0x1.4aba8b3dce717p-5
2230=0x1.40fc9171fb3dfp-5
2232=-0x1.653db78a5ebfep-9
2233=0x1.af63934f58321p-8
2235=0x1.4b38cb61246dcp-7
2236=-0x1.ae5ef0e07f472p-8
2238=0x1.ef2700da3f73ep-8
2239=-0x1.e9562d74a5c2p-13
2241=-0x1.9d199c961bb6dp-6
2242=0x1.d16172d2be566p-6
2244=-0x1.208a04841f7e1p-9
2245=0x1.771c976d2a77ap-10
2247=-0x1.d94e82b6d8771p-9
2248=0x1.864bb82f74c44p-8
2250=0x1.c63afc9d14911p-13
2251=-0x1.62623a0ea696fp-12
2253=0x1.342a5bf9823f6p-4
2254=-0x1.c42d28bae0ceap-5
2259=0x1.c7cef95ac4b8bp-1
2260=-0x1.bb95bae52fdabp-1
2262=-0x1.844300cbf57e8p-4
2263=0x1.b5993de058e18p-4
2265=-0x1.393451a78f25ap-4
2266=0x1.78e2f28bb4736p-4
2268=0x1.55923c8cf43edp-3
2269=-0x1.3b60c7df9041dp-3
2271=-0x1.4b509e33b0eddp-4
2272=0x1.92e6dcc562f59p-4
2274=-0x1.17c7f2b0a85e7p-3
2275=0x1.091dca48f2c47p-3
2277=-0x1.c596b0c964651p-6
2278=0x1.0a4ecd176a3cap-5
2280=-0x1.9fe0f8c16cc78p-5
2281=0x1.dd9219b32f412p-5
2283=0x1.000ab81401981p-2
2284=-0x1.554430765a67cp-3
2286=0x1.0b1cfbaa311f4p-2
2287=-0x1.c8e703dd91539p-3
2289=0x1.bc95aa825d4dbp-9
2290=-0x1.1327b2ae5f2ecp-10
2292=-0x1.013ab2a6c624ep-2
2293=0x1.b729845afa855p-2
2295=-0x1.9e5eed115ea9cp-6
2296=0x1.400f169ea7f3bp-6
2298=-0x1.2889703c13f9p-1
2299=0x1.7c5dcc9daae73p-1
2301=-0x1.7244bced74fafp-3
2302=0x1.76d68da20ec0ap-3
2304=-0x1.320559ba22d3dp-4
2305=0x1.f63fddf561d77p-4
2307=-0x1.6fdda68cfca0ep-5
2308=0x1.0729c9e8999e3p-4
2310=-0x1.fa4fc7a5b224dp-8
2311=0x1.68d951b25b904p-7
2313=0x1.c5b25516af2c8p-3
2314=-0x1.04758e94ca172p-2
2316=0x1.c92610c1e171p-2
2317=-0x1.2b7942786b5fcp-1
2319=0x1.bc6bee6d83ad8p-2
2320=-0x1.a386c08a33bdap-2
2322=0x1.ffeea577b858ep-5
2323=-0x1.07f2e5328dee6p-4
2325=0x1.3be3589b39402p-7
2326=-0x1.0fad675ac1e18p-9
2328=0x1.fd0f8155be41ap-4
2329=-0x1.091155db28dcep-3
2331=0x1.b2b13975a97b7p-6
2332=-0x1.a5c291daeb966p-5
2334=-0x1.f9568008e1cd1p-4
2335=0x1.ef3cd95af66ep-4
2337=-0x1.e3a300b57efe5p-8
2338=0x1.55cb74a89816fp-7
2340=0x1.15516da9cbecdp-13
2341=-0x1.6a40d3a283ef6p-11
2343=-0x1.e7358ff85ed08p-7
2344=0x1.41228baff1c21p-6
2346=-0x1.a04f28f56d70bp-3
2347=0x1.16c02f5712063p-2
2349=0x1.4ba92565aabdcp-2
2350=-0x1.916bc05d35815p-2
2352=0x1.6bf90b7232dd1p-7
2353=-0x1.4750dfdc4088ep-13
2355=0x1.b80bd2e8c1fe8p-7
2356=-0x1.d67774d2fa912p-9
2358=-0x1.7b70355582e15p-2
2359=0x1.d6e59e1f6ac32p-2
2361=-0x1.ba82a662cb836p-5
2362=0x1.a610c648fa284p-3
2364=0x1.26d47ba549f07p-5
2365=-0x1.8b23ce4146732p-6
2367=-0x1.6ac7662e0124p-1
2368=0x1.8efc1b98383d2p-1
2370=-0x1.9cd45ce306fcfp+0
2371=0x1.ec11236a68033p+0
2373=0x1.2b7256d5afd33p-6
2374=-0x1.d1f769e72d526p-7
2376=0x1.583b6cec8a19p-1
2377=-0x1.12edd4dae7ce9p-1
2379=0x1.292bd2ebae81dp-3
2380=-0x1.500f6e200d7e9p-4
2382=0x1.31a01c496f066p+0
2383=-0x1.f511a0a59b6fep-1
2385=0x1.aaf99bae91d62p+1
2386=-0x1.872e1e5787ad8p+1
2388=0x1.18fe6e599264ap+2
2389=-0x1.1648046d03904p+2
2391=-0x1.bb2b0fa84bce4p-3
2392=0x1.d8d4643b6cacap-3
2394=0x1.60256fa9a78p-3
2395=-0x1.757f16f8eb858p-4
2397=-0x1.dad0353e41efep-10
2398=0x1.c2e6f92275517p-7
2400=-0x1.a9018708b11a7p-5
2401=0x1.02271d6b85858p-4
2403=-0x1.6896f5d5106c3p-5
2404=0x1.f781374f5940bp-5
2406=0x1.40a66a85a8965p-7
2407=-0x1.b038ec1051cdbp-7
2409=-0x1.5f4bbc4ade934p-1
2410=0x1.92cf33ce115f2p-1
2412=-0x1.2b2642a3a5948p-6
2413=0x1.94d9d8ee11fa4p-6
2415=-0x1.c683be8e274aep-3
2416=0x1.06107605627acp-2
2418=-0x1.377e2f8e6aee4p+0
2419=0x1.72b1859a50a46p+0
2421=-0x1.ecd3876f33d84p-3
2422=0x1.1bf991bf9eccep-2
2424=-0x1.04474f33824c4p+0
2425=0x1.2fc306aad54adp+0
2427=-0x1.8caaacb945b37p-2
2428=0x1.2698e67bcf04fp-1
2429=-0x1.20ddd4a248724p-4
2430=0x1.74c4e9d490ac2p-1
2431=-0x1.07f1fa3c619dep+0
2433=-0x1.45d953d7a7293p+0
2434=0x1.95dc89edb1087p+0
2436=-0x1.736af1a6ef1ccp-3
2437=0x1.baaaf2a9506a3p-3
2439=-0x1.741ecce1ede84p-1
2440=0x1.fb2fe1922445cp-1
2442=-0x1.7adb5adc80ffap-2
2443=0x1.06ab9578104a3p-1
2445=-0x1.3b4e24729757fp+0
2446=0x1.11e716d13deb1p+0
2448=0x1.ff50b4f6db8bdp-5
2449=-0x1.7be3cb0a7c991p-4
2451=0x1.ff50b4f6db8bdp-5
2452=-0x1.7be3cb0a7c991p-4
2455=-0x1.418585915da4ep-1
2458=0x1.e5ace99a75482p-1
2463=-0x1.8cec1aa350673p-3
2464=0x1.0db1556f52c6bp-2
2469=-0x1.b61878f054424p-2
2470=0x1.2bf32a306d6e7p-1
2475=0x1.0267040ef28d9p-8
2476=-0x1.1f87d1869100dp-8
2478=-0x1.7a1687f1d6399p-2
2479=0x1.e983577bba7fep-2
2481=-0x1.129e3e12cd544p+0
2482=0x1.1871b8e28c188p+0
2484=0x1.32752c9ed6edfp+0
2485=-0x1.27fa9b29082f2p+0
2487=0x1.fa15643ce0644p-14
2488=-0x1.59f5a67f333efp-10
2490=0x1.959e720c742e4p-7
2491=-0x1.921e91ed74c6ep-6
2493=0x1.67593a5e8d805p-7
2494=-0x1.3a68abe0be771p-7
2496=-0x1.5812371aca632p-9
2497=0x1.ed64ec7bbc2b3p-9
2499=-0x1.2ed55bfbdf8e6p-3
2500=0x1.971af15441451p-3
2502=0x1.abed17253bc12p-4
2503=-0x1.94c9b1de60621p-4
2514=0x1.31fbef38291a1p-10
2515=-0x1.5efa8a4a1546p-11
2517=-0x1.12110500c279ap-8
2518=0x1.9b5e8702dc2dbp-7
2520=-0x1.c31a63d8b23e7p-5
2521=0x1.89d5f30fe9426p-6
2523=0x1.1fa71503b8a3bp-9
2524=-0x1.5ecddd77d3a88p-9
2526=0x1.46fd246c19cc9p-4
2527=-0x1.7fa3af6417cdp-4
2529=0x1.304041821a083p-3
2530=-0x1.35fc96dff36dp-3
2532=0x1.c46f9ef775cfep-21
2533=-0x1.6644f6314986ap-21
2556=-0x1.dec92829c178ap-13
2557=0x1.d4e4589655c16p-12
2559=0x1.beb542830ac18p-3
2560=-0x1.62bda1ab47f4fp-3
2562=-0x1.a0b9a6da5a3c6p-14
2563=0x1.0bb772904f231p-9
2565=-0x1.bc53cd3ccbc7dp-8
2566=0x1.96d8e902593ccp-8
2568=-0x1.bc556eab9a33fp-8
2569=0x1.96d8a5f9e2d77p-8
2572=-0x1.7e9a87c38dcb7p-3
2574=-0x1.f45ad2f010201p-8
2575=0x1.2062792e2a9ep-7
2580=0x1.5dd4040718895p+1
2581=-0x1.5b4641b0f2bb7p+1
2583=-0x1.7e5fff37a3a4p-3
2584=0x1.78e9a212baecep-3
2586=0x1.61af6dec46fc9p-4
2587=-0x1.bbad1f1aa4c41p-5
2589=0x1.7a786ecf53a24p-14
2590=-0x1.ac0b854d4bb65p-17
2595=0x1.155fa6c2fc1fdp+0
2596=-0x1.ecdc82fd7535ap-1
2598=-0x1.6805a0f27cc3p-5
2599=0x1.678ddaf1a29a9p-3
2601=0x1.84d70866e0dcp-2
2602=-0x1.62d41c335f4a8p-2
2604=-0x1.e89c209985594p-6
2605=0x1.6e98a14a175fcp-1
2607=0x1.d2138477453e3p-1
2608=-0x1.de985d7932931p+1
2613=-0x1.96ee3cee5b3b2p-5
2614=0x1.47d0264c72148p-5
2667=0x1.b0d8f8f0a0976p+0
2668=-0x1.afec5bd905dfep+0
2670=0x1.af98877365dafp-8
2671=-0x1.2b84bb7f17cedp-7
2676=-0x1.1f79e343a2124p-15
2677=0x1.209c488b7c038p-15
2679=0x1.c70ab661a0b39p-7
2680=-0x1.5fc3487b21973p-7
2682=0x1.50f1794bcbbdcp-3
2683=-0x1.1dfb47da573f3p-3
2685=0x1.0764eece1b582p+0
2686=-0x1.f5b813cbd60f6p-1
2688=0x1.530edfb9c453bp-5
2689=-0x1.9467f353182dfp-5
2697=-0x1.270be30ca40b9p-2
2698=0x1.56225e02d95d1p-2
2700=-0x1.3a704c8f41281p-2
2701=0x1.6ad6a23994d05p-2
2703=-0x1.568c8b6095993p+0
2704=0x1.859efca261c3cp+0
2706=-0x1.72f9d162a2d1ep-2
2707=0x1.a9a652fdfeaecp-2
2712=-0x1.b94d3ebe33c39p-3
2713=0x1.fc22611da2befp-3
2715=-0x1.4f7feba29303ap-3
2716=0x1.88284dec8b0fep-3
2727=0x1.1eef2b6afff24p-1
2728=-0x1.1dd4020df02b7p-1
2730=0x1.fee117ca6e9c2p-2
2731=-0x1.fa4e05a733114p-2
2736=0x1.04057926987dfp-1
2737=-0x1.f5f2fe58f88e3p-2
2742=0x1.24120c062296bp-3
2743=-0x1.2437c7709c53ep-3
2805=0x1.88c144476e96ap-6
2806=-0x1.864471bcbf668p-7
2808=0x1.c8ace57c853c7p-3
2809=-0x1.5902826cb5647p-3
2811=-0x1.632c1548f37f8p-7
2812=0x1.b0a024018f28bp-7
2814=0x1.581349f3c88c8p-6
2815=-0x1.ecd7572b0f4bap-7
2817=0x1.1c910ce2dfdfp-7
2818=0x1.96442d0e0433dp-7
2819=-0x1.45f32dd6865ep-5
2820=-0x1.5b2c0dcc13afcp-2
2821=0x1.02914e7554b8p-1
2823=0x1.7b64a1b0c07a3p+0
2824=-0x1.918c38408c1fep-2
2829=-0x1.11cdb976e3716p-3
2830=0x1.296590d9b5f9p-3
2832=-0x1.0f29d6f8985cp-2
2833=0x1.262238ad8bee6p-2
2835=-0x1.a91f9fa26fa05p-4
2836=0x1.e8b1bb1d7d9e8p-4
2838=0x1.ccb53d93506ebp-8
2839=-0x1.d55ca3c220b1bp-8
2841=0x1.902269661e6aep-10
2842=-0x1.70f520e61e54dp-10
2850=-0x1.c61538c8bd50dp-7
2851=0x1.2f057f45136c3p-6
2853=0x1.1eff253f74f67p-1
2854=-0x1.1e72b6459d5f4p-1
2859=-0x1.687026046efc5p-1
2860=0x1.d586a7af309fbp-1
2862=-0x1.a6917c57ce0ep-1
2863=0x1.1607050042a78p+0
2865=-0x1.6cc8904dd645fp-3
2866=0x1.ee5bd3a822ed5p-3
2868=-0x1.295f14b78a237p-1
2869=0x1.9575e39c431a8p-1
2871=-0x1.fb543a73f4f0cp+0
2872=0x1.42aef57aec5e3p+1
2874=-0x1.68eef4f98be5ap-1
2875=0x1.de8f6cc8948cp-1
2877=-0x1.99bd054d63b9p+0
2878=0x1.10d014ece05a8p+1
2880=-0x1.3baee397f1583p-1
2881=0x1.52df1514fd94fp-1
2883=-0x1.2b7cdd9181dd1p-1
2884=0x1.5780f19df174ap-1
2886=-0x1.d070379e44d72p-2
2887=0x1.0d430dce2d719p-1
2889=-0x1.6ed7ed8a4598p+1
2890=0x1.7ebc6dabf78a8p+1
2892=-0x1.387815830472cp-3
2893=0x1.750e70665285cp-3
2895=-0x1.d197b47a719aap-5
2896=0x1.2418c666adf7dp-4
2898=-0x1.314fb6868d5ebp-2
2899=0x1.5ad9cd9e417bp-2
2901=-0x1.eaddce7fea25p-6
2902=0x1.882e2f8e0f04bp-6
2904=-0x1.1df652878f00cp-9
2905=0x1.09e16f88a4f85p-8
2910=-0x1.a2237a70bdfd4p-3
2911=0x1.e8636827e65dfp-3
2913=-0x1.73e28f71ab8c6p-3
2914=0x1.643567ec0d9d2p-3
2916=0x1.473a81f1961aep-8
2917=-0x1.2e0134059acbp-9
2919=0x1.4b4c787d0eea5p-6
2920=-0x1.f4290bf8411cep-7
2922=0x1.c158f7e0580e6p-7
2923=-0x1.01522de2fd2dep-7
2925=-0x1.7d9bd958fb5d8p-3
2926=0x1.b9cefab9ee5e1p-4
2928=0x1.b99878aa17f4fp-7
2929=-0x1.0d6121d24d61dp-6
2931=-0x1.f06e3a523fc0ep-4
2932=0x1.102a59f0432b6p-3
2934=0x1.5ead2c66663e4p+0
2935=-0x1.587f5e31a2ab2p+0
2937=0x1.571ffc07f1c3p+0
2938=-0x1.54877167f3197p+0
2940=-0x1.d30b9b3498ea7p-8
2941=0x1.03fe97bac15bdp-7
2943=-0x1.cefa9d5e73decp-3
2944=0x1.1cf4af0196c8ap-2
2946=-0x1.b86d0aa86b47ap-13
2947=0x1.20b1e027526d4p-10
2949=0x1.cf47068ee69cap-1
2950=-0x1.9613e3630673cp-1
2952=0x1.d420436f9674dp-2
2953=-0x1.afa09b4c2e21bp-2
2955=-0x1.42502e17462a2p-1
2956=0x1.43f6847bf243ap-1
2958=-0x1.17f3d4f47af7ep-12
2959=0x1.17e4e33470c6bp-12
2961=-0x1.f30d8c1fbda99p-8
2962=0x1.2f38457713635p-7
2967=-0x1.fc78da809f7b8p-8
2968=0x1.29559137e856ep-7
2973=0x1.7eb1ba74ab7c1p-6
2974=-0x1.6e0917a938575p-6
2976=0x1.72d4d5186876ap-4
2977=-0x1.6b974a681861p-4
2985=-0x1.5c2d5631c26bdp-4
2986=0x1.798c9ddc434ccp-4
2988=-0x1.79b13fb852cf3p-9
2989=0x1.71ccaf27e8p-9
2991=-0x1.469e1563216p-6
2992=0x1.54a55e9979616p-8
2994=-0x1.fe48c413fe8e8p-14
2995=0x1.055adbf93d2c6p-13
3000=-0x1.33b6379d86faap-19
3001=0x1.35ac52162565ap-19
3006=-0x1.51b39a42093a8p-8
3007=0x1.7b8f6a2020fd5p-8
3012=-0x1.841e4ab1b4d08p-3
3013=0x1.a01eade20b5ebp-3
3015=-0x1.8ae64e47f4142p-10
3016=0x1.0d5121816cd59p-9
3018=0x1.7b1f9302f058cp-9
3019=-0x1.78358778a6bfep-8
3024=-0x1.b43dbf2200284p-8
3025=0x1.e6eec0a2ad7a1p-8
3057=-0x1.96ffe61a55f6fp-8
3058=0x1.9782ad0e2a4d2p-8
3093=0x1.74fa5ab83e92fp-13
3094=-0x1.74f23d69a6d8bp-13
3099=-0x1.d2e23e8d76fbep-10
3100=0x1.eed3446d4d61fp-10
3105=-0x1.cfa9bc7754076p-10
3106=0x1.eab8bd2f4aea4p-10
3141=0x1.80eedb67cd0c5p-4
3142=-0x1.6b19f6b0bc69ap-4
3144=0x1.c63979a4a578cp-7
3145=-0x1.6e982a1827a63p-7
3219=0x1.03584477206edp-5
3220=-0x1.00829d33a160fp-5
3231=0x1.7626c7e91be9dp-11
3232=-0x1.53944d8a887c9p-11
3234=0x1.7626c7e91be9dp-11
3235=-0x1.53944d8a887c9p-11
