#mdl#2#2362
#rdr#18/10/0
1:b,
21:u:code-1LLL =%X[-3,0],
21:u:code-1LL  =%X[-2,0],
21:u:code-1L   =%X[-1,0],
20:u:code-1X   =%X[0,0],
20:u:code-1R   =%X[1,0],
20:u:code-1RR  =%X[2,0],
20:u:code-1RRR =%X[3,0],
13:*100:%x[ 0,1],
13:*100:%x[ 0,2],
13:*100:%x[ 0,3],
13:*100:%x[ 0,4],
13:*100:%x[ 0,5],
13:*100:%x[ 0,6],
13:*100:%x[ 0,7],
13:*100:%x[ 0,8],
13:*100:%x[ 0,9],
14:*100:%x[ 0,10],
#qrk#3
1:T,
1:I,
1:O,
#qrk#970
1:b,
17:u:code-1LLL =_x-3,
17:u:code-1LL  =_x-2,
17:u:code-1L   =_x-1,
15:u:code-1X   =76,
15:u:code-1R   =79,
15:u:code-1RR  =78,
15:u:code-1RRR =68,
7:*100:Lu,
9:*100:14:T,
9:*100:24:T,
8:*100:7:T,
9:*100:26:T,
9:*100:16:T,
9:*100:19:F,
8:*100:6:F,
9:*100:18:F,
8:*100:8:F,
17:u:code-1LLL =_x-2,
17:u:code-1LL  =_x-1,
15:u:code-1L   =76,
15:u:code-1X   =79,
15:u:code-1R   =78,
15:u:code-1RR  =68,
15:u:code-1RRR =82,
9:*100:11:T,
9:*100:21:F,
9:*100:22:F,
8:*100:3:F,
9:*100:27:F,
8:*100:9:F,
8:*100:0:F,
17:u:code-1LLL =_x-1,
15:u:code-1LL  =76,
15:u:code-1L   =79,
15:u:code-1X   =78,
15:u:code-1R   =68,
15:u:code-1RR  =82,
15:u:code-1RRR =65,
8:*100:6:T,
8:*100:2:F,
9:*100:24:F,
9:*100:17:F,
9:*100:20:F,
15:u:code-1LLL =76,
15:u:code-1LL  =79,
15:u:code-1L   =78,
15:u:code-1X   =68,
15:u:code-1R   =82,
15:u:code-1RR  =65,
15:u:code-1RRR =46,
9:*100:19:T,
8:*100:5:F,
9:*100:28:F,
9:*100:10:F,
9:*100:13:F,
15:u:code-1LLL =79,
15:u:code-1LL  =78,
15:u:code-1L   =68,
15:u:code-1X   =82,
15:u:code-1R   =65,
15:u:code-1RR  =46,
15:u:code-1RRR =32,
9:*100:13:T,
9:*100:21:T,
8:*100:0:T,
9:*100:27:T,
15:u:code-1LLL =78,
15:u:code-1LL  =68,
15:u:code-1L   =82,
15:u:code-1X   =65,
15:u:code-1R   =46,
15:u:code-1RR  =32,
15:u:code-1RRR =71,
15:u:code-1LLL =68,
15:u:code-1LL  =82,
15:u:code-1L   =65,
15:u:code-1X   =46,
15:u:code-1R   =32,
15:u:code-1RR  =71,
15:u:code-1RRR =97,
7:*100:Po,
15:u:code-1LLL =82,
15:u:code-1LL  =65,
15:u:code-1L   =46,
15:u:code-1X   =32,
15:u:code-1R   =71,
15:u:code-1RR  =97,
16:u:code-1RRR =115,
7:*100:Zs,
9:*100:20:T,
9:*100:12:F,
15:u:code-1LLL =65,
15:u:code-1LL  =46,
15:u:code-1L   =32,
15:u:code-1X   =71,
15:u:code-1R   =97,
16:u:code-1RR  =115,
8:*100:9:T,
9:*100:15:F,
15:u:code-1LLL =46,
15:u:code-1LL  =32,
15:u:code-1L   =71,
15:u:code-1X   =97,
16:u:code-1R   =115,
16:u:code-1RRR =100,
7:*100:Ll,
9:*100:11:F,
15:u:code-1LLL =32,
15:u:code-1LL  =71,
15:u:code-1L   =97,
16:u:code-1X   =115,
16:u:code-1RR  =100,
9:*100:16:F,
9:*100:29:F,
15:u:code-1LLL =71,
15:u:code-1LL  =97,
16:u:code-1L   =115,
16:u:code-1R   =100,
16:u:code-1RRR =108,
8:*100:4:T,
9:*100:28:T,
15:u:code-1LLL =97,
16:u:code-1LL  =115,
16:u:code-1X   =100,
16:u:code-1RR  =108,
8:*100:7:F,
16:u:code-1LLL =115,
16:u:code-1L   =100,
16:u:code-1R   =108,
9:*100:29:T,
9:*100:26:F,
8:*100:1:F,
9:*100:23:F,
16:u:code-1LL  =100,
16:u:code-1X   =108,
9:*100:17:T,
9:*100:23:T,
16:u:code-1LLL =100,
16:u:code-1L   =108,
9:*100:10:T,
8:*100:8:T,
16:u:code-1LL  =108,
16:u:code-1RRR =116,
8:*100:2:T,
8:*100:3:T,
16:u:code-1LLL =108,
16:u:code-1RR  =116,
9:*100:12:T,
16:u:code-1R   =116,
16:u:code-1X   =116,
16:u:code-1RRR =117,
16:u:code-1L   =116,
16:u:code-1RR  =117,
9:*100:15:T,
16:u:code-1LL  =116,
16:u:code-1R   =117,
16:u:code-1LLL =116,
16:u:code-1X   =117,
9:*100:18:T,
16:u:code-1L   =117,
15:u:code-1RRR =76,
8:*100:5:T,
16:u:code-1LL  =117,
15:u:code-1RR  =76,
15:u:code-1RRR =79,
16:u:code-1LLL =117,
15:u:code-1R   =76,
15:u:code-1RR  =79,
15:u:code-1RRR =78,
8:*100:4:F,
15:u:code-1RRR =73,
15:u:code-1RR  =73,
16:u:code-1RRR =110,
9:*100:22:T,
15:u:code-1R   =73,
16:u:code-1RR  =110,
15:u:code-1RRR =99,
15:u:code-1X   =73,
16:u:code-1R   =110,
15:u:code-1RR  =99,
16:u:code-1RRR =111,
15:u:code-1L   =73,
16:u:code-1X   =110,
15:u:code-1R   =99,
16:u:code-1RR  =111,
15:u:code-1LL  =73,
16:u:code-1L   =110,
15:u:code-1X   =99,
16:u:code-1R   =111,
15:u:code-1LLL =73,
16:u:code-1LL  =110,
15:u:code-1L   =99,
16:u:code-1X   =111,
8:*100:1:T,
16:u:code-1LLL =110,
15:u:code-1LL  =99,
16:u:code-1L   =111,
16:u:code-1RRR =101,
15:u:code-1LLL =99,
16:u:code-1LL  =111,
16:u:code-1RR  =101,
16:u:code-1LLL =111,
16:u:code-1R   =101,
16:u:code-1X   =101,
16:u:code-1L   =101,
16:u:code-1LL  =101,
9:*100:25:F,
16:u:code-1LLL =101,
16:u:code-1RRR =114,
16:u:code-1RR  =114,
16:u:code-1RRR =109,
16:u:code-1R   =114,
16:u:code-1RR  =109,
16:u:code-1X   =114,
16:u:code-1R   =109,
16:u:code-1L   =114,
16:u:code-1X   =109,
16:u:code-1LL  =114,
16:u:code-1L   =109,
16:u:code-1LLL =114,
16:u:code-1LL  =109,
16:u:code-1LLL =109,
15:u:code-1RRR =84,
15:u:code-1RR  =84,
15:u:code-1R   =84,
15:u:code-1X   =84,
15:u:code-1L   =84,
9:*100:14:F,
15:u:code-1LL  =84,
15:u:code-1LLL =84,
16:u:code-1RRR =121,
16:u:code-1RR  =121,
15:u:code-1RRR =58,
16:u:code-1R   =121,
15:u:code-1RR  =58,
16:u:code-1X   =121,
15:u:code-1R   =58,
16:u:code-1L   =121,
15:u:code-1X   =58,
16:u:code-1LL  =121,
15:u:code-1L   =58,
16:u:code-1LLL =121,
15:u:code-1LL  =58,
15:u:code-1LLL =58,
16:u:code-1RRR =104,
16:u:code-1RR  =104,
16:u:code-1R   =104,
16:u:code-1X   =104,
16:u:code-1L   =104,
16:u:code-1LL  =104,
16:u:code-1RRR =118,
16:u:code-1LLL =104,
16:u:code-1RR  =118,
16:u:code-1R   =118,
16:u:code-1X   =118,
16:u:code-1L   =118,
16:u:code-1LL  =118,
16:u:code-1LLL =118,
16:u:code-1RRR =103,
16:u:code-1RR  =103,
16:u:code-1R   =103,
16:u:code-1X   =103,
15:u:code-1RRR =98,
16:u:code-1L   =103,
15:u:code-1RR  =98,
16:u:code-1LL  =103,
15:u:code-1R   =98,
16:u:code-1LLL =103,
15:u:code-1X   =98,
15:u:code-1L   =98,
15:u:code-1LL  =98,
15:u:code-1LLL =98,
16:u:code-1RRR =112,
16:u:code-1RR  =112,
16:u:code-1R   =112,
16:u:code-1X   =112,
16:u:code-1L   =112,
16:u:code-1LL  =112,
16:u:code-1LLL =112,
16:u:code-1RRR =102,
16:u:code-1RR  =102,
16:u:code-1R   =102,
16:u:code-1X   =102,
16:u:code-1L   =102,
16:u:code-1LL  =102,
16:u:code-1LLL =102,
16:u:code-1RRR =105,
16:u:code-1RR  =105,
16:u:code-1R   =105,
16:u:code-1X   =105,
16:u:code-1L   =105,
16:u:code-1LL  =105,
16:u:code-1LLL =105,
15:u:code-1RRR =34,
15:u:code-1RR  =34,
15:u:code-1R   =34,
15:u:code-1X   =34,
15:u:code-1L   =34,
15:u:code-1LL  =34,
15:u:code-1LLL =34,
16:u:code-1RRR =122,
16:u:code-1RR  =122,
16:u:code-1R   =122,
16:u:code-1X   =122,
9:*100:25:T,
16:u:code-1L   =122,
16:u:code-1LL  =122,
16:u:code-1LLL =122,
15:u:code-1RRR =39,
15:u:code-1RR  =39,
15:u:code-1R   =39,
15:u:code-1X   =39,
15:u:code-1L   =39,
15:u:code-1LL  =39,
15:u:code-1LLL =39,
15:u:code-1RRR =44,
15:u:code-1RR  =44,
15:u:code-1R   =44,
15:u:code-1X   =44,
15:u:code-1L   =44,
15:u:code-1LL  =44,
15:u:code-1LLL =44,
15:u:code-1RRR =52,
15:u:code-1RR  =52,
15:u:code-1RRR =53,
15:u:code-1R   =52,
15:u:code-1RR  =53,
15:u:code-1X   =52,
15:u:code-1R   =53,
7:*100:Nd,
15:u:code-1L   =52,
15:u:code-1X   =53,
15:u:code-1LL  =52,
15:u:code-1L   =53,
15:u:code-1LLL =52,
15:u:code-1LL  =53,
15:u:code-1LLL =53,
16:u:code-1RRR =232,
16:u:code-1RR  =232,
16:u:code-1R   =232,
16:u:code-1X   =232,
16:u:code-1L   =232,
16:u:code-1LL  =232,
16:u:code-1LLL =232,
15:u:code-1RRR =72,
15:u:code-1RR  =72,
15:u:code-1R   =72,
15:u:code-1X   =72,
15:u:code-1L   =72,
15:u:code-1LL  =72,
15:u:code-1LLL =72,
15:u:code-1RRR =66,
15:u:code-1RR  =66,
15:u:code-1R   =66,
15:u:code-1X   =66,
15:u:code-1L   =66,
15:u:code-1LL  =66,
15:u:code-1LLL =66,
15:u:code-1RRR =80,
15:u:code-1RR  =80,
15:u:code-1R   =80,
15:u:code-1X   =80,
15:u:code-1L   =80,
15:u:code-1LL  =80,
15:u:code-1LLL =80,
15:u:code-1RRR =49,
15:u:code-1RR  =49,
15:u:code-1RRR =57,
15:u:code-1R   =49,
15:u:code-1RR  =57,
15:u:code-1X   =49,
15:u:code-1R   =57,
15:u:code-1L   =49,
15:u:code-1X   =57,
15:u:code-1LL  =49,
15:u:code-1L   =57,
15:u:code-1LLL =49,
15:u:code-1LL  =57,
15:u:code-1LLL =57,
15:u:code-1RRR =51,
15:u:code-1RR  =51,
15:u:code-1RRR =50,
15:u:code-1R   =51,
15:u:code-1RR  =50,
15:u:code-1X   =51,
15:u:code-1R   =50,
15:u:code-1L   =51,
15:u:code-1X   =50,
15:u:code-1LL  =51,
15:u:code-1L   =50,
15:u:code-1LLL =51,
15:u:code-1LL  =50,
15:u:code-1LLL =50,
15:u:code-1RRR =48,
15:u:code-1RR  =48,
15:u:code-1R   =48,
15:u:code-1X   =48,
15:u:code-1L   =48,
15:u:code-1LL  =48,
15:u:code-1LLL =48,
15:u:code-1RRR =70,
15:u:code-1RR  =70,
15:u:code-1R   =70,
15:u:code-1X   =70,
15:u:code-1L   =70,
15:u:code-1LL  =70,
15:u:code-1LLL =70,
15:u:code-1RRR =77,
15:u:code-1RR  =77,
15:u:code-1R   =77,
15:u:code-1X   =77,
15:u:code-1L   =77,
15:u:code-1LL  =77,
15:u:code-1LLL =77,
15:u:code-1RRR =81,
15:u:code-1RR  =81,
15:u:code-1R   =81,
15:u:code-1X   =81,
15:u:code-1L   =81,
15:u:code-1LL  =81,
15:u:code-1LLL =81,
16:u:code-1RRR =107,
16:u:code-1RR  =107,
16:u:code-1R   =107,
16:u:code-1X   =107,
16:u:code-1L   =107,
16:u:code-1LL  =107,
16:u:code-1LLL =107,
15:u:code-1RRR =40,
15:u:code-1RR  =40,
15:u:code-1R   =40,
15:u:code-1X   =40,
7:*100:Ps,
15:u:code-1L   =40,
15:u:code-1LL  =40,
15:u:code-1LLL =40,
16:u:code-1RRR =113,
16:u:code-1RR  =113,
16:u:code-1R   =113,
16:u:code-1X   =113,
16:u:code-1L   =113,
16:u:code-1LL  =113,
16:u:code-1LLL =113,
15:u:code-1RRR =41,
15:u:code-1RR  =41,
15:u:code-1R   =41,
15:u:code-1X   =41,
7:*100:Pe,
15:u:code-1L   =41,
15:u:code-1LL  =41,
15:u:code-1LLL =41,
15:u:code-1RRR =54,
15:u:code-1RR  =54,
15:u:code-1R   =54,
15:u:code-1X   =54,
15:u:code-1L   =54,
15:u:code-1LL  =54,
15:u:code-1LLL =54,
15:u:code-1RRR =56,
15:u:code-1RR  =56,
15:u:code-1R   =56,
15:u:code-1X   =56,
15:u:code-1L   =56,
15:u:code-1LL  =56,
15:u:code-1LLL =56,
15:u:code-1RRR =67,
15:u:code-1RR  =67,
15:u:code-1R   =67,
15:u:code-1X   =67,
15:u:code-1L   =67,
15:u:code-1LL  =67,
15:u:code-1LLL =67,
15:u:code-1RRR =45,
15:u:code-1RR  =45,
15:u:code-1R   =45,
15:u:code-1RRR =85,
15:u:code-1X   =45,
15:u:code-1RR  =85,
7:*100:Pd,
15:u:code-1L   =45,
15:u:code-1R   =85,
15:u:code-1LL  =45,
15:u:code-1X   =85,
15:u:code-1LLL =45,
15:u:code-1L   =85,
15:u:code-1LL  =85,
15:u:code-1LLL =85,
16:u:code-1RRR =120,
16:u:code-1RR  =120,
16:u:code-1R   =120,
16:u:code-1X   =120,
16:u:code-1L   =120,
16:u:code-1LL  =120,
16:u:code-1LLL =120,
15:u:code-1RRR =86,
15:u:code-1RR  =86,
15:u:code-1R   =86,
15:u:code-1X   =86,
15:u:code-1L   =86,
15:u:code-1LL  =86,
15:u:code-1LLL =86,
15:u:code-1RRR =55,
15:u:code-1RR  =55,
15:u:code-1R   =55,
15:u:code-1X   =55,
15:u:code-1L   =55,
15:u:code-1LL  =55,
15:u:code-1LLL =55,
15:u:code-1RRR =69,
15:u:code-1RR  =69,
15:u:code-1R   =69,
15:u:code-1X   =69,
15:u:code-1L   =69,
15:u:code-1LL  =69,
15:u:code-1LLL =69,
16:u:code-1RRR =224,
16:u:code-1RR  =224,
16:u:code-1R   =224,
16:u:code-1X   =224,
16:u:code-1L   =224,
16:u:code-1LL  =224,
16:u:code-1LLL =224,
16:u:code-1RRR =249,
16:u:code-1RR  =249,
16:u:code-1R   =249,
16:u:code-1X   =249,
16:u:code-1L   =249,
16:u:code-1LL  =249,
16:u:code-1LLL =249,
15:u:code-1RRR =83,
15:u:code-1RR  =83,
15:u:code-1R   =83,
15:u:code-1X   =83,
15:u:code-1L   =83,
15:u:code-1LL  =83,
15:u:code-1LLL =83,
15:u:code-1RRR =90,
15:u:code-1RR  =90,
15:u:code-1R   =90,
15:u:code-1X   =90,
15:u:code-1L   =90,
15:u:code-1LL  =90,
15:u:code-1LLL =90,
15:u:code-1RRR =75,
15:u:code-1RR  =75,
15:u:code-1R   =75,
15:u:code-1X   =75,
15:u:code-1L   =75,
15:u:code-1LL  =75,
15:u:code-1LLL =75,
16:u:code-1RRR =106,
16:u:code-1RR  =106,
16:u:code-1R   =106,
16:u:code-1X   =106,
16:u:code-1L   =106,
16:u:code-1LL  =106,
16:u:code-1LLL =106,
15:u:code-1RRR =61,
15:u:code-1RR  =61,
15:u:code-1R   =61,
15:u:code-1X   =61,
7:*100:Sm,
15:u:code-1L   =61,
15:u:code-1LL  =61,
15:u:code-1LLL =61,
16:u:code-1RRR =242,
16:u:code-1RR  =242,
16:u:code-1R   =242,
16:u:code-1X   =242,
16:u:code-1L   =242,
16:u:code-1LL  =242,
16:u:code-1LLL =242,
16:u:code-1RRR =236,
16:u:code-1RR  =236,
16:u:code-1R   =236,
16:u:code-1X   =236,
16:u:code-1L   =236,
16:u:code-1LL  =236,
16:u:code-1LLL =236,
16:u:code-1RRR =204,
16:u:code-1RR  =204,
16:u:code-1R   =204,
16:u:code-1X   =204,
16:u:code-1L   =204,
16:u:code-1LL  =204,
16:u:code-1LLL =204,
16:u:code-1RRR =200,
16:u:code-1RR  =200,
16:u:code-1R   =200,
16:u:code-1X   =200,
16:u:code-1L   =200,
16:u:code-1LL  =200,
16:u:code-1LLL =200,
16:u:code-1RRR =233,
16:u:code-1RR  =233,
16:u:code-1R   =233,
16:u:code-1X   =233,
16:u:code-1L   =233,
16:u:code-1LL  =233,
16:u:code-1LLL =233,
15:u:code-1RRR =33,
15:u:code-1RR  =33,
15:u:code-1R   =33,
15:u:code-1X   =33,
15:u:code-1L   =33,
15:u:code-1LL  =33,
15:u:code-1LLL =33,
16:u:code-1RRR =119,
16:u:code-1RR  =119,
16:u:code-1R   =119,
16:u:code-1X   =119,
16:u:code-1L   =119,
16:u:code-1LL  =119,
16:u:code-1LLL =119,
15:u:code-1RRR =87,
15:u:code-1RR  =87,
15:u:code-1R   =87,
15:u:code-1X   =87,
15:u:code-1L   =87,
15:u:code-1LL  =87,
15:u:code-1LLL =87,
15:u:code-1RRR =63,
15:u:code-1RR  =63,
15:u:code-1R   =63,
15:u:code-1X   =63,
15:u:code-1L   =63,
15:u:code-1LL  =63,
15:u:code-1LLL =63,
15:u:code-1RRR =95,
15:u:code-1RR  =95,
15:u:code-1R   =95,
15:u:code-1X   =95,
7:*100:Pc,
15:u:code-1L   =95,
15:u:code-1LL  =95,
15:u:code-1LLL =95,
15:u:code-1RRR =74,
15:u:code-1RR  =74,
15:u:code-1R   =74,
15:u:code-1X   =74,
15:u:code-1L   =74,
15:u:code-1LL  =74,
15:u:code-1LLL =74,
15:u:code-1RRR =59,
15:u:code-1RR  =59,
15:u:code-1R   =59,
15:u:code-1X   =59,
15:u:code-1L   =59,
15:u:code-1LL  =59,
15:u:code-1LLL =59,
15:u:code-1RRR =89,
15:u:code-1RR  =89,
15:u:code-1R   =89,
15:u:code-1X   =89,
15:u:code-1L   =89,
15:u:code-1LL  =89,
15:u:code-1LLL =89,
16:u:code-1RRR =192,
16:u:code-1RR  =192,
16:u:code-1R   =192,
16:u:code-1X   =192,
16:u:code-1L   =192,
16:u:code-1LL  =192,
16:u:code-1LLL =192,
15:u:code-1RRR =37,
15:u:code-1RR  =37,
15:u:code-1R   =37,
15:u:code-1X   =37,
15:u:code-1L   =37,
15:u:code-1LL  =37,
15:u:code-1LLL =37,
15:u:code-1RRR =47,
15:u:code-1RR  =47,
15:u:code-1R   =47,
15:u:code-1X   =47,
15:u:code-1L   =47,
15:u:code-1LL  =47,
15:u:code-1LLL =47,
15:u:code-1RRR =38,
15:u:code-1RR  =38,
15:u:code-1R   =38,
15:u:code-1X   =38,
15:u:code-1L   =38,
15:u:code-1LL  =38,
15:u:code-1LLL =38,
16:u:code-1RRR =201,
16:u:code-1RR  =201,
16:u:code-1R   =201,
16:u:code-1X   =201,
16:u:code-1L   =201,
16:u:code-1LL  =201,
16:u:code-1LLL =201,
15:u:code-1RRR =88,
15:u:code-1RR  =88,
15:u:code-1R   =88,
15:u:code-1X   =88,
15:u:code-1L   =88,
15:u:code-1LL  =88,
15:u:code-1LLL =88,
15:u:code-1RRR =91,
15:u:code-1RR  =91,
15:u:code-1R   =91,
15:u:code-1X   =91,
15:u:code-1L   =91,
15:u:code-1LL  =91,
15:u:code-1LLL =91,
15:u:code-1RRR =93,
15:u:code-1RR  =93,
15:u:code-1R   =93,
15:u:code-1X   =93,
15:u:code-1L   =93,
15:u:code-1LL  =93,
15:u:code-1LLL =93,
16:u:code-1RRR =176,
16:u:code-1RR  =176,
16:u:code-1R   =176,
16:u:code-1X   =176,
7:*100:So,
16:u:code-1L   =176,
16:u:code-1LL  =176,
16:u:code-1LLL =176,
15:u:code-1RRR =96,
15:u:code-1RR  =96,
15:u:code-1R   =96,
15:u:code-1X   =96,
7:*100:Sk,
15:u:code-1L   =96,
15:u:code-1LL  =96,
15:u:code-1LLL =96,
16:u:code-1RRR =238,
16:u:code-1RR  =238,
16:u:code-1R   =238,
16:u:code-1X   =238,
16:u:code-1L   =238,
16:u:code-1LL  =238,
16:u:code-1LLL =238,
16:u:code-1RRR =252,
16:u:code-1RR  =252,
16:u:code-1R   =252,
16:u:code-1X   =252,
16:u:code-1L   =252,
16:u:code-1LL  =252,
16:u:code-1LLL =252,
15:u:code-1RRR =42,
15:u:code-1RR  =42,
15:u:code-1R   =42,
15:u:code-1X   =42,
15:u:code-1L   =42,
15:u:code-1LL  =42,
15:u:code-1LLL =42,
15:u:code-1RRR =64,
15:u:code-1RR  =64,
15:u:code-1R   =64,
15:u:code-1X   =64,
15:u:code-1L   =64,
15:u:code-1LL  =64,
15:u:code-1LLL =64,
16:u:code-1RRR =231,
16:u:code-1RR  =231,
16:u:code-1R   =231,
16:u:code-1X   =231,
16:u:code-1L   =231,
16:u:code-1LL  =231,
16:u:code-1LLL =231,
16:u:code-1RRR =171,
16:u:code-1RR  =171,
16:u:code-1R   =171,
16:u:code-1X   =171,
7:*100:Pi,
16:u:code-1L   =171,
16:u:code-1LL  =171,
16:u:code-1LLL =171,
16:u:code-1RRR =187,
16:u:code-1RR  =187,
16:u:code-1R   =187,
16:u:code-1X   =187,
7:*100:Pf,
16:u:code-1L   =187,
16:u:code-1LL  =187,
16:u:code-1LLL =187,
16:u:code-1RRR =228,
16:u:code-1RR  =228,
16:u:code-1R   =228,
16:u:code-1X   =228,
16:u:code-1L   =228,
16:u:code-1LL  =228,
16:u:code-1LLL =228,
16:u:code-1RRR =246,
16:u:code-1RR  =246,
16:u:code-1R   =246,
16:u:code-1X   =246,
16:u:code-1L   =246,
16:u:code-1LL  =246,
16:u:code-1LLL =246,
16:u:code-1RRR =225,
16:u:code-1RR  =225,
16:u:code-1R   =225,
16:u:code-1X   =225,
16:u:code-1L   =225,
16:u:code-1LL  =225,
16:u:code-1LLL =225,
15:u:code-1RRR =43,
15:u:code-1RR  =43,
15:u:code-1R   =43,
15:u:code-1X   =43,
15:u:code-1L   =43,
15:u:code-1LL  =43,
15:u:code-1LLL =43,
16:u:code-1RRR =181,
16:u:code-1RR  =181,
16:u:code-1R   =181,
16:u:code-1X   =181,
16:u:code-1L   =181,
16:u:code-1LL  =181,
16:u:code-1LLL =181,
18:u:code-1RRR =23665,
18:u:code-1RR  =23665,
18:u:code-1RRR =25163,
18:u:code-1R   =23665,
18:u:code-1RR  =25163,
18:u:code-1RRR =32218,
18:u:code-1X   =23665,
18:u:code-1R   =25163,
18:u:code-1RR  =32218,
7:*100:Lo,
18:u:code-1L   =23665,
18:u:code-1X   =25163,
18:u:code-1R   =32218,
18:u:code-1LL  =23665,
18:u:code-1L   =25163,
18:u:code-1X   =32218,
18:u:code-1LLL =23665,
18:u:code-1LL  =25163,
18:u:code-1L   =32218,
18:u:code-1LLL =25163,
18:u:code-1LL  =32218,
18:u:code-1LLL =32218,
16:u:code-1RRR =363,
16:u:code-1RR  =363,
16:u:code-1RRR =333,
16:u:code-1R   =363,
16:u:code-1RR  =333,
16:u:code-1X   =363,
16:u:code-1R   =333,
16:u:code-1L   =363,
16:u:code-1X   =333,
16:u:code-1LL  =363,
16:u:code-1L   =333,
16:u:code-1LLL =363,
16:u:code-1LL  =333,
16:u:code-1LLL =333,
17:u:code-1RRR =8211,
17:u:code-1RR  =8211,
17:u:code-1R   =8211,
17:u:code-1X   =8211,
17:u:code-1L   =8211,
17:u:code-1LL  =8211,
17:u:code-1LLL =8211,
16:u:code-1RRR =234,
16:u:code-1RR  =234,
16:u:code-1R   =234,
16:u:code-1X   =234,
16:u:code-1L   =234,
16:u:code-1LL  =234,
16:u:code-1LLL =234,
16:u:code-1RRR =227,
16:u:code-1RR  =227,
16:u:code-1R   =227,
16:u:code-1X   =227,
16:u:code-1L   =227,
16:u:code-1LL  =227,
16:u:code-1LLL =227,
17:u:code-1RRR =8220,
17:u:code-1RR  =8220,
17:u:code-1R   =8220,
17:u:code-1X   =8220,
17:u:code-1L   =8220,
17:u:code-1LL  =8220,
17:u:code-1LLL =8220,
17:u:code-1RRR =8221,
17:u:code-1RR  =8221,
17:u:code-1R   =8221,
17:u:code-1X   =8221,
17:u:code-1L   =8221,
17:u:code-1LL  =8221,
17:u:code-1LLL =8221,
17:u:code-1RRR =8230,
17:u:code-1RR  =8230,
17:u:code-1R   =8230,
17:u:code-1X   =8230,
17:u:code-1L   =8230,
17:u:code-1LL  =8230,
17:u:code-1LLL =8230,
17:u:code-1RRR =8217,
17:u:code-1RR  =8217,
17:u:code-1R   =8217,
17:u:code-1X   =8217,
17:u:code-1L   =8217,
17:u:code-1LL  =8217,
17:u:code-1LLL =8217,
17:u:code-1RRR =8216,
17:u:code-1RR  =8216,
17:u:code-1R   =8216,
17:u:code-1X   =8216,
17:u:code-1L   =8216,
17:u:code-1LL  =8216,
17:u:code-1LLL =8216,
16:u:code-1RRR =237,
16:u:code-1RR  =237,
16:u:code-1R   =237,
16:u:code-1X   =237,
16:u:code-1L   =237,
16:u:code-1LL  =237,
16:u:code-1LLL =237,
16:u:code-1RRR =243,
16:u:code-1RR  =243,
16:u:code-1R   =243,
16:u:code-1X   =243,
16:u:code-1L   =243,
16:u:code-1LL  =243,
16:u:code-1LLL =243,
16:u:code-1RRR =186,
16:u:code-1RR  =186,
16:u:code-1R   =186,
16:u:code-1X   =186,
16:u:code-1L   =186,
16:u:code-1LL  =186,
16:u:code-1LLL =186,
16:u:code-1RRR =324,
16:u:code-1RR  =324,
16:u:code-1R   =324,
16:u:code-1X   =324,
16:u:code-1L   =324,
16:u:code-1LL  =324,
16:u:code-1LLL =324,
16:u:code-1RRR =244,
16:u:code-1RR  =244,
16:u:code-1R   =244,
16:u:code-1X   =244,
16:u:code-1L   =244,
16:u:code-1LL  =244,
16:u:code-1LLL =244,
16:u:code-1RRR =235,
16:u:code-1RR  =235,
16:u:code-1R   =235,
16:u:code-1X   =235,
16:u:code-1L   =235,
16:u:code-1LL  =235,
16:u:code-1LLL =235,
16:u:code-1RRR =322,
16:u:code-1RR  =322,
16:u:code-1R   =322,
16:u:code-1X   =322,
16:u:code-1L   =322,
16:u:code-1LL  =322,
16:u:code-1LLL =322,
16:u:code-1RRR =229,
16:u:code-1RR  =229,
16:u:code-1R   =229,
16:u:code-1X   =229,
16:u:code-1L   =229,
16:u:code-1LL  =229,
16:u:code-1LLL =229,
17:u:code-1RRR =_x+1,
17:u:code-1RR  =_x+1,
17:u:code-1RRR =_x+2,
17:u:code-1R   =_x+1,
17:u:code-1RR  =_x+2,
17:u:code-1RRR =_x+3,
1=0x1.201896137d4b3p-2
2=-0x1.bee3f8b3695d9p-4
3=0x1.acd7c238e847ap-5
4=0x1.ffd5b67d6ecb1p-3
5=0x1.1936f0513af79p-3
6=-0x1.e0e2e956da3bbp-5
7=-0x1.ca809d08c05c3p-1
8=-0x1.cdb057891b15cp-1
9=0x1.1eebe44cf9347p-8
10=-0x1.15a8b51f5b21ap-8
12=0x1.1eebe44cf9347p-8
13=-0x1.15a8b51f5b21ap-8
15=0x1.1eebe44cf9347p-8
16=-0x1.15a8b51f5b21ap-8
18=0x1.d16db26038a3ep-13
19=0x1.4a96c9232a6dp-8
20=-0x1.976b8b59bd0d5p-9
21=-0x1.09ca03ad3a743p-5
22=0x1.663eae18dc793p-5
23=-0x1.c81f6de49bc7ep-9
24=0x1.65a5e22760de3p-3
25=-0x1.eac97bbc4ed27p-4
26=-0x1.3037f982110d8p-7
27=-0x1.66aaaaee84d33p-6
28=0x1.3fe377f005103p-5
29=-0x1.ee9bb88cd7ccp-7
30=-0x1.7445992332304p-3
31=0x1.403dea5b8ad2ap-2
32=-0x1.cc5741bd041aep-2
33=0x1.6c4980da33ee2p-4
34=-0x1.6a487f9756e31p-1
35=-0x1.1a89eb61a7c9ap-2
36=-0x1.df9969303ab2cp-4
37=0x1.5b10e1d7ef15dp+0
38=-0x1.86f4fbe5603dep-4
39=0x1.602b55c08da12p-9
40=-0x1.55e531b27503ep-4
41=-0x1.bfeadb2a37e03p-8
42=-0x1.47da60c89ac22p-2
43=0x1.b533b70b31d3dp-2
44=-0x1.94d5f1ae86b7fp-4
45=-0x1.b70091abeb173p-2
46=0x1.88ef2c0d99232p-2
47=-0x1.5d6fc9cd7c1cfp-7
48=0x1.3c40293785ef4p-5
49=0x1.f79e320218863p-6
50=-0x1.8385b7740bfe6p-5
51=-0x1.43a8e9daa5663p-6
52=-0x1.fd1d85d7e7e22p-6
53=-0x1.4c97ffaf5fafap-6
54=-0x1.e1d16059f00d9p-1
55=0x1.59095bc50bd98p-1
56=-0x1.2661b3b894e5ap-2
57=-0x1.2fd098b663baep+0
58=0x1.4e9d03d86b14fp-4
59=0x1.25ecd585f49abp-1
60=-0x1.28f9c8a7daf3ep-4
61=0x1.063b42ccffad6p+0
62=-0x1.cd6b1557039d6p-5
63=-0x1.708616b3430a7p-2
64=-0x1.37e0d72fb6726p-3
65=-0x1.32bd673b949e2p-1
66=-0x1.9fa50295b4854p-1
67=0x1.f95cb958bda53p-1
68=-0x1.73feac24daa7bp-3
69=-0x1.df78d71b91ad9p-1
70=0x1.8c2bb4109d559p-1
71=0x1.57e20cf929648p-6
72=-0x1.6387a52c4ff07p-4
73=0x1.e3a80e7af894fp-3
74=-0x1.b13ad28f7e5a9p-3
75=-0x1.62afa52f532c5p-4
76=-0x1.64abf16a78571p-5
77=-0x1.b0fce95e1fefcp-6
78=-0x1.2d68fdcf97635p-2
79=0x1.8bf0174e0290dp-4
80=0x1.5525d47c4cbbcp-4
81=0x1.5d00133b6e18ap-2
82=-0x1.08c93100b29dcp-2
83=-0x1.8712526f77b9ep-4
84=-0x1.da68a83741abcp-1
85=0x1.d5ef680e90da9p-4
86=0x1.1b75b773e22cp-2
87=-0x1.ee823372e20ccp-7
88=-0x1.75976237e62b9p-6
89=-0x1.4e06d5d68757ap-5
90=-0x1.a0c92beaf4e81p-5
91=0x1.758030d0230cfp-2
92=-0x1.ac4fc9405f1abp-2
93=-0x1.9c9f9cfc6e1bcp+0
94=0x1.7a9d405fb559fp-1
95=-0x1.67e080f5bf7e7p-2
96=0x1.36a244d4cfaaep+0
97=-0x1.19573b172a805p-7
98=0x1.858372883cadcp-3
99=-0x1.87a8670f20df3p-1
100=-0x1.0cff0170d4024p-4
101=-0x1.ca82280fdebf5p-5
102=0x1.9f3a9abc4e123p-4
103=0x1.d5ee30b713f6ep-5
104=-0x1.e7478b6ba9d79p-4
105=0x1.ad5519d054843p-4
106=0x1.b4afc818966ap-3
107=-0x1.17eec4ebf082dp-2
108=0x1.fe8a043182f7fp-7
109=-0x1.1dee2ab6c5824p-4
110=0x1.78c2ab26fba19p-4
111=0x1.02f21edb4791cp-4
112=-0x1.14305f9c26e54p-3
113=-0x1.163df495fb9c1p-4
114=0x1.1f097fca75677p-3
115=-0x1.a6e6b9befc529p-4
116=-0x1.41070adf035c4p-4
117=0x1.646cfbf8467b2p-4
118=-0x1.39071cc6f085dp-1
119=-0x1.56bfa9d7b2a51p-4
120=0x1.7f7f9ad11807ap-6
121=0x1.8d5992acada73p-4
122=-0x1.277baf501fe4ap-7
123=0x1.6624c9efb42f1p-2
124=-0x1.1e7dcdca05bcap-2
125=-0x1.37b82866d7838p-4
126=-0x1.4c4876766a7e1p-3
127=0x1.113de41ec70bap-2
128=-0x1.80f8f3bbabb06p-4
129=0x1.b09426bcc6cc1p-3
130=0x1.13b4e7838c6cp-4
131=0x1.6983a804e6e2ap-6
132=-0x1.3774be06f148ap-2
133=0x1.b2799107f8d9dp-2
134=-0x1.f5eef8e35418p-5
135=-0x1.0a2ec9246c9bep-6
136=-0x1.585f7d71bbbefp-4
137=-0x1.4917b5cefe055p-4
138=-0x1.c3488e997bc5dp-4
139=0x1.000ce3617f0b9p-2
140=-0x1.932f3c80d06ddp-3
141=-0x1.fedeb478d78e1p-2
142=0x1.0a0b95365f043p-1
143=-0x1.e271eb66d5057p-3
144=0x1.ded08c7dcca1p-5
145=0x1.f12c5098f4d22p-6
146=0x1.3549c643af921p-3
147=0x1.dd13c54f1e742p-4
148=-0x1.855ddc9523ff8p-3
149=-0x1.b24a43e9027f7p-4
156=-0x1.d29b57f7108cp-4
157=0x1.1dd8e8f85c388p-3
158=-0x1.1eee0be0426dep-7
159=-0x1.bc4006186dba5p-7
160=0x1.78dbc0c7c23d7p-5
161=-0x1.1e4497a04b23bp-6
162=-0x1.3f6c72f0d4b36p-5
163=0x1.25c0952ba2ap-4
164=-0x1.846fb80d99d2dp-8
165=0x1.89e48f2c6d6ep-3
166=-0x1.61afb6dc0777fp-3
167=-0x1.7ec165381a857p-8
168=-0x1.60b1586f1a2e9p-8
169=0x1.103a1627d7d08p-6
170=-0x1.4ff42a246f039p-8
171=-0x1.0e7ba5d3c6dfcp-8
172=0x1.68a963345a174p-8
173=-0x1.a909fb001b5d5p-4
174=0x1.4d0b7aaf20827p+0
175=-0x1.abd00928536e7p-1
176=0x1.a31394c8dd71ap-1
177=-0x1.58160e71a75b7p-1
178=0x1.2bcd5505978e2p-1
179=-0x1.e85e9ef42eeb4p-1
180=-0x1.3b9f532c53bbcp+0
181=-0x1.8008f76c312e6p-3
182=-0x1.b69b5e45221fcp-2
183=-0x1.5eb91112bc9b4p-4
184=0x1.77dbe91ec7bb2p-3
185=-0x1.5276aed6595adp-3
186=-0x1.e9f3972181864p-5
187=0x1.cfe680025e4b2p-2
188=-0x1.2365e2234a3a9p-2
189=-0x1.fee56f27dbb1p-4
190=-0x1.75f8aed27243fp-4
191=0x1.d7264e65f0288p-11
192=-0x1.2fbc282a1f712p-3
193=-0x1.c9f5fba51544cp-4
194=-0x1.2900e6b6f3629p-4
195=-0x1.943e48cff791p-8
196=0x1.78370872ae383p-4
197=-0x1.8fc00b3482da4p-6
198=-0x1.d281a4095da85p-4
199=-0x1.f5fe0d08d38aep-3
200=-0x1.5c59fef0cac39p-2
201=-0x1.a40e940a3c276p-4
202=0x1.078d4d7208763p-2
203=0x1.732228a1422e5p-2
204=0x1.1165d777948d3p-2
205=-0x1.7182e4c249df2p-4
206=-0x1.ac682e16db811p-5
207=-0x1.6e432140d1fdap-5
208=0x1.0a5f814fa5229p-2
209=-0x1.c40446227101ep-3
210=-0x1.3e77cba68c947p-1
211=0x1.03f348a685372p-1
212=-0x1.3eee2533c4d6ap-2
213=0x1.0df3e72f9a48ep-3
214=0x1.3d5d62126f5b6p-6
215=0x1.0cefe30351704p-6
216=0x1.3660f9e6b5e26p-3
217=-0x1.ee7cf5becb2bbp-4
218=-0x1.b72e103c77ae9p-5
219=0x1.ab13b5fd37718p-4
220=-0x1.cb43e273b455p-4
221=-0x1.390ac86c27ddfp-2
222=0x1.bd5f849f57395p-6
223=0x1.944f668c5ca84p-6
224=-0x1.a79071566739cp-4
225=0x1.5491cef4c3effp-1
226=-0x1.8003ff0b1a794p-2
227=-0x1.3965df444558bp-4
228=-0x1.a2f89dd7ba3e9p-3
229=-0x1.272514d014039p-3
230=-0x1.512ff8b975c0ep-3
231=0x1.677f2a0098dbap-4
232=-0x1.9f071328f892fp-6
233=-0x1.0304fa7a395ap-2
234=0x1.886b0cee49a68p-2
235=0x1.e4a6135dda705p-5
236=-0x1.44c33ce2d380cp-1
237=0x1.2034285a882c5p-2
238=0x1.bbe371e99875cp-8
239=0x1.649ea2af29c78p-3
240=-0x1.5890b606ec7cap-2
241=-0x1.701face019f9ap-4
242=-0x1.a6b43e162caep-4
243=0x1.72797a304d8f2p-4
244=0x1.e6e96699a5e81p-6
245=-0x1.c0b37cc53758fp-3
246=-0x1.3ddaf1c6ff29ep-6
247=-0x1.9971252b17f5fp-4
248=0x1.e0388b1dec866p-4
249=0x1.b6ab7fd037408p-4
250=0x1.9b69d31e31786p-4
251=-0x1.cb0d7181326d6p-3
252=-0x1.7ce7a6e931e6ep-3
253=-0x1.e5b4c9e4b3d22p-4
254=-0x1.d56f275d9ce52p-5
258=0x1.10b4b1325cfeap-2
259=-0x1.08c9d6de305fcp-2
260=-0x1.359d14365472p-7
261=-0x1.2d8f85c8ba306p-1
262=0x1.3accbeacd26c8p-1
263=-0x1.1d923bdcb4895p-7
264=-0x1.53970fa26dc14p-5
265=0x1.f9afc405512dep-5
266=-0x1.9774a32ffc965p-7
267=0x1.edb0924fec7ecp-6
268=-0x1.720661ebe265ep-8
269=-0x1.162347def818p-6
270=-0x1.4781f6d7d5215p-7
271=0x1.2f769d098ba4dp-6
272=-0x1.c39c99f735fa6p-9
273=-0x1.aba946bf1332fp-7
274=0x1.582c41fb22949p-5
275=-0x1.fd69265cd6472p-7
276=-0x1.ab482a017021ep-4
277=-0x1.e8d0c28c11101p-3
278=-0x1.c498ccaa3441dp-3
279=0x1.395295e68da7dp-1
280=-0x1.2448435f1bbdep-3
281=0x1.7c42de799720cp-1
283=0x1.4d99e88a3e4fap-6
284=-0x1.65f1315256d4fp-4
285=-0x1.03094f66fd45p-1
286=-0x1.06691abe2b2bdp-4
287=-0x1.62d6764a5ea0cp-2
288=0x1.eed330ccd24d3p-4
289=0x1.df963b0831c9cp-4
290=-0x1.88d52763aea49p-3
291=-0x1.421bc27ed920fp-6
292=0x1.d44dc0f6bed93p-2
293=-0x1.ac64b98bb86ccp-2
294=-0x1.cb75321a5a178p-2
295=0x1.28b12976d77f5p-5
296=0x1.ed32b01810938p-4
297=0x1.52bb4c159af9bp-1
298=-0x1.d7b8ca8f5e36ap-3
299=-0x1.11e4cd5ee3285p-4
300=0x1.6f421f612f661p-4
301=0x1.4b089fad8cfe8p-2
302=-0x1.43a5d9607e1bp-2
303=-0x1.fa769a6c5d9e9p-3
304=-0x1.64125ede5cfa3p-2
305=-0x1.29e3463376c23p-3
306=-0x1.178cd8899b7bcp-1
307=0x1.83f12de0cfba9p-2
308=-0x1.c79eb5630a5dp-5
309=0x1.c81891b555bbap-1
310=-0x1.3b299ff7022f1p-1
311=-0x1.e3613ae097961p-4
312=0x1.eb1301714dc09p-4
314=-0x1.38fd1df212d53p-2
315=-0x1.c6bdb0ee6bc14p-3
316=0x1.4248dece9c61bp-3
317=-0x1.1cb1543ac8562p-1
318=-0x1.a0171da80dc6ep-3
319=0x1.4f504ce05ba9p-5
320=0x1.0805008245552p-2
321=0x1.0c66db8a3255ep-1
322=-0x1.95cd18fc39a73p-3
323=-0x1.13c344bf93731p-4
324=0x1.4b1dd44ae2cefp-2
325=-0x1.f65a36b1580c8p-4
326=-0x1.f4d605e93d2bbp-3
327=-0x1.e582528b0c997p-2
328=-0x1.da6d79478d9ap-4
329=-0x1.0fcdd60267561p-3
330=0x1.5369299a77097p-2
331=0x1.b99454a8f4dd3p-8
332=0x1.45316bb11c2cep-6
333=0x1.c25eb66cdb9cap-3
334=-0x1.0782965f6175p-2
335=-0x1.c563d18d808a1p-3
336=-0x1.de90a816ed301p-5
337=0x1.05cc5524491d9p-4
338=-0x1.e00105ea77142p-10
339=-0x1.fc9ee4b38b0ccp-4
340=0x1.1a02f6469305cp-3
341=-0x1.b67bc53bb970cp-9
342=-0x1.ea7c96d93978p-2
343=0x1.fcd00a36a4e09p-2
344=-0x1.596e9a76584f4p-8
345=0x1.4ef37cc23a82ep-9
346=-0x1.52e66d66ac7fap-11
348=-0x1.88deabcc579b6p-5
349=0x1.cf9a3599a131cp-5
350=-0x1.0d2b863715d15p-8
351=0x1.9e57fe7d1dae2p-3
352=-0x1.81e7760ed98d6p-4
353=-0x1.3da0dd2ab9de1p-6
354=-0x1.139c1971e3277p-2
355=0x1.371aa73086055p-2
356=-0x1.f6d0f146fdc9fp-7
357=-0x1.9d4aaf45b812bp-3
358=0x1.24f1a7ac8839cp-2
359=-0x1.c0702e989c64dp-4
360=-0x1.d91dc4f988842p-3
361=0x1.236df8814e164p-2
362=-0x1.4986aac47d328p-2
363=0x1.e3a4927c14d25p-5
364=0x1.137731c3ea542p-6
365=0x1.0070fe9c224b1p-2
366=-0x1.d289b118337a4p-7
367=-0x1.470182e8a9c7ap-6
368=-0x1.749a62af3844bp-7
369=0x1.0dd463c1a4837p-1
370=-0x1.28201e2415183p-2
371=-0x1.ae329de0edb21p-4
372=0x1.ed27806f18972p-1
373=-0x1.db502afcb036ap-1
374=-0x1.8f8b0074b657ep-1
375=-0x1.a9a5c99e3ac48p-2
376=0x1.28c72bd685795p-5
377=0x1.0549d140332c3p-2
378=0x1.9c5bddb27ca8p-1
379=-0x1.aa3ad370b8b22p-2
380=-0x1.5968ead10f7dep-4
381=-0x1.4d6d4b7247b23p-2
382=0x1.55fd2671649edp-2
383=-0x1.268e1aba97e68p-3
384=-0x1.6fcb9c9a8a2c4p-3
385=0x1.4850833ea8d88p-3
386=-0x1.54a377cb57c46p-1
387=-0x1.a7a563b356be6p-3
388=0x1.d5f89771cf203p-3
389=0x1.08e78dc9f7fe1p-2
390=0x1.f6781281b2a5cp-8
391=-0x1.9ea017d73f66ap-4
392=-0x1.76b7166085abep-5
393=0x1.865ba645623ep-4
394=-0x1.98a6ab476932cp-7
395=-0x1.30a57ebf9de2dp-2
396=-0x1.24652e5b2a9f3p-2
397=0x1.842806cfa4e17p-9
398=-0x1.6afd00d7485f2p-3
399=0x1.f2c9b9ab2a6e6p-2
400=0x1.141c17a0ec72p-3
401=0x1.e65a17075412cp-6
403=-0x1.09211949c7e1p-2
404=-0x1.497c72121d007p-4
405=0x1.f3f9e6b43a20dp-9
406=0x1.e8f5815bf2aa6p-4
407=-0x1.724966fc814efp-3
408=-0x1.aede9c8c73541p-2
409=-0x1.6b44241aed178p-5
410=0x1.8bd850543d218p-4
411=0x1.aeda2b1164cefp-1
412=0x1.82dfe491ed74ap-3
413=-0x1.a3dff8baa7756p-6
414=-0x1.684b4ee3ad4cap-2
415=-0x1.4df2ea32b728dp-3
416=-0x1.74c00e79aaf24p-3
417=-0x1.66aab2b29283ep-4
418=0x1.91ccac04b39dcp-4
419=-0x1.285e92972f648p-9
420=-0x1.cde2b840ebe4ap-4
421=0x1.f85469fb1ef68p-4
422=-0x1.75a67dbde9182p-9
423=-0x1.a5a23f04f00d8p-3
424=0x1.b58d0c5960d2p-3
425=-0x1.b263420da46b7p-10
426=-0x1.0847e71548413p-4
427=0x1.279eb225fbbdap-4
428=-0x1.23ad4ba360f83p-9
429=-0x1.af14909e5459fp-3
430=0x1.1c28ec835944p-2
431=-0x1.bb51cc260838bp-6
432=-0x1.321f3a24d7f0cp-2
433=0x1.780e1f4689b07p-2
434=-0x1.3ccefc8e56534p-5
435=-0x1.727b53e0d9fb9p-2
436=0x1.569365f85c4c2p-2
437=-0x1.0da8bcb8c0479p-5
438=0x1.419d479c79548p-3
439=-0x1.6a1ea8612464ep-5
440=-0x1.92703fb58a5p-5
441=0x1.1617ad07dd0e9p-1
442=-0x1.8f5583c3e4252p-3
443=0x1.12fed4f58f9a2p+0
444=-0x1.bc4cb6a719851p-3
445=0x1.4b84c764dd674p-5
446=-0x1.4a1774f7c1c0ap-1
447=-0x1.8841910e095b5p-3
448=-0x1.85bf3bb7c6a35p-5
449=-0x1.9fa9000772284p-3
450=0x1.4143436259d52p-4
451=0x1.c8b7bb571f061p-3
452=-0x1.d8beb9eb927dp-3
453=-0x1.d407723e58afp-1
454=0x1.85f3b610eb59cp-3
455=-0x1.74266718ec5dfp-4
456=0x1.78a2ffb5bf8d7p+0
457=0x1.55f95b8c3d213p-4
458=-0x1.0bc625d5d82fep-3
459=-0x1.3d66e896a3355p-1
460=-0x1.714292644bcf3p-4
461=-0x1.6cc4430b4a6b2p-5
462=0x1.3f81b6c6617cep-4
463=-0x1.22f58fb772c95p-4
464=-0x1.6b939f7f7535p-3
465=0x1.df6dccc4f5cafp-3
466=-0x1.049264b655662p-2
467=-0x1.db5092c0c134dp-3
468=-0x1.d9279e0c9ab68p-6
469=0x1.136a20017f0b7p-2
470=0x1.45cd4d3debd6p-5
471=-0x1.d467b77c94701p-2
472=-0x1.442762495e592p-4
473=-0x1.9cbd286ceafd7p-5
474=0x1.3044d475a554dp-1
475=-0x1.5d6c8fe3d0f88p-1
476=0x1.95c2fc806eb2ap-5
477=0x1.bdbe4b0361cdp-1
478=-0x1.02cf19d43a07ap-2
479=0x1.2979b55f76c55p-3
480=-0x1.6baba91728342p-6
481=-0x1.0a4e47d863fb5p-2
482=-0x1.e47610ca0f80fp-6
483=-0x1.1c18d3e88f18ep-2
484=-0x1.fa373005b7949p-6
485=-0x1.98a033a24dc4p-4
486=-0x1.d7743bbdb4b8ep-5
487=0x1.a6c9e892b6f0fp-5
488=0x1.78c4f22449953p-12
489=-0x1.37066d371e62ep-5
490=0x1.95d2a526ff3f3p-5
491=-0x1.96c912d34c3p-10
492=-0x1.2455d5ec1e1ccp-4
493=0x1.4d70fd6c266e3p-4
494=-0x1.3a2aa86b7fdcap-9
495=0x1.618a07af72c8bp-11
496=0x1.fd11c8eaf51e4p-12
497=-0x1.00a05247356bcp-5
498=0x1.c816a374cda7dp-2
499=-0x1.d0933b1b304e7p-5
500=-0x1.51dc34193d378p-2
501=-0x1.3ee89508b3209p-5
502=0x1.0dd504f34dc6bp-2
503=-0x1.517bb43130824p-1
504=-0x1.9159e262a4f65p-10
505=0x1.9b04be77a0424p-9
506=-0x1.3c49aa898bae3p-9
507=-0x1.41e8f882060c4p-4
508=0x1.70f423698d6e3p-4
509=-0x1.2fe619fa35c1fp-9
510=-0x1.09c8b55befb17p-5
511=0x1.4aa16e85b249bp-5
512=-0x1.72dfb7381f648p-9
513=-0x1.d228bb1f66d11p-3
514=0x1.2968a8e046782p-2
515=-0x1.c80de9938b0edp-6
516=0x1.12db70e32362dp-5
517=-0x1.295ca1d5aa4c4p-8
518=-0x1.174bb60d58612p-3
519=0x1.0271740b41bcdp-8
520=0x1.9bb8920ae2ff4p-3
521=-0x1.f8d324b870755p-1
522=0x1.0640a658c5bcap-5
523=-0x1.395baae7c8979p-6
524=-0x1.b86922f2e45c1p-10
525=0x1.311951b479e5cp-5
526=0x1.d36ff95571b9ep-8
527=-0x1.28226ba8dc087p-5
528=0x1.48bce6f5b0233p+0
529=-0x1.5e273d3a58154p-1
530=-0x1.4978f00c20386p+0
531=0x1.5dddebb0764a7p-2
532=0x1.7bf43163066cp-3
533=-0x1.661478bdc4febp-3
534=0x1.eb1d97a211143p+0
535=-0x1.2cf45cdead9f2p+0
536=-0x1.c63c3b10df7d3p-1
537=-0x1.f049ede118d7bp-1
538=-0x1.52b13fae3146p-6
539=-0x1.27f05fdbef1c2p-8
540=-0x1.39da4eafc6c38p-5
541=0x1.49f6e873cdb6ep-5
543=-0x1.75464f9c2133p-5
544=0x1.b12d2860b0d0fp-5
545=-0x1.1dd29d3b12ed6p-8
546=-0x1.6bc306f9189a4p-2
547=0x1.3bef5bf4647e5p-2
548=0x1.72d18822afac6p-7
549=-0x1.1bb83b3c18ec6p+0
550=-0x1.dc47fe9d5fa17p+0
551=0x1.98e84db68945bp+1
552=-0x1.60223beb31c81p-8
553=0x1.201dc9e44fff7p-9
555=-0x1.197b1ce48baadp-4
556=0x1.bf4c15b77c8e4p-6
557=0x1.755c2e882c359p-5
558=-0x1.29c6f3c2c5f59p-5
559=0x1.2eaf72cd603f5p-5
560=-0x1.8ad0787fcec74p-11
561=-0x1.1bb83b3c18ec6p+0
562=-0x1.dc47fe9d5fa17p+0
563=0x1.98e84db68945bp+1
564=-0x1.bb4833aa0e9e4p-3
565=-0x1.704ef98018e3p-2
566=0x1.5a8cb70ad903fp-3
567=-0x1.d32d6b7c6c53ep-1
568=-0x1.58aba716ef631p+0
569=0x1.806fbd2532693p-1
570=-0x1.06dea0661adp-5
571=-0x1.029326db2811fp-5
572=-0x1.0051478e2471p+0
573=0x1.57f967688d2ecp-3
574=-0x1.13a337f7718b4p-3
575=-0x1.0a7aaeb7356dp-2
576=-0x1.abed369dc7e94p-5
577=-0x1.0c26804f8f245p-4
578=0x1.0dd975ff2462p-3
579=0x1.be33fe763bafep-2
580=-0x1.208453bee9e5p-5
581=-0x1.52ad83c2b912cp-3
582=-0x1.c46220293bd7cp-4
583=-0x1.6afbb49a78f17p-5
584=-0x1.06e2e7d631026p-3
585=0x1.cee8d1b05219cp-7
586=0x1.654bf062d0e0dp-4
587=-0x1.90298f178e5b3p-3
588=0x1.09d32e57681f1p-3
589=0x1.43919c1fc72f1p-1
590=-0x1.732a389b3d56ap-4
591=-0x1.b7fb728eefd1dp-3
592=-0x1.fdca897a0e3fcp-3
593=0x1.cb6b1f407d13dp-3
594=0x1.deea9dcde7a34p-6
595=-0x1.14519b873a741p-4
596=-0x1.40c727d6dd0c2p-4
597=-0x1.aac074537f0bap-1
598=0x1.b5e2c9f7941f2p-1
599=-0x1.ae44d12fbb7aep-8
600=-0x1.1cfcb29bbbb69p-1
601=0x1.4ca4756c5e534p-1
602=-0x1.c770d2a031934p-7
603=0x1.101e9892f9344p+1
604=-0x1.16240c445086cp+1
605=-0x1.e9fc3ba4c8d36p-4
606=-0x1.8085809065596p-8
607=0x1.27f257baafa52p-6
608=-0x1.b6b41c5ef3898p-10
609=-0x1.d1e017b78ce6bp-4
610=0x1.ac33f669a4a5p-3
611=-0x1.8a130c32f647p-4
612=0x1.01eb8a6408a9p-6
613=0x1.8b396aea0bf99p-6
614=-0x1.c591f1ce75ed4p-6
615=0x1.3c989623e7867p+0
616=-0x1.235cb168d96b7p+0
617=-0x1.3f1fde0ffd48ep-3
618=0x1.36522ca408057p-2
619=-0x1.1cf83609ac204p-3
620=-0x1.a478e7c59aeb1p-2
621=-0x1.b8718cb837c39p-2
622=-0x1.baa39c14abd3ap-2
623=0x1.f357f85648658p-5
624=0x1.9bb10af2267e3p+0
625=-0x1.2af7b8f365ac1p-1
626=-0x1.8174b1a9833f2p-5
627=0x1.9969a76de178bp-4
628=0x1.7808f1cc9757dp-4
629=-0x1.35d2cbf7639d6p-2
630=-0x1.f7138474c14a8p-6
631=0x1.3388974fddd04p-6
632=-0x1.770fbf37e09afp-3
633=-0x1.0d3cb495cc8e2p-3
634=0x1.7ea25beccb5bp-5
635=0x1.32ae829645877p-4
636=0x1.7962ccfa66cedp-1
637=-0x1.590160fa7c2ecp-2
638=-0x1.e18fc821d4e7bp-4
639=-0x1.b4bd641c8aep-15
640=0x1.6bd287fb2e59fp-5
641=-0x1.4c519a410bebcp-5
642=-0x1.24be8cd32317fp-4
643=0x1.43cc8aa41969fp-3
644=-0x1.16a304295ac3dp-3
645=-0x1.de23e2dceb731p-4
646=0x1.f4855a142c89ap-4
648=-0x1.2fe86b21391p-6
649=0x1.113bceaf8c5f2p-4
650=-0x1.03db104b8b27bp-3
651=0x1.38368d362bef4p-2
652=-0x1.c5003842f8f29p-2
653=0x1.5adc6e1a9e8b6p-5
654=-0x1.8c33bf2c9b3d6p-5
655=0x1.5f53ee9f6bd21p-4
656=-0x1.23f6c41e2e5ecp-6
657=-0x1.caec4ebaedf54p-1
658=0x1.4ae95bf557186p+0
659=-0x1.9d8ac79a22422p-1
660=-0x1.1e845652c4e8fp-1
661=0x1.0aa21bf007c43p-1
662=-0x1.753cb325550ep-2
663=-0x1.4a8d40a7179eap+0
664=0x1.0bba48d7c47fep+0
665=-0x1.37fcb6f3c6d8bp-1
666=0x1.97951d07cf3bdp-2
667=-0x1.6fd45c4ed985bp-1
668=-0x1.4302b7d15ae5bp-3
669=0x1.8a35ae659fd37p-3
670=-0x1.d1a7db7ad4ecdp-5
671=-0x1.13f8407a23d2ap-4
672=0x1.3d14cf874f48cp-3
673=-0x1.5938175fc81e6p-1
674=-0x1.f00e808bf4d33p-3
675=-0x1.adf7b67944815p-2
676=0x1.a18c15dab958dp-3
677=-0x1.dcbe942080e1cp-6
678=0x1.6cf2dfbb4b43dp-1
679=-0x1.3d8f9e984766bp-2
680=-0x1.e3e5ff2db5cc3p-5
681=-0x1.27f7462091d99p-2
682=0x1.5fb101b525a08p-2
683=-0x1.09347e4f13f9ep-3
684=-0x1.231efd29bf866p-7
685=0x1.754b3809e0b25p-7
686=-0x1.381572883dd7dp-11
687=-0x1.0132433e2cc8bp-5
688=0x1.17debaffb906fp-4
689=-0x1.5dcb18a15c51ep-3
690=-0x1.ece538b07606ap-5
691=0x1.650591c58b205p-4
692=-0x1.198cf11960dbcp-5
693=0x1.28ade6fc1f3a1p-9
694=0x1.18c6543add2cap-7
695=-0x1.4c3ddc9df5de3p-6
696=-0x1.44232584a02afp-6
697=0x1.0c1ea8c910d8ep-3
698=-0x1.12aa9546fd5aep-2
699=-0x1.bb995bc2e5805p-3
700=0x1.01fc4506bc532p-2
701=0x1.76184943e1232p-4
702=0x1.58caead3f90d1p-3
703=0x1.8134988ed7195p-5
704=-0x1.076d2fd274deap-4
705=-0x1.3b92d6ec9306ep-5
706=-0x1.d3c75e1d201adp-4
707=-0x1.7881e9d0ba2ap-3
708=-0x1.962ccbab628dep-4
709=0x1.0827d05f07636p-2
710=-0x1.183583e733b38p-4
711=-0x1.3f62ef95061dap-2
712=0x1.1e81897ee7c65p-2
713=-0x1.15d54532fca7fp-3
714=0x1.806ef7ac67da9p-6
715=-0x1.8afba97cebb41p-5
716=-0x1.17571dd7a7298p-8
718=-0x1.618b5a2647052p-6
719=-0x1.398d79d017072p-7
720=-0x1.f94d8aa306d6ap-6
721=0x1.1d09104a65b89p-5
723=-0x1.c95a44d586b17p-7
724=0x1.9be728c8813e2p-6
725=-0x1.14a23c6f9f78ep-6
726=-0x1.ad168b1392be4p-3
727=0x1.e0ad7f0c13dc8p-3
728=-0x1.e17c21d4bf4f1p-6
729=-0x1.06bc38446b14ep-5
730=-0x1.5fc5d77bd729bp-5
731=0x1.13927244fe4p-3
732=0x1.6553a4c7d961bp-3
733=-0x1.4fafd66d4aea9p-4
734=0x1.1270553ef58ffp-6
735=-0x1.40577c3dc2adap-1
736=0x1.8a234d0c38394p-3
737=-0x1.c909fe5287c7dp-10
738=-0x1.2d80eb7284202p-2
739=0x1.fa74119ca8274p-7
740=0x1.cbbdf41a2ac15p-4
741=-0x1.2c7e3b5ca9ebcp-4
742=0x1.1a270ec82d135p-2
743=-0x1.12fed45661ec5p-4
744=-0x1.dd429fac96641p-3
745=-0x1.3957b7f107764p-4
746=-0x1.cb72dd4ab2959p-4
747=-0x1.d342d990cdp-2
748=0x1.2d1507d978f18p-2
749=-0x1.03c77e292dff3p-5
750=-0x1.5374e4770f636p-3
751=0x1.66b51dee1855p-3
752=-0x1.c445183f2d7b4p-2
753=-0x1.5112afec4caeep-2
754=0x1.712072ec6ef1cp-3
755=0x1.aa976a862cbd9p-3
756=-0x1.57000cdbb2bfep-5
757=-0x1.a410a61ea81f3p-5
758=-0x1.0a6cd050d32e6p-5
759=-0x1.17dc1254bb799p-3
760=0x1.12dde79e49e1dp-2
761=-0x1.0585ef7480b67p-4
762=-0x1.1bc00c41ebd79p-4
763=0x1.2bfb0c2935081p-4
764=-0x1.65eb365ae0e52p-6
765=0x1.3cd9bea4f8e2p-3
766=-0x1.711a86184d67ep-4
767=-0x1.95580ac82f7b7p-6
768=-0x1.4a904087909fp-6
769=0x1.1f612ad38de74p-6
770=-0x1.d85f424c6aa89p-8
771=-0x1.be6340dd5cd45p-2
772=0x1.fbf7cee20f8f3p-2
773=-0x1.d246f309f16f4p-3
774=-0x1.a5194d836e611p-2
775=0x1.481aa3aa8881p-2
776=-0x1.5394a7f6cd9dep-2
777=-0x1.59d834810638ap-3
778=0x1.102f695691c0fp-3
779=0x1.fa572a77094ccp-5
780=-0x1.42d73ae8f4da8p-4
781=-0x1.8219bbb033af9p-3
782=-0x1.0096ae4774523p-3
783=0x1.005c16c45c934p-7
784=0x1.524dedd98a912p-9
785=-0x1.175aa25c4ed92p-7
786=-0x1.2fc93c12fb0b6p-1
787=0x1.48eab05bb5d5cp-1
788=-0x1.13da2eeef6286p-5
789=-0x1.09e41adc8b815p-7
790=0x1.09bb027807e44p-6
791=0x1.f5fa5d119a754p-8
792=-0x1.9f20d00d056b9p-2
793=0x1.080a4da31eeafp-1
794=-0x1.dd8cfc85c12fbp-4
795=-0x1.46f81c3c959abp-2
796=0x1.f896c47beb499p-2
797=-0x1.903325abf0b21p-5
798=-0x1.13f30d362888ep-4
799=0x1.248c1db411b1ep-7
800=-0x1.4901406613c05p-5
801=-0x1.1eeed712f2f99p-7
802=-0x1.2909e55f53b2ap-6
803=-0x1.41cb29dae2e34p-7
804=0x1.ea24e12346c6bp-2
805=-0x1.0548d31027ea9p-3
806=-0x1.5f529623f0613p-5
807=0x1.a92ed03bdd70dp-3
808=-0x1.3cd41fb19b5e3p-3
809=-0x1.68d9c7ce6653cp-2
810=0x1.981affd4f3142p-4
811=-0x1.ec03ca6f89c54p-4
812=0x1.7a003f4569554p-4
813=-0x1.1d00299252a72p-5
814=-0x1.1bbbd1534a0bdp-4
815=-0x1.656acc4a082d8p-5
816=0x1.1f2685b9aa613p-6
817=0x1.a31db1bb083f1p-5
818=-0x1.acc5eed219c9bp-3
819=-0x1.ead8089d2c0c4p-4
820=0x1.51d124ffafe34p-3
821=-0x1.971da744a344ep-5
824=0x1.f9e74fd5c50c4p-8
825=0x1.a501a306047e1p-2
826=-0x1.77229b38b4794p-2
827=-0x1.97c54c1e44483p-3
829=-0x1.2f24bf4a02acp-5
830=0x1.590e86e1b5fd2p-6
831=-0x1.f687abb91e995p-4
832=0x1.6fa16f83b8bf1p-6
833=0x1.33879d8dd6205p-4
834=-0x1.0a1a9f84b8973p-8
835=-0x1.1d9052dccfac2p-7
837=-0x1.00dc62eb0fae3p-5
838=-0x1.203bb2c79a102p-5
839=-0x1.b1aed2c460e71p-5
840=0x1.f42b59023db7fp-7
841=-0x1.56dbe4c103d18p-6
842=-0x1.48255bcbaa474p-8
843=-0x1.62e12092ebe37p-2
844=0x1.ab1c33cd29b43p-2
845=-0x1.30bca26e3b0b8p-4
846=-0x1.5fabae1e76e5ep-4
847=0x1.fba94b66d4ce4p-3
848=-0x1.1bf87c3c66becp-3
849=-0x1.4a3c8a3b8a7d4p-3
850=0x1.f0540d46262a4p-2
851=-0x1.33c66441f9e12p-3
852=-0x1.0614b7e7b8558p-6
854=0x1.f769212f4e01ap-4
855=-0x1.35112ffb99eaep-6
856=-0x1.2cb301813fb7dp-5
857=-0x1.0ed16874ffa24p-4
858=-0x1.491f2f686e84cp-5
859=-0x1.6b5762716ca9p-3
860=0x1.bd92b306b2e7p-4
861=0x1.3d993bbd576f5p-3
862=-0x1.cc3d8137399e6p-2
863=0x1.1a8fac005b9f2p-4
864=-0x1.48614e53c0b3p-4
865=0x1.d00df58b69c05p-3
866=0x1.5bf5b83aca3c1p-4
867=-0x1.cd8c3682fa9c9p-7
868=-0x1.ffc545d058bb7p-7
869=-0x1.3c8c6d65becf6p-4
870=-0x1.a88576cf0cc98p-4
871=0x1.98561c3ef74a3p-4
872=0x1.3d41bb8477f94p-6
873=-0x1.66a21f33d157dp-1
874=0x1.5227a804352e1p-1
875=-0x1.05d579f28d69ep-7
876=-0x1.74441d688b223p-3
877=0x1.5d38147ca79cap-5
878=0x1.329c7dc8b2e48p-3
879=0x1.08c01fcca2b7ep-3
880=-0x1.d9caf498d7e24p-4
881=0x1.1fcc4ef792883p+0
882=-0x1.db899238d6476p-3
883=0x1.21c4d7303879bp-3
884=-0x1.ad6e017375022p-3
885=-0x1.9861c762a68d4p-3
886=-0x1.9d2045d4d8c8dp-5
887=-0x1.28e0e7949f13dp-2
888=-0x1.aaed4aeefc806p-2
889=0x1.904982b0e812fp-3
890=-0x1.b80e4e1248629p-7
891=-0x1.ebe37d9cdc908p-3
892=-0x1.d3b5564616e62p-5
893=-0x1.769ae529a4712p-2
894=-0x1.c014b5ff6cb4cp-3
895=0x1.784e4b8710ddfp-2
896=0x1.494922edc69f5p-2
897=-0x1.e3f6c4d8ae3dfp-6
898=-0x1.1b530fa4f8593p-5
899=-0x1.3eb810435d39ap-5
900=0x1.b47197fdc87ep-1
901=-0x1.90952d327c2f6p-1
902=-0x1.768b3942bc408p-3
903=-0x1.24e87871993b4p-4
904=0x1.b41a1a10dd342p-4
905=-0x1.64b53ce222cap-5
906=0x1.f321cac3ba514p-3
907=-0x1.5a028d3f3c029p-5
908=-0x1.13f93959ad716p-2
909=0x1.3351c133166bap-1
910=-0x1.2eb0030a36d48p-2
911=0x1.226fee1b0dccp-5
912=-0x1.d21b6b02d0335p-1
913=0x1.8a94ad956b813p-2
914=-0x1.639b4c9dca8fdp-2
915=0x1.56be7e20d7858p-1
916=-0x1.25489c1fad31bp-3
917=-0x1.06f684cf113d8p-5
918=-0x1.e2ee92b68f01p-3
919=0x1.220f79a7d1131p-2
920=-0x1.4e1d9c453e564p-2
921=0x1.a3ba21cbb3b55p-4
922=0x1.4130daeb5dff8p-1
923=-0x1.1611bc0d6040ep-3
924=-0x1.2177f5f2b1c17p-2
925=-0x1.7faed05f6a406p-6
926=-0x1.1131bd55edc08p-4
927=-0x1.9e500fa4cb3b9p-5
928=-0x1.14134975b0a6p-5
929=-0x1.9c86dbb9d537fp-6
930=0x1.2a97135a7876ap-3
932=-0x1.5c738a166ac39p-3
933=0x1.8224e235bd41ep-4
934=-0x1.508e18d1da9adp-6
935=-0x1.d5c855f8521p-7
936=0x1.95f7c42ffe7bap-4
937=-0x1.6382ccd9dc695p-3
938=-0x1.9f7030bf65d8fp-5
939=0x1.9076019e13f04p-3
940=0x1.556ed895c99d5p-2
941=0x1.4168a226b27e4p-1
942=0x1.30b4449d7629p-2
943=-0x1.7994608289062p-2
944=-0x1.50c23fc427ad6p-2
945=-0x1.46f88567b813ap-1
946=-0x1.415efe28d5f4dp-4
947=-0x1.721c16efa5054p-3
948=-0x1.b216dfd3c1bfdp-4
949=0x1.54166d85c85bdp-4
950=-0x1.0c627fba89b5fp-7
951=-0x1.fa3ffe5029bfap-2
952=0x1.693b97fee8007p-2
953=-0x1.595917d14da02p-5
954=0x1.d5e7d8b595936p-3
955=-0x1.5f3087a750c2cp-3
956=-0x1.0e12980cc9c39p-5
957=-0x1.e822075093ebp-2
958=0x1.0ebd4f3013a42p-1
959=-0x1.c2f2da6fd2b4cp-5
960=-0x1.7215eafdb06d3p-6
961=0x1.e49a1caeeec79p-6
962=0x1.935632a6eb7f4p-6
963=0x1.99f2455651b9dp-4
964=-0x1.449cee2966f35p-3
965=-0x1.91b4979ea8b58p-4
966=0x1.d932ed6bf0b3ap-1
967=-0x1.25cb4db7abf96p-1
968=0x1.49f9f64c7a42dp-5
969=-0x1.310af7dafa3f6p-4
970=0x1.ca782e207c7d7p-3
971=-0x1.2dd02955eb569p-4
972=-0x1.83fa9ee53a80fp-2
973=-0x1.bbba413e306bep-5
974=-0x1.eff2ee3f1cb95p-4
975=-0x1.530968ec5017ap-5
976=0x1.57ca873987ccp-5
977=-0x1.b287ba00bc78cp-5
978=0x1.533d81b1b0534p-4
979=-0x1.8ed3fec30bd2cp-5
980=-0x1.8b5131b8ea6f8p-8
981=0x1.b206041af81fp-6
982=0x1.c211aca279dbep-8
983=-0x1.277399bd8e124p-4
984=0x1.22641013dfb16p-5
985=-0x1.41ccb1f163708p-6
986=-0x1.10c723c349971p-6
987=-0x1.963e660c6ff3p-2
988=0x1.17cb0a0f19ad7p-1
989=-0x1.2f299425f362p-3
990=-0x1.023a1a1f0aac6p-1
991=0x1.e5235ec5590c4p-3
992=-0x1.05c1512acd905p-4
993=-0x1.ac4d27630d9a4p-6
994=0x1.7a5eb8f35f382p-3
995=-0x1.4d0395ce5b82ap-5
996=-0x1.3fbd00c4d6714p-6
997=-0x1.beb24c83f5743p-6
998=-0x1.8beefdf08d5f7p-7
999=-0x1.4f58ea91ac8c8p-2
1000=0x1.6eec8f3981382p-2
1001=-0x1.bb3282b66a4b1p-6
1002=0x1.defeba3e4d2adp-5
1003=-0x1.81a165334e144p-7
1004=-0x1.fca5e322b0335p-6
1005=-0x1.69bb78fe3bf98p-3
1006=0x1.4792e017bd0a6p-2
1007=-0x1.4c6dab6fab2fp-4
1008=-0x1.04e1de1170482p-5
1009=0x1.03adb4b3c8533p-4
1010=-0x1.36fa1c4986ebep-4
1011=-0x1.897818b6468b2p-2
1012=0x1.2c155c4cc9173p-3
1013=-0x1.a9947f6d03ca8p-6
1014=0x1.534a20464a067p-3
1015=-0x1.6a0eecf5fcc17p-4
1016=-0x1.367c155b8f1adp-6
1017=-0x1.513ed1114827p-3
1018=0x1.2d82758a4ccfep-3
1019=-0x1.0af9fd24d47c2p-8
1020=0x1.eb0477f3c8712p-2
1021=-0x1.c7285da056704p-2
1022=-0x1.8986bc5a9502p-7
1023=-0x1.3fa8f60c93208p-4
1024=0x1.9afdd065f5478p-4
1025=-0x1.d37af17d8c91ep-8
1026=0x1.714e3c36db763p-2
1027=-0x1.31dc8245947edp-2
1028=-0x1.0cf108a15a8dfp-7
1029=-0x1.51af536accf3ap-7
1030=0x1.1047c70c757ap-10
1031=0x1.366c609205ea4p-8
1032=0x1.7361fad3cbb5p-6
1033=-0x1.b2bf185ea01ddp-7
1034=-0x1.7699446efbfdcp-8
1035=0x1.3e289ee3879c8p-9
1036=0x1.67c3cecc0460dp-7
1037=-0x1.8d8c00dc315eap-7
1038=-0x1.93aab4b1e7d18p-7
1039=0x1.dbb2db9340247p-5
1040=-0x1.0e032ae84b483p-4
1041=-0x1.90395fd71e5cdp-7
1042=-0x1.44c0990327a2ap-1
1043=0x1.15de1efcfc218p-5
1044=-0x1.2c97c9ba346a6p-2
1045=0x1.13fa09f968552p-1
1046=-0x1.36130d9bd9cbap-3
1047=0x1.5dec70bb35fc6p-2
1048=-0x1.7f2860f297f9cp-3
1049=-0x1.0a0462ce4975p-3
1050=0x1.df02d51cbf7dap-7
1051=0x1.d585d7b1640b6p-7
1052=-0x1.0664b373cdaa4p-5
1053=0x1.12b52b8abb8dfp-1
1054=-0x1.f54229f5d2acap-2
1055=-0x1.1eceaab3642a9p-6
1056=0x1.9edbba621177p-6
1057=-0x1.7d5238673a0e2p-7
1058=0x1.28f3f3c95f722p-7
1059=0x1.3febc625394d5p-4
1060=-0x1.d1301a6201e33p-3
1061=-0x1.fef35f5c89da8p-6
1062=0x1.9196c438f3ccdp-5
1063=-0x1.af6b3179a3984p-3
1064=-0x1.bc479370e272ap-4
1065=0x1.02a7008f93927p-5
1066=0x1.5ed63840e0d23p-6
1067=-0x1.7b539a464b3b5p-3
1068=-0x1.9e9607542f1a7p-6
1069=-0x1.a1e7cf36f1a8ep-6
1070=-0x1.18803da11eebbp-5
1071=-0x1.0a775ebdd0665p-3
1072=0x1.443af7885b7a4p-3
1073=-0x1.bc6550f9b0b6cp-11
1074=0x1.d6af955ac04a8p-6
1075=-0x1.74367e8ef1164p-6
1076=-0x1.e8577973047fep-6
1077=0x1.0e8a2b2d52cffp-4
1078=-0x1.4c1efec1848f2p-5
1079=-0x1.e920e758b8717p-7
1080=-0x1.166b354c582d9p-7
1081=0x1.ce6e1d898aa4dp-6
1082=-0x1.2bedb2ab6dc6ap-6
1083=0x1.c6e4063175645p-2
1084=-0x1.28466f4c83583p-3
1086=0x1.150afdb03feacp-5
1087=-0x1.7d083e48986p-9
1088=-0x1.7ee6af1cb9cc1p-6
1089=0x1.4b02c47dc6fe9p-4
1090=-0x1.8eef490444371p-4
1091=-0x1.8a73392c4c3cbp-6
1092=-0x1.ad0fa45e31ae6p-3
1093=0x1.09839c72aed74p-2
1094=-0x1.0b5c1a818c4ddp-6
1095=-0x1.40608a1defb59p-1
1096=0x1.6653a629a01f5p-1
1097=-0x1.627245e63af1p-4
1099=-0x1.db515cde1f847p-4
1100=0x1.552bdc175aa07p-4
1101=-0x1.cf6c82a7783c6p-5
1102=0x1.a3af4c20f744cp-6
1103=0x1.f7da4d91f655ep-6
1104=-0x1.3c501d559a1a6p-4
1105=0x1.543dd1d3926bcp-5
1106=0x1.b5ede3eca37fdp-7
1107=-0x1.3ce4b023cfbd1p-3
1108=0x1.505489f2d75ddp-4
1109=-0x1.f4856dd2820f7p-9
1110=0x1.4d849ae45f9bap-5
1111=0x1.ba93fbc190d2p-7
1112=-0x1.e8ca19e4b7176p-5
1113=-0x1.b378c413e2e0cp-9
1114=0x1.14ed08d1bfd35p-5
1115=-0x1.bfef60a6f6e2bp-6
1116=-0x1.21dc15b78e02p-8
1117=0x1.414010f7e6406p-7
1118=-0x1.ae75c5a7d09cap-9
1119=0x1.bdebe2fefdc44p-2
1120=-0x1.4cf8d93d31b3ap-2
1121=-0x1.e4a0c51d6ca69p-10
1122=-0x1.b6b07ab176254p-1
1123=0x1.ceb4d9504a576p-1
1124=-0x1.53b2e8b3ab813p-5
1125=-0x1.9aeeef26ab826p-4
1126=0x1.97e52e40490acp-3
1127=-0x1.e9af85950936cp-4
1128=-0x1.e6632e4387fb6p-4
1129=0x1.0dffaf0d75042p-4
1130=-0x1.fe494e8d34728p-6
1131=0x1.14db646d8af38p-1
1132=-0x1.9eef9fd046793p-2
1133=0x1.36b41168429d3p-3
1134=-0x1.6e11e4d292b18p-2
1135=0x1.1a39850ff2381p-2
1136=-0x1.05ae05a5e7405p-4
1137=-0x1.c4cddec33262p-2
1138=-0x1.2d80221b5b116p-4
1139=-0x1.7a20c8c296988p-4
1140=0x1.a705ef9c90d65p-5
1141=-0x1.1336a69ff2519p-8
1142=-0x1.49067088a8ab2p-5
1143=0x1.23486736ee80bp-3
1144=-0x1.48cff385bf904p-4
1145=-0x1.d841b7820301ap-5
1146=-0x1.96806589cfe66p-3
1147=0x1.8c29d1eab15p-3
1148=-0x1.672a842acbe5fp-4
1149=0x1.7cb75dfe38deap-5
1150=-0x1.3964c7f1bc21ep-8
1151=-0x1.7e9aae04b207fp-5
1152=0x1.3f5bd376743c6p-5
1153=-0x1.4f2bfb37dbdcap-5
1154=0x1.2467ab55d728cp-7
1155=0x1.3b4bf37647b63p-3
1156=-0x1.2c834de7e806bp-3
1158=-0x1.06f0a19f91bfdp-4
1159=0x1.2be15f3cb02f6p-6
1160=0x1.796f7bfbfd813p-5
1161=0x1.43c974df57e64p-5
1162=-0x1.4afdc83e04e05p-6
1163=-0x1.307566d0fa476p-5
1164=-0x1.9ad18bc30619fp-3
1165=0x1.83fb12532e899p-4
1166=-0x1.9cd943881d874p-8
1167=0x1.a96365b3f4381p-4
1168=-0x1.1084bf847c1aep-3
1169=-0x1.98a0a18bdd4b1p-4
1170=-0x1.48de651bd8665p-2
1171=0x1.611b21ad25195p-3
1172=0x1.22a579a9b8164p-5
1173=0x1.87b34afd4095cp-3
1174=-0x1.791b23e562c06p-3
1175=0x1.1a9c6ae53b526p-7
1176=0x1.40b1e1e5c63dap-2
1177=-0x1.94e876ae005cfp-2
1178=-0x1.34ce70779cd56p-6
1179=0x1.7a2a47a77ffc4p-4
1180=-0x1.b1d871de50c11p-2
1181=-0x1.c81514efc1bb3p-5
1182=0x1.a341d52d872cp-5
1183=0x1.cc066e42646e4p-6
1184=0x1.daa829e28fc1ap-5
1185=0x1.d555381093a7ap-5
1186=-0x1.1e9e35e409974p-4
1187=-0x1.1815b5f28b96fp-4
1188=0x1.9161b15497d5ap-5
1189=0x1.83fa182537203p-4
1190=-0x1.6a10f6151e841p-4
1191=0x1.b6fb5001629f9p-4
1192=-0x1.c92b66b3fa34dp-4
1193=-0x1.39078b6d14b27p-6
1194=-0x1.03a1b22c90364p-4
1195=0x1.20f81eda97ea8p-4
1196=-0x1.aef983dde247dp-8
1197=0x1.8210a74274159p-6
1198=-0x1.f240345425088p-6
1200=0x1.0ac5c40de4b98p-3
1201=-0x1.173731515bc33p-3
1202=0x1.d87ffaa222c86p-5
1203=0x1.009f6e85f569ap-5
1204=0x1.6617406d26185p-8
1205=-0x1.e2b96f8e024e5p-6
1206=-0x1.9e5063836197bp-2
1207=0x1.263abfd566952p-2
1208=-0x1.6de20a2a4209cp-5
1209=0x1.2d37e7aae470ap-3
1210=-0x1.f05ead05daabbp-4
1211=0x1.324e66a80ba29p-6
1212=-0x1.e8975d0d1ace1p-2
1213=0x1.22a16c50131fap-2
1214=-0x1.3feb02890cafbp-7
1215=0x1.90312880beaecp-5
1216=-0x1.5119b4fa63a24p-5
1217=-0x1.0ae99ad8b00ecp-6
1218=-0x1.a6c8015b89f2ap-2
1219=0x1.d032ced379bc1p-2
1220=-0x1.47e0491484ae6p-5
1221=-0x1.5f5ee8f777744p-2
1222=0x1.6fcd9c9f8a12p-2
1223=-0x1.ecb18169e1626p-7
1224=-0x1.57154658fa9fdp-4
1225=0x1.aa42b223da2e3p-4
1226=-0x1.bd724b50da729p-7
1227=-0x1.8b8bd3dbef89cp-5
1228=0x1.285b356071371p-5
1229=-0x1.9956aa7d70191p-9
1230=0x1.bc510c6079ab3p-6
1231=-0x1.f9d7ba3f0a104p-8
1232=-0x1.0e1d4a5f93eb7p-8
1233=-0x1.0479b0719c4b8p-9
1234=0x1.02a3807f547c6p-8
1235=-0x1.7f7515d547bp-9
1236=0x1.1fc30494e7ccap-7
1237=-0x1.3e2487133a2b4p-8
1238=-0x1.356cbfc049fa1p-10
1239=-0x1.20b90ed8e045p-6
1240=0x1.e530c5355a011p-6
1241=-0x1.42ce56083d0bap-10
1242=-0x1.b2fdc4dd46e65p-5
1243=0x1.0dde674ceac95p-4
1244=-0x1.a5721e9761476p-8
1245=-0x1.a0e2320ed43dp-4
1246=0x1.e04f3971a5b3ep-4
1247=-0x1.062cf556e8a25p-8
1248=-0x1.99e18e0cc11e4p-3
1249=0x1.1019517e640e8p-2
1250=-0x1.88ced100dd52fp-3
1251=0x1.6479e7ae29726p-7
1252=0x1.3271fc3c1c4c1p-2
1253=-0x1.7ff41d489b8a5p-3
1254=-0x1.ad78b5f3613fep-4
1255=0x1.df2c9ccb16639p-4
1256=0x1.78a50200ac878p-15
1257=-0x1.67de898062767p-6
1258=-0x1.2820c71622bd4p-5
1259=-0x1.915a7010cd6b9p-6
1260=-0x1.0e545d86889a5p-8
1261=0x1.262cddaa4a528p-8
1263=-0x1.4dcee62553298p-6
1264=0x1.87e97df7d362bp-6
1266=-0x1.02a1a1b122473p-5
1267=0x1.fe77fa8d9193cp-6
1269=-0x1.4883d2cf39158p-12
1270=0x1.48b314478b76ep-12
1272=-0x1.0f33bb520593dp-6
1273=0x1.0422bc90c0133p-6
1275=0x1.3b4ebb1f7d29ep-14
1276=-0x1.58b3964d5be3ep-12
1279=0x1.79669a2f6049bp-10
1281=-0x1.feb1ac06d92b4p-6
1282=0x1.34f94171fa767p-5
1283=-0x1.b3dc2726cb8f6p-11
1284=0x1.84cd3556538a2p-6
1285=-0x1.3606bb56832ep-7
1286=-0x1.a51bcdf35ba4ap-8
1287=0x1.2010588fa5dc2p-5
1288=-0x1.d6f999793ed5ap-6
1289=-0x1.0c701c41c18ffp-10
1290=0x1.2c52161e7f6fbp-2
1291=-0x1.19f5ee08bfa3p-2
1292=-0x1.0102c5e91e9c1p-8
1293=-0x1.171fd730d2748p-7
1294=0x1.0256abfb81e12p-6
1295=-0x1.175ccde502188p-15
1296=-0x1.7ab6d89e12dc4p-7
1297=0x1.01c74b143b3a8p-6
1299=-0x1.9e2a535db02ccp-8
1300=0x1.5b5954a89391p-7
1302=-0x1.1d45311143492p-7
1303=0x1.f0a8e02bdac8dp-7
1305=0x1.757bcb88bb652p-3
1306=-0x1.6bb9989a4c35cp-3
1308=0x1.ec4a23227cdc6p-4
1309=-0x1.5c7df27d84cdcp-5
1310=-0x1.3ed855b8437f3p-6
1311=-0x1.631079c4eb492p-5
1312=0x1.273d2bf104461p-6
1313=0x1.6cdad4a72ec7ep-7
1314=0x1.6551ec96f3b08p-7
1315=-0x1.091236cf422ffp-7
1317=-0x1.869b325c55e72p-3
1318=0x1.89924f2a9c1d4p-3
1319=-0x1.936ab132e34fep-8
1320=-0x1.e132cb4ae4ccfp-3
1321=0x1.04ab3e47f23e9p-2
1322=-0x1.52fd37ebf2c9bp-7
1323=0x1.b0545ade28cdcp-3
1324=-0x1.166cd15d6b75cp-2
1325=0x1.b490d6a7e2fdep-6
1326=0x1.62f56d874b40bp-6
1327=-0x1.3bc8d9928ee67p-5
1328=0x1.57264641d0247p-8
1329=0x1.28d2d567bff2dp-3
1330=-0x1.16cb9eb33622ap-3
1331=-0x1.12db4fb2f76b1p-9
1332=0x1.1a307d21f264cp-7
1333=-0x1.5a41c7c3f3717p-9
1334=-0x1.46d8c798598dcp-9
1335=-0x1.0bf2989291a61p-6
1336=0x1.31392843ad186p-13
1337=0x1.1c74eeef1547p-6
1338=0x1.05dcf3d31a47cp-3
1339=-0x1.47da43f0eac75p-4
1340=-0x1.4e825e6ec119fp-6
1341=-0x1.ac23305679319p-1
1342=0x1.b744371fe9ebap-1
1343=-0x1.c224800c7ecfcp-7
1344=-0x1.a2ca841d27b05p-6
1345=0x1.6724d6280a77ap-6
1346=-0x1.f94f4d5a520b5p-11
1347=-0x1.5a13ab804d809p-9
1348=0x1.f65be2b4c7a88p-7
1349=-0x1.1ab491a256aadp-9
1350=0x1.0e10f3d0d656dp-6
1351=-0x1.76516d514aceep-6
1353=0x1.525befa517ff4p-5
1354=-0x1.c5006a1c7ab1cp-6
1355=-0x1.f79368e0dea6ep-12
1356=-0x1.584dd361ed8e5p-3
1357=0x1.64aa045ef8b1p-3
1358=-0x1.57f029daab01ap-11
1359=-0x1.1cbad37969822p-1
1360=0x1.28c72a49ce224p-1
1361=-0x1.32dde3c29c91cp-6
1362=0x1.5a6c79097e923p-7
1363=-0x1.d2c4f79ab2469p-7
1365=-0x1.dd419333de102p-3
1366=0x1.d451db959fd4p-3
1367=-0x1.f6e76bec60264p-8
1368=0x1.e0ab6a71c2aa8p-5
1369=-0x1.76d48a5962fdfp-5
1370=-0x1.e8c765a7a695dp-9
1371=0x1.33445a8bae004p-4
1372=-0x1.2296007b04812p-4
1373=-0x1.aaf863acc8077p-8
1374=-0x1.e7411432ed86fp-8
1375=0x1.b4b4aede95b4p-7
1376=-0x1.80fff16f57b5cp-10
1377=0x1.3458c7c6c3ec2p-9
1378=-0x1.b1812612ab0f2p-8
1379=0x1.55bdbd31658abp-10
1380=-0x1.d20b037e89dd6p-6
1381=0x1.fd168f66ddc3ap-5
1382=-0x1.7ca2f3d52c114p-7
1383=-0x1.3ba3f60d8f758p-4
1384=0x1.4d833e46fe1ap-4
1385=-0x1.5fb8c7e0b6b62p-8
1386=0x1.cfd00e0e01f8cp-7
1387=-0x1.057b7525f1fc8p-6
1388=-0x1.49c28dd1cb29p-9
1389=0x1.9e78abe88cd5cp-6
1390=-0x1.255cea82293ecp-5
1391=-0x1.8707b64d1cb26p-10
1392=-0x1.ade2d4ee9d584p-8
1393=0x1.5faa5d55b7826p-7
1394=-0x1.21dd25a9c14b5p-6
1395=0x1.97e219487145bp-5
1396=-0x1.87d8ab838e66p-6
1397=-0x1.eea3395d4de54p-6
1398=0x1.c0ec57c8c7b7dp-5
1399=-0x1.0a8b4f4edb2dap-4
1400=0x1.7b5826dfbe658p-5
1401=-0x1.94920d4803561p-4
1402=0x1.99cf5cea85766p-3
1403=-0x1.3e3dba3ad858bp-6
1404=-0x1.00a756296627fp-4
1405=0x1.0c34012bdacf4p-4
1406=-0x1.1eb0f5a114b65p-7
1407=-0x1.614cc9a2cf062p-3
1408=0x1.33a6331c0dd55p-3
1409=-0x1.6f9b1ea3cc248p-7
1411=-0x1.a8de888bd642ep-7
1412=0x1.5dac5a7ef2fa7p-7
1413=0x1.3e720e38cb09dp-4
1414=-0x1.281c744ccf7bap-4
1415=-0x1.059c97c3b169p-8
1416=0x1.749063e9b897cp-4
1417=-0x1.d48876cf02af5p-5
1418=-0x1.174577bb03723p-7
1419=0x1.bbee8a985a27p-7
1420=-0x1.8e5c1136c6a85p-5
1421=0x1.eb270e6e9481ap-6
1422=0x1.1edf075c57fdp-8
1424=-0x1.7111d005896edp-8
1425=-0x1.f73ab43f745eap-3
1426=0x1.ec0b92d686129p-3
1427=-0x1.93a9c3dd385c5p-9
1428=-0x1.af2f5e6e5a968p-5
1429=0x1.4c8d006681a1ap-5
1430=-0x1.a8cd644af2ad6p-9
1431=-0x1.87b3cd978476dp-7
1432=0x1.4cdf4f7a2bf6fp-7
1433=-0x1.56028c1dd7d69p-9
1434=-0x1.54a77e39bcaf3p-7
1435=0x1.653e2cdeda7dep-5
1436=-0x1.6f8c823d58808p-5
1437=-0x1.4561078929416p-3
1438=0x1.ad00e29c15427p-4
1439=0x1.6e59aedd00b1cp-5
1440=-0x1.645b5c7dd2c7bp-3
1441=0x1.2a69a7c70651p-3
1442=-0x1.5014ff75cfd73p-6
1443=-0x1.3cbef5f2cb921p-3
1444=0x1.6bb94b2819c6ap-3
1445=-0x1.58799f86a69c8p-4
1446=-0x1.fad45c44272cbp-5
1447=0x1.62a1e32ee79dap-6
1448=0x1.5f9a332a80459p-6
1449=-0x1.8ba9b02744dfep-6
1450=0x1.079e1e615c0ebp-5
1452=0x1.daf2b5f9548b4p-6
1453=-0x1.11ecdb3daac7cp-5
1454=-0x1.70b49394cc064p-4
1455=-0x1.44e612f14c87cp-9
1456=0x1.cbd914d7a0f92p-8
1457=-0x1.034aadc91c4abp-7
1458=0x1.469e9206b4484p-6
1459=-0x1.012f3d3ff052dp-8
1460=-0x1.a845e0ae02f09p-8
1461=-0x1.0755272bf7eb1p-5
1462=0x1.03fb8fa676e21p-5
1464=0x1.3322bfd132f6cp+0
1465=-0x1.06c266502cd46p+0
1466=-0x1.321ad27b45747p-4
1467=0x1.4ffd415fc6bp+1
1468=-0x1.50a76c440f804p+1
1469=0x1.900f24ae2026ap-6
1470=-0x1.54fdfe35a21d9p-3
1471=0x1.7b35885e977cbp-3
1472=-0x1.446fa1b115889p-9
1473=0x1.5912e12b26703p-5
1474=-0x1.25d61408489ffp-5
1476=-0x1.b40b5e2ae388ep-15
1477=0x1.0e0351f04e168p-8
1478=-0x1.13a27ea2fbdadp-11
1479=-0x1.a82c1e273e8c8p-4
1480=0x1.6b733a621bc16p-4
1481=-0x1.3985d1d65aa27p-8
1482=-0x1.89360aa80551fp-5
1483=0x1.142b99374e5fp-4
1484=-0x1.49e64de06d4dep-8
1485=-0x1.8bcbdd4e6e3bap-4
1486=0x1.60e60655c7c57p-4
1487=-0x1.c84aebb212793p-8
1488=-0x1.e20146678876ap-9
1489=0x1.563fc9808397ep-7
1491=0x1.b6311a79c670bp-2
1492=-0x1.e7956a800d78bp-3
1493=0x1.c5af35d31100ep-4
1494=-0x1.ca5dcfa5aab99p-3
1495=0x1.291f4d9516d77p-4
1496=-0x1.09474f0dee492p-3
1497=-0x1.c8bf9f88e23b1p-6
1498=-0x1.2286f9e4fd00dp-7
1499=-0x1.49e1fa40c4696p-8
1500=-0x1.a76ee29220f38p-4
1501=0x1.70ad667b609f3p-4
1503=0x1.d9c55c7ad7da6p-5
1504=-0x1.aef9d16f7754dp-4
1506=0x1.7917037c106ep-5
1507=-0x1.ccf925bd94265p-5
1509=-0x1.393d8f63c2008p-7
1510=0x1.b325a042b48e8p-7
1511=-0x1.5d590ea53e0acp-8
1512=-0x1.645a720b8f6fcp-4
1513=0x1.8c1bddc16fd95p-4
1514=0x1.82300e21ae0cdp-9
1515=-0x1.f76ed7114a614p-7
1516=0x1.4d97d86675ff7p-5
1517=-0x1.00cf8b7672a18p-6
1518=-0x1.6a567f0ad2f9dp-1
1519=0x1.1737cff48b919p+0
1520=-0x1.1f3aa808bfcd7p-1
1521=0x1.789b353dc4e8fp+1
1522=-0x1.b125b4769c5e1p+1
1523=-0x1.327587aa45e0cp-5
1524=-0x1.0c4516dc9b434p-1
1525=0x1.408a9a3d0c19bp-1
1526=-0x1.64af3de3e118fp-4
1527=-0x1.ac111a3c50925p-4
1528=0x1.b4de86c04f758p-4
1529=-0x1.0afc052f23267p-10
1530=-0x1.55cab0938849ap-3
1531=0x1.808559b0ac14p-3
1532=-0x1.1b7edbc320d5fp-6
1533=-0x1.ae4243ef87f28p-3
1534=0x1.0be598f324e35p-2
1535=-0x1.05ab572454a8cp-5
1536=0x1.1bfbcf60dfab8p-2
1537=-0x1.ef059188845a8p-5
1538=-0x1.fdb8a11841cb9p-3
1539=0x1.d10d5af8ac0d7p-1
1540=-0x1.99326b769e8cdp-1
1541=-0x1.92dd1b78a48c8p-4
1542=-0x1.649ec4b61550cp-5
1543=0x1.fa26e8e4d5b3bp-5
1544=0x1.dca543d1af734p-7
1545=0x1.d2a08b2fe0c26p-5
1546=-0x1.ac7225e3f8618p-5
1547=-0x1.842dbe77884e3p-9
1548=-0x1.99445449ec7aap-4
1549=0x1.98052dc5aae3p-4
1550=-0x1.27df8bf019691p-8
1551=-0x1.e81603f4cf9bdp-4
1552=0x1.f2ee044b80a84p-4
1554=-0x1.988ae21f89642p-6
1555=0x1.14e978af807eap-5
1556=-0x1.7d59e560bfc24p-9
1557=-0x1.11d2ad5547b0ep-4
1558=0x1.36ee3b34aa56fp-4
1560=-0x1.7f1f15137d0f2p-6
1561=0x1.914f3aeeb8c08p-5
1562=-0x1.9c999bf0b3637p-7
1563=-0x1.77a3da288ad1p-7
1564=0x1.5f2260db8e4d6p-6
1565=-0x1.a10f5d9823f84p-12
1566=-0x1.9510cf7451b06p-3
1567=0x1.02be5f08a9ac7p-2
1568=-0x1.3d8030e6606e1p-6
1569=0x1.207a1d81a9d2p-9
1570=0x1.dab5ae2e1784dp-7
1571=-0x1.47f0de1bafddcp-7
1572=-0x1.9fbddbed9f533p-1
1573=0x1.49c252c2bbd29p+0
1574=-0x1.3dca697b78e94p-1
1575=-0x1.1852444ad396dp-4
1576=0x1.f83cdea63688dp-4
1577=-0x1.29972e872cfd9p-2
1578=-0x1.2dda317552047p+0
1579=0x1.1577c2a83663ap+0
1580=-0x1.1caa9709f5f1ep-3
1581=-0x1.8ea20b49fd6b9p-4
1582=-0x1.82dda8c28eb31p-5
1583=-0x1.30b9d03f89484p-7
1584=-0x1.e56776add27d2p-4
1585=0x1.fca41b77b7218p-4
1586=-0x1.66c328027207ep-7
1587=-0x1.01312eefc6a7p-2
1588=0x1.3919c5c84692ap-2
1589=-0x1.3dd2bc091b01bp-6
1590=0x1.f504975d1dcb9p-6
1591=-0x1.73ec04808a7bp-6
1592=-0x1.3a4fb92a40e67p-8
1593=0x1.08d82f01a9ee3p-6
1594=-0x1.91386999321d8p-7
1595=-0x1.661e87abfc76ap-8
1596=0x1.0425b93a5143fp-7
1597=-0x1.198818f0dac41p-8
1599=0x1.113abf4c91219p-3
1600=-0x1.c184e47e7b2e4p-4
1601=-0x1.52f6fa27d335fp-8
1602=0x1.867a23c73e725p-5
1603=-0x1.474a505f3ab28p-5
1605=-0x1.70d800a8d82a8p-5
1606=0x1.eb4d0486c5879p-5
1607=-0x1.2898de90e7404p-8
1608=-0x1.30aa2e9b5298p-8
1609=0x1.732c6119443f1p-8
1610=-0x1.551ad282cc988p-8
1611=-0x1.1b94b31653672p-3
1612=0x1.bb16aff0bb519p-4
1613=-0x1.86f8b554965ep-8
1614=0x1.10180b03f280cp-2
1615=-0x1.0fbb0b7ba2bb6p-2
1617=0x1.35961695b3efdp-7
1618=-0x1.5d1c256933e7bp-5
1619=0x1.11da2f91eef4ap-6
1620=0x1.dd4e68385b5e9p-7
1621=-0x1.d12faebbde7c9p-7
1623=-0x1.d24ac65504878p-7
1624=0x1.547df793b2d08p-6
1625=-0x1.ddbfdb765af1p-9
1626=0x1.656cc51d71358p-18
1627=-0x1.35c9d17c4cd98p-14
1629=-0x1.abac1e0dfd657p-6
1630=0x1.aa66e17e78825p-6
1632=-0x1.c46237d60cf48p-7
1633=0x1.c24fef70b8faap-7
1635=-0x1.6f029cc17ecd7p-7
1636=0x1.b0564598fc59bp-7
1638=-0x1.6aae742dbdd4fp-3
1639=0x1.766458752d92fp-3
1640=-0x1.02aa1e6664cadp-12
1641=-0x1.565da5e0602b7p-6
1642=0x1.71bda7824397fp-6
1644=-0x1.9db0415d4a43ap-9
1645=0x1.cd85f7a802e84p-9
1647=0x1.207a6681d80e9p-10
1648=-0x1.cace4b844f03ep-11
1649=-0x1.f61513553a82cp-12
1650=-0x1.ccc112fa098ep-6
1651=0x1.10260ad2c89dap-5
1652=-0x1.c4b108dbad616p-11
1653=-0x1.6ff94e14825e2p-5
1654=0x1.ac122e7f8e7cep-5
1656=-0x1.ac40c9ff22cc8p-5
1657=0x1.b3fff39b09806p-5
1658=-0x1.17cb74c9d607ep-10
1659=-0x1.39be370966d38p-4
1660=0x1.3890ac21abd0ep-4
1662=-0x1.868fe32648ffap-5
1663=0x1.b1cc09453621ep-5
1664=-0x1.f49d087898381p-12
1665=-0x1.1ff41e29e178fp-8
1666=0x1.fec789bc1f26ap-7
1667=-0x1.2b13d6b5b55a4p-10
1668=0x1.e307f7991eb1ep-7
1669=0x1.75ba08e50e86p-15
1670=-0x1.1cb2b6e1c60d2p-7
1671=0x1.1ecceebed8225p-6
1672=-0x1.a2cafb8997111p-8
1673=-0x1.cdaad2beadcf9p-8
1674=-0x1.022f94b1dbf1p-5
1675=0x1.b45b28f618d3cp-6
1676=0x1.2ad373108605fp-8
1677=-0x1.0c885d5671da8p-8
1678=0x1.3fd7736deeafap-7
1679=-0x1.08c1e34362ec8p-9
1680=-0x1.3c28dc4f732cbp-2
1681=0x1.4957f4586787ep-2
1682=-0x1.d7f473a0f96b2p-9
1683=-0x1.54343c4dfa5cep-5
1684=0x1.92d4ce474302ap-5
1685=-0x1.6209ccc1e12e2p-8
1686=0x1.b73f723da6b68p-5
1687=-0x1.94d8435c8ef95p-5
1688=-0x1.450a5b5704efp-15
1689=-0x1.c7d6e38cdafb4p-5
1690=0x1.df23d7dbafb73p-5
1691=-0x1.8ad62d0426fe9p-9
1692=-0x1.f587e72ca5dc1p-2
1693=0x1.0bccc25c92023p-1
1694=-0x1.0b1a26150ef8p-7
1695=0x1.387602da8ea27p-3
1696=-0x1.db884418804c5p-4
1697=-0x1.2b7bb22c17d1bp-9
1698=0x1.3185a85534f7ep-3
1699=-0x1.28790f4358f4cp-3
1700=-0x1.1326d30df2611p-10
1701=0x1.7f511024554b7p-7
1702=-0x1.712de7eb4d016p-8
1704=0x1.070cb631047fap-3
1705=-0x1.1edd038f5a1c8p-4
1706=-0x1.1113b0106a371p-5
1707=0x1.98d4acbc66e46p-4
1708=-0x1.dc7b973574856p-5
1709=-0x1.f0a29c3a43296p-8
1710=-0x1.a76c6251be176p-7
1711=0x1.c68cfa9565e4ap-6
1712=-0x1.ad887becf8c3cp-5
1713=-0x1.780d07bd9732cp-3
1714=0x1.e515877a19ad1p-3
1715=-0x1.a8e5a203bd02ap-6
1716=-0x1.8ee4742d27dd4p-6
1717=0x1.86529e9c74bp-5
1718=-0x1.8f98bd8a25744p-5
1719=0x1.fc002d3a9b48p-7
1720=0x1.ee061968e8169p-6
1721=-0x1.2673e729cbddbp-5
1722=-0x1.d05c61f7d6918p-2
1723=0x1.0a7e1c4e25c4ep-1
1724=-0x1.b095d2a303169p-6
1725=-0x1.b89d6d71b3618p-6
1726=0x1.9ea8fd5980a26p-5
1727=-0x1.777e762425f7ep-6
1728=0x1.1871d3a80c185p-1
1729=-0x1.0f7cca8b4cfe2p-1
1730=-0x1.61a75398d3962p-10
1731=-0x1.eed7e50c55072p-6
1732=0x1.3c7298cb2897ep-5
1734=0x1.b927ea29b1d72p-9
1735=0x1.4162019e767bbp-9
1736=-0x1.7df5bd5f4b045p-9
1737=-0x1.27cb7114d9f75p-3
1738=0x1.58a4a48338215p-3
1739=-0x1.02fca6ec25f6bp-8
1740=-0x1.356c0aefc748ep-6
1741=0x1.87fb91b27b4dap-5
1742=-0x1.51ef500fa426cp-7
1743=-0x1.6a26d56cd1a32p-7
1744=0x1.673ef1692587ep-6
1745=-0x1.ac47d8eb3d701p-8
1746=-0x1.8fa2c509c3b31p-5
1747=0x1.4f718d2bd452fp-4
1748=-0x1.37eb0edc4b726p-6
1749=0x1.e01cf5c8816p-5
1750=-0x1.a7b53d40b8ea7p-5
1751=-0x1.3d8c70a542a07p-8
1752=-0x1.348f80a9383b9p-7
1753=0x1.8277877418fcap-6
1754=-0x1.b261841cf3ed7p-7
1755=0x1.64e371182b516p-7
1756=0x1.24dce4b54639cp-10
1757=-0x1.6bb55c5731fa6p-6
1758=0x1.5b640ed5be58ap-5
1759=-0x1.25621d8624e68p-5
1760=-0x1.d746c24b40ca4p-11
1761=-0x1.2ee094ee7684bp-7
1762=0x1.bf3fcee50791fp-7
1763=-0x1.08a986bfa6254p-5
1764=0x1.fa40aa04c50b2p-5
1765=-0x1.cd7070696663bp-5
1767=0x1.5f9cd0f02f597p-5
1768=-0x1.3c477468f9e0cp-5
1769=-0x1.cef7fef67bd5bp-7
1770=-0x1.a9a78743ac638p-5
1771=0x1.3d37fcdb26dfcp-4
1772=-0x1.f714ce7db8048p-7
1773=-0x1.62e1c57aee694p-2
1774=0x1.7ec14da6287ecp-2
1775=-0x1.17c33c6d3a712p-7
1776=-0x1.576c3d5ea7e21p-4
1777=0x1.c0039d2bc3d0cp-4
1778=-0x1.ab14a049ecd31p-7
1779=-0x1.6ba85ff658e64p-2
1780=0x1.e3260ee05ebf2p-2
1781=-0x1.761decca45614p-5
1782=-0x1.fc7f321f3ba6p-2
1783=0x1.631df88fa39b9p-1
1784=-0x1.5022302b3d835p-4
1785=-0x1.d4c7d13ee01b2p-2
1786=0x1.2387fc4f5f6d2p-1
1787=-0x1.2dde04e87ceecp-5
1788=0x1.72d362ca3f42ep-5
1789=-0x1.5b614ba3faa22p-5
1790=-0x1.619f5dff1732bp-6
1791=0x1.36c02ce764b58p-2
1792=-0x1.1f742441fc54p-2
1793=-0x1.15c989057ad61p-9
1794=-0x1.88dade32ee042p-11
1795=0x1.28619221c6846p-9
1796=-0x1.f5b7ccf1b0242p-10
1797=-0x1.acc978e9235cap-7
1798=0x1.1603c0388847ap-7
1799=-0x1.8f074ccc37acep-11
1800=-0x1.8dd21482d9ca2p-8
1801=0x1.aa6cb49096b4dp-9
1803=-0x1.0b06bae393542p-11
1804=0x1.3407d034f42b2p-8
1805=-0x1.3575dec785112p-10
1806=-0x1.e59881414838cp-3
1807=0x1.f6e5481ca4b7bp-3
1808=-0x1.6e20082ac1812p-10
1809=-0x1.53f4701a1a64fp-5
1810=0x1.67148b01fa926p-5
1812=0x1.e29d46e589554p-11
1815=0x1.6d87ae599c7efp-4
1816=-0x1.04e7532660c06p-4
1817=-0x1.ad758b1232821p-8
1818=0x1.3006fccdeb1aep-6
1819=-0x1.20b072cf29315p-8
1820=-0x1.b6a8d272d2ff2p-9
1821=-0x1.ff5f4819f807bp-7
1822=0x1.1e288ba6b8ae5p-7
1824=-0x1.24271c29671a3p-5
1825=0x1.63d6195faec2dp-5
1826=-0x1.9db587b233807p-9
1827=-0x1.69e8f5eac961fp-3
1828=0x1.8ed7b17c81723p-3
1829=-0x1.5e3ddf1934878p-8
1830=-0x1.4c51a34dac041p-4
1831=0x1.78dbfbd5af26bp-4
1832=-0x1.c5bd87941c154p-9
1833=-0x1.8d49126086ce8p-8
1834=0x1.fce2bc23a2d42p-8
1836=-0x1.fcd70b94ea522p-8
1837=0x1.67d25b97018d3p-6
1838=-0x1.fd85156983727p-6
1839=0x1.bdcbe26184d96p-2
1840=-0x1.a2f10961f7861p-2
1841=-0x1.9eca415020311p-8
1842=-0x1.341b28f10eef5p-11
1844=0x1.eb8f4450112bdp-10
1851=-0x1.45e0309c82226p-6
1852=0x1.46c817b5789f4p-6
1854=-0x1.9ada5de7ddad7p-8
1855=0x1.d3f04bbab4008p-8
1857=-0x1.756c0ee224a26p-9
1858=0x1.4c1f8429c987p-7
1859=-0x1.104fcda27647ap-9
1860=-0x1.e85ef7b4da52fp-5
1861=0x1.f999d1229a0c5p-5
1863=-0x1.bfeabd8728bb1p-6
1864=0x1.badacce54ebc7p-6
1867=0x1.84ff245ebb472p-9
1869=-0x1.0260212082ee9p-6
1870=0x1.ef0c611042e57p-7
1872=0x1.bc650c36ad311p-7
1873=-0x1.4cd5b99236bcp-8
1874=-0x1.52376702f45e6p-8
1875=0x1.4278716d40e5ap-7
1876=-0x1.26d3bef685d9fp-7
1878=-0x1.bb6793eac97cfp-9
1879=0x1.278a7006bd928p-7
1880=-0x1.65cf48960e09fp-11
1881=0x1.5c66eb851870cp-7
1882=-0x1.86b0cec53d572p-7
1884=-0x1.16f8abfc98c8p-6
1885=0x1.1966dd1db629ep-7
1886=0x1.5c5f32eed9935p-8
1887=0x1.cf33df2341468p-9
1889=-0x1.de7ceb16f695cp-10
1890=0x1.d77abcc4fb943p-9
1892=-0x1.f2fc8d191681fp-10
1893=-0x1.0491d55121a64p-6
1896=0x1.c6f0a7ff0b2fap-8
1899=0x1.a3974302fc3c8p-7
1902=0x1.6bc20c6b09b7ap+0
1903=-0x1.5aad60ea1c6bep+0
1904=-0x1.7ad589367ccecp-6
1905=0x1.706f999f23b37p-4
1906=-0x1.83b896513857fp-5
1907=-0x1.d2ba11f7d0506p-5
1908=-0x1.17ba6ebe0eef7p-5
1909=0x1.9f65e15d9cd6bp-5
1910=-0x1.bb05bf830751ep-7
1911=0x1.3139d4210b24cp-5
1912=-0x1.1b5d090afae0cp-5
1913=-0x1.575e9ffac0413p-8
1914=0x1.d90a41e2d8b8dp-5
1915=-0x1.df5f4c26328bp-6
1916=-0x1.490bdd92e8dafp-10
1917=0x1.c385fb995a7c2p-6
1918=-0x1.dff3cbf4f86a2p-7
1919=-0x1.d0f1301e16cd8p-9
1920=-0x1.290a56a284d5cp-9
1921=0x1.2c4603dbd99d4p-8
1923=0x1.3a9a33fa264abp-6
1924=-0x1.5d27a4d763114p-7
1926=-0x1.e704e22268875p-8
1927=0x1.b17b88265a6bdp-8
1929=-0x1.bd98b37075fbep-6
1930=0x1.67e9fb7f106f1p-6
1932=0x1.212545fb84923p-9
1933=0x1.4267d55f32874p-10
1934=-0x1.d42b6c74e702ap-9
1935=-0x1.1d3c9d7be1ef9p-7
1936=0x1.fe4a31504471p-6
1937=-0x1.8e725b50b1685p-7
1938=-0x1.159e215f7725p-6
1939=0x1.10118ad75b7d9p-4
1940=-0x1.7c6d062bdcddap-4
1941=0x1.046102c330f93p+1
1942=-0x1.e33274f062818p+0
1943=-0x1.094d528f1601dp-4
1944=0x1.3db6d7d7b549dp+1
1945=-0x1.28a1ab939fd5fp+1
1946=-0x1.298c1959d5f75p-4
1947=0x1.dacd559f9c654p-1
1948=-0x1.c9c022e41e33ap-1
1949=-0x1.1ea8bd337f471p-6
1950=0x1.69873614db96bp+0
1951=-0x1.3126cdf909408p+0
1952=-0x1.465dad21556afp-5
1953=-0x1.ddbfd3aea4816p-4
1954=-0x1.b80a22e7d87a2p-10
1956=0x1.5e8cb8d4409f8p-5
1957=-0x1.95389960f02e2p-5
1958=0x1.2213242dcf96cp-7
1959=0x1.e5f50d437c713p-8
1960=-0x1.56729adabfe68p-7
1962=0x1.b5f2f1bea1424p-9
1963=-0x1.994257c36a3d4p-9
1965=-0x1.6c162f4d90a7bp-7
1966=0x1.070455aaf262ap-6
1968=-0x1.3cad5b6b7082bp-8
1969=0x1.3e3929cb140edp-7
1970=-0x1.d2b341703e1e8p-12
1971=-0x1.1240c8870dba9p-4
1972=0x1.8788c37fe4a8fp-4
1973=-0x1.df46a474ecd2dp-8
1974=-0x1.7286d7810bacp-3
1975=0x1.d2c95f12ab3f7p-3
1976=-0x1.0a9a3d7c96da6p-6
1977=-0x1.5fae65d4105f4p-5
1978=0x1.743c3901ee8ecp-5
1979=-0x1.00ca175e379d6p-7
1980=0x1.37f692da56f07p-5
1981=-0x1.95b22f7eed14ep-6
1982=-0x1.5a69d1ef27ae2p-8
1983=0x1.42fe9698a3affp-4
1984=-0x1.2cb8df6b649a2p-4
1986=0x1.89cd62b232ca8p-4
1987=-0x1.710d59ff67ba2p-4
1989=-0x1.aec6bff8c7bd9p-4
1990=0x1.cfc7276bf4594p-4
1991=-0x1.b3435fc3eec26p-12
1992=0x1.2387bd9268903p-9
1993=0x1.512c688d6356bp-7
1994=-0x1.6f1cfc7e5165ep-8
1995=-0x1.bdaff239d88a4p-7
1996=0x1.81e9a94f33e67p-5
1997=-0x1.242e17a0baeb6p-6
1998=-0x1.cd53f579ae637p-8
1999=0x1.0e8e0b34689d4p-6
2000=-0x1.607c915edcf8ap-6
2001=0x1.f82d0b94118f4p-6
2002=-0x1.9fb6d2226797ep-6
2003=-0x1.7483042b0d625p-7
2004=0x1.c4408a8be160ap-3
2005=-0x1.afe433d0793c5p-3
2007=0x1.449a180c78e7bp-4
2008=-0x1.55db4d9ff2476p-6
2009=-0x1.f711b8271619bp-6
2010=0x1.2ba778d2ef60bp-3
2011=-0x1.f9e2d31564d51p-4
2012=-0x1.cb7574cc8d494p-7
2013=0x1.5f758a42bdbbcp-6
2014=-0x1.6531b7804cfbcp-6
2016=0x1.ac7deac02dfe2p-4
2017=-0x1.449cbb35a1244p-4
2018=-0x1.2b0481fa19a7ap-7
2019=-0x1.92ebd9a378ddep-2
2020=0x1.ca48d41772518p-2
2021=-0x1.59e444fe226fcp-5
2022=-0x1.d1981f4a8c786p-5
2023=0x1.0f67e2a4b55c8p-4
2024=-0x1.127b1cfed75fep-8
2025=-0x1.032755d364ef2p-4
2026=0x1.f4da2ee7ca3a1p-5
2028=-0x1.fefd20ce63d4ep-7
2029=0x1.95819d95a3486p-6
2030=-0x1.b077e36b0f39p-8
2031=-0x1.15c536a33fa1dp-5
2032=0x1.406727ccfe242p-5
2033=-0x1.99a44bdcbdc33p-10
2034=-0x1.b4ee404fc3de2p-7
2035=0x1.0d138e9877f6dp-6
2037=-0x1.9a28168ea096fp-10
2038=0x1.3f0d888a49a7bp-8
2039=-0x1.0aaae6455b042p-8
2040=0x1.cc839d9f22e56p-1
2041=-0x1.39a2293009a3ap-1
2042=-0x1.789720b3ee6f7p-2
2043=0x1.42c8f323d205p-4
2044=-0x1.02661bb697511p-4
2045=-0x1.05139866061dbp-10
2046=0x1.cc7e7094da8f8p-1
2047=-0x1.399dd974ec784p-1
2048=-0x1.789467e1c102p-2
2049=0x1.5adf0c6eba69ep-5
2050=-0x1.f329b34a659fdp-6
2051=-0x1.508fc36e381bbp-6
2052=0x1.bb594edc2ffeep-1
2053=-0x1.211fc73f2d1cdp-1
2054=-0x1.5d71f55761943p-2
2058=0x1.72ece301daf3ep-1
2059=-0x1.7240586024aaep-1
2061=-0x1.10cba92307a8ap-4
2062=0x1.8ce188f11376ep-4
2063=-0x1.78ff44a17ec3ap-8
2064=-0x1.36866629b47a1p-5
2065=0x1.5fa86b11372e6p-5
2067=0x1.ca43a835315bp-5
2068=-0x1.9965fa20a02bep-5
2069=-0x1.1995d6ad27791p-10
2070=0x1.1ea51111d9074p-8
2071=-0x1.99a100a864f8dp-8
2073=-0x1.2cbf3407ba59fp-3
2074=0x1.7290a4bf1c86p-3
2075=-0x1.30aa426994ff2p-6
2076=-0x1.1996ed546a706p-4
2077=0x1.2348ba01a1d38p-4
2079=0x1.8e9e808da77e2p-5
2080=-0x1.8334e9440769cp-5
2082=-0x1.8baa6582fd1ecp-11
2083=0x1.d4d07743a6446p-11
2085=-0x1.ee47723507774p-7
2086=0x1.14a5ac825d496p-6
2088=0x1.2c6c29d63241ep-5
2089=-0x1.0b403eb7c760cp-5
2091=-0x1.c843340480087p-5
2092=0x1.eb9005dd150edp-5
2095=-0x1.9ccedc34bfbecp-11
2097=0x1.8272074707e85p-7
2098=-0x1.497043d53181fp-7
2100=-0x1.7fa76c639a15ap-8
2101=0x1.abd72325e76b3p-8
2102=-0x1.122990bac29dep-13
2105=-0x1.1d4c7c679fd98p-13
2106=0x1.a21fa8103f48dp-6
2107=-0x1.88c1008048cc7p-6
2109=-0x1.3abf93d3e7a9dp-8
2110=0x1.1f207a5623f9dp-9
2112=-0x1.ed4bd0a197b94p-6
2113=0x1.ea807d97408acp-7
2114=-0x1.917e609146dafp-9
2115=-0x1.2265898ab7539p-3
2116=0x1.30d8f82decb48p-3
2118=-0x1.4f8da544864adp-7
2119=0x1.e42cdcd68f3ffp-7
2120=-0x1.28fa0597bbb32p-12
2121=-0x1.8d7317b762ff5p-7
2122=0x1.b37016504a7f8p-7
2124=-0x1.82b5b98890f88p-6
2125=0x1.afb18316da7ep-6
2127=0x1.302c749289486p-7
2128=-0x1.754c602294993p-7
2129=-0x1.a159670f78af8p-11
2130=-0x1.6e8cf6587accdp-6
2131=0x1.05d8a24a01686p-5
2132=-0x1.018fa2a59b184p-8
2133=-0x1.7501a9f31738ap-3
2134=0x1.d9591e6538526p-3
2135=-0x1.0310f8aab3903p-6
2136=-0x1.40592c1b2a524p-4
2137=0x1.002d3b98dde86p-3
2138=-0x1.20df06890712bp-7
2139=0x1.ef28fcf018ec5p-4
2140=-0x1.b4a5c72648c52p-4
2141=-0x1.353de1902973ap-9
2142=0x1.7a351dce25a8p-4
2143=-0x1.660c484e8a7f8p-4
2145=0x1.d58cebd617f89p-10
2146=0x1.608c3a7ee65dp-8
2147=-0x1.29c3d45867299p-7
2148=0x1.cf1e08be892fbp-3
2149=-0x1.6ab362849142ep-3
2150=-0x1.9a0ecc3f8ad02p-7
2151=0x1.655a54bc9cd3ep-5
2152=-0x1.210604d6c873p-6
2153=-0x1.493590d80bb3ap-7
2154=-0x1.2cb96dbc922bcp-8
2155=0x1.2156d375eb27ap-5
2156=-0x1.070af316f51d4p-4
2157=-0x1.38a3b4c23d365p-4
2158=0x1.6d302086460c5p-4
2159=-0x1.c191a94e9a355p-8
2160=-0x1.b6567238f6792p-8
2161=0x1.44487ce9eb2bcp-7
2162=-0x1.2dd60ece73ffep-9
2163=-0x1.0b48f34fc0dadp-5
2164=0x1.3333f3e8df96dp-5
2165=-0x1.82040ee8d86fep-10
2166=-0x1.89db8f9918ffdp-6
2167=0x1.72a8148a7eb93p-6
2169=0x1.6ce9c7571a5e1p-6
2170=-0x1.7a93cd6e8257p-6
2172=-0x1.aecf31bdfc49cp-7
2173=0x1.09814c61ad3adp-6
2174=-0x1.a02e66d478248p-13
2175=-0x1.0b99f1fca291p-3
2176=0x1.18d5ff540816dp-3
2177=-0x1.3ef69f5914015p-10
2178=0x1.69f5ac7795ep-5
2179=-0x1.5065cd4f7e45ap-4
2180=0x1.eea8e6ffe4ad1p-7
2181=0x1.1f47224b77736p-6
2182=-0x1.6b8b3361e21e9p-6
2184=0x1.a44750e58727cp-5
2185=-0x1.76483b0574829p-5
2189=0x1.9e225be173011p-11
2190=0x1.0879f088b4f47p-7
2191=-0x1.09f0fa6ba6f34p-7
2194=0x1.4a09d19df89cp-13
2196=-0x1.5e54125279624p-4
2197=0x1.69249fa30b8eap-4
2199=0x1.205defbf9383bp-5
2200=-0x1.ebc9b813efe1p-5
2201=0x1.c07c5f3983a68p-8
2202=0x1.a38a4946329dbp-8
2203=-0x1.9be3e04cf3afap-8
2205=0x1.3dcf53361ff7ap-9
2206=-0x1.47cd2837453cp-10
2208=0x1.249147b3edd4cp-5
2209=-0x1.1f305903078a7p-7
2210=-0x1.f6ece216885fep-7
2211=0x1.a7b4ba2eb2ca4p-3
2212=-0x1.42fb9db20a267p-3
2213=-0x1.5256f7cbfb969p-7
2214=-0x1.9860205b2c7edp-4
2215=0x1.94f3220f4d596p-4
2217=-0x1.c3b83c0895c6ap-7
2218=0x1.57b871208dd6bp-6
2219=-0x1.ecb7afabbbdf1p-8
2220=-0x1.17212f4875368p-1
2221=0x1.1e26131a20412p-1
2222=-0x1.14f9c2aa46cc1p-8
2223=-0x1.fe2e4e103c96p-4
2224=0x1.19c7d8615aa42p-3
2225=-0x1.2af46ae9ee6cfp-8
2226=-0x1.a54c87ec7797cp-4
2227=0x1.c95fdfdbf063p-4
2228=-0x1.c53acdd8fc9bap-10
2238=-0x1.b584cc87eef4cp-11
2239=0x1.d48472eb912cdp-10
2241=-0x1.7e6873ca8fe8cp-6
2242=0x1.b5523c1b4690ap-6
2244=-0x1.ac58e0768498dp-9
2245=0x1.e7a3795953ee4p-9
2247=-0x1.964a4d8358863p-11
2248=0x1.227947e35968ap-10
2253=-0x1.78139adbcd50cp-6
2254=0x1.9e473da745498p-6
2259=-0x1.90775a96a2498p-9
2260=0x1.e38bf8a81060ap-9
2262=-0x1.d3905495eb246p-5
2263=0x1.de1ad4773bf3bp-5
2265=0x1.0b238aca77585p-10
2266=-0x1.a0a01e803a3c7p-10
2268=0x1.3c84de8582492p-9
2269=-0x1.5b88afdab627p-10
2274=-0x1.7d277dae8be2dp-8
2275=0x1.8920e9ab5d077p-8
2277=-0x1.090a66222b51dp-10
2278=0x1.a8c1bdd7fdep-11
2284=0x1.a8ac98c5903fp-18
2286=0x1.81969b0ee1e52p-9
2287=-0x1.8a93239546575p-9
2289=0x1.4ed044253b01ap-7
2290=-0x1.537aefd1b8157p-7
2331=-0x1.1eec1901d7ac8p-9
2332=0x1.9a31f79d76427p-8
2333=-0x1.49893abba23a6p-10
2334=-0x1.381596afc7a44p-2
2335=0x1.3d0b990599bddp-2
2337=0x1.845e775257882p-6
2338=-0x1.4232cc9b4e525p-4
2339=0x1.6395bd5226f6cp-6
2340=0x1.8b157b0c4b85ep-7
2341=-0x1.81b71cdffd10cp-7
2343=-0x1.7fc6a57df87c5p-11
2344=0x1.d91dfa386f53cp-11
2346=-0x1.9e4f86eb87c84p-16
2355=-0x1.e54bb31786f1fp-5
2356=0x1.ec38d09bab999p-5
2358=0x1.9efc99be4a14ep-8
2359=-0x1.7a47f14772335p-7
2360=0x1.f7fddef03ca28p-15
2364=-0x1.b4119bc9abb61p-10
2365=0x1.76e96fff379f4p-10
2388=0x1.5ac68fb6b79b6p-6
2389=-0x1.d8eb0c5327539p-7
2391=0x1.a38256366532ap-5
2392=-0x1.906d8d333f184p-5
2409=-0x1.b913c4126d7ffp-15
2415=-0x1.59c160d4dd0a1p-8
2416=0x1.58bcc7c53d8cfp-8
2418=-0x1.04896080687a6p-5
2419=0x1.10e7c3d427e87p-5
2421=0x1.0b963b78907e3p-8
2422=-0x1.ea276db243628p-8
2427=0x1.776a006d4e67cp-10
2428=-0x1.3a3235b696055p-10
2439=-0x1.ff708e5b354b6p-11
2440=0x1.0dd57a199ae66p-10
2442=-0x1.d4bf571429ae8p-10
2443=0x1.57ced8eed9113p-9
2445=-0x1.48e121a4013c8p-8
2446=0x1.4da341e964bc8p-8
2451=-0x1.6d2ad7c59fd03p-8
2452=0x1.7dea212b84ad9p-8
2454=-0x1.06d32d29c0128p-7
2455=0x1.0ccdaffd81178p-7
2457=-0x1.5f5e77cff963ap-7
2458=0x1.662c044e47c98p-7
2460=-0x1.0e38d211e2037p-6
2461=0x1.2402c014d08ebp-6
2463=-0x1.2d244851d23cdp-6
2464=0x1.2861601d3a843p-6
2466=-0x1.534c5df249dbcp-6
2467=0x1.83a1e37c209f2p-6
2469=-0x1.3d15d51febb9ep-6
2470=0x1.500c155af86bdp-6
2475=-0x1.2a914456e1358p-9
2476=0x1.38fc43721d31p-9
2478=0x1.fdeebcfe8b951p-9
2479=-0x1.de486f9250c2fp-9
2481=0x1.37d5acb5e0f1cp-10
2482=-0x1.7e7dec422e1a9p-11
2484=-0x1.4c9fb3dd85264p-4
2485=0x1.4f8cd94c4e906p-4
2487=-0x1.bd81111878226p-12
2488=0x1.00c77ae3cd3bp-10
2490=0x1.8e8efc004a868p-14
2491=-0x1.6559636179a5fp-14
2493=-0x1.8a3b6bf420c0ep-4
2494=0x1.d9c0a2138dbdep-4
2495=-0x1.71c42e21f45adp-8
2496=-0x1.79fab0c2be0e2p-3
2497=0x1.b972fc76fc992p-3
2498=-0x1.6f01d47b95e59p-7
2499=-0x1.cb38b8a06fc18p-7
2500=0x1.0ae45c01d5683p-3
2501=-0x1.3534b4f9bad5ap-4
2502=0x1.b790c8a0cf495p-1
2503=-0x1.a041269d2fdc4p-1
2504=-0x1.1996c6c906544p-6
2505=0x1.0fcaa2890584p-6
2506=-0x1.088aa87f236fp-6
2508=0x1.86651f607da1bp-9
2509=-0x1.d9c0a7f11fdbep-10
2511=-0x1.cf751d0abceeap-5
2512=0x1.d6410846446f2p-5
2538=0x1.50f6361828b36p-14
2539=-0x1.4df632e7448p-14
2550=-0x1.c33ef83c82ee6p-7
2551=0x1.b0d5477058c9dp-7
2553=-0x1.8128ef69ec556p-12
2554=0x1.a7035f80c79a2p-12
2556=-0x1.10c3e25826531p-9
2557=0x1.04e6ed1a93945p-9
2559=-0x1.8edc11cedc63fp-9
2560=0x1.6b63aa17882f4p-10
2562=-0x1.50fd9ccd3a638p-8
2563=0x1.87b9965a2814cp-8
2565=-0x1.2c4b5a76103fap-10
2566=0x1.88e83500d5c4dp-10
2568=-0x1.9442d9e2eb062p-7
2569=0x1.bff0a3a31f77bp-7
2571=-0x1.772f76c10a915p-10
2572=0x1.ad3fb4f45d7c5p-9
2574=0x1.064381dfc7feep-6
2575=-0x1.559bfed1b0b73p-7
2576=-0x1.86a683df452cbp-9
2577=0x1.fd20765d5b6dap-4
2578=-0x1.d6225fdb2c332p-4
2579=-0x1.832c5b6a6df16p-10
2586=0x1.0c0cb4a192c06p-2
2587=-0x1.0afe57679177bp-2
2590=0x1.ea0e32e207fcp-18
2592=-0x1.b7727ca214c9ep-11
2593=0x1.038487196dd3bp-10
2601=-0x1.e949cf92284e4p-9
2602=0x1.0628e82f3745bp-8
2631=-0x1.024996d1068b6p-7
2632=0x1.08b14edeb88p-7
2634=-0x1.cf2560515a3d7p-5
2635=0x1.dea37dfc9a8ep-5
2637=-0x1.6d9c976ddf93cp-5
2638=0x1.09f09195a5e3cp-4
2639=-0x1.652e38bcf95f7p-8
2640=0x1.018a31f9172cbp-3
2641=-0x1.f24f44d1d55fep-4
2643=0x1.6b4c9a13f5e08p-8
2644=-0x1.736d1a8b33774p-8
2652=0x1.841fbdc174fd9p-4
2653=-0x1.54cf8043cb62dp-4
2654=-0x1.1c4183599316ep-9
2655=0x1.c418b0fe0ed27p-5
2656=-0x1.e044ade0c375cp-5
2658=-0x1.8f06a5ce354efp-5
2659=0x1.ddc9d46618825p-5
2660=-0x1.38d5cbf6986aap-11
2661=0x1.11d119c2bd5f5p-2
2662=-0x1.df4a73fce1a92p-3
2663=-0x1.91e007ff72568p-7
2664=0x1.ee9789e23acedp-2
2665=-0x1.e45d48e1b54b5p-2
2666=-0x1.8bc83fb194c74p-10
2667=-0x1.431d97ffbfdf8p-5
2668=0x1.a19319ed8ff2dp-5
2669=-0x1.04fee7b8cdd23p-9
2670=0x1.d28ddcf18d0cp-6
2671=-0x1.ce4c1e562a95p-6
2672=-0x1.9755b77240f19p-12
2724=-0x1.85d7ce54aba6fp-7
2725=0x1.8d4bf060baeb9p-7
2727=-0x1.ca43e88c92a08p-5
2728=0x1.d844d2bdc383fp-5
2730=-0x1.0b1d6fb621a89p-6
2731=0x1.370fd88850f58p-6
2733=-0x1.6a4f536aeb918p-8
2734=0x1.ad924c9171459p-8
2748=0x1.bb736a424e549p-1
2749=-0x1.b50045abee6fap-1
2750=-0x1.6b5c04a93c0f3p-9
2751=-0x1.d3f3f9ab3287p-3
2752=0x1.f2147d48c4946p-3
2753=-0x1.c3d6c6460bf6bp-9
2754=0x1.47c4e73145deep-6
2755=-0x1.1c2ea048dc437p-6
2756=-0x1.261494c31156ap-11
2757=0x1.1072ee730b693p-2
2758=-0x1.09e79e412297dp-2
2760=0x1.c8f1988b096b4p-7
2761=-0x1.5f75f0a7f4746p-7
2762=-0x1.9bcb96639e59p-10
2763=0x1.5176fc668f0eep-7
2764=-0x1.8d6ad03198119p-11
2765=-0x1.39fdb4fe12965p-8
2766=0x1.c5c6dccf8e45dp-2
2767=-0x1.b35bbd06e0684p-2
2768=-0x1.2fcb1b28b8bdbp-8
2769=0x1.87dc06c3705abp-5
2770=-0x1.841d96c544639p-5
2781=0x1.4fe3a027929a1p-11
2782=-0x1.55d01a7f2d6c8p-11
2787=-0x1.2a776c71b6e24p-5
2788=0x1.309b57e388d91p-5
2790=-0x1.2a776c71b6e24p-5
2791=0x1.309b57e388d91p-5
2793=-0x1.1e317b82f7bc8p-6
2794=0x1.0bec6e56ee663p-6
2796=-0x1.b82ac0d1c7d28p-7
2797=0x1.086fe66c5b71bp-6
2868=0x1.14a4aebe2e8ep-9
2869=-0x1.5ee295c9b05e7p-17
2871=0x1.34c08d8809419p-17
2872=-0x1.34c71f3995a42p-17
2916=-0x1.80c4aa71a4182p-16
2917=0x1.ae3b574977862p-16
2949=0x1.aef61452131d4p-9
2950=-0x1.d9532ef09622ep-10
2973=0x1.d087caae8eea8p-3
2974=-0x1.cd4aefce75f64p-3
2976=-0x1.6b0173492be16p-10
2977=0x1.ce61febf84a9ep-10
2979=-0x1.81e97b0235172p-12
2980=0x1.021780d798cb7p-12
2988=0x1.23ef828225658p-11
2989=-0x1.5c1ab84e6605ep-11
2991=0x1.566400beb229bp-2
2992=-0x1.39dd83f8b8ba1p-2
2993=-0x1.0f8f0447f6632p-7
2994=0x1.e18272d43aefdp-2
2995=-0x1.7f78b2d68011cp-2
2996=-0x1.4019ca71b6ef6p-4
2997=0x1.3049fdc85a22cp-8
2998=0x1.fc77930086a43p-9
2999=-0x1.46d4ddc93ab76p-8
3000=0x1.d803def17959bp-2
3001=-0x1.97ac67a1d1c78p-2
3002=-0x1.e5db78e088763p-5
3003=-0x1.35662824ed5ep-14
3006=0x1.b5e2434e5ecc9p-9
3007=-0x1.ba252c3a9ba0cp-9
3114=0x1.8f5b4f3a7733fp-7
3115=-0x1.8b7d5eed46dadp-7
3117=0x1.86ebaf3c60781p-6
3118=-0x1.8679b43081a39p-6
3207=0x1.18222278a1b22p-9
3208=-0x1.50d61f5cde75ep-10
3213=0x1.46cbcd277b928p-10
3214=-0x1.d1934b2637295p-11
3249=0x1.14b063b564271p-12
3250=-0x1.3445f7473a694p-11
3300=0x1.26a2ecf330168p-7
3301=-0x1.c2ff4ec9ffa9fp-8
3303=0x1.f168ea470211cp-8
3304=-0x1.bcf29e28bd589p-8
3312=0x1.612281659816ap-2
3313=-0x1.5f9f5ca1297ddp-2
3318=0x1.61050828251d8p-11
3319=-0x1.55d5c5cda7a38p-11
3321=-0x1.312def86aad07p-10
3322=0x1.302550af4c097p-10
3330=0x1.be6dc236e3f32p-3
3331=-0x1.9002fb30521a8p-3
3332=-0x1.92b24857f1e52p-8
3333=0x1.92428e1ad3354p-12
3334=-0x1.08db6e0890c56p-11
3354=0x1.295e2ccdf9f98p-7
3355=-0x1.2901862fb6de4p-7
3363=0x1.53e35566a2ab8p-12
3364=-0x1.0880a42e951e6p-10
3372=-0x1.4e70e80b27b5ap-4
3373=0x1.d33a60aa263p-4
3374=-0x1.c4a92532b6002p-6
3375=0x1.0071eb737c951p+1
3376=-0x1.fe1aa9a73385p+0
3377=-0x1.0791d42f29d0bp-9
3378=-0x1.0fb814333cd15p-6
3379=0x1.13ba6507225c1p-6
3381=-0x1.0ba1945584c87p-6
3382=0x1.04d5d7977p-6
3396=0x1.34d08adfccfaep-14
3397=-0x1.14ec84a627376p-12
3459=0x1.a318309935de3p-13
3460=-0x1.1036e7126410ap-12
