#mdl#2#1839
#rdr#18/10/0
1:b,
21:u:code-1LLL =%X[-3,0],
21:u:code-1LL  =%X[-2,0],
21:u:code-1L   =%X[-1,0],
20:u:code-1X   =%X[0,0],
20:u:code-1R   =%X[1,0],
20:u:code-1RR  =%X[2,0],
20:u:code-1RRR =%X[3,0],
13:*100:%x[ 0,1],
13:*100:%x[ 0,2],
13:*100:%x[ 0,3],
13:*100:%x[ 0,4],
13:*100:%x[ 0,5],
13:*100:%x[ 0,6],
13:*100:%x[ 0,7],
13:*100:%x[ 0,8],
13:*100:%x[ 0,9],
14:*100:%x[ 0,10],
#qrk#3
1:T,
1:I,
1:O,
#qrk#842
1:b,
17:u:code-1LLL =_x-3,
17:u:code-1LL  =_x-2,
17:u:code-1L   =_x-1,
15:u:code-1X   =71,
16:u:code-1R   =117,
16:u:code-1RR  =116,
16:u:code-1RRR =101,
7:*100:Lu,
9:*100:15:T,
8:*100:9:T,
8:*100:5:T,
9:*100:18:T,
9:*100:28:T,
8:*100:7:T,
9:*100:11:T,
9:*100:22:F,
9:*100:26:F,
17:u:code-1LLL =_x-2,
17:u:code-1LL  =_x-1,
15:u:code-1L   =71,
16:u:code-1X   =117,
16:u:code-1R   =116,
16:u:code-1RR  =101,
16:u:code-1RRR =110,
7:*100:Ll,
8:*100:8:T,
8:*100:1:T,
9:*100:11:F,
8:*100:6:F,
9:*100:12:F,
9:*100:19:F,
9:*100:29:F,
9:*100:14:F,
17:u:code-1LLL =_x-1,
15:u:code-1LL  =71,
16:u:code-1L   =117,
16:u:code-1X   =116,
16:u:code-1R   =101,
16:u:code-1RR  =110,
15:u:code-1RRR =98,
9:*100:14:T,
9:*100:16:T,
8:*100:3:T,
8:*100:2:T,
9:*100:27:T,
9:*100:25:T,
15:u:code-1LLL =71,
16:u:code-1LL  =117,
16:u:code-1L   =116,
16:u:code-1X   =101,
16:u:code-1R   =110,
15:u:code-1RR  =98,
9:*100:21:T,
8:*100:0:T,
9:*100:23:T,
9:*100:19:T,
9:*100:25:F,
9:*100:10:F,
16:u:code-1LLL =117,
16:u:code-1LL  =116,
16:u:code-1L   =101,
16:u:code-1X   =110,
15:u:code-1R   =98,
16:u:code-1RRR =114,
9:*100:13:T,
8:*100:0:F,
8:*100:4:F,
9:*100:16:F,
16:u:code-1LLL =116,
16:u:code-1LL  =101,
16:u:code-1L   =110,
15:u:code-1X   =98,
16:u:code-1RR  =114,
16:u:code-1RRR =103,
9:*100:12:T,
9:*100:10:T,
9:*100:22:T,
9:*100:21:F,
8:*100:5:F,
9:*100:17:F,
16:u:code-1LLL =101,
16:u:code-1LL  =110,
15:u:code-1L   =98,
16:u:code-1R   =114,
16:u:code-1RR  =103,
15:u:code-1RRR =32,
9:*100:20:T,
9:*100:24:F,
8:*100:1:F,
16:u:code-1LLL =110,
15:u:code-1LL  =98,
16:u:code-1X   =114,
16:u:code-1R   =103,
15:u:code-1RR  =32,
15:u:code-1RRR =67,
8:*100:2:F,
9:*100:18:F,
15:u:code-1LLL =98,
16:u:code-1L   =114,
16:u:code-1X   =103,
15:u:code-1R   =32,
15:u:code-1RR  =67,
9:*100:29:T,
16:u:code-1LL  =114,
16:u:code-1L   =103,
15:u:code-1X   =32,
15:u:code-1R   =67,
16:u:code-1RRR =116,
7:*100:Zs,
9:*100:28:F,
8:*100:8:F,
9:*100:13:F,
16:u:code-1LLL =114,
16:u:code-1LL  =103,
15:u:code-1L   =32,
15:u:code-1X   =67,
9:*100:24:T,
9:*100:20:F,
8:*100:3:F,
16:u:code-1LLL =103,
15:u:code-1LL  =32,
15:u:code-1L   =67,
9:*100:17:T,
9:*100:26:T,
8:*100:7:F,
15:u:code-1LLL =32,
15:u:code-1LL  =67,
8:*100:9:F,
15:u:code-1LLL =67,
16:u:code-1RRR =120,
16:u:code-1RR  =120,
16:u:code-1RRR =112,
8:*100:4:T,
16:u:code-1R   =120,
16:u:code-1RR  =112,
16:u:code-1RRR =111,
9:*100:27:F,
16:u:code-1X   =120,
16:u:code-1R   =112,
16:u:code-1RR  =111,
16:u:code-1RRR =115,
16:u:code-1L   =120,
16:u:code-1X   =112,
16:u:code-1R   =111,
16:u:code-1RR  =115,
16:u:code-1RRR =105,
9:*100:15:F,
16:u:code-1LL  =120,
16:u:code-1L   =112,
16:u:code-1X   =111,
16:u:code-1R   =115,
16:u:code-1RR  =105,
16:u:code-1LLL =120,
16:u:code-1LL  =112,
16:u:code-1L   =111,
16:u:code-1X   =115,
16:u:code-1R   =105,
16:u:code-1LLL =112,
16:u:code-1LL  =111,
16:u:code-1L   =115,
16:u:code-1X   =105,
16:u:code-1LLL =111,
16:u:code-1LL  =115,
16:u:code-1L   =105,
16:u:code-1LLL =115,
16:u:code-1LL  =105,
16:u:code-1LLL =105,
16:u:code-1RRR =117,
16:u:code-1RR  =117,
15:u:code-1RRR =97,
15:u:code-1RR  =97,
15:u:code-1R   =97,
15:u:code-1X   =97,
15:u:code-1L   =97,
15:u:code-1LL  =97,
15:u:code-1LLL =97,
16:u:code-1RRR =100,
9:*100:23:F,
16:u:code-1RR  =100,
16:u:code-1R   =100,
16:u:code-1RRR =113,
16:u:code-1X   =100,
16:u:code-1RR  =113,
16:u:code-1L   =100,
16:u:code-1R   =113,
16:u:code-1LL  =100,
16:u:code-1X   =113,
16:u:code-1LLL =100,
16:u:code-1L   =113,
16:u:code-1LL  =113,
16:u:code-1RRR =232,
16:u:code-1LLL =113,
16:u:code-1RR  =232,
8:*100:6:T,
16:u:code-1R   =232,
16:u:code-1X   =232,
16:u:code-1RRR =108,
16:u:code-1L   =232,
16:u:code-1RR  =108,
16:u:code-1LL  =232,
16:u:code-1R   =108,
16:u:code-1LLL =232,
16:u:code-1X   =108,
15:u:code-1RRR =88,
16:u:code-1L   =108,
15:u:code-1RR  =88,
15:u:code-1RRR =73,
16:u:code-1LL  =108,
15:u:code-1R   =88,
15:u:code-1RR  =73,
16:u:code-1LLL =108,
15:u:code-1X   =88,
15:u:code-1R   =73,
15:u:code-1L   =88,
15:u:code-1X   =73,
15:u:code-1LL  =88,
15:u:code-1L   =73,
15:u:code-1LLL =88,
15:u:code-1LL  =73,
15:u:code-1LLL =73,
15:u:code-1RRR =99,
15:u:code-1RR  =99,
15:u:code-1R   =99,
15:u:code-1X   =99,
15:u:code-1RRR =44,
15:u:code-1L   =99,
15:u:code-1RR  =44,
15:u:code-1LL  =99,
15:u:code-1R   =44,
16:u:code-1RRR =224,
15:u:code-1LLL =99,
15:u:code-1X   =44,
16:u:code-1RR  =224,
7:*100:Po,
15:u:code-1L   =44,
16:u:code-1R   =224,
15:u:code-1RRR =68,
15:u:code-1LL  =44,
16:u:code-1X   =224,
15:u:code-1RR  =68,
15:u:code-1LLL =44,
16:u:code-1L   =224,
15:u:code-1R   =68,
16:u:code-1RRR =109,
16:u:code-1LL  =224,
15:u:code-1X   =68,
16:u:code-1RR  =109,
16:u:code-1LLL =224,
15:u:code-1L   =68,
16:u:code-1R   =109,
15:u:code-1LL  =68,
16:u:code-1X   =109,
15:u:code-1LLL =68,
16:u:code-1L   =109,
16:u:code-1LL  =109,
16:u:code-1LLL =109,
15:u:code-1RRR =45,
15:u:code-1RR  =45,
15:u:code-1R   =45,
15:u:code-1X   =45,
7:*100:Pd,
15:u:code-1L   =45,
15:u:code-1LL  =45,
15:u:code-1RRR =83,
15:u:code-1LLL =45,
15:u:code-1RR  =83,
15:u:code-1R   =83,
15:u:code-1X   =83,
15:u:code-1L   =83,
15:u:code-1LL  =83,
15:u:code-1LLL =83,
16:u:code-1RRR =233,
16:u:code-1RR  =233,
16:u:code-1R   =233,
16:u:code-1X   =233,
16:u:code-1L   =233,
16:u:code-1LL  =233,
16:u:code-1LLL =233,
15:u:code-1RRR =46,
15:u:code-1RR  =46,
15:u:code-1R   =46,
15:u:code-1RRR =69,
15:u:code-1X   =46,
15:u:code-1RR  =69,
15:u:code-1L   =46,
15:u:code-1R   =69,
15:u:code-1LL  =46,
15:u:code-1X   =69,
15:u:code-1LLL =46,
15:u:code-1L   =69,
15:u:code-1LL  =69,
15:u:code-1LLL =69,
16:u:code-1RRR =102,
16:u:code-1RR  =102,
16:u:code-1R   =102,
16:u:code-1X   =102,
16:u:code-1L   =102,
16:u:code-1LL  =102,
16:u:code-1LLL =102,
15:u:code-1RRR =86,
15:u:code-1RR  =86,
15:u:code-1R   =86,
15:u:code-1X   =86,
15:u:code-1L   =86,
15:u:code-1LL  =86,
15:u:code-1LLL =86,
15:u:code-1RRR =39,
15:u:code-1RR  =39,
15:u:code-1R   =39,
15:u:code-1X   =39,
15:u:code-1L   =39,
15:u:code-1LL  =39,
15:u:code-1LLL =39,
16:u:code-1RRR =106,
16:u:code-1RR  =106,
16:u:code-1R   =106,
16:u:code-1X   =106,
16:u:code-1L   =106,
16:u:code-1LL  =106,
16:u:code-1LLL =106,
16:u:code-1RRR =104,
16:u:code-1RR  =104,
16:u:code-1R   =104,
16:u:code-1X   =104,
16:u:code-1L   =104,
16:u:code-1LL  =104,
16:u:code-1LLL =104,
15:u:code-1RRR =49,
15:u:code-1RR  =49,
15:u:code-1RRR =57,
15:u:code-1R   =49,
15:u:code-1RR  =57,
15:u:code-1RRR =53,
15:u:code-1X   =49,
15:u:code-1R   =57,
15:u:code-1RR  =53,
15:u:code-1RRR =51,
7:*100:Nd,
15:u:code-1L   =49,
15:u:code-1X   =57,
15:u:code-1R   =53,
15:u:code-1RR  =51,
15:u:code-1LL  =49,
15:u:code-1L   =57,
15:u:code-1X   =53,
15:u:code-1R   =51,
15:u:code-1LLL =49,
15:u:code-1LL  =57,
15:u:code-1L   =53,
15:u:code-1X   =51,
15:u:code-1LLL =57,
15:u:code-1LL  =53,
15:u:code-1L   =51,
15:u:code-1LLL =53,
15:u:code-1LL  =51,
15:u:code-1LLL =51,
16:u:code-1RRR =118,
16:u:code-1RR  =118,
16:u:code-1R   =118,
16:u:code-1X   =118,
16:u:code-1L   =118,
16:u:code-1LL  =118,
16:u:code-1LLL =118,
15:u:code-1RRR =74,
15:u:code-1RR  =74,
15:u:code-1R   =74,
15:u:code-1X   =74,
15:u:code-1L   =74,
15:u:code-1LL  =74,
15:u:code-1RRR =66,
15:u:code-1LLL =74,
15:u:code-1RR  =66,
15:u:code-1R   =66,
15:u:code-1X   =66,
15:u:code-1L   =66,
15:u:code-1LL  =66,
15:u:code-1LLL =66,
16:u:code-1RRR =122,
16:u:code-1RR  =122,
16:u:code-1R   =122,
16:u:code-1X   =122,
16:u:code-1L   =122,
16:u:code-1LL  =122,
16:u:code-1LLL =122,
15:u:code-1RRR =72,
15:u:code-1RR  =72,
15:u:code-1R   =72,
15:u:code-1X   =72,
15:u:code-1L   =72,
15:u:code-1LL  =72,
15:u:code-1LLL =72,
15:u:code-1RRR =77,
15:u:code-1RR  =77,
15:u:code-1R   =77,
15:u:code-1X   =77,
15:u:code-1L   =77,
15:u:code-1LL  =77,
15:u:code-1LLL =77,
15:u:code-1RRR =84,
15:u:code-1RR  =84,
15:u:code-1R   =84,
15:u:code-1X   =84,
15:u:code-1L   =84,
15:u:code-1LL  =84,
15:u:code-1LLL =84,
15:u:code-1RRR =65,
15:u:code-1RR  =65,
15:u:code-1R   =65,
15:u:code-1X   =65,
15:u:code-1L   =65,
15:u:code-1LL  =65,
15:u:code-1LLL =65,
15:u:code-1RRR =76,
15:u:code-1RR  =76,
15:u:code-1R   =76,
15:u:code-1X   =76,
15:u:code-1L   =76,
15:u:code-1LL  =76,
15:u:code-1LLL =76,
15:u:code-1RRR =82,
15:u:code-1RR  =82,
15:u:code-1R   =82,
15:u:code-1X   =82,
15:u:code-1L   =82,
15:u:code-1RRR =50,
15:u:code-1LL  =82,
15:u:code-1RR  =50,
15:u:code-1LLL =82,
15:u:code-1R   =50,
15:u:code-1X   =50,
15:u:code-1L   =50,
15:u:code-1LL  =50,
15:u:code-1LLL =50,
15:u:code-1RRR =70,
15:u:code-1RR  =70,
15:u:code-1R   =70,
15:u:code-1X   =70,
15:u:code-1L   =70,
15:u:code-1LL  =70,
15:u:code-1LLL =70,
15:u:code-1RRR =80,
15:u:code-1RR  =80,
15:u:code-1R   =80,
15:u:code-1X   =80,
15:u:code-1L   =80,
15:u:code-1LL  =80,
15:u:code-1LLL =80,
15:u:code-1RRR =63,
15:u:code-1RR  =63,
15:u:code-1R   =63,
15:u:code-1RRR =34,
15:u:code-1X   =63,
15:u:code-1RR  =34,
15:u:code-1L   =63,
15:u:code-1R   =34,
15:u:code-1LL  =63,
15:u:code-1X   =34,
15:u:code-1LLL =63,
15:u:code-1L   =34,
15:u:code-1LL  =34,
15:u:code-1LLL =34,
16:u:code-1RRR =234,
16:u:code-1RR  =234,
16:u:code-1R   =234,
16:u:code-1X   =234,
16:u:code-1L   =234,
16:u:code-1LL  =234,
16:u:code-1LLL =234,
15:u:code-1RRR =85,
15:u:code-1RR  =85,
15:u:code-1R   =85,
15:u:code-1X   =85,
15:u:code-1L   =85,
15:u:code-1LL  =85,
16:u:code-1RRR =121,
15:u:code-1LLL =85,
16:u:code-1RR  =121,
16:u:code-1R   =121,
16:u:code-1X   =121,
16:u:code-1L   =121,
16:u:code-1LL  =121,
16:u:code-1LLL =121,
16:u:code-1RRR =249,
16:u:code-1RR  =249,
16:u:code-1R   =249,
16:u:code-1X   =249,
16:u:code-1L   =249,
16:u:code-1LL  =249,
16:u:code-1LLL =249,
16:u:code-1RRR =226,
16:u:code-1RR  =226,
16:u:code-1R   =226,
16:u:code-1X   =226,
16:u:code-1L   =226,
16:u:code-1LL  =226,
16:u:code-1LLL =226,
15:u:code-1RRR =55,
15:u:code-1RR  =55,
15:u:code-1R   =55,
15:u:code-1X   =55,
15:u:code-1L   =55,
15:u:code-1LL  =55,
15:u:code-1LLL =55,
15:u:code-1RRR =54,
15:u:code-1RR  =54,
15:u:code-1R   =54,
15:u:code-1X   =54,
15:u:code-1L   =54,
15:u:code-1LL  =54,
15:u:code-1LLL =54,
16:u:code-1RRR =251,
16:u:code-1RR  =251,
16:u:code-1R   =251,
16:u:code-1X   =251,
16:u:code-1L   =251,
16:u:code-1LL  =251,
16:u:code-1LLL =251,
15:u:code-1RRR =48,
15:u:code-1RR  =48,
15:u:code-1R   =48,
15:u:code-1X   =48,
15:u:code-1L   =48,
15:u:code-1LL  =48,
15:u:code-1LLL =48,
15:u:code-1RRR =52,
15:u:code-1RR  =52,
15:u:code-1R   =52,
15:u:code-1RRR =37,
15:u:code-1X   =52,
15:u:code-1RR  =37,
15:u:code-1L   =52,
15:u:code-1R   =37,
15:u:code-1LL  =52,
15:u:code-1X   =37,
15:u:code-1LLL =52,
15:u:code-1L   =37,
15:u:code-1LL  =37,
15:u:code-1LLL =37,
15:u:code-1RRR =59,
15:u:code-1RR  =59,
15:u:code-1R   =59,
15:u:code-1X   =59,
15:u:code-1L   =59,
15:u:code-1LL  =59,
15:u:code-1LLL =59,
15:u:code-1RRR =56,
15:u:code-1RR  =56,
15:u:code-1R   =56,
15:u:code-1X   =56,
15:u:code-1L   =56,
15:u:code-1LL  =56,
15:u:code-1LLL =56,
16:u:code-1RRR =244,
16:u:code-1RR  =244,
16:u:code-1R   =244,
16:u:code-1X   =244,
16:u:code-1L   =244,
16:u:code-1LL  =244,
16:u:code-1LLL =244,
15:u:code-1RRR =58,
15:u:code-1RR  =58,
15:u:code-1R   =58,
15:u:code-1X   =58,
15:u:code-1L   =58,
15:u:code-1LL  =58,
15:u:code-1LLL =58,
16:u:code-1RRR =107,
16:u:code-1RR  =107,
16:u:code-1R   =107,
16:u:code-1X   =107,
16:u:code-1L   =107,
16:u:code-1LL  =107,
16:u:code-1LLL =107,
16:u:code-1RRR =238,
16:u:code-1RR  =238,
16:u:code-1R   =238,
16:u:code-1X   =238,
16:u:code-1L   =238,
16:u:code-1LL  =238,
16:u:code-1LLL =238,
15:u:code-1RRR =79,
15:u:code-1RR  =79,
15:u:code-1R   =79,
15:u:code-1X   =79,
15:u:code-1L   =79,
15:u:code-1LL  =79,
15:u:code-1LLL =79,
16:u:code-1RRR =231,
16:u:code-1RR  =231,
16:u:code-1R   =231,
16:u:code-1X   =231,
16:u:code-1L   =231,
16:u:code-1LL  =231,
16:u:code-1LLL =231,
15:u:code-1RRR =78,
15:u:code-1RR  =78,
15:u:code-1R   =78,
15:u:code-1X   =78,
15:u:code-1L   =78,
15:u:code-1LL  =78,
15:u:code-1LLL =78,
15:u:code-1RRR =81,
15:u:code-1RR  =81,
15:u:code-1R   =81,
15:u:code-1X   =81,
15:u:code-1L   =81,
15:u:code-1LL  =81,
15:u:code-1LLL =81,
15:u:code-1RRR =33,
15:u:code-1RR  =33,
15:u:code-1R   =33,
15:u:code-1X   =33,
15:u:code-1L   =33,
15:u:code-1LL  =33,
15:u:code-1LLL =33,
15:u:code-1RRR =71,
15:u:code-1RR  =71,
15:u:code-1R   =71,
15:u:code-1RRR =40,
15:u:code-1RR  =40,
15:u:code-1R   =40,
15:u:code-1X   =40,
7:*100:Ps,
15:u:code-1L   =40,
15:u:code-1LL  =40,
15:u:code-1LLL =40,
15:u:code-1RRR =41,
15:u:code-1RR  =41,
15:u:code-1R   =41,
15:u:code-1X   =41,
7:*100:Pe,
15:u:code-1L   =41,
15:u:code-1LL  =41,
15:u:code-1LLL =41,
15:u:code-1RRR =47,
15:u:code-1RR  =47,
15:u:code-1R   =47,
15:u:code-1X   =47,
15:u:code-1L   =47,
15:u:code-1LL  =47,
15:u:code-1LLL =47,
16:u:code-1RRR =176,
16:u:code-1RR  =176,
16:u:code-1R   =176,
16:u:code-1X   =176,
7:*100:So,
16:u:code-1L   =176,
16:u:code-1LL  =176,
16:u:code-1LLL =176,
16:u:code-1RRR =235,
16:u:code-1RR  =235,
16:u:code-1R   =235,
16:u:code-1X   =235,
16:u:code-1L   =235,
16:u:code-1LL  =235,
16:u:code-1LLL =235,
16:u:code-1RRR =119,
16:u:code-1RR  =119,
16:u:code-1R   =119,
16:u:code-1X   =119,
16:u:code-1L   =119,
16:u:code-1LL  =119,
16:u:code-1LLL =119,
15:u:code-1RRR =90,
15:u:code-1RR  =90,
15:u:code-1R   =90,
15:u:code-1X   =90,
15:u:code-1L   =90,
15:u:code-1LL  =90,
15:u:code-1LLL =90,
15:u:code-1RRR =61,
15:u:code-1RR  =61,
15:u:code-1R   =61,
15:u:code-1X   =61,
7:*100:Sm,
15:u:code-1L   =61,
15:u:code-1LL  =61,
15:u:code-1LLL =61,
16:u:code-1RRR =201,
16:u:code-1RR  =201,
16:u:code-1R   =201,
16:u:code-1X   =201,
16:u:code-1L   =201,
16:u:code-1LL  =201,
16:u:code-1LLL =201,
15:u:code-1RRR =75,
15:u:code-1RR  =75,
15:u:code-1R   =75,
15:u:code-1X   =75,
15:u:code-1L   =75,
15:u:code-1LL  =75,
15:u:code-1LLL =75,
16:u:code-1RRR =169,
16:u:code-1RR  =169,
16:u:code-1R   =169,
16:u:code-1X   =169,
16:u:code-1L   =169,
16:u:code-1LL  =169,
16:u:code-1LLL =169,
15:u:code-1RRR =43,
15:u:code-1RR  =43,
15:u:code-1R   =43,
15:u:code-1X   =43,
15:u:code-1L   =43,
15:u:code-1LL  =43,
15:u:code-1LLL =43,
15:u:code-1RRR =60,
15:u:code-1RR  =60,
15:u:code-1R   =60,
15:u:code-1X   =60,
15:u:code-1L   =60,
15:u:code-1LL  =60,
15:u:code-1LLL =60,
16:u:code-1RRR =189,
16:u:code-1RR  =189,
16:u:code-1R   =189,
16:u:code-1X   =189,
7:*100:No,
16:u:code-1L   =189,
16:u:code-1LL  =189,
16:u:code-1LLL =189,
15:u:code-1RRR =89,
15:u:code-1RR  =89,
15:u:code-1R   =89,
15:u:code-1X   =89,
15:u:code-1L   =89,
15:u:code-1LL  =89,
15:u:code-1LLL =89,
16:u:code-1RRR =228,
16:u:code-1RR  =228,
16:u:code-1R   =228,
16:u:code-1X   =228,
16:u:code-1L   =228,
16:u:code-1LL  =228,
16:u:code-1LLL =228,
16:u:code-1RRR =223,
16:u:code-1RR  =223,
16:u:code-1R   =223,
16:u:code-1X   =223,
16:u:code-1L   =223,
16:u:code-1LL  =223,
16:u:code-1LLL =223,
16:u:code-1RRR =239,
16:u:code-1RR  =239,
16:u:code-1R   =239,
16:u:code-1X   =239,
16:u:code-1L   =239,
16:u:code-1LL  =239,
16:u:code-1LLL =239,
15:u:code-1RRR =91,
15:u:code-1RR  =91,
15:u:code-1R   =91,
15:u:code-1X   =91,
15:u:code-1L   =91,
15:u:code-1LL  =91,
15:u:code-1LLL =91,
15:u:code-1RRR =93,
15:u:code-1RR  =93,
15:u:code-1R   =93,
15:u:code-1X   =93,
15:u:code-1L   =93,
15:u:code-1LL  =93,
15:u:code-1LLL =93,
16:u:code-1RRR =177,
16:u:code-1RR  =177,
16:u:code-1R   =177,
16:u:code-1X   =177,
16:u:code-1L   =177,
16:u:code-1LL  =177,
16:u:code-1LLL =177,
15:u:code-1RRR =87,
15:u:code-1RR  =87,
15:u:code-1R   =87,
15:u:code-1X   =87,
15:u:code-1L   =87,
15:u:code-1LL  =87,
15:u:code-1LLL =87,
16:u:code-1RRR =246,
16:u:code-1RR  =246,
16:u:code-1R   =246,
16:u:code-1X   =246,
16:u:code-1L   =246,
16:u:code-1LL  =246,
16:u:code-1LLL =246,
16:u:code-1RRR =192,
16:u:code-1RR  =192,
16:u:code-1R   =192,
16:u:code-1X   =192,
16:u:code-1L   =192,
16:u:code-1LL  =192,
16:u:code-1LLL =192,
16:u:code-1RRR =243,
16:u:code-1RR  =243,
16:u:code-1R   =243,
16:u:code-1X   =243,
16:u:code-1L   =243,
16:u:code-1LL  =243,
16:u:code-1LLL =243,
16:u:code-1RRR =225,
16:u:code-1RR  =225,
16:u:code-1R   =225,
16:u:code-1X   =225,
16:u:code-1L   =225,
16:u:code-1LL  =225,
16:u:code-1LLL =225,
15:u:code-1RRR =38,
15:u:code-1RR  =38,
15:u:code-1R   =38,
15:u:code-1X   =38,
15:u:code-1L   =38,
15:u:code-1LL  =38,
15:u:code-1LLL =38,
15:u:code-1RRR =94,
15:u:code-1RR  =94,
15:u:code-1R   =94,
15:u:code-1X   =94,
7:*100:Sk,
15:u:code-1L   =94,
15:u:code-1LL  =94,
15:u:code-1LLL =94,
16:u:code-1RRR =206,
16:u:code-1RR  =206,
16:u:code-1R   =206,
16:u:code-1X   =206,
16:u:code-1L   =206,
16:u:code-1LL  =206,
16:u:code-1LLL =206,
15:u:code-1RRR =36,
15:u:code-1RR  =36,
15:u:code-1R   =36,
15:u:code-1X   =36,
7:*100:Sc,
15:u:code-1L   =36,
15:u:code-1LL  =36,
15:u:code-1LLL =36,
17:u:code-1RRR =_x+1,
17:u:code-1RR  =_x+1,
17:u:code-1RRR =_x+2,
17:u:code-1R   =_x+1,
17:u:code-1RR  =_x+2,
17:u:code-1RRR =_x+3,
0=-0x1.a831be32d49fp-4
1=0x1.8d0d40e198dccp-2
2=-0x1.a359dcb989d7bp-1
3=0x1.c7940a10a656cp-5
4=0x1.8c4ef604a4289p-4
6=0x1.92ee28ace35cp-3
7=-0x1.0378c03065812p+0
8=-0x1.41fcba5a4e4d3p-1
9=0x1.c3aa8fd191227p-6
10=-0x1.c0d26f6161288p-6
12=0x1.c3aa8fd191227p-6
13=-0x1.c0d26f6161288p-6
15=0x1.c3aa8fd191227p-6
16=-0x1.c0d26f6161288p-6
18=0x1.0d8b735b617dep-7
19=-0x1.0e0ba4389372ap-7
21=0x1.fac6cbce69222p-3
22=-0x1.5eeb2c060ffffp-3
24=-0x1.e9d658afb9dbp-7
25=0x1.7b4657d0f0fp-6
27=-0x1.54ab8564b391ap-8
28=0x1.31621504cedf3p-5
29=-0x1.68915b62b3065p-5
30=-0x1.74bd2e5fad9b9p-1
31=0x1.7001301d4d8c5p-1
32=-0x1.8ec9575b231a6p-2
33=-0x1.a5a1c067c0c59p-2
34=-0x1.8f97eecc14d6dp-2
35=-0x1.41bcb99345068p-4
36=-0x1.48e45ab0d7799p+0
37=0x1.c309f44d8da09p+0
38=-0x1.61e8d55a0b3d8p-3
39=0x1.2859d27e4d5c5p-2
40=-0x1.9e7874565521ap-4
42=-0x1.a9507f257bbc6p-3
43=0x1.dee5a8c609de1p-2
44=-0x1.b47613f4a5192p-2
46=0x1.498cdbb17296dp-1
47=-0x1.71e7ca5af587ap-3
48=-0x1.41010fb1fc289p-2
49=0x1.531cd0f56287ap-5
50=-0x1.6dacc738ad3b5p-3
51=-0x1.8654a4f89978p-5
52=-0x1.5c529db072c8bp-5
54=-0x1.3554aab09342cp-3
55=0x1.821d040b5b919p-2
56=-0x1.ed36e954fb337p-4
57=-0x1.7c13c134008c9p-4
58=0x1.5cffa8b83cee5p-2
59=-0x1.3c22140c60705p-2
60=0x1.4b783bdd48f7dp-5
61=-0x1.05ae67c3b49e1p-5
62=0x1.2a4285fc3fa6ep-5
63=-0x1.0889461e69c54p-4
64=-0x1.47f923f1d3442p-5
66=-0x1.4b1f1ac03405fp-7
67=0x1.48b0bd63059dep-7
68=-0x1.392f1495a4d68p-3
69=0x1.9f1ed67c24e8bp-2
70=0x1.442ec5a90d438p-6
71=0x1.7dfd2580e724p-1
72=0x1.4952989d34879p-3
73=0x1.dc3b39cb6295p-5
74=-0x1.61b41a9636b52p-1
75=-0x1.28a6fcf543ccap-1
76=-0x1.815969071cea4p-5
77=-0x1.905adb565d7abp-3
78=-0x1.34cf7e2c87e9cp-5
79=0x1.60e5fff3ef151p-4
80=-0x1.b66d14e0ae258p-5
81=-0x1.1690ba4477d89p-3
82=-0x1.725877ca03a14p-5
83=0x1.fde2d56077fecp-6
84=0x1.855076d61a104p-3
85=0x1.686f40466d9dp-5
86=-0x1.989ade7da8064p-8
87=-0x1.2a76c226bde63p-4
88=-0x1.0f5da164abfd8p-6
90=0x1.9e93b204d9117p-3
91=-0x1.efa576c02fabfp-4
92=0x1.660bf8f4184d5p-9
93=0x1.2132b659e90ccp-2
94=-0x1.b1d61c4f9ea11p-4
95=-0x1.9f6a58cfcaedfp-2
96=0x1.eb63c92c79423p-5
97=0x1.5e6d458886ae4p-5
98=0x1.4cf633082939ap-2
99=-0x1.5e6ef751500ddp-2
100=-0x1.d4e044f860151p-5
101=-0x1.cd4b12b6206f9p-5
102=-0x1.c415847000561p-5
103=0x1.07562642ac827p-2
104=-0x1.0b3b4f135d19cp-2
105=-0x1.44a56ea608cd8p-1
106=0x1.37c2a5709ede3p-2
107=-0x1.bd1c7a0bf13c6p-1
108=0x1.3683618110058p-2
109=0x1.6458cf59ea608p-5
110=0x1.c936a6c9d385ep-2
111=-0x1.93d5c73efebdfp-2
112=-0x1.5b9417dc1b16bp-5
113=-0x1.44bb0a8f8ddddp-5
114=0x1.212318e45ba88p-4
115=0x1.97383ce0eb30cp-4
116=-0x1.a87fde17cafc5p-3
117=-0x1.5ca9da7c5d0aep+0
118=0x1.9af64ef21ee7p-2
119=-0x1.82474b4c5eb33p-2
120=0x1.dce10c041f6c8p-1
121=-0x1.5a7fcc32a3796p-3
122=0x1.4cf57c02165b9p-4
123=-0x1.beefba194b8a3p-1
124=-0x1.e5987133cf222p-5
126=0x1.3dee41b1221e7p-2
127=0x1.7e51d285cd72p-10
128=-0x1.0d97669aef816p-2
129=0x1.2a5e77916172ap-2
130=0x1.142e7bd6fac9bp-2
131=-0x1.2d85811337882p-4
132=-0x1.94f4174c39942p-1
133=0x1.7e07407bcb953p-3
134=-0x1.866be54851dap-4
135=0x1.4ae4f7cb163f7p-3
136=-0x1.99953a08340e4p-3
137=-0x1.c62cfc4acb204p-4
138=0x1.61aca7aefef19p-3
140=-0x1.f8f825643349cp-3
141=0x1.364b0e553fe4p-1
142=-0x1.2e16c95666559p-2
143=0x1.9ed83299faf75p-6
144=-0x1.3ac84c10a8c92p-3
145=0x1.74ab4f7635359p-3
146=-0x1.a51cf5dbdff65p-2
147=-0x1.720da16521cc7p-3
148=-0x1.3446bf4ec7a2dp-3
149=-0x1.997cc609641dap-5
156=-0x1.17d313cba4671p-5
157=0x1.1c5f018acd112p-5
159=-0x1.4e74a71284569p-2
160=0x1.fa4a93a875e16p-3
161=-0x1.d693f13fdf9efp-6
162=-0x1.2ee0e7779f40cp-7
163=0x1.6a3b4bf0ad26fp-6
165=-0x1.1ae094b6e1ff9p-5
166=-0x1.8583e86f20811p-8
167=0x1.54b9c19502b5fp-4
168=-0x1.96d3ad9df894bp-5
169=0x1.59a74674e26aap-4
170=-0x1.e769a1d2a0fcp-8
171=-0x1.09c0838a04ebfp-1
172=0x1.552869ca1498p-1
173=-0x1.0ffcc2901427fp+0
174=-0x1.2aa8a5ceb1027p-3
175=0x1.dd9208250c4e5p-2
176=-0x1.46b2d9cc95637p-1
177=-0x1.5b002c09c814bp+1
178=0x1.01ab88131b13bp-1
179=-0x1.1bbf87266aae5p+0
180=0x1.afe6ea00eae05p-1
181=-0x1.8de4ef9ffa20ap-1
182=-0x1.092a68a3acf94p-3
183=-0x1.419e51decbd52p-2
184=0x1.3284bf52d48cdp-2
185=-0x1.89fc5340457d5p-2
186=0x1.82eff0b6fde3dp-6
187=-0x1.44c7ab52eec53p-3
188=-0x1.08665e93e0c2ap-2
189=-0x1.f9603398e4224p-4
190=0x1.2deaed027be25p-2
191=-0x1.40705fcfe2123p-5
192=-0x1.5155370686814p-3
193=-0x1.0d7243e090745p-4
194=-0x1.c4aa21e7b3fdfp-5
195=0x1.a8660fcfddd2fp-6
196=0x1.20a0180c9a064p-2
197=-0x1.f43a946707d71p-3
198=0x1.07c1c036417a6p-3
199=-0x1.6c3f3b51c2b8p-4
200=-0x1.05320bf696d75p-1
201=0x1.0fa2565af434p-2
202=0x1.052b019e24b55p-1
203=0x1.7f9951e945bfdp-3
204=-0x1.a9679b1a52bb4p-3
205=-0x1.eba546bc8659fp-3
206=-0x1.975a030bfc0f2p-3
207=0x1.73356acc605d1p-3
208=-0x1.14ea1aa5300d7p-2
209=-0x1.15c81b07cb8a3p-5
210=0x1.335cbab95f517p-1
211=-0x1.677d11075537cp-4
212=-0x1.ca46807b9762bp-3
213=-0x1.79d380223983ep-2
214=-0x1.605384ba834b2p-6
215=0x1.32dd223fc792ap-4
216=0x1.d162380968203p-3
217=-0x1.2097599f41b01p-4
218=-0x1.2425b9e95fba2p-6
219=-0x1.c09cd969965e3p-7
220=0x1.4e83799a39c6p-3
221=-0x1.0c73e67bfc76fp-3
222=-0x1.bce465f276137p-3
223=-0x1.ee0b1c1f0cc98p-7
224=-0x1.4b44972e5ffabp-3
225=0x1.156aba96eaaf6p-6
226=0x1.a6a161e5a582bp-3
227=0x1.b8a162e652456p-6
228=0x1.8be81fb36cec4p-7
229=-0x1.d3a974503cc48p-3
230=-0x1.cf1c186cd9548p-5
231=0x1.245aacc50a5dep-3
232=0x1.72e13ffd6e1d6p-7
233=-0x1.0506e69e256d7p-4
234=0x1.c32655932ccccp-1
235=-0x1.58fc3b80a7ep-3
236=-0x1.ed9278549817p-5
237=-0x1.a3e826b090c73p-1
238=0x1.5770d95efe3c6p-4
239=-0x1.42ee33cd1ebf2p-5
240=0x1.d4b319a363474p-3
241=-0x1.fca44b8a3931dp-3
242=-0x1.172780afb8017p-4
243=-0x1.9d3b8d1ebb2b3p-6
244=0x1.85db407761d0ep-3
245=-0x1.3ec42ccff27c5p-4
246=0x1.56ea8384e2f72p-5
247=-0x1.37a49d4ccb098p-6
248=-0x1.58d623e697201p-3
249=-0x1.3f1cf4eafaacbp-2
250=0x1.a82346c42c353p-3
251=0x1.60212b8d0c6b6p-4
252=0x1.0ab4f420b3b06p-5
253=-0x1.0ad1c1995345dp-3
254=-0x1.53b2b2f126ec2p-4
255=0x1.601170505ae9cp-9
256=0x1.05a8d8adfd6e1p-4
257=-0x1.d69139ed85e6ep-4
258=0x1.fdb33a7871d5bp-3
260=0x1.5c1ee0da9ad6ap-2
261=-0x1.451e003ecacb3p-2
262=0x1.5b7c505145d39p-4
263=-0x1.15d86a5ee459cp-3
264=-0x1.3fc234e933a6p-3
265=-0x1.a5a36ad7d21bap-4
266=-0x1.39245ddd4b434p-5
267=-0x1.b17ce57eb53c2p-4
268=0x1.7926e852f522bp-3
269=-0x1.5e13e5ac94b0dp-4
270=-0x1.386ead42b7dafp-1
271=0x1.3f19e4efc1584p-8
272=-0x1.57b5d084f8772p-2
273=-0x1.aff15877897c1p-2
274=0x1.1056df0532974p-3
275=0x1.31c0d5a6bfefap-3
276=0x1.c43fe60abf78ap-1
277=-0x1.0cf6fa7ec0b41p-2
278=-0x1.326cc5ba50772p-4
285=-0x1.a38900ae5ab74p-4
286=0x1.72b1745137f8bp-4
287=-0x1.52372cc529e3p-6
288=-0x1.976df1b5ec7fep-1
289=0x1.0a6537a169864p+0
290=-0x1.8cf1af993f594p-5
291=0x1.416ad9e89cf37p-8
292=-0x1.d09d2818fa3b4p-9
293=-0x1.a44aed10794cdp-6
294=-0x1.156afe232ca05p-5
295=0x1.6026c53ac873ap-4
297=-0x1.53f5f83937decp-8
298=0x1.b9b43fbd4a0b2p-11
300=-0x1.6dca7925d27e5p-1
301=0x1.0910083fcc632p-1
302=-0x1.d658003a93807p-5
303=-0x1.44ccac1f19565p+0
304=0x1.239fc6c249b33p-1
305=-0x1.3369e80a88b0fp-2
306=-0x1.1cf163e50c1acp-3
307=0x1.664336ec3e4bbp-7
308=0x1.8f86f68e885bep-5
309=-0x1.3883f42ee8b6p-8
310=-0x1.88d0b2b299526p-4
311=-0x1.bba0b8d996a48p-5
312=-0x1.1cdbcac439bcfp-2
313=0x1.3f8def9776815p-4
314=-0x1.33a5550d86873p-4
315=0x1.c538ae64179ep-7
316=0x1.9f5b4ed7fe608p-4
317=-0x1.64ddb0611c4f8p-3
318=-0x1.5e4e8bac46d4bp-3
319=-0x1.57fdafb7f5502p-5
320=-0x1.d29e828500477p-6
321=-0x1.d55c4e80df0c2p-5
322=-0x1.53b853914d1bdp-4
323=-0x1.b845c2c487b47p-5
324=-0x1.8a71b20303d4cp-2
325=0x1.dd43802b84f2bp-2
326=-0x1.93249b7f74a2ep-4
327=-0x1.dfdfca15ac37dp-3
329=-0x1.be532afd246f6p-7
330=-0x1.65ed9eb75bb88p-2
331=0x1.382c1116c40edp-1
332=-0x1.09c3b912d3bc3p-4
333=0x1.41b3779ae6f0ap-6
334=-0x1.5396d290c5c3ep-3
335=-0x1.848299aaa0bdap-5
336=0x1.163a170fb4994p-2
337=-0x1.1cecdfb922df3p-3
339=0x1.fdb87cd5d0e96p-2
340=-0x1.d0a7701c45547p-2
341=0x1.566a68eb06111p-3
342=-0x1.c797882cb4c0bp-2
343=0x1.c70420c9a2638p-9
344=-0x1.8920563a9239bp-4
345=0x1.c1bf35e4e16a7p-3
346=-0x1.094168d616bbcp-3
347=-0x1.455c0a8fba0f9p-4
348=0x1.30ac07896e81p-3
349=-0x1.11418ec65f2dep-3
350=0x1.aef97f51cb06bp-6
351=0x1.3818f4f060928p-5
352=-0x1.01d0607194732p-7
353=-0x1.44cb9e2916608p-6
354=0x1.5162be3d61d5ep-2
355=-0x1.3b7e7fe98fe96p-4
356=0x1.3fd62e10eae54p-3
357=-0x1.f7bc021177d99p-4
358=-0x1.b0e563bcd4f84p-5
359=-0x1.ae5c2fc1a761p-4
360=-0x1.c85b9908500ffp-3
361=0x1.254eac99c1c27p-2
362=-0x1.f747305bb0729p-7
363=-0x1.7cdd97209386dp-1
364=0x1.2e9a48b5d5ae7p-3
365=-0x1.a5fff6f20446bp-2
366=0x1.4cb135443f124p-5
367=0x1.383b877cc1d5fp-4
368=0x1.48742c925458ep-1
369=-0x1.1c34c09f46c25p-5
370=-0x1.af04738dfd5b5p-5
371=-0x1.4d176ca2aa572p-5
372=-0x1.fdd1757ffdc5cp-8
373=0x1.6ca4205a52625p-7
375=0x1.5e49f11373e8bp-1
376=-0x1.2056bb1bd0d06p-1
378=0x1.3e4fb4f465e86p-2
379=-0x1.34c3f3a0cc548p-3
380=-0x1.1c77e0756838p-6
381=-0x1.0c3e66d27c56ep-2
382=0x1.81a47aec3959p-2
383=-0x1.77e926bc5c4f3p-3
384=0x1.282051190daaep-4
385=-0x1.1aa467dce1aap-5
386=-0x1.8d0404f2274bap-7
390=-0x1.ca2f43566314dp-3
391=0x1.27c9a196e9744p-2
392=-0x1.28c3373c3c231p-4
393=-0x1.1745ae83ac8d6p-1
394=-0x1.8feedb315fa4ap-3
395=0x1.5d966228d7aa1p-2
396=-0x1.bb26211191227p-5
397=0x1.b1fccba8c36fdp-3
398=0x1.0f4f93e62f5aap-7
399=-0x1.931d9d9ad67cep-2
400=-0x1.b3a40e69d1a5cp-4
401=-0x1.0edab37537b32p-2
402=-0x1.ae08afe709bf5p-2
403=0x1.6f155f1940a3cp-2
404=-0x1.9f647585f8fa5p-4
405=-0x1.8476f50e4de78p-1
406=0x1.31fa73ee5cac5p-3
407=-0x1.020feca0425eap-2
408=-0x1.e296593236056p-6
409=0x1.6a10aa700c635p-3
410=-0x1.b0aa851402cf8p-5
411=-0x1.4e74370d53a66p-5
412=-0x1.32f2b517696aap-4
413=-0x1.73bb20b9c8261p-5
414=-0x1.957a378b84b4dp-3
415=0x1.3d1f00844d80fp-3
416=-0x1.be0066c4e1ab1p-5
417=-0x1.86fd68dafcdfcp-3
418=0x1.8463c948b1ff1p-3
419=-0x1.6434310fcbce8p-4
420=-0x1.387899676c606p-7
421=0x1.016848b721239p-5
423=-0x1.5b08b596bcd3ep-5
424=-0x1.279da3059f6dap-5
425=-0x1.6c729cdd09f74p-9
426=-0x1.ffd27dd8131dfp-4
427=0x1.1d8d1fd079f1p-2
428=-0x1.43cb7cffef6dap-2
429=-0x1.c31aab529c717p-4
430=-0x1.7c22d76f60161p-3
431=0x1.b67b0837cc44fp-1
433=0x1.086b89416ffbbp-2
434=0x1.6a7c606649e9ep-5
435=-0x1.45ba7b7788d02p+0
436=-0x1.15370c5821b05p-3
437=-0x1.8be220bfe2c9bp-2
438=-0x1.df9da52ce7be7p-9
439=0x1.3187d52ff6b33p-4
440=-0x1.cbf79550aaa2cp-3
441=0x1.7fb70adb2715ep-3
442=-0x1.fb710dfdfed6fp-2
443=-0x1.b02a2c3b0a846p-12
444=-0x1.082d8bfed256dp-1
445=0x1.c4e43f9712b59p-3
446=-0x1.c401ef13c20ep-2
447=0x1.94b1ab5516dap-3
448=-0x1.34bf8927dc097p-3
449=-0x1.a044c5e7e0e37p-5
450=0x1.9b72364f11e4ap-5
451=0x1.2b948b2cb050fp-5
452=-0x1.12783dd60c0fcp-3
453=0x1.9f14bfd4f9cbap-7
454=-0x1.a9fefb82f631ep-5
455=0x1.4982dd4a5137p-2
456=-0x1.724f7cb793d65p-2
457=0x1.84190880d7785p-4
458=-0x1.4c70a5e83439dp-2
459=0x1.a6e2923269d7bp-5
460=-0x1.04af90a1a43fp-3
461=-0x1.79840c3c9a14bp-4
462=-0x1.5751077de94d7p-6
463=0x1.0c6526004e106p-3
464=-0x1.333fe27bfecc9p-7
465=0x1.64c5f970a2b58p-4
466=-0x1.22a2420e1d36dp-4
468=-0x1.cee6f3ecb2154p-5
469=0x1.84ab42b575b5dp-4
470=-0x1.3fe36df995d9bp-8
471=-0x1.30f7d65acab46p-1
472=0x1.6fc1d02c5ec2cp-1
473=-0x1.bfea4e571ffb7p-5
477=-0x1.b3c2df9324d8ap-4
478=0x1.e5cd2cdca20e4p-4
479=0x1.e003cba4574c3p-12
480=-0x1.283342950a74bp-1
481=0x1.482c2f2dfcbb4p-2
483=-0x1.7099251ae76a1p-1
484=-0x1.1d00aac1f31aep-4
485=0x1.090badeeec6bp-2
486=0x1.62fc211f1414p-6
487=0x1.4fdf470d0b8dbp-2
488=-0x1.26aada78a506cp-5
489=-0x1.7299a2b864aa9p-3
490=-0x1.b547361103a4ap-4
491=-0x1.b3e26fe1cca07p-3
492=-0x1.47489cf2f78fcp-3
493=0x1.87ce403ad624fp-3
494=-0x1.3e03d80ca44e9p-3
495=-0x1.3d3d5be05dc16p-2
496=0x1.638256393779dp-2
497=0x1.2f9da55287556p-6
498=-0x1.53616e9bf14c1p-8
499=0x1.e66a4acb20153p-7
500=-0x1.12dff28288409p-6
501=-0x1.e0bd773b45693p-9
502=-0x1.cf8fe50f6109cp-4
503=-0x1.d23a3861505fdp-5
504=0x1.36ac94583e901p-3
505=-0x1.300cd30cca313p-6
506=-0x1.0d3fbfc9e43f8p-5
507=0x1.fd5306ca6d82p-5
508=0x1.532ea48682b2ap-5
509=0x1.0990b3485bf14p-4
510=-0x1.b874ba0069f3ap-7
511=-0x1.9511dceec6637p-8
512=-0x1.4e90429a9c48ap-4
513=0x1.0b8138397af55p-5
514=-0x1.3cf9226ce6c96p-3
515=-0x1.bb0634d2d0fdfp-5
516=-0x1.1d48ffcfe614p-4
517=0x1.291aac70be36fp-3
518=-0x1.29e7a889efbcep-5
519=-0x1.78bb26c087ebp-5
520=-0x1.261083e6195b7p-3
521=-0x1.9b393d210e2f7p-4
522=-0x1.1d55b78386afep-4
523=0x1.3e36f965b4824p-3
524=-0x1.3b30f34327a36p-7
525=-0x1.adb321bacf56bp-5
526=-0x1.4d589deaecda9p-4
527=-0x1.133fe61287f17p-4
528=-0x1.7e5b6d25ef26bp-5
529=0x1.34a9df3cb9001p-4
530=-0x1.b93de991d206dp-6
531=0x1.75793a5699614p-4
532=-0x1.c46c80ed2debp-9
533=0x1.e70e2850c22c7p-9
534=-0x1.67f78fef86eb3p-2
535=0x1.4915961f43dfdp-2
536=-0x1.62c074f8b5e53p-4
540=-0x1.1d2a579c150a4p-3
541=0x1.1cb9351af3d9p-3
542=-0x1.270eb3b99711cp-7
543=-0x1.b36e99f632a61p-7
544=0x1.2d01a90f30d79p-6
546=-0x1.6c8c3e84e3bbep-2
547=0x1.69e22b6b0d357p-3
548=-0x1.e822d45bf4148p-5
549=-0x1.cc12da096f982p-2
550=-0x1.d71c4f37d821ap-4
551=-0x1.f5234484bfe0ep-3
552=0x1.0da8669bc8bdfp-3
553=0x1.56b7389fc6f5bp-2
554=0x1.7312e4886c7c9p-4
555=-0x1.39bbf1c3458a3p-2
556=-0x1.7c126dda59ad3p-4
557=-0x1.22f87ef8bca9ep-4
558=-0x1.c6bf0a00989d4p-4
559=0x1.7d999876d67d8p-3
560=-0x1.6baaf3c48b50ap-6
561=0x1.973c9f9a678d9p-2
562=-0x1.c8e05dee25e0ep-3
563=0x1.73b87f1a314d8p-3
564=-0x1.263b549617d5p-1
565=0x1.01007f904085p-3
566=-0x1.5051e3c8859ebp-4
567=-0x1.78b0ef373d556p-2
568=-0x1.60d0ea0be5d66p-4
569=-0x1.f16c2d4b2682ap-4
570=-0x1.8ff29ee7574e4p-3
571=0x1.c533406b4a0a9p-2
572=-0x1.7b008302d2324p-3
573=0x1.77026e1593f05p-5
574=0x1.748172a0c288cp-2
575=-0x1.529f200d249d1p-4
576=-0x1.140b4a447aed4p-1
577=0x1.87e326c256fe1p-5
578=-0x1.471ecaf71b6a5p-4
579=-0x1.89eaf1fbf1b02p-4
580=-0x1.560a8fa146e0ap-5
581=-0x1.af5331500d444p-6
582=-0x1.1a6d439f6f544p-3
583=0x1.d75cde5db821cp-4
584=-0x1.a97c48f10252cp-6
585=-0x1.4bb7479826995p-3
587=-0x1.3a17af3a21d5ap-3
588=-0x1.c5a3f2cfa6cb7p-3
589=0x1.7ed402f3812a1p-4
590=0x1.224daa6d811b7p-4
591=0x1.81c420b50ca82p-7
592=-0x1.ebf48c5c407eep-4
593=-0x1.74d898752b55p-5
594=0x1.a2ad6a132694p-3
595=0x1.c29db72f8f3b7p-6
596=-0x1.85f7a2b8656d1p-3
597=0x1.5aecffcb5f787p-2
598=-0x1.3c9baa6e74286p-3
599=0x1.96af8504ab6dap-2
600=-0x1.e94d58a5737fap-2
601=0x1.79fb21bdde955p-2
602=-0x1.9e2a219ba112ep-1
603=-0x1.c8123f98b1f0cp-2
604=-0x1.4da2a3e1383f3p-3
605=-0x1.ed369557477dp-5
606=-0x1.0db93f8fa54f4p-10
608=-0x1.5f3c5a9573af2p-4
611=0x1.1903ee8711351p-2
612=-0x1.9b766b3633b77p-3
614=-0x1.2f800c610cf3bp-2
615=0x1.a83ae93804e81p-3
616=-0x1.a247df59c9b8dp-4
617=-0x1.1a830c0fe1705p-4
618=0x1.e7793d4b2f8abp-6
619=0x1.3ababd9cff37ep-4
620=-0x1.4271a000f4c0fp-4
621=0x1.f036987d89d91p-2
622=-0x1.cd2b06f2f0998p-2
624=-0x1.67b163c72fac4p-2
625=0x1.67a9b40f53597p-2
627=-0x1.963b552fbc5c8p-4
628=0x1.af64e8aaa98a2p-4
629=-0x1.9659571f30581p-7
630=0x1.875d6ec61c94fp-6
631=-0x1.bdbe749cb4a6ep-6
633=0x1.0ac33054c030dp-3
634=-0x1.137edd1317d3dp-2
635=-0x1.6f0f3f16ccf23p-8
636=0x1.0ae00908255e4p-2
637=-0x1.3c413162f4cap-3
638=-0x1.59309085d589cp-6
639=0x1.7eb290ed8d5c4p-1
640=-0x1.cbb7f4caee108p-1
641=0x1.7caa9d7db3a7cp-8
642=-0x1.2b321436ebf8ap-6
643=0x1.8a4df0679d0b9p-4
644=-0x1.6da3881823e47p-5
645=-0x1.52960527fe792p-7
646=-0x1.8075334323591p-6
648=0x1.37f2c96a3fd35p-3
649=0x1.08440d2529839p-5
650=-0x1.08945a2f5d699p-3
651=0x1.d94620f7c076ap-6
652=-0x1.fcd04a2d53c26p-5
653=-0x1.1d99c42fc7508p-4
654=0x1.3a92b79e34d84p-3
655=0x1.18919e4656411p-4
656=-0x1.5fe7ebe28719cp-5
657=-0x1.05d302d4663b2p-1
658=-0x1.54423a148ae28p-4
659=-0x1.b8d0caa21308dp-5
660=0x1.17d47e833fe04p-2
661=0x1.7ccaab01f4b07p-3
662=-0x1.5b8406d387724p-4
663=0x1.032100370501bp-3
664=0x1.ad1dbb78cfadap-9
665=0x1.1b3ccd15f96fep-1
666=-0x1.8a6e773c5905p-1
667=-0x1.12e3b0a8a67fp-4
668=-0x1.6b9a38fc2d4d9p-1
669=0x1.113f9fb0ab1f3p-1
670=-0x1.9b1c66cb99b41p-2
671=-0x1.011dc140408d3p-3
672=0x1.ba1e9fce9a271p-6
673=-0x1.383f17f95830ep-8
675=0x1.25cd2bd0ce669p-12
678=-0x1.31be455a3664bp-2
679=0x1.2cd3fc6ec5db3p-2
680=-0x1.3dd1c667ff1e1p-5
681=0x1.55386908e5b66p-3
682=-0x1.512c568471f48p-5
683=-0x1.20f369581de58p-7
684=0x1.d202934611171p-2
685=-0x1.b05746f5ec996p-4
686=-0x1.d8f268c3fa08cp-2
688=0x1.8149969edf15bp-7
690=0x1.01fbf86c76761p-1
691=0x1.92d0b03bf3b92p-3
692=-0x1.cbb944cbe2868p-4
693=0x1.00114ef65fbc4p-1
694=-0x1.341e6ffe5e1cdp-1
695=0x1.0f0a76ab575bap-5
696=-0x1.85c57977ad3d2p-2
697=0x1.1b6783a201cf7p-3
698=-0x1.3a5f39978c19bp-2
699=0x1.b9bedb320937ap-1
700=-0x1.6f36d11bde45fp-2
701=-0x1.bd8940989afa8p-4
702=-0x1.03c255fcb8a24p-4
703=0x1.2a78bf70a2d95p-3
704=-0x1.00b0785a3695ep-3
705=0x1.4af3ac18d24cap-8
707=-0x1.a96afc1bceae5p-4
708=-0x1.3bd7c6f6f83a7p-4
709=0x1.098515cb9f43fp-3
710=0x1.58798c4ba0071p-8
711=-0x1.5b510d4f88a1ap-7
712=-0x1.616776f4e7bcdp-5
713=-0x1.fb5f5c0b1e8dcp-6
714=0x1.5745aa1323d38p-9
715=-0x1.98b13de200eeep-9
717=-0x1.2207f5c9ec609p-1
718=0x1.f742c91b0e676p-3
719=0x1.ba829ba8486cfp-8
720=-0x1.c4d4ad7363769p-4
721=0x1.7427b90e96318p-3
722=-0x1.330635803a399p-10
723=0x1.e695cd2c55407p-4
724=0x1.cecde86022b5bp-3
725=-0x1.7b5c186806a5cp-1
726=0x1.2918c1a6e6392p-3
727=-0x1.11d53b22fbae8p-3
729=-0x1.2bb5744a3cbc8p-4
730=0x1.dc2f872898cb3p-4
731=-0x1.4383046179bb4p-4
732=-0x1.f7d10862bca46p-2
733=0x1.145c2d2ce5e31p-3
734=-0x1.32b8cdd6ececfp-2
735=0x1.1cdebb92434a2p-1
736=0x1.7ed3f3b9a662ep-4
737=-0x1.453b1dca8bb9ap-7
738=-0x1.cfd7d2440febbp-1
739=-0x1.bec6d1da71081p-4
740=-0x1.4310638d7cba2p-4
741=-0x1.25b7085ad909cp-4
742=0x1.0f52691db8a8p-3
743=-0x1.8669fc1c6e25ep-8
744=0x1.6e2ed65373324p-2
745=-0x1.3e012714439fep-2
747=-0x1.3835402d21399p+0
748=-0x1.f982b791057bdp-1
749=0x1.55917c7beeb2ep+1
750=0x1.24caaa9e7763dp-10
753=-0x1.c153e16c66786p-5
754=0x1.5bd8702c28128p-4
755=-0x1.92348a3a683c4p-6
756=-0x1.3835402d21399p+0
757=-0x1.f982b791057bdp-1
758=0x1.55917c7beeb2ep+1
759=-0x1.a374639b1d3d8p-2
760=-0x1.3e2cdf3318a54p-4
761=0x1.ab3dabab70d8ap-1
762=-0x1.65b148d4cff14p-1
763=-0x1.09e34ce35f434p+0
764=0x1.1851988fa990dp+0
765=-0x1.3e5f2da7ff41cp-5
767=-0x1.8b720e72f828cp-1
768=0x1.5a11d6ee68d37p-4
769=0x1.9112d175a434bp-7
770=-0x1.3d542202b97cdp-4
771=0x1.6c8a366721974p-4
772=-0x1.078ccc1668f1dp-1
773=0x1.35921b8a00675p-2
774=0x1.5695e8e09e16p-3
775=0x1.b9e7c8af96badp-4
776=-0x1.bcf67e5330f1bp-1
777=-0x1.245bbbd9bdbbfp-8
778=-0x1.63ee11fd8c9c9p-3
779=-0x1.f433b12148f64p-5
780=-0x1.a4450183b5c51p-5
781=0x1.57d996659ad78p-3
782=-0x1.1ff8f9292d63ap-5
783=-0x1.2437f9e892066p-1
784=0x1.1fe89a84d0344p-1
785=-0x1.4632558034ffbp-3
786=-0x1.fb342565a5a4cp-2
787=0x1.448aea60ff108p-3
788=-0x1.653f6a21d1086p-10
789=0x1.72b0f64cde284p-1
790=-0x1.14e13f7cd9409p-2
791=-0x1.1d1ef2950a3dbp-4
792=0x1.4fbd42bc4d62cp-2
793=-0x1.461dee62f0322p-4
794=-0x1.9faa2ada290f5p-5
795=0x1.ded30b06c85c4p-9
796=-0x1.89b0e4c8ae95p-2
797=0x1.0529b395bf004p-2
798=-0x1.5b3832d7fb0e2p-2
799=0x1.e965c5316fe41p-3
800=-0x1.8b1798c844777p-3
801=0x1.25d1f739c0dacp-1
802=-0x1.a8a2ef968359cp-2
803=-0x1.1278bcfb00173p-3
804=0x1.17cecc0ed2f76p-7
805=-0x1.2e27a6b1f1484p-8
806=-0x1.feef4e508d33ep-7
807=0x1.193d0dbcd0dbfp-1
808=-0x1.fca111eb1f038p-2
810=0x1.53442ff410d99p-1
811=-0x1.4fc2bb8b20e23p-1
812=-0x1.b6ff4fd3aaf26p-3
813=-0x1.255621d403aaap-3
814=0x1.19fc28a34257ep-3
816=0x1.ce3a8f28e29efp-1
817=-0x1.99f6b06eace03p-1
818=-0x1.9b538fd6aa5b7p-2
819=-0x1.00623502f30f8p-4
820=-0x1.c01c8e0ad3df9p-1
821=-0x1.2c200419d44aep-1
822=0x1.bae040564a5eep-6
823=0x1.7796bae60e31ep-5
824=0x1.f617b9484f43ap-6
825=0x1.3dde71f2c57b9p+0
826=-0x1.2a847d469b593p-1
827=-0x1.544d401238849p-4
828=0x1.2e5b93ad9a18p-4
829=-0x1.846a3be98d28cp-7
830=-0x1.19cdcb0725811p-3
831=-0x1.69a07f5e9851p-4
832=-0x1.6568c9ab505e5p-2
833=0x1.ed01eb81e7fc8p-3
834=0x1.9b4f74be7a1a4p-2
835=0x1.e2c0732fdf893p-4
836=-0x1.32f8830f974f8p-1
837=0x1.6e247f9347225p-5
838=-0x1.655b138da9434p-4
839=-0x1.2617d0fb16e8ep-5
840=0x1.145a1447ac2c7p-3
841=0x1.efb8ba311a23cp-4
842=-0x1.0d0b2e95f9087p-4
843=-0x1.ae443aea6f7dbp-6
844=-0x1.7d35ca9e2233cp-3
845=0x1.6e71307b50989p-3
846=-0x1.737d1589b53c3p-2
847=0x1.e2b9ffedc2f94p-4
848=-0x1.d6be38cdcc024p-2
849=0x1.9a6eeb94c1f75p-1
850=-0x1.8d1b6f2519bdbp-2
851=-0x1.baa020d22392cp-4
852=-0x1.38aa6483dfb34p-6
853=0x1.e82fd334b25bdp-6
855=-0x1.7433e502ab057p-5
856=0x1.442554ae66ae4p-3
857=-0x1.10510a55c8644p-2
858=-0x1.a01443a064b2ap-4
859=0x1.e438c4dd1f013p-4
861=-0x1.5b22cf76dea75p-3
862=0x1.8ec7aa11ae109p-3
863=-0x1.a4f21a3ae068ap-3
864=-0x1.19b50b278b5dbp-4
865=0x1.5220fcc30f677p-7
866=0x1.8ce0f0752efb6p-1
868=0x1.bcf36c8f1d7fp-3
869=-0x1.736fbd3a6c244p+0
870=-0x1.f290bf9a7f555p-5
871=-0x1.b06fd31342b66p-6
872=-0x1.3b5dd65d8baa4p-5
873=-0x1.2423ce2c158b9p-2
874=0x1.267aed529f9f7p-2
875=0x1.4a04b9d69bba6p-6
876=-0x1.7b39e9b92a31fp-4
877=-0x1.d3cb352fce73p-3
878=0x1.22007938415e7p+0
879=0x1.756aa7508a53p-9
880=0x1.2d221cd27b5c1p-2
881=-0x1.9b9b686f9c1cap-1
882=-0x1.47071f4821a99p-4
883=-0x1.b96976b426c0cp-6
884=-0x1.2cc01bfd11d8ap-3
885=0x1.c5887cd1280efp-2
886=0x1.38028cbdfb151p-3
887=-0x1.e5608a5eee483p-3
888=0x1.8d6ce599ef8dep-2
889=0x1.25d7b80666d63p-3
890=-0x1.bfda6a338694ep-3
891=-0x1.241d7efda4811p-2
892=-0x1.764cf7317071p-6
893=-0x1.5304b4bc86b7dp-5
894=0x1.c64cc827bf174p-11
895=-0x1.81799ec0f367p-4
896=-0x1.6f4c044560f3ep-5
897=-0x1.86223c26baa23p-3
898=0x1.cf2dbf7fe99b8p-4
899=-0x1.faf56acee2317p-3
900=-0x1.3d639c80e3d96p-5
901=0x1.c947e64890edbp-5
903=0x1.02af0de4fe9c8p-2
904=-0x1.18d1ca21fbdcep-3
905=-0x1.7a3ba89fe4f8ap-5
906=0x1.18a72bac95c25p-2
907=-0x1.8cff4917d746dp-4
908=-0x1.970c50f4e27eep-6
909=0x1.519e4e8a4272ap-6
911=-0x1.2a589b14f1ddep-6
912=-0x1.0722866f6da97p-5
913=-0x1.43df802b31515p-5
914=-0x1.6c556bb0b9c64p-10
915=-0x1.2d1382a7eb566p-3
916=0x1.47c9e500e6eb6p-3
918=0x1.127f022eac785p-3
919=-0x1.1f3ecea6fcd51p-3
922=0x1.5be5e672d378cp-9
924=0x1.370551d95fe2ap-12
925=0x1.010832f7baf35p-9
926=-0x1.36beb263bbf3p-9
927=-0x1.5566c99c995b5p-3
928=0x1.7b624ff581b6cp-3
929=-0x1.4ec19eeeac05fp-6
930=-0x1.d21f82e623646p-4
931=0x1.85f41aaee47b2p-4
932=-0x1.d5107db37f408p-2
933=-0x1.82648bc9d24c5p-5
934=-0x1.04fce90586a83p-6
935=0x1.26555050ae94dp-3
936=-0x1.bc43d1eab7dc4p-5
937=-0x1.1f2072f58ed41p-6
942=0x1.732924ca8f531p-6
943=-0x1.18689f0363d02p-7
945=0x1.3b6c9da7ec554p-10
946=0x1.0509f4656b00dp-6
947=-0x1.701a2b3b8c2cp-8
948=0x1.839164bc52a64p-5
949=0x1.cfca48dbd674ap-4
950=-0x1.2b8703dace717p-4
952=-0x1.01285897dca29p-2
953=-0x1.67108f592ed21p-5
954=-0x1.8ae2ad953b5e2p-2
955=0x1.dbf18278662c3p-3
957=0x1.6d1034edc682ap-1
958=-0x1.29f916f3d36c5p-3
959=-0x1.adb9fa652045ep-7
960=-0x1.0637d91877e22p-6
961=0x1.97e6dee41a894p-5
963=-0x1.c2a8ea85c0829p-4
964=0x1.3714d1d74376ap-6
965=0x1.3c289f612aa16p-4
966=-0x1.85568294f0328p-9
967=-0x1.e0c82eadb708ap-6
968=0x1.077a3446ad059p-3
969=0x1.0faa1c67d7efbp-3
970=-0x1.cb26b408763b5p-4
971=-0x1.33111d74ffec4p-8
972=-0x1.6ac39f64e2809p-2
973=0x1.73d82f1da3dcdp-2
975=0x1.3bd89b686b65ep-6
976=-0x1.292c81d4effa5p-9
977=-0x1.3b976c36ca4d2p-7
978=0x1.8a19d0224227p-6
979=0x1.5229808f5ce9p-11
981=0x1.8c4c8ee09e893p-6
983=-0x1.fd8f105a274e2p-5
984=-0x1.080f227406793p-10
985=0x1.30dcffed9ad77p-5
986=-0x1.690fc4c3b493ap-6
987=-0x1.b2d2b99d3a551p-3
988=0x1.2895fac58c878p-2
989=-0x1.13f792ec56a1dp-1
990=-0x1.9752d3be47252p-1
991=0x1.7e31b9583c658p-1
992=-0x1.699dc6510785ap-2
993=0x1.5ee086ff7808ep-5
994=0x1.8a1895ce38442p-10
995=0x1.ef0f95a734acep-6
996=-0x1.16bd57e7d038ap-6
997=-0x1.1d22b8cecc378p-4
998=-0x1.68babb66cb2d5p-7
999=-0x1.92cc6756591c6p-3
1000=0x1.b8b48196b1f0cp-3
1002=-0x1.61195984a62f7p-2
1003=0x1.61127532f86bep-2
1005=-0x1.6d80b13ead95ap-3
1006=0x1.6d72f86910a39p-3
1007=-0x1.f833afb0c53f5p-6
1008=-0x1.6ab99f6d0701ep-3
1009=0x1.0aaf6c20391e7p-4
1010=0x1.61095e621d5c4p-6
1011=-0x1.4075716d5ac12p-3
1012=0x1.5c8e248b7c22p-3
1013=-0x1.6d9a8231d2d1ep-8
1014=0x1.c2c40dc4bff7ap-6
1015=-0x1.15d9ba3123396p-5
1017=-0x1.0c2ce3847dd42p-1
1018=0x1.092b01103e108p-1
1019=-0x1.82458b14ba7cp-12
1020=-0x1.103e177aff106p-1
1021=0x1.318259cf6737bp-1
1022=-0x1.e6ead2702a5ebp-5
1023=-0x1.58d37366fea62p-1
1024=0x1.8001777147107p-1
1025=-0x1.75679fecb49cbp-3
1026=0x1.82932d42601ccp-3
1027=-0x1.f554b200b76e2p-4
1028=-0x1.333f58f1d5d28p-5
1029=-0x1.a852d0d25a9e4p-4
1030=0x1.e2e33a68a585fp-5
1032=-0x1.33a3880bda7eap-1
1033=0x1.fd1f986b26abep-2
1034=-0x1.32f14c843c263p-5
1035=-0x1.a4550dfcf8e11p-3
1037=-0x1.78c3b9001b568p-8
1038=-0x1.265fccd80970fp-2
1039=0x1.34a7ccf302068p-2
1040=-0x1.07b73ab4f2e65p-5
1041=0x1.1410168b2f108p-6
1042=-0x1.096e1c45f1b8cp-6
1044=0x1.9601bfc46d142p-5
1045=-0x1.47b93e59dfdf7p-6
1046=-0x1.64d0a2a51be86p-7
1047=0x1.8270f2cd0053ap-6
1049=-0x1.bbb51d98171f6p-7
1050=0x1.d8cf6030265dcp-9
1051=0x1.6fb242c9e2815p-5
1052=-0x1.522767fc54b1p-3
1053=0x1.c313ee8fb2165p-2
1054=-0x1.441f4453fd17ap-2
1056=0x1.3df7fe9de69eep-4
1057=-0x1.29bd377ee591fp-4
1058=0x1.40ae8767f359p-9
1059=-0x1.bcc0d1c6a2ea5p-10
1060=-0x1.6b2aee61153ap-8
1062=-0x1.9626c7f3cc352p-5
1063=0x1.7e6d1e918289fp-6
1065=-0x1.0969cb4c05b5bp-2
1066=0x1.54ad80e549126p-2
1067=-0x1.41f5737230221p-6
1068=-0x1.a7deab080e6e5p-2
1069=0x1.92653d5bd27e3p-3
1070=0x1.a1f50bb92b0efp-7
1071=-0x1.43d525bdfc486p-3
1072=0x1.a1d623243484ep-4
1074=0x1.af024a24b5de4p-3
1075=-0x1.17f25142efc1fp-5
1076=-0x1.4cbe127f1060cp-5
1077=-0x1.af4fcdd50ea2cp-3
1078=0x1.bdf1b22ac6e74p-3
1080=-0x1.a25264d34b5c8p-8
1081=0x1.e809458538c6ap-7
1082=-0x1.d14f9506dc898p-6
1083=0x1.ac405177e64ap-5
1084=-0x1.341854c30bf42p-6
1085=-0x1.1777541b39fb6p-6
1087=0x1.76e518ee2b57p-8
1088=-0x1.948be52f7b96p-9
1089=-0x1.0204d27194c35p-4
1090=0x1.f4c48089211d7p-4
1091=-0x1.3bf86b81bbc08p-4
1092=0x1.0d90660fc54bcp-4
1093=-0x1.3cdab3192b616p-3
1094=0x1.09ecd79379379p-6
1095=-0x1.bfa3d6588271p-2
1096=0x1.3607f449face4p-2
1097=-0x1.7e8f4d76ba226p-5
1098=-0x1.b7f68edbe516cp-8
1099=-0x1.87d1a3f2fa7d6p-5
1100=-0x1.569d6e983b3f3p-7
1101=0x1.3ee8623f6c4d4p-6
1102=-0x1.eb4daf11c907fp-6
1103=-0x1.3c57ec3b73016p-5
1104=0x1.704e8129d9f5cp-4
1105=-0x1.06b6a50bd6c58p-1
1106=0x1.8605dd807cd96p-3
1107=-0x1.17320b3f90ac6p-8
1108=0x1.3f518b03af871p-7
1110=0x1.a47baef3e7fbdp-1
1111=-0x1.a48f1e2517daep-1
1112=-0x1.f2c330f5e957ap-6
1113=0x1.cb131300e228fp-10
1114=-0x1.bb3d06fd9675ep-10
1116=-0x1.cee2a13f8b24fp-1
1117=0x1.3ab98af4821a4p+0
1118=-0x1.6c8fb725053c5p-3
1119=-0x1.28c60f7a38a28p-5
1120=0x1.1c5076283be5dp-8
1122=0x1.1fbe0772c9e68p-3
1123=-0x1.a15d96958d2e9p-3
1124=-0x1.54ed886e6e648p-8
1125=-0x1.c619b56bbc6dep-7
1126=0x1.54948552cc4c1p-5
1128=-0x1.1d5a1eb84ed19p-2
1129=0x1.43cf4a483a5e5p-2
1131=-0x1.7173c35633c12p-5
1132=0x1.d92b35d21591fp-5
1134=-0x1.181a28348d1c2p-1
1135=0x1.689be50e8e55p-1
1136=-0x1.9d0a387dbf893p-5
1140=0x1.638ead38f664dp-2
1141=-0x1.2ae70fe314e73p-2
1143=-0x1.9b46d28540274p-7
1144=0x1.e50ba6f6b7774p-7
1146=0x1.3c6eaf7c86cb2p-3
1148=-0x1.fe7ef823a2274p-2
1149=-0x1.f62ee78304463p-3
1150=0x1.028b8019eebf2p-3
1151=-0x1.c2322b55b9378p-2
1152=0x1.7b035b4438fcep-1
1153=-0x1.4a8db34075f1bp-4
1154=0x1.28cec5cfecffep-4
1155=-0x1.ec67852358f51p-3
1156=-0x1.ec289c4216fe4p-5
1157=-0x1.25c29ad06ecp-6
1158=-0x1.3f48383bd4c67p-5
1159=0x1.472ce676bcecp-5
1162=0x1.c766b80676dd2p-7
1164=0x1.c328742029f6dp-6
1165=-0x1.1cf42de02ff46p-6
1167=-0x1.3fb32f12a4433p-3
1168=0x1.51baaef24c9b3p-3
1170=0x1.20ef1b7ee4d2bp-2
1171=-0x1.b6237b9e579bep-4
1172=-0x1.08e9368159e0ep-5
1173=-0x1.847e81ecef9c1p-6
1174=0x1.ec5b70cfec943p-6
1176=-0x1.495cde1831c6ep-5
1177=0x1.a944d51cfe31ap-6
1179=-0x1.395dcef47e91fp-6
1180=0x1.9077b9d07f2dp-8
1182=-0x1.1a81409bb75b4p-3
1183=0x1.b1bdcaf7b69a2p-3
1184=-0x1.c038f60923d27p-6
1188=-0x1.2fdef00141e2fp-1
1189=0x1.7c0bdb8cc28cap-1
1190=-0x1.3a9ea06bd7f25p-5
1191=-0x1.773fa6da438c8p-4
1192=0x1.819c9847111ecp-4
1194=-0x1.bc1ff1305fd63p-5
1195=0x1.a185f514b55abp-4
1197=0x1.5c2fd6fd60411p-1
1198=-0x1.2ee5aee579d6p-1
1199=0x1.e6dfb5865f7bcp-10
1203=-0x1.0d23660d58a7cp-7
1204=0x1.28107634d2e94p-5
1206=-0x1.2a0ff08031921p-6
1207=0x1.3fa6f2335ebc5p-5
1208=-0x1.1818eefe7363fp-6
1212=-0x1.43c8eeea07addp-3
1213=0x1.8f78ea7097f73p-3
1218=-0x1.a662cda87ef4fp-6
1219=0x1.6dc93f7fc402cp-4
1220=-0x1.46ac7f52dca45p-8
1224=-0x1.62c1490684354p-2
1225=0x1.b1ebf4faa974bp-2
1230=-0x1.6d5974f977bbp-2
1231=0x1.61e8bd0e03c31p-2
1233=-0x1.7587a2eef009fp-3
1234=0x1.ca698c0156f66p-3
1236=-0x1.939cd9a5f3d21p-6
1237=0x1.0679ce6c3964ap-5
1239=-0x1.3e9b8383efea2p-3
1240=0x1.735d65ce6a007p-3
1242=-0x1.84f8be50564cep-7
1243=0x1.83dd455b07b9dp-7
1245=-0x1.985635edff231p-6
1246=0x1.03fe0a14d0912p-3
1247=-0x1.89790eb2dccdp-7
1248=0x1.2ccfd3f3655fdp-5
1249=-0x1.7aebfa9864637p-5
1251=-0x1.f17d55c0c7b79p-2
1252=0x1.f51c0f9f52e35p-2
1253=-0x1.4be6b2cbcd1f9p-8
1254=0x1.90f22fe08c27dp-3
1255=-0x1.e898519fe9d3ap-4
1256=-0x1.8a5d853dfe85fp-7
1257=-0x1.cf4a44ce3d679p-4
1258=0x1.cd7995ea9a0cep-4
1259=-0x1.e8bc5bfd442p-10
1260=0x1.7cbcf39f833aap-3
1261=0x1.ea2c063ebc894p-8
1262=-0x1.db6a713663a26p-2
1263=0x1.bb6df79c9e318p-5
1264=-0x1.0db7c035fb13bp-5
1266=-0x1.b9adf8af6a50fp-4
1267=0x1.e7e2577dd68a6p-4
1269=0x1.b77ed9b7d146fp-1
1270=-0x1.867610ca7dd05p-1
1272=-0x1.3ca5fe109a241p-12
1273=0x1.12ab5bffaefb8p-8
1275=0x1.f653ad2477257p+0
1276=-0x1.1bc71aef8e606p-4
1277=-0x1.b8bdfaefb6333p+0
1278=0x1.502c4e746d7a2p-3
1279=0x1.0b8c20557742ep-1
1280=-0x1.07c3019fc88cdp-1
1281=0x1.4f689b95c9c66p+0
1282=-0x1.9f3c4e3372d0ap+0
1283=-0x1.0cfbf2e597551p-1
1284=-0x1.a229630095302p-1
1287=-0x1.520aebe94c119p-4
1288=-0x1.252728746182p-10
1289=0x1.3af9a9555a527p-5
1290=-0x1.5eaa9764cca1cp-11
1291=-0x1.9655256185ab6p-13
1292=0x1.ce2f2da81c3e6p-10
1293=0x1.916b8d8095e6p-8
1296=0x1.2310e6c31ccbp-2
1297=-0x1.1a4eb456bafdcp-2
1299=0x1.867da9006b411p-4
1300=-0x1.9b0c5f93a0f82p-4
1302=-0x1.64e19ef29d2f5p-5
1303=0x1.b21bc8e1de7e2p-5
1305=-0x1.0cc66c34b24bfp-4
1306=0x1.c64cf6a0505f1p-5
1307=-0x1.03f64faa51b52p-7
1308=0x1.3f2a6e0fe521dp-3
1309=-0x1.3341b92d72504p-3
1311=-0x1.536fefe000f66p-7
1312=0x1.c20e51c6d543cp-9
1314=-0x1.315516ac5348cp-6
1315=0x1.97b4ac2b810b4p-6
1316=-0x1.4e37503980b5p-13
1317=0x1.49c8805ef2de5p-4
1318=-0x1.4954963e40db4p-4
1320=-0x1.5be1178704fd8p-11
1323=-0x1.f62df62c20cc7p-4
1324=0x1.2bb416bee5ca6p-3
1325=-0x1.38b896f140016p-7
1326=-0x1.76636cd8d905cp-5
1327=0x1.ef04b141aa8d3p-5
1328=-0x1.55860357734e3p-7
1329=-0x1.a01ddefa02a7dp-5
1330=0x1.44cff06007a8bp-5
1332=-0x1.07a74d5ebf754p-3
1333=0x1.fcce36051123ap-4
1334=0x1.b6b235f6f6e86p-8
1335=-0x1.555c79645d2d2p-5
1336=0x1.f2db0314642dfp-6
1338=-0x1.51fb6aa896531p-7
1339=0x1.43a6a5a8ddf4ap-5
1340=-0x1.a4161baf8d3cap-8
1344=-0x1.0615790ef2d63p-1
1345=0x1.0abf3c9afce22p-1
1346=-0x1.65684aa5735a6p-8
1347=0x1.c84846ce59682p-5
1348=-0x1.b945a4e20cb16p-5
1349=-0x1.95f04b3d23518p-8
1350=0x1.193858be0ce5dp+0
1351=-0x1.9c9bd33662f8bp-1
1352=-0x1.b487cd94bc68cp-8
1353=-0x1.4b88dd40e4396p-6
1354=0x1.44c44794d64p-6
1355=-0x1.4b7906075e09bp-6
1356=0x1.6711be8a8bfd3p-4
1357=-0x1.335eab43d3bc8p-4
1359=0x1.60c730309516bp-10
1360=-0x1.a299722b33998p-12
1362=0x1.7520cd614bb91p-1
1363=-0x1.f0e3061ebac02p-2
1364=-0x1.4bf3925ba2e9bp-1
1365=0x1.7520cd614bb91p-1
1366=-0x1.f0e3061ebac02p-2
1367=-0x1.4bf3925ba2e9bp-1
1368=0x1.9512f8294e17ap-3
1369=-0x1.805c4a7d88732p-3
1371=0x1.50a048c2b578ep-1
1372=-0x1.d1f76239d6c22p-2
1373=-0x1.3a17efc31bbb1p-1
1377=-0x1.c6cd8b8d199b7p-4
1378=0x1.02a28fdf86037p-4
1379=0x1.3a9da04b4e535p-6
1380=-0x1.8acce35e216e7p-5
1381=0x1.2256fd8c9b23ap-4
1382=-0x1.aaf546d192c61p-7
1383=-0x1.1af41bd70d203p-6
1384=0x1.ebc3a749a11b6p-7
1386=-0x1.47735e8fe6cb9p-7
1387=0x1.347f70c74400ap-7
1389=0x1.8afb02108cd98p-8
1390=-0x1.e2982a53f3413p-8
1392=-0x1.bf4a669ea86dcp-6
1393=0x1.0dbbd831023a3p-6
1395=-0x1.651ad5acbeba1p-8
1396=0x1.1658c7cf1b849p-5
1398=-0x1.2fd6fa7437b66p-4
1399=0x1.31b0d4b7384c8p-4
1401=0x1.0e0fbfe12946p-6
1402=-0x1.adf22daa727d8p-7
1404=-0x1.f3842dfff20e9p-6
1405=0x1.00107e4e35883p-5
1407=-0x1.1932da0bada6cp-3
1408=0x1.e06fc499929bap-4
1409=0x1.af46d61b164b6p-9
1410=-0x1.976395c196fffp-4
1411=0x1.80ac7bbe52a57p-4
1412=0x1.c91c494667c3ep-8
1413=-0x1.ee6b5b198a7a1p-5
1414=0x1.cb49beab16746p-5
1416=-0x1.51c6fb2a85855p-6
1417=0x1.15d9640e47babp-3
1418=-0x1.65e7c806122f3p-4
1419=-0x1.f79488704d4b1p-2
1420=0x1.c0597d43eace8p-2
1422=-0x1.fddfaaf15176fp-5
1423=0x1.9f9b45cb867ccp-5
1425=-0x1.52ee34c2b5dc1p-8
1426=0x1.43b4d2736dee4p-7
1428=-0x1.8630dfc3d0c06p-7
1429=0x1.5fc36589a9b59p-6
1431=0x1.b20947b25d0ep-3
1432=-0x1.6b82161c828d8p-4
1433=-0x1.6a1dd09e0f34ap-5
1434=0x1.fd8a7ea53a2cep-3
1436=-0x1.a3307f6720c43p-2
1437=-0x1.60d64a9f190b2p-4
1438=0x1.e1ddf90122cadp-4
1440=0x1.1a236841247aap-3
1442=-0x1.36ed3839b3c66p-4
1443=0x1.e7e92096a2cafp-6
1444=-0x1.c518641776b31p-5
1445=0x1.4f4bec480bf0ep-10
1446=-0x1.038dec11826a5p+0
1447=0x1.cbc674a53ea42p-1
1448=0x1.6f76d1dcc46d6p-5
1449=-0x1.9f43097bf0acbp-4
1450=0x1.6a3e19484bef2p-4
1451=0x1.3ebdbfc061e37p-9
1452=-0x1.ff40437545a54p-2
1453=0x1.b9dace367c2c8p-2
1454=0x1.b59fbc68e5b4p-14
1455=-0x1.15c88e3eba724p-4
1456=0x1.9605505c77d8ap-4
1458=-0x1.96dd7a2a644bbp-4
1459=0x1.a23b6ca2ab2d8p-4
1460=0x1.05329fac7af2cp-6
1461=-0x1.1b1a49683de28p-1
1462=0x1.24020b3bd8e01p-1
1464=-0x1.3d5628113a35ep-4
1465=0x1.6c654997c1542p-4
1467=0x1.ed62f158ec0fcp-7
1468=-0x1.cfa87fb08494ep-7
1470=0x1.3dd640b33c89cp-6
1471=-0x1.041cee3a89696p-6
1473=0x1.6881c3e7186c7p-5
1474=-0x1.c3a4a0331dbd7p-6
1476=0x1.ec982c32e3b25p-5
1477=-0x1.3087d3f3f32fep-4
1478=0x1.97e5115c84bcp-8
1479=0x1.781a21c878573p-11
1480=0x1.9dd0c3183208p-15
1482=-0x1.7c3806403d9f7p-3
1483=0x1.7239ff4a166e8p-3
1485=-0x1.0ca42b84ea48ep-8
1486=0x1.b5d52790f4bap-8
1488=-0x1.e995b9b1108fbp-6
1489=0x1.4ef7f05d14d1fp-7
1491=-0x1.2cc7056acbf75p-5
1492=0x1.61bede6db143cp-5
1495=0x1.f8cc3fcf2336p-12
1509=-0x1.800d2bac408fbp-4
1510=0x1.9610106fca628p-4
1512=0x1.4f0665b55d58cp-5
1513=-0x1.38438c5ec988bp-5
1515=-0x1.02d739f901bfp-7
1518=0x1.65e8b7edc74p-4
1519=-0x1.21941aa776f11p-4
1521=-0x1.aecacf5bd22fcp+0
1522=0x1.58f1ec365f379p+1
1523=-0x1.2fd81cc93b0fp-1
1524=0x1.2d54f0aa6719ep+2
1525=-0x1.2ada526989bcdp+2
1527=-0x1.97302f914d93cp-1
1528=0x1.a3ad4d0a30b7bp-1
1530=-0x1.123a27167fee4p-1
1531=0x1.0989ce8e3f05p-1
1536=-0x1.cd578c3371e3fp-4
1537=0x1.a5fb26d70a65fp-4
1539=0x1.02d912558f656p-6
1540=-0x1.e1abbf8008b23p-7
1542=0x1.9a35fa1fd1a9p-6
1543=-0x1.798f85283d278p-6
1545=-0x1.5c9dfb1445fddp-7
1546=0x1.6fcdfd5d52f6cp-7
1554=0x1.b1624e8fe2e3dp-3
1555=-0x1.8c701f6557fdep-3
1557=-0x1.4cc515b3ec7a9p-6
1558=0x1.ce7f19863df4cp-8
1560=-0x1.1579df5e8c446p-7
1561=0x1.0419bf057131fp-4
1562=-0x1.40785cddd1d32p-6
1563=0x1.6caed97d74239p+0
1564=-0x1.55bfa151c49d1p+0
1566=0x1.c5251e995ef98p-4
1567=-0x1.1c816d134912ap-4
1569=-0x1.3fd5893e6cd78p-5
1570=0x1.2f5cce3aadcap-5
1572=-0x1.1a61a01b54a52p-3
1573=0x1.08291bbbe37c4p-3
1575=0x1.ed81ee9d284bdp-5
1576=-0x1.086bec783c5e8p-4
1578=-0x1.e57d2feea4779p-8
1579=0x1.4f61afc4ec647p-4
1580=-0x1.1d1522edbf1c5p-6
1581=0x1.a530e5fb65641p-7
1582=-0x1.867069d55194fp-10
1583=-0x1.616eb3ac4fbbdp-8
1584=-0x1.30a61e5a16c56p-4
1586=0x1.059c71b2fe194p-5
1587=-0x1.5cce10526c378p-5
1588=0x1.1d923cf77f11cp-6
1589=0x1.285f91283b134p-10
1590=-0x1.0418ec8d96e1ep-7
1591=0x1.0a8d77d2a99bbp-7
1593=0x1.a9c026d6cdee2p-3
1594=-0x1.4c8bff9ee2bf7p-3
1595=-0x1.1114080d39a25p-9
1596=0x1.6bf6ce7f3f07ep-5
1597=-0x1.cf6f10ff8e863p-5
1599=-0x1.75d07c8addd4ep-4
1600=0x1.ee16b659d5a9p-4
1601=-0x1.4f3a411a83a7ep-8
1605=-0x1.2cb87182f9175p-1
1606=0x1.8e1f5b4ce5e83p-1
1607=-0x1.7a36ed1d241fap-2
1608=-0x1.e8dab06cbdc56p-6
1609=-0x1.f8b23f03da457p-3
1610=-0x1.5d5be1560771ap-3
1611=-0x1.a82f36f7770a7p-1
1612=0x1.937649c00cb07p+0
1613=-0x1.df61ad43c76e9p-6
1614=-0x1.5604129c4761fp-2
1615=-0x1.4bb7f1c4050ecp-3
1617=-0x1.f62b668eeaa66p-3
1618=0x1.8ee1ee2ba9cbcp-2
1619=-0x1.6e2e0c7662295p-5
1620=-0x1.c52b039b20e3bp-6
1621=0x1.9be9949810732p-5
1623=-0x1.263bf267fb8fbp-3
1624=0x1.87686a40f86ddp-3
1625=-0x1.2c9b9ca5d5696p-6
1626=-0x1.60df6a5b3c2ccp-3
1627=0x1.d1b7c9ae78a0cp-3
1628=-0x1.958a000eb5d05p-7
1629=0x1.eb602ab1146dp-2
1630=-0x1.8212f8435b7fdp-4
1631=-0x1.bd11f2981a9f4p-2
1632=-0x1.23cdc34154614p-5
1633=0x1.f90226f5a2035p-5
1635=-0x1.c7e3a73feccp-3
1636=0x1.f721660b7c89dp-3
1638=0x1.c32abcd3c9659p-4
1639=-0x1.f15a9997693a2p-4
1641=-0x1.ec70688067c69p-6
1642=0x1.e38d674e3dfdbp-3
1643=-0x1.5571dd9488c62p-3
1644=0x1.bede4de206efcp-4
1645=-0x1.8f183be62301bp-4
1647=0x1.346d6dc715003p-3
1648=-0x1.741ab57295ae3p-7
1649=-0x1.95512fa91b478p-4
1650=0x1.1c1dc16fa7fcfp-2
1651=-0x1.0586dd2652c4cp-2
1653=0x1.1fc5cc61fbe6cp-2
1654=-0x1.5d9f3b693a208p-2
1655=0x1.09e37cd9afb0fp-6
1657=0x1.1c848c6e2f668p-5
1658=-0x1.c51c54a69076fp-5
1660=0x1.e340e27d7ad4fp-5
1661=-0x1.29d5a7311cae5p-4
1662=0x1.93b00cc007d58p-8
1663=-0x1.d98dc9ca326dfp-7
1665=-0x1.f04ad996eb25cp-5
1666=0x1.de0e6d9b07465p-5
1668=0x1.aace238003538p-4
1669=-0x1.c747628630286p-4
1671=0x1.ce19d1a0cbd22p-5
1672=-0x1.c9af068f7fdebp-4
1674=0x1.054127bf0d05p-12
1675=-0x1.a2817be89cc25p-9
1677=0x1.533d08727b67ep-4
1678=-0x1.d17bfcdad9e9ap-4
1680=-0x1.7a8bb08f7aa6ap-7
1681=0x1.c9339d21d039ep-8
1683=-0x1.82c3e5a4eee28p-3
1684=0x1.73b9a45a88e29p-3
1686=-0x1.789f33ab228dp-5
1687=0x1.c3b554e28547dp-5
1689=0x1.04a3b758e071p-3
1690=-0x1.e94355d2d31ffp-4
1695=0x1.304cb0400f9f6p-5
1696=-0x1.059728006a745p-5
1704=0x1.10000ad7cc37ep-8
1705=-0x1.296a0a53ee498p-8
1716=0x1.31f6d9b82fafp-12
1717=-0x1.da09db5aeab08p-12
1725=-0x1.ac4eb47f93d5ep-11
1726=0x1.6e5f7c20497b1p-9
1731=-0x1.37943208a4251p-6
1732=0x1.957fd8b9a03a3p-6
1740=-0x1.01f8c42555aefp-6
1741=0x1.0263f9e774ab2p-6
1743=-0x1.28d0f9576b7edp-5
1744=0x1.5130d7bcebe6ap-5
1746=0x1.3da0508200a2p-2
1747=-0x1.4340b8d625014p-2
1749=-0x1.82c09b3f538a4p-5
1750=0x1.66a8397ac7a6cp-5
1752=-0x1.4d8ad2d9ac8ddp-5
1753=0x1.6d7082ce85d25p-3
1754=-0x1.70b5a09fe809bp-4
1767=-0x1.8f1076c1d5c54p-4
1768=0x1.ad12d015ea5e8p-4
1770=-0x1.c2d4fcbeb3118p-5
1771=0x1.04aa83710ae37p-4
1773=-0x1.163fdb018a08bp-5
1774=0x1.d259e1e53ae4p-6
1776=-0x1.44574132c145p-5
1777=0x1.9ea1c55d71023p-5
1779=-0x1.fd0a9ad6e9f6ap-6
1780=0x1.79f1c6ce768e3p-5
1782=-0x1.20c8e4c6367cp-7
1783=0x1.c55a28a68ce7ap-10
1785=-0x1.7e8282b01fa37p-8
1786=0x1.2681db3527f2dp-8
1788=-0x1.2ebc6798ff526p-1
1789=0x1.3608c13a8186bp-1
1791=-0x1.49574d41c3501p-4
1792=0x1.4f45e91765c9p-5
1793=0x1.11a4f6cee5d84p-7
1794=-0x1.1bff687ab1b8dp-6
1795=0x1.7a8c529dd63dp-6
1797=-0x1.123add3c5be75p-3
1798=0x1.44fb593624cb1p-3
1800=0x1.1a406f09ab642p-7
1801=-0x1.62c1585ad0dabp-6
1803=-0x1.49c5dd15e7419p-6
1804=0x1.7a706bcd0d97bp-6
1806=-0x1.2a1ac0da6869bp-4
1807=0x1.b2e121b328173p-4
1809=-0x1.64c17faae3d51p-5
1810=0x1.e365d87862aacp-5
1812=-0x1.0f81b77db5d49p-6
1813=0x1.54cc2f33fb452p-6
1815=-0x1.a179fd9f7127dp-6
1816=0x1.29424b46672ccp-5
1818=-0x1.b2ea46925fcf7p-6
1819=0x1.df8fe093bd11dp-5
1821=0x1.1a1b5c1edf739p-4
1822=-0x1.6e0d6ff19973fp-5
1824=-0x1.0e15516223412p-4
1825=0x1.1cda4c2e4fe8ap-5
1827=0x1.6c03ae9a893c8p-4
1828=-0x1.78ec920d13c41p-6
1830=-0x1.331d414fa2773p-2
1831=0x1.424764654011cp-2
1833=-0x1.02d10afc95982p-6
1834=0x1.0d30768c7408dp-5
1836=-0x1.1cf5ee8acc902p-5
1837=0x1.b1844c0be477ep-6
1839=-0x1.6b88be7fe2a2ap-5
1840=0x1.e9e9e764b7aeap-5
1841=-0x1.cd9f46d54fd1dp-6
1842=0x1.b5843d297513ap-1
1843=-0x1.98c8585e4cc4ap-1
1845=0x1.ceb8346ee183ap-5
1846=-0x1.228174651538ap-4
1848=-0x1.10a9ac411611dp-5
1849=0x1.9714665fc4e4p-7
1851=-0x1.c9f8fa58bb6ap-4
1852=0x1.244b14073cbaep-3
1854=0x1.8687c3a7008b9p-4
1855=-0x1.fb2d20817e642p-4
1856=0x1.5fcec4b601ac2p-11
1863=0x1.ec5eb60b04facp-11
1864=-0x1.5fa3187b34a9ep-8
1866=-0x1.4626fd74382f9p-3
1867=0x1.2d65c4d3294d4p-3
1868=0x1.2ae7cadd0e531p-11
1869=-0x1.cdc8d49568d32p-7
1870=0x1.18ff2cfe454f6p-4
1872=-0x1.772ecbf0770e4p-4
1873=0x1.64ccaccc1dd79p-4
1876=0x1.3e2cb58f49a2p-4
1877=-0x1.5b3059f4cb42ep-4
1878=-0x1.45e91a7dc4ab8p-4
1879=0x1.5c3045f58d346p-4
1881=-0x1.dce4f2a5085f8p-11
1882=0x1.7115232046fep-6
1883=-0x1.6f1715a4045ccp-7
1884=-0x1.4c0767a49ecd1p-6
1885=0x1.12465d3f7b8f6p-7
1887=-0x1.a065565d7d9dep-4
1888=-0x1.ac758bd18b47cp-7
1889=0x1.c55f9e0092835p-4
1890=0x1.378ed4852e98fp-7
1891=-0x1.b489238c33dbbp-8
1893=-0x1.e726a86d1d58ap-2
1894=0x1.0811a030a73e4p-1
1895=-0x1.11ede3418ea47p-5
1896=0x1.93448e0d0e176p-4
1897=-0x1.5a5c48d0c4756p-6
1898=-0x1.624c26c2166edp-4
1899=0x1.6481d65e38a66p-6
1900=-0x1.df3cca4fd32a8p-8
1902=-0x1.ca073c00aff24p-9
1903=0x1.3cfc9ee34fb3p-9
1905=-0x1.5ae891658c0f7p-4
1906=0x1.8955dda1c9d14p-4
1908=-0x1.6ddc5f1c6b841p-6
1909=0x1.57081b243df6dp-9
1911=-0x1.ccbf3910106b2p-9
1912=0x1.8be609ca64778p-7
1923=0x1.f2bb2826510a6p-8
1926=0x1.09ef2a2063cdp-4
1927=-0x1.78ff8a49b2117p-5
1929=-0x1.2fb0a7b17776ap-4
1930=0x1.55d366431e3a7p-6
1931=0x1.33b87f9c9d89cp-8
1932=-0x1.24d63329a4b2ep-6
1933=0x1.f6e8560c637a7p-7
1935=-0x1.2ca934d3f6738p-3
1936=0x1.4b3874d430b93p-3
1938=-0x1.a6b0d8a387b39p-5
1939=0x1.000fc026d0982p-5
1953=0x1.2c1942ade56a5p-5
1954=-0x1.852fc29ac6409p-6
1959=-0x1.4b21560d49416p-3
1960=0x1.674c470fc7386p-3
1965=-0x1.5030584ffb37ep-6
1966=0x1.13855b3551c04p-6
1971=0x1.9fabcd2388eeap+0
1972=-0x1.6d0f72f538328p+0
1973=-0x1.2d360bf285127p-4
1977=0x1.a34ccdaaed183p+1
1978=-0x1.a30e5ff66fcaep+1
1980=-0x1.81a80c55469cep-3
1981=0x1.a5fd6138c97e6p-3
1989=-0x1.7f83e724a9333p-6
1990=0x1.4fe61f13d2d42p-5
1992=-0x1.1fcc852c2cb76p-5
1993=0x1.7bf960bb72b85p-5
1998=-0x1.bc2368ab0fdbbp-5
1999=0x1.cbfd9a84c8277p-5
2001=-0x1.06008e97a7ad3p-6
2002=0x1.30b556003f50ep-6
2007=0x1.dca169d4ce02dp-11
2019=-0x1.6d8d913f8e5cap-3
2020=0x1.85b45774538e4p-3
2022=-0x1.2aa22cde86ba6p-5
2023=0x1.913c931fa789ap-5
2025=-0x1.f0168163f69f6p-6
2026=0x1.23c9f31068ccfp-6
2028=-0x1.1f6a6a34b2ebfp-2
2029=0x1.10d1b67308cd2p-2
2031=-0x1.52bdcaf0e2076p-6
2032=0x1.6c4f3c01a6218p-6
2034=0x1.4c5231e302fcap-11
2038=0x1.de7f1334aea1fp-9
2039=-0x1.5c3c7693aea14p-10
2040=-0x1.e1891fddd9482p-5
2041=0x1.061dc35d6597ap-5
2046=0x1.a6adabb08c314p-8
2047=-0x1.c150ae90197a2p-8
2049=0x1.2a999818e6bd6p-6
2050=-0x1.14924bce84bfep-6
2091=-0x1.6dc12f0c2faedp-5
2092=0x1.6032ad3777f88p-3
2093=-0x1.1c636390eed7cp-4
2094=-0x1.ce01affece736p-4
2095=0x1.b30ab8470af43p-4
2097=-0x1.ac476ca5846f2p-3
2098=0x1.183147dad3eb6p-2
2099=-0x1.1fa825bd1889dp-5
2100=-0x1.27b5aee8e978dp-3
2101=0x1.53d579e1c51c8p-3
2103=0x1.4d02d00ad71ebp-5
2104=0x1.a768c92ffeda8p-10
2105=-0x1.47ab870b3d263p-4
2106=-0x1.222ac42affd92p-8
2107=0x1.6eafd97bbaeeap-10
2112=0x1.286a863b688c2p-5
2113=0x1.4cb3828ab86c8p-10
2114=-0x1.8497008ffa116p-5
2115=-0x1.07f78b2fc7882p-6
2116=0x1.01eae01b9f511p-4
2117=-0x1.76f326fff2c27p-6
2119=0x1.30f6256621f53p-5
2120=-0x1.8d8083eb3d273p-5
2121=-0x1.e97bc5dc738bp-3
2122=0x1.2687c53705148p-2
2124=0x1.21d087b2bb51cp-10
2125=0x1.82c565a328b9cp-8
2126=-0x1.765250f956a8cp-8
2127=-0x1.2521b1b8a228cp-4
2128=0x1.5b4bf966483c4p-6
2129=0x1.872cf854d1d91p-8
2130=0x1.b25329f55654dp-6
2131=-0x1.e0298a9a448bp-6
2154=0x1.ec04df810846cp-5
2155=0x1.0edb79834318bp-2
2156=-0x1.0313833c7e491p-2
2157=-0x1.27fff2ff22539p-3
2158=0x1.8cd87cfaaa788p-2
2159=-0x1.caa123a17cbdp-3
2160=-0x1.01456ffe94feep-5
2161=0x1.071aae5c38c94p-1
2162=-0x1.d14e66d7a0c2dp-1
2163=-0x1.6f59670dfee28p+0
2164=0x1.99909c454406ep+0
2165=-0x1.ff10a34343f87p-7
2166=0x1.6c43c1ac3e62cp-6
2167=0x1.67215edb2483ep-4
2168=-0x1.6d2f4c6317127p-4
2169=0x1.8406f1a4f8d53p-8
2170=-0x1.7b11ec4583a44p-8
2171=0x1.a9a9a64123eaap-6
2172=0x1.8cbf374e81e85p-2
2173=-0x1.c87944df4454cp-2
2174=0x1.56928bde71947p-6
2175=-0x1.e98ddfa704336p-7
2176=0x1.d59a73ff35873p-8
2179=0x1.05e18ee8da8fep-6
2180=-0x1.306da793b5a7p-6
2181=-0x1.dcb82176aaa14p-7
2182=0x1.ce1debe3c3a1ep-7
2184=-0x1.9119da3b29ce3p-6
2185=0x1.b1ce5d65d910cp-7
2186=0x1.6a5667084256p-11
2187=0x1.86cf5671856eap-10
2188=-0x1.c4734259466p-9
2190=-0x1.27b785b2cb92ap-1
2191=0x1.3362da36941dap-1
2193=0x1.9648b2c7edcb5p-7
2194=-0x1.6d9c6d2263784p-7
2196=-0x1.579373052c403p-3
2197=0x1.29109ef21a58ap-2
2198=-0x1.656f32489b7fdp-6
2199=-0x1.e638abfe46948p-6
2200=0x1.9a5bee6009748p-5
2201=-0x1.1eee2a85cad98p-7
2202=0x1.eab52f12b1816p-1
2203=-0x1.d909cd2175d9bp-1
2205=0x1.99b9c46e75c2cp-4
2206=-0x1.82c0b16a5a67p-4
2208=0x1.f22df700eba98p-7
2209=-0x1.740bb0a347ac6p-7
2214=0x1.4d027081f668bp-7
2215=-0x1.1ca6ae100afefp-7
2238=0x1.06d6cef2decc7p-8
2239=-0x1.ac9f1fc06be8fp-8
2241=0x1.337830afb5a87p-8
2242=-0x1.9cd0f2286119ep-8
2244=-0x1.da6384be86f0fp-5
2245=0x1.1c0000f029563p-2
2246=-0x1.2b6795e4e5691p-3
2247=-0x1.f554eee3e8eb5p-3
2248=0x1.2147b63d8134bp-2
2250=0x1.13c260edbbb96p-4
2251=-0x1.0677b041978f2p-4
2253=0x1.910cf134f62f5p-5
2254=-0x1.15ad7c9c8d596p-6
2256=-0x1.23a9c68ce8acp-5
2257=0x1.5b2387d1d4a41p-5
2286=-0x1.0ead12171af96p-7
2287=-0x1.826196d686c1dp-6
2288=0x1.3ae17fcc5b003p-4
2298=0x1.9a40beb0a9614p-7
2299=-0x1.aaaa6874faa18p-7
2307=0x1.d33f96d799d62p-5
2308=-0x1.d3d0aaedabad6p-5
2310=0x1.179e3f2456a99p-2
2311=-0x1.14aa19a683214p-2
2313=-0x1.a7bdfa493c3c1p-6
2314=0x1.c2da7ca2c1433p-6
2316=0x1.812117757c9bap-5
2317=-0x1.7156eeeeeb1afp-5
2319=0x1.31239d408059ep-3
2320=-0x1.21bb90c58d439p-3
2337=0x1.a593f1b00caeep-7
2338=-0x1.885a70e69129ep-7
2344=0x1.467bcc3152ad6p-10
2355=-0x1.43d1f648e40d5p-6
2356=0x1.1a3ff31a90824p-5
2358=-0x1.b8f0c4d0fa365p-3
2359=0x1.f575da197eeccp-3
2361=-0x1.6a3f7d4b2a177p-5
2362=0x1.9dd0f1d98c09cp-5
2385=-0x1.4c8e22d2ab0d3p-4
2386=0x1.9d341930e4359p-4
2388=-0x1.bcb8eae3f70c2p-7
2389=0x1.c78d9b3b0352bp-6
2394=-0x1.a6732a392333bp-5
2395=0x1.3897a385045ecp-4
2397=-0x1.fd93e33f18281p-3
2398=0x1.12df85c2c3f3dp-2
2400=-0x1.623cc380ab6b7p-3
2401=0x1.74bc5ce77a8b4p-3
2406=-0x1.c79adc220c41ep-15
2409=0x1.15c9eb828a401p-14
2410=-0x1.180eb217ac394p-14
2421=-0x1.5adb5c0cd7defp-5
2422=0x1.a99a4dd4fd2cfp-5
2451=-0x1.c9fe576927b5ap-8
2452=0x1.ea03b5052e1c2p-8
2457=0x1.6924a4e42a82bp-5
2458=-0x1.09ca1edabc3f2p-5
2460=0x1.1167e818b9fb4p-5
2461=-0x1.afa5b4d479267p-6
2464=-0x1.864cc6d4886c4p-11
2465=0x1.0c66b2e8b473bp-6
2466=0x1.519a821afddfcp-9
2469=0x1.4053e00354afbp-5
2470=-0x1.3b56d3b136677p-6
2472=0x1.2a348ed085fdep-7
2476=-0x1.0a9257b1f7cb9p-7
2478=0x1.8a1b39c84de9fp-6
2481=0x1.26866b4f5187cp+1
2482=-0x1.1d862fdae585ep+1
2484=-0x1.0c4b8f0488034p+0
2485=0x1.115b5060e3c85p+0
2488=0x1.3a595e16e47d1p-7
2489=-0x1.13b40c72eefadp-5
2490=-0x1.312eef445556dp-5
2491=0x1.6b85c3b713fdap-5
2493=-0x1.669b09985da16p-8
2494=0x1.8b0f9d9bb9507p-6
2495=-0x1.65daf69c94926p-9
2496=-0x1.c68f48da826bp-11
2497=0x1.564d3a7133265p-5
2498=-0x1.c25ae583eb219p-5
2499=0x1.5568fe05aa669p+0
2500=-0x1.3ae9dae3140b3p+0
2501=-0x1.20440568bdf0dp-4
2502=0x1.062a4edd2351p+1
2503=-0x1.dabdd54481cd1p+0
2504=-0x1.6fede57ac35b3p-4
2505=0x1.885bf24c1157dp-1
2506=-0x1.0560ddcd10fbep-2
2508=0x1.ab3c0b91628f8p-1
2509=-0x1.569f0cc81416dp+0
2510=-0x1.f06c791e73fa1p-5
2511=-0x1.e7fcae2304efep-5
2514=0x1.8299c382a397fp-3
2515=-0x1.8d6e5d35de93fp-3
2520=0x1.58c610c416f4fp-6
2521=-0x1.52aed89d71c58p-6
2523=0x1.33484db7296d8p-6
2524=-0x1.53389a942642dp-6
2526=-0x1.25318de05f235p-6
2527=0x1.908c9900128dep-8
2528=0x1.1f483c65c0402p-9
2529=-0x1.8e30544ca9e56p-5
2530=0x1.ade3b39573c98p-5
2532=0x1.1cee7ea2aed7cp-2
2533=-0x1.bc5c116a24326p-3
2535=0x1.082ffd0125d18p+1
2536=-0x1.06911587b510dp+1
2538=-0x1.38c662d668189p-3
2539=0x1.b9805f7dbdc22p-3
2540=-0x1.7103afc79a707p-7
2541=-0x1.63277fa9ba74bp-5
2542=0x1.2f58c8b08e919p-4
2571=0x1.18dacfd69b739p-5
2572=-0x1.0f77d2809581bp-5
2616=0x1.8b7be5c0e125cp-5
2617=-0x1.39cbdfacbe30cp-5
2637=-0x1.22bb87e5ca17ap-5
2638=0x1.479a5376af6ap-5
2685=-0x1.442b902fb4f3fp-4
2686=0x1.46ccb166ad86p-4
2706=-0x1.95a0b7dc27d73p-8
2707=0x1.9568ac5ef5954p-8
2748=-0x1.144c3b8181f4ap-9
2749=0x1.145f411d7078bp-9
2751=-0x1.717d7c1a8f92fp-7
2752=0x1.7184c64c5c731p-7
2760=0x1.0dd0a9637ac35p-7
2761=-0x1.e9a2847e7539fp-8
2775=0x1.51c656bd521c7p-6
2776=-0x1.66f86ecf20adp-6
2820=-0x1.316229f955daep-5
2821=0x1.479eee1967ddap-5
2823=-0x1.515479915714cp-9
2824=0x1.50ea785ea9f8cp-9
2898=0x1.5705990ba7d36p-5
2899=-0x1.445d2be6337bcp-5
2901=0x1.f807484e4374p-11
2902=-0x1.6c04d7f0c088dp-10
2904=0x1.7d68be55f2b0fp-7
2905=-0x1.456c02429034cp-7
2907=0x1.6b83394054925p-1
2908=-0x1.682b31576f0f3p-1
2910=0x1.34c2c06e2007p-5
2911=-0x1.e62a5023e41d9p-6
2913=-0x1.6744b5dccef8fp-10
2914=0x1.55af8495f8896p-10
2916=0x1.4e6e8e3e02cabp-4
2917=-0x1.4e62772f86608p-4
2920=0x1.5ffe148f9050fp-10
2922=0x1.efa3ca9a92624p-2
2923=-0x1.e7c5ec42792c1p-2
2925=0x1.29c0b07c99af7p-2
2926=-0x1.14096cf678d62p-2
2928=0x1.646d57454a8ap-6
2929=-0x1.2a24582d25454p-6
2931=0x1.454783c7036afp-7
2932=-0x1.4685295a88d8dp-7
3114=0x1.37ab09f890441p-6
3115=-0x1.308e3d3b31c3bp-6
3135=-0x1.a8672bbe7241fp-9
3136=0x1.c08c3ca6f6214p-9
