#mdl#2#1340
#rdr#18/10/0
1:b,
21:u:code-1LLL =%X[-3,0],
21:u:code-1LL  =%X[-2,0],
21:u:code-1L   =%X[-1,0],
20:u:code-1X   =%X[0,0],
20:u:code-1R   =%X[1,0],
20:u:code-1RR  =%X[2,0],
20:u:code-1RRR =%X[3,0],
13:*100:%x[ 0,1],
13:*100:%x[ 0,2],
13:*100:%x[ 0,3],
13:*100:%x[ 0,4],
13:*100:%x[ 0,5],
13:*100:%x[ 0,6],
13:*100:%x[ 0,7],
13:*100:%x[ 0,8],
13:*100:%x[ 0,9],
14:*100:%x[ 0,10],
#qrk#3
1:T,
1:I,
1:O,
#qrk#748
1:b,
17:u:code-1LLL =_x-3,
17:u:code-1LL  =_x-2,
17:u:code-1L   =_x-1,
15:u:code-1X   =67,
16:u:code-1R   =114,
16:u:code-1RR  =101,
15:u:code-1RRR =97,
7:*100:Lu,
9:*100:19:T,
9:*100:22:T,
9:*100:15:T,
9:*100:17:T,
9:*100:29:T,
8:*100:4:T,
9:*100:18:T,
9:*100:16:F,
9:*100:10:F,
17:u:code-1LLL =_x-2,
17:u:code-1LL  =_x-1,
15:u:code-1L   =67,
16:u:code-1X   =114,
16:u:code-1R   =101,
15:u:code-1RR  =97,
16:u:code-1RRR =116,
7:*100:Ll,
8:*100:8:T,
9:*100:15:F,
9:*100:27:F,
8:*100:7:F,
9:*100:28:F,
9:*100:11:F,
8:*100:9:F,
9:*100:19:F,
17:u:code-1LLL =_x-1,
15:u:code-1LL  =67,
16:u:code-1L   =114,
16:u:code-1X   =101,
15:u:code-1R   =97,
16:u:code-1RR  =116,
16:u:code-1RRR =105,
9:*100:14:T,
8:*100:9:T,
9:*100:29:F,
9:*100:22:F,
8:*100:2:F,
9:*100:24:F,
15:u:code-1LLL =67,
16:u:code-1LL  =114,
16:u:code-1L   =101,
15:u:code-1X   =97,
16:u:code-1R   =116,
16:u:code-1RR  =105,
16:u:code-1RRR =118,
8:*100:1:T,
8:*100:0:F,
9:*100:25:F,
16:u:code-1LLL =114,
16:u:code-1LL  =101,
15:u:code-1L   =97,
16:u:code-1X   =116,
16:u:code-1R   =105,
16:u:code-1RR  =118,
16:u:code-1RRR =101,
8:*100:2:T,
9:*100:20:T,
9:*100:26:F,
9:*100:12:F,
9:*100:13:F,
16:u:code-1LLL =101,
15:u:code-1LL  =97,
16:u:code-1L   =116,
16:u:code-1X   =105,
16:u:code-1R   =118,
15:u:code-1RRR =32,
8:*100:7:T,
8:*100:3:T,
9:*100:27:T,
8:*100:8:F,
8:*100:6:F,
15:u:code-1LLL =97,
16:u:code-1LL  =116,
16:u:code-1L   =105,
16:u:code-1X   =118,
15:u:code-1RR  =32,
15:u:code-1RRR =67,
8:*100:0:T,
9:*100:16:T,
9:*100:26:T,
9:*100:21:F,
9:*100:20:F,
9:*100:14:F,
16:u:code-1LLL =116,
16:u:code-1LL  =105,
16:u:code-1L   =118,
15:u:code-1R   =32,
15:u:code-1RR  =67,
16:u:code-1RRR =111,
9:*100:24:T,
8:*100:1:F,
16:u:code-1LLL =105,
16:u:code-1LL  =118,
15:u:code-1X   =32,
15:u:code-1R   =67,
16:u:code-1RR  =111,
16:u:code-1RRR =109,
7:*100:Zs,
8:*100:5:F,
16:u:code-1LLL =118,
15:u:code-1L   =32,
16:u:code-1R   =111,
16:u:code-1RR  =109,
9:*100:11:T,
8:*100:6:T,
8:*100:4:F,
9:*100:18:F,
15:u:code-1LL  =32,
16:u:code-1X   =111,
16:u:code-1R   =109,
15:u:code-1LLL =32,
16:u:code-1L   =111,
16:u:code-1X   =109,
16:u:code-1RRR =110,
9:*100:23:T,
9:*100:13:T,
16:u:code-1LL  =111,
16:u:code-1L   =109,
16:u:code-1RR  =110,
16:u:code-1RRR =115,
9:*100:28:T,
9:*100:25:T,
16:u:code-1LLL =111,
16:u:code-1LL  =109,
16:u:code-1R   =110,
16:u:code-1RR  =115,
9:*100:21:T,
8:*100:3:F,
16:u:code-1LLL =109,
16:u:code-1X   =110,
16:u:code-1R   =115,
9:*100:23:F,
16:u:code-1L   =110,
16:u:code-1X   =115,
16:u:code-1LL  =110,
16:u:code-1L   =115,
16:u:code-1RRR =114,
9:*100:12:T,
16:u:code-1LLL =110,
16:u:code-1LL  =115,
16:u:code-1RR  =114,
16:u:code-1RRR =112,
16:u:code-1LLL =115,
16:u:code-1RR  =112,
9:*100:10:T,
16:u:code-1R   =112,
16:u:code-1X   =112,
16:u:code-1L   =112,
16:u:code-1LL  =112,
8:*100:5:T,
16:u:code-1LLL =112,
16:u:code-1RRR =108,
16:u:code-1RR  =108,
16:u:code-1R   =108,
16:u:code-1RRR =119,
16:u:code-1X   =108,
16:u:code-1RR  =119,
16:u:code-1L   =108,
16:u:code-1R   =119,
16:u:code-1RRR =102,
9:*100:17:F,
16:u:code-1LL  =108,
16:u:code-1X   =119,
16:u:code-1RR  =102,
16:u:code-1LLL =108,
16:u:code-1L   =119,
16:u:code-1R   =102,
16:u:code-1LL  =119,
16:u:code-1X   =102,
16:u:code-1LLL =119,
16:u:code-1L   =102,
16:u:code-1LL  =102,
16:u:code-1LLL =102,
16:u:code-1RRR =100,
16:u:code-1RR  =100,
16:u:code-1R   =100,
16:u:code-1X   =100,
16:u:code-1L   =100,
16:u:code-1LL  =100,
16:u:code-1LLL =100,
16:u:code-1RRR =103,
16:u:code-1RR  =103,
16:u:code-1R   =103,
16:u:code-1X   =103,
16:u:code-1L   =103,
16:u:code-1LL  =103,
16:u:code-1LLL =103,
15:u:code-1RRR =99,
15:u:code-1RR  =99,
15:u:code-1R   =99,
15:u:code-1X   =99,
15:u:code-1RRR =46,
15:u:code-1L   =99,
15:u:code-1RR  =46,
15:u:code-1LL  =99,
15:u:code-1R   =46,
15:u:code-1LLL =99,
15:u:code-1X   =46,
7:*100:Po,
15:u:code-1L   =46,
15:u:code-1LL  =46,
15:u:code-1LLL =46,
16:u:code-1RRR =107,
16:u:code-1RR  =107,
16:u:code-1R   =107,
16:u:code-1X   =107,
16:u:code-1L   =107,
16:u:code-1LL  =107,
16:u:code-1LLL =107,
16:u:code-1RRR =104,
16:u:code-1RR  =104,
16:u:code-1R   =104,
16:u:code-1X   =104,
16:u:code-1L   =104,
16:u:code-1LL  =104,
16:u:code-1LLL =104,
15:u:code-1RRR =44,
15:u:code-1RR  =44,
15:u:code-1R   =44,
15:u:code-1X   =44,
15:u:code-1L   =44,
15:u:code-1LL  =44,
15:u:code-1LLL =44,
15:u:code-1RRR =98,
15:u:code-1RR  =98,
15:u:code-1R   =98,
15:u:code-1X   =98,
15:u:code-1L   =98,
15:u:code-1LL  =98,
16:u:code-1RRR =121,
15:u:code-1LLL =98,
16:u:code-1RR  =121,
16:u:code-1R   =121,
16:u:code-1X   =121,
16:u:code-1L   =121,
16:u:code-1LL  =121,
16:u:code-1LLL =121,
16:u:code-1RRR =117,
16:u:code-1RR  =117,
16:u:code-1R   =117,
16:u:code-1X   =117,
16:u:code-1L   =117,
16:u:code-1LL  =117,
16:u:code-1LLL =117,
15:u:code-1RRR =76,
15:u:code-1RR  =76,
15:u:code-1R   =76,
15:u:code-1X   =76,
15:u:code-1L   =76,
15:u:code-1LL  =76,
15:u:code-1LLL =76,
15:u:code-1RRR =83,
15:u:code-1RR  =83,
15:u:code-1R   =83,
15:u:code-1X   =83,
16:u:code-1RRR =106,
15:u:code-1L   =83,
16:u:code-1RR  =106,
15:u:code-1LL  =83,
16:u:code-1R   =106,
15:u:code-1LLL =83,
16:u:code-1X   =106,
16:u:code-1L   =106,
16:u:code-1LL  =106,
16:u:code-1LLL =106,
15:u:code-1RRR =89,
15:u:code-1RR  =89,
15:u:code-1R   =89,
15:u:code-1X   =89,
15:u:code-1L   =89,
15:u:code-1LL  =89,
15:u:code-1LLL =89,
15:u:code-1RRR =45,
15:u:code-1RR  =45,
15:u:code-1R   =45,
15:u:code-1X   =45,
7:*100:Pd,
15:u:code-1L   =45,
15:u:code-1LL  =45,
15:u:code-1LLL =45,
16:u:code-1RRR =120,
16:u:code-1RR  =120,
16:u:code-1R   =120,
16:u:code-1X   =120,
16:u:code-1L   =120,
16:u:code-1LL  =120,
16:u:code-1LLL =120,
15:u:code-1RRR =40,
15:u:code-1RR  =40,
15:u:code-1R   =40,
15:u:code-1X   =40,
7:*100:Ps,
15:u:code-1L   =40,
15:u:code-1LL  =40,
15:u:code-1LLL =40,
15:u:code-1RRR =41,
15:u:code-1RR  =41,
15:u:code-1R   =41,
15:u:code-1X   =41,
7:*100:Pe,
15:u:code-1L   =41,
15:u:code-1LL  =41,
15:u:code-1LLL =41,
15:u:code-1RRR =87,
15:u:code-1RR  =87,
15:u:code-1R   =87,
15:u:code-1X   =87,
15:u:code-1L   =87,
15:u:code-1LL  =87,
15:u:code-1LLL =87,
15:u:code-1RRR =58,
15:u:code-1RR  =58,
15:u:code-1R   =58,
15:u:code-1RRR =70,
15:u:code-1X   =58,
15:u:code-1RR  =70,
15:u:code-1L   =58,
15:u:code-1R   =70,
15:u:code-1LL  =58,
15:u:code-1X   =70,
15:u:code-1LLL =58,
15:u:code-1L   =70,
15:u:code-1LL  =70,
15:u:code-1LLL =70,
15:u:code-1RRR =84,
15:u:code-1RR  =84,
15:u:code-1R   =84,
15:u:code-1X   =84,
15:u:code-1L   =84,
15:u:code-1LL  =84,
15:u:code-1LLL =84,
15:u:code-1RRR =51,
15:u:code-1RR  =51,
15:u:code-1R   =51,
15:u:code-1X   =51,
7:*100:Nd,
15:u:code-1L   =51,
15:u:code-1LL  =51,
15:u:code-1LLL =51,
15:u:code-1RRR =69,
15:u:code-1RR  =69,
15:u:code-1RRR =88,
15:u:code-1R   =69,
15:u:code-1RR  =88,
15:u:code-1X   =69,
15:u:code-1R   =88,
15:u:code-1L   =69,
15:u:code-1X   =88,
15:u:code-1RRR =80,
15:u:code-1LL  =69,
15:u:code-1L   =88,
15:u:code-1RR  =80,
15:u:code-1LLL =69,
15:u:code-1LL  =88,
15:u:code-1R   =80,
15:u:code-1LLL =88,
15:u:code-1X   =80,
15:u:code-1L   =80,
15:u:code-1RRR =79,
15:u:code-1LL  =80,
15:u:code-1RR  =79,
15:u:code-1LLL =80,
15:u:code-1R   =79,
15:u:code-1X   =79,
15:u:code-1RRR =72,
15:u:code-1L   =79,
15:u:code-1RR  =72,
15:u:code-1LL  =79,
15:u:code-1R   =72,
15:u:code-1LLL =79,
15:u:code-1X   =72,
15:u:code-1L   =72,
15:u:code-1LL  =72,
15:u:code-1LLL =72,
15:u:code-1RRR =78,
15:u:code-1RR  =78,
15:u:code-1R   =78,
15:u:code-1X   =78,
15:u:code-1RRR =82,
15:u:code-1L   =78,
15:u:code-1RR  =82,
15:u:code-1LL  =78,
15:u:code-1R   =82,
15:u:code-1RRR =81,
15:u:code-1LLL =78,
15:u:code-1X   =82,
15:u:code-1RR  =81,
15:u:code-1RRR =85,
15:u:code-1L   =82,
15:u:code-1R   =81,
15:u:code-1RR  =85,
15:u:code-1RRR =73,
15:u:code-1LL  =82,
15:u:code-1X   =81,
15:u:code-1R   =85,
15:u:code-1RR  =73,
15:u:code-1LLL =82,
15:u:code-1L   =81,
15:u:code-1X   =85,
15:u:code-1R   =73,
15:u:code-1LL  =81,
15:u:code-1L   =85,
15:u:code-1X   =73,
15:u:code-1RRR =68,
15:u:code-1LLL =81,
15:u:code-1LL  =85,
15:u:code-1L   =73,
15:u:code-1RR  =68,
15:u:code-1LLL =85,
15:u:code-1LL  =73,
15:u:code-1R   =68,
15:u:code-1RRR =66,
15:u:code-1LLL =73,
15:u:code-1X   =68,
15:u:code-1RR  =66,
15:u:code-1L   =68,
15:u:code-1R   =66,
15:u:code-1LL  =68,
15:u:code-1X   =66,
15:u:code-1RRR =65,
15:u:code-1LLL =68,
15:u:code-1L   =66,
15:u:code-1RR  =65,
15:u:code-1LL  =66,
15:u:code-1R   =65,
15:u:code-1LLL =66,
15:u:code-1X   =65,
15:u:code-1L   =65,
15:u:code-1LL  =65,
15:u:code-1LLL =65,
15:u:code-1RRR =86,
15:u:code-1RR  =86,
15:u:code-1R   =86,
15:u:code-1X   =86,
15:u:code-1L   =86,
15:u:code-1LL  =86,
15:u:code-1LLL =86,
15:u:code-1RRR =71,
15:u:code-1RR  =71,
15:u:code-1R   =71,
15:u:code-1X   =71,
15:u:code-1L   =71,
15:u:code-1LL  =71,
15:u:code-1LLL =71,
15:u:code-1RRR =77,
15:u:code-1RR  =77,
15:u:code-1R   =77,
15:u:code-1X   =77,
15:u:code-1L   =77,
15:u:code-1LL  =77,
15:u:code-1LLL =77,
15:u:code-1RRR =75,
15:u:code-1RR  =75,
15:u:code-1R   =75,
15:u:code-1X   =75,
15:u:code-1L   =75,
15:u:code-1LL  =75,
15:u:code-1LLL =75,
15:u:code-1RRR =49,
15:u:code-1RR  =49,
15:u:code-1RRR =55,
15:u:code-1R   =49,
15:u:code-1RR  =55,
15:u:code-1X   =49,
15:u:code-1R   =55,
15:u:code-1L   =49,
15:u:code-1X   =55,
15:u:code-1LL  =49,
15:u:code-1L   =55,
15:u:code-1LLL =49,
15:u:code-1LL  =55,
15:u:code-1LLL =55,
15:u:code-1RRR =57,
15:u:code-1RR  =57,
15:u:code-1R   =57,
15:u:code-1X   =57,
15:u:code-1L   =57,
15:u:code-1LL  =57,
15:u:code-1LLL =57,
16:u:code-1RRR =113,
16:u:code-1RR  =113,
16:u:code-1R   =113,
16:u:code-1X   =113,
16:u:code-1L   =113,
16:u:code-1LL  =113,
16:u:code-1LLL =113,
15:u:code-1RRR =39,
15:u:code-1RR  =39,
15:u:code-1R   =39,
15:u:code-1X   =39,
15:u:code-1L   =39,
15:u:code-1LL  =39,
15:u:code-1LLL =39,
15:u:code-1RRR =52,
15:u:code-1RR  =52,
15:u:code-1R   =52,
15:u:code-1X   =52,
15:u:code-1L   =52,
15:u:code-1LL  =52,
15:u:code-1LLL =52,
15:u:code-1RRR =56,
15:u:code-1RR  =56,
15:u:code-1RRR =63,
15:u:code-1R   =56,
15:u:code-1RR  =63,
15:u:code-1X   =56,
15:u:code-1R   =63,
15:u:code-1L   =56,
15:u:code-1X   =63,
15:u:code-1LL  =56,
15:u:code-1L   =63,
15:u:code-1LLL =56,
15:u:code-1LL  =63,
15:u:code-1LLL =63,
15:u:code-1RRR =74,
15:u:code-1RR  =74,
15:u:code-1R   =74,
15:u:code-1X   =74,
15:u:code-1L   =74,
15:u:code-1LL  =74,
15:u:code-1LLL =74,
15:u:code-1RRR =53,
15:u:code-1RR  =53,
15:u:code-1R   =53,
15:u:code-1X   =53,
15:u:code-1L   =53,
15:u:code-1LL  =53,
15:u:code-1LLL =53,
16:u:code-1RRR =122,
16:u:code-1RR  =122,
16:u:code-1R   =122,
16:u:code-1X   =122,
16:u:code-1L   =122,
16:u:code-1LL  =122,
16:u:code-1LLL =122,
15:u:code-1RRR =48,
15:u:code-1RR  =48,
15:u:code-1R   =48,
15:u:code-1X   =48,
15:u:code-1L   =48,
15:u:code-1RRR =47,
15:u:code-1LL  =48,
15:u:code-1RR  =47,
15:u:code-1LLL =48,
15:u:code-1R   =47,
15:u:code-1X   =47,
15:u:code-1L   =47,
15:u:code-1LL  =47,
15:u:code-1LLL =47,
15:u:code-1RRR =91,
15:u:code-1RR  =91,
15:u:code-1R   =91,
15:u:code-1X   =91,
15:u:code-1L   =91,
15:u:code-1LL  =91,
15:u:code-1LLL =91,
15:u:code-1RRR =93,
15:u:code-1RR  =93,
15:u:code-1R   =93,
15:u:code-1X   =93,
15:u:code-1L   =93,
15:u:code-1LL  =93,
15:u:code-1LLL =93,
15:u:code-1RRR =50,
15:u:code-1RR  =50,
15:u:code-1R   =50,
15:u:code-1X   =50,
15:u:code-1L   =50,
15:u:code-1LL  =50,
15:u:code-1LLL =50,
17:u:code-1RRR =8217,
17:u:code-1RR  =8217,
17:u:code-1R   =8217,
17:u:code-1X   =8217,
7:*100:Pf,
17:u:code-1L   =8217,
17:u:code-1LL  =8217,
17:u:code-1LLL =8217,
15:u:code-1RRR =54,
15:u:code-1RR  =54,
15:u:code-1R   =54,
15:u:code-1RRR =37,
15:u:code-1X   =54,
15:u:code-1RR  =37,
15:u:code-1L   =54,
15:u:code-1R   =37,
15:u:code-1LL  =54,
15:u:code-1X   =37,
15:u:code-1LLL =54,
15:u:code-1L   =37,
15:u:code-1LL  =37,
15:u:code-1LLL =37,
17:u:code-1RRR =8211,
17:u:code-1RR  =8211,
17:u:code-1R   =8211,
17:u:code-1X   =8211,
17:u:code-1L   =8211,
17:u:code-1LL  =8211,
17:u:code-1LLL =8211,
15:u:code-1RRR =59,
15:u:code-1RR  =59,
15:u:code-1R   =59,
15:u:code-1X   =59,
15:u:code-1L   =59,
15:u:code-1LL  =59,
15:u:code-1LLL =59,
15:u:code-1RRR =34,
15:u:code-1RR  =34,
15:u:code-1R   =34,
15:u:code-1X   =34,
15:u:code-1L   =34,
15:u:code-1LL  =34,
15:u:code-1LLL =34,
15:u:code-1RRR =36,
15:u:code-1RR  =36,
15:u:code-1R   =36,
15:u:code-1X   =36,
7:*100:Sc,
15:u:code-1L   =36,
15:u:code-1LL  =36,
15:u:code-1LLL =36,
15:u:code-1RRR =38,
15:u:code-1RR  =38,
15:u:code-1R   =38,
15:u:code-1X   =38,
15:u:code-1L   =38,
15:u:code-1LL  =38,
15:u:code-1LLL =38,
16:u:code-1RRR =183,
16:u:code-1RR  =183,
16:u:code-1R   =183,
16:u:code-1X   =183,
16:u:code-1L   =183,
16:u:code-1LL  =183,
16:u:code-1LLL =183,
16:u:code-1RRR =228,
16:u:code-1RR  =228,
16:u:code-1R   =228,
16:u:code-1X   =228,
16:u:code-1L   =228,
16:u:code-1LL  =228,
16:u:code-1LLL =228,
16:u:code-1RRR =233,
16:u:code-1RR  =233,
16:u:code-1R   =233,
16:u:code-1X   =233,
16:u:code-1L   =233,
16:u:code-1LL  =233,
16:u:code-1LLL =233,
16:u:code-1RRR =201,
16:u:code-1RR  =201,
16:u:code-1R   =201,
16:u:code-1X   =201,
16:u:code-1L   =201,
16:u:code-1LL  =201,
16:u:code-1LLL =201,
15:u:code-1RRR =90,
15:u:code-1RR  =90,
15:u:code-1R   =90,
15:u:code-1X   =90,
15:u:code-1L   =90,
15:u:code-1LL  =90,
15:u:code-1LLL =90,
16:u:code-1RRR =231,
16:u:code-1RR  =231,
16:u:code-1R   =231,
16:u:code-1X   =231,
16:u:code-1L   =231,
16:u:code-1LL  =231,
16:u:code-1LLL =231,
16:u:code-1RRR =243,
16:u:code-1RR  =243,
16:u:code-1R   =243,
16:u:code-1X   =243,
16:u:code-1L   =243,
16:u:code-1LL  =243,
16:u:code-1LLL =243,
16:u:code-1RRR =244,
16:u:code-1RR  =244,
16:u:code-1R   =244,
16:u:code-1X   =244,
16:u:code-1L   =244,
16:u:code-1LL  =244,
16:u:code-1LLL =244,
16:u:code-1RRR =232,
16:u:code-1RR  =232,
16:u:code-1R   =232,
16:u:code-1X   =232,
16:u:code-1L   =232,
16:u:code-1LL  =232,
16:u:code-1LLL =232,
16:u:code-1RRR =339,
16:u:code-1RR  =339,
16:u:code-1R   =339,
16:u:code-1X   =339,
16:u:code-1L   =339,
16:u:code-1LL  =339,
16:u:code-1LLL =339,
16:u:code-1RRR =226,
16:u:code-1RR  =226,
16:u:code-1R   =226,
16:u:code-1X   =226,
16:u:code-1L   =226,
16:u:code-1LL  =226,
16:u:code-1LLL =226,
16:u:code-1RRR =238,
16:u:code-1RR  =238,
16:u:code-1R   =238,
16:u:code-1X   =238,
16:u:code-1L   =238,
16:u:code-1LL  =238,
16:u:code-1LLL =238,
16:u:code-1RRR =235,
16:u:code-1RR  =235,
16:u:code-1R   =235,
16:u:code-1X   =235,
16:u:code-1L   =235,
16:u:code-1LL  =235,
16:u:code-1LLL =235,
15:u:code-1RRR =33,
15:u:code-1RR  =33,
15:u:code-1R   =33,
15:u:code-1X   =33,
15:u:code-1L   =33,
15:u:code-1LL  =33,
15:u:code-1LLL =33,
17:u:code-1RRR =8212,
17:u:code-1RR  =8212,
17:u:code-1R   =8212,
17:u:code-1X   =8212,
17:u:code-1L   =8212,
17:u:code-1LL  =8212,
17:u:code-1LLL =8212,
17:u:code-1RRR =_x+1,
17:u:code-1RR  =_x+1,
17:u:code-1RRR =_x+2,
17:u:code-1R   =_x+1,
17:u:code-1RR  =_x+2,
17:u:code-1RRR =_x+3,
0=-0x1.47357ac78c3d4p-5
1=0x1.b7a42034bd9dbp-3
2=-0x1.69f3b728992cfp-2
3=-0x1.48da9783d5eb4p-2
4=0x1.6adee32a917adp-1
5=0x1.428a73fd3e568p-3
6=0x1.ceb042a8b7887p-2
7=-0x1.d07ec82bb98c9p-1
8=-0x1.8d8031c1b1521p-2
9=0x1.7d90d5e428b9cp-3
10=-0x1.79f0d585642cp-3
12=0x1.7d90d5e428b9cp-3
13=-0x1.79f0d585642cp-3
15=0x1.7d90d5e428b9cp-3
16=-0x1.79f0d585642cp-3
18=0x1.8e7a380f0e4fap-1
19=-0x1.5336fde0a10dcp-1
21=0x1.032a7cf4dac49p-6
22=-0x1.0d5ee621fa9bp-8
24=-0x1.cdce84ee7c5e2p-4
25=0x1.341ee218fcc6ap-3
27=0x1.048a8b169e39ep-3
28=-0x1.a9ba0148f863ap-4
30=-0x1.39385eee44b6bp-5
31=0x1.840534f090f31p-2
32=-0x1.5e253dfb9b105p-2
33=-0x1.25d5b765d2bccp-6
34=-0x1.b44c0958de2a2p-3
35=-0x1.7f3c18d37bbb4p-4
36=-0x1.e6dd645fe916ap-3
37=0x1.85ec531c1f022p+0
38=-0x1.ddff53574d384p-5
42=-0x1.1549abceeaa2p-3
43=0x1.afabdc055386ep-6
45=-0x1.465a456476805p-3
46=0x1.dc12303e88b5ap-2
47=0x1.29fea0eee407bp-6
48=0x1.491b7df28797bp-5
49=0x1.1cc2975a7552cp-9
50=-0x1.b6baf6a18996cp-7
51=-0x1.d107e48dbfefp-3
52=-0x1.be1343a56aa3ep-5
53=-0x1.9c66361e7a581p-5
54=0x1.60360432a40e1p-2
55=-0x1.277a37e1f625dp-4
56=-0x1.c16e92b1eb094p-5
57=0x1.7e6461fd35582p-3
58=0x1.0b7a41a22802fp-1
60=0x1.1a2912ca2ef81p-5
61=-0x1.35a90f3d6b4c1p-1
62=-0x1.a2ed423267906p-7
66=-0x1.c4b9467e94a34p-2
67=0x1.d044cf8d571f5p-2
68=-0x1.234bfb783a619p-5
69=-0x1.c7c6bcda4235cp-2
70=0x1.b2a8e37d229afp-2
71=-0x1.ee361fa33498cp-3
72=-0x1.12c7b1638c661p-5
73=0x1.bffe5b432dfe4p-4
74=0x1.3ba0d40386704p-5
78=-0x1.d6f82b8bc592ep-3
79=0x1.0a0f42bb3a457p-2
81=-0x1.76f91b97a35cep-2
82=0x1.5637a9c7e6dd3p-1
85=-0x1.4569a997f4e43p-2
90=0x1.176454cd815abp-5
91=0x1.6a20bdef4808ap-3
92=-0x1.75f3e829a5e9p-2
93=-0x1.2a7ac885dc1fdp-3
94=0x1.8a1ca8cb05d7ap-3
95=-0x1.1bd4a744560cbp-3
96=0x1.749058b446792p-1
97=0x1.2efab60bce8e6p-4
98=-0x1.3746a05d522afp-7
99=-0x1.0686d9550e895p-3
102=-0x1.226f24ef74686p-4
103=0x1.632646cb957afp-4
104=-0x1.2778ed871a1p-4
105=-0x1.6601f95a2eb66p-8
106=0x1.34a8e3d2c0ffp-2
107=-0x1.0856df1f06034p-5
108=-0x1.db9c1e023d411p-6
109=0x1.5b5a7de687bf7p-6
114=0x1.37c7ba11d3827p-3
115=-0x1.ee09ac1974a54p-6
117=0x1.edb435d6ec5acp-4
118=-0x1.01212f3ce8a6ap-2
120=-0x1.7cd32ca125389p-7
121=0x1.48b9567a70a46p-3
126=0x1.cf2e9c22135ap-10
127=-0x1.0fc7594e16f7ep-7
128=-0x1.9e24278683e1ap-4
129=0x1.5b8f73e66741fp-2
130=0x1.01fc4f3fe538ep-6
131=-0x1.5eee6ec6926d8p-1
132=-0x1.6fd8103365fe6p-3
133=0x1.6eafff66c82abp-2
134=0x1.2f9b299d4abdcp-1
135=0x1.01e5928cae7f8p-2
136=-0x1.37f41aac430c9p-3
137=-0x1.d8f7c7f004ae8p-5
138=0x1.b8ddf3bc6409fp-3
139=-0x1.0bb048218b618p-7
140=-0x1.faa4235a24f0cp-5
141=0x1.24178bb1f4469p-1
142=-0x1.242adff1d566p-4
143=0x1.e57026683cedp-6
144=-0x1.b0d1e0a03bd06p-1
145=0x1.2d0a51fd7fd5dp-2
146=-0x1.5b5beef7790e1p-3
147=0x1.7ccc8224eb6dap-4
148=-0x1.09833e8269df4p-5
156=-0x1.59e36bb67393p-1
157=0x1.6859d4e51570cp-1
159=-0x1.015b56c77e8c1p+0
160=0x1.e40fbdb5eab14p-1
161=-0x1.383fc8838febp-11
162=0x1.462496eb525c6p-3
163=-0x1.13f68cbc279a6p-7
165=0x1.432f78b284a59p-4
166=0x1.0915e637cc36fp-3
168=-0x1.c328b484916a8p-7
169=0x1.f88c5fc3f8834p-6
171=-0x1.fac49c972368fp-1
172=0x1.9cb6aa6f9e558p+0
173=-0x1.4507540bc642cp+0
174=-0x1.01a1011c80d77p-3
175=0x1.6dc3a1aab7f8bp+0
176=-0x1.353b69a995dffp-3
177=-0x1.5e104e17804f8p+1
178=0x1.281a9ffd1a1dep+0
179=-0x1.0869f5d9802e6p+0
180=0x1.5b925a9076767p-2
181=-0x1.1c297d481668ep-1
183=0x1.d290d3f84fdf5p-2
184=-0x1.e270163a582cep-5
186=0x1.53a3a4216d04ep-3
187=-0x1.903f585aa9f2ep-6
188=-0x1.763a6eb5c3309p-2
189=0x1.9a06afbfccfafp-3
190=-0x1.c4ae1dd13002ep-4
191=0x1.b37d4b3f7e904p-2
192=-0x1.600594e44b11ep-2
193=-0x1.42d6ed244a84bp-7
194=-0x1.4a205bfac3ba4p-6
195=-0x1.e70b519d1d8dbp-6
196=0x1.67647eddc62e9p-3
197=-0x1.a2c83a8040771p-4
198=0x1.39aa171544813p-3
199=0x1.ee8f4abc0382ep-5
200=-0x1.0fc55a2d82c0cp-3
201=-0x1.80af2690193e6p-5
202=0x1.a087ecd517425p-5
203=-0x1.e15c4a3fd747p-7
204=-0x1.21a355e2eb7c1p-3
205=-0x1.0a0a535201a4bp-5
206=-0x1.aa8d408aa6a3dp-6
207=-0x1.aab05081dbb54p-4
208=0x1.3405a97009a36p-3
209=-0x1.09deb64737fc5p-4
210=-0x1.2c316050b8cecp-3
211=0x1.5c0594c18a87ep-3
212=-0x1.c8e6355acb58fp-3
213=0x1.9f4f803111adap-8
214=0x1.6bcc44b687fa3p-3
215=0x1.d189e4e0604d7p-4
217=-0x1.1425c91f6a2cdp-4
218=-0x1.9cdaf4c5ff79dp-7
219=-0x1.c24af6dff0303p-4
220=0x1.b2a1405e8765fp-3
221=-0x1.d7f6a656b572dp-4
222=0x1.f61ea5e8577d5p-4
223=-0x1.149f2131b4fa1p-3
224=0x1.d85810be9690fp-3
225=-0x1.542962f6a4a4ap-3
226=0x1.b4e6f8f945a9ep-2
227=-0x1.edd1b0bb5ba6p-4
228=-0x1.f2d86c0a5fd6p-7
229=-0x1.3728eead69e67p-4
230=-0x1.534954d21d0e9p-4
231=0x1.1e49be07c90e1p-4
232=-0x1.5b68cd7168ad8p-14
233=-0x1.872e4c706d75fp-4
234=-0x1.713cb9c98398p-6
235=0x1.2bb9692e8d7f2p-1
236=-0x1.f378814417498p-4
237=-0x1.f7089b43058eap-7
238=-0x1.3869a2e87ff9dp-3
239=0x1.6429349495d21p-5
240=0x1.90051e654f031p-3
241=-0x1.7ce61e39225cp-4
243=0x1.735b8c0816473p-2
244=-0x1.5e4b98f099ae3p-2
245=-0x1.b5b71cbfb09e6p-3
246=0x1.1eafa30325cap-1
247=-0x1.4552827ced2f9p-8
248=-0x1.63583d34a508ep-2
249=-0x1.77d2361c16e85p-6
250=-0x1.26164f753e64ep-2
251=0x1.7c043b68f5534p-3
252=-0x1.6357b3dc93dc7p-2
253=-0x1.885d847130708p-5
254=-0x1.3c6b4758b6288p-4
255=0x1.1ba97994e8644p-10
256=-0x1.db86884039238p-12
257=-0x1.9703853cacb59p-3
258=-0x1.73f3ba235da3p-4
259=-0x1.9209596de18dap-6
260=0x1.c6e340a783f9dp-3
261=0x1.29f594eb57154p-5
262=-0x1.edeb7f2e1aba8p-6
263=-0x1.32ccfb76e8055p-1
264=0x1.e7bb865981d6dp-3
265=-0x1.30a9a011de33ap-3
266=-0x1.f33a0277a0828p-6
267=0x1.65d2e7a48dac3p-4
268=0x1.02777ffe45accp-4
269=-0x1.31e4c89b2c01dp-2
270=0x1.2c2760e0c7493p-3
271=-0x1.c001985e7535p-4
272=-0x1.d51e7e4324874p-3
273=-0x1.5587bf2f9708cp-3
274=0x1.542b6bd42661bp-2
275=0x1.c64929ce0889fp-4
277=-0x1.1d2c6be19c0d1p-3
278=-0x1.97d033519430fp-5
283=0x1.675237fccaec5p-7
286=0x1.cc10b8349e7a4p-6
288=-0x1.eb6c4904962ecp-3
289=0x1.d24b6f1b8bfd3p-2
290=-0x1.27b996ed793dep-4
291=0x1.0c9f79a4a18e6p-3
292=-0x1.440b58604c8fcp-2
293=0x1.dbcc6871a8be5p-6
294=0x1.e3f30a3cb1d18p-3
295=-0x1.8bd6277be344ap-3
297=-0x1.530c05f2e4a05p-8
298=0x1.3e3b0cab0bf62p-8
300=-0x1.032ff934db22p-3
301=0x1.152e5f7140fbp-3
302=-0x1.39dc254b6db0dp-4
303=-0x1.045e5be3cb5b5p-5
304=-0x1.08def87afe6d7p-9
305=0x1.3acc80c3b7c5bp-2
306=0x1.9f9652ac5df5ap-3
307=0x1.22657667d3dd8p-2
308=-0x1.c9105126f028ep-3
309=-0x1.c064ff268f85dp-3
310=-0x1.2031a7daf5ffp-5
311=-0x1.3db8f1a487076p-4
312=-0x1.ecc2e40f2ff69p-5
313=0x1.f1f61abd83691p-5
315=-0x1.9eb832ea53c4bp-3
316=-0x1.4fb0e6bca0e62p-3
317=-0x1.64370cecb4303p-6
318=0x1.01c6def6a55ep-3
319=0x1.91417eacd851bp-3
320=-0x1.4050ce14a1676p-7
321=-0x1.2332f3078cbd5p-4
323=-0x1.f7463c713ab5ap-6
324=0x1.bd001e842637bp-3
325=-0x1.b00836e8f423p-5
326=-0x1.b2d22d0b46f95p-3
327=0x1.0da3008c6217bp-3
328=0x1.b907a8b4c0479p-2
329=-0x1.12023beb03aep-2
330=0x1.e008511219056p-7
331=-0x1.917fa0803725cp-2
332=0x1.b2fbca10d04fbp-6
334=-0x1.6ea9b9c551e54p-5
335=-0x1.1120c7adf0adep-5
336=0x1.82c5ebbd87366p-4
337=-0x1.936ec43e87d9p-6
338=-0x1.40cb2c2f35ae3p-3
339=-0x1.6eff679aa1a63p-2
340=0x1.4e2f7122ad6a4p-1
341=-0x1.672147dadaa33p-5
342=0x1.f40e0d5f8e181p-2
343=-0x1.3d59907278477p-2
344=-0x1.3d8ffc771503ep-5
345=0x1.9e938f77977e9p-4
346=-0x1.cbb8addc93782p-6
348=0x1.185fd4d7b8b57p-1
349=-0x1.4eaa95fed1db1p-2
350=-0x1.36360cad5baecp-4
351=0x1.99e824bbf7258p-4
352=0x1.a848d4e175ec2p-4
353=-0x1.3d91a9147fdbep-4
354=-0x1.2afbe0a7f3184p-4
355=-0x1.e87cb9bdafdc7p-4
356=-0x1.393f84f2e833fp-8
358=-0x1.3028e9003d889p-3
359=-0x1.5fcecfd3d4ddap-6
360=0x1.e6d277817864cp-5
361=0x1.b7454a1c1e22dp-4
362=-0x1.28024155a8e2p-6
363=-0x1.133651bf64d2dp-4
364=0x1.faa4460d9cb28p-6
365=-0x1.73db4d977fc67p-3
366=-0x1.f108a97faa923p-4
367=0x1.fc6f505f81d72p-4
368=0x1.178eb6efc1592p-3
369=0x1.3307f1f431f86p-2
370=-0x1.2a030e31b58b3p-4
372=-0x1.094f5cb6c67e4p-9
373=0x1.2310a57b8ebf8p-7
375=-0x1.32bad4c7ca993p-7
376=0x1.0e7288de06d58p-3
378=-0x1.0d07a2caa4e1ep-1
379=0x1.129bba5059247p-1
381=0x1.a8cb9b6c82bcbp-4
382=-0x1.8e85649e31bafp-5
384=-0x1.2a13efeff8238p+0
385=0x1.1fc66d1015415p+0
386=-0x1.6edcbe68fee78p-6
387=0x1.90b5f98a23bd8p-6
388=-0x1.8c738e6112018p-6
390=0x1.d24d829afd8a9p-4
391=-0x1.36a62c5c544c4p-3
393=0x1.de62beba4fa6fp-6
394=-0x1.2f6ced54683eap-4
397=-0x1.22ff982e3a97p-4
398=-0x1.64a6565c3fd0cp-9
399=0x1.0994cb4b0cb62p-3
400=-0x1.e346fc1c7f239p-8
405=0x1.8007cc98fc3cap-4
406=-0x1.81084c94d1af3p-4
408=0x1.58484136515acp-3
409=-0x1.1066c128530f5p-2
410=0x1.d6b66e0a14482p-6
411=-0x1.5da2aecc80194p-4
412=0x1.ffed20e05f652p-3
413=-0x1.c2f606b609ab4p-6
415=-0x1.2c8bf1176a7a7p-4
417=0x1.52ff43971a7c1p-2
418=-0x1.401ec8f8cfb4bp-3
420=0x1.98b373591dcdcp-1
421=0x1.41a5dd3d20e38p-3
422=-0x1.e02a0a10d60ecp-7
423=-0x1.a6df5328e540cp-3
424=0x1.bff0439eb3678p-5
425=-0x1.36d174c910ccp-4
427=-0x1.f1db8c047a5p-10
429=-0x1.b3f0835c9e9c6p-4
430=0x1.6a55eb7c8a6d4p-3
432=0x1.f2a10d6c8b7c5p-4
433=-0x1.80c42821866aap-4
435=-0x1.939c6e1524d5p-5
436=0x1.008edba323c0fp-5
438=0x1.8bc28644b0bebp-6
439=0x1.6638dbf5cc7e3p-8
440=-0x1.335f97f8112c9p-5
441=0x1.442bb7ebdf18cp-7
442=-0x1.11a457f1e495fp-8
444=0x1.7b06694ead8f4p-12
445=-0x1.9a1c235de56bdp-14
447=-0x1.c004dfbaf292cp-7
448=0x1.c0d4b91f7594cp-7
450=-0x1.bf1c796553d56p-7
452=-0x1.7dd511200857ep-5
453=-0x1.ead54c58a180cp-8
454=-0x1.d895f08c79a32p-3
455=0x1.26d30a40b5a4bp-5
456=0x1.f6b3715161003p-4
457=0x1.55581e5304b8p-2
458=-0x1.6a2d98b156ea8p-2
460=-0x1.11d8592093b84p-5
463=0x1.8a47a2e130a5ep-4
464=-0x1.4c61ff4739e3dp-5
465=0x1.efe68cf13800bp-10
466=-0x1.e2c6a51ec0cb5p-3
467=0x1.b2837022b20aap-2
468=0x1.1627deda2a79ep-3
469=0x1.47c45bf7ef77bp-2
470=-0x1.2c3e4a04e13b9p-1
471=-0x1.5dd1fd820e345p-4
472=-0x1.405693b31082bp-7
474=0x1.5379c18fa4f9ep-7
475=0x1.8ae5ca82cf98cp-5
476=-0x1.ed99d0b464b1ep-5
477=-0x1.d2fc8591d4dc4p-7
478=-0x1.d98c5f366e19cp-2
479=-0x1.2b6fb70612946p-6
480=-0x1.b5edef68fe0d1p-4
481=0x1.f0942c292b936p-2
482=0x1.6a06a7a22f55bp-7
483=0x1.8e1f943ea44d6p-3
484=-0x1.22753f4c11de7p-4
486=-0x1.8db3d9e343d06p-7
487=0x1.26fabeb6ce4ecp-6
488=-0x1.fe7fe8760be87p-5
489=-0x1.546a506247995p-2
490=0x1.9b818986a3be6p-2
491=0x1.f622a8067a37dp-2
492=0x1.cdc832c75f0ep-3
493=-0x1.5544697d01bfcp-8
494=-0x1.e24850ea06389p-4
495=0x1.d477b5c277ba2p-7
496=-0x1.518275adcefdcp-5
497=-0x1.a07deaaa0ea4p-5
498=-0x1.52dd4b9d8d5cbp-4
499=0x1.2f1d677d845c8p-2
500=-0x1.227791ced77e7p-6
501=0x1.09fa8c56f12fdp-1
502=-0x1.2a4e6e514a31ap-5
503=0x1.ff91332f6c417p-7
504=-0x1.7726a94e77f41p-7
505=0x1.c0e35ddcca36bp-2
506=-0x1.0be7d9c409f61p-2
507=-0x1.486b1cbf79a2dp-2
510=0x1.0364568e54bf1p-3
511=0x1.5516e0a0c9d3ap-8
512=-0x1.040e172ae9f1p-3
513=0x1.2f55d124a32ddp-2
514=-0x1.12b01b9479f94p-3
516=-0x1.ed960e91fabffp-4
517=0x1.423ede717ef38p-3
521=-0x1.16da23e5d6338p-9
522=0x1.09c16c672c4f8p-3
523=-0x1.059ae3df9c5cp-3
525=-0x1.24cd7b2b1a8afp-4
526=0x1.6393514ed45cp-4
527=-0x1.8bcab90bfd9e7p-4
528=-0x1.6a18a7137a5fcp-4
529=0x1.8e1e83c7a9c2p-3
531=0x1.99e7b0388aba2p-4
532=0x1.75715c95c87afp-2
533=-0x1.2a06823167a0ap-9
534=-0x1.600d560bfaf69p-3
535=0x1.169b04c2314fp-3
536=0x1.955ddc5c04367p-4
537=-0x1.92c4748dc28c8p-2
538=-0x1.0e385572315a2p-4
539=-0x1.5c2ca2e749f71p-3
540=-0x1.b526978454b96p-3
541=0x1.7acace6a1508dp-3
543=-0x1.65c9d5594ca02p-1
544=0x1.65750b09bf516p-3
545=0x1.7da2d49f30296p-7
546=-0x1.3006c2ba2473ap-5
547=0x1.902a555cce997p-5
548=-0x1.be8065efde1f1p-8
552=-0x1.472a7324bf99cp-4
553=0x1.317a07ab01956p-4
555=-0x1.7c2b66021931ap-6
556=0x1.7c684dd4e3972p-2
558=-0x1.20ee4af802cd1p-8
559=-0x1.cac0eede84ff7p-4
561=-0x1.5d00202e1aba4p-6
564=0x1.4d896f45f081cp-4
565=0x1.2cd7a6c875415p-4
566=-0x1.7d532a38e0754p-3
567=0x1.626c6d334efp-6
568=0x1.19cee6bfcd546p-2
570=-0x1.1f02f9c1d05e5p-5
571=-0x1.2a720ecf89bcp-3
572=-0x1.e0938cbf8749cp-6
573=0x1.55a3e10bc2bep-3
574=-0x1.01b811d4f98p-3
575=-0x1.0a5e8946e7eddp-5
576=0x1.4c656c09f9ce1p-3
577=0x1.c9a6f4d2d0693p-3
578=-0x1.70893eb7b9753p-3
579=-0x1.6f35319791144p-1
580=0x1.9917bacb0f553p-3
581=-0x1.f851821d1106fp-3
582=-0x1.6c8f56296121ep-3
585=0x1.1be6bcec84ab7p+0
586=-0x1.83c4aa51859d9p-3
588=0x1.8bcfb2665defbp-2
589=-0x1.0f772c44c5f5ep-2
591=0x1.326e198cf8eap-3
592=-0x1.7bf56ab9ba3d9p-5
594=-0x1.678157e6d9947p-1
595=0x1.601ba752cd832p-1
600=0x1.cd10d66d0abafp-2
601=-0x1.79a1bd6c9b603p-7
602=-0x1.2cbab6db67f2bp-1
606=-0x1.1188588b9a57ap-2
607=0x1.384b7daf911dcp-2
608=-0x1.68a451428f998p-5
609=-0x1.16dc5b96f0946p-4
610=0x1.07d3d2ea0c75fp-4
611=-0x1.390ea515fefeep-5
612=-0x1.0ba7a2d64051ep-4
613=0x1.70650312340b5p-2
615=-0x1.f5db348a47e2ap-5
618=0x1.6e24f42e93b78p-5
619=-0x1.fe8b62c17b99p-5
620=-0x1.4066b71b2865p-4
621=-0x1.22aa143f41a25p-4
622=-0x1.e82be0d184b62p-2
623=-0x1.e1c5559d41365p-6
624=-0x1.37fff382b7ed2p-2
625=0x1.f34fa8ee6f1eep-2
626=-0x1.ddec1b2ca9784p-7
627=0x1.b4de5736cc3bep-1
628=-0x1.90cb77dee5d6dp-3
630=0x1.6459fbe2730ccp-4
631=-0x1.0626d06092971p-6
632=-0x1.5e9c984241982p-7
633=0x1.7ccac078f140ep-1
634=-0x1.870137a630617p-5
636=0x1.0a7e45fd04bb9p-7
637=-0x1.0e3debdfaf329p-7
638=-0x1.e58cd782932a9p-4
642=-0x1.0dffd32e178dap-4
643=0x1.3276d7231ff9p-4
644=-0x1.f417149ff662bp-5
645=0x1.cd9c7450ca8b2p-4
646=0x1.79ebcda7ef5dp-4
647=-0x1.4fda2f8123f36p-4
648=-0x1.894aaf984487cp-3
649=0x1.0dc06e2c4c848p-3
650=0x1.72590f78c3fecp-4
651=0x1.cc15ff4b91a94p-3
652=-0x1.0498c531692e5p-3
653=-0x1.438f4ceebd081p-4
654=0x1.7f3f0b2c5c2ecp-6
655=0x1.aeb386af974d7p-5
656=-0x1.faaaad9043922p-4
657=0x1.c25910c3fc1f8p-4
658=-0x1.0fa62eff2f242p-2
659=0x1.512fe3c33ce09p-3
660=-0x1.4474100e4cc08p-3
661=0x1.3c3cd996b7443p-2
662=-0x1.a4a6a804ae23ep-4
664=-0x1.0dde52fb7409bp-3
665=-0x1.4098ff29ee77p-4
666=-0x1.2d94d704f52f1p-5
667=0x1.5244d5ba67327p-3
668=-0x1.464296cbb7362p-3
669=-0x1.059898c426c37p-6
670=-0x1.0377a3956d929p-4
671=0x1.bc52f96df6fd6p-3
672=-0x1.a97f2b633952ap-4
673=0x1.56167e8dcf769p-2
674=0x1.47f7a02e0dddbp-6
675=0x1.bc557fbe9fcdfp-4
676=-0x1.5327eab15467fp-3
677=-0x1.8837e82bc398fp-4
678=-0x1.75be0cf0e5547p-6
679=0x1.67980659e3f44p-8
681=0x1.bd9a306fd25b6p-2
682=-0x1.cd44b1756683cp-2
683=-0x1.114fe1056ddf8p-6
684=-0x1.8d092125315f9p-8
685=0x1.b0fa622cc584bp-8
687=-0x1.e5f4144176a0ep-5
688=0x1.fe111c2fed798p-2
689=-0x1.10b2fbd16b0b8p-1
690=0x1.01285512fbf8cp-8
693=0x1.05b13c218f3fp-3
694=-0x1.e01f01fabea0ep-5
700=0x1.53deab263d485p-5
702=0x1.0dee7d01f1ac5p-4
703=-0x1.9065628d2050bp-6
708=0x1.690234520af69p-2
709=-0x1.1e1dbda7d856fp-2
710=-0x1.a87028a750462p-5
711=-0x1.8a51bb42099b6p-3
712=-0x1.4b629162f6bb5p-1
713=0x1.833314bb06982p-11
714=0x1.f917eb2dbb764p-2
715=0x1.bad4cade84717p-4
716=-0x1.6e69551deb96cp-6
717=0x1.3975e4de0d8e6p-4
718=-0x1.2d7028ba1d951p-6
720=0x1.39c261ed268e7p-1
721=-0x1.2ceb7116a467ap-2
723=0x1.da05ae048f499p-7
724=-0x1.4511ce800b378p-8
726=-0x1.ca6b9fc74bd7dp-1
727=-0x1.18b9d8417b317p+0
728=0x1.7c1a11cc16dafp+1
729=-0x1.0851f15536574p-5
730=0x1.0ec0fb2ec59e8p-5
732=0x1.48bfc141646bbp-3
733=-0x1.ccfc0dffba43cp-3
735=0x1.accf5f86c314p-7
736=-0x1.ece47f0179484p-7
738=-0x1.ca6b9fc74bd7dp-1
739=-0x1.18b9d8417b317p+0
740=0x1.7c1a11cc16dafp+1
741=-0x1.ee31e6b0d4eefp-5
742=-0x1.bfac1237098f3p-4
743=0x1.9f2320e481a1p-1
744=-0x1.54e9e4e91f6a1p-1
745=-0x1.bde842853718ep-1
746=0x1.1847ebb3d0c31p+0
749=-0x1.2b6f69d4e0e91p-1
750=0x1.b2329b260cdcep-3
751=0x1.7940753158d4ep-7
753=-0x1.73a33bc060707p-6
754=-0x1.426e96dfd1dddp-2
755=0x1.ca31cd7332393p-4
756=0x1.82679bbaa78cap-4
757=0x1.03879aedd3058p-2
758=-0x1.d322e70406ccp-2
760=-0x1.f9abad5c528ep-5
761=-0x1.53a7ce737139p-6
762=0x1.d426100f64dacp-2
763=-0x1.91890f09fb623p-2
765=0x1.3db2dceed19e6p+1
766=-0x1.77087a16280f4p+1
768=0x1.fbafc8fd64521p-3
769=-0x1.d95bc9f8a7235p-3
771=-0x1.14787f982aa2ep-4
772=0x1.1e7aef0691a08p-4
774=0x1.ea51ad23f0876p-1
775=-0x1.9ce03051e79aep-1
776=-0x1.5b98783470f0bp-3
777=0x1.2227f93714401p-1
778=-0x1.a2e1150a791f2p-1
779=0x1.ea2f139285181p-3
780=-0x1.a3bab7fb4b444p+0
781=0x1.6b5b9a32445a4p-3
782=-0x1.c386002dc348p-1
783=0x1.3c34fc56208d6p+0
784=-0x1.f5adfaeec85aap-2
786=-0x1.711cf93847094p-4
787=0x1.2412a7083d46cp-2
788=-0x1.236df247c2094p-5
789=-0x1.523cb6d8d1d43p-1
790=0x1.67bfc5a4f38d9p-2
791=0x1.656fba58a9b3p-3
792=-0x1.378a3420f58fp-3
793=0x1.db68be36501dbp-7
794=-0x1.bf4e14169b142p-2
795=0x1.dbcfa3dc9b428p-2
796=-0x1.c1150de029801p-5
798=0x1.05d21b50d8243p-2
799=-0x1.ff36fd8b76ab4p-5
800=-0x1.9fec7b7291cd8p-4
801=0x1.c16b15abdcd8p-3
803=-0x1.16a453f26bac5p-2
805=0x1.05cfe0af4f596p-7
806=0x1.967b38f54496ap-11
810=0x1.36d3e3c8ec6fp-3
812=-0x1.12b0ccfb22b3dp-3
813=0x1.182dae78cd9c8p-3
814=-0x1.7ea4025ecea28p-3
815=-0x1.228d1b73da65bp-1
816=-0x1.90c516d5a703ap-2
817=0x1.0d09c1b14061dp-2
818=0x1.1291f69db13c2p-3
819=0x1.5690511c0265dp-2
820=-0x1.bf0e14f5754a6p-6
822=-0x1.85f520b7028cdp-1
823=0x1.a7daf9ab33fffp-1
824=-0x1.1a8ca2034f64bp-3
825=-0x1.1f49ba2d031cbp+0
826=0x1.0af4d27765b7fp+0
828=0x1.25a324e0305d3p-8
829=-0x1.05e1f5c74c8aep-8
831=-0x1.b23a71d33b961p-3
832=0x1.9af6e979386adp-3
834=-0x1.5395870023341p-4
835=0x1.49225a1bf3287p-4
837=0x1.34988e790c9e9p-6
838=-0x1.d27cc17b7ca17p-7
840=0x1.2b1d15b04b4c3p-2
841=-0x1.d24cedf47e4eep-3
843=-0x1.2b5748b14806cp-2
844=0x1.0b5d5576862d4p-1
845=-0x1.247c8405a954dp-4
846=-0x1.23a2cc5f7e697p-4
847=0x1.d13968dc491d1p-1
848=-0x1.08e1597b37034p+0
849=-0x1.70a14d87d1d91p-7
850=-0x1.6e2dba56073dap-8
851=0x1.8a07f6e572329p-3
855=-0x1.88608dbb9cd7dp-2
856=0x1.6dbf4ba99ec52p-2
858=-0x1.1b159762095bdp-1
859=-0x1.52c8404d51a48p-5
860=0x1.9333351ba6295p+0
861=0x1.28914dd0b34f2p-3
862=0x1.5fe49f277eac9p-2
863=-0x1.5ab0b7db8c738p+0
866=-0x1.3d3814a9f5a32p-4
867=0x1.8b4d8f6e9c512p-4
868=0x1.1ef2b4778798fp-7
870=-0x1.3d72c45533cp-17
871=0x1.45e703a18f618p-7
873=0x1.70845f00a00dfp-10
874=-0x1.59bbd529dca9cp-5
876=-0x1.a037c6ade0fc2p-2
877=0x1.7d69383aa768p-2
879=-0x1.73f15982472cep-6
880=0x1.08d7695b316f7p-6
882=-0x1.08118771f1564p-3
883=0x1.dd76bd74fc59cp-2
884=0x1.27ba1e395f13cp-3
885=0x1.6056ab9e5a4c6p-3
886=-0x1.c7fc79ac8461fp-3
887=-0x1.741be13612628p-4
888=-0x1.282ccf123c5f5p-4
891=-0x1.d3adb1cb751efp-4
892=0x1.e9400d6800608p-4
894=-0x1.8e8f5a913cbb8p-6
895=0x1.170325aab17b4p-3
896=-0x1.71fe7751db63ep-1
898=0x1.911f5c9f51abbp-5
899=0x1.397b3b1006a6bp-1
900=-0x1.4d7ded7a77d6ep-6
903=0x1.1977b1a4fa3e2p-2
904=-0x1.5e00b4ca98f29p-3
909=0x1.2a18858a8d8e9p-5
910=-0x1.adc7850a08e2bp-5
912=0x1.7a7309a421c21p-4
913=-0x1.4131c56521e6p-4
915=0x1.332ae718f1fd9p-3
916=-0x1.bd3c0d0d68736p-5
917=-0x1.be262c8ceba4p-8
918=0x1.18b0901c349e4p-2
919=-0x1.05062f3d03b2bp-3
920=0x1.09a44e5fb9093p-5
921=0x1.1c7e8e9919b61p-4
922=0x1.c0b5476a2ada1p-5
923=-0x1.48b767753ed43p-5
924=-0x1.5983d7715b7cep-5
926=-0x1.42b24390ae5fp-8
927=-0x1.2d35de626958bp-3
928=0x1.2d62ac173d5bcp-2
929=-0x1.b887c80dd325bp-5
930=-0x1.b63a512c7ae4fp-4
931=0x1.54e6ecadad3f6p-3
932=0x1.28e832c323b53p-5
933=-0x1.c5c50b7b45c48p-4
934=0x1.b785d49541a01p-6
935=-0x1.6dea7efd924fep-4
936=0x1.4a69b21beb28ap-4
937=-0x1.5d37695a48e2dp-5
939=0x1.362ddab46284cp-6
940=-0x1.c909ef2205bddp-8
942=-0x1.eb3ebff76b423p-3
943=0x1.5e2a34b9a538ap-2
944=-0x1.1d750bf158862p-6
945=0x1.2f6ca9fbd7995p-2
946=-0x1.14c9d63a92109p-2
948=-0x1.94c48cd232fbep-7
949=0x1.69a94d08aefebp-3
950=-0x1.65f547d2af6bbp-5
951=-0x1.503fc52ad163ep-3
952=0x1.44b2b451901b3p-1
953=-0x1.0d9ad5fc55068p-2
954=0x1.13aed3c12f487p-2
955=-0x1.239a96b5ce184p-4
956=0x1.c8b4e67016fb2p-3
958=-0x1.0b5a4b59ee0a5p-4
959=-0x1.46b672a59393dp-5
960=-0x1.ef074405467c2p-4
961=0x1.d9fee2f3531fap-4
963=-0x1.73f02ac4c0cafp-3
964=0x1.0f1f8fe5b8f94p-2
965=-0x1.2276a136af6fep-4
966=-0x1.99ada78d184d2p-6
967=0x1.43d0ff11a45cfp-5
969=0x1.56657ebd93b77p-4
970=-0x1.377af2ed10c19p-5
972=-0x1.0f3f7fc8ffaacp-6
973=0x1.b0aa2d4f67bb2p-5
975=-0x1.0b7d63c2f8dbdp-4
976=0x1.2e30b52e0bfc9p-6
978=0x1.2482db8f526acp-6
979=0x1.57e49349286e2p-3
980=-0x1.2c1a0652182e5p-6
981=-0x1.a09f4d5bbf8b4p-10
982=-0x1.0c7695cfb278dp-2
983=0x1.22d5b34398a62p-3
984=-0x1.232132fbec689p-4
986=-0x1.3a1e8b5b31aa1p-5
987=-0x1.3b515b0ec6a1p-7
988=0x1.79db1d9dbc68p-5
990=0x1.e20f0438afcf5p-3
991=-0x1.da7cb61e09416p-3
993=0x1.1b02a1ad55065p-2
994=-0x1.35a7e76dd0c34p-2
996=0x1.14f2b4bf8e183p-5
997=-0x1.5d4868448a363p-6
999=0x1.81cc5157601b4p-4
1000=-0x1.14592b747b987p-5
1002=-0x1.94da269ccb01fp-8
1003=0x1.8f92d2a806bf8p-6
1005=0x1.6c2289c067c11p-4
1006=-0x1.90780caca329p-6
1007=-0x1.274d784fc324p-3
1008=0x1.305265684ef53p-3
1009=-0x1.aa7b7270ae18ap-2
1010=0x1.251f106634dcp-6
1011=0x1.33ded77b0023dp-1
1012=0x1.29e1aa830c53fp-3
1013=-0x1.871f1fa111e4dp-4
1014=-0x1.184140cb69eeap-1
1015=-0x1.18742b3eb3f3ap-7
1017=-0x1.34198e7d7d996p-1
1018=0x1.3668e82e7efdep-1
1020=-0x1.b2770a7bef3a8p-6
1021=0x1.d502b6241713ap-5
1023=-0x1.7cb8dbac87a7ep-1
1024=0x1.7c0569f0f4f36p-1
1026=-0x1.bfabab63fd7a4p-9
1027=0x1.b9d54b71f92c1p-9
1029=0x1.1f0272895a328p-3
1030=-0x1.f836583da6dbfp-6
1032=0x1.9bbab679a4383p-2
1033=-0x1.d1548055097afp-5
1034=0x1.3469ae56ff1f9p+0
1035=0x1.3e45e13b8a529p-6
1036=0x1.fbf1ac843924p-7
1037=-0x1.82919f70cafdep-4
1038=-0x1.3e3c15b7a63fep-2
1040=-0x1.1436d42881e7ap-3
1041=0x1.41ee416665f24p-6
1042=-0x1.d60c5843ab996p-7
1044=-0x1.ec29ff832b686p-5
1045=0x1.159ff704ba40cp-4
1047=-0x1.ec2d1b634cdc4p-6
1048=0x1.877a271e7d91ap-5
1050=0x1.74b681e122cbfp-9
1051=-0x1.9724f24b52cbp-9
1053=0x1.dc349916e3e0ap-6
1054=-0x1.4baa01e7a459ap-6
1056=-0x1.0c9cfcd3155cp-5
1057=0x1.00ea72e7ee9c6p-4
1059=0x1.898765d5b9f85p-4
1060=-0x1.f853bdec23d3cp-5
1062=0x1.b4b2931ed1522p-10
1063=-0x1.45abfe0dae38ep-11
1065=-0x1.72b77872e61a7p-6
1066=0x1.d438cbe7f3fdp-8
1068=-0x1.935301b552c7bp-5
1069=0x1.3932d3af43b11p-6
1071=0x1.1da382b29b4c4p-1
1072=-0x1.535cceaf167d4p-2
1073=-0x1.b28b106037ce3p-4
1074=0x1.09c57f9116813p-1
1075=0x1.0234ca898ad9ep-4
1076=-0x1.775586f797772p-3
1077=-0x1.2ffd2aaf4b7dbp-5
1078=-0x1.4e318123dcf7ep-8
1080=0x1.a475521f34368p-7
1083=0x1.17db23b813c9dp-2
1084=-0x1.3693d93ef5b74p-3
1087=0x1.ac29897589469p-8
1089=-0x1.de02bf696b1dep-7
1090=0x1.6a34459d240cdp-8
1092=-0x1.2e41daa89709cp-4
1093=0x1.d1223f9a06408p-4
1095=0x1.108fd01957cb6p-5
1096=-0x1.ad0051ffb2f03p-6
1098=0x1.729dc25eea239p-3
1099=-0x1.ab882099e1aa4p-4
1101=0x1.63062c8667187p-1
1102=-0x1.5e3ad9df27bfcp-1
1104=0x1.2a0e6222dc8c1p-3
1105=-0x1.7eb8169175821p-4
1107=-0x1.651fb98863245p-3
1108=0x1.78d1be29f2301p-2
1110=0x1.f2e1a414e6205p-8
1111=-0x1.2d9ad6be5942dp-9
1113=0x1.a5ad347905e74p-5
1114=-0x1.5415267c4d2cep-5
1116=0x1.3203f607ffb5bp-5
1117=-0x1.cb22b86f6dd08p-6
1119=0x1.70f6abb5dbd84p-9
1120=-0x1.a74e46d15f421p-6
1122=0x1.df6fcf3f2f127p-5
1123=-0x1.55984a726118p-5
1125=-0x1.66b649b897725p-6
1126=0x1.b5705611e4965p-6
1128=-0x1.742351b81426dp-4
1129=0x1.8540982afa7d3p-3
1131=-0x1.59b2f6661cdd3p-4
1132=0x1.9ee22ac0d826p-6
1134=-0x1.fce9f13d1e378p-2
1135=0x1.d31a4a3ae9ac4p-2
1137=-0x1.8618044742bdp-7
1138=0x1.b1e69c9a1d1d3p-7
1140=-0x1.891d3f6efbf15p-5
1141=0x1.8bd3bf8aa31fbp-4
1149=0x1.8dacc5d19d0cdp-6
1150=-0x1.244795aacd371p-7
1152=0x1.3b596bc1003cfp-7
1155=0x1.54f9a33455b76p-2
1156=-0x1.8f9cfab7c25c7p-3
1158=0x1.0bbda6908f714p-7
1159=-0x1.d07133e36a3acp-8
1161=0x1.b831a6eea719ap-1
1162=-0x1.8e2f494707c8cp-1
1164=0x1.5e3aa64dff5cep-5
1165=-0x1.d4b816eaf4abp-5
1167=-0x1.1158f386b4d9cp-5
1168=0x1.661b187a9d862p-5
1170=-0x1.f8f9074a508fep-6
1171=0x1.09f3546023b54p-4
1173=-0x1.1e578d6fc703dp-2
1174=0x1.2fc7970d21884p-2
1176=-0x1.6ab8ccb9cea96p-3
1177=0x1.8da274f9ff18dp-2
1179=-0x1.75ecd35c982ep-3
1180=0x1.fae2274ca6b4fp-3
1182=0x1.beb926f48cdddp-4
1183=-0x1.4c2444e5e943bp-4
1185=0x1.c235c96aa5b44p-5
1186=0x1.fbd955017457cp-7
1187=-0x1.d3090cbdf9eaep-4
1188=-0x1.b5bbb57304a38p-2
1189=0x1.e10c8110d4057p-2
1191=-0x1.1fdd1847062bcp-4
1192=0x1.72fb687ce110ep-3
1193=-0x1.4d040a40c920dp-5
1194=0x1.60e48dc81c8eep+0
1195=-0x1.1132d0215b775p+0
1196=-0x1.12dbcfc5a2fe6p-1
1197=0x1.2de77d392b3ap-4
1198=-0x1.2bba5f7939063p-5
1199=-0x1.52261709e4998p-6
1200=0x1.59b6b5c98a68ep+1
1201=-0x1.a1e3a09645a06p+0
1202=-0x1.e99a2a3240283p-3
1203=-0x1.12ffe527443abp-1
1206=-0x1.e2950f0a32cccp-1
1207=0x1.fb16e3646e28ep-1
1209=-0x1.080c99c675674p+1
1210=0x1.f9605a2643021p+0
1212=-0x1.ffde66727303dp-4
1213=0x1.7b86396b5901ap-3
1215=0x1.b7ee22da3e5a8p-3
1216=-0x1.aec5abf5d60a2p-3
1218=-0x1.08bde6a52fe62p-6
1219=0x1.0b18ed139c8a1p-6
1225=0x1.0039d132fc46fp-8
1227=-0x1.cf9e8ff9bbf02p-1
1228=0x1.d1a03193320bp-1
1236=0x1.8b1629fa5a72bp-3
1237=-0x1.7e6b86ebc87b6p-7
1239=-0x1.32f1c645783dfp-5
1240=0x1.3dbf50350ba74p-5
1242=0x1.8db0e612318ccp+0
1243=-0x1.7c45277c48237p+0
1245=-0x1.964c7d371c21cp-4
1246=0x1.a9f6d8df64b73p-4
1248=-0x1.1cec9b176e674p-5
1249=0x1.10cabc25d8b1ep-5
1251=-0x1.40af45b8f1d9fp-4
1252=0x1.3089bb34be964p-6
1254=-0x1.0e491142c104p-9
1255=0x1.646b9ce821fc3p-6
1257=-0x1.271e830b66e82p-5
1258=0x1.73cb3d11710a3p-5
1260=0x1.952586895d99ap-7
1261=0x1.25bc9a5e136a8p-6
1263=0x1.215c20d9c0948p-1
1264=-0x1.eb9605a826b2p-3
1265=-0x1.be93df16b6f92p-4
1266=0x1.1beff6a7ec002p-1
1267=-0x1.e984d2f41b883p-2
1270=-0x1.af9e5802e1c47p-6
1278=-0x1.d0810ffff6b9bp-3
1279=0x1.c7898419f505bp-3
1282=0x1.2b7c7fd33db4ep-10
1284=0x1.5f0ba943009b6p-6
1285=-0x1.cdc68ba004e0ap-6
1287=0x1.68f72442357dbp-2
1288=-0x1.401d369ee74ep-2
1290=-0x1.a2016545246ep-7
1291=0x1.368a2443477f7p-6
1293=-0x1.65c57ea06d63ep-2
1294=0x1.bf097abd1dcb8p-2
1296=-0x1.04c7d9e6fafd3p-5
1297=0x1.00e2b88171bd3p-5
1299=-0x1.d711063f57f05p-2
1300=0x1.05ddd2d2005e3p-1
1302=-0x1.68db6eed6dc9bp-1
1303=0x1.6601fd2d9a197p-1
1305=-0x1.b92d73351fa58p-3
1306=0x1.f898f2f166dd4p-3
1308=-0x1.900de73a36e24p-5
1309=0x1.9f814e0fed90cp-4
1311=0x1.aab1fd0931cc9p-5
1312=-0x1.1a6888f1ddp-4
1314=-0x1.da71b40a99149p-3
1315=0x1.57860102c3f78p-3
1317=0x1.b845b987d9dbcp-9
1318=-0x1.70319a48c4c8cp-8
1320=0x1.a836483182001p-4
1321=-0x1.96835bd24ce27p-4
1323=0x1.5490b8a9706e4p-6
1324=-0x1.c15bd1070e1a8p-5
1326=0x1.771c81ee97482p-10
1327=-0x1.c35567620b0e6p-10
1329=-0x1.7fe772c0161cp-5
1330=0x1.82beb01e45fa3p-4
1332=-0x1.c6c4eb582828bp-1
1333=0x1.e7102dde7281ep-1
1335=-0x1.a8d439782ab7ep-4
1336=0x1.6d4379a249eafp-4
1353=-0x1.13a95dfe1607ep-11
1354=0x1.57cb14e0ffa71p-8
1362=0x1.8c6d93bacbcfdp-6
1363=-0x1.a155d4014bb4ep-6
1368=-0x1.de002e56e12b9p-7
1369=0x1.6424a8322669cp-7
1371=-0x1.d4c73c40d737ep-5
1372=0x1.afec0c726911ep-5
1377=-0x1.182351a950b4ep-3
1378=0x1.4c26648a8d9e9p-3
1389=0x1.94023f612c6dbp-3
1390=-0x1.e53fc0e50a0d7p-3
1425=-0x1.ce2f9b3f94b93p-3
1426=0x1.26c1140fb60e7p-2
1428=0x1.9ec08cea3b8aep-4
1429=-0x1.85babd5105f7ep-4
1431=-0x1.83d495c4a2f34p-9
1432=0x1.cd5c66df19779p-4
1434=0x1.e146f6db7a212p-1
1435=-0x1.c6fccdaa289c4p-3
1436=-0x1.bc74c6560100dp-1
1437=0x1.1dc919acacbffp+0
1438=-0x1.42d5d7c71b06ep-2
1439=-0x1.bedb34a6e8c2p-1
1440=0x1.2f76a519a80cep-5
1441=-0x1.28160e5c99305p-3
1443=0x1.fdf93e600be31p-1
1444=-0x1.f0f6c00b397dap-3
1445=-0x1.b8a7a26174a03p-1
1449=0x1.1c3ea93c0445fp+1
1450=-0x1.196c441c0ac22p+1
1452=-0x1.0347d75ec6a48p-1
1453=0x1.0e54361f24d2ep-1
1455=-0x1.6d00669487027p-2
1456=0x1.a8ace44ebb462p-2
1462=-0x1.6d854ddc00918p-10
1464=0x1.0ecb07e23bc94p-5
1465=-0x1.fcfcb9f8dd6b9p-6
1467=-0x1.80d61c88f1722p-5
1468=0x1.c153bc6dd1a83p-5
1470=-0x1.5cc19ba9f0d94p-9
1471=0x1.1e600b1351818p-7
1479=0x1.069839d808aedp-7
1480=-0x1.6697237940346p-7
1482=0x1.e3b0b8c276403p-14
1483=-0x1.da2d2959219bdp-14
1503=0x1.2f3f8edc93e38p+1
1504=-0x1.2ce0290c254eep+1
1506=-0x1.072fa0c5dcacap-4
1507=0x1.4707105601234p-7
1510=0x1.b7190cb6dadep-13
1518=-0x1.bd8b308f7d244p-3
1519=0x1.0e6202eef58f1p-1
1521=0x1.9106064147529p+0
1522=-0x1.7314d061c7c4ap+0
1524=0x1.2d0d8f13f866ep+1
1525=-0x1.17ca82e90143dp+1
1527=0x1.9a2550f36b77cp-3
1528=-0x1.2e62a7f5b9234p-2
1530=0x1.cac5e1e57b499p+0
1531=-0x1.7e6a3e3bc001fp-1
1536=0x1.4631b25d75d8ap-7
1537=-0x1.026049123e709p-6
1548=-0x1.96a257cb98d72p-5
1549=0x1.6774f5fc7fd64p-5
1563=-0x1.48f46e7d11ab2p-4
1564=0x1.6383d0994a1d3p-4
1576=0x1.8868f62643762p-11
1578=0x1.c9dea4b2a8a29p-4
1579=-0x1.a5148096db666p-4
1593=-0x1.5b9a24b555714p-6
1594=0x1.c3c8ed95cbefap-6
1611=0x1.318c2021fade2p-4
1612=-0x1.266606e98db3dp-5
1620=-0x1.32a07a6ca165p+0
1621=0x1.360507315b16ep+0
1629=0x1.02803783991cp-7
1630=-0x1.b0fc989fe6aa2p-8
1635=-0x1.96d79c96b7f37p-2
1636=0x1.b52801dc1f4fp-2
1641=-0x1.9fa6ccd6eda9fp-2
1642=0x1.43479817ece5fp-1
1643=-0x1.6dfbb7a9c6ac5p-2
1644=0x1.559b9c22b109ep-3
1645=-0x1.bf6e03726afacp-1
1646=-0x1.27de40812683ep-3
1647=-0x1.c7ae0932932ffp+1
1648=0x1.bda893d266918p+0
1649=-0x1.0adbf58d63908p-5
1650=0x1.925b2f5b337e2p-7
1651=-0x1.15f283aeeb102p-9
1653=-0x1.4c4716ec0e826p-2
1654=0x1.834e9cc1bb228p-2
1662=0x1.d62de6cb41a61p-6
1663=-0x1.096178513cf9cp-4
1665=0x1.af04a74ce490fp-6
1666=-0x1.afa1c218bc121p-6
1677=-0x1.80675cbfc0911p-6
1678=0x1.a2393fcf5d7f9p-5
1683=-0x1.9c2fc746d6969p-2
1684=0x1.26625c19844dfp-1
1692=-0x1.405a27258d606p-5
1693=0x1.658e4b8b2cd78p-4
1701=-0x1.cf1b9a2fa5d45p-5
1702=0x1.41ebc617e9411p-4
1713=0x1.04ac68a1419ap-8
1714=-0x1.2ec59b0e728b2p-5
1716=-0x1.65089fedab095p-6
1717=0x1.c1878479c11bfp-6
1728=0x1.5c1479076d708p-7
1729=-0x1.2b20bc9f65e94p-6
1731=0x1.c198fb2643779p-5
1732=-0x1.609ce63d73976p-5
1734=0x1.cae25df10a65fp-8
1735=-0x1.a6cd391ac0617p-8
1740=-0x1.e0e741f108486p-2
1741=0x1.1092f869fe30bp-1
1755=0x1.56028052bbdf2p-5
1756=-0x1.2edc032a01fdap-5
1758=-0x1.76cd0a4c335b2p-3
1759=0x1.8793372ad854p-3
1782=-0x1.713ed400e90bp-5
1783=0x1.acf6be1337f59p-5
1797=-0x1.93092e4bcff8p-14
1798=0x1.49549bd3c772cp-8
1800=-0x1.82acc0da80896p-5
1801=0x1.f5a432b0266b9p-5
1809=-0x1.2fff604ed730bp-5
1810=0x1.91ee064029fb4p-5
1818=-0x1.ca8d942db6a14p-5
1819=0x1.52b0561b42561p-3
1830=0x1.80def9438842ap-7
1842=-0x1.cfa326177a917p-7
1851=-0x1.44ed65f13ad99p-2
1852=0x1.19cd95ec6e165p-1
1863=-0x1.bdd3fc1c64dfdp-2
1864=0x1.f4da9e4b6b9cfp-2
1872=-0x1.c728181d4f9d2p-3
1873=0x1.1eea08c4773dbp-2
1878=0x1.b9a83f0659cc4p-3
1879=-0x1.84cca4663f4b6p-3
1884=-0x1.22e2192a31da8p-9
1885=0x1.22f50dd032a8dp-9
1887=-0x1.f396a80205bdcp-5
1888=0x1.6189def41cdcp-5
1890=-0x1.e013bc704c5d2p-2
1891=0x1.392559924dc91p-1
1896=0x1.4c1ad78dd6e16p-2
1897=-0x1.42a27e3f11a51p-2
1908=-0x1.c1561ee6a8b45p-4
1909=0x1.ffb51faa2c28fp-4
1911=0x1.a32b3f28dd11ep-4
1912=-0x1.093b0baaf0942p-4
1914=-0x1.6a82b762b8672p-6
1915=0x1.2dfe1f4b09be8p-5
1917=-0x1.11c28e6e4f2fp-1
1918=0x1.3475ec14734d3p-1
1926=-0x1.59eba3740438dp+0
1927=0x1.752d89cff68a2p+0
1929=0x1.7ea4df6c8a945p-6
1930=-0x1.09714366e1f84p-5
1932=-0x1.77f8500d643b1p-1
1933=0x1.9b0cf4909c3e6p-1
1935=-0x1.4bfe726e492b4p-4
1936=0x1.71084c20fdccdp-4
1938=-0x1.15aef9ab40316p-2
1939=0x1.212c8ca907266p-2
1947=0x1.6aa0fc53024bcp-3
1948=-0x1.bfdb972433a67p-3
1968=-0x1.2177e49423673p-5
1969=0x1.4b133e47a3d1ep-5
1977=0x1.54e6b34a3a5a7p-4
1978=-0x1.8c4b2fecbd83fp-6
1980=0x1.705e7d8b40159p-5
1981=-0x1.6430b55ad3509p-5
1989=-0x1.b802f7ba2a386p-1
1990=0x1.cf391154c2ca3p-1
1992=-0x1.b2dfb794eb1ccp-2
1993=0x1.ca975d8924f96p-2
2034=0x1.46ac4cb90328ep-1
2035=-0x1.28569bc333efep-1
2037=0x1.bd49cbb0539d1p-3
2038=-0x1.c79b7b2a9f359p-3
2040=-0x1.8339ad8695a12p-4
2041=0x1.c247b6ebfcd8p-2
2042=-0x1.dd4e00ecead86p-5
2043=-0x1.cdd2c2fccf6ep-14
2044=0x1.cc2ebdff775b1p-7
2046=0x1.0aa2b1a4cb0edp-1
2047=-0x1.eb9b99a37a277p-2
2049=0x1.33e88e85a6db5p-4
2050=-0x1.9e41696816e64p-5
2052=-0x1.ecf8d36b20fbfp-4
2053=0x1.455de155d086ap-3
2055=0x1.23d002ba3055fp-5
2056=-0x1.0e909754d8b88p-5
2058=0x1.d1065807c654fp-2
2059=-0x1.adc4319c0b3bcp-2
2061=-0x1.98a332beb4126p-6
2062=0x1.4650701080106p-5
2064=-0x1.d14d2b7891a0dp-5
2065=0x1.512389c457696p-4
2067=-0x1.eb0677457e896p-6
2068=0x1.9e189ad29ceap-5
2070=-0x1.9c4db85d70c6ep-4
2071=0x1.3777947188e3fp-3
2074=-0x1.5cfddc561d7c1p-10
2076=0x1.74e652c3f336bp-2
2077=-0x1.3824e8dd2702ap-2
2079=0x1.03a8e1a3a0a22p+1
2080=-0x1.fd8892a827ec8p+0
2103=0x1.c3d9db1cea282p-15
2104=-0x1.e2e7bd5fcbd35p-15
2109=-0x1.11511d03b4f98p-5
2110=0x1.de4aaba9d6939p-4
2112=0x1.8209873ae82cfp-2
2113=-0x1.977134c24283p-3
2115=0x1.2494653022e1dp+0
2116=-0x1.a4fe1708181c7p-1
2133=-0x1.1905375887224p-5
2134=0x1.d68c06fa8637bp-5
2136=-0x1.72159aa78b053p-2
2137=0x1.7275f1253baf2p-2
2139=0x1.35fb3d11efdbcp-4
2140=-0x1.2280ef14bc0c5p-5
2160=0x1.81287809c0b52p-4
2161=-0x1.abd4d83059691p-5
2167=0x1.abbf63227ffe1p-9
2169=0x1.4915f1bfc7d64p-2
2170=-0x1.34a7ad612efb2p-2
2172=0x1.5b4bf0fe88a94p-1
2173=-0x1.56faa612a6bb7p-1
2178=0x1.6f1128e931abap-2
2179=-0x1.4ec09274faaa7p-2
2211=-0x1.2fea9543cb8d1p-11
2212=0x1.b602f10e608e5p-9
2214=-0x1.071e661f64336p-5
2215=0x1.78a9528fc597p-5
2217=-0x1.494e84445911ep-5
2218=0x1.258ce1d1b4c3bp-4
2223=0x1.fca8eb2f4a39bp-3
2224=-0x1.23702baecbcb8p-2
2226=0x1.ad07e35c6c6fep-2
2227=-0x1.af7d99de99108p-2
2232=-0x1.94dee76b14353p-7
2233=0x1.fba8275173016p-7
2250=-0x1.c204e71908646p+0
2251=0x1.e2978971cf6dap-1
2253=-0x1.00aab2eee2102p+1
2254=0x1.ab110ba633edfp+0
2256=-0x1.45420907ee568p-1
2257=0x1.6525430a3a828p-1
2259=-0x1.8b771fa994df4p+0
2260=0x1.c0d6180d5aacep+0
2262=0x1.924d6d5bd7db3p-3
2263=-0x1.b53721a1f9c4p-3
2265=0x1.31a44dcf3b26fp-3
2266=-0x1.1f09b18c6718fp-3
2268=0x1.ba344af6f8a28p-3
2269=-0x1.bd40e232d549dp-3
2271=0x1.95f1aef5aaf9dp-5
2272=-0x1.bda7ad8914853p-5
2274=0x1.d717a98e93f75p-5
2275=-0x1.95cd83308868ep-5
2277=-0x1.170d6d55eb592p-3
2278=0x1.4f17fc34de81ep-3
2280=0x1.bebbbedfd84d8p-4
2281=-0x1.4037dc6a3b133p-4
2283=0x1.754f69d4cf0b9p+0
2284=-0x1.66033096502b2p+0
2286=-0x1.1d62034bb8f77p-1
2287=0x1.4240ba28497b9p-1
2289=-0x1.61cc946e3b63bp-7
2290=0x1.309eeb7564b8fp-6
2304=0x1.e5166fb9b86dcp+0
2305=-0x1.e407dcce22071p+0
2313=0x1.2c96ecc17ab6p-4
2314=-0x1.2d8f94610a032p-4
2319=0x1.178c10f1d304cp-4
2320=-0x1.d72fb822325e7p-5
2322=0x1.17d67e8fb5b1p-4
2323=-0x1.fd6d602ac7ed6p-5
2337=0x1.4a96fb666e004p-4
2338=-0x1.42939668c4853p-5
2340=0x1.c4385a11b46fap-1
2341=-0x1.a4d202501611bp-1
2343=0x1.4076744b22e59p-6
2344=-0x1.2b1aa520f9015p-5
2346=0x1.f94abb6b750d5p-6
2347=-0x1.1aa21340ebbfep-6
2349=0x1.cdc0ad060ef22p-1
2350=-0x1.ada468ae42b2dp-1
2352=-0x1.28c8dd61f3ddep-3
2353=0x1.72163dabae806p-3
2364=0x1.25ea1d9a37fe5p-1
2365=-0x1.228c92c6cb57dp-1
2367=0x1.25ea1d9a37fe5p-1
2368=-0x1.228c92c6cb57dp-1
2373=0x1.269e3aa32431fp-1
2374=-0x1.22464f21ce51p-1
2394=0x1.0825aee5ab188p-4
2395=-0x1.c598ce68691dp-5
2397=0x1.2775f2d43006dp-8
2398=-0x1.7e14e30f656b6p-8
2400=-0x1.bb0658d83e1e5p-5
2401=0x1.38c16ae3c47a4p-2
2403=0x1.30a60065a99ccp-4
2404=-0x1.1aed2b310caccp-4
2409=-0x1.10342a7d0c98fp-2
2410=0x1.481ca864a5d98p-2
2415=0x1.56316f16c0a83p-2
2416=-0x1.4426dd7c861e3p-2
2430=-0x1.385175c348bcap-6
2431=0x1.479aa0f702e3p-5
2439=0x1.4fdc0ea33e32p-1
2440=-0x1.455ad8d24ff1fp-1
2442=0x1.31f9f8605e12ep+0
2443=-0x1.5939f26e6138dp+0
2460=0x1.0bb9aa1aaf44fp-3
2461=-0x1.f029ea8206269p-4
2478=0x1.164b8977b8616p-8
2479=-0x1.89051aa562b1ap-9
2481=0x1.6db8029fb1e99p+0
2482=-0x1.f3b50588eaa12p-1
2483=-0x1.0c8552f90ccd2p-8
2484=0x1.9301ef0f733c7p+1
2485=-0x1.89380ce042806p+1
2487=-0x1.053312c89e284p-1
2488=0x1.04fd2efe3f22fp-1
2490=-0x1.280a8f7e5664dp-2
2491=0x1.1bd17c43fa1cp-2
2517=0x1.104527312f36fp+1
2518=-0x1.0d9fe18497d0fp+1
2520=-0x1.137a413518a0dp-2
2521=0x1.15fd9de64d77fp-2
2523=-0x1.0caa79510f11ep-5
2524=0x1.2088c8664ddbp-5
2637=0x1.e86206bb89c9ap-8
2638=-0x1.d3b219d378c7ep-8
2640=0x1.351679c3f0acdp-5
2641=-0x1.27ffd0c86e149p-5
