#mdl#2#1438
#rdr#18/10/0
1:b,
21:u:code-1LLL =%X[-3,0],
21:u:code-1LL  =%X[-2,0],
21:u:code-1L   =%X[-1,0],
20:u:code-1X   =%X[0,0],
20:u:code-1R   =%X[1,0],
20:u:code-1RR  =%X[2,0],
20:u:code-1RRR =%X[3,0],
13:*100:%x[ 0,1],
13:*100:%x[ 0,2],
13:*100:%x[ 0,3],
13:*100:%x[ 0,4],
13:*100:%x[ 0,5],
13:*100:%x[ 0,6],
13:*100:%x[ 0,7],
13:*100:%x[ 0,8],
13:*100:%x[ 0,9],
14:*100:%x[ 0,10],
#qrk#3
1:T,
1:I,
1:O,
#qrk#759
1:b,
17:u:code-1LLL =_x-3,
17:u:code-1LL  =_x-2,
17:u:code-1L   =_x-1,
17:u:code-1X   =1575,
17:u:code-1R   =1608,
17:u:code-1RR  =1604,
17:u:code-1RRR =1740,
7:*100:Lo,
9:*100:28:T,
8:*100:9:T,
8:*100:8:T,
9:*100:14:F,
9:*100:24:F,
9:*100:16:F,
9:*100:25:F,
9:*100:17:F,
9:*100:27:F,
17:u:code-1LLL =_x-2,
17:u:code-1LL  =_x-1,
17:u:code-1L   =1575,
17:u:code-1X   =1608,
17:u:code-1R   =1604,
17:u:code-1RR  =1740,
17:u:code-1RRR =1606,
9:*100:16:T,
9:*100:24:T,
9:*100:10:F,
9:*100:21:F,
9:*100:19:F,
9:*100:22:F,
8:*100:7:F,
9:*100:11:F,
8:*100:1:F,
17:u:code-1LLL =_x-1,
17:u:code-1LL  =1575,
17:u:code-1L   =1608,
17:u:code-1X   =1604,
17:u:code-1R   =1740,
17:u:code-1RR  =1606,
15:u:code-1RRR =32,
8:*100:2:T,
8:*100:7:T,
9:*100:29:T,
8:*100:6:T,
8:*100:3:F,
9:*100:26:F,
17:u:code-1LLL =1575,
17:u:code-1LL  =1608,
17:u:code-1L   =1604,
17:u:code-1X   =1740,
17:u:code-1R   =1606,
15:u:code-1RR  =32,
17:u:code-1RRR =1587,
9:*100:22:T,
9:*100:23:F,
8:*100:5:F,
8:*100:6:F,
17:u:code-1LLL =1608,
17:u:code-1LL  =1604,
17:u:code-1L   =1740,
17:u:code-1X   =1606,
15:u:code-1R   =32,
17:u:code-1RR  =1587,
9:*100:13:F,
9:*100:15:F,
8:*100:9:F,
9:*100:28:F,
8:*100:2:F,
9:*100:12:F,
17:u:code-1LLL =1604,
17:u:code-1LL  =1740,
17:u:code-1L   =1606,
15:u:code-1X   =32,
17:u:code-1R   =1587,
17:u:code-1RRR =1575,
7:*100:Zs,
9:*100:18:F,
8:*100:0:F,
9:*100:29:F,
17:u:code-1LLL =1740,
17:u:code-1LL  =1606,
15:u:code-1L   =32,
17:u:code-1X   =1587,
17:u:code-1RR  =1575,
17:u:code-1RRR =1585,
9:*100:14:T,
17:u:code-1LLL =1606,
15:u:code-1LL  =32,
17:u:code-1L   =1587,
17:u:code-1R   =1575,
17:u:code-1RR  =1585,
17:u:code-1RRR =1607,
8:*100:1:T,
8:*100:0:T,
15:u:code-1LLL =32,
17:u:code-1LL  =1587,
17:u:code-1R   =1585,
17:u:code-1RR  =1607,
9:*100:19:T,
17:u:code-1LLL =1587,
17:u:code-1X   =1585,
17:u:code-1R   =1607,
17:u:code-1RRR =1582,
9:*100:10:T,
9:*100:20:F,
17:u:code-1L   =1585,
17:u:code-1X   =1607,
17:u:code-1RR  =1582,
9:*100:27:T,
8:*100:4:F,
17:u:code-1LL  =1585,
17:u:code-1L   =1607,
17:u:code-1R   =1582,
9:*100:23:T,
8:*100:5:T,
17:u:code-1LLL =1585,
17:u:code-1LL  =1607,
17:u:code-1X   =1582,
17:u:code-1RRR =1580,
17:u:code-1LLL =1607,
17:u:code-1L   =1582,
17:u:code-1RR  =1580,
9:*100:25:T,
17:u:code-1LL  =1582,
17:u:code-1R   =1580,
17:u:code-1LLL =1582,
17:u:code-1X   =1580,
17:u:code-1RRR =1586,
17:u:code-1L   =1580,
17:u:code-1RR  =1586,
17:u:code-1LL  =1580,
17:u:code-1R   =1586,
17:u:code-1RRR =1605,
17:u:code-1LLL =1580,
17:u:code-1X   =1586,
17:u:code-1RR  =1605,
9:*100:11:T,
9:*100:20:T,
8:*100:8:F,
17:u:code-1L   =1586,
17:u:code-1R   =1605,
17:u:code-1RRR =1592,
9:*100:13:T,
8:*100:3:T,
17:u:code-1LL  =1586,
17:u:code-1X   =1605,
17:u:code-1RR  =1592,
17:u:code-1RRR =1608,
17:u:code-1LLL =1586,
17:u:code-1L   =1605,
17:u:code-1R   =1592,
17:u:code-1RR  =1608,
9:*100:18:T,
17:u:code-1LL  =1605,
17:u:code-1X   =1592,
9:*100:26:T,
9:*100:12:T,
17:u:code-1LLL =1605,
17:u:code-1L   =1592,
17:u:code-1LL  =1592,
17:u:code-1RRR =1588,
17:u:code-1LLL =1592,
17:u:code-1RR  =1588,
9:*100:17:T,
17:u:code-1R   =1588,
17:u:code-1X   =1588,
17:u:code-1L   =1588,
8:*100:4:T,
17:u:code-1LL  =1588,
17:u:code-1RRR =1583,
9:*100:21:T,
17:u:code-1LLL =1588,
17:u:code-1RR  =1583,
17:u:code-1R   =1583,
17:u:code-1X   =1583,
17:u:code-1L   =1583,
9:*100:15:T,
17:u:code-1LL  =1583,
17:u:code-1LLL =1583,
15:u:code-1RRR =46,
15:u:code-1RR  =46,
15:u:code-1R   =46,
15:u:code-1X   =46,
7:*100:Po,
15:u:code-1L   =46,
15:u:code-1LL  =46,
15:u:code-1LLL =46,
17:u:code-1RRR =1711,
17:u:code-1RR  =1711,
17:u:code-1RRR =1578,
17:u:code-1R   =1711,
17:u:code-1RR  =1578,
17:u:code-1X   =1711,
17:u:code-1R   =1578,
17:u:code-1L   =1711,
17:u:code-1X   =1578,
15:u:code-1RRR =45,
17:u:code-1LL  =1711,
17:u:code-1L   =1578,
15:u:code-1RR  =45,
17:u:code-1LLL =1711,
17:u:code-1LL  =1578,
15:u:code-1R   =45,
17:u:code-1LLL =1578,
15:u:code-1X   =45,
17:u:code-1RRR =1576,
7:*100:Pd,
15:u:code-1L   =45,
17:u:code-1RR  =1576,
15:u:code-1LL  =45,
17:u:code-1R   =1576,
15:u:code-1LLL =45,
17:u:code-1X   =1576,
17:u:code-1L   =1576,
17:u:code-1LL  =1576,
17:u:code-1LLL =1576,
17:u:code-1RRR =1604,
17:u:code-1RRR =8204,
17:u:code-1RR  =8204,
17:u:code-1R   =8204,
17:u:code-1X   =8204,
7:*100:Cf,
17:u:code-1L   =8204,
17:u:code-1LL  =8204,
17:u:code-1LLL =8204,
17:u:code-1RRR =1705,
17:u:code-1RR  =1705,
17:u:code-1R   =1705,
17:u:code-1X   =1705,
17:u:code-1L   =1705,
17:u:code-1LL  =1705,
17:u:code-1LLL =1705,
17:u:code-1RRR =1591,
17:u:code-1RR  =1591,
17:u:code-1R   =1591,
17:u:code-1X   =1591,
17:u:code-1L   =1591,
17:u:code-1LL  =1591,
17:u:code-1LLL =1591,
17:u:code-1RRR =1548,
17:u:code-1RR  =1548,
17:u:code-1R   =1548,
17:u:code-1X   =1548,
17:u:code-1L   =1548,
17:u:code-1LL  =1548,
17:u:code-1LLL =1548,
17:u:code-1RRR =1601,
17:u:code-1RR  =1601,
17:u:code-1R   =1601,
17:u:code-1X   =1601,
17:u:code-1L   =1601,
17:u:code-1LL  =1601,
17:u:code-1LLL =1601,
17:u:code-1RRR =1602,
17:u:code-1RR  =1602,
17:u:code-1RRR =1593,
17:u:code-1R   =1602,
17:u:code-1RR  =1593,
17:u:code-1X   =1602,
17:u:code-1R   =1593,
17:u:code-1RRR =1611,
17:u:code-1L   =1602,
17:u:code-1X   =1593,
17:u:code-1RR  =1611,
17:u:code-1LL  =1602,
17:u:code-1L   =1593,
17:u:code-1R   =1611,
17:u:code-1LLL =1602,
17:u:code-1LL  =1593,
17:u:code-1X   =1611,
7:*100:Mn,
17:u:code-1LLL =1593,
17:u:code-1L   =1611,
17:u:code-1LL  =1611,
17:u:code-1LLL =1611,
17:u:code-1RRR =1579,
17:u:code-1RR  =1579,
17:u:code-1R   =1579,
17:u:code-1X   =1579,
17:u:code-1L   =1579,
17:u:code-1LL  =1579,
17:u:code-1LLL =1579,
17:u:code-1RRR =1570,
17:u:code-1RR  =1570,
17:u:code-1R   =1570,
17:u:code-1X   =1570,
17:u:code-1L   =1570,
17:u:code-1LL  =1570,
17:u:code-1LLL =1570,
17:u:code-1RRR =1584,
17:u:code-1RR  =1584,
17:u:code-1R   =1584,
17:u:code-1X   =1584,
17:u:code-1L   =1584,
17:u:code-1LL  =1584,
17:u:code-1LLL =1584,
17:u:code-1RRR =1670,
17:u:code-1RR  =1670,
17:u:code-1R   =1670,
17:u:code-1X   =1670,
17:u:code-1L   =1670,
17:u:code-1LL  =1670,
17:u:code-1LLL =1670,
17:u:code-1RRR =1589,
17:u:code-1RR  =1589,
17:u:code-1R   =1589,
17:u:code-1X   =1589,
17:u:code-1L   =1589,
17:u:code-1LL  =1589,
17:u:code-1LLL =1589,
17:u:code-1RRR =1581,
17:u:code-1RR  =1581,
17:u:code-1R   =1581,
17:u:code-1X   =1581,
17:u:code-1L   =1581,
17:u:code-1LL  =1581,
17:u:code-1LLL =1581,
17:u:code-1RRR =1662,
17:u:code-1RR  =1662,
17:u:code-1RRR =1688,
17:u:code-1R   =1662,
17:u:code-1RR  =1688,
17:u:code-1X   =1662,
17:u:code-1R   =1688,
17:u:code-1L   =1662,
17:u:code-1X   =1688,
17:u:code-1LL  =1662,
17:u:code-1L   =1688,
17:u:code-1LLL =1662,
17:u:code-1LL  =1688,
17:u:code-1LLL =1688,
17:u:code-1RRR =1590,
17:u:code-1RR  =1590,
17:u:code-1R   =1590,
17:u:code-1X   =1590,
17:u:code-1L   =1590,
17:u:code-1LL  =1590,
17:u:code-1LLL =1590,
15:u:code-1RRR =58,
15:u:code-1RR  =58,
15:u:code-1R   =58,
15:u:code-1X   =58,
15:u:code-1L   =58,
15:u:code-1LL  =58,
15:u:code-1LLL =58,
17:u:code-1RRR =1777,
17:u:code-1RR  =1777,
17:u:code-1RRR =1776,
17:u:code-1R   =1777,
17:u:code-1RR  =1776,
17:u:code-1RRR =1778,
17:u:code-1X   =1777,
17:u:code-1R   =1776,
17:u:code-1RR  =1778,
7:*100:Nd,
17:u:code-1L   =1777,
17:u:code-1X   =1776,
17:u:code-1R   =1778,
17:u:code-1LL  =1777,
17:u:code-1L   =1776,
17:u:code-1X   =1778,
17:u:code-1LLL =1777,
17:u:code-1LL  =1776,
17:u:code-1L   =1778,
17:u:code-1LLL =1776,
17:u:code-1LL  =1778,
17:u:code-1LLL =1778,
17:u:code-1RRR =1783,
17:u:code-1RR  =1783,
17:u:code-1R   =1783,
17:u:code-1X   =1783,
17:u:code-1L   =1783,
17:u:code-1LL  =1783,
17:u:code-1RRR =1784,
17:u:code-1LLL =1783,
17:u:code-1RR  =1784,
17:u:code-1R   =1784,
17:u:code-1X   =1784,
17:u:code-1L   =1784,
17:u:code-1LL  =1784,
17:u:code-1LLL =1784,
17:u:code-1RRR =1780,
17:u:code-1RR  =1780,
17:u:code-1R   =1780,
17:u:code-1X   =1780,
17:u:code-1L   =1780,
17:u:code-1LL  =1780,
17:u:code-1LLL =1780,
17:u:code-1RRR =1594,
17:u:code-1RR  =1594,
17:u:code-1R   =1594,
17:u:code-1X   =1594,
17:u:code-1L   =1594,
17:u:code-1LL  =1594,
17:u:code-1LLL =1594,
17:u:code-1RRR =1571,
17:u:code-1RR  =1571,
17:u:code-1R   =1571,
17:u:code-1X   =1571,
17:u:code-1L   =1571,
17:u:code-1LL  =1571,
17:u:code-1LLL =1571,
17:u:code-1RRR =1785,
17:u:code-1RR  =1785,
17:u:code-1RRR =1779,
17:u:code-1R   =1785,
17:u:code-1RR  =1779,
17:u:code-1X   =1785,
17:u:code-1R   =1779,
17:u:code-1L   =1785,
17:u:code-1X   =1779,
17:u:code-1LL  =1785,
17:u:code-1L   =1779,
17:u:code-1LLL =1785,
17:u:code-1LL  =1779,
17:u:code-1LLL =1779,
16:u:code-1RRR =171,
16:u:code-1RR  =171,
16:u:code-1R   =171,
16:u:code-1X   =171,
7:*100:Pi,
16:u:code-1L   =171,
16:u:code-1LL  =171,
16:u:code-1LLL =171,
16:u:code-1RRR =187,
16:u:code-1RR  =187,
16:u:code-1R   =187,
16:u:code-1X   =187,
7:*100:Pf,
16:u:code-1L   =187,
16:u:code-1LL  =187,
16:u:code-1LLL =187,
15:u:code-1RRR =40,
15:u:code-1RR  =40,
15:u:code-1R   =40,
15:u:code-1X   =40,
7:*100:Ps,
15:u:code-1L   =40,
15:u:code-1LL  =40,
15:u:code-1LLL =40,
15:u:code-1RRR =41,
15:u:code-1RR  =41,
15:u:code-1R   =41,
15:u:code-1X   =41,
7:*100:Pe,
15:u:code-1L   =41,
15:u:code-1LL  =41,
15:u:code-1LLL =41,
17:u:code-1RRR =1563,
17:u:code-1RR  =1563,
17:u:code-1R   =1563,
17:u:code-1X   =1563,
17:u:code-1L   =1563,
17:u:code-1LL  =1563,
17:u:code-1LLL =1563,
17:u:code-1RRR =1574,
17:u:code-1RR  =1574,
17:u:code-1R   =1574,
17:u:code-1X   =1574,
17:u:code-1L   =1574,
17:u:code-1LL  =1574,
17:u:code-1LLL =1574,
15:u:code-1RRR =33,
15:u:code-1RR  =33,
15:u:code-1R   =33,
15:u:code-1X   =33,
15:u:code-1L   =33,
15:u:code-1LL  =33,
15:u:code-1LLL =33,
17:u:code-1RRR =1567,
17:u:code-1RR  =1567,
17:u:code-1R   =1567,
17:u:code-1X   =1567,
17:u:code-1L   =1567,
17:u:code-1LL  =1567,
17:u:code-1LLL =1567,
15:u:code-1RRR =91,
15:u:code-1RR  =91,
15:u:code-1R   =91,
15:u:code-1X   =91,
15:u:code-1L   =91,
15:u:code-1LL  =91,
15:u:code-1LLL =91,
15:u:code-1RRR =93,
15:u:code-1RR  =93,
15:u:code-1R   =93,
15:u:code-1X   =93,
15:u:code-1L   =93,
15:u:code-1LL  =93,
15:u:code-1LLL =93,
17:u:code-1RRR =8230,
17:u:code-1RR  =8230,
17:u:code-1R   =8230,
17:u:code-1X   =8230,
17:u:code-1L   =8230,
17:u:code-1LL  =8230,
17:u:code-1LLL =8230,
17:u:code-1RRR =1572,
17:u:code-1RR  =1572,
17:u:code-1R   =1572,
17:u:code-1X   =1572,
17:u:code-1L   =1572,
17:u:code-1LL  =1572,
17:u:code-1LLL =1572,
17:u:code-1RRR =1782,
17:u:code-1RR  =1782,
17:u:code-1R   =1782,
17:u:code-1X   =1782,
17:u:code-1L   =1782,
17:u:code-1LL  =1782,
17:u:code-1LLL =1782,
15:u:code-1RRR =82,
15:u:code-1RR  =82,
15:u:code-1RRR =65,
15:u:code-1R   =82,
15:u:code-1RR  =65,
15:u:code-1RRR =80,
15:u:code-1X   =82,
15:u:code-1R   =65,
15:u:code-1RR  =80,
7:*100:Lu,
15:u:code-1L   =82,
15:u:code-1X   =65,
15:u:code-1R   =80,
15:u:code-1LL  =82,
15:u:code-1L   =65,
15:u:code-1X   =80,
15:u:code-1LLL =82,
15:u:code-1LL  =65,
15:u:code-1L   =80,
15:u:code-1LLL =65,
15:u:code-1LL  =80,
15:u:code-1LLL =80,
17:u:code-1RRR =1781,
17:u:code-1RR  =1781,
17:u:code-1R   =1781,
17:u:code-1X   =1781,
17:u:code-1L   =1781,
17:u:code-1LL  =1781,
17:u:code-1LLL =1781,
17:u:code-1RRR =1569,
17:u:code-1RR  =1569,
17:u:code-1R   =1569,
17:u:code-1X   =1569,
17:u:code-1L   =1569,
17:u:code-1LL  =1569,
17:u:code-1LLL =1569,
15:u:code-1RRR =97,
15:u:code-1RR  =97,
15:u:code-1R   =97,
15:u:code-1X   =97,
7:*100:Ll,
15:u:code-1L   =97,
15:u:code-1LL  =97,
15:u:code-1LLL =97,
15:u:code-1RRR =98,
15:u:code-1RR  =98,
15:u:code-1R   =98,
15:u:code-1X   =98,
15:u:code-1L   =98,
15:u:code-1LL  =98,
15:u:code-1LLL =98,
15:u:code-1RRR =69,
15:u:code-1RR  =69,
16:u:code-1RRR =110,
15:u:code-1R   =69,
16:u:code-1RR  =110,
15:u:code-1RRR =99,
15:u:code-1X   =69,
16:u:code-1R   =110,
15:u:code-1RR  =99,
16:u:code-1RRR =111,
15:u:code-1L   =69,
16:u:code-1X   =110,
15:u:code-1R   =99,
16:u:code-1RR  =111,
16:u:code-1RRR =117,
15:u:code-1LL  =69,
16:u:code-1L   =110,
15:u:code-1X   =99,
16:u:code-1R   =111,
16:u:code-1RR  =117,
15:u:code-1LLL =69,
16:u:code-1LL  =110,
15:u:code-1L   =99,
16:u:code-1X   =111,
16:u:code-1R   =117,
16:u:code-1RRR =116,
16:u:code-1LLL =110,
15:u:code-1LL  =99,
16:u:code-1L   =111,
16:u:code-1X   =117,
16:u:code-1RR  =116,
16:u:code-1RRR =101,
15:u:code-1LLL =99,
16:u:code-1LL  =111,
16:u:code-1L   =117,
16:u:code-1R   =116,
16:u:code-1RR  =101,
16:u:code-1RRR =114,
16:u:code-1LLL =111,
16:u:code-1LL  =117,
16:u:code-1X   =116,
16:u:code-1R   =101,
16:u:code-1RR  =114,
16:u:code-1LLL =117,
16:u:code-1L   =116,
16:u:code-1X   =101,
16:u:code-1R   =114,
16:u:code-1LL  =116,
16:u:code-1L   =101,
16:u:code-1X   =114,
16:u:code-1LLL =116,
16:u:code-1LL  =101,
16:u:code-1L   =114,
16:u:code-1LLL =101,
16:u:code-1LL  =114,
16:u:code-1LLL =114,
16:u:code-1RRR =118,
16:u:code-1RR  =118,
16:u:code-1R   =118,
16:u:code-1X   =118,
16:u:code-1RRR =121,
16:u:code-1L   =118,
16:u:code-1RR  =121,
16:u:code-1RRR =109,
16:u:code-1LL  =118,
16:u:code-1R   =121,
16:u:code-1RR  =109,
16:u:code-1LLL =118,
16:u:code-1X   =121,
16:u:code-1R   =109,
16:u:code-1L   =121,
16:u:code-1X   =109,
16:u:code-1LL  =121,
16:u:code-1L   =109,
16:u:code-1LLL =121,
16:u:code-1LL  =109,
16:u:code-1LLL =109,
15:u:code-1RRR =72,
15:u:code-1RR  =72,
16:u:code-1RRR =105,
15:u:code-1R   =72,
16:u:code-1RR  =105,
16:u:code-1RRR =103,
15:u:code-1X   =72,
16:u:code-1R   =105,
16:u:code-1RR  =103,
16:u:code-1RRR =104,
15:u:code-1L   =72,
16:u:code-1X   =105,
16:u:code-1R   =103,
16:u:code-1RR  =104,
16:u:code-1RRR =119,
15:u:code-1LL  =72,
16:u:code-1L   =105,
16:u:code-1X   =103,
16:u:code-1R   =104,
16:u:code-1RR  =119,
15:u:code-1LLL =72,
16:u:code-1LL  =105,
16:u:code-1L   =103,
16:u:code-1X   =104,
16:u:code-1R   =119,
16:u:code-1LLL =105,
16:u:code-1LL  =103,
16:u:code-1L   =104,
16:u:code-1X   =119,
16:u:code-1LLL =103,
16:u:code-1LL  =104,
16:u:code-1L   =119,
16:u:code-1LLL =104,
16:u:code-1LL  =119,
16:u:code-1LLL =119,
15:u:code-1RRR =47,
15:u:code-1RR  =47,
15:u:code-1R   =47,
15:u:code-1X   =47,
15:u:code-1L   =47,
15:u:code-1LL  =47,
15:u:code-1LLL =47,
15:u:code-1RRR =34,
15:u:code-1RR  =34,
15:u:code-1R   =34,
15:u:code-1X   =34,
15:u:code-1L   =34,
15:u:code-1LL  =34,
15:u:code-1LLL =34,
17:u:code-1RRR =1620,
17:u:code-1RR  =1620,
17:u:code-1R   =1620,
17:u:code-1X   =1620,
17:u:code-1L   =1620,
17:u:code-1LL  =1620,
17:u:code-1LLL =1620,
17:u:code-1RRR =1615,
17:u:code-1RR  =1615,
17:u:code-1R   =1615,
17:u:code-1X   =1615,
17:u:code-1L   =1615,
17:u:code-1LL  =1615,
17:u:code-1LLL =1615,
17:u:code-1RRR =1616,
17:u:code-1RR  =1616,
17:u:code-1R   =1616,
17:u:code-1X   =1616,
17:u:code-1L   =1616,
17:u:code-1LL  =1616,
17:u:code-1LLL =1616,
17:u:code-1RRR =1609,
17:u:code-1RR  =1609,
17:u:code-1R   =1609,
17:u:code-1X   =1609,
17:u:code-1L   =1609,
17:u:code-1LL  =1609,
17:u:code-1LLL =1609,
15:u:code-1RRR =61,
15:u:code-1RR  =61,
15:u:code-1R   =61,
15:u:code-1X   =61,
7:*100:Sm,
15:u:code-1L   =61,
15:u:code-1LL  =61,
15:u:code-1LLL =61,
15:u:code-1RRR =42,
15:u:code-1RR  =42,
15:u:code-1R   =42,
15:u:code-1X   =42,
15:u:code-1L   =42,
15:u:code-1LL  =42,
15:u:code-1LLL =42,
15:u:code-1RRR =66,
15:u:code-1RR  =66,
15:u:code-1R   =66,
15:u:code-1RRR =67,
15:u:code-1X   =66,
15:u:code-1RR  =67,
15:u:code-1L   =66,
15:u:code-1R   =67,
15:u:code-1LL  =66,
15:u:code-1X   =67,
15:u:code-1LLL =66,
15:u:code-1L   =67,
15:u:code-1LL  =67,
15:u:code-1LLL =67,
17:u:code-1RRR =1573,
17:u:code-1RR  =1573,
17:u:code-1R   =1573,
17:u:code-1X   =1573,
17:u:code-1L   =1573,
17:u:code-1LL  =1573,
17:u:code-1LLL =1573,
17:u:code-1RRR =_x+1,
17:u:code-1RR  =_x+1,
17:u:code-1RRR =_x+2,
17:u:code-1R   =_x+1,
17:u:code-1RR  =_x+2,
17:u:code-1RRR =_x+3,
0=-0x1.a11279416b27p-2
1=0x1.07da5b9ece41bp-3
2=-0x1.640844d9ab1c8p-2
3=-0x1.16a1bbabefb5ep-2
4=0x1.0513f1cfb3ebcp-1
5=0x1.43b15784b59fap-3
6=0x1.737759842d11fp-2
7=-0x1.5bccf82f4288bp-1
8=-0x1.45bdd8e469bc2p-2
9=0x1.f4bfe80261c3p-7
10=-0x1.f3bec8e6ea53ap-7
12=0x1.f4bfe80261c3p-7
13=-0x1.f3bec8e6ea53ap-7
15=0x1.f4bfe80261c3p-7
16=-0x1.f3bec8e6ea53ap-7
18=-0x1.192db8053d237p-3
19=0x1.03213d9d77252p-3
20=-0x1.6b65c0ba7da7p-4
21=0x1.15581b33319bp-14
22=-0x1.840522d42993fp-5
23=0x1.37d5dc6b3d819p-4
24=0x1.00cd3de746081p-4
25=-0x1.99678b55d93fp-5
27=-0x1.098f05dc6ebf9p-4
28=0x1.52777812a6876p-4
29=-0x1.fd6aba1faa70bp-6
30=-0x1.8b5b87ef343b1p-1
31=0x1.f30ce4cc352c7p-1
32=-0x1.c6dd73d15d0c5p-1
33=-0x1.6b3e671e8a9bcp-2
34=0x1.8975b0a5eff37p-2
35=-0x1.7fd5306ddd2b1p-3
36=-0x1.499ee77807204p+1
37=0x1.9052114d92012p+0
38=-0x1.36973ef5116e1p+0
39=0x1.6fda34aa77df2p-1
40=-0x1.3c934a4fc4694p-1
41=-0x1.1aa82f2a8ecfcp-3
42=0x1.9b261bfb5493cp-4
43=0x1.73d631aea4b15p-5
44=-0x1.b2709b761d898p-8
45=0x1.2fcf34e09a288p-2
46=-0x1.cb8b2977cc5e9p-2
47=0x1.77344546cb2d8p-2
48=-0x1.a45465a8a8e05p-4
49=0x1.c45df1357edc8p-2
50=-0x1.0f3019fc38a64p-2
51=-0x1.679152f5e83f7p-4
52=-0x1.1eb366c3510aap-5
53=-0x1.a394456a741fp-3
54=-0x1.e99ded53ff136p-5
55=0x1.ee247e2c17bf3p-4
56=-0x1.98222bcacfbbep-5
57=-0x1.6e65169118b4ap-4
58=0x1.7f3bf2f227982p-2
59=-0x1.44075d2538d51p-3
60=0x1.f81b2cf680b84p-7
61=-0x1.88d7ed71eed23p-3
62=0x1.b68fb96dabec6p-5
63=-0x1.c49b01f403adbp-9
64=-0x1.ce23fce1395e8p-10
66=-0x1.058af15f7cc2cp+0
67=0x1.02625d2c0510bp+0
68=-0x1.4bb3b16a86105p-5
69=-0x1.2424936396715p+0
70=0x1.46f0854798dcep+0
71=-0x1.31509911a4137p-5
72=-0x1.0709f0089321ap-5
73=-0x1.8a298d6ad5bd1p-5
74=-0x1.c3079d25f1a3cp-5
75=-0x1.6c4e8958ecab9p-8
76=-0x1.36b7b45709d0ap-6
77=-0x1.91b360b01ca15p-8
78=0x1.7d79bf7a76b3cp-3
79=-0x1.ed9367a90a098p-3
80=-0x1.9df22132701c7p-4
81=0x1.d01257db3f288p-3
82=0x1.e125dcfd4a1e6p-3
83=-0x1.7383c3583ebddp-2
84=0x1.6e904517ee365p-5
85=-0x1.48e10e9698616p-2
86=0x1.33fc86e6db59bp-3
87=-0x1.606773a72be61p-4
88=-0x1.0ac62dc37886cp-4
89=-0x1.985e8294dcd67p-6
90=0x1.bd035f5894a79p-2
91=-0x1.33aa1ce9d76ecp-2
92=-0x1.304a3641f5dcdp-4
93=0x1.06348ed3955e8p-2
94=0x1.55c61aa48c196p-5
95=-0x1.425ca7fac97eep-2
96=-0x1.588cd28cf9dccp-3
97=-0x1.f21185896768fp-3
98=0x1.62a5feed90a11p-3
99=0x1.bd611ed5d81e8p-3
100=-0x1.e87e8c92d1de3p-4
101=-0x1.caa2a42f61f95p-7
102=0x1.3fdaee1bc250ap-1
103=-0x1.5876da4fc4147p-2
104=-0x1.0adf323a42adep-4
105=0x1.13b3300ce854dp-3
106=-0x1.78e4d57b835dfp-4
107=0x1.256b4a5970d2p-4
108=-0x1.095c55d32b4e4p-2
109=0x1.83937cd406568p-6
110=0x1.0394cdff32c1cp-4
111=0x1.d3a5295f999f7p-2
112=-0x1.b59135033b9fbp-3
113=-0x1.721a089f5ea63p-4
114=0x1.310ed30f1910bp-1
115=-0x1.51e4dc81ad51fp-2
116=-0x1.00467612219acp-5
117=0x1.5e0dfbc5e4026p-2
118=-0x1.2bdb66b40ac72p-1
119=-0x1.362781e06bdf6p-5
120=-0x1.a9b61566c433dp-4
121=0x1.1243607273dc3p-9
122=0x1.ae16f0e07a8d1p-4
123=0x1.2a1bb3cc76f1ap-2
124=-0x1.788355d22b235p-4
125=-0x1.2214bd64d75d7p-6
126=0x1.5636125431cffp-6
128=-0x1.69dcdbb9e81fap-4
130=-0x1.de594b025130ep-7
131=0x1.84a2a9176d0d8p-3
132=-0x1.6c0290be9bcddp-3
133=0x1.ad0ae097e1792p-3
134=-0x1.aebcc955c51fdp-8
135=0x1.31269d67d5788p-3
136=-0x1.6466f3f12d136p-3
137=-0x1.35bb07c6d213p-4
138=0x1.0da3e20934962p-3
139=-0x1.73a7b1ccb6652p-7
140=-0x1.0186517dff1c9p-3
141=0x1.90e86c4fadc0cp-4
142=-0x1.2b802d7eded3p-3
143=-0x1.5f3fde7f997aep-4
144=-0x1.f31fe1e2e27a3p-5
145=0x1.145b8049ee7ecp-3
147=0x1.840beeca45d1bp-3
148=-0x1.64d57a8abb3e8p-3
149=-0x1.40d2f477d2655p-4
156=-0x1.fad2806c99c2ep-4
157=0x1.15c5fac2871ebp-3
159=0x1.d8fbf18c53c27p-7
160=0x1.17f0dde2964eap-6
161=-0x1.3d286cdbe6441p-5
162=-0x1.3c512f1d03b45p-5
163=0x1.0adc0044ad92ep-5
165=-0x1.81a533c233eb1p-4
166=0x1.c2c486abc9735p-4
167=0x1.b2dcf1cfa0301p-8
168=-0x1.44f99815b4dccp-5
169=0x1.871e007ad4a6p-5
170=-0x1.11d12274cb8bcp-6
171=-0x1.23e4817402ccep-2
172=0x1.f13e68a0bdc37p-3
173=-0x1.2dc50370040ccp-8
174=-0x1.7d1caf7e9ac93p-3
175=0x1.2c750a61e1453p-3
176=0x1.62334e224bb5dp-1
177=-0x1.7703b9617dacdp-5
178=0x1.1c49837bc947ap-3
179=-0x1.0ec291ab44ab4p-2
180=-0x1.792859a221673p-5
181=-0x1.1bd7b0c968cfcp-4
182=-0x1.ed957c9d5bd15p-5
183=-0x1.01e0e9d120429p-2
184=0x1.010f3e39e30c3p-2
185=0x1.5cfbc16068d74p-5
186=-0x1.c69d5a150c49bp-2
187=0x1.21f30e5b39f45p-2
188=-0x1.ca1994f56019cp-2
189=0x1.f66347261a648p-5
190=0x1.05f6b195c2b7p-7
191=0x1.17015f46a0cd2p-1
192=0x1.5a817cb2460d6p-7
193=-0x1.05a1aa705c9a1p-4
194=-0x1.df3db27711537p-6
195=-0x1.34c1aa16c3dbep-3
196=0x1.49753a4100fddp-3
197=-0x1.f22c18d317666p-5
198=-0x1.1c2d81152e1d9p-6
199=-0x1.6f48cb3af3c54p-4
200=-0x1.8d447c622b10fp-3
201=-0x1.0e6c2699ac042p-4
202=0x1.dd00a87cabdc6p-3
203=0x1.e189e984b60acp-4
204=-0x1.966ade2351dfap-5
205=-0x1.09258bde7f78fp-4
206=-0x1.7fc0dce331184p-6
207=0x1.24100ef052b54p-4
209=-0x1.a293184b2be22p-4
210=-0x1.5e394e08a056ep-4
211=0x1.ff137eeb27e4dp-4
212=0x1.23e6ec7d6b90fp-3
213=-0x1.4b528c2eb7485p-3
214=0x1.32415f99fe4ecp-5
215=-0x1.03d1b6595e8a5p-3
216=0x1.1ff34914e2392p-2
217=-0x1.b188f50ac3b2ep-3
218=-0x1.6d0b7ee477396p-4
219=-0x1.8a571b4d89ca1p-4
220=0x1.b2b4404efad0fp-3
221=-0x1.75888fe6ae772p-4
222=-0x1.057ed3a787f13p-4
223=0x1.69dd89ce5f046p-4
224=-0x1.6cd71d93199c5p-2
225=-0x1.593b21b6f0e05p-3
226=0x1.0dee69a2e872dp-4
227=0x1.6ea71484b6dc4p-3
228=0x1.0cf68b3589f3p-5
229=-0x1.884048cea2f14p-5
230=-0x1.408aeedfbcdc8p-5
231=0x1.35520343f0308p-3
232=-0x1.621f37d507d7cp-6
233=-0x1.8d67ebd4eb507p-4
234=0x1.3057f96e560d8p-2
235=-0x1.3ebe66377db56p-5
236=-0x1.897544855efdap-3
237=-0x1.ed9bb835078f4p-3
238=0x1.4bc14101f443cp-3
239=0x1.7fdbb5b8a8fa5p-3
240=0x1.1673bbb8f759cp-2
241=-0x1.28188b14bc74fp-2
242=-0x1.09ffe29885324p-4
243=-0x1.806c69bd78e8p-7
244=0x1.0fe75a7527cd6p-3
245=-0x1.c1f19c98e22bfp-4
246=-0x1.2216635ef79p-5
247=0x1.296bbd5b9d822p-4
248=0x1.4fae2befb837dp-4
249=-0x1.719809b10e8aep-4
250=0x1.40baa3f948f1ep-6
251=0x1.ef18b4e98d00cp-6
252=0x1.4c094bf8cc6p-5
253=-0x1.14d38d813b14ep-3
254=-0x1.0229011af9e5ep-4
255=-0x1.0bf40cd3677fp-9
256=0x1.ca2b412f6e048p-5
257=-0x1.c54f2bf7429e7p-5
258=-0x1.3e4c11c4f521ep-5
259=-0x1.f72222d3e9a7p-6
260=-0x1.424b29ba98789p-2
262=0x1.439873b32c75cp-4
263=0x1.05868f114532cp-2
265=-0x1.4134cfcc97b86p-4
266=-0x1.3417a58987624p-6
267=-0x1.84160474396a6p-6
268=0x1.0e1718e639ad9p-5
269=-0x1.64634608bfa91p-4
270=-0x1.fec281943b853p-6
271=-0x1.7b623e26efd6dp-4
272=-0x1.1809c6c19d9f9p-4
273=-0x1.be2b63e85088p-5
274=0x1.6d71a62cd2d7ap-3
275=0x1.059630ccb752p-3
276=0x1.faf92d7af04c1p-4
277=-0x1.7a16839aa6204p-3
278=-0x1.2e0124810d519p-4
282=0x1.27153482893b7p-4
283=-0x1.298c8f02a208p-9
284=-0x1.00191862ca006p-5
285=-0x1.4e0595e9d5fa1p-4
286=0x1.7e473bd43ad54p-6
287=0x1.00fe43651ad18p-6
288=-0x1.f5f2bece34b76p-5
289=0x1.090500eade90cp-4
291=0x1.d0732803152bdp-6
292=0x1.792737460caa4p-9
293=-0x1.2ec02d217e6cep-6
294=-0x1.eeb084a8487d2p-5
295=0x1.0973f09e3b225p-4
296=-0x1.39d438a0fbf7p-10
297=-0x1.09b888e1a5c72p-3
298=0x1.64468210bf93cp-3
299=0x1.46ae356919f17p-6
300=-0x1.99359fac9187p-3
301=0x1.8c529efa67b1ap-3
302=-0x1.03d496cc3b5fp-3
303=-0x1.0253ee70e2d68p-2
304=0x1.958c9ddf9b159p-3
305=0x1.39fd2f52e5b06p-5
306=0x1.582a4eda4cfc8p-8
307=0x1.a5528c7098cc7p-4
308=0x1.e092c681f9cdap-5
309=-0x1.11e236f7ba5bfp-3
310=-0x1.8574397f874a7p-4
311=-0x1.75533ea4f71bbp-4
312=-0x1.8865daa15bfc8p-8
313=0x1.60bbfc7eb1665p-8
314=-0x1.0fa73dab6291ep-5
315=-0x1.f2868a4df7336p-7
316=-0x1.6bba05147e137p-3
317=0x1.9fcd044c607d1p-5
319=0x1.79dbcd5b0d5e4p-4
320=-0x1.aa698740dd326p-5
321=-0x1.4c6e971c522ecp-4
322=-0x1.867f4908d73cbp-5
323=-0x1.a6f07f0603de2p-6
324=-0x1.fb783975a563cp-3
325=0x1.8b8e340d6bddap-4
327=-0x1.738b38eecb4dp-4
328=-0x1.0de4a2d4797fap-1
329=-0x1.ddeef61a4c1cap-3
330=0x1.1f766d32bd92bp-4
331=0x1.ac98ee455e3dp-2
332=0x1.1e89186728d21p-2
333=-0x1.6ebc24143831cp-2
334=-0x1.324963d8ab65fp-5
335=-0x1.89ba7b34ede13p-7
336=-0x1.f367c3bd23a57p-2
337=0x1.18eed0299c5d3p-2
339=-0x1.bfbb30e49926cp-2
340=0x1.9921987d74ac3p-2
341=0x1.5f4185194fe36p-4
342=-0x1.43baed1fda192p-7
343=0x1.937cd1162b078p-3
344=-0x1.b16534ba8a332p-4
345=-0x1.81780331dd4p-6
346=-0x1.22466e0e8f965p-5
347=-0x1.399eda77dd4fp-8
348=-0x1.38fef93d0e57p-6
349=0x1.4c2da01b197dap-3
350=-0x1.51cd7440feea2p-4
351=-0x1.a35c0d82d26d7p-4
352=0x1.4f79faf5ac5p-3
353=-0x1.661f0d8c45832p-4
354=-0x1.456648525740cp-4
355=0x1.04be7773714d9p-3
356=0x1.b6572e4eaa434p-4
357=0x1.8d53a34f6ce74p-4
358=-0x1.77968064df8b8p-3
359=-0x1.3c135fa9bca97p-5
360=-0x1.9addfb1f36673p-5
361=0x1.7adc80629462bp-6
363=-0x1.10fc3ddc73c85p-3
364=-0x1.46de326c0e87fp-4
365=-0x1.3453d598f5233p-3
366=-0x1.0272dbf05a1e4p-10
367=0x1.259ff366d3b87p-3
368=0x1.2b95da25f05a5p-3
369=0x1.d701bf0e1060fp-4
370=-0x1.6e24561cedeb3p-4
371=-0x1.e71ff2463d84ap-6
373=0x1.11d810f91f1f2p-5
375=0x1.cce59292b0d7ap-5
376=-0x1.029d03a3df27ap-4
378=-0x1.7b080f73b03e9p-4
379=0x1.2eedfa396fab1p-4
381=-0x1.621f7608f12e5p-2
382=0x1.0f2f2932a75a1p-1
383=-0x1.5646e9476c4bap-3
384=-0x1.bac5b5fcca246p-9
385=0x1.f07502f086ceap-7
387=0x1.673b2354f327ep-4
388=0x1.0bf65ab1ac7bep-2
389=-0x1.abd8520e06bb9p-2
390=-0x1.f66c3108e9764p-7
391=0x1.52c6918d30d14p-6
392=-0x1.b9d816678ddb4p-9
393=-0x1.2fb591da6c37ep-3
394=0x1.4de75291ce46ap-3
395=-0x1.33f35a2b7854p-5
396=0x1.4d7dffa0094c1p-4
397=-0x1.75c4ce1a9a62cp-3
398=0x1.8e2b59cc7d73dp-2
399=-0x1.3a95ee6ad37fcp-3
400=0x1.f11b3e8793868p-3
401=-0x1.e0a6a742fdafap-6
402=-0x1.4b7c9097a6f59p-1
403=-0x1.32061ab2b99ddp-3
404=-0x1.a2fa53382dfb6p-2
405=0x1.bf4e14e38c6dfp-3
406=-0x1.774b3edba180ep-5
408=-0x1.74e2e7fc18dffp-2
409=-0x1.f85fa5aaa1e73p-3
410=0x1.5ed615642e66p-6
411=-0x1.067b1317ab363p-4
412=0x1.53646f0410124p-2
413=0x1.bd10c31038595p-4
414=0x1.74aff0f8e9534p-2
415=-0x1.c706d7ed0acfep-3
416=-0x1.2b03e4f1dbd8dp-4
417=-0x1.80a3c36bcaf36p-3
418=0x1.e0a37cb693984p-3
419=-0x1.e00fe7c0cb25p-5
420=-0x1.1e34b342cd7d8p-2
421=0x1.85c60a6876436p-3
422=-0x1.582cca1c7e11cp-5
423=-0x1.362c6f048aecp-3
424=0x1.50139c1220a7ep-3
425=0x1.1b4bd19859ab9p-3
426=0x1.42bac56562b52p-3
427=-0x1.dd5044b06e41cp-3
428=-0x1.0a89e3e354c2bp-4
429=-0x1.c431731386a9p-4
430=0x1.bb2d840ec1781p-4
431=-0x1.542cd1f848bf8p-4
432=-0x1.1ffdc7fbd2d93p-3
433=0x1.71da67b030ef5p-2
434=-0x1.a703c4056593ep-4
435=-0x1.c777c4a143006p-6
436=0x1.f296a8605dd95p-5
437=0x1.72e74438bbf08p-5
438=0x1.52b6eebb8c6c5p-5
439=-0x1.3989f0e330e24p-4
440=-0x1.bf69a233c2f31p-6
441=-0x1.2a7e67b2a835ap-3
442=0x1.2d7d9b498cce5p-3
443=-0x1.2c1ceef9487p-12
444=-0x1.1a8bdfb58c51ep-5
445=0x1.806a4578c57e9p-5
447=-0x1.ad3828462f599p-4
448=0x1.6f404ed2ab86ap-3
449=-0x1.224eb3dc90232p-4
450=-0x1.27b21c4e5e1a1p-3
451=0x1.b6a5f5532030fp-4
452=-0x1.1fc910789079p-4
453=0x1.d6b5aee54609p-8
454=0x1.10dbf924ca9cfp-2
455=-0x1.cbe3dd9e5bd1ep-2
456=0x1.60e464840ab9ep-8
457=-0x1.b254bbe7e0774p-6
458=0x1.44e87a65f8ba1p-8
459=0x1.0888e8476309dp-2
460=-0x1.b4b0756fd9fbbp-4
461=-0x1.877e5946e10f8p-6
462=-0x1.84e4b86bfcfefp-3
463=-0x1.5858d8c17a1dap-3
464=0x1.320ef9428a1b5p-7
465=-0x1.76d7fdf53264p-3
466=0x1.c62e00b6209e9p-3
467=0x1.4f95a9ca57f4p-4
468=0x1.964d7233bb5e7p-2
469=-0x1.8a766c71d727ap-3
470=-0x1.11730dde36a2p-4
471=-0x1.287bf85174a1dp-3
472=0x1.64d938cd47372p-3
473=-0x1.a9444b21a17dcp-4
474=-0x1.61113dd94e4fp-2
475=0x1.0863c9653c041p-1
476=-0x1.9e11dc788f3c4p-3
477=-0x1.7665f45e4666fp-7
478=0x1.a0195c9514012p-4
480=0x1.b7a2063e3c631p-5
481=-0x1.5ea1c62f2cde5p-4
482=-0x1.54cdeb8fa1dfap-6
483=0x1.a624d51f572a7p-3
484=-0x1.f8338c466a7fep-3
485=-0x1.1233a7bb8b1a4p-5
486=0x1.2805b67204381p-2
487=-0x1.5624f46d2ddbbp-5
488=-0x1.1b8ea22cd537dp-2
489=-0x1.5d30c53e6795bp-4
491=0x1.10e9b528ca583p-3
492=0x1.29eb9961f76bep-4
493=-0x1.7ff3f7860b713p-5
494=-0x1.598405c0195d4p-7
495=0x1.e45fecea0aa68p-3
496=-0x1.94bf598958f97p-3
497=-0x1.aa69cb10f09e2p-4
498=0x1.5eee1f27c1d73p-1
499=-0x1.bc843a9318a7cp-2
500=0x1.f30d316440cfdp-4
501=-0x1.5fd8fdee16e7fp-3
502=0x1.15691e0fdf21cp-2
503=-0x1.dca5345436c93p-4
504=-0x1.4b22a41bfafd3p-4
505=-0x1.c68150380965cp-6
506=-0x1.6d316c113e193p-5
508=0x1.c24b32c925461p-4
509=-0x1.eb617d5d8eadcp-4
510=-0x1.00c36261fed61p-2
511=0x1.83c68d64c8a83p-4
512=-0x1.0f8010146c29fp-3
513=-0x1.2c026811207f5p-6
514=0x1.bc6a48b8af50fp-4
515=0x1.9c25a0782d033p-3
516=0x1.926c045523051p-3
517=-0x1.c1c35554ec892p-3
518=-0x1.2f51dfd8b2267p-4
519=0x1.512f77f2ae92ap-2
520=-0x1.e55ab187fcfc6p-4
521=-0x1.8473d1bf89c43p-5
522=0x1.7f6d472436274p-8
523=-0x1.b9c8d6a39ec71p-2
524=-0x1.30254fba0b60cp-2
525=-0x1.5f29692d3e82dp-3
526=0x1.86454ef41e5e3p-3
527=0x1.156ef6a32dcp-2
528=0x1.33c26c5eb249cp-2
529=-0x1.2d83fe39d9afbp-2
530=-0x1.3c6c30cca8e83p-5
531=-0x1.fd747218aaaadp-7
532=0x1.81894abb462d4p-6
534=0x1.4ab53411d3a7cp-7
535=0x1.076fcd24b5508p-6
537=-0x1.b22c472d2e2a3p-4
538=0x1.4e3fa4f99f9f6p-3
539=-0x1.6c61df792520ap-5
540=-0x1.4dbf1df2cadf9p-2
541=-0x1.312897c0ae199p+0
542=0x1.4b0c9e82aa848p+0
543=0x1.9f14a4e86ae19p-4
544=-0x1.c44262054665bp-4
545=0x1.547c5184a4276p-5
546=0x1.b204e96c85108p-8
547=0x1.930289e7f97c4p-8
548=-0x1.bb592684bffbp-5
549=-0x1.4dbf1df2cadf9p-2
550=-0x1.312897c0ae199p+0
551=0x1.4b0c9e82aa848p+0
552=-0x1.cd29017fafc59p-4
553=-0x1.541d7827b973cp-3
554=0x1.f1d126982cd5ep-2
555=-0x1.395d744e21afbp-2
556=-0x1.45019b814b731p+0
557=0x1.9f7a4ec008728p+0
558=-0x1.6668c382df95ap-6
559=-0x1.833e02181b7d8p-6
560=-0x1.98bf0aa6055a7p-1
561=0x1.7ff78a9e715f3p-2
562=-0x1.f8a2f32a7fdfp-3
563=-0x1.458d93cac7829p-3
564=0x1.0e54e39ffb23ep-2
565=-0x1.2ac3b6888a19dp-3
566=-0x1.0d30d62f47692p-4
567=-0x1.6655992783411p-3
568=0x1.30aa9585d2dcap-4
569=0x1.6acca94ac93eap-4
570=0x1.a3107d9649c21p-3
571=-0x1.82dff3d139d3fp-3
572=-0x1.2066fa3bc67e2p-4
573=-0x1.2c0fa691b5ad8p-3
574=0x1.7332607b52666p-3
575=-0x1.e72bfe189679p-5
576=-0x1.3a59eefdc73adp-3
577=0x1.c47b0a877ec02p-3
578=-0x1.cbf0435ca414ap-2
580=0x1.3749c89b4dce1p-4
581=0x1.6feaeb7e38386p-2
582=-0x1.38c6a3f4c6fe3p-6
583=-0x1.d6a128c627ed3p-5
584=-0x1.83e0ff9f27188p-6
585=0x1.203fb8345aa61p-2
586=0x1.43397d56f1eadp-6
587=-0x1.4586828fe2dadp-4
588=-0x1.285358cdca48cp-3
589=-0x1.e839e0a683e3fp-3
590=-0x1.7bf72193ca349p-4
591=-0x1.2b435148e82b2p-2
592=0x1.5fefbe507669ep-3
593=0x1.1f3301edc1e76p-3
594=0x1.d410e0c79574bp-2
595=-0x1.16199034b0426p-2
596=-0x1.2959e315cffe7p-4
598=0x1.a34fb2952a0cbp-5
599=-0x1.c5a1ccc0efecfp-7
600=0x1.462053a1de007p-4
601=0x1.b67fce1a84663p-8
602=-0x1.c1563528da016p-6
603=0x1.4a9db599a005bp+0
604=-0x1.c5d9ec217ebfap+0
605=-0x1.e6027ac28b7e5p-4
607=0x1.7ca11dd24c0d6p-9
608=-0x1.2b76f1341febfp-7
610=0x1.b3314fa2cd257p-9
611=-0x1.1ad576e6403f2p-7
612=0x1.18fd120e4b51dp-5
613=-0x1.32bb127c23f8ep-7
614=-0x1.ba46d92ec4ae7p-9
615=0x1.0a105567ad40fp-1
616=-0x1.4f9db78753924p-1
617=-0x1.622d37907f69p-3
618=-0x1.a0cd3dbe1fc25p-3
619=-0x1.8ec4412effaa2p-3
620=-0x1.bbfb59142b1e8p-5
621=-0x1.4a100d50b69e9p-2
622=-0x1.6cdaf435be322p-3
623=-0x1.f897a630cbe8ep-5
624=0x1.17fcdba327ec5p+0
625=-0x1.01ab34778d6b4p-1
626=-0x1.a86faf4b5701p-5
628=-0x1.0845237eace65p-6
629=-0x1.1ca3b93f9dfbp-6
630=-0x1.2eec2ffaa6564p-2
631=0x1.309a85ab9d451p-2
632=-0x1.010635f5cfad3p-4
633=-0x1.0c42edf784f2dp-4
634=0x1.2ef23ff8a9155p-3
635=-0x1.6ad00737667abp-6
636=-0x1.bd7a3c84b9c99p-4
637=0x1.bc00967f7b614p-5
638=0x1.f3b64ec2c22f2p-9
639=0x1.379443dd82aedp-7
640=-0x1.4dd96f6d593cp-6
641=0x1.fd6b1fb8d145dp-5
642=0x1.1717b71a29dep-11
643=0x1.7de535c255d84p-8
644=-0x1.7b22541f49a37p-6
645=-0x1.2ce1d741d123ep-4
646=0x1.e76228d927758p-5
647=-0x1.173d8b1ae13b3p-5
648=0x1.f50669b97e0a1p-8
649=-0x1.34ec43548c7f6p-3
650=-0x1.19ca0cd7186a3p-5
651=-0x1.b258c7805d9b7p-5
652=0x1.7042d9c9ce786p-4
653=0x1.752cf600cc51ap-4
654=-0x1.28221311e2c88p-5
655=-0x1.86b90fcf000acp-5
656=-0x1.3975bf7505152p-5
657=-0x1.50d3c99c687b7p-2
658=0x1.5d9586fe7bfa2p-2
660=-0x1.9d8c1b4e5bf03p-2
661=0x1.4c87676031dddp-1
662=-0x1.5e47465c41c7ap-3
664=-0x1.3b826dbe04926p-4
665=0x1.d20c54c6eef35p-4
667=-0x1.47a1727715406p-7
669=-0x1.7676d5011527ep-3
670=0x1.b911db5f88cbp-3
671=-0x1.bd9706c60c2f9p-4
672=0x1.c12e17f40b542p-4
673=-0x1.12e01a40a7475p-4
674=-0x1.73e57475e5e5cp-8
675=0x1.1cf52d965e8eep-4
676=-0x1.58b06d44507fcp-4
677=0x1.aab9234e008p-9
678=-0x1.72566bc71cc1ep-7
679=0x1.287c942825e1ep-7
680=0x1.92cb22003da6p-12
681=-0x1.1f12ca479395ep-6
683=0x1.27c7624cee238p-4
684=-0x1.3b5173abf4794p-7
685=-0x1.97ddafd1f386p-2
686=-0x1.7c4bcb5889846p-3
688=0x1.64362e0a3bd75p-2
689=0x1.07e7366c7d311p-2
690=-0x1.a983e8cb5d79ep-6
691=-0x1.c33f44be8950ep-6
692=-0x1.6ce8c5b53df9dp-5
696=-0x1.20a53e88b6349p-4
697=0x1.1adf755f354f5p-4
698=-0x1.d1039a660ad71p-5
699=0x1.2cbd9b33d0253p-5
701=-0x1.00e6b088259b4p-7
705=-0x1.564d7404d353p-3
706=0x1.c18e674a15036p-3
707=-0x1.f276bede3f586p-5
708=0x1.99b623bb4a90cp-6
709=-0x1.5a9acd394641ep-3
711=-0x1.1b6067a888ab8p-3
712=0x1.4da7e681cc605p-2
713=-0x1.e998f83bba6c4p-6
714=-0x1.49e4fee3bd0b5p-4
715=-0x1.38fa1eb1f3bb7p-5
716=-0x1.ccbf8d52f512p-12
717=0x1.5882c2d53184ep-3
718=-0x1.c4aadb280b9e9p-5
719=-0x1.8d6de9de568acp-6
720=0x1.b347912e7ed18p-4
721=0x1.cdbf91f36e984p-5
722=-0x1.1d67849afd70ap-3
723=-0x1.2ecf74d5d3d2ep-7
724=-0x1.d7cf4b93863cep-5
725=0x1.6ebc31d5d22bp-10
726=0x1.05fe9006c2dedp-4
727=-0x1.1ecb20ccf2139p-5
729=-0x1.5238df7e85008p-7
730=0x1.ec442d0fde42bp-9
732=-0x1.68ffa9680c404p-2
733=0x1.c6c8f53b867c4p-2
734=-0x1.115511f2d5432p-5
735=-0x1.4bda3ff1e82a9p-6
736=0x1.38940b92a7d18p-6
738=0x1.426b644c0e9c9p-2
739=-0x1.1c64ed17807d3p-2
740=0x1.8ff2c9dcc523dp-6
741=0x1.06321d04f6cfap-1
742=-0x1.4b8d02245f3c8p-3
743=0x1.2825dce5c5893p-1
744=-0x1.dc57cc9440004p-4
745=0x1.2a38fa1d6a097p-4
746=-0x1.3b3d562c60718p-4
747=-0x1.71dba3b016ffdp-4
748=-0x1.4d699567045f4p-6
749=-0x1.6fb4bee954f05p-3
750=0x1.93b8ac28548bp-2
751=-0x1.29d9cadfc1a04p-3
752=-0x1.62f2af772789p-4
753=0x1.d5eed685ed8e2p-3
754=-0x1.e3e9c53f9567ap-4
755=-0x1.6dede2226ec01p-2
756=-0x1.5f0f01d3b3295p-3
757=-0x1.28e4af5662002p-8
758=0x1.6a504dbdd9bb6p-3
759=0x1.dca74094203cp-3
760=-0x1.12bb512f4956p-3
761=-0x1.1d3445ae5c2a2p-6
762=-0x1.5ae1ff2018abap-8
763=0x1.85883a7062bb6p-7
764=-0x1.c8832ea50f224p-8
765=-0x1.0783c080f0568p-3
766=0x1.de9538e7b12e4p-4
767=0x1.00981687150f6p-6
768=0x1.4af2fb87c05bp-5
769=-0x1.930526d00f325p-5
771=-0x1.19c5a62278967p-4
772=0x1.dc354e46f4f56p-6
773=0x1.7fc689a045d47p-5
774=0x1.6f5d8645cc4b5p-2
775=-0x1.6cbd9a09d0e2p-2
776=0x1.08cb661970fc4p+0
777=-0x1.2e41d29ff7a52p-2
778=0x1.5f74aa1d95ab4p-2
779=-0x1.3429b0088b8fcp-3
780=-0x1.4f60cb1343f9bp-3
781=-0x1.a981e637dd166p-6
782=-0x1.250ca3e1bfe7dp-2
783=-0x1.385bb43caa9bdp-2
784=0x1.f70f67dad5d5p-3
785=-0x1.4fa7d4cf97129p-4
786=-0x1.9541905d3d768p-8
787=0x1.4855bfc450b65p-1
788=0x1.069ceadc6e499p-1
789=0x1.76320b0871218p-5
790=-0x1.d9889e73d7895p-4
792=-0x1.f313ff9c96839p-2
793=-0x1.e1cffa6206d88p-5
794=-0x1.491caaa07c213p-2
795=-0x1.5b6533c20a4c7p-5
796=0x1.48a0a18230b36p-4
797=-0x1.84e613269739p-7
798=0x1.294c2cac23253p-3
799=-0x1.392788cb5090ap-3
800=0x1.308cb5a7c6c36p-9
804=-0x1.38842c030de1bp-6
805=0x1.554924ff69027p-6
807=-0x1.f9f72596a3f88p-4
808=0x1.19b97b8aa9742p-3
809=-0x1.0320d099b2e24p-6
811=0x1.3b795b2a0c457p-8
813=-0x1.6dcce09dd5136p-9
814=0x1.b55cb2caa1344p-14
816=0x1.b2c9fbd9e8aa8p-2
817=-0x1.44882be4d0365p-2
818=-0x1.1fc74732a3ec2p-4
819=0x1.0de69567c9f6cp-2
820=-0x1.4ed8ef07fed56p-2
821=-0x1.89fb598774f89p-5
822=-0x1.f4b095082590cp-5
823=0x1.46e7e1ad67da1p-4
824=-0x1.19dd1c5d7633bp-6
825=0x1.c17f11e76c002p-4
826=-0x1.e388f26853221p-7
834=-0x1.1121cb5143798p-12
835=0x1.1a4e4b5704048p-11
837=0x1.3b785fd545bb9p-5
838=-0x1.f6fceeb4ea657p-6
840=-0x1.f16c784d8bfa3p-6
841=0x1.3da4934217251p-5
843=-0x1.17aebfbc2f00cp-5
844=0x1.92beec4e530ddp-5
846=0x1.9bc09c2e5de3p-6
847=-0x1.15791f15b77d2p-4
848=0x1.8aaf19aa54952p-7
849=-0x1.e9975791500b1p-8
852=0x1.2635eb8c636bep-4
853=-0x1.1d918a8881ef1p-4
856=0x1.16a232ff706cbp-6
857=-0x1.e148edd92cffbp-6
864=-0x1.909b7a94b6157p-5
865=0x1.2e4c809be3c6cp-7
867=-0x1.3a3db1fd5679ep-3
868=0x1.83de53118607cp-3
869=-0x1.3bde70beabdafp-5
870=-0x1.4dee5f137c99ap-5
871=0x1.ff8ded776c2efp-4
872=-0x1.bf63e7cc470bdp-5
873=-0x1.506c227ffc1c9p-4
874=0x1.c7145066b62c1p-4
875=0x1.95ffb44a2f8cap-6
876=-0x1.827fd6d6e8984p-8
877=-0x1.a151433860169p-7
879=-0x1.dcc227a1b7731p-3
880=0x1.0b0777b0a141fp-2
882=-0x1.35cc1ea3e3eep-2
883=0x1.549143b539011p-1
884=-0x1.eac5e89a90a83p-5
886=-0x1.c318fb776df3p-2
887=-0x1.5e0fa86f45p-15
891=0x1.1c55b33450062p-4
892=0x1.f34d0050d01a6p-5
893=-0x1.1c04207f9876p-3
894=0x1.2bf76c7ef31f3p-3
895=0x1.f0faa81f4fee5p-2
896=-0x1.cebca65e5bc38p-4
897=-0x1.a66bc64682a26p-5
898=-0x1.e40e556ed31c7p-2
899=-0x1.38ddd1ffedd63p-4
901=-0x1.513c4969a0fb5p-5
902=-0x1.3a023bd1c497ap-7
903=-0x1.127db76cabd8fp-6
905=0x1.76fc13223bc06p-7
906=-0x1.0fe85199aa219p-5
908=0x1.43d7840f0520bp-5
912=-0x1.c8f5f608e097bp-4
913=0x1.0a01d3f12424bp-3
914=-0x1.0bc24f99ad2f6p-4
915=-0x1.654be30c45c3dp-4
916=-0x1.4f6bdf0f005acp-4
917=-0x1.04660e66a0ceep-3
918=-0x1.83710f9af85e2p-6
919=0x1.f2d92d83896f4p-3
920=0x1.d5e3b7b0c222bp-4
922=-0x1.4b3966f5ae75dp-7
923=-0x1.270ed463c5ec9p-5
924=-0x1.54272684b6c25p-3
925=0x1.27e341bc28baap-3
926=-0x1.8da11bd9a34bp-5
928=-0x1.18c64c138c4dcp-4
929=0x1.44df8f8c807d7p-5
930=-0x1.2c139149cd4c8p-4
931=0x1.12eb46bdbf061p-3
932=-0x1.d7f54d5cfafap-5
933=-0x1.d38e13169749p-4
934=-0x1.db084b7cdd568p-5
935=-0x1.4ff1b01a3bb0ep-4
936=-0x1.2d995ed2d575cp-7
937=0x1.02a97e5d79b05p-6
939=-0x1.8dc04fc34e7fcp-4
940=0x1.31e6e365c8051p-3
941=-0x1.5fc0696471a6p-5
942=-0x1.aed07713d8146p-8
943=0x1.a9c14c63ccbf7p-8
945=0x1.17b4a81dc055ep-7
946=0x1.8ae49a143da66p-7
947=-0x1.1cad8c7d81efp-6
948=-0x1.68770f086a0d8p-3
949=0x1.6a0a0456949fep-3
951=-0x1.3411da9922348p-3
952=0x1.320efe81f64c6p-4
957=0x1.0efe421792cbbp-6
958=-0x1.dfd774c2a110ap-7
960=-0x1.f541dfae303cfp-6
961=0x1.1bab4829ebbcbp-4
962=-0x1.f1f6cf096d30dp-5
963=0x1.fc48d4c13eb46p-2
964=0x1.3623367c86d5p-10
965=0x1.219939a53b10fp-1
966=0x1.1140d2718592fp-4
967=0x1.6b6b95250913cp-4
968=-0x1.b24e1f7e4060cp-4
969=-0x1.8a27f5e3ad6bdp-1
970=-0x1.609e118ca0dacp-4
971=-0x1.a5a3b9ce2f9e4p-3
972=0x1.6aa8f7b39a783p-9
973=0x1.5603ef1815042p-8
974=-0x1.b883081db0844p-6
975=-0x1.a2647794f43a9p-7
976=0x1.44b1df6fadc3ep-6
978=-0x1.2f35c33d1d08ep-3
979=0x1.18140fd0f9becp-2
980=-0x1.afd0a003c19b3p-5
981=-0x1.cc69d7da3c4bep-4
983=-0x1.96060b5d96568p-5
984=-0x1.2ae409b534efbp-7
985=0x1.ca3f36050b703p-4
986=-0x1.dfc3441ea8f12p-7
987=-0x1.b13fc81b8921p-7
988=-0x1.180604bf54ed1p-6
989=-0x1.e44401749c77p-11
990=-0x1.7cb7805905b01p-2
991=0x1.cefb9be022067p-2
992=-0x1.564d8c80a3d7bp-4
993=-0x1.15038b1e46545p-2
994=0x1.03d73b7668aacp-3
995=-0x1.0a09a7d99c384p-4
996=-0x1.10cf6ea6511acp-4
997=0x1.bf92d85140e21p-3
998=-0x1.f8eeb4ebceae6p-6
999=-0x1.891da0e574176p-7
1000=-0x1.7fbaef8e0763fp-6
1002=-0x1.cf3eb530a6447p-6
1003=0x1.0ec0e5081e90cp-5
1004=-0x1.a1b89dd249c38p-7
1011=-0x1.22501521409f6p-6
1012=0x1.52468951f1aabp-6
1017=-0x1.446e3f93bd2f4p-5
1018=0x1.a589e34d0b2ffp-6
1020=-0x1.cd6e050a62d21p-3
1021=0x1.c9fc4b303fc6cp-3
1022=0x1.2e254d69389a4p-6
1023=-0x1.b5ee36f96ff75p-4
1024=0x1.42351e322f64cp-3
1025=0x1.ad5ea0c3589a1p-1
1026=-0x1.01c02766caf1bp-4
1027=0x1.f4e4effa2a0fbp-5
1028=-0x1.f1e3c80da47d2p-3
1029=-0x1.265ae920c60b8p-4
1030=-0x1.d5e4d69961eedp-7
1031=-0x1.b9628eec6c19p-3
1035=-0x1.b6eb559df90fap-6
1036=0x1.5080f686ea414p-5
1037=-0x1.37a5f6e6f0898p-6
1038=-0x1.842f67630e01ep-3
1039=0x1.592224217231cp-3
1040=-0x1.c7e74a937d19cp-8
1042=0x1.b321069f9a3acp-8
1044=-0x1.4991058c27176p-5
1045=-0x1.67fedf5c6dba1p-4
1046=-0x1.f2428c6d66c58p-5
1047=-0x1.151c18f6713ep-9
1048=0x1.2da78ebeb59bbp-2
1049=0x1.9e37734b2ad2ap-4
1050=0x1.41fc9744544ap-5
1051=-0x1.c60167a161161p-6
1053=0x1.777875a75ee43p-9
1056=-0x1.c2f7e6eae5ea8p-6
1057=0x1.3e87f5dd1409ep-5
1058=-0x1.983bacf72a734p-6
1059=0x1.c8fa120c27d9ap-7
1060=-0x1.1a84b6fdd5c66p-5
1062=-0x1.c70d9b8dcdd5dp-4
1063=-0x1.8ea3800c64862p-3
1064=0x1.db80efa95a0f7p-6
1065=0x1.0b8837756dc0ap-2
1066=0x1.8a8dc07fb70b4p-3
1067=0x1.04239082e0dccp-2
1068=-0x1.6446dfcc412cfp-3
1069=-0x1.3b8891e0b3c4fp-5
1070=-0x1.fde528d72f5eap-4
1071=0x1.046f3f5071223p-4
1072=-0x1.0f044c5ad39d5p-5
1073=-0x1.7696993c72c18p-8
1074=0x1.a611b0180a151p-8
1076=-0x1.132b7fb8555d8p-8
1077=-0x1.48c3b1680b89ep-4
1078=0x1.cc62a073c08b9p-4
1080=-0x1.80123e8eea862p-4
1081=0x1.0c1a850b0ea7cp-2
1082=-0x1.d91877d538ca8p-3
1083=0x1.2a3a9b0f3b25ap-7
1084=-0x1.6cb2b30ee6e97p-4
1086=-0x1.3d77d4a22f0dfp-2
1087=0x1.8c3b14dc58e93p-2
1088=-0x1.87348cb830c27p-5
1089=-0x1.1c733a3d2b4c8p-2
1090=0x1.c91353982fdb3p-2
1091=-0x1.ab35aa140db36p-4
1092=-0x1.701fd2d79ac32p-6
1093=0x1.32d8f884d55e4p-7
1095=-0x1.18434448dc324p-11
1096=-0x1.6965267a0ee5fp-7
1097=-0x1.1c3a5af2a78p-16
1098=0x1.477f28426fa43p-7
1100=0x1.1472beebe11a2p-7
1101=0x1.684d274201117p-3
1102=-0x1.82616dde5ad72p-4
1103=-0x1.1ba66cab03c36p-8
1104=-0x1.d1a98c5ca8953p-7
1105=0x1.b435ed1309f52p-7
1107=-0x1.769e5b499e7fcp-7
1108=0x1.3294d69c7de51p-6
1110=0x1.22edeeec0ff55p-3
1111=0x1.f45ded936837ap-5
1112=-0x1.0dfdc2b59a348p-2
1113=0x1.11eb190173b28p-1
1114=-0x1.ea12708887dc9p-2
1115=-0x1.1062b1e4c4d79p-5
1116=0x1.455a3f33f30eep+1
1117=-0x1.26f56a6d8096ep+1
1118=-0x1.9940b8f00ececp-3
1119=0x1.29c952631aa48p-1
1120=-0x1.1e5fed89b051cp-2
1122=0x1.03cdc38257687p+1
1123=-0x1.c27f9e2aead7p+0
1124=-0x1.69bcf2ba30234p-3
1125=-0x1.2e33f1b1c3873p-1
1128=0x1.2a219801d1c9ap-6
1129=-0x1.3d2743b71d783p-8
1131=0x1.72081f14ec1bap-10
1134=0x1.2c73c8b4ff2efp-5
1135=-0x1.2f8825a24ef43p-5
1136=0x1.325c9512af055p-8
1137=0x1.ed7be010d9217p-4
1138=-0x1.9d4fe9aa61dfdp-4
1140=0x1.ce060af97c87ep-6
1141=-0x1.ea0d2373b936cp-12
1144=0x1.9735d061b16dap-9
1146=-0x1.d9eb6659674cep-8
1147=0x1.95c5225ec9b49p-6
1148=-0x1.a92d2155eaacp-15
1149=0x1.03af5c875d308p-3
1150=-0x1.92257fe19ecd6p-4
1151=-0x1.f3745b235eb0ep-7
1152=0x1.716cdde4191adp-6
1153=-0x1.22a6f69af484dp-6
1155=-0x1.6ba2fe3219307p-5
1156=0x1.2639e1b84f3f2p-5
1157=-0x1.0fd9fccabf0a3p-8
1159=0x1.8606a1aadd7ap-13
1161=-0x1.16a2a95cc6bf9p-4
1162=0x1.070e1d60b7825p-3
1163=-0x1.c6ea88750ffc5p-4
1165=-0x1.1be436174883p-7
1166=0x1.6824fee7956b6p-8
1170=-0x1.8c39b2b12f21cp-6
1171=0x1.7ae39f2d88715p-2
1172=-0x1.516ae90e1e232p-7
1173=0x1.82a11a870dc4cp-8
1174=-0x1.9250d2fe6a5bbp-8
1176=0x1.e17af9461098bp-5
1177=-0x1.297ef4866eae7p-5
1179=-0x1.225422fc74ddep-4
1180=0x1.2e62bfc7298e3p-4
1185=-0x1.0400583735b73p-7
1186=0x1.288f1048cc0b5p-6
1191=0x1.f772eee162d8fp-5
1192=-0x1.f88639a6c3bbp-6
1193=-0x1.3d50b69f15e41p-5
1209=0x1.9fb21bbba7577p-6
1210=-0x1.5f69b719d426cp-7
1215=-0x1.a73a7e6add976p-7
1217=0x1.a0c634ffeb1fp-6
1221=0x1.d384133170906p-5
1222=-0x1.1ff9087c343bcp-9
1223=-0x1.3bba6399d4fcfp-7
1224=-0x1.9018d874541cep-3
1225=0x1.c493c180e2ed3p-3
1226=-0x1.3969c30698b06p-7
1227=-0x1.ef8ba003db1c6p-5
1228=0x1.d544a604c3753p-5
1229=0x1.a20eef066a3bp-6
1230=-0x1.51b8e1cf3cc63p-10
1231=0x1.9b3a8c69ae658p-5
1232=-0x1.0ed4e93a7b3c2p-7
1233=-0x1.a087ca3609b24p-9
1235=0x1.063ff26b507b4p-7
1236=-0x1.69ce71f2713e2p-7
1237=0x1.bdc317847592ep-7
1240=0x1.236e75999b1e3p-7
1242=-0x1.99ec301d4a21ep-4
1243=0x1.2102c1ce0a901p-3
1244=-0x1.5dbfeaddae52ap-6
1245=-0x1.3b73e53acdc14p-2
1246=0x1.ca07cc1477a3p-1
1247=-0x1.15fd2116976dep-1
1248=-0x1.3b73e53acdc14p-2
1249=0x1.ca07cc1477a3p-1
1250=-0x1.15fd2116976dep-1
1252=-0x1.d1b64f7e0b2dcp-4
1254=-0x1.34bc49f69f59ap-2
1255=0x1.1021bc7d45ee6p+0
1256=-0x1.1ec30da9c64e6p-1
1258=-0x1.7e286db1f2cb2p-7
1260=-0x1.581ae18b2bf3dp-1
1261=0x1.583491b269128p-1
1263=-0x1.d2c53b8684512p-7
1264=0x1.4aa238ddf342p-6
1266=0x1.1a2a916510d9p-4
1267=-0x1.173eb6c6f2fdap-5
1268=-0x1.9db93670a391cp-6
1269=-0x1.91ec95c363bb6p-7
1270=0x1.882c75ab44075p-6
1271=-0x1.27fe87fa0c09ep-9
1272=-0x1.f51c3833dd412p-4
1273=0x1.1d3235ffa30fap-4
1276=-0x1.993c9e4c6374fp-5
1277=0x1.9ea86097a6a55p-5
1278=0x1.46a51afbd6c26p-4
1279=-0x1.3d53d028f0252p-4
1281=-0x1.2367c923914cp-4
1282=0x1.4805b8bf6d843p-4
1284=0x1.240ba18d8bbebp-6
1285=-0x1.151d5b3840615p-6
1287=0x1.bf0772b184aap-7
1288=0x1.b260eb264dcafp-9
1289=-0x1.39e547c3756c3p-7
1290=0x1.5c823f866d1d9p-9
1299=-0x1.8e140d613d82ap-5
1300=0x1.6d73164a56f37p-5
1302=-0x1.444ea0dace334p-7
1303=0x1.f3ce08e67d8fp-8
1305=-0x1.00beb88563c76p-6
1306=0x1.12d8cf910af7ep-7
1311=-0x1.562a94b5d61fap-6
1312=0x1.01148b660c84ap-6
1314=-0x1.4bf049731286cp-6
1315=0x1.7e4fd537fe99cp-7
1317=0x1.258f6abe69654p-6
1318=0x1.569dad9fd59d7p-3
1319=-0x1.318da18de9f4bp-2
1320=0x1.93af7cd6f1d72p-1
1321=-0x1.6b300a4b7912cp-1
1322=-0x1.8949cdfe1eab5p-5
1326=0x1.4be5449d777cp-14
1329=-0x1.9683a88b8b931p-6
1330=0x1.f210222796c94p-6
1335=-0x1.bd9c86ff44336p-8
1336=0x1.4698662f47783p-10
1338=0x1.031bcfddfe403p-6
1339=-0x1.af19f59ded7a5p-5
1341=-0x1.30f73eb07748dp-6
1342=0x1.3430766728d2cp-6
1344=-0x1.e7218ee47d402p-4
1345=0x1.8487c9886e1e7p-4
1347=0x1.05b42e5c004fbp-8
1353=0x1.4cb33a55c83a1p-5
1354=-0x1.259358e5b6ee9p-5
1356=0x1.1508fd5a2df4p-8
1357=-0x1.683ef412cdbep-10
1359=0x1.cd01d60ecb6fp-7
1361=-0x1.13f3d4990abfep-10
1363=-0x1.bb9fb31dcab99p-6
1364=0x1.6dcb2d3db7d64p-6
1365=0x1.c200ed298d91fp-4
1366=-0x1.5461285f2a198p-4
1377=-0x1.73458abdfd629p-5
1378=0x1.398174428200ep-5
1389=-0x1.3b0ca43f7d371p-3
1390=0x1.1f7e9fd76ab9dp-3
1395=-0x1.510dac5332cb5p-5
1396=0x1.c1cd577469b9bp-6
1398=-0x1.096892b44686bp-5
1399=0x1.c2d520652466cp-5
1400=-0x1.9bb4ff9998e66p-10
1401=-0x1.63f4875ee8236p-3
1402=0x1.8544447e58158p-3
1404=-0x1.61ab2889c92cp-1
1405=0x1.7d16cb7bf29abp-1
1406=-0x1.bd87504c93649p-6
1410=-0x1.54cb82489cf94p-1
1411=0x1.8289a542f86e1p-1
1412=-0x1.c0fac24a6b05ap-6
1413=-0x1.fd905076f7188p-11
1416=0x1.f2212b5b834c8p-2
1417=-0x1.f53f1552cdb4bp-2
1431=0x1.73ada2b471aa4p-10
1432=-0x1.cdf2979dcd388p-9
1437=-0x1.071ba9c104e9bp-5
1438=0x1.18e932bdda478p-5
1440=0x1.1525e55e75b9dp-7
1441=-0x1.8ace012fb1f4p-7
1449=0x1.08cd0dbceeb1ap-7
1451=-0x1.26726f6236cc1p-9
1452=0x1.d86cf0c69ad8dp-7
1453=-0x1.8f9e3d5e45412p-8
1456=-0x1.5632469459dep-6
1457=0x1.16ee8c1746658p-5
1458=0x1.8e3121f011c65p-3
1459=-0x1.a90da31c9f1b5p-3
1461=-0x1.49d9a6432f762p-4
1462=0x1.538e15be000c7p-4
1470=0x1.a7389c05e3566p-7
1471=-0x1.a7737b8bea558p-7
1482=-0x1.ef70b71dd4fb1p-9
1483=0x1.e04c1e7c437b4p-8
1494=0x1.ec21a87606a74p-5
1495=-0x1.4eca5d79a7151p-6
1500=0x1.3d21a1759f5e2p-7
1501=-0x1.3c07fc091d0d4p-8
1503=-0x1.914c59cdce7a2p-4
1504=0x1.c96f6200fa2dfp-4
1506=0x1.167bd759eaa55p-6
1507=-0x1.da53f2d2ef766p-8
1512=-0x1.6ea6bb501f80ap-9
1513=0x1.5141603fc6bcp-12
1515=0x1.e7b5f922bcdacp-5
1516=-0x1.c17867382e97p-5
1521=-0x1.88e649115346cp-8
1522=0x1.aa2950761f3f8p-8
1524=-0x1.72103e6e041aap-4
1525=0x1.abd9c6e0d912cp-4
1527=-0x1.7b6bc062abff2p-5
1528=0x1.a03d2db8dc56ap-5
1530=0x1.6565a8f6a038ap-4
1531=-0x1.591dae4f54f4cp-4
1533=0x1.20c6bb2ca2b62p-3
1534=-0x1.d4d17e09beb8p-4
1536=-0x1.5f20e520c1efcp-7
1538=0x1.81ca03e552db4p-12
1540=-0x1.daf128bba3dfcp-6
1541=0x1.4409e2beae7bfp-6
1542=-0x1.f5224d511c718p-7
1543=0x1.2c904bec8013dp-6
1544=-0x1.c053a6ed0ce7ep-8
1545=-0x1.3e6a159947c41p-3
1546=0x1.48d79802547dfp-3
1549=0x1.844488bd49ddap-8
1551=-0x1.4001265970ad6p-7
1552=0x1.810a0aa633f76p-8
1558=0x1.8a3e9f2bf7ee8p-8
1564=-0x1.9471cded0b854p-8
1565=0x1.f64717b14d133p-8
1569=0x1.fb6142b3051eep-5
1570=-0x1.11485013b307ep-4
1575=-0x1.d46c6ea18824p-5
1576=0x1.e26de58369c35p-5
1587=-0x1.4e45327544dd8p-12
1588=0x1.a5a87930d5f44p-9
1608=-0x1.19bcbb9e15bbap-9
1609=0x1.73b3b84eca1dep-8
1617=0x1.f78f44526da12p-6
1618=-0x1.06ae3d43dda69p-5
1623=0x1.512e60c2cd5c5p-5
1624=-0x1.855e08911b59ap-6
1625=-0x1.2323e1c5e48dfp-6
1626=0x1.e26c445137de1p-3
1627=-0x1.b8f6bfb87b3f5p-3
1628=-0x1.0d3704f71223p-9
1635=0x1.bc218ef73aa98p-3
1636=-0x1.b1be3a90f869cp-3
1641=0x1.a4a5d1d7850fbp-6
1642=-0x1.2dfcd63d89c84p-6
1647=-0x1.7d1f29c05dc37p-9
1648=0x1.3547f917e60dap-7
1650=-0x1.d2c750834da4ep-8
1651=0x1.d7676622ebaccp-7
1656=-0x1.2f7202c6925aap-5
1657=0x1.d9476a62f151cp-5
1659=-0x1.9fff9fef3989fp-4
1660=0x1.367927f009f72p-3
1661=-0x1.26d34ce205f6ep-6
1662=-0x1.daef3ba855cb9p-9
1663=0x1.b6b036c8551dep-8
1665=-0x1.5ab7d16f27898p-1
1666=0x1.e3d5e8495b3d2p-1
1667=-0x1.d8cce3f4f4dd1p-3
1668=-0x1.cf2c83ebbb7e4p-2
1669=0x1.11d42ce2bdabep-2
1670=-0x1.62ff090faf7a3p-4
1671=-0x1.503312220d82ap-3
1672=0x1.7123c5a03d40cp-1
1673=-0x1.bf794dcafceaep-4
1674=-0x1.b62be815535ccp-6
1675=-0x1.3fc8460412becp-5
1677=-0x1.0c2300f8f1529p-5
1678=0x1.fd29e6cbd4ccep-6
1680=-0x1.cce3e54e5bf51p-3
1681=0x1.2b76dbbd21a87p-2
1682=-0x1.63c14171257c5p-5
1684=0x1.ab34f536f7df6p-8
1686=-0x1.126dd6d9612e8p-6
1687=0x1.92e29277c4855p-5
1688=-0x1.fc4f44d07d5adp-7
1689=-0x1.88346e070a63ap-7
1690=0x1.a85b2048fedbap-6
1692=-0x1.224aacd9236cfp-4
1693=0x1.82350c3b0419bp-4
1695=-0x1.6ca6604258442p-7
1696=0x1.cc357b3c3887ap-6
1697=-0x1.8ec10c55868c4p-8
1698=-0x1.fd82dbdcee464p-7
1699=0x1.87224d313b1e3p-9
1701=-0x1.c19d63f6ae28p-4
1702=0x1.0eeadc241c833p-3
1703=-0x1.bd210ea2248a2p-9
1710=0x1.0c3e0aae4669cp-7
1711=-0x1.21f784d5e7b99p-7
1716=-0x1.82365cbef04d2p-9
1717=0x1.99ba092511c66p-8
1719=-0x1.757e6310b9eb1p-6
1720=0x1.5b0a10798b1d8p-5
1721=-0x1.19cab4f283fe8p-11
1722=-0x1.5ccfacbd87a68p-5
1723=0x1.261a473534033p-4
1724=-0x1.0cde642c8d34dp-8
1725=-0x1.5baff56984904p-5
1726=0x1.bbfdaa0d9ce3bp-5
1735=0x1.7db3d2e95f08p-16
1741=0x1.a3bed2944600ep-8
1743=-0x1.3d6ad88e846d7p-5
1744=0x1.025e9f2bbaf96p-4
1745=-0x1.4004a60bbd142p-9
1746=-0x1.4e342f8eb6c07p-5
1747=0x1.a257ad3297547p-5
1753=-0x1.567dc74263a4p-13
1754=0x1.05bbb255e16f2p-9
1761=-0x1.474248f5f4288p-8
1762=0x1.3db1978045d27p-7
1764=-0x1.96ff95f730796p-6
1765=0x1.205622a128b9ap-5
1767=-0x1.bf61430456569p-5
1768=0x1.abb01e27fd566p-5
1785=-0x1.06b942742562dp-7
1786=0x1.fc2fa00d6e142p-8
1818=0x1.551b34e2aab23p-6
1819=-0x1.e39d5fe7d2d5bp-7
1828=0x1.7c5cd579c7866p-9
1833=-0x1.194b503401493p-5
1834=0x1.3929b5ffbb6dp-4
1835=-0x1.a9850922bd8c8p-7
1837=0x1.0fab5876c3f42p-8
1839=-0x1.4aaaa51770f7dp-4
1840=0x1.d83d8c611417bp-4
1841=-0x1.421d9d32c688ep-7
1842=-0x1.193bcaacba59cp-6
1843=0x1.33c180d6d6565p-5
1845=-0x1.f7e504a448dcap-7
1846=0x1.7fd4fcecfb3e2p-5
1847=-0x1.40745781c0b8ep-8
1848=-0x1.5581119a36cbap-5
1849=0x1.7b0b335f43bbcp-5
1851=0x1.3f93007b0420bp-6
1852=-0x1.723fa51d50c41p-6
1855=0x1.953f276f6d22cp-10
1884=0x1.35d6af510d9ecp-1
1885=-0x1.3c001e1e07f39p-1
1887=-0x1.785d933a46df2p-6
1888=0x1.87ae32c2f0504p-6
1893=0x1.047562d71a99ap-8
1894=-0x1.27fa1b4305fc8p-9
1902=0x1.658b497bfb9a3p-1
1903=-0x1.595329ed1895fp-1
1904=-0x1.d535d9414ef67p-8
1905=0x1.658b497bfb9a3p-1
1906=-0x1.595329ed1895fp-1
1907=-0x1.d535d9414ef67p-8
1908=0x1.49764b17cc79ep-8
1909=-0x1.440d0cf7cf24ep-10
1911=0x1.5f29a26437ce4p-1
1912=-0x1.4fd76eacdac6p-1
1926=-0x1.ab2df6d7650dp-8
1927=0x1.f7814b85d1461p-7
1930=0x1.127dfca56ec8p-14
1933=-0x1.9b21839effb6ep-8
1934=0x1.05d1ad46af9e3p-6
1935=0x1.ba2c9451efd3ep-8
1938=0x1.88775593f91d5p-7
1947=0x1.075c9a3698608p-5
1950=0x1.0bd8929237f9bp+0
1951=-0x1.0cb1da658b169p+0
1953=-0x1.98218d7e583bdp-9
1954=0x1.a1b2c8c7bb78p-9
1967=-0x1.0702062f8b5fcp-9
1968=0x1.121deda4fb378p-1
1969=-0x1.0aa61fcfd04eep-1
1971=0x1.e6b57307f785dp-1
1972=-0x1.d5b7387a0c389p-1
1973=-0x1.0e10d6315cbcep-6
1974=0x1.953580c77e3c5p-6
1975=-0x1.aef0d4d613b64p-8
1977=0x1.ddae3b2be2fap-1
1978=-0x1.c991a5fced463p-1
1979=-0x1.8b524c1ef1e4fp-9
1980=-0x1.a82cfc714197dp-8
1991=0x1.d3a3a5cdd34e6p-8
1999=0x1.39831a9b50b41p-7
2000=-0x1.9167e6c8c8ebep-8
2001=0x1.0880b0fe97968p-5
2002=-0x1.858bb256e1b09p-6
2031=-0x1.d727b9c4fc97ep-8
2032=0x1.100ea8a249d84p-6
2040=0x1.0efeae78765cap-7
2043=0x1.9606c03750312p-4
2044=-0x1.2f97931d20c8bp-4
2052=0x1.6598efd17159ep-8
2053=-0x1.304ba4a5b077p-10
2064=0x1.ea56f80dccb36p-3
2065=-0x1.b934d67ec18b3p-3
2066=-0x1.9c35e21d2f778p-9
2079=0x1.f936217f048d5p-6
2080=-0x1.df270f8d4802ap-6
2088=0x1.d4d0ec97bcdd4p-2
2089=-0x1.d5c128c09f3a3p-2
2097=0x1.1d5bdf7e706cep-7
2098=-0x1.1c78a6c5010b5p-7
2106=0x1.9813a30d37cf5p-2
2107=-0x1.8506c99bb7078p-2
2108=-0x1.f171b8bffb71p-10
2127=0x1.4e485a82a24aep-2
2128=-0x1.3a3194c91dc45p-2
2136=0x1.245fc15a58c4cp-7
2137=-0x1.02fd4d3af4bb8p-6
2167=0x1.68e9018b11c48p-10
2169=-0x1.c8df6da19a5c4p-6
2170=0x1.67aa202c2874ap-5
2172=-0x1.6b7a8cc4912c2p-10
2173=0x1.710b48b6ff6a8p-12
2179=-0x1.1736d0156e299p-8
2180=0x1.4d6bdb1924e12p-8
2208=-0x1.adc075d9d377dp-6
2209=0x1.f9f3aee7e7f64p-6
2211=-0x1.2445f51b72134p-7
2212=0x1.fadc9ed6b568ep-8
2215=0x1.887de08c56c6p-7
2220=-0x1.23f46bd05297dp-8
2221=0x1.d8e35fd1b39dap-8
2223=-0x1.23f46bd05297dp-8
2224=0x1.d8e35fd1b39dap-8
2226=-0x1.23f46bd05297dp-8
2227=0x1.d8e35fd1b39dap-8
2229=-0x1.61a410b73ccacp-8
2230=0x1.623f58160f099p-8
2232=-0x1.61a410b73ccacp-8
2233=0x1.623f58160f099p-8
2235=-0x1.61a410b73ccacp-8
2236=0x1.623f58160f099p-8
2265=-0x1.cf2f9cc0dd9bdp-8
2266=0x1.49b6c91e58dc6p-6
2268=-0x1.51a9f46a4663cp-4
2269=0x1.67a54f729e3a9p-4
2274=0x1.d82e8e2071e3p-10
2275=-0x1.6dbff6f97e76dp-7
2310=-0x1.23cb7230ec3f5p-4
2311=0x1.7888e762365ccp-4
2312=-0x1.7191e53c8f05p-9
2313=-0x1.e8d3d8b066de9p-6
2316=-0x1.8e807eb1c8887p-7
2317=0x1.bf5c9ad41f47ap-4
2382=-0x1.44697cf18de3p-6
2383=0x1.4a2772134a472p-6
2385=-0x1.c7bdb51f3e7d6p-7
2386=0x1.0071e59cab267p-6
2388=-0x1.67764fcc55457p-7
2389=0x1.6a90f61846addp-7
2391=-0x1.67764fcc55457p-7
2392=0x1.6a90f61846addp-7
2394=-0x1.67764fcc55457p-7
2395=0x1.6a90f61846addp-7
2695=-0x1.728d6dcd3ba3p-7
2696=0x1.c810ec2126742p-6
2709=0x1.928a13ad17969p-6
2710=-0x1.6e23415a73ee2p-6
2718=0x1.3fed285ea37e8p-5
2719=-0x1.09c48e531705ap-5
2721=0x1.2b61ab299c582p-1
2722=-0x1.2af35b2f7a61bp-1
2737=0x1.1e3243bfca3bep-9
2739=-0x1.b78944b88a585p-2
2740=0x1.daff5153174c3p-2
2741=-0x1.1e0a44f080edep-7
2742=-0x1.e375b872995eep-9
2781=-0x1.ba9069149b132p-5
2782=0x1.cebe26eb96a9ep-5
