#mdl#2#863
#rdr#18/10/0
1:b,
21:u:code-1LLL =%X[-3,0],
21:u:code-1LL  =%X[-2,0],
21:u:code-1L   =%X[-1,0],
20:u:code-1X   =%X[0,0],
20:u:code-1R   =%X[1,0],
20:u:code-1RR  =%X[2,0],
20:u:code-1RRR =%X[3,0],
13:*100:%x[ 0,1],
13:*100:%x[ 0,2],
13:*100:%x[ 0,3],
13:*100:%x[ 0,4],
13:*100:%x[ 0,5],
13:*100:%x[ 0,6],
13:*100:%x[ 0,7],
13:*100:%x[ 0,8],
13:*100:%x[ 0,9],
14:*100:%x[ 0,10],
#qrk#3
1:T,
1:I,
1:O,
#qrk#988
1:b,
17:u:code-1LLL =_x-3,
17:u:code-1LL  =_x-2,
17:u:code-1L   =_x-1,
17:u:code-1X   =1055,
17:u:code-1R   =1072,
17:u:code-1RR  =1118,
17:u:code-1RRR =1076,
7:*100:Lu,
8:*100:6:T,
8:*100:4:T,
9:*100:22:T,
8:*100:9:T,
9:*100:26:F,
9:*100:19:F,
9:*100:15:F,
8:*100:7:F,
8:*100:0:F,
17:u:code-1LLL =_x-2,
17:u:code-1LL  =_x-1,
17:u:code-1L   =1055,
17:u:code-1X   =1072,
17:u:code-1R   =1118,
17:u:code-1RR  =1076,
17:u:code-1RRR =1085,
7:*100:Ll,
9:*100:24:T,
8:*100:1:F,
8:*100:6:F,
8:*100:8:F,
9:*100:20:F,
9:*100:29:F,
9:*100:16:F,
17:u:code-1LLL =_x-1,
17:u:code-1LL  =1055,
17:u:code-1L   =1072,
17:u:code-1X   =1118,
17:u:code-1R   =1076,
17:u:code-1RR  =1085,
17:u:code-1RRR =1105,
9:*100:16:T,
9:*100:13:T,
9:*100:21:T,
9:*100:11:F,
9:*100:25:F,
17:u:code-1LLL =1055,
17:u:code-1LL  =1072,
17:u:code-1L   =1118,
17:u:code-1X   =1076,
17:u:code-1R   =1085,
17:u:code-1RR  =1105,
17:u:code-1RRR =1074,
9:*100:27:T,
8:*100:7:T,
9:*100:10:T,
17:u:code-1LLL =1072,
17:u:code-1LL  =1118,
17:u:code-1L   =1076,
17:u:code-1X   =1085,
17:u:code-1R   =1105,
17:u:code-1RR  =1074,
17:u:code-1RRR =1072,
8:*100:1:T,
8:*100:8:T,
8:*100:0:T,
9:*100:21:F,
9:*100:23:F,
17:u:code-1LLL =1118,
17:u:code-1LL  =1076,
17:u:code-1L   =1085,
17:u:code-1X   =1105,
17:u:code-1R   =1074,
17:u:code-1RR  =1072,
17:u:code-1RRR =1103,
9:*100:29:T,
9:*100:17:F,
17:u:code-1LLL =1076,
17:u:code-1LL  =1085,
17:u:code-1L   =1105,
17:u:code-1X   =1074,
17:u:code-1RR  =1103,
15:u:code-1RRR =32,
9:*100:25:T,
8:*100:3:T,
9:*100:22:F,
17:u:code-1LLL =1085,
17:u:code-1LL  =1105,
17:u:code-1L   =1074,
17:u:code-1R   =1103,
15:u:code-1RR  =32,
17:u:code-1RRR =1050,
9:*100:27:F,
9:*100:18:F,
8:*100:5:F,
17:u:code-1LLL =1105,
17:u:code-1LL  =1074,
17:u:code-1X   =1103,
15:u:code-1R   =32,
17:u:code-1RR  =1050,
9:*100:24:F,
17:u:code-1LLL =1074,
17:u:code-1L   =1103,
15:u:code-1X   =32,
17:u:code-1R   =1050,
17:u:code-1RRR =1088,
7:*100:Zs,
9:*100:12:F,
17:u:code-1LL  =1103,
15:u:code-1L   =32,
17:u:code-1X   =1050,
17:u:code-1RR  =1088,
17:u:code-1RRR =1101,
9:*100:28:F,
17:u:code-1LLL =1103,
15:u:code-1LL  =32,
17:u:code-1L   =1050,
17:u:code-1R   =1088,
17:u:code-1RR  =1101,
9:*100:20:T,
15:u:code-1LLL =32,
17:u:code-1LL  =1050,
17:u:code-1X   =1088,
17:u:code-1R   =1101,
9:*100:13:F,
17:u:code-1LLL =1050,
17:u:code-1L   =1088,
17:u:code-1X   =1101,
17:u:code-1RRR =1093,
9:*100:14:T,
17:u:code-1LL  =1088,
17:u:code-1L   =1101,
17:u:code-1RR  =1093,
17:u:code-1RRR =1086,
9:*100:17:T,
9:*100:28:T,
8:*100:9:F,
17:u:code-1LLL =1088,
17:u:code-1LL  =1101,
17:u:code-1R   =1093,
17:u:code-1RR  =1086,
17:u:code-1RRR =1095,
8:*100:2:T,
17:u:code-1LLL =1101,
17:u:code-1X   =1093,
17:u:code-1R   =1086,
17:u:code-1RR  =1095,
17:u:code-1L   =1093,
17:u:code-1X   =1086,
17:u:code-1R   =1095,
8:*100:5:T,
9:*100:11:T,
17:u:code-1LL  =1093,
17:u:code-1L   =1086,
17:u:code-1X   =1095,
17:u:code-1RRR =1110,
8:*100:4:F,
17:u:code-1LLL =1093,
17:u:code-1LL  =1086,
17:u:code-1L   =1095,
17:u:code-1RR  =1110,
17:u:code-1LLL =1086,
17:u:code-1LL  =1095,
17:u:code-1R   =1110,
17:u:code-1LLL =1095,
17:u:code-1X   =1110,
17:u:code-1RRR =1077,
9:*100:10:F,
8:*100:2:F,
17:u:code-1L   =1110,
17:u:code-1RR  =1077,
17:u:code-1RRR =1089,
9:*100:19:T,
17:u:code-1LL  =1110,
17:u:code-1R   =1077,
17:u:code-1RR  =1089,
17:u:code-1RRR =1090,
8:*100:3:F,
17:u:code-1LLL =1110,
17:u:code-1X   =1077,
17:u:code-1R   =1089,
17:u:code-1RR  =1090,
17:u:code-1L   =1077,
17:u:code-1X   =1089,
17:u:code-1R   =1090,
9:*100:23:T,
17:u:code-1LL  =1077,
17:u:code-1L   =1089,
17:u:code-1X   =1090,
9:*100:12:T,
9:*100:15:T,
9:*100:14:F,
17:u:code-1LLL =1077,
17:u:code-1LL  =1089,
17:u:code-1L   =1090,
17:u:code-1RRR =1094,
17:u:code-1LLL =1089,
17:u:code-1LL  =1090,
17:u:code-1RR  =1094,
17:u:code-1RRR =1100,
17:u:code-1LLL =1090,
17:u:code-1R   =1094,
17:u:code-1RR  =1100,
17:u:code-1X   =1094,
17:u:code-1R   =1100,
17:u:code-1RRR =1091,
17:u:code-1L   =1094,
17:u:code-1X   =1100,
17:u:code-1RR  =1091,
17:u:code-1LL  =1094,
17:u:code-1L   =1100,
17:u:code-1R   =1091,
17:u:code-1RRR =1073,
9:*100:18:T,
17:u:code-1LLL =1094,
17:u:code-1LL  =1100,
17:u:code-1X   =1091,
17:u:code-1RR  =1073,
17:u:code-1LLL =1100,
17:u:code-1L   =1091,
17:u:code-1R   =1073,
17:u:code-1RRR =1083,
17:u:code-1LL  =1091,
17:u:code-1X   =1073,
17:u:code-1RR  =1083,
17:u:code-1LLL =1091,
17:u:code-1L   =1073,
17:u:code-1R   =1083,
17:u:code-1LL  =1073,
17:u:code-1X   =1083,
17:u:code-1LLL =1073,
17:u:code-1L   =1083,
17:u:code-1LL  =1083,
17:u:code-1RRR =1082,
9:*100:26:T,
17:u:code-1LLL =1083,
17:u:code-1RR  =1082,
17:u:code-1R   =1082,
17:u:code-1RRR =1102,
17:u:code-1X   =1082,
17:u:code-1RR  =1102,
17:u:code-1L   =1082,
17:u:code-1R   =1102,
17:u:code-1LL  =1082,
17:u:code-1X   =1102,
17:u:code-1LLL =1082,
17:u:code-1L   =1102,
17:u:code-1LL  =1102,
17:u:code-1LLL =1102,
17:u:code-1RRR =1084,
17:u:code-1RR  =1084,
17:u:code-1R   =1084,
17:u:code-1X   =1084,
17:u:code-1L   =1084,
17:u:code-1LL  =1084,
17:u:code-1RRR =1053,
17:u:code-1LLL =1084,
17:u:code-1RR  =1053,
17:u:code-1R   =1053,
17:u:code-1RRR =1081,
17:u:code-1X   =1053,
17:u:code-1RR  =1081,
17:u:code-1L   =1053,
17:u:code-1R   =1081,
17:u:code-1LL  =1053,
17:u:code-1X   =1081,
17:u:code-1LLL =1053,
17:u:code-1L   =1081,
17:u:code-1LL  =1081,
17:u:code-1LLL =1081,
17:u:code-1RRR =1096,
17:u:code-1RR  =1096,
17:u:code-1R   =1096,
17:u:code-1X   =1096,
17:u:code-1L   =1096,
17:u:code-1LL  =1096,
17:u:code-1LLL =1096,
17:u:code-1RRR =1099,
17:u:code-1RR  =1099,
17:u:code-1R   =1099,
17:u:code-1X   =1099,
17:u:code-1L   =1099,
17:u:code-1LL  =1099,
17:u:code-1LLL =1099,
17:u:code-1RRR =1087,
17:u:code-1RR  =1087,
17:u:code-1R   =1087,
17:u:code-1X   =1087,
17:u:code-1L   =1087,
17:u:code-1LL  =1087,
17:u:code-1LLL =1087,
17:u:code-1RRR =1055,
17:u:code-1RR  =1055,
17:u:code-1R   =1055,
17:u:code-1RRR =1118,
15:u:code-1RRR =68,
15:u:code-1RR  =68,
15:u:code-1RRR =97,
15:u:code-1R   =68,
15:u:code-1RR  =97,
16:u:code-1RRR =101,
15:u:code-1X   =68,
15:u:code-1R   =97,
16:u:code-1RR  =101,
16:u:code-1RRR =114,
15:u:code-1L   =68,
15:u:code-1X   =97,
16:u:code-1R   =101,
16:u:code-1RR  =114,
16:u:code-1RRR =121,
15:u:code-1LL  =68,
15:u:code-1L   =97,
16:u:code-1X   =101,
16:u:code-1R   =114,
16:u:code-1RR  =121,
16:u:code-1RRR =111,
15:u:code-1LLL =68,
15:u:code-1LL  =97,
16:u:code-1L   =101,
16:u:code-1X   =114,
16:u:code-1R   =121,
16:u:code-1RR  =111,
15:u:code-1LLL =97,
16:u:code-1LL  =101,
16:u:code-1L   =114,
16:u:code-1X   =121,
16:u:code-1R   =111,
16:u:code-1RRR =107,
16:u:code-1LLL =101,
16:u:code-1LL  =114,
16:u:code-1L   =121,
16:u:code-1X   =111,
16:u:code-1RR  =107,
16:u:code-1LLL =114,
16:u:code-1LL  =121,
16:u:code-1L   =111,
16:u:code-1R   =107,
15:u:code-1RRR =38,
16:u:code-1LLL =121,
16:u:code-1LL  =111,
16:u:code-1X   =107,
15:u:code-1RR  =38,
16:u:code-1LLL =111,
16:u:code-1L   =107,
15:u:code-1R   =38,
16:u:code-1RRR =109,
16:u:code-1LL  =107,
15:u:code-1X   =38,
16:u:code-1RR  =109,
16:u:code-1RRR =112,
7:*100:Po,
16:u:code-1LLL =107,
15:u:code-1L   =38,
16:u:code-1R   =109,
16:u:code-1RR  =112,
15:u:code-1RRR =59,
15:u:code-1LL  =38,
16:u:code-1X   =109,
16:u:code-1R   =112,
15:u:code-1RR  =59,
15:u:code-1LLL =38,
16:u:code-1L   =109,
16:u:code-1X   =112,
15:u:code-1R   =59,
15:u:code-1RRR =65,
16:u:code-1LL  =109,
16:u:code-1L   =112,
15:u:code-1X   =59,
15:u:code-1RR  =65,
16:u:code-1RRR =106,
16:u:code-1LLL =109,
16:u:code-1LL  =112,
15:u:code-1L   =59,
15:u:code-1R   =65,
16:u:code-1RR  =106,
16:u:code-1RRR =117,
16:u:code-1LLL =112,
15:u:code-1LL  =59,
15:u:code-1X   =65,
16:u:code-1R   =106,
16:u:code-1RR  =117,
15:u:code-1LLL =59,
15:u:code-1L   =65,
16:u:code-1X   =106,
16:u:code-1R   =117,
15:u:code-1RRR =73,
15:u:code-1LL  =65,
16:u:code-1L   =106,
16:u:code-1X   =117,
15:u:code-1RR  =73,
16:u:code-1RRR =110,
15:u:code-1LLL =65,
16:u:code-1LL  =106,
16:u:code-1L   =117,
15:u:code-1R   =73,
16:u:code-1RR  =110,
16:u:code-1RRR =116,
16:u:code-1LLL =106,
16:u:code-1LL  =117,
15:u:code-1X   =73,
16:u:code-1R   =110,
16:u:code-1RR  =116,
16:u:code-1LLL =117,
15:u:code-1L   =73,
16:u:code-1X   =110,
16:u:code-1R   =116,
15:u:code-1LL  =73,
16:u:code-1L   =110,
16:u:code-1X   =116,
15:u:code-1LLL =73,
16:u:code-1LL  =110,
16:u:code-1L   =116,
16:u:code-1LLL =110,
16:u:code-1LL  =116,
16:u:code-1LLL =116,
16:u:code-1RRR =108,
16:u:code-1RR  =108,
16:u:code-1R   =108,
15:u:code-1RRR =76,
16:u:code-1X   =108,
15:u:code-1RR  =76,
16:u:code-1L   =108,
15:u:code-1R   =76,
16:u:code-1RRR =119,
16:u:code-1LL  =108,
15:u:code-1X   =76,
16:u:code-1RR  =119,
16:u:code-1LLL =108,
15:u:code-1L   =76,
16:u:code-1R   =119,
15:u:code-1RRR =70,
15:u:code-1LL  =76,
16:u:code-1X   =119,
15:u:code-1RR  =70,
16:u:code-1RRR =105,
15:u:code-1LLL =76,
16:u:code-1L   =119,
15:u:code-1R   =70,
16:u:code-1RR  =105,
16:u:code-1LL  =119,
15:u:code-1X   =70,
16:u:code-1R   =105,
16:u:code-1LLL =119,
15:u:code-1L   =70,
16:u:code-1X   =105,
15:u:code-1LL  =70,
16:u:code-1L   =105,
17:u:code-1RRR =1079,
15:u:code-1LLL =70,
16:u:code-1LL  =105,
17:u:code-1RR  =1079,
16:u:code-1LLL =105,
17:u:code-1R   =1079,
17:u:code-1X   =1079,
17:u:code-1L   =1079,
17:u:code-1LL  =1079,
17:u:code-1LLL =1079,
17:u:code-1RRR =1075,
17:u:code-1RR  =1075,
17:u:code-1R   =1075,
17:u:code-1X   =1075,
17:u:code-1L   =1075,
17:u:code-1LL  =1075,
17:u:code-1LLL =1075,
17:u:code-1RRR =1041,
17:u:code-1RR  =1041,
17:u:code-1R   =1041,
17:u:code-1X   =1041,
17:u:code-1L   =1041,
17:u:code-1LL  =1041,
17:u:code-1LLL =1041,
15:u:code-1RRR =46,
15:u:code-1RR  =46,
15:u:code-1R   =46,
17:u:code-1RRR =1059,
15:u:code-1X   =46,
17:u:code-1RR  =1059,
15:u:code-1L   =46,
17:u:code-1R   =1059,
15:u:code-1LL  =46,
17:u:code-1X   =1059,
15:u:code-1LLL =46,
17:u:code-1L   =1059,
17:u:code-1LL  =1059,
17:u:code-1LLL =1059,
17:u:code-1RRR =1057,
17:u:code-1RR  =1057,
17:u:code-1R   =1057,
17:u:code-1X   =1057,
17:u:code-1L   =1057,
17:u:code-1LL  =1057,
15:u:code-1RRR =49,
17:u:code-1LLL =1057,
15:u:code-1RR  =49,
15:u:code-1RRR =54,
15:u:code-1R   =49,
15:u:code-1RR  =54,
15:u:code-1X   =49,
15:u:code-1R   =54,
7:*100:Nd,
15:u:code-1L   =49,
15:u:code-1X   =54,
15:u:code-1LL  =49,
15:u:code-1L   =54,
15:u:code-1LLL =49,
15:u:code-1LL  =54,
15:u:code-1LLL =54,
17:u:code-1RRR =1071,
17:u:code-1RR  =1071,
17:u:code-1R   =1071,
17:u:code-1X   =1071,
17:u:code-1L   =1071,
17:u:code-1LL  =1071,
17:u:code-1LLL =1071,
17:u:code-1RRR =1058,
17:u:code-1RR  =1058,
17:u:code-1R   =1058,
17:u:code-1X   =1058,
17:u:code-1L   =1058,
17:u:code-1LL  =1058,
17:u:code-1LLL =1058,
17:u:code-1RRR =1092,
17:u:code-1RR  =1092,
17:u:code-1R   =1092,
17:u:code-1X   =1092,
17:u:code-1L   =1092,
17:u:code-1LL  =1092,
17:u:code-1LLL =1092,
15:u:code-1RRR =44,
15:u:code-1RR  =44,
15:u:code-1R   =44,
15:u:code-1X   =44,
15:u:code-1L   =44,
15:u:code-1LL  =44,
15:u:code-1LLL =44,
15:u:code-1RRR =39,
15:u:code-1RR  =39,
15:u:code-1R   =39,
15:u:code-1X   =39,
15:u:code-1L   =39,
15:u:code-1LL  =39,
15:u:code-1LLL =39,
17:u:code-1RRR =1078,
17:u:code-1RR  =1078,
17:u:code-1R   =1078,
17:u:code-1X   =1078,
17:u:code-1L   =1078,
17:u:code-1LL  =1078,
17:u:code-1LLL =1078,
15:u:code-1RRR =34,
15:u:code-1RR  =34,
17:u:code-1RRR =1069,
15:u:code-1R   =34,
17:u:code-1RR  =1069,
15:u:code-1X   =34,
17:u:code-1R   =1069,
15:u:code-1L   =34,
17:u:code-1X   =1069,
15:u:code-1LL  =34,
17:u:code-1L   =1069,
15:u:code-1LLL =34,
17:u:code-1LL  =1069,
17:u:code-1LLL =1069,
17:u:code-1RRR =1040,
17:u:code-1RR  =1040,
17:u:code-1R   =1040,
17:u:code-1X   =1040,
17:u:code-1L   =1040,
17:u:code-1LL  =1040,
17:u:code-1LLL =1040,
17:u:code-1RRR =1045,
17:u:code-1RR  =1045,
17:u:code-1R   =1045,
17:u:code-1X   =1045,
17:u:code-1L   =1045,
17:u:code-1LL  =1045,
17:u:code-1LLL =1045,
17:u:code-1RRR =1056,
17:u:code-1RR  =1056,
17:u:code-1R   =1056,
17:u:code-1X   =1056,
17:u:code-1L   =1056,
17:u:code-1LL  =1056,
17:u:code-1LLL =1056,
17:u:code-1RRR =1047,
17:u:code-1RR  =1047,
17:u:code-1RRR =1064,
17:u:code-1R   =1047,
17:u:code-1RR  =1064,
17:u:code-1X   =1047,
17:u:code-1R   =1064,
17:u:code-1L   =1047,
17:u:code-1X   =1064,
17:u:code-1LL  =1047,
17:u:code-1L   =1064,
17:u:code-1LLL =1047,
17:u:code-1LL  =1064,
15:u:code-1RRR =45,
17:u:code-1LLL =1064,
15:u:code-1RR  =45,
15:u:code-1R   =45,
15:u:code-1X   =45,
7:*100:Pd,
15:u:code-1L   =45,
15:u:code-1LL  =45,
15:u:code-1LLL =45,
17:u:code-1RRR =1044,
17:u:code-1RR  =1044,
17:u:code-1R   =1044,
17:u:code-1X   =1044,
17:u:code-1L   =1044,
17:u:code-1LL  =1044,
17:u:code-1LLL =1044,
17:u:code-1RRR =1052,
17:u:code-1RR  =1052,
17:u:code-1R   =1052,
17:u:code-1X   =1052,
17:u:code-1L   =1052,
17:u:code-1RRR =1063,
17:u:code-1LL  =1052,
17:u:code-1RR  =1063,
17:u:code-1LLL =1052,
17:u:code-1R   =1063,
17:u:code-1X   =1063,
17:u:code-1L   =1063,
17:u:code-1LL  =1063,
17:u:code-1LLL =1063,
15:u:code-1RRR =40,
15:u:code-1RR  =40,
15:u:code-1RRR =75,
15:u:code-1R   =40,
15:u:code-1RR  =75,
15:u:code-1RRR =79,
15:u:code-1X   =40,
15:u:code-1R   =75,
15:u:code-1RR  =79,
15:u:code-1RRR =84,
7:*100:Ps,
15:u:code-1L   =40,
15:u:code-1X   =75,
15:u:code-1R   =79,
15:u:code-1RR  =84,
15:u:code-1RRR =82,
15:u:code-1LL  =40,
15:u:code-1L   =75,
15:u:code-1X   =79,
15:u:code-1R   =84,
15:u:code-1RR  =82,
15:u:code-1LLL =40,
15:u:code-1LL  =75,
15:u:code-1L   =79,
15:u:code-1X   =84,
15:u:code-1R   =82,
15:u:code-1RRR =41,
15:u:code-1LLL =75,
15:u:code-1LL  =79,
15:u:code-1L   =84,
15:u:code-1X   =82,
15:u:code-1RR  =41,
15:u:code-1LLL =79,
15:u:code-1LL  =84,
15:u:code-1L   =82,
15:u:code-1R   =41,
17:u:code-1RRR =1054,
15:u:code-1LLL =84,
15:u:code-1LL  =82,
15:u:code-1X   =41,
17:u:code-1RR  =1054,
7:*100:Pe,
15:u:code-1LLL =82,
15:u:code-1L   =41,
17:u:code-1R   =1054,
15:u:code-1LL  =41,
17:u:code-1X   =1054,
15:u:code-1LLL =41,
17:u:code-1L   =1054,
17:u:code-1LL  =1054,
17:u:code-1LLL =1054,
17:u:code-1RRR =1043,
17:u:code-1RR  =1043,
17:u:code-1R   =1043,
17:u:code-1X   =1043,
17:u:code-1L   =1043,
17:u:code-1LL  =1043,
17:u:code-1LLL =1043,
17:u:code-1RRR =1046,
17:u:code-1RR  =1046,
17:u:code-1R   =1046,
17:u:code-1X   =1046,
17:u:code-1L   =1046,
17:u:code-1LL  =1046,
17:u:code-1LLL =1046,
15:u:code-1RRR =56,
15:u:code-1RR  =56,
15:u:code-1R   =56,
15:u:code-1X   =56,
15:u:code-1L   =56,
15:u:code-1LL  =56,
15:u:code-1LLL =56,
17:u:code-1RRR =1025,
17:u:code-1RR  =1025,
17:u:code-1R   =1025,
17:u:code-1X   =1025,
17:u:code-1L   =1025,
17:u:code-1LL  =1025,
17:u:code-1LLL =1025,
17:u:code-1RRR =1051,
17:u:code-1RR  =1051,
17:u:code-1R   =1051,
17:u:code-1X   =1051,
17:u:code-1L   =1051,
17:u:code-1LL  =1051,
17:u:code-1LLL =1051,
17:u:code-1RRR =1042,
17:u:code-1RR  =1042,
17:u:code-1R   =1042,
17:u:code-1X   =1042,
17:u:code-1L   =1042,
17:u:code-1LL  =1042,
17:u:code-1LLL =1042,
15:u:code-1RRR =58,
15:u:code-1RR  =58,
15:u:code-1R   =58,
15:u:code-1X   =58,
15:u:code-1L   =58,
15:u:code-1LL  =58,
15:u:code-1LLL =58,
15:u:code-1RRR =83,
15:u:code-1RR  =83,
16:u:code-1RRR =118,
15:u:code-1R   =83,
16:u:code-1RR  =118,
16:u:code-1RRR =283,
15:u:code-1X   =83,
16:u:code-1R   =118,
16:u:code-1RR  =283,
15:u:code-1L   =83,
16:u:code-1X   =118,
16:u:code-1R   =283,
15:u:code-1LL  =83,
16:u:code-1L   =118,
16:u:code-1X   =283,
15:u:code-1LLL =83,
16:u:code-1LL  =118,
16:u:code-1L   =283,
16:u:code-1LLL =118,
16:u:code-1LL  =283,
16:u:code-1LLL =283,
15:u:code-1RRR =86,
15:u:code-1RR  =86,
15:u:code-1R   =86,
16:u:code-1RRR =225,
15:u:code-1X   =86,
16:u:code-1RR  =225,
15:u:code-1L   =86,
16:u:code-1R   =225,
15:u:code-1LL  =86,
16:u:code-1X   =225,
15:u:code-1LLL =86,
16:u:code-1L   =225,
16:u:code-1LL  =225,
16:u:code-1LLL =225,
16:u:code-1RRR =103,
16:u:code-1RR  =103,
16:u:code-1R   =103,
16:u:code-1X   =103,
16:u:code-1RRR =102,
16:u:code-1L   =103,
16:u:code-1RR  =102,
16:u:code-1LL  =103,
16:u:code-1R   =102,
15:u:code-1RRR =98,
16:u:code-1LLL =103,
16:u:code-1X   =102,
15:u:code-1RR  =98,
16:u:code-1L   =102,
15:u:code-1R   =98,
16:u:code-1LL  =102,
15:u:code-1X   =98,
16:u:code-1LLL =102,
15:u:code-1L   =98,
15:u:code-1LL  =98,
15:u:code-1LLL =98,
15:u:code-1RRR =63,
15:u:code-1RR  =63,
15:u:code-1R   =63,
15:u:code-1X   =63,
15:u:code-1L   =63,
15:u:code-1LL  =63,
15:u:code-1LLL =63,
17:u:code-1RRR =1030,
17:u:code-1RR  =1030,
17:u:code-1R   =1030,
17:u:code-1X   =1030,
17:u:code-1L   =1030,
17:u:code-1LL  =1030,
17:u:code-1LLL =1030,
15:u:code-1RRR =33,
15:u:code-1RR  =33,
15:u:code-1R   =33,
15:u:code-1X   =33,
15:u:code-1L   =33,
15:u:code-1LL  =33,
15:u:code-1LLL =33,
17:u:code-1RRR =8220,
17:u:code-1RR  =8220,
17:u:code-1R   =8220,
17:u:code-1X   =8220,
7:*100:Pi,
17:u:code-1L   =8220,
17:u:code-1LL  =8220,
17:u:code-1LLL =8220,
17:u:code-1RRR =8221,
17:u:code-1RR  =8221,
17:u:code-1R   =8221,
17:u:code-1X   =8221,
7:*100:Pf,
17:u:code-1L   =8221,
17:u:code-1LL  =8221,
17:u:code-1LLL =8221,
15:u:code-1RRR =57,
15:u:code-1RR  =57,
15:u:code-1R   =57,
15:u:code-1X   =57,
15:u:code-1L   =57,
15:u:code-1LL  =57,
15:u:code-1LLL =57,
15:u:code-1RRR =88,
15:u:code-1RR  =88,
15:u:code-1R   =88,
15:u:code-1X   =88,
15:u:code-1L   =88,
15:u:code-1LL  =88,
15:u:code-1LLL =88,
17:u:code-1RRR =8217,
17:u:code-1RR  =8217,
17:u:code-1R   =8217,
17:u:code-1X   =8217,
17:u:code-1L   =8217,
17:u:code-1LL  =8217,
17:u:code-1LLL =8217,
17:u:code-1RRR =1060,
17:u:code-1RR  =1060,
17:u:code-1R   =1060,
17:u:code-1X   =1060,
17:u:code-1L   =1060,
17:u:code-1LL  =1060,
17:u:code-1LLL =1060,
15:u:code-1RRR =50,
15:u:code-1RR  =50,
15:u:code-1RRR =48,
15:u:code-1R   =50,
15:u:code-1RR  =48,
15:u:code-1X   =50,
15:u:code-1R   =48,
15:u:code-1L   =50,
15:u:code-1X   =48,
15:u:code-1LL  =50,
15:u:code-1L   =48,
15:u:code-1LLL =50,
15:u:code-1LL  =48,
15:u:code-1LLL =48,
17:u:code-1RRR =8470,
17:u:code-1RR  =8470,
17:u:code-1R   =8470,
17:u:code-1X   =8470,
15:u:code-1RRR =51,
7:*100:So,
17:u:code-1L   =8470,
15:u:code-1RR  =51,
15:u:code-1RRR =47,
17:u:code-1LL  =8470,
15:u:code-1R   =51,
15:u:code-1RR  =47,
15:u:code-1RRR =55,
17:u:code-1LLL =8470,
15:u:code-1X   =51,
15:u:code-1R   =47,
15:u:code-1RR  =55,
15:u:code-1L   =51,
15:u:code-1X   =47,
15:u:code-1R   =55,
15:u:code-1LL  =51,
15:u:code-1L   =47,
15:u:code-1X   =55,
15:u:code-1LLL =51,
15:u:code-1LL  =47,
15:u:code-1L   =55,
15:u:code-1LLL =47,
15:u:code-1LL  =55,
15:u:code-1LLL =55,
15:u:code-1RRR =53,
15:u:code-1RR  =53,
15:u:code-1R   =53,
15:u:code-1X   =53,
16:u:code-1RRR =176,
15:u:code-1L   =53,
16:u:code-1RR  =176,
15:u:code-1LL  =53,
16:u:code-1R   =176,
15:u:code-1LLL =53,
16:u:code-1X   =176,
16:u:code-1L   =176,
16:u:code-1LL  =176,
16:u:code-1LLL =176,
15:u:code-1RRR =52,
15:u:code-1RR  =52,
15:u:code-1R   =52,
15:u:code-1X   =52,
15:u:code-1L   =52,
15:u:code-1LL  =52,
15:u:code-1LLL =52,
15:u:code-1RRR =43,
15:u:code-1RR  =43,
15:u:code-1R   =43,
15:u:code-1X   =43,
7:*100:Sm,
15:u:code-1L   =43,
15:u:code-1LL  =43,
15:u:code-1LLL =43,
15:u:code-1RRR =37,
15:u:code-1RR  =37,
15:u:code-1R   =37,
15:u:code-1X   =37,
15:u:code-1L   =37,
15:u:code-1LL  =37,
15:u:code-1LLL =37,
17:u:code-1RRR =1061,
17:u:code-1RR  =1061,
17:u:code-1R   =1061,
17:u:code-1X   =1061,
17:u:code-1L   =1061,
17:u:code-1LL  =1061,
17:u:code-1LLL =1061,
16:u:code-1RRR =115,
16:u:code-1RR  =115,
16:u:code-1R   =115,
16:u:code-1X   =115,
16:u:code-1L   =115,
16:u:code-1RRR =100,
16:u:code-1LL  =115,
16:u:code-1RR  =100,
16:u:code-1LLL =115,
16:u:code-1R   =100,
16:u:code-1X   =100,
16:u:code-1L   =100,
16:u:code-1LL  =100,
16:u:code-1LLL =100,
15:u:code-1RRR =87,
15:u:code-1RR  =87,
15:u:code-1R   =87,
15:u:code-1X   =87,
15:u:code-1L   =87,
15:u:code-1LL  =87,
15:u:code-1LLL =87,
16:u:code-1RRR =104,
16:u:code-1RR  =104,
16:u:code-1R   =104,
16:u:code-1X   =104,
15:u:code-1RRR =72,
16:u:code-1L   =104,
15:u:code-1RR  =72,
16:u:code-1LL  =104,
15:u:code-1R   =72,
16:u:code-1LLL =104,
15:u:code-1X   =72,
15:u:code-1L   =72,
15:u:code-1LL  =72,
15:u:code-1LLL =72,
17:u:code-1RRR =1062,
17:u:code-1RR  =1062,
17:u:code-1R   =1062,
17:u:code-1X   =1062,
17:u:code-1L   =1062,
17:u:code-1LL  =1062,
17:u:code-1LLL =1062,
15:u:code-1RRR =80,
15:u:code-1RR  =80,
15:u:code-1R   =80,
15:u:code-1X   =80,
15:u:code-1L   =80,
15:u:code-1LL  =80,
15:u:code-1LLL =80,
17:u:code-1RRR =_x+1,
17:u:code-1RR  =_x+1,
17:u:code-1RRR =_x+2,
17:u:code-1R   =_x+1,
17:u:code-1RR  =_x+2,
17:u:code-1RRR =_x+3,
0=-0x1.76d04e99e0d78p-6
1=0x1.af910372f6539p-2
2=-0x1.582a59963c8cfp-4
4=0x1.2ba9515f878cfp-2
5=-0x1.4e29ec8e2fe82p-2
6=0x1.251984dc63f2ap-3
7=-0x1.5716b46f15d6ap-1
8=-0x1.7f3d9e7b9c00ap-2
9=0x1.1d04ac8d18ec9p-4
10=-0x1.0a282492a2dffp-5
12=0x1.1d04ac8d18ec9p-4
13=-0x1.0a282492a2dffp-5
15=0x1.1d04ac8d18ec9p-4
16=-0x1.0a282492a2dffp-5
18=0x1.0a129dc262554p-3
19=-0x1.2166db7c05bfap-4
21=0x1.f50dd9f4eade8p-3
22=-0x1.eecb56d1b755cp-3
30=-0x1.e9659f707f18cp-3
31=0x1.af58150b46a4ap-1
32=-0x1.9e2cb3fcb0f47p-3
33=-0x1.be720c79d5defp-3
34=0x1.46a1f190e51cp-2
36=-0x1.da949340f8393p-2
37=0x1.4edcd77f15a7bp+0
38=-0x1.0d2f61711e6d6p-5
39=0x1.a1d6dec8cfc0ep-7
42=-0x1.8472940bd7d1cp-5
43=0x1.d6ddf860afcbcp-4
44=-0x1.04a332098fea1p-4
46=0x1.0792796d538f5p+0
47=-0x1.0461bf131f53cp-2
48=0x1.a41b84018351fp-6
49=-0x1.6242bb193ee69p-4
50=0x1.9a0a04f19afdcp-5
56=-0x1.07d9d4efc4ee6p-4
57=-0x1.3f5ba23ca8674p-6
58=0x1.f6279b4616ee4p-4
59=0x1.ee83d8ed86e6cp-4
61=0x1.2748aa444ea84p-2
62=-0x1.c9319a7c5df78p-9
64=-0x1.bb009a78095ecp-5
65=-0x1.73519f69571ebp-5
66=0x1.e7528969b4876p-2
67=-0x1.7c9c7b89bc237p-3
68=-0x1.e73102f93121ep-3
69=0x1.8285d79f1312ap-5
70=-0x1.d501f3335b6a8p-4
72=-0x1.3962146bfb937p-1
73=0x1.93a6d520484b4p-5
74=-0x1.27a1458778672p-3
75=0x1.9af62eeec7035p+0
76=-0x1.e5b05d250735ep-3
78=-0x1.3274e3331adc9p-2
79=0x1.e3f3955a2808ap-3
81=-0x1.206f56c9d9c57p-3
82=0x1.653e940a15c29p-2
83=0x1.d8dff1e9c563ep-6
85=0x1.c34ff6464ce87p-5
86=-0x1.918fabb5bc58bp-6
87=-0x1.7142de9a0cedcp-4
90=0x1.36e44056347b6p-10
91=-0x1.c6bca513b67eap-8
94=0x1.512e76ba74868p-2
95=-0x1.82e3c4c8f45b9p-6
102=0x1.43f3a7f85cb41p-2
103=-0x1.0042974d6f9c9p-2
104=-0x1.3e37e4e944b8ep-7
105=0x1.6b03ccf20bc1p-2
108=-0x1.3403480e95442p-3
109=0x1.6d2c16283b457p-8
111=0x1.876a0297c08a9p-3
114=0x1.73bcceed35038p-3
115=-0x1.bea65baf797a2p-5
117=0x1.ddb9c3bffeb05p-5
118=0x1.9876afd5986c7p-4
119=0x1.9fe128471a7dfp-3
122=-0x1.3d7c94889f5fp-3
124=-0x1.3a93de45fe92p-6
126=0x1.1dbe9e374f3e9p-3
127=-0x1.368baa71d03dep-5
128=-0x1.cc79da6dd5b49p-3
129=0x1.e0f16a366acf8p-4
130=0x1.52dcb3dea9f89p-2
131=-0x1.e648ab3934f4cp-3
133=-0x1.326d4ea7fe595p-7
134=0x1.b5648de93d864p-6
135=0x1.27403bf98f185p-1
136=-0x1.abcb2127bb3e9p-3
137=-0x1.aad3961fcf59ap-6
138=0x1.02c10c92be9f6p-3
139=-0x1.277fc4e28898dp-4
142=0x1.3281847559726p-2
145=-0x1.8ef12302b640cp-4
147=0x1.3a9e68642aefcp-4
148=-0x1.ec1353c80415p-7
159=-0x1.b4dd6aad059p-6
160=0x1.d5a5eff7f5e6bp-4
163=-0x1.f1ccbeff8c34p-12
165=-0x1.3d6c0018fbf1ap-2
166=0x1.11ed754a5fe6ap-2
171=-0x1.b1661d4af5d24p-1
172=0x1.9af9bd86e8d08p+0
173=-0x1.7c83f0e7005e5p-1
174=0x1.4a0c5dee38bap-5
175=0x1.b273d4d7a666cp-9
176=-0x1.16f7daba3fb2bp-3
177=-0x1.4a541f4234399p+2
178=0x1.20c00eccb4eb7p+0
179=-0x1.5f7519790f33ap-1
180=0x1.4187ccf18e5f5p-1
181=-0x1.5cb9cbf2760fbp-2
183=0x1.0383a8a2862e9p-3
184=0x1.6f89b34b7d6ep-5
185=-0x1.4b574f560fa38p-2
186=-0x1.3c13046645f04p-3
187=-0x1.4d73db88eadbp-2
188=-0x1.b6c889f5cdbb2p-2
189=-0x1.81d093e081df7p-6
190=0x1.35602bc373ec6p-3
191=0x1.9534f26905a19p-5
192=0x1.c63d83146b867p-1
193=-0x1.23bb11e762b61p-2
194=-0x1.159774dbfe83fp-4
195=-0x1.80bb751042b88p-4
196=0x1.f631674e97818p-4
198=-0x1.abab469a5d0f2p-3
199=0x1.beb8b0ca6affbp-3
200=-0x1.e20559556c2dap-3
202=0x1.a88789e6c7fecp-6
203=0x1.6417b7a00ebfcp-3
207=-0x1.a5916465e95f1p-6
208=0x1.466e5eda4367p-2
209=-0x1.53b38b8c3799dp-3
210=-0x1.2404e9a906448p-4
211=-0x1.928165de42d28p-6
212=-0x1.6b9ea830fe705p-2
213=-0x1.4cd157ce843e2p-4
214=0x1.466f81c8441c4p-3
215=0x1.cc6df86e7558fp-8
216=0x1.87fe5b3089dc9p-2
217=-0x1.9927cc1c3e3d8p-5
219=-0x1.69959c22480acp-4
220=0x1.ca79da79d4b2fp-3
221=-0x1.8b77ba19ec788p-5
224=0x1.f16d95331d6cdp-4
225=-0x1.244b0547f65b7p-4
226=0x1.b1e4ed16c01ebp-3
227=-0x1.8b1815dc22fa6p-2
228=-0x1.8336d8e3c88bep-5
231=0x1.e5e8e5a3c9f3cp-2
232=-0x1.5d4f562536388p-5
233=-0x1.63a4d161efc03p-4
234=0x1.28e8204b09626p-2
235=-0x1.41ee64943c4c7p-3
236=-0x1.b34c4f5dc20fp-6
237=0x1.448add1154f37p-7
238=-0x1.23794f9423a2ep-6
243=-0x1.7f8c4429d3c7ep-5
244=0x1.8f9bdb84bdc14p-3
245=-0x1.5a68c9e3dc35ep-4
246=-0x1.498f051501c7ep-2
247=0x1.d5924a4f73f0ap-1
248=-0x1.ea18da74029f6p-3
249=0x1.6ae3d1a73cdfp-3
250=-0x1.040c043e60ca4p-4
251=0x1.a73dd9360e3e2p-6
255=0x1.72ec30f161bfcp-4
256=-0x1.18db26e4307dap-8
258=-0x1.79d7cc2a2ab8p-4
260=-0x1.3df252d3a98adp-4
262=0x1.0aa0eda799043p-7
263=0x1.3b095b2776a9p-6
264=0x1.bf328b808d63cp-3
265=-0x1.dff6de03293aap-5
273=-0x1.fd1a4664d1853p-4
274=0x1.ae6434392527bp-3
275=-0x1.53531b5d5c43p-8
277=0x1.1c44bbb95506p-10
282=-0x1.ae42f22ab6b42p-5
283=0x1.15c13f9c32ec1p-5
288=0x1.9fce41748091bp-7
289=0x1.6b419f0bc1fc2p-4
290=-0x1.75a099336a76fp-4
291=-0x1.a33b970d8ec7dp-3
292=0x1.7c22022ad13eap-3
293=-0x1.dee4d0c3b1889p-4
294=0x1.61ecd4468b6afp-2
297=-0x1.1229c1f61fb8ep-2
300=-0x1.aa31e8071c03ap-5
301=0x1.e9c7076ea8c44p-5
307=0x1.e58735f2cabb1p-7
312=0x1.776ed63c38db6p-9
313=0x1.5b770e7fa90a2p-6
314=-0x1.5b14d3f374259p-6
316=0x1.74eea605d6533p-5
317=0x1.79a591e6816c6p-3
318=0x1.857d5d101fc8ap-6
319=0x1.22da2e93cbbc8p-5
320=-0x1.1ab7b8003f1bep-3
321=-0x1.2c1e30a9478a2p-2
323=-0x1.5cfd5a0e439adp-4
324=-0x1.155318b210507p-2
325=0x1.608c265587e5p-2
327=-0x1.cd0349b31e029p-2
328=0x1.2c2834c4e86e1p-6
329=0x1.868d447091105p-4
330=0x1.0f94bf4d478d9p-5
331=0x1.0a81a1b946f03p-2
332=-0x1.9562d64917346p-3
337=0x1.2159f94d29786p-4
338=-0x1.d276f0365fa4p-9
339=0x1.12edc07712524p-8
340=-0x1.da75f6f688a7ap-3
342=-0x1.39e63e1f393cdp-3
343=0x1.250b9f64d31bp-2
345=0x1.5fa3c515187f2p-2
346=-0x1.b7b405d7da877p-4
351=0x1.10991fe05b2p-4
352=-0x1.decd948a96d8p-9
357=0x1.1ebdf0df12098p-7
358=-0x1.542cf1691b18p-9
369=-0x1.d34b1f5e03414p-4
370=0x1.6f2a18177127p-9
372=0x1.a06a072c2b4e2p-6
373=-0x1.5bcf4f63fe0ep-5
374=0x1.cd27d94de2d9ap-3
376=0x1.3d3c562746462p-2
377=-0x1.c1939f710f7b4p-10
378=-0x1.473b5e5b10acap-2
380=-0x1.0c476b49592acp-3
381=0x1.2de7c326b82f7p-2
382=-0x1.b95984e2b0646p-3
384=0x1.83c581a26e578p-5
385=-0x1.164ffd32261f4p-5
387=0x1.68ec9f81cb6d4p-4
389=-0x1.47b41d19b33b6p-5
396=0x1.65e5a97694d5cp-4
398=-0x1.b325bb919856p-10
401=0x1.04da8009c8edp-9
405=-0x1.e2275c125378bp-3
406=0x1.e1e714131d7c5p-3
423=0x1.e085e83eabdfdp-6
427=0x1.11fdf6a91e518p-4
429=-0x1.02bdc2ede851dp-4
430=0x1.80e423a4e14b1p-2
432=0x1.f0e644af841c1p-6
433=-0x1.55b8cc489ff89p-4
438=-0x1.2826fb717e173p-1
439=0x1.935d77a43041fp-2
440=-0x1.55ab53db12acp-7
441=-0x1.78e8f4b18b09cp-2
442=-0x1.77d4182838a02p-5
443=0x1.ff13fd48413bfp-1
445=0x1.a2cdd4272ab29p-2
446=-0x1.2700aafa2d509p+0
447=-0x1.51ac74a21f8ap-4
448=-0x1.7efe5f9c7388p-6
449=-0x1.8e7bdc2a8e822p-4
451=0x1.bc130c10809dp-11
454=0x1.441ff37965dabp-2
455=-0x1.ccf10c77ac5a4p-4
456=0x1.2ff4f23f20197p-4
457=-0x1.c97b0c80d8888p-6
458=0x1.0fd816a0757abp-3
466=-0x1.614efe2933b13p-2
469=0x1.377c409a0fd67p-3
470=-0x1.bd0ea0cf5095ep-4
474=0x1.9de6cf54daadcp-3
477=0x1.c7e722478bcdcp-4
479=0x1.31ad916f938c9p-2
480=-0x1.c49f0a0bbe47dp-3
481=0x1.90344db941c3fp-4
482=-0x1.7a0905133777bp-3
483=0x1.fffbb4170201ap-3
484=-0x1.a4d022637dcfep-6
492=0x1.b63b4aee7567dp-6
501=-0x1.bbc6e4e0365b2p-5
502=0x1.249a2e97d6d1ap-3
507=-0x1.ebc2119530575p-2
508=0x1.4886cd9d1f2cdp-1
509=-0x1.3e4267541a40bp-4
510=-0x1.2dfae9567df04p-1
511=0x1.75dcc9ba4c578p-2
514=0x1.601bd13b70b8cp-4
515=-0x1.42489837b3d36p-5
519=0x1.28c1353c70a55p-4
520=-0x1.bd7423fdddc0fp-9
521=-0x1.b78760148a386p-3
522=0x1.ee3a8eb3e046ap-8
523=-0x1.8dcccb400fb53p-3
526=0x1.04a29d033e8d3p-3
528=0x1.a27dd19efc538p-8
529=-0x1.649130e1dffp-10
534=0x1.59e3775f90622p-3
535=-0x1.6ac4d30dad884p-3
546=0x1.a046d8157ec06p-8
549=0x1.4c34afacb1c4p-7
550=0x1.b6348d8856f56p-4
551=-0x1.f5284fc9cf16ap-7
554=0x1.fa4c90d36d686p-2
556=0x1.765f9ad63585cp-4
557=-0x1.ef3192ca8e53p-4
558=-0x1.1ed2f5e61c3a8p-3
561=-0x1.1c193c06adc73p-5
564=-0x1.5203403c50b17p-3
565=0x1.27eb3ab4b2263p-2
566=0x1.9612f2195f301p-5
569=-0x1.e0c9116ad3c8dp-6
573=0x1.861c4f2d52e15p-2
574=-0x1.c3e64024c0417p-8
575=-0x1.be8a602b92096p-5
576=0x1.6b4eb7cd812fp-1
577=0x1.eaaf0b9ce9718p-8
578=-0x1.33dd3d296cdc1p-4
580=-0x1.5274450dc7f8bp-4
582=-0x1.211c330558c8ap-4
585=0x1.e132005ffa754p-3
586=-0x1.47dd732cb188cp-3
594=-0x1.c8cea94603353p-4
595=0x1.a88cdeefc35bbp-4
598=0x1.580db4561d71fp-2
599=-0x1.04a82a2f7d35ap-1
603=0x1.53f2dae24a7a2p-4
604=0x1.ee2e581e8269cp-7
605=-0x1.11075b10e7b4fp-6
606=0x1.38f7517ab1385p-1
607=-0x1.3600c7676f6e8p-1
608=0x1.62c4ad0ff0f21p-5
609=-0x1.42252ab8306e2p-4
610=0x1.ee062f9928b2bp-3
611=-0x1.22b5b6ad42d02p-3
612=-0x1.190f03ff092ep-3
617=-0x1.3ebf34fe0953ep-5
618=0x1.91d6dd1d7380dp-1
619=-0x1.cf960fe1f2733p-3
620=0x1.aa7f5f113673ep-3
621=-0x1.9bc1f3a2f5f2ep-5
622=0x1.27cdc508e840cp-4
623=-0x1.4b7377bb0173ep-3
628=0x1.543bf86664e0ap-4
630=-0x1.57c371e45d868p-4
631=0x1.4722916509222p-2
632=-0x1.5b87a4b638522p-1
633=-0x1.13cb7fc211155p-5
634=-0x1.03af041d3286ap-7
635=0x1.59e8a94c50a8fp-2
636=0x1.9e5cba559f27ep-2
645=-0x1.e41641c64c2aap-7
646=0x1.ecbdf22315b56p-5
648=0x1.54c88a64d567bp-5
649=0x1.952edd1dbddbap-4
650=-0x1.7332e9c3de608p-2
654=0x1.68fc94ebb0532p-2
655=-0x1.f49e239328566p-7
656=-0x1.ec4693dc7ef52p-4
657=0x1.fb16d8452b4bp-3
658=-0x1.12464de1933a3p-5
660=0x1.02d41993fee77p-3
661=0x1.48fe8ffcb94abp-7
663=-0x1.b41ae563f257fp-4
664=-0x1.28de8438db4fp-7
666=0x1.8af9ad999b306p-5
667=-0x1.bec07f156b50bp-5
672=-0x1.915d8985724f9p-2
673=-0x1.07d60dcdcb9a1p+0
674=0x1.20203e64c4a8ap+1
681=-0x1.915d8985724f9p-2
682=-0x1.07d60dcdcb9a1p+0
683=0x1.20203e64c4a8ap+1
684=-0x1.08db12094c54dp-5
685=-0x1.5908911160261p-3
686=0x1.f06df3543bd6bp-2
687=-0x1.acc600b673347p-3
688=-0x1.66c363accdbbbp-1
689=0x1.e089ba2f65863p-1
692=-0x1.53e2f558b9ce6p-2
696=-0x1.86275d0928295p-6
698=0x1.b1a2c278943ffp-4
708=0x1.f1e4b5512d469p+0
709=-0x1.ef6fca583eb2cp+0
714=0x1.5739301801ec2p-2
715=-0x1.23ea69e24e319p-2
717=-0x1.c9921aa59b3abp-5
718=0x1.c3c0e58d4cedep-4
720=0x1.88b9af03aa294p-2
729=0x1.2f8378b4773a8p-1
732=-0x1.52d6da4beeff2p-6
733=0x1.f5c67e93a31f8p-7
735=-0x1.e12159450a4bep-2
736=0x1.3cd49534db481p-1
741=0x1.28b1ffd85c2d5p-4
742=-0x1.87542c7d4deep-4
744=-0x1.6bad9e94baa0cp-3
745=0x1.fef782210fcb9p-3
747=0x1.963f15b5f532p-9
748=0x1.b26ec6385daecp-5
749=-0x1.7687e50fa2012p-4
750=0x1.f58455b46c058p-3
751=-0x1.7bc94702b112cp-5
752=-0x1.1943610af7fcap-4
753=-0x1.636d5431185bbp-3
754=0x1.4dfd9127fa0e8p-3
759=-0x1.393d5bfe1b326p-2
760=0x1.0cf2da145cb36p-1
761=-0x1.a306e271ac365p-6
765=-0x1.1f0343c032dp-3
766=0x1.921207fcf6e43p-3
771=-0x1.3bc1f51b350ffp-4
772=0x1.416dab0be5aa2p-4
777=-0x1.6c91f3fa9a27ep-7
778=0x1.ba2b3bfe4edc8p-3
786=-0x1.20d83202cab0cp-3
787=0x1.449e29bd4a671p-3
792=0x1.6d38ee5384902p-5
793=-0x1.fd60c88c68be2p-5
795=-0x1.80b51fee90066p-5
796=0x1.edd625025cdbap-6
798=-0x1.19f603035f854p-4
799=0x1.590fe2d802362p-2
800=0x1.1cff339507288p-2
802=-0x1.0681085873dep-7
803=-0x1.706e617fd8463p-3
810=-0x1.3a8a60f458217p-5
811=0x1.9fcdcbf17536cp-4
819=0x1.e71a37ab7fae4p-3
820=-0x1.88401489e000ep-6
822=0x1.d5a892a51500ep-4
823=-0x1.d9bcb432cec94p-3
826=0x1.888513c10bd8cp-4
827=-0x1.d1ff3e9c75bcfp-5
834=-0x1.5e06ede562069p-5
838=0x1.1f21cc3204c04p-8
843=-0x1.2e63f3690782dp-5
844=0x1.bd45e737ba301p-4
845=-0x1.715db3ce4c8fdp-3
846=-0x1.6cc3aa3458233p-3
847=0x1.641c7cd338716p-2
848=-0x1.55be43f0e6c62p-3
849=0x1.39ae85d1e4ea5p-3
850=0x1.00c6f17719762p-6
851=0x1.a497464f05eb1p-6
855=-0x1.5aea4e4071811p-4
856=0x1.0dc82095405efp-3
858=-0x1.91f05c2065ab4p-3
859=0x1.97455356ea0f5p-3
864=0x1.0c06af3645363p-3
865=-0x1.123396f995b72p-3
870=-0x1.72fb20898c824p-2
871=0x1.93c569042ef4cp-2
873=-0x1.0f94a6de8d999p-2
874=0x1.39bd0e7cc5b52p-2
875=0x1.cec8ae71b153dp-5
878=-0x1.2705f24e186bdp-5
885=-0x1.dff44180ca03fp-3
886=0x1.015e6ff443cd1p-2
888=0x1.c49669adc32ecp-7
889=-0x1.969386dd27474p-7
894=0x1.3e9deb8e5a1b5p-2
895=-0x1.9cdd7a405c398p-2
898=0x1.8d6cebb6c191ap-7
903=-0x1.2d188e93b648bp-6
905=-0x1.11a0e0ca42968p-4
906=0x1.ab7753a01c60fp-5
907=0x1.83be6043142e9p-3
915=-0x1.a21e85dc89616p-2
916=0x1.317b504e2c0dcp-2
918=-0x1.22f50af7d1215p-2
919=0x1.479615f53702p-2
927=0x1.151db0d450cb4p-4
928=-0x1.22a65884fb8bfp-4
933=0x1.2eef2f7f4256p-3
934=-0x1.1c6a13d31eeap-3
939=0x1.b6b089716a96ap-7
941=-0x1.4f5a54f901a7ep-4
942=0x1.1e1491665a9fap-5
943=0x1.bbc8c58cbe28cp-3
945=-0x1.334aa69b57b45p-2
946=-0x1.6514ec42f37a1p-9
947=-0x1.75b8153ce030dp-4
948=0x1.5bcfca9bd0299p-2
949=-0x1.b4cba81a9adcp-8
951=-0x1.362046f136ea4p-4
952=0x1.a603c8045cd68p-4
978=0x1.7f1989c289ad6p-8
979=-0x1.426c39b0c7cecp-11
981=-0x1.40559ebad134p-5
982=0x1.2e4debd2d453fp-4
985=-0x1.b829ad48a0f3p-3
987=-0x1.3d4281d521cb8p-5
988=0x1.0dfaeb918dc1p-1
989=-0x1.334c533cc937cp-4
990=-0x1.2006a0d64e188p-6
994=0x1.19c460a3f5248p-4
995=-0x1.b1148eb9783dap-6
996=-0x1.97b9809159bdcp-3
997=0x1.1bc9e1b501a9ap-2
1001=-0x1.1f4940274b75cp-5
1011=-0x1.33365148fb2a4p-3
1012=0x1.0f0142399686cp-3
1014=0x1.4aeebc7976109p-4
1015=-0x1.0283c580532e6p-6
1016=-0x1.72520d796fee5p-4
1017=0x1.aae9501f83231p-3
1019=-0x1.2b44dd4abef09p-3
1020=0x1.20054dea4c54p-3
1021=-0x1.b1a90ebdb6acbp-6
1022=0x1.e4e6683847694p-6
1023=-0x1.74c8db06748f3p-4
1026=0x1.fac0bdf66f544p-1
1027=-0x1.93865752bf1acp-1
1029=-0x1.29dd7f8385b6cp-5
1030=0x1.9ccb8fa82c635p-5
1032=-0x1.b2e86757333d1p-6
1033=0x1.5c90d3c1c94ecp-5
1035=-0x1.47a6bc35559c1p-6
1036=0x1.2849904692dbcp-5
1038=0x1.2936a493e90cbp-3
1039=-0x1.fb7cf9aa314fep-4
1041=0x1.804c2207d20dcp-9
1042=-0x1.6104f298af6d2p-2
1045=0x1.7d7657d3fba56p-7
1047=0x1.f7f61a7736b9ep-3
1050=0x1.4d471a0d0f0c5p-2
1051=-0x1.eb271f9faae13p-3
1053=-0x1.fc24a66b98e2fp-6
1054=0x1.2de7134685af3p-4
1056=0x1.514e6f61e84bep-3
1057=-0x1.491f0e7a28cc6p-3
1065=0x1.2bb125cbf4a94p-3
1066=-0x1.355e6f0730469p-4
1068=0x1.3307b44d52718p-3
1069=-0x1.9346c9770e9b8p-5
1072=-0x1.0a127f5327357p-6
1074=0x1.35f8b723546a5p-8
1077=0x1.050f8ebb01012p-4
1078=0x1.579fb628ae22bp-5
1079=0x1.db4d9fd5762ep-11
1086=-0x1.fd23906d2eb9ep-2
1087=0x1.0ceadfc58202dp-1
1089=0x1.1d51dcbb4980ep-3
1090=-0x1.b6ef337e069fap-4
1092=-0x1.77bd1743df846p-2
1093=0x1.7a7469d470b4ep-2
1095=-0x1.601f49ae5bbf7p-4
1096=0x1.d8a50bfce2b2ap-3
1097=0x1.653eb51a24a47p-2
1098=-0x1.67f274eb51f4cp-5
1100=-0x1.4fb5c36f18fd4p-2
1104=0x1.c87b5f4c6562dp-8
1105=0x1.c5dc50e50801dp-4
1107=0x1.cf74c4ae79148p-2
1108=-0x1.71eea69ccb8d6p-1
1109=0x1.00ca7967d4168p-2
1110=0x1.b6942a8e29708p-9
1111=0x1.a0553f3f87eb4p-2
1112=-0x1.196d75b8c3414p-4
1113=-0x1.7e9ea3fe6e0cp-1
1115=-0x1.56c6af1f7872ep-3
1116=-0x1.9204b00968ca5p-4
1117=0x1.24e39bda105cbp-3
1119=-0x1.7ef6703420ca8p-7
1120=-0x1.5372477a1f893p-3
1121=0x1.8729f0144ffa1p-4
1123=0x1.ffb78b975fdb4p-2
1124=-0x1.01e1182742bfep-3
1140=0x1.3942b5bcf8452p-5
1141=-0x1.3cc3d66127e98p-6
1152=-0x1.c97d19f525a57p-2
1153=0x1.3b76c316fd1c6p-1
1191=0x1.fd5d979327eb9p-7
1192=-0x1.3b9aff6f3dfa8p-8
1196=-0x1.29bbee60a80f5p-2
1197=0x1.52da323170819p-2
1198=0x1.716e2172f0d84p-8
1199=0x1.a9eca8ad3dd1ap-3
1200=-0x1.ebc4e6e4c2e04p-5
1218=-0x1.1c5827e6a1fefp-6
1227=0x1.0bd0c09255ec6p-5
1228=-0x1.477779caaaab2p-5
1230=-0x1.7bc78596c2dcfp-6
1231=0x1.256a0e358bb96p-7
1234=-0x1.649e04135cba8p-9
1236=0x1.b7a7f6388cc6ep-5
1237=-0x1.b98dd543234dap-5
1242=0x1.17be1e326a719p-5
1260=0x1.231555b0ed958p-2
1261=-0x1.be279d77d988p-3
1264=0x1.fd713517efafcp-7
1267=0x1.f799eb06781dep-3
1270=-0x1.aa0df5598031p-10
1281=-0x1.4cb7c2da4df3ap-4
1282=0x1.aec49353bc8ep-5
1317=-0x1.6269fef1a517bp-4
1318=0x1.18d55b9049deap-4
1323=-0x1.f6e376457d8b8p-4
1324=0x1.24d33e5df4f7fp-4
1329=0x1.02205d6f2d7cdp-4
1330=-0x1.5626c24b8ebc8p-5
1332=0x1.7dc66a2664585p-4
1333=-0x1.47a445e5b0671p-4
1338=-0x1.c78b81a5d1f5ep-4
1339=0x1.5c6fc4da52d23p-3
1345=0x1.4342a30e3f43ep-6
1366=0x1.05b3717bba5a7p-5
1377=0x1.13cac0c170522p-3
1378=-0x1.5f71c2a495cfp-3
1401=0x1.2e152301b3e16p-5
1402=-0x1.cb10e8f85f852p-6
1411=0x1.9667190724feap-5
1416=-0x1.6217ec3cafb07p-3
1417=0x1.499a002fdd895p-3
1422=0x1.13fb3bffad1cap-1
1423=-0x1.5fe2a9d847eaap-2
1425=0x1.60d056591137bp-6
1426=-0x1.5c83b3bebc1bep-6
1431=0x1.096823feaaeabp-3
1434=-0x1.4842ee80b575ap-6
1435=0x1.1bf702197f4b6p-5
1446=0x1.79f16ec6ee19cp-4
1447=-0x1.4f487ca1f4541p-4
1452=0x1.05dabbfc28e3ep-3
1453=-0x1.1d862196476dfp-3
1512=-0x1.0f43d61b199ebp-4
1513=0x1.172927103b096p-4
1521=-0x1.266bfcbb887e5p-4
1522=0x1.2f24306c0baa5p-4
1536=-0x1.3999fd8eafd12p-2
1537=0x1.39ef05dfac4dcp-2
1569=-0x1.19ad8bfe416a3p-4
1570=0x1.2dd7fa834798ap-4
1620=0x1.1f3cd892f0e08p+0
1621=-0x1.7882412670e3cp-1
1622=-0x1.58767d26d6eabp-2
1623=0x1.2c5820c1d0de8p-3
1624=0x1.0c17d8a7d9bd4p-6
1625=-0x1.89dd84e533347p-6
1626=0x1.58dd98346b3a6p+0
1627=-0x1.a9cba38c97ad6p-1
1628=-0x1.62f0db0dfa577p-3
1629=-0x1.faa213daf0e5cp-2
1674=-0x1.26d5a244bc9b2p-2
1675=0x1.2ed28d5393096p-2
1677=-0x1.2f2cc76822edp-2
1678=0x1.324ffe8773b3ep-2
1680=-0x1.e5d415434af4dp-4
1681=0x1.ec5f9b72aed1p-4
1683=-0x1.5dde1f3a01946p-2
1684=0x1.647cbe9d3927fp-2
1686=-0x1.2d05a61de26ebp-2
1687=0x1.302307370b299p-2
1929=-0x1.30bc3801aa766p-4
1930=0x1.cfbbb8681cecep-5
1935=0x1.edb20d61d51eep-4
1936=-0x1.e399e9192d8e6p-4
1938=-0x1.d43a6c590ac5ep-7
1939=0x1.259a76181183ap-7
1953=-0x1.ea4ef2cfd219fp-4
1954=0x1.35a6c86ae3446p-3
1992=0x1.437f4edf0162p-6
1993=-0x1.a9c6d410e89d4p-8
1995=0x1.3557f78a4dadbp-1
1996=-0x1.ca502281bce43p-2
1998=0x1.908b175518ba2p-2
1999=-0x1.fe0745649bbbep-5
2000=-0x1.94ba8c6a32fd4p-3
2004=0x1.85129a3c5b1d7p-7
2005=-0x1.8b51beb4fbb8p-9
2006=-0x1.28e9497e364eep-4
2010=-0x1.d2e04458aaea3p+0
2011=0x1.6b277c420ffeap+1
2016=-0x1.049726dbb2d1ap-1
2017=0x1.fad605b7178aep-2
2022=0x1.26c22b90bfa36p-2
2023=-0x1.25dc748bceac7p-2
2025=-0x1.3dbd683d219aap-6
2026=0x1.a2ebe014d10c4p-7
2034=-0x1.115cf454d8a1fp-3
2035=0x1.70fb0709bf8c8p-3
2037=-0x1.0f96e5ce37e0ap-6
2038=0x1.0b33c93f553b1p-4
2040=0x1.27f718fb9e25cp-2
2041=-0x1.f75d4e1d16acp-3
2043=-0x1.3421eeaf9c9cap-1
2044=0x1.5e035e864040ep-1
2052=0x1.1214360ce2d64p-2
2053=-0x1.a0eaa20e22698p-3
2058=0x1.c64a8dc5a401ep-6
2059=-0x1.7d0deeaad708p-9
2064=-0x1.15d55d0b2a173p-4
2065=0x1.7bb00e0eadc4p-4
2070=0x1.59391bea0b49ep-3
2071=-0x1.6fb84a8a6c95ap-4
2076=-0x1.ec7f064b4e3e4p-4
2077=0x1.90a39fb40b778p-2
2078=-0x1.2b54c525948d2p-3
2079=0x1.24a916b8048bbp-2
2080=-0x1.4d7a592cf132cp-4
2082=-0x1.72f5fba0b7814p+0
2083=0x1.3ac65b4fc4341p-1
2088=-0x1.2bfd23155040cp-1
2089=0x1.4ee40d478cdbbp-1
2091=-0x1.1236980fe579cp-6
2092=0x1.c78a1d4a98f95p-6
2094=0x1.fbae3b99bc9f4p-4
2095=-0x1.b5e0293a4e8a2p-4
2106=0x1.d3bdcfa1c3e74p-2
2107=-0x1.9c0b5ba31349p-2
2112=0x1.dbdde649a5dbep-5
2113=-0x1.8749db6c8e522p-5
2154=0x1.61a066b84e2cp-7
2155=-0x1.9432f368deadp-7
2175=0x1.f6e42c9b9737ep-6
2176=-0x1.e3f8e467b1679p-10
2180=-0x1.c22a2ad8941fap-4
2181=0x1.4414b53a290adp-1
2182=-0x1.d42cbe1e3ab75p-2
2187=0x1.b112a778805ap-2
2188=-0x1.90caa8cdb51c3p-2
2190=-0x1.9c54d449dc10ep-2
2191=0x1.1be4b7d855a1ap-1
2202=-0x1.5b42aefff49b7p-1
2203=0x1.6e83c215901b2p-1
2244=-0x1.827c15849b45ep-5
2245=0x1.5f1ae11795782p-4
2250=0x1.153c75316f67cp-1
2251=-0x1.be846a55c8ebp-2
2256=0x1.68091ae390878p+1
2257=-0x1.b9b6cc33bf90fp+1
2269=0x1.1ec49972226a2p-6
2280=0x1.d9e3133e28445p-6
2281=-0x1.14177edf2f208p-6
2286=-0x1.e350001e7ef64p-7
2287=0x1.b621d153c28fap-5
2289=-0x1.c0f56685649d8p-3
2290=0x1.06aff5c424691p-2
2307=0x1.a7f53b169557p-9
2310=-0x1.03e4a9a2811acp-3
2311=0x1.226d64f3c967cp-3
2361=-0x1.9956fe9e119b3p-4
2362=0x1.c2d3dc697670cp-4
2379=0x1.4d111ebc36372p-3
2380=-0x1.ad94a8f9f7d6dp-4
2388=-0x1.fe4845ca0a9f8p-6
2389=0x1.6394e36a7e96ep-4
2391=0x1.5582ec438cefap-3
2393=-0x1.a9c345b1ed46dp-3
2394=0x1.5582ec438cefap-3
2396=-0x1.a9c345b1ed46dp-3
2397=-0x1.82dbbdd0e3dcp-1
2398=0x1.27af374dc6299p-2
2400=0x1.d05d5136c929cp-1
2401=-0x1.181680c43dfeap-3
2402=-0x1.72fc4c403dd2cp-3
2406=0x1.71f6d7807ba29p-1
2407=-0x1.6da74c73fe1a5p-1
2409=-0x1.341c4f19a2402p-4
2410=0x1.0a242df78b2e9p-4
2421=-0x1.ed7a6cd548adep-4
2422=0x1.2602e0c0877cdp-3
2424=-0x1.2a9b93e399fb2p-7
2425=0x1.dca12f96dc61p-5
2427=-0x1.011681f091864p-6
2428=0x1.091a5ab48aa73p-5
2448=-0x1.247a64362d2c1p-2
2449=0x1.97fd7335e9b1bp-2
2520=0x1.5a7c8784e77f9p+1
2521=-0x1.54c9629c7dc9ap+1
2529=0x1.06959cc3b9a16p-5
2530=-0x1.b8855de8920e8p-6
2535=0x1.d8e47a9a72488p-5
2536=-0x1.6c6311b01c178p-5
2580=0x1.0f0860f24cc62p-7
2604=0x1.d073975109dc3p-1
2605=-0x1.9f9a766183272p-1
2610=0x1.d073975109dc3p-1
2611=-0x1.9f9a766183272p-1
2616=0x1.ff09b7d556e17p-1
2617=-0x1.358bf3be0a62cp-1
2625=0x1.a5f2a9b8fb0bp-9
2766=-0x1.03af4eab71972p-3
2767=0x1.4f060ad2f18d6p-3
2775=-0x1.43f0ee11aa60cp-4
2776=0x1.5e98028c4216ap-4
2784=0x1.77e7522b4bbaep-5
2785=-0x1.3ce802b475c08p-5
2940=-0x1.0739f9804a6c4p-4
2941=0x1.0e215e9509cdep-4
2943=-0x1.0739f9804a6c4p-4
2944=0x1.0e215e9509cdep-4
3051=0x1.2c84558b7ffbap+1
3052=-0x1.2c5dfb53ce8f4p+1
3069=0x1.08ed6e47b3ab2p-1
3070=-0x1.db9d9eeadb5b5p-2
3072=0x1.ce07599b7dd4cp-2
3073=-0x1.9b665cc5fe3dap-2
3078=0x1.0c5994b574a7cp-1
3079=-0x1.dab3bfca93437p-2
3099=-0x1.600c8de9d5edp-10
3102=-0x1.e2440f9f13647p-5
3103=0x1.469ba38c007dp-4
3180=-0x1.bfb7c29f233ep-6
3181=0x1.8d992e1b12298p-4
3183=-0x1.628639869681ap-6
3184=0x1.de84e969bde9ap-5
3186=0x1.bcdd114352036p-3
3187=-0x1.c2896ce150934p-4
3189=0x1.0a0f3130f8196p-3
3190=-0x1.20c9b60369eb2p-4
3192=0x1.1bf9399d7049fp-2
3193=-0x1.cc5589f91364bp-3
3195=0x1.127587603ce2dp-1
3196=-0x1.f1b8d8ca946e6p-2
3198=-0x1.28d5bc7b777acp-1
3199=0x1.493ab5c33dd54p-1
3201=-0x1.89d57d499dbc3p-2
3202=0x1.cf61b5db04af4p-2
3207=-0x1.a346d2fd75a3dp-2
3208=0x1.cc7117db0e658p-2
3211=0x1.6b9934c8dbd2p-8
3213=-0x1.2d96cad960361p-3
3214=0x1.acc59434bb204p-3
3216=0x1.7a94e7ac6a646p-3
3217=-0x1.0df8e74ac19d6p-3
3234=0x1.95e50b17b34e2p-1
3235=-0x1.6dc169b14f56dp-1
3240=0x1.93c5d6c1913ccp+0
3241=-0x1.4957858d0fcebp-1
3282=0x1.1a76ff9a05558p-3
3283=-0x1.709973b23cde9p-4
3291=0x1.9c382cedfee68p-2
3292=-0x1.96f196bb7b07ep-2
3294=0x1.3e0ab20d15085p-5
3295=-0x1.16a39cde810d8p-5
3303=-0x1.77d0f0cc89286p-9
3304=0x1.9e63b826a7cdp-9
3321=-0x1.4608331e38b07p-3
3322=0x1.5f65575ac08ep-3
3324=-0x1.9131cf6196f04p-6
3325=0x1.a00e4f8c95beap-5
3330=0x1.68099112feb8cp-7
3331=-0x1.ae24f0c0b42d2p-8
3333=-0x1.e9c797c139e82p-4
3334=0x1.fa1a8ae31c4f1p-4
3336=0x1.819cc34b9c9c9p-4
3337=-0x1.56edb6ffb6bdp-4
3340=0x1.ef64770ec2106p-7
3345=0x1.95dd091149cb8p-1
3346=-0x1.6dbc685662a4ep-1
3348=-0x1.0efb109a05a88p-3
3349=0x1.4a370af79aa08p-3
3351=0x1.358c53ade6be2p-4
3352=-0x1.050bd0f817d3cp-4
3357=0x1.b4942ff77e21bp-3
3358=-0x1.a5724b0ee2c34p-3
3363=-0x1.afb50baf5e18fp-6
3364=0x1.bb43f185cc2dp-6
3402=0x1.d8f6d09fe5427p-2
3403=-0x1.d5bfe87b2a7p-2
3420=0x1.88153ecd3a776p-5
3421=-0x1.0a370972560b9p-5
3423=0x1.0867228824721p-4
3424=-0x1.bc14308864fc4p-5
