#mdl#2#247
#rdr#7/1/0
1:b,
18:u:N1F0X0 = %X[0,0],
18:u:N1F1X0 = %X[0,1],
19:u:N1F0L1 = %X[-1,0],
19:u:N1F1L1 = %X[-1,1],
18:u:N1F0R1 = %X[1,0],
18:u:N1F1R1 = %X[1,1],
#qrk#3
1:T,
1:I,
1:O,
#qrk#215
1:b,
15:u:N1F0X0 = 2346,
13:u:N1F1X0 = lo,
15:u:N1F0L1 = _x-1,
15:u:N1F1L1 = _x-1,
15:u:N1F0R1 = 2334,
13:u:N1F1R1 = lo,
15:u:N1F0X0 = 2334,
15:u:N1F0L1 = 2346,
13:u:N1F1L1 = lo,
15:u:N1F0R1 = 2381,
13:u:N1F1R1 = mn,
15:u:N1F0X0 = 2381,
13:u:N1F1X0 = mn,
15:u:N1F0L1 = 2334,
15:u:N1F0R1 = 2330,
15:u:N1F0X0 = 2330,
15:u:N1F0L1 = 2381,
13:u:N1F1L1 = mn,
15:u:N1F0R1 = 2340,
15:u:N1F0X0 = 2340,
15:u:N1F0L1 = 2330,
15:u:N1F0R1 = 2344,
15:u:N1F0X0 = 2344,
15:u:N1F0L1 = 2340,
15:u:N1F0L1 = 2344,
15:u:N1F0R1 = 2352,
15:u:N1F0X0 = 2352,
15:u:N1F0R1 = 2350,
15:u:N1F0X0 = 2350,
15:u:N1F0L1 = 2352,
15:u:N1F0L1 = 2350,
13:u:N1F0R1 = 32,
13:u:N1F1R1 = zs,
13:u:N1F0X0 = 32,
13:u:N1F1X0 = zs,
15:u:N1F0R1 = 2325,
15:u:N1F0X0 = 2325,
13:u:N1F0L1 = 32,
13:u:N1F1L1 = zs,
15:u:N1F0R1 = 2341,
15:u:N1F0X0 = 2341,
15:u:N1F0L1 = 2325,
15:u:N1F0R1 = 2366,
13:u:N1F1R1 = mc,
15:u:N1F0X0 = 2366,
13:u:N1F1X0 = mc,
15:u:N1F0L1 = 2341,
15:u:N1F0L1 = 2366,
13:u:N1F1L1 = mc,
15:u:N1F0R1 = 2369,
15:u:N1F0X0 = 2369,
15:u:N1F0R1 = 2326,
15:u:N1F0X0 = 2326,
15:u:N1F0L1 = 2369,
15:u:N1F0L1 = 2326,
15:u:N1F0R1 = 2323,
15:u:N1F0X0 = 2323,
15:u:N1F0R1 = 2306,
15:u:N1F0X0 = 2306,
15:u:N1F0L1 = 2323,
15:u:N1F0L1 = 2306,
15:u:N1F0R1 = 2307,
15:u:N1F0X0 = 2307,
15:u:N1F0L1 = 2307,
15:u:N1F0R1 = 2358,
15:u:N1F0X0 = 2358,
15:u:N1F0L1 = 2358,
15:u:N1F0R1 = 2368,
15:u:N1F0X0 = 2368,
15:u:N1F0L1 = 2368,
15:u:N1F0R1 = 2342,
15:u:N1F0X0 = 2342,
15:u:N1F0L1 = 2342,
15:u:N1F0R1 = 2327,
15:u:N1F0X0 = 2327,
15:u:N1F0R1 = 2339,
15:u:N1F0X0 = 2339,
15:u:N1F0L1 = 2327,
15:u:N1F0R1 = 2346,
15:u:N1F0L1 = 2339,
15:u:N1F0R1 = 2367,
15:u:N1F0X0 = 2367,
15:u:N1F0L1 = 2367,
15:u:N1F0R1 = 2349,
15:u:N1F0X0 = 2349,
15:u:N1F0L1 = 2349,
15:u:N1F0R1 = 2351,
15:u:N1F0X0 = 2351,
15:u:N1F0L1 = 2351,
15:u:N1F0R1 = 2404,
13:u:N1F1R1 = po,
15:u:N1F0X0 = 2404,
13:u:N1F1X0 = po,
15:u:N1F0L1 = 2404,
13:u:N1F1L1 = po,
15:u:N1F0R1 = 2361,
15:u:N1F0X0 = 2361,
15:u:N1F0L1 = 2361,
15:u:N1F0R1 = 2357,
15:u:N1F0X0 = 2357,
15:u:N1F0L1 = 2357,
15:u:N1F0R1 = 2379,
15:u:N1F0X0 = 2379,
15:u:N1F0L1 = 2379,
15:u:N1F0R1 = 2348,
15:u:N1F0X0 = 2348,
15:u:N1F0L1 = 2348,
15:u:N1F0R1 = 2375,
15:u:N1F0X0 = 2375,
15:u:N1F0L1 = 2375,
15:u:N1F0R1 = 2380,
15:u:N1F0X0 = 2380,
15:u:N1F0L1 = 2380,
15:u:N1F0R1 = 2360,
15:u:N1F0X0 = 2360,
15:u:N1F0L1 = 2360,
15:u:N1F0R1 = 2343,
15:u:N1F0X0 = 2343,
15:u:N1F0L1 = 2343,
15:u:N1F0R1 = 2332,
15:u:N1F0X0 = 2332,
15:u:N1F0R1 = 2329,
15:u:N1F0X0 = 2329,
15:u:N1F0L1 = 2332,
15:u:N1F0L1 = 2329,
15:u:N1F0R1 = 2338,
15:u:N1F0X0 = 2338,
15:u:N1F0L1 = 2338,
15:u:N1F0R1 = 2309,
15:u:N1F0X0 = 2309,
15:u:N1F0L1 = 2309,
15:u:N1F0R1 = 2337,
15:u:N1F0X0 = 2337,
15:u:N1F0L1 = 2337,
15:u:N1F0R1 = 2359,
15:u:N1F0X0 = 2359,
15:u:N1F0L1 = 2359,
15:u:N1F0R1 = 2405,
15:u:N1F0X0 = 2405,
15:u:N1F0L1 = 2405,
15:u:N1F0R1 = 2365,
15:u:N1F0X0 = 2365,
15:u:N1F0L1 = 2365,
15:u:N1F0R1 = 2371,
15:u:N1F0X0 = 2371,
15:u:N1F0L1 = 2371,
15:u:N1F0R1 = 2354,
15:u:N1F0X0 = 2354,
15:u:N1F0L1 = 2354,
15:u:N1F0R1 = 2376,
15:u:N1F0X0 = 2376,
15:u:N1F0L1 = 2376,
15:u:N1F0R1 = 2319,
15:u:N1F0X0 = 2319,
15:u:N1F0L1 = 2319,
15:u:N1F0R1 = 2370,
15:u:N1F0X0 = 2370,
15:u:N1F0L1 = 2370,
15:u:N1F0R1 = 2313,
15:u:N1F0X0 = 2313,
15:u:N1F0L1 = 2313,
15:u:N1F0R1 = 2310,
15:u:N1F0X0 = 2310,
15:u:N1F0L1 = 2310,
13:u:N1F0R1 = 44,
13:u:N1F0X0 = 44,
13:u:N1F0L1 = 44,
13:u:N1F0R1 = 45,
13:u:N1F1R1 = pd,
13:u:N1F0X0 = 45,
13:u:N1F1X0 = pd,
13:u:N1F0L1 = 45,
13:u:N1F1L1 = pd,
15:u:N1F0R1 = 2336,
15:u:N1F0X0 = 2336,
15:u:N1F0L1 = 2336,
15:u:N1F0R1 = 2328,
15:u:N1F0X0 = 2328,
15:u:N1F0L1 = 2328,
15:u:N1F0R1 = 2347,
15:u:N1F0X0 = 2347,
15:u:N1F0L1 = 2347,
15:u:N1F0R1 = 2311,
15:u:N1F0X0 = 2311,
15:u:N1F0L1 = 2311,
15:u:N1F0R1 = 2335,
15:u:N1F0X0 = 2335,
15:u:N1F0L1 = 2335,
15:u:N1F0R1 = 8211,
15:u:N1F0X0 = 8211,
15:u:N1F0L1 = 8211,
15:u:N1F0R1 = 8221,
13:u:N1F1R1 = pf,
15:u:N1F0X0 = 8221,
13:u:N1F1X0 = pf,
15:u:N1F0L1 = 8221,
13:u:N1F1L1 = pf,
15:u:N1F0R1 = 2374,
15:u:N1F0X0 = 2374,
15:u:N1F0L1 = 2374,
13:u:N1F0R1 = 39,
13:u:N1F0X0 = 39,
13:u:N1F0L1 = 39,
15:u:N1F0R1 = 2331,
15:u:N1F0X0 = 2331,
15:u:N1F0L1 = 2331,
13:u:N1F0R1 = 63,
13:u:N1F0X0 = 63,
13:u:N1F0L1 = 63,
15:u:N1F0R1 = 2314,
15:u:N1F0X0 = 2314,
15:u:N1F0L1 = 2314,
15:u:N1F0R1 = _x+1,
15:u:N1F1R1 = _x+1,
0=-0x1.4352dd3994134p-1
1=0x1.1cfbf0f96f666p-3
2=-0x1.fdce4a5482f1ep-5
3=-0x1.f20cafd8b53cep-1
4=0x1.6977080838876p+0
5=-0x1.b6739d7367d1ap-3
6=0x1.21bccc446f5a8p+0
7=-0x1.a9d62e77bb57ep+0
8=-0x1.418ab8b690295p-1
9=0x1.6a5e8f512ac05p-4
10=-0x1.59cb96ac3acp-7
12=-0x1.9d560e87def45p-2
13=0x1.04ec5be3b3451p+0
14=-0x1.c20b6a9efdf3p-1
15=0x1.d6d0ab97b4612p-6
16=-0x1.b822d5de0bf6dp-6
18=0x1.d6d0ab97b4612p-6
19=-0x1.b822d5de0bf6dp-6
21=0x1.ddeb2d40520a6p-4
22=-0x1.944f84f8b057bp-4
24=-0x1.02a4e0ef6006fp-4
25=0x1.32288b3c6ebd6p-4
26=0x1.ac8fafbcfeba1p-2
30=-0x1.293e0b427b836p-6
31=0x1.8e933709aef19p-5
32=-0x1.dd4ca6d65cdc4p-9
33=-0x1.ee4c07ab3e7c6p-1
34=0x1.74051138facf4p+0
35=-0x1.fb2f7eba0eef9p-2
36=-0x1.1d1a0c713ab9ap-3
37=0x1.0a4cb6f026df7p-2
38=-0x1.4f2df93fa0aep-3
39=-0x1.541f2b0f740a4p-3
40=0x1.404e19febcf0dp-2
41=-0x1.14b36889bf521p-2
42=-0x1.b0bb6fcb1539ep-3
43=0x1.a1c5658e0185p-2
44=-0x1.7bc24ca62d745p-3
45=-0x1.035ce09fb33bbp-1
46=0x1.c62dbe49407d4p-1
47=-0x1.9761d26164b96p-2
55=0x1.304f74328f95ap-6
56=-0x1.2790242ad0e82p-8
57=-0x1.0f602b9ca1686p-3
58=0x1.06f4b01fcf76dp-3
59=-0x1.269c4d28ea64p-4
60=-0x1.c13d958efcc3ap-2
61=0x1.a6631c99cdfc2p-2
63=-0x1.dacc88f5f6d57p-9
64=0x1.17be1dfb1ecfp-7
66=-0x1.447839b9fe3f7p-4
67=0x1.4a08d6121ca4ep-4
68=-0x1.7781fe6282a85p-4
69=0x1.2e37d48426f53p-5
70=-0x1.d13e0a17a1fcfp-5
72=-0x1.9fc14cc6b366cp-9
75=-0x1.8e697cdd32325p-4
76=0x1.bf1e65b56f1d9p-4
77=-0x1.79a4a9fabd6a2p-5
78=-0x1.1e1ff6e911c7ap-3
79=0x1.2526df51a986cp-2
80=-0x1.da0ee38ecd212p-4
81=-0x1.ac3c703261d4fp-5
82=0x1.4da2f1bf441fp-5
84=-0x1.9eea6ceb0701p-10
85=0x1.f664af33b4143p-6
86=-0x1.3f8e959e7d29p-5
87=-0x1.600583da57c44p-3
88=0x1.e6ab742363df6p-3
89=-0x1.2b804c6713c18p-4
90=-0x1.266dc37b13cc7p-5
91=0x1.bf1fd971d453bp-5
93=-0x1.75bc0c339a755p-5
94=0x1.64dfa8769946p-4
95=-0x1.bf166f26adb9ap-5
96=-0x1.1030b482c99b2p-4
97=0x1.de3d2f1f588c6p-4
98=-0x1.9a2fdfe6789e8p-6
99=-0x1.a3c37e37f4b2ep-5
100=0x1.2b4ffe7e4917ap-3
101=-0x1.0ff4c18b2537cp-4
102=0x1.d127763c3c142p-2
103=0x1.6a37037e99768p-7
104=-0x1.39c2b7e343dc9p-1
105=0x1.d127763c3c142p-2
106=0x1.6a37037e99768p-7
107=-0x1.39c2b7e343dc9p-1
108=-0x1.35f4ec3765da8p-2
109=-0x1.994a9fb00d1efp+0
110=0x1.c58fa5d9ca75p+0
111=-0x1.35f4ec3765da8p-2
112=-0x1.994a9fb00d1efp+0
113=0x1.c58fa5d9ca75p+0
115=-0x1.9b49fa9631942p-7
116=0x1.a4e52adf457d2p-5
117=0x1.c36c9a5eb2659p-6
119=-0x1.7ac88d36e0997p-7
120=0x1.c1050a3933996p+0
121=-0x1.b2651d5150762p+0
122=-0x1.efd948f24d6b5p-3
123=0x1.c1050a3933996p+0
124=-0x1.b2651d5150762p+0
125=-0x1.efd948f24d6b5p-3
126=0x1.38c3d527a38fcp-9
129=-0x1.24ad66b5d8684p-5
130=0x1.cc717a5cc22afp-5
132=-0x1.feb88fb94c671p-6
133=0x1.4cb716b61acdp-4
134=-0x1.036432b639f5ep-6
135=-0x1.3dc3dd19b1f41p-4
136=0x1.194a03afd4b7fp-3
137=-0x1.78bf0bd8506cp-4
138=-0x1.c85ba49d144a5p-3
139=0x1.4e21717c32811p-2
140=-0x1.f889b4c6940afp-3
141=-0x1.b81252f60b79ep-4
142=0x1.c47c5b5ae35edp-3
143=-0x1.f75df0aa95e8dp-4
144=-0x1.1582f4283f5d4p-1
145=0x1.09890bd7bb0e1p+0
146=-0x1.154c7b2cbae0ap-1
150=-0x1.28cc9c603e084p-2
151=0x1.a4636e2c95635p-2
152=-0x1.4ce5cd84c4f43p-4
153=-0x1.805dedf81086cp-3
154=0x1.779b32803c47ap-3
155=-0x1.231766d30b525p-4
159=-0x1.565f4090b4b18p-7
160=0x1.78cd204b79753p-5
161=-0x1.016e52e07ca42p-6
168=-0x1.c9f4723ea4265p-5
169=0x1.73aacd958520dp-4
170=-0x1.1c5e20a5bb144p-9
181=0x1.e963c4bdf9cb2p-9
183=-0x1.9d0ca898151b8p-4
184=0x1.5508d7635d7e2p-3
185=-0x1.0a85d357df89fp-5
189=-0x1.1bc90d396f168p-6
190=-0x1.b6aab4804175p-9
191=0x1.2c6d3b5d16745p-5
192=-0x1.412559c28cdb8p-6
193=0x1.8c9084c2a232dp-5
195=-0x1.872bf88784283p-3
196=0x1.9de9e3e6b421ep-2
197=-0x1.63666930a9e3bp-3
198=0x1.7d6baf03135fp-2
199=-0x1.f3e7913dad295p-2
200=0x1.debeee09bf5f5p-5
208=0x1.2608a2708d4b9p-6
214=0x1.5a19ff292eb8dp-6
216=-0x1.42fa2f1c75da8p-5
217=0x1.c20169edaca34p-5
223=0x1.f757faedcc3dcp-7
224=-0x1.bf3fd2c2445fp-11
226=0x1.65662b966134p-5
227=-0x1.308c09bb0be49p-7
237=-0x1.1249700f5cf19p-5
238=0x1.92f7cf9cc0173p-5
241=0x1.2ef368d8e3923p-7
244=-0x1.24e8c4e9f94cp-10
245=0x1.522ff7e4ad04ep-5
250=0x1.b3bd84f229e8ep-5
251=-0x1.c8b19075ca734p-5
252=-0x1.75b54d460c586p-4
253=0x1.b46854f8111f5p-3
254=-0x1.df29f65e7c622p-4
255=-0x1.a0ced742bf65cp-6
256=0x1.aab99094a6597p-5
257=-0x1.4a51e97b699a8p-5
265=0x1.83a857421d168p-7
267=-0x1.ac98b782a256cp-6
268=0x1.f421bda4e41p-7
270=-0x1.5f4965870c402p-3
271=0x1.065f0c229cee4p-2
272=-0x1.d1d322717e384p-5
273=-0x1.6df4bf9e27ec6p-5
274=0x1.2068b1bafb56fp-6
276=-0x1.bfb6ac461cd9p-7
277=0x1.383aecf96a46cp-2
278=-0x1.0e65b399f2935p-2
279=-0x1.5c479cef4bcbcp-6
280=0x1.6d1429298fef2p-2
281=-0x1.3a2dd60c61132p-2
282=0x1.a04f69e828591p+0
283=-0x1.526068014dc68p+0
284=-0x1.1020ef134287ep-2
285=0x1.f3da4b10313cp+0
286=-0x1.8f6563241b109p+0
287=-0x1.6a38872830eb1p-2
289=-0x1.1ce164097d02p-4
290=0x1.628b268183b3cp-4
292=-0x1.359a85a124c5bp-4
293=0x1.34b7f4d6a82b6p-3
297=-0x1.3c4612104c28dp-5
298=0x1.c66e64786c843p-5
303=-0x1.332303b0a8b76p-9
306=-0x1.2dd7633e3c3e6p-7
307=0x1.3d7f517868b72p-4
308=-0x1.9149168bfb5c2p-5
309=-0x1.b3c0816a1c2cdp-6
310=0x1.3cbd486e3b356p-4
311=-0x1.f66bf28eb1b4ep-7
313=0x1.9719518cc41p-15
315=-0x1.98a221e9ce382p-8
316=0x1.12f6a8e478aacp-5
318=-0x1.f45ce82414f17p-4
319=0x1.23ef4131bd20dp-3
332=-0x1.e3ca1d49e41cp-11
333=-0x1.e5522bb6e91bep-5
334=0x1.3605e186a1548p-3
335=-0x1.15a2d19fa4d26p-4
336=-0x1.603c160162a2fp-4
337=0x1.e4121e83a0ea4p-4
348=-0x1.4ad465bd8f904p-9
350=0x1.bd976235fd0efp-5
351=0x1.d9850923929e3p-4
352=-0x1.942e2fea9da1bp-7
353=-0x1.710c8f487c108p-8
354=-0x1.588a62625c8a1p-5
355=0x1.6c5f299266b65p-4
356=-0x1.3993bcbbd9864p-6
361=0x1.7ade282badfe5p-6
379=0x1.03eb9014f5d9bp-7
394=-0x1.8274e7aa685e6p-5
395=0x1.59b60979b13dp-4
396=0x1.32f37c8567371p-4
397=-0x1.a4e66f515a266p-5
399=-0x1.c5cd3dc1cf7d8p-6
400=0x1.5a7c94f8262bdp-5
414=-0x1.d93d0fae0ac4dp-6
415=0x1.7e1f3097a327dp-5
423=0x1.0aa3a068c285bp-3
424=-0x1.a3e1347508b0fp-4
445=0x1.17f3359a2748fp-6
450=-0x1.6845d1631a196p-7
451=0x1.7f7b21e56bf5dp-6
463=0x1.64f27886f6bacp-10
481=0x1.8e43d83072736p-6
504=0x1.34d761a332f76p-3
505=-0x1.03893cdc6bb39p-3
519=0x1.ff9ec026eff6p-6
520=-0x1.b2cea83d1342cp-6
576=0x1.e9dc9fc8d610ap-6
577=-0x1.a6903ce4b1889p-6
612=-0x1.5340658265236p-5
613=0x1.14757b767941cp-4
630=0x1.cd17a0639da18p-11
