#mdl#2#351
#rdr#3/0/0
1:b,
18:u:N1F0X0 = %X[0,0],
19:u:N1F0L1 = %X[-1,0],
#qrk#3
1:T,
1:I,
1:O,
#qrk#132
1:b,
15:u:N1F0X0 = 2319,
15:u:N1F0L1 = _x-1,
15:u:N1F0X0 = 2325,
15:u:N1F0L1 = 2319,
13:u:N1F0X0 = 32,
15:u:N1F0L1 = 2325,
15:u:N1F0X0 = 2361,
13:u:N1F0L1 = 32,
15:u:N1F0X0 = 2379,
15:u:N1F0L1 = 2361,
15:u:N1F0X0 = 2340,
15:u:N1F0L1 = 2379,
15:u:N1F0X0 = 2366,
15:u:N1F0L1 = 2340,
15:u:N1F0L1 = 2366,
15:u:N1F0X0 = 2352,
15:u:N1F0L1 = 2352,
15:u:N1F0X0 = 2332,
15:u:N1F0L1 = 2332,
13:u:N1F0X0 = 46,
13:u:N1F0L1 = 46,
15:u:N1F0X0 = 2381,
15:u:N1F0X0 = 2351,
15:u:N1F0L1 = 2381,
15:u:N1F0L1 = 2351,
15:u:N1F0X0 = 2354,
15:u:N1F0L1 = 2354,
15:u:N1F0X0 = 2350,
15:u:N1F0X0 = 2369,
15:u:N1F0L1 = 2350,
15:u:N1F0L1 = 2369,
15:u:N1F0X0 = 2327,
15:u:N1F0L1 = 2327,
15:u:N1F0X0 = 2339,
15:u:N1F0X0 = 2370,
15:u:N1F0L1 = 2339,
15:u:N1F0X0 = 2344,
15:u:N1F0L1 = 2370,
15:u:N1F0L1 = 2344,
13:u:N1F0X0 = 45,
13:u:N1F0L1 = 45,
15:u:N1F0X0 = 2368,
15:u:N1F0L1 = 2368,
15:u:N1F0X0 = 2357,
15:u:N1F0L1 = 2357,
15:u:N1F0X0 = 2346,
15:u:N1F0L1 = 2346,
15:u:N1F0X0 = 2367,
15:u:N1F0L1 = 2367,
15:u:N1F0X0 = 2306,
15:u:N1F0L1 = 2306,
15:u:N1F0X0 = 2337,
15:u:N1F0L1 = 2337,
15:u:N1F0X0 = 2355,
15:u:N1F0X0 = 2375,
15:u:N1F0L1 = 2355,
15:u:N1F0L1 = 2375,
15:u:N1F0X0 = 2348,
15:u:N1F0L1 = 2348,
15:u:N1F0X0 = 2328,
15:u:N1F0L1 = 2328,
13:u:N1F0X0 = 44,
13:u:N1F0L1 = 44,
13:u:N1F0X0 = 34,
13:u:N1F0L1 = 34,
15:u:N1F0X0 = 2342,
15:u:N1F0L1 = 2342,
15:u:N1F0X0 = 2335,
15:u:N1F0L1 = 2335,
15:u:N1F0X0 = 2326,
15:u:N1F0L1 = 2326,
15:u:N1F0X0 = 2314,
15:u:N1F0L1 = 2314,
15:u:N1F0X0 = 2358,
15:u:N1F0L1 = 2358,
15:u:N1F0X0 = 2312,
15:u:N1F0L1 = 2312,
15:u:N1F0X0 = 2330,
15:u:N1F0L1 = 2330,
15:u:N1F0X0 = 2360,
15:u:N1F0L1 = 2360,
15:u:N1F0X0 = 2310,
15:u:N1F0L1 = 2310,
15:u:N1F0X0 = 2313,
15:u:N1F0L1 = 2313,
15:u:N1F0X0 = 2343,
15:u:N1F0L1 = 2343,
13:u:N1F0X0 = 33,
13:u:N1F0L1 = 33,
15:u:N1F0X0 = 2336,
15:u:N1F0L1 = 2336,
13:u:N1F0X0 = 63,
13:u:N1F0L1 = 63,
15:u:N1F0X0 = 2349,
15:u:N1F0L1 = 2349,
15:u:N1F0X0 = 2333,
15:u:N1F0L1 = 2333,
15:u:N1F0X0 = 2309,
15:u:N1F0L1 = 2309,
15:u:N1F0X0 = 2334,
15:u:N1F0L1 = 2334,
15:u:N1F0X0 = 2359,
15:u:N1F0L1 = 2359,
15:u:N1F0X0 = 2341,
15:u:N1F0L1 = 2341,
15:u:N1F0X0 = 2347,
15:u:N1F0L1 = 2347,
15:u:N1F0X0 = 2338,
15:u:N1F0L1 = 2338,
13:u:N1F0X0 = 59,
13:u:N1F0L1 = 59,
15:u:N1F0X0 = 2307,
15:u:N1F0L1 = 2307,
15:u:N1F0X0 = 2371,
15:u:N1F0L1 = 2371,
15:u:N1F0X0 = 2311,
15:u:N1F0L1 = 2311,
15:u:N1F0X0 = 2331,
15:u:N1F0L1 = 2331,
15:u:N1F0X0 = 2353,
15:u:N1F0L1 = 2353,
15:u:N1F0X0 = 2380,
15:u:N1F0L1 = 2380,
15:u:N1F0X0 = 2376,
15:u:N1F0L1 = 2376,
15:u:N1F0X0 = 2320,
15:u:N1F0L1 = 2320,
15:u:N1F0X0 = 2323,
15:u:N1F0L1 = 2323,
13:u:N1F0X0 = 58,
13:u:N1F0L1 = 58,
0=-0x1.ee39ea16d5f8ap-1
1=0x1.7239486bdf08p-1
2=-0x1.050bf21bd7c22p-1
3=-0x1.6fba264513e1ep+0
4=0x1.239ab36d10ce2p+1
5=0x1.66473938e621bp-1
6=0x1.a2c5f843a7564p+0
7=-0x1.7646a1673e5eap+0
8=-0x1.f3d986a7ac648p-1
9=0x1.f28a8f9c67b6ep-6
10=-0x1.6e28db30ab956p-6
11=-0x1.761feead0488dp-8
12=0x1.5cf5e3204117ep-10
13=-0x1.217e78f08b93ap-11
15=0x1.ce090eda3dp-5
16=0x1.f41496971e3p-6
17=-0x1.6dc01b4304cfbp-4
18=-0x1.ba5630fdc668ap-7
19=0x1.bf449554fbd72p-6
20=-0x1.767f882b3b473p-7
21=-0x1.380f87be331a6p-1
22=-0x1.e8bf2c62c2169p+0
23=0x1.388275f70c808p+1
24=-0x1.8ce402b18197p-4
25=0x1.1b70690514e43p-3
26=-0x1.408cc25112eb2p-5
27=0x1.372548c691465p-9
28=0x1.7e64c86ada879p-4
29=-0x1.9f6267c28ee3p-4
30=0x1.3871dbe1f7e4fp+1
31=-0x1.e3a11b4639e68p+0
32=-0x1.3e8533a6219b3p-1
33=-0x1.831bd03b5e6bap-4
34=0x1.937f03c3381bbp-3
35=-0x1.9a2bc91af30c2p-4
36=-0x1.cc25b40476b25p-4
37=0x1.cbd4a58ab7836p-3
38=-0x1.c1cd28e0d99aap-4
39=0x1.9347dd182245dp-4
40=0x1.810bf673be0e7p-4
41=-0x1.9304e958d6301p-3
42=-0x1.6644c70ce4b2p-4
43=0x1.363ba7671acffp-4
45=-0x1.83f30516e6323p-2
46=0x1.7fa3227a7e9cp-1
47=-0x1.799890a3199d3p-2
48=-0x1.a512bffb24f61p-3
49=0x1.013c77e6c6a2ep-2
50=-0x1.622be2e963ab8p-5
51=-0x1.675543f962538p-2
52=0x1.b972eb37c06c3p-3
53=0x1.ef4c8070cda3ap-4
54=-0x1.1e5d10e782803p-8
55=0x1.5658a9c79e107p-3
56=-0x1.4f9ec3f3059b5p-3
57=-0x1.3414712271224p-3
58=0x1.3e491a31e8059p-3
59=-0x1.e4ec4ea0a9d92p-9
60=0x1.0183fd350ae5ap-7
61=0x1.0af2309699b0ap-5
62=-0x1.d601cf5012d2cp-5
63=-0x1.fccabf9ae4758p-5
64=0x1.cb7fb7068f549p-4
65=-0x1.86c7d211fcb04p-5
66=0x1.f62d48032c391p-3
67=-0x1.735c59214a3e3p-3
68=-0x1.1fac5172c782ep-4
69=-0x1.20e116ab365fp-4
70=-0x1.74503d8bec2c6p-3
71=0x1.f82c4de2f0ccdp-3
72=-0x1.51b33abecd704p-3
73=0x1.4cd7b6b15f5e6p-2
74=-0x1.4320fb8be1eb2p-3
75=-0x1.6c824c1edb7d9p-5
76=0x1.03ce39d9de7dp-3
77=-0x1.47a4df74307fbp-4
78=-0x1.45be23ef42873p-3
79=0x1.3523f370343acp-2
80=-0x1.1fae8bd9168d1p-3
81=-0x1.341b83bc5155dp-4
82=0x1.142d8ffc49d58p-3
83=-0x1.daa9bea09931fp-5
84=-0x1.919a7ebf77218p-4
85=0x1.f789984e75c35p-3
86=-0x1.29e121d6aad37p-3
87=-0x1.0f4a518b945c6p-3
88=0x1.e96ee5e61671ap-3
89=-0x1.aa92ba84e5688p-4
90=0x1.07d70070d1728p-3
91=-0x1.cccaadd0a4f93p-5
92=-0x1.30aca935e9d71p-4
93=-0x1.1978f4e8c19dfp-4
94=0x1.25efc96112f26p-3
95=-0x1.28b02fa945871p-4
96=-0x1.86e9bd799ddc6p-4
97=0x1.757971c5896p-3
98=-0x1.5a52b7e156275p-4
99=-0x1.26d3742c13c95p-4
100=0x1.045650a070045p-3
101=-0x1.b0457dc95afdcp-5
102=0x1.0051a765553bep-7
103=0x1.7074125f2b2b6p-6
104=-0x1.1be981e6f4957p-5
105=-0x1.2f8e4ec6f6478p-5
106=0x1.f4d8acbefa4e2p-5
107=-0x1.63bb032f8d0cdp-6
108=-0x1.12019a73e7bbp-4
109=0x1.1e58561d33f12p-3
110=-0x1.20f8a39661668p-4
111=-0x1.b89e2d6ca72ccp-5
112=0x1.cecab82d18248p-4
113=-0x1.d18a668d4b9bbp-5
114=-0x1.d9a1128b2079fp-5
115=0x1.f245922a139d3p-5
116=-0x1.ce64bce9042d7p-10
117=-0x1.209cecb0c8578p-9
118=0x1.e77fb362ece79p-4
119=-0x1.c66d03223e44ap-4
120=-0x1.984282173188cp-5
121=0x1.779df3fa31447p-5
122=-0x1.ba3e5fa73537cp-10
123=-0x1.8b03efc05909fp-4
124=0x1.85c31e0ae9505p-5
125=0x1.6372f53034a26p-5
126=0x1.3310f11e01fcdp-8
127=-0x1.78920027f8c5ep-9
130=-0x1.78deb020e7822p-9
131=0x1.339861f1ae10bp-8
132=-0x1.54dbe7a1c9981p-3
133=0x1.5cd5a6937869fp-2
134=-0x1.5ff42e6d17dc6p-3
135=-0x1.ee600116d8cbp-4
136=-0x1.2ee4ef1fd6806p-3
137=0x1.12811083d2f6dp-2
139=0x1.19414590247bep-4
140=-0x1.2de0b8db87243p-4
141=-0x1.3e0dc5ef859a7p-4
142=0x1.106d60d714514p-3
143=-0x1.b22d1b1d0890cp-5
144=0x1.a778d3be3f293p-5
145=0x1.aed3f6e9bf5ep-7
146=-0x1.134d56ec76415p-4
147=-0x1.3e9d2129a8cbap-4
148=0x1.0d2cb2b30c82bp-3
149=-0x1.a40bac18a2f55p-5
150=-0x1.35e67d648b18dp-4
151=0x1.4095cf26ee9e9p-3
152=-0x1.418eb2b933646p-4
153=-0x1.30f793e64e8aap-4
154=0x1.e0bde1fe167e9p-4
155=-0x1.4c1fbfcf52692p-5
156=-0x1.45ce9aa13ad71p-5
157=0x1.8faa56a99ac28p-4
158=-0x1.c6193651bd2dcp-5
159=-0x1.c1131a5d137c6p-5
160=0x1.878bc26e83966p-4
161=-0x1.3a978e1fb62f9p-5
162=-0x1.26bde574f3f39p-5
163=0x1.669cad7a742d6p-4
164=-0x1.930e991fb6e85p-5
165=-0x1.9093808c0c104p-5
166=0x1.85177e0db7c69p-4
167=-0x1.662e9f2f25fcep-5
168=-0x1.54e007f32e0a7p-6
169=0x1.839e0cfc32d0ap-5
170=-0x1.8b825944bc985p-6
171=-0x1.8096dd96c9315p-3
172=0x1.85f584d484d26p-2
173=-0x1.8678f4fa310f2p-3
174=-0x1.5656321327c53p-6
175=0x1.b2dd7435a6762p-6
176=-0x1.ad6c4b101d8c4p-9
177=-0x1.27ccf2abd64e2p-3
178=-0x1.8ab5f52e02d1ep-6
179=0x1.a912d736e46dcp-3
180=0x1.f1ccea1cfc79p-5
181=-0x1.024fef54328d2p-5
182=-0x1.db0f87516953ap-6
183=-0x1.5814908732056p-5
184=0x1.51ad955b69626p-4
185=-0x1.37d9bdcf633f2p-5
186=0x1.9eec27f058fc2p-7
187=0x1.28ba2f50864ap-8
188=-0x1.407e588cc910bp-6
189=-0x1.873f1b0b820bp-6
190=0x1.826c348d1c701p-5
191=-0x1.56bf954e3bd5bp-6
192=0x1.77a250d3778f2p-4
193=-0x1.14e8daba40503p-4
194=-0x1.640c1fa461fe7p-6
195=-0x1.65e6697cc892fp-6
196=-0x1.149aa7edc4804p-4
197=0x1.77cab07d1564cp-4
198=0x1.bc7ba5ae053ffp-6
199=-0x1.283c8dc9127f6p-6
200=-0x1.85c49bc9593f1p-8
201=-0x1.8fb83216faaeep-8
202=-0x1.37575819b1203p-6
203=0x1.ce61791976ca6p-6
204=0x1.104ce6442655p-4
205=-0x1.01527fb1773d6p-5
206=-0x1.1ef58a7b3a1d9p-5
207=-0x1.82089793b734ep-5
208=0x1.64ed30cdbc281p-4
209=-0x1.3464eda7839afp-5
210=-0x1.5b8eef34512efp-8
211=0x1.435590f7803bcp-6
212=-0x1.8b3038d3e1e0bp-7
213=-0x1.6917e2832cd04p-7
214=0x1.ed1a1177a9248p-7
215=-0x1.1093e60bc422bp-9
216=0x1.695ba20835bdap-6
217=-0x1.1809086176de1p-9
218=-0x1.0318c36d0233bp-6
219=-0x1.4e7cfa44906fdp-6
220=0x1.2551e2fc81b69p-5
221=-0x1.aa9a25e7effbfp-7
222=-0x1.015b9ce5d50aep-6
223=0x1.5371462035b32p-5
224=-0x1.7ead369a1b5b6p-6
225=-0x1.30949b830bbfep-6
226=0x1.5bc1371473bb6p-7
227=0x1.6f691ce15b8bep-8
228=0x1.bcfba77ed64bap-7
229=0x1.25649b20518dcp-8
230=-0x1.4eb0b347fa89cp-6
231=-0x1.a887fbc3fe0cp-6
232=0x1.97b6b1add0bcfp-5
233=-0x1.600baed7286d7p-6
234=-0x1.2a2a6a4271885p-8
235=0x1.89a20178007e9p-7
236=-0x1.4db2b5aba376ep-8
237=-0x1.0aba077484d98p-8
238=0x1.352f794d32608p-8
240=-0x1.460772bad1107p-6
241=0x1.5941b072f5345p-4
242=-0x1.eca112bb23486p-5
243=-0x1.d691c1d819b19p-5
244=0x1.86f5fe9f2055ep-4
245=-0x1.23ed5f05e977ep-5
246=0x1.c6cbb1f714b31p-6
247=0x1.12a85311882a1p-5
248=-0x1.0b70399b23298p-4
249=-0x1.14e1847d91935p-4
250=0x1.6ca00aa40ff82p-4
251=-0x1.1d7e35bc0478ap-6
252=0x1.360c5deb25979p-3
253=-0x1.d849a2cd04f9ep-4
254=-0x1.274038595d2ap-5
255=-0x1.0e3c59775cb5cp-4
256=0x1.042617c84d121p-3
257=-0x1.e0b2cfd23d5c6p-5
258=0x1.0767351120a35p-6
259=-0x1.6fb5df4b917fbp-7
260=-0x1.25758d2b5bc7p-9
261=-0x1.c7679c8a0dbd6p-8
262=0x1.eaa1843c997f6p-7
263=-0x1.740adb075033p-8
264=0x1.926811218f4bp-9
265=0x1.30fab2ce75b9fp-9
266=-0x1.f31cab40d825ap-8
267=-0x1.3512ab82e5d5ep-7
268=0x1.49fc4730e5d0fp-6
269=-0x1.150eab1fe29e4p-7
270=0x1.55d728369061fp-5
271=-0x1.abb62a6367453p-6
272=-0x1.24d91c36f2ff8p-7
273=-0x1.25c30267dd3abp-7
274=-0x1.a8cc616564309p-6
275=0x1.54b5ebf4d41fap-5
276=-0x1.3cc61cebc1d64p-9
277=0x1.2eac787037405p-6
278=-0x1.c85407b2e00ccp-7
279=-0x1.dff343dbc3ba2p-7
280=0x1.dea04a7b30f3ep-6
281=-0x1.8f99df99a82f8p-7
282=0x1.b03430fd219c5p-6
283=-0x1.2520d368f6164p-6
284=-0x1.647820e6e2e68p-8
285=-0x1.64e93fa44e6d2p-8
286=-0x1.227b21ec677aap-6
287=0x1.ad7e8593e17fap-6
288=0x1.ec58f0f45b427p-6
289=-0x1.1e6a27e7455bp-6
290=-0x1.6deb4739cf6eep-7
291=-0x1.ede7b5314e293p-7
292=0x1.05d5ba511d586p-5
293=-0x1.dbbbc2923139dp-7
294=0x1.f09f1146cf4e6p-7
295=0x1.54ce89b960afep-13
296=-0x1.eb3c58f62cc52p-7
297=-0x1.1a3ec6dfc3ae6p-6
298=0x1.2165efd4f0877p-5
299=-0x1.01b36009a2608p-6
300=0x1.00ffda3e6659ap-5
301=-0x1.671f4c670d1f2p-6
302=-0x1.9d168ffeee5fep-8
303=-0x1.e2c40833acf9ep-7
304=0x1.f49f9d8945608p-6
305=-0x1.b8c7c15de7c7ep-7
312=-0x1.1e933dcb1f477p-8
313=0x1.6f188f43ee9bep-7
314=-0x1.2436fdbad1f2dp-8
315=-0x1.014bd2ff77afdp-8
316=0x1.18617d3d3a231p-7
317=-0x1.239df296bd1bdp-9
319=0x1.750fd1929692ap-8
320=-0x1.8a386361a50b7p-8
321=-0x1.8cd8c6225dc69p-8
322=0x1.49b728b990e66p-7
323=-0x1.a771d8acd197p-10
324=0x1.03badb8dabba6p-6
325=-0x1.645605b35fbfcp-7
326=-0x1.3300a73cea78ep-9
327=-0x1.76bfcba12daf6p-8
328=0x1.b56660d9d60fp-7
329=-0x1.6495e7aa48951p-8
331=0x1.0c0657389bd4ep-8
332=-0x1.5b8d73422fc05p-9
333=-0x1.8ac407158c656p-9
334=0x1.0a6b2d94f7482p-7
335=-0x1.698e15f1328fap-9
336=0x1.87844b3704614p-9
337=-0x1.ac57f84efa7a8p-10
340=-0x1.91d0ea48448dcp-10
341=0x1.7993ce842769ep-9
348=-0x1.1eb834bb6e7e7p-8
349=0x1.823d26ccc6e56p-7
350=-0x1.4d14d2a735124p-8
351=-0x1.57381a07ac619p-8
352=0x1.77420e63b5772p-7
353=-0x1.f7ca3f7ba51c9p-9
354=0x1.42ee0425835e6p-10
355=-0x1.774d547e2ae48p-12
358=0x1.fe8a0816248ffp-11
360=0x1.233060cabcc4p-14
364=0x1.c295c756cd62ap-11
366=-0x1.55de12093b4fdp-8
367=0x1.c663330221f99p-7
368=-0x1.a06b247d96dp-8
369=-0x1.8e02ffebfeaabp-8
370=0x1.b06f59d1b8de9p-7
371=-0x1.4329e7c311c1p-8
373=0x1.1e889dae1295cp-13
376=0x1.acf6cb47a863p-13
379=0x1.51a4f8131c7fp-15
384=0x1.0e095d1eb04e7p-8
385=-0x1.4eaa01f8a5df2p-9
387=-0x1.b7e34419c7675p-11
388=0x1.f18c56dacb8f4p-9
389=-0x1.3316ff4206e8ap-11
