#mdl#2#960
#rdr#3/0/0
1:b,
18:u:N1F0X0 = %X[0,0],
19:u:N1F0L1 = %X[-1,0],
#qrk#3
1:T,
1:I,
1:O,
#qrk#354
1:b,
15:u:N1F0X0 = 7977,
15:u:N1F0L1 = _x-1,
14:u:N1F0X0 = 961,
15:u:N1F0L1 = 7977,
14:u:N1F0X0 = 959,
14:u:N1F0L1 = 961,
14:u:N1F0X0 = 948,
14:u:N1F0L1 = 959,
14:u:N1F0X0 = 972,
14:u:N1F0L1 = 948,
14:u:N1F0X0 = 964,
14:u:N1F0L1 = 972,
14:u:N1F0L1 = 964,
14:u:N1F0X0 = 965,
13:u:N1F0X0 = 32,
14:u:N1F0L1 = 965,
15:u:N1F0X0 = 7945,
13:u:N1F0L1 = 32,
14:u:N1F0X0 = 955,
15:u:N1F0L1 = 7945,
14:u:N1F0X0 = 953,
14:u:N1F0L1 = 955,
14:u:N1F0X0 = 954,
14:u:N1F0L1 = 953,
14:u:N1F0X0 = 945,
14:u:N1F0L1 = 954,
14:u:N1F0L1 = 945,
14:u:N1F0X0 = 957,
14:u:N1F0X0 = 951,
14:u:N1F0L1 = 957,
14:u:N1F0X0 = 963,
14:u:N1F0L1 = 951,
14:u:N1F0L1 = 963,
14:u:N1F0X0 = 941,
14:u:N1F0L1 = 941,
14:u:N1F0X0 = 962,
14:u:N1F0L1 = 962,
15:u:N1F0X0 = 7985,
15:u:N1F0L1 = 7985,
14:u:N1F0X0 = 943,
14:u:N1F0L1 = 943,
15:u:N1F0X0 = 7936,
14:u:N1F0X0 = 960,
15:u:N1F0L1 = 7936,
14:u:N1F0L1 = 960,
14:u:N1F0X0 = 949,
14:u:N1F0X0 = 958,
14:u:N1F0L1 = 949,
14:u:N1F0L1 = 958,
15:u:N1F0X0 = 7973,
15:u:N1F0L1 = 7973,
15:u:N1F0X0 = 8033,
15:u:N1F0L1 = 8033,
14:u:N1F0X0 = 956,
14:u:N1F0X0 = 942,
14:u:N1F0L1 = 956,
14:u:N1F0L1 = 942,
15:u:N1F0X0 = 8048,
15:u:N1F0L1 = 8048,
14:u:N1F0X0 = 947,
14:u:N1F0L1 = 947,
15:u:N1F0X0 = 7952,
15:u:N1F0L1 = 7952,
14:u:N1F0X0 = 952,
14:u:N1F0L1 = 952,
14:u:N1F0X0 = 974,
14:u:N1F0L1 = 974,
14:u:N1F0X0 = 969,
14:u:N1F0L1 = 969,
15:u:N1F0X0 = 8183,
15:u:N1F0L1 = 8183,
14:u:N1F0X0 = 967,
14:u:N1F0L1 = 967,
15:u:N1F0X0 = 8179,
15:u:N1F0L1 = 8179,
15:u:N1F0X0 = 7956,
15:u:N1F0L1 = 7956,
14:u:N1F0X0 = 940,
14:u:N1F0L1 = 940,
15:u:N1F0X0 = 8054,
15:u:N1F0L1 = 8054,
15:u:N1F0X0 = 8050,
15:u:N1F0L1 = 8050,
15:u:N1F0X0 = 7965,
15:u:N1F0L1 = 7965,
14:u:N1F0X0 = 946,
14:u:N1F0L1 = 946,
15:u:N1F0X0 = 8118,
15:u:N1F0L1 = 8118,
15:u:N1F0X0 = 7940,
15:u:N1F0L1 = 7940,
15:u:N1F0X0 = 8217,
15:u:N1F0L1 = 8217,
15:u:N1F0X0 = 7971,
15:u:N1F0L1 = 7971,
15:u:N1F0X0 = 7984,
15:u:N1F0L1 = 7984,
14:u:N1F0X0 = 928,
14:u:N1F0L1 = 928,
14:u:N1F0X0 = 934,
14:u:N1F0L1 = 934,
14:u:N1F0X0 = 966,
14:u:N1F0L1 = 966,
15:u:N1F0X0 = 8134,
15:u:N1F0L1 = 8134,
14:u:N1F0X0 = 973,
14:u:N1F0L1 = 973,
15:u:N1F0X0 = 8056,
15:u:N1F0L1 = 8056,
15:u:N1F0X0 = 7960,
15:u:N1F0L1 = 7960,
15:u:N1F0X0 = 8052,
15:u:N1F0L1 = 8052,
15:u:N1F0X0 = 8166,
15:u:N1F0L1 = 8166,
15:u:N1F0X0 = 8182,
15:u:N1F0L1 = 8182,
15:u:N1F0X0 = 8016,
15:u:N1F0L1 = 8016,
15:u:N1F0X0 = 8131,
15:u:N1F0L1 = 8131,
15:u:N1F0X0 = 8135,
15:u:N1F0L1 = 8135,
14:u:N1F0X0 = 913,
14:u:N1F0L1 = 913,
15:u:N1F0X0 = 7944,
15:u:N1F0L1 = 7944,
15:u:N1F0X0 = 7948,
15:u:N1F0L1 = 7948,
15:u:N1F0X0 = 8150,
15:u:N1F0L1 = 8150,
15:u:N1F0X0 = 7941,
15:u:N1F0L1 = 7941,
15:u:N1F0X0 = 7961,
15:u:N1F0L1 = 7961,
15:u:N1F0X0 = 7970,
15:u:N1F0L1 = 7970,
15:u:N1F0X0 = 7957,
15:u:N1F0L1 = 7957,
15:u:N1F0X0 = 7969,
15:u:N1F0L1 = 7969,
15:u:N1F0X0 = 7975,
15:u:N1F0L1 = 7975,
15:u:N1F0X0 = 8020,
15:u:N1F0L1 = 8020,
15:u:N1F0X0 = 7990,
15:u:N1F0L1 = 7990,
15:u:N1F0X0 = 7992,
15:u:N1F0L1 = 7992,
15:u:N1F0X0 = 8032,
15:u:N1F0L1 = 8032,
15:u:N1F0X0 = 7974,
15:u:N1F0L1 = 7974,
15:u:N1F0X0 = 8058,
15:u:N1F0L1 = 8058,
15:u:N1F0X0 = 8001,
15:u:N1F0L1 = 8001,
15:u:N1F0X0 = 7937,
15:u:N1F0L1 = 7937,
15:u:N1F0X0 = 7988,
15:u:N1F0L1 = 7988,
15:u:N1F0X0 = 8021,
15:u:N1F0L1 = 8021,
15:u:N1F0X0 = 8004,
15:u:N1F0L1 = 8004,
14:u:N1F0X0 = 932,
14:u:N1F0L1 = 932,
14:u:N1F0X0 = 917,
14:u:N1F0L1 = 917,
15:u:N1F0X0 = 8023,
15:u:N1F0L1 = 8023,
14:u:N1F0X0 = 922,
14:u:N1F0L1 = 922,
15:u:N1F0X0 = 7989,
15:u:N1F0L1 = 7989,
14:u:N1F0X0 = 924,
14:u:N1F0L1 = 924,
14:u:N1F0X0 = 968,
14:u:N1F0L1 = 968,
15:u:N1F0X0 = 8017,
15:u:N1F0L1 = 8017,
15:u:N1F0X0 = 8036,
15:u:N1F0L1 = 8036,
15:u:N1F0X0 = 8005,
15:u:N1F0L1 = 8005,
14:u:N1F0X0 = 970,
14:u:N1F0L1 = 970,
14:u:N1F0X0 = 950,
14:u:N1F0L1 = 950,
15:u:N1F0X0 = 7938,
15:u:N1F0L1 = 7938,
14:u:N1F0X0 = 923,
14:u:N1F0L1 = 923,
15:u:N1F0X0 = 8060,
15:u:N1F0L1 = 8060,
15:u:N1F0X0 = 8038,
15:u:N1F0L1 = 8038,
15:u:N1F0X0 = 7949,
15:u:N1F0L1 = 7949,
15:u:N1F0X0 = 8003,
15:u:N1F0L1 = 8003,
15:u:N1F0X0 = 8165,
15:u:N1F0L1 = 8165,
14:u:N1F0X0 = 931,
14:u:N1F0L1 = 931,
15:u:N1F0X0 = 7996,
15:u:N1F0L1 = 7996,
14:u:N1F0X0 = 916,
14:u:N1F0L1 = 916,
15:u:N1F0X0 = 8000,
15:u:N1F0L1 = 8000,
14:u:N1F0X0 = 925,
14:u:N1F0L1 = 925,
14:u:N1F0X0 = 914,
14:u:N1F0L1 = 914,
15:u:N1F0X0 = 7968,
15:u:N1F0L1 = 7968,
15:u:N1F0X0 = 7953,
15:u:N1F0L1 = 7953,
15:u:N1F0X0 = 8037,
15:u:N1F0L1 = 8037,
14:u:N1F0X0 = 915,
14:u:N1F0L1 = 915,
15:u:N1F0X0 = 7955,
15:u:N1F0L1 = 7955,
15:u:N1F0X0 = 7972,
15:u:N1F0L1 = 7972,
15:u:N1F0X0 = 8022,
15:u:N1F0L1 = 8022,
15:u:N1F0X0 = 8035,
15:u:N1F0L1 = 8035,
15:u:N1F0X0 = 7981,
15:u:N1F0L1 = 7981,
15:u:N1F0X0 = 7991,
15:u:N1F0L1 = 7991,
15:u:N1F0X0 = 8119,
15:u:N1F0L1 = 8119,
15:u:N1F0X0 = 8039,
15:u:N1F0L1 = 8039,
15:u:N1F0X0 = 8008,
15:u:N1F0L1 = 8008,
15:u:N1F0X0 = 7987,
15:u:N1F0L1 = 7987,
15:u:N1F0X0 = 8012,
15:u:N1F0L1 = 8012,
15:u:N1F0X0 = 8084,
15:u:N1F0L1 = 8084,
15:u:N1F0X0 = 8087,
15:u:N1F0L1 = 8087,
14:u:N1F0X0 = 920,
14:u:N1F0L1 = 920,
15:u:N1F0X0 = 7993,
15:u:N1F0L1 = 7993,
14:u:N1F0X0 = 935,
14:u:N1F0L1 = 935,
14:u:N1F0X0 = 912,
14:u:N1F0L1 = 912,
15:u:N1F0X0 = 8018,
15:u:N1F0L1 = 8018,
14:u:N1F0X0 = 918,
14:u:N1F0L1 = 918,
15:u:N1F0X0 = 8180,
15:u:N1F0L1 = 8180,
15:u:N1F0X0 = 8029,
15:u:N1F0L1 = 8029,
15:u:N1F0X0 = 8086,
15:u:N1F0L1 = 8086,
15:u:N1F0X0 = 8025,
15:u:N1F0L1 = 8025,
15:u:N1F0X0 = 7986,
15:u:N1F0L1 = 7986,
14:u:N1F0X0 = 936,
14:u:N1F0L1 = 936,
15:u:N1F0X0 = 7964,
15:u:N1F0L1 = 7964,
15:u:N1F0X0 = 8019,
15:u:N1F0L1 = 8019,
15:u:N1F0X0 = 8103,
15:u:N1F0L1 = 8103,
14:u:N1F0X0 = 927,
14:u:N1F0L1 = 927,
15:u:N1F0X0 = 8172,
15:u:N1F0L1 = 8172,
14:u:N1F0X0 = 926,
14:u:N1F0L1 = 926,
15:u:N1F0X0 = 7994,
15:u:N1F0L1 = 7994,
15:u:N1F0X0 = 7939,
15:u:N1F0L1 = 7939,
15:u:N1F0X0 = 7998,
15:u:N1F0L1 = 7998,
15:u:N1F0X0 = 8132,
15:u:N1F0L1 = 8132,
15:u:N1F0X0 = 7976,
15:u:N1F0L1 = 7976,
15:u:N1F0X0 = 7997,
15:u:N1F0L1 = 7997,
15:u:N1F0X0 = 8146,
15:u:N1F0L1 = 8146,
15:u:N1F0X0 = 8013,
15:u:N1F0L1 = 8013,
15:u:N1F0X0 = 8009,
15:u:N1F0L1 = 8009,
15:u:N1F0X0 = 7982,
15:u:N1F0L1 = 7982,
15:u:N1F0X0 = 7980,
15:u:N1F0L1 = 7980,
15:u:N1F0X0 = 8040,
15:u:N1F0L1 = 8040,
15:u:N1F0X0 = 8130,
15:u:N1F0L1 = 8130,
15:u:N1F0X0 = 7942,
15:u:N1F0L1 = 7942,
14:u:N1F0X0 = 944,
14:u:N1F0L1 = 944,
15:u:N1F0X0 = 8115,
15:u:N1F0L1 = 8115,
15:u:N1F0X0 = 8034,
15:u:N1F0L1 = 8034,
15:u:N1F0X0 = 8096,
15:u:N1F0L1 = 8096,
14:u:N1F0X0 = 971,
14:u:N1F0L1 = 971,
15:u:N1F0X0 = 8069,
15:u:N1F0L1 = 8069,
15:u:N1F0X0 = 8081,
15:u:N1F0L1 = 8081,
15:u:N1F0X0 = 7978,
15:u:N1F0L1 = 7978,
13:u:N1F0X0 = 46,
13:u:N1F0L1 = 46,
15:u:N1F0X0 = 8162,
15:u:N1F0L1 = 8162,
15:u:N1F0X0 = 8045,
15:u:N1F0L1 = 8045,
15:u:N1F0X0 = 8080,
15:u:N1F0L1 = 8080,
15:u:N1F0X0 = 8002,
15:u:N1F0L1 = 8002,
14:u:N1F0X0 = 929,
14:u:N1F0L1 = 929,
15:u:N1F0X0 = 8041,
15:u:N1F0L1 = 8041,
15:u:N1F0X0 = 8116,
15:u:N1F0L1 = 8116,
15:u:N1F0X0 = 8046,
15:u:N1F0L1 = 8046,
15:u:N1F0X0 = 8068,
15:u:N1F0L1 = 8068,
14:u:N1F0X0 = 987,
14:u:N1F0X0 = 697,
14:u:N1F0L1 = 987,
14:u:N1F0L1 = 697,
0=-0x1.f48d1835dc59cp-1
1=0x1.d6622feb40dfep-1
2=-0x1.a6d8651a7619dp-1
3=-0x1.8fd293192db17p+0
4=0x1.2f69a2c57986dp+1
5=0x1.d014b5d3212b4p-1
6=0x1.ab282d3430402p+0
7=-0x1.935f49c2ccfe3p+0
8=-0x1.ece26a2269c0ap-1
9=0x1.da4ca7af1ca9p-10
10=-0x1.6db34020116f6p-10
11=-0x1.9bcf71a051cedp-12
12=0x1.bd8c85c6566bap-17
13=-0x1.b748270164b95p-18
15=-0x1.f7a833aaa838p-4
16=0x1.f605bdfd77896p-3
17=-0x1.f4498f4afba69p-4
18=-0x1.206184e13980cp-11
19=0x1.9e49a274c97a2p-11
20=-0x1.4b283a877aea9p-13
21=-0x1.5ed5540d51e0bp-4
22=0x1.bf120423e93e8p-3
23=-0x1.a208f5d1b3357p-3
24=-0x1.eadcd45e5dc76p-4
25=0x1.a8b4efc10a19ep-3
26=-0x1.0da018a438975p-4
27=0x1.9ce042e200e76p-4
28=-0x1.5d2fe406701fap-6
29=-0x1.24f137d673bb6p-4
30=-0x1.a974df3396de8p-3
31=0x1.8d7959f94d69dp-2
32=-0x1.7170f83c5e7dap-3
33=-0x1.307834be7868fp-5
34=0x1.344d05d00e078p-4
35=-0x1.37ee64d70d72fp-5
36=-0x1.4d9bad339e134p-4
37=0x1.3f286bb1bc9a5p-3
38=-0x1.309b712a902abp-4
39=0x1.63b342a8ef1bp-3
40=0x1.d6198f7454787p-5
41=-0x1.d9468308aa619p-3
42=-0x1.35dc24b3a060bp-5
43=0x1.274f03a68bc43p-4
44=-0x1.188e708ee0f68p-5
45=-0x1.f4c823c27aca4p-3
46=0x1.e360a37fc6967p-2
47=-0x1.d1ec46ba6d42p-3
48=-0x1.9e0b29248d748p-5
49=0x1.bef977dacf5p-4
50=-0x1.dfb454867b09p-5
51=-0x1.19015d7b7ef31p-1
52=-0x1.f514058dad034p+0
53=0x1.3e3334750be26p+1
54=-0x1.d07ba4c7a49c4p-5
55=0x1.6f4315d0b5746p-5
56=-0x1.6c6402de88368p-8
57=0x1.ed36c329daf4ap-13
58=-0x1.6c2327508d64ap-13
59=-0x1.31dc2b20b614cp-15
60=0x1.40a6c2321cf57p+1
61=-0x1.f77177bdffb85p+0
62=-0x1.1c7ccef069afcp-1
63=-0x1.36ec3e152e2f9p-5
64=0x1.228545d86bd4ep-3
65=-0x1.871f0100c3c74p-4
66=-0x1.0a1f0c3016e27p-14
67=0x1.2131b19dc17bfp-13
68=-0x1.a2c083be30153p-15
69=-0x1.0e779ce0ec4e6p-3
70=0x1.177b295883f8bp-2
71=-0x1.2071d94d75e68p-3
72=-0x1.93ca11058f94cp-4
73=0x1.8b1978c0eb5dbp-3
74=-0x1.824f2776fc465p-4
75=0x1.33a970aa8ea2ep-3
76=-0x1.2048188c3d789p-5
77=-0x1.a29094860d791p-4
78=-0x1.0aa880bebfdfep-3
79=0x1.7acd6fb8ba477p-6
80=0x1.b683ec8a0672cp-4
81=-0x1.9d98195f338aep-4
82=0x1.67c7d132cf2b5p-2
83=-0x1.c669e9eeb1bb2p-3
84=-0x1.d3623fa162c07p-4
85=0x1.739e7b96a416dp-3
86=-0x1.84c67548492fp-5
87=-0x1.c57e3ff2786e5p-3
88=0x1.49e4d6adf4239p-2
89=-0x1.65635e7f47293p-4
90=-0x1.c5daa25486b62p-3
91=0x1.f8c5106ecae03p-2
92=-0x1.15d1510335109p-2
93=-0x1.bc03330ec98bbp-5
94=0x1.c604d4f406149p-4
95=-0x1.cfd304ceac679p-5
96=-0x1.e8c36a6cc694cp-3
97=-0x1.8ccefab531b46p-4
98=0x1.c475e9a26a033p-2
99=-0x1.7073c3c779591p-5
100=0x1.102bf1be94f63p-3
101=-0x1.0823c1cf3fc82p-3
102=-0x1.b87a648277f05p-5
103=0x1.3707e1b66e6cbp-4
104=-0x1.38edff308edap-6
105=-0x1.128477b66f16p-3
106=0x1.04146a7cd5abfp-2
107=-0x1.eb2f01812d3afp-4
108=-0x1.e55686ad03b7dp-5
109=0x1.e797dd2ff59a5p-4
110=-0x1.e9a5c1a85152ap-5
111=-0x1.e52e4c0cb39ffp-5
112=0x1.b8b1ffc13f373p-4
113=-0x1.8c02416b349c8p-5
114=-0x1.eed12f9ad38b5p-4
115=0x1.0e2ab263425ecp-2
116=-0x1.24dff07675439p-3
117=-0x1.b617bfa692d94p-4
118=-0x1.6ee5d14c00f56p-2
119=0x1.d85bd81d78ac4p-2
120=-0x1.5b2ad398acc88p-9
121=0x1.b7a270202a774p-7
122=-0x1.4adf7ebdbf373p-7
123=-0x1.31c2e4242527cp-7
124=-0x1.b7032d49f4e0fp-7
125=0x1.707362957e2c1p-6
126=-0x1.c121ea4f7e59dp-5
127=0x1.cfc08fbc17758p-4
128=-0x1.de2bc31e1a652p-5
129=-0x1.d6d84f84a2cffp-5
130=0x1.6a83433d481eep-4
131=-0x1.8b41cb1f05519p-6
132=0x1.f51fca11adc63p-4
133=-0x1.843d9e042215ep-4
134=-0x1.cd9e815cee0a6p-6
135=0x1.c49d95bbab3cp-4
136=0x1.3f9d115d98e6ep-7
137=-0x1.954e247f78298p-4
138=-0x1.4d1481d70af09p-5
139=0x1.2ced59d2f578ap-4
140=-0x1.0c92bfc449c73p-5
141=-0x1.cab911dc06ac5p-4
142=0x1.b93f4f4836b59p-3
143=-0x1.a7abd3af1bbd4p-4
144=-0x1.3bcb87b42a246p-4
145=0x1.1a06fa74ff1fbp-2
146=-0x1.72d923d776db3p-3
147=-0x1.80e00795fd066p-7
148=0x1.a0c0dd297acdp-6
149=-0x1.bfd3ea929fed4p-7
150=-0x1.75fa521f15864p-3
151=0x1.0b5f1fd55c61p-2
152=-0x1.14a58990893eep-4
153=-0x1.b33ac74e24b8dp-7
154=0x1.33e22336dc46bp-6
155=-0x1.37efcf4b0dc97p-8
156=0x1.5a27083d75b63p-9
157=-0x1.0a64b7db42f58p-9
158=-0x1.3c900c96ac54ap-11
159=-0x1.d5d240eefe667p-11
160=0x1.6b29e62216d4ep-10
161=-0x1.e74a115f49811p-12
162=0x1.a0e89bd051677p-7
163=-0x1.42edb6f121584p-7
164=-0x1.8065910e3637p-9
165=-0x1.e6cb073dd078ep-9
166=0x1.e34dba095dbf4p-8
167=-0x1.dc994c2b8862bp-9
168=0x1.d9ba42646a4d6p-8
169=0x1.0f69d91d3dc1dp-4
170=-0x1.8561e363721a8p-4
171=-0x1.547c067607941p-6
172=0x1.671690d2644cp-5
173=-0x1.794a371994b49p-6
174=-0x1.a1cddfec29406p-4
175=0x1.87b2606f1d3e5p-3
176=-0x1.6d7d27ecc6523p-4
177=-0x1.753c97f06eff9p-6
178=0x1.43bfa37f44fcep-5
179=-0x1.11dbcaf8eeaddp-6
180=-0x1.92ac4de8ae257p-6
181=0x1.95ebd884a16aap-5
182=-0x1.98c47f0b68612p-6
183=-0x1.56799b1d5a7ecp-6
184=-0x1.218b25f24613cp-7
185=0x1.3eca8beff68d4p-5
186=0x1.67d0c25575891p-8
187=0x1.40ec73d24a6a8p-5
188=-0x1.c62e55e38846dp-5
189=-0x1.eca3ba8af1953p-5
190=0x1.d595976810195p-4
191=-0x1.be54023a98702p-5
192=0x1.d1a243a8221edp-3
193=-0x1.689163ab99387p-3
194=-0x1.b0717f048df1ep-5
195=-0x1.2b57f9f83d49bp-4
196=0x1.149ed5a2ba651p-3
197=-0x1.fb97f08fd8f69p-5
198=-0x1.3b0c4dd3dcfcdp-7
199=0x1.97d762148cf88p-5
200=-0x1.b95db191ab261p-5
201=-0x1.cb376423e64adp-5
202=0x1.b41c8eb9fcd67p-4
203=-0x1.9cce47457d2ccp-5
204=-0x1.6bc6fff59d595p-7
205=0x1.89b1c8f67001cp-6
206=-0x1.a6cec9cce9fb7p-7
207=-0x1.a0769d2b872f4p-7
208=0x1.58dba6e5296a9p-6
209=-0x1.1072e87472f5ep-7
210=-0x1.89a4f2ad811d4p-5
211=0x1.816d43c83a81cp-4
212=-0x1.790222d85da04p-5
213=-0x1.5e99e538c8e73p-5
214=0x1.de54a8bc14091p-5
215=-0x1.c94635948ea6ep-7
216=-0x1.5007b70218a67p-7
217=0x1.61877c7c628ep-6
218=-0x1.723979cc53c65p-7
219=-0x1.2a1d88942d5d2p-7
220=-0x1.e21af59cebc0bp-6
221=0x1.4775c2653d4e2p-5
222=-0x1.45bf61590c976p-9
223=0x1.685cf50215864p-6
224=-0x1.cb654aafaf489p-6
225=-0x1.e9fa14db35c83p-6
226=0x1.c5836b0aa743ep-5
227=-0x1.a0a5dd24ec6b2p-6
228=-0x1.8d2f8cd08425ep-8
229=0x1.b8cb3a643e2b4p-7
230=-0x1.e2cb57a346e0cp-8
231=-0x1.4f08309e33c2fp-8
232=-0x1.0060f451e6fd1p-6
233=0x1.61689a350ba1dp-6
234=0x1.9d60cd5910b04p-5
235=-0x1.3fde1f73d03dp-5
236=-0x1.7bf4a2e49d2f5p-7
237=-0x1.1aa25b824d6aap-6
238=0x1.fe4983a9c7096p-6
239=-0x1.c68088249a955p-7
240=-0x1.48b4267ccd932p-5
241=0x1.4f0caefbf389bp-4
242=-0x1.5531c5708347ep-5
243=-0x1.5221b7a050c2ep-5
244=0x1.2853bb8b9de98p-4
245=-0x1.fca49ad8a9b05p-6
246=-0x1.6f6fe398efdc4p-5
247=0x1.9e3d30cca76eep-4
248=-0x1.ccd70bf5c8d02p-5
249=-0x1.5f0f316b91092p-5
250=-0x1.05844a373e8d9p-3
251=0x1.6a57765dfcb7ep-3
252=-0x1.c544aeb959e9p-6
253=0x1.be77ac690f94bp-5
254=-0x1.b743c60398ecp-6
255=-0x1.5f0f0484a1edap-6
256=-0x1.4b8d326253cf2p-5
257=0x1.066c3c68c1d6bp-4
258=0x1.cfa6a735386e9p-10
259=-0x1.5286b273c0369p-10
260=-0x1.92ea3229295b4p-12
261=-0x1.2d8dcec0565b1p-11
262=0x1.18f30fec0281ep-10
263=-0x1.eef79ce4484e3p-12
264=0x1.3c364c38c805dp-9
265=0x1.71213e15b94eap-7
266=-0x1.3645b3337f648p-6
267=-0x1.53735772b9788p-6
268=0x1.3dd26fb9758cdp-5
269=-0x1.27caa3eb05568p-6
270=-0x1.b22e67aafd781p-8
271=0x1.aa3d327233fb5p-7
272=-0x1.a0b06ce4b9308p-8
273=-0x1.9584c6b5d5dbep-8
274=0x1.817e16b6e7f7ap-7
275=-0x1.6bdbd66348c37p-8
276=0x1.b410f041715b3p-6
277=-0x1.5288a3a16823ep-6
278=-0x1.8d9673f5ab5cbp-8
279=-0x1.15a4f0e026c83p-7
280=0x1.009e7520aac82p-6
281=-0x1.d594626dac3f3p-8
282=-0x1.7e782ac1ee5fcp-8
283=0x1.a580f42129bebp-7
284=-0x1.caee2d2bb3d2ep-8
285=-0x1.48c8a2a032393p-8
286=-0x1.1afe64b54da0bp-6
287=0x1.6be34825e9561p-6
288=0x1.7201f2dfb9d85p-10
289=-0x1.0d652215b432fp-10
290=-0x1.3af2981cc0ce5p-12
291=-0x1.6f396e48c28cp-12
292=0x1.ad397976f6058p-13
294=-0x1.8aa09e21ae5f3p-8
295=0x1.841fb51dfe7b1p-6
296=-0x1.08acaa2f4b963p-6
297=-0x1.1964099909276p-6
298=0x1.bb4e0e4d5be0ap-6
299=-0x1.00dd18ca04db4p-7
300=0x1.e82aff8ce9d69p-7
301=-0x1.7acfbedb71798p-7
302=-0x1.bc8fb86b4440bp-9
303=-0x1.386ae748dc9acp-8
304=0x1.1dd1007c97068p-7
305=-0x1.019b895ba024cp-8
306=0x1.0b3af24c3bcf1p-8
307=-0x1.9e83d3c40b0e2p-9
308=-0x1.e35f3d8270d62p-11
309=-0x1.506b56229f0d9p-10
310=0x1.357e6669313bep-9
311=-0x1.1423355cfe298p-10
312=0x1.ed74dcd3c47p-10
313=0x1.f23a730383ad9p-7
314=-0x1.51a4a000cdf7ep-6
315=-0x1.709b4b42c1a27p-6
316=0x1.6344984ac1e9ep-5
317=-0x1.5587013d95e19p-6
318=-0x1.11a5decda857cp-6
319=0x1.0a8b6338732cdp-5
320=-0x1.030a038e11ae2p-6
321=-0x1.033bc528eef3dp-6
322=0x1.043b952e46258p-5
323=-0x1.04d4811e7104cp-6
324=-0x1.a4227248b5781p-6
325=0x1.b7e493f51b183p-5
326=-0x1.cb3fd18c54743p-6
327=-0x1.d34de108d3283p-6
328=0x1.b87a13e1398acp-5
329=-0x1.9d3f62a473a4ep-6
330=-0x1.254ef36479dap-5
331=0x1.1e8fac558563p-4
332=-0x1.179cf33bfab82p-5
333=-0x1.fce74e48cd18ap-6
334=0x1.498f9d091c9cap-7
335=0x1.4cc811ff1ce6fp-6
336=0x1.88319336eb64cp-9
337=-0x1.2f007e9a527d5p-9
338=-0x1.64bf542d40a09p-11
339=-0x1.01b117df513f2p-10
340=0x1.d953b8d017951p-10
341=-0x1.a268bf3c022acp-11
342=-0x1.4b29ed1a352fdp-6
343=0x1.40fd9f2c58766p-5
344=-0x1.366a6d294f6dep-6
345=-0x1.103c690a27396p-6
346=0x1.eaf2813462143p-9
347=0x1.99c762a5ad4b6p-7
348=-0x1.0ce7ae722b1c9p-5
349=0x1.2a9247734409bp-4
350=-0x1.48096e69c6bcp-5
351=-0x1.1d710cecf39p-5
352=-0x1.daa6634570484p-7
353=0x1.060d15904be34p-4
354=-0x1.94e0d2878f40bp-6
355=0x1.82a94d482df4dp-5
356=-0x1.700ae3f3a05f6p-6
357=-0x1.6113eb8dad9f9p-6
358=0x1.518305f58c72dp-5
359=-0x1.418b3c483f022p-6
360=-0x1.1ff6a645b044cp-5
361=0x1.1bf6db789226cp-4
362=-0x1.17c39ea0ddcbp-5
363=-0x1.27f5dafd8b8b8p-5
364=0x1.e061aab68df37p-5
365=-0x1.1d7a1bf5c5a66p-6
366=-0x1.951fdf518bdd8p-8
367=0x1.bc96938fcc85fp-7
368=-0x1.e271b7795bde6p-8
369=-0x1.5fccc65111edap-8
370=-0x1.60346c6192df4p-7
371=0x1.13843ef7e276cp-6
372=-0x1.c393295d9938bp-8
373=0x1.d69bb4b011f27p-7
374=-0x1.e808afadd954ap-8
375=-0x1.8521328d3acf3p-8
376=-0x1.0c2c9fd45a2f2p-6
377=0x1.72ef58bf8ea37p-6
378=0x1.80a36003803b5p-9
379=-0x1.27e5a9841dd45p-9
380=-0x1.6157c107d54p-11
381=-0x1.0a588f004339ap-10
382=0x1.fae1491529a08p-10
383=-0x1.d434f184424c6p-11
384=0x1.1c67674f00a82p-6
385=-0x1.b8335d4a78dc9p-7
386=-0x1.04c30a358afd3p-8
387=-0x1.7cf670a34bdabp-8
388=0x1.5d869706ac095p-7
389=-0x1.3c7b2d155aeb4p-8
390=0x1.c0fb6e5ec166fp-10
391=-0x1.4779ea70fe1d5p-10
392=-0x1.865ed0da03d35p-12
393=-0x1.28a40c2dab88cp-11
394=0x1.1267172bb25f4p-10
395=-0x1.de9b3f085d692p-12
396=-0x1.89eb3fa76076ep-6
397=0x1.97192ee1f9149p-5
398=-0x1.a3e03a076564ep-6
399=-0x1.994a9ce787defp-6
400=0x1.51319d49b54a4p-5
401=-0x1.08b1b996b66e9p-6
402=0x1.0e81ac454cffdp-8
403=-0x1.a148d8cf852f8p-9
404=-0x1.eee5f448a2b1ep-11
405=-0x1.7862dd547315cp-10
406=0x1.41f464338af6ep-9
407=-0x1.0517a9bfdd97bp-10
408=0x1.be2b5cc9e1cf1p-9
409=-0x1.5883fc5c156a9p-9
410=-0x1.97699cdeabfd5p-11
411=-0x1.2802b3a4e96e8p-10
412=0x1.10dded9c999cdp-9
413=-0x1.e695cc830914ep-11
414=0x1.ac397d4af1a46p-8
415=-0x1.4376beb212d6ep-8
416=-0x1.a0bf92592cee2p-10
417=-0x1.a82902bf9b555p-10
418=-0x1.08070bade9865p-8
419=0x1.736df441fb71bp-8
420=0x1.cd546b5778d14p-8
421=-0x1.64e71a1fcdeaap-8
422=-0x1.a4ee457deabf8p-10
423=-0x1.39459c54b7b4dp-9
424=0x1.15dc1f1b4aa16p-8
425=-0x1.de770270f5dbfp-10
426=0x1.1d42859771071p-5
427=-0x1.b42d890b2b551p-6
428=-0x1.0e320fca4913ep-7
429=-0x1.5d98a35a2c444p-7
430=0x1.e050bf64b10cep-10
431=0x1.0a5242d1d5f1p-7
432=0x1.ed6838e7eb307p-11
433=-0x1.5cb73a4622d3cp-11
434=-0x1.a80be0dd11ccp-13
435=-0x1.2bc86a9a0c3c6p-12
436=0x1.2af85e7066da8p-11
437=-0x1.106f4cfbac761p-12
438=-0x1.dc45a7d5e1f78p-10
439=0x1.d119479f53a0ap-9
440=-0x1.bf7ea61600099p-10
441=-0x1.d7f5a6b939fddp-10
442=0x1.96136c37a2ea7p-9
443=-0x1.4dc2f06346944p-10
444=-0x1.a61ea6b8baaafp-8
445=0x1.9f3232ed9d513p-7
446=-0x1.96aa2ecdceab9p-8
447=-0x1.a77e56d9be9a8p-8
448=0x1.83fa44a670d37p-7
449=-0x1.5edaa21e71be9p-8
450=0x1.574d5e67e2d8fp-6
451=-0x1.09c32ca966cb4p-6
452=-0x1.3aab434839b98p-8
453=-0x1.c6cdad362cc48p-8
454=0x1.a352e92ffe22dp-7
455=-0x1.7e3c94d51e327p-8
456=0x1.cb18a1d7071fbp-11
457=-0x1.38815796eb776p-11
458=-0x1.74f208c5cd9c4p-13
459=-0x1.21dc01bb57df2p-12
460=0x1.11baf1f11dcf7p-11
461=-0x1.cfc1b9b79d7ap-13
462=0x1.851323cd981d7p-7
463=-0x1.2e7e190999d27p-7
464=-0x1.61a04b893ae1dp-9
465=-0x1.cae36e80744e8p-9
466=0x1.aa0cdd63dc7e8p-8
467=-0x1.85ff2b9de20c4p-9
468=-0x1.1b1c55e143612p-7
469=0x1.1ef5fed59b423p-6
470=-0x1.2201df9f9a793p-7
471=-0x1.1465f9f3df6d5p-7
472=0x1.73dc4701c85ebp-7
473=-0x1.5eb68b8579334p-9
474=0x1.8bad046301ad8p-5
475=-0x1.2ab12b6068dd7p-5
476=-0x1.8551db1b00bd9p-7
477=-0x1.a0dfada8c7f7cp-7
478=-0x1.8e27b2753c86bp-6
479=0x1.489cf8fed1572p-5
480=0x1.d0c0b37195ce3p-8
481=-0x1.66976dfbf7725p-8
482=-0x1.abccd1244f252p-10
483=-0x1.41465b744947ap-9
484=0x1.22b02df3d20e4p-8
485=-0x1.00e2dfc9f833cp-9
486=-0x1.10af4a9ea11c7p-12
487=0x1.6ea641b1ec57p-9
488=-0x1.d427c74a94c21p-9
489=-0x1.08774898d9d4ep-8
490=0x1.a274015472161p-8
491=-0x1.dca853162f3b8p-10
492=0x1.6daafcd35c134p-12
493=0x1.627d8755f7e23p-10
494=-0x1.4a636e350bd9fp-9
495=-0x1.942372201ead4p-9
496=0x1.771f36c8f523fp-8
497=-0x1.56e3dac868fa1p-9
498=0x1.0c542814dcc89p-7
499=-0x1.a0571602b6e33p-8
500=-0x1.e78917a9fa31bp-10
501=-0x1.56bbf2dd64cdep-9
502=0x1.3e412ec59143ep-8
503=-0x1.228f4a045b163p-9
504=0x1.374a6092d02aap-8
505=-0x1.e208dd59bb186p-9
506=-0x1.1ba8e58d79efbp-10
507=-0x1.8bf43fd0fe0cbp-10
508=0x1.72e241fdfab35p-9
509=-0x1.536202d832186p-10
510=0x1.c8ec4d761596p-10
511=-0x1.4c9cd04df7f49p-10
512=-0x1.907f88eff0f67p-12
513=-0x1.317b8a8bd9822p-11
514=0x1.241a51cb711c2p-10
515=-0x1.09dc96657e34ap-11
516=-0x1.4048e8e1680a7p-9
517=0x1.42d473abb4e8cp-8
518=-0x1.4228ddcc9f26bp-9
519=-0x1.4ca353e438a5p-9
520=0x1.0c74d3f9181dcp-9
521=-0x1.e291f81ab07bap-13
522=0x1.01899b23e69cp-6
523=-0x1.8ffe5ae99d219p-7
524=-0x1.d44bed0ec5c11p-9
525=-0x1.46dddb505a4bcp-8
526=0x1.29c4fe14a12c1p-7
527=-0x1.0b10908436bafp-8
528=0x1.0b146ef25f46cp-7
529=-0x1.50e82f9eac2dep-8
530=-0x1.92794f427de6bp-9
531=-0x1.f40d9d19399b6p-9
532=0x1.aaef5fdc589e8p-8
533=-0x1.5e9a01f614ffep-9
534=0x1.54de76738573ep-7
535=-0x1.0874bf0052a5p-7
536=-0x1.363dfa6dc9fabp-9
537=-0x1.b228da3141825p-9
538=0x1.9351ca4cfdb73p-8
539=-0x1.714399bf574bfp-9
540=-0x1.5dd6f117eb65ep-10
541=0x1.337fa10bec35bp-8
542=-0x1.3428b0adfacf8p-8
543=-0x1.436d24848189ep-8
544=0x1.2fd9d1b69d4d8p-7
545=-0x1.1aaaee9407c2ep-8
546=0x1.4f21d075401e8p-5
547=-0x1.e15192b14f6b8p-6
548=-0x1.44eee577f6b89p-7
549=-0x1.ee4a560e9cf8dp-7
550=0x1.bd3b72d955e36p-6
551=-0x1.8b5ec779b623dp-7
552=0x1.6899b7097f6a8p-11
553=-0x1.0bbb383eb7e55p-11
554=-0x1.3b4c89b977942p-13
555=-0x1.e879426e7139fp-13
556=0x1.dbe4a64475c6p-12
557=-0x1.9bddff84504c6p-13
558=0x1.c7bec5f1a4105p-6
559=-0x1.601a014d7bd94p-6
560=-0x1.a2e4d8bd810bfp-8
561=-0x1.42b7245976e54p-7
562=0x1.fad6dbb523869p-7
563=-0x1.6ea3de62a7f24p-8
564=-0x1.00bebb6ccb1f8p-11
565=0x1.265c74985609cp-10
566=-0x1.3f1dab1e5671fp-11
567=-0x1.0d812f7efe008p-11
568=-0x1.2262bec02f93ap-13
569=0x1.8f11daede5b63p-11
570=0x1.9e10c451d9266p-12
571=0x1.93d0ce16c31e8p-8
572=-0x1.f970ce4c4b9c6p-8
573=-0x1.11bd6d7442e08p-7
574=0x1.0012c1661c448p-6
575=-0x1.db349a5b3a031p-8
576=0x1.e011264c775a7p-9
577=-0x1.75f04410343cp-9
578=-0x1.9ba7064b81f9bp-11
579=-0x1.f1be94b34b97cp-11
580=0x1.f3598713bfa74p-10
581=-0x1.e817f6cea934dp-11
582=0x1.d9beddbca349fp-8
583=-0x1.6f675a915bdb5p-8
584=-0x1.aebabcb5a9d2fp-10
585=-0x1.2dac522eb9baap-9
586=0x1.1aacf1fe6ca2ep-8
587=-0x1.04767124bcea8p-9
588=-0x1.373efaf7a31f6p-8
589=0x1.2eeb3767b2302p-7
590=-0x1.24fbe3830ff15p-8
591=-0x1.efda3e1c946fbp-9
592=0x1.ddf9d3153b4dfp-10
593=0x1.3bfcfd4ec789p-11
594=0x1.f9f66faa02ce6p-9
595=-0x1.859340df45024p-9
596=-0x1.d36ac40962b98p-11
597=-0x1.0a3f178e06a34p-10
598=0x1.726b925221705p-12
599=0x1.20ebbfc3dc6eep-11
600=0x1.4f277f6954e57p-12
601=-0x1.efa09b3426cb4p-13
602=-0x1.e2b91c8971a86p-15
603=-0x1.82e0ec988c276p-14
604=0x1.92e2b4c8d746bp-13
605=-0x1.3c0067ccce5b7p-14
606=0x1.092632d69deb1p-7
607=-0x1.966bc7cc50673p-8
608=-0x1.f46cf657a470bp-10
609=-0x1.1a400a848f92p-9
610=0x1.ba4cdce3088b3p-12
611=0x1.aba7fafe4cf46p-10
612=0x1.b4ec91d3c1905p-9
613=-0x1.517201ffb4dd4p-9
614=-0x1.8e33dc00ef8b7p-11
615=-0x1.20a9d313ffb9ep-10
616=0x1.10a61fb1ba367p-9
617=-0x1.f46855f95ee41p-11
618=0x1.4d5fc85bd301ap-7
619=-0x1.01d889949af08p-7
620=-0x1.31a0e5088c02bp-9
621=-0x1.c0abb359f19d3p-9
622=0x1.97655cd4e13bep-8
623=-0x1.6ae7e5a66e36ep-9
624=0x1.0b5947ce53222p-10
625=-0x1.6b28dc70e341ap-11
626=-0x1.bc89eeb9d003cp-13
627=-0x1.5a60895c636a7p-12
628=0x1.44123a6056191p-11
629=-0x1.140ae61933c53p-12
630=0x1.affc96a07c3aap-8
631=-0x1.4f25c5f37096cp-8
632=-0x1.8859bdf789982p-10
633=-0x1.10f2465cac97cp-9
634=0x1.f4fe9b7af667cp-9
635=-0x1.c1aa68e9ce5ffp-10
636=0x1.44ce3df3f4cbap-7
637=-0x1.f6f3da65e6db6p-8
638=-0x1.28e6356d32988p-9
639=-0x1.ad2be8121bf56p-9
640=0x1.8b8dc3db238e5p-8
641=-0x1.66b87efac8831p-9
642=0x1.d6950e7b5898p-10
643=-0x1.5881ae471da44p-10
644=-0x1.95763cbc4aebp-12
645=-0x1.242b7cdbfeda8p-11
646=0x1.11577be89b1aap-10
647=-0x1.e34df09f59b27p-12
648=0x1.e8f790c1025f6p-9
649=-0x1.7b418dafbc293p-9
650=-0x1.ba36303c0d0abp-11
651=-0x1.31b1943b2a771p-10
652=0x1.191ac9e801758p-9
653=-0x1.f42b7c8426645p-11
654=0x1.75def509f50dep-8
655=-0x1.20bf40017996dp-8
656=-0x1.56740fb20db99p-10
657=-0x1.ff426b3bcd46dp-10
658=0x1.cff0594863b3fp-9
659=-0x1.9a30060234e06p-10
660=0x1.083a8166a204bp-6
661=-0x1.99170a37cd55ap-7
662=-0x1.e40c8ec99a279p-9
663=-0x1.63a39c049cc3p-8
664=0x1.4085fac1f506ep-7
665=-0x1.1bccc92a9bfc8p-8
666=0x1.0b0c028f1cb07p-8
667=-0x1.9d6cc4f5cc44cp-9
668=-0x1.e5b7a6a038d52p-11
669=-0x1.566c11c47db6fp-10
670=0x1.3df9954ec8277p-9
671=-0x1.1f18d7864d57dp-10
672=0x1.5be070d1d610ap-9
673=-0x1.fdc1ce8b8dbacp-10
674=-0x1.2fe0b35ab7ccep-11
675=-0x1.b173d0c61d6fp-11
676=0x1.8f469809d8284p-10
677=-0x1.603cdca8085f9p-11
678=0x1.9c9e4a8a919bep-11
679=-0x1.3327023b2774p-11
680=-0x1.66b6eb39d0b23p-13
681=-0x1.cb828309ae115p-13
682=0x1.e195b26b7624cp-12
683=-0x1.c463036b7fe66p-13
684=0x1.daa10c2cce81fp-8
685=-0x1.6e7a796f9276cp-8
686=-0x1.b358ebec8472dp-10
687=-0x1.431a8cba83e2bp-9
688=0x1.0d91de42bb52p-8
689=-0x1.a9a41e43203fcp-10
690=-0x1.19d7c141a5757p-9
691=0x1.08364cb95f5bp-8
692=-0x1.e6bb6f0f6d404p-10
693=-0x1.d69d1beb86271p-10
694=0x1.6a2d8b1b4c7e2p-9
695=-0x1.80dbc067fdb88p-11
696=0x1.5d57c3018131dp-14
697=-0x1.ebd2a9e88a8ap-15
699=-0x1.f97daf993a111p-18
700=0x1.46423218e1be1p-15
701=-0x1.ca528e689334fp-18
702=0x1.1665935c3f157p-16
703=-0x1.f66c61f9f1dc8p-18
708=-0x1.1d6615cc0ecbcp-10
709=0x1.0fa4fc96a155ap-9
710=-0x1.f6eb441cdd3d6p-11
711=-0x1.01fe5b26b8c9ap-10
712=0x1.11825eb74dd3cp-9
713=-0x1.1a9820f51d9ccp-10
714=-0x1.2628f8cc8bd1p-11
715=0x1.4f775d0e9934fp-10
716=-0x1.6be93eab1c184p-11
717=-0x1.007e0c373b705p-11
718=-0x1.435e55c2bfe28p-10
719=0x1.df5a586ddd57dp-10
720=0x1.2be5b0d87b6a6p-9
721=-0x1.b68a2236ba2bep-10
722=-0x1.06e69faa75984p-11
723=-0x1.7e3047a8fdf5ep-11
724=0x1.5e171318646cbp-10
725=-0x1.31215be24061dp-11
726=0x1.042c122ea1765p-10
727=-0x1.61f36c681ee78p-11
728=-0x1.abf82f6b37678p-13
729=-0x1.434d69830e8bfp-12
730=0x1.3184f69c45e5bp-11
731=-0x1.06037e6a683cep-12
732=-0x1.5809702bb7a6ep-11
733=0x1.641b8a9d10aep-10
734=-0x1.63512268df34ap-11
735=-0x1.1cccb117207d4p-11
736=-0x1.ed9672280dd63p-10
737=0x1.4f143ab9bbf63p-9
738=0x1.1ed8e07ce32a1p-14
739=-0x1.897428f5f57e1p-15
741=-0x1.ea563080e4102p-18
742=0x1.1a5ac62ecd5f8p-15
744=0x1.7a6e8f1354902p-12
745=-0x1.17eb4b47319e2p-12
746=-0x1.22bb34e06dbaap-14
747=-0x1.0a1fa907a0089p-13
748=0x1.fa6699c62e58p-13
749=-0x1.7c1a69af6708cp-14
750=0x1.a4118a2b18b2ap-12
751=-0x1.2e28d2322cdbcp-12
752=-0x1.7598a86a71cap-14
753=-0x1.79a057baaf79ap-14
754=-0x1.326a0c753745ep-12
755=0x1.d0413a94ea94ap-12
756=0x1.8523a062bfaa6p-9
757=-0x1.2d028d90ded98p-9
758=-0x1.5c5a273aa97c4p-11
759=-0x1.f019f7f0d9a13p-11
760=0x1.cd3b775bdccedp-10
761=-0x1.9d807421557a3p-11
762=0x1.7a1d2f85fb95p-9
763=-0x1.24342524a65a3p-9
764=-0x1.57b26ceaccae5p-11
765=-0x1.edf10d6bdc07p-11
766=0x1.c1b7084b7e5e1p-10
767=-0x1.88a0808596323p-11
768=0x1.fae662806d85cp-8
769=-0x1.897308e60d199p-8
770=-0x1.cc6a0ef612878p-10
771=-0x1.3db02666511d2p-9
772=0x1.21dfc87c60455p-8
773=-0x1.02d849e90ccb8p-9
774=-0x1.cdf3d6eef25ap-13
775=0x1.0911090b37642p-11
776=-0x1.12b672f7b3ae5p-12
777=-0x1.0b9df7328603p-12
778=0x1.833539ab7f1c2p-12
779=-0x1.3a0b42e671bf2p-14
781=0x1.90fc75e05b169p-17
784=-0x1.ed1d24e2fa3bap-16
785=0x1.75db1ba546a1ep-15
786=0x1.7b8d97dcc66ap-11
787=-0x1.1ae2028993eeep-11
788=-0x1.484b3e7dd0a39p-13
789=-0x1.e4455b59a93e5p-13
790=0x1.cdf74d7075b2p-12
791=-0x1.874597a74d341p-13
792=-0x1.ac91572607e1p-13
793=0x1.ee79679eaec09p-12
794=-0x1.fcef6d812b9a4p-13
795=-0x1.03e471f4d819p-12
796=0x1.05a580abeba31p-11
797=-0x1.db5b142fd455bp-13
798=0x1.dd698455c6e4bp-15
799=-0x1.42365d1123af4p-15
802=0x1.b7047bfca9727p-16
804=0x1.23b8bc4285e7ap-11
805=-0x1.802379e1a4188p-12
806=-0x1.f4ea60472e2dep-14
807=-0x1.f7db88b573503p-14
808=-0x1.822491cae1e38p-12
809=0x1.263a66b09de8cp-11
810=0x1.c4fc6f99f605cp-12
811=-0x1.4fa4f65458b2p-12
812=-0x1.6aa36d183d81ep-14
813=-0x1.2d793b790c926p-13
814=0x1.26aa896be973cp-12
815=-0x1.df2ec0b929ae6p-14
821=0x1.8480c86a4c7aep-19
822=0x1.fe0f169acf9afp-16
823=-0x1.3138bbf1df362p-16
826=0x1.0fe45fefe98ecp-19
828=0x1.d1ea956f35165p-12
829=-0x1.59454e2fce791p-12
830=-0x1.772ea68bc10a4p-14
831=-0x1.38e1db23793d6p-13
832=0x1.2d5b855b2b479p-12
833=-0x1.e5587e2265b56p-14
834=-0x1.2b821d0bf8682p-13
835=0x1.2bf2dbbb60687p-12
836=-0x1.f33c6fc64893cp-14
837=-0x1.014349e26e31cp-13
838=0x1.3ffda4a32e40dp-12
839=-0x1.4b45f4cdc44a2p-13
840=0x1.748eb57476eep-10
841=-0x1.16bdab84dd566p-10
842=-0x1.5dafdddde8625p-12
843=-0x1.684b7e88321b4p-12
844=-0x1.1a28fd690a8a2p-10
845=0x1.788776f22c44cp-10
846=0x1.821b77a9daa7ep-11
847=-0x1.1586485d74461p-11
848=-0x1.4d367d2e79d32p-13
849=-0x1.fdc57ccc3770cp-13
850=0x1.0177046f80befp-11
851=-0x1.d4a48a5ba1852p-13
852=0x1.1b11155c2268ap-11
853=-0x1.a3c80ed008daap-12
854=-0x1.db00820a275d2p-14
855=-0x1.76e47a45465cap-13
856=0x1.7358aec5121fap-12
857=-0x1.3c5ad8aeb3dd4p-13
858=0x1.cdf839d5884d4p-10
859=-0x1.517eec19411ecp-10
860=-0x1.906f4d95a76e7p-12
861=-0x1.2b7c522ce3c9ep-11
862=0x1.16fe4b4546a67p-10
863=-0x1.eb4783703e043p-12
864=0x1.05e55c89b92d4p-19
870=0x1.386afefe22609p-10
871=-0x1.d4a9957b025d1p-11
872=-0x1.1e9fcbb76fc51p-12
873=-0x1.24b261cc2c3cfp-12
874=-0x1.c28771bbb4857p-11
875=0x1.3027ff232f673p-10
882=-0x1.e8dd433497429p-14
883=0x1.541f03d721253p-12
884=-0x1.83b91a11c88c9p-13
885=-0x1.6e58a827bc291p-13
886=0x1.5ca2f46014eebp-12
887=-0x1.177b360243af3p-13
888=0x1.b7aac25e45788p-12
889=-0x1.462a9cc45e5b7p-12
890=-0x1.593140653bc34p-14
891=-0x1.177aca17d19eap-13
892=0x1.1126c3d500e61p-12
893=-0x1.b29388cc4d266p-14
894=0x1.f74c6d9855c77p-16
895=-0x1.2772c35227ffep-16
898=0x1.4b2c119a92c28p-17
900=-0x1.2d5394348013ep-15
901=0x1.c1abbfdfc63fep-14
902=-0x1.8ed772d23adb8p-15
903=-0x1.a9b5be0f0b224p-16
904=-0x1.b9be4bf98a7d2p-14
905=0x1.444141f429c2fp-13
906=0x1.d17f6d7ee2784p-13
907=-0x1.561f1e439c0abp-13
908=-0x1.1e2fe7e1ad815p-15
909=-0x1.22fe01e7f86e9p-14
910=0x1.17c6b8df5440ep-13
911=-0x1.4c5bf59da97f5p-15
912=0x1.0c45f6917f547p-12
913=-0x1.81491fa3d933dp-13
914=-0x1.8ff4a4d2a4d21p-15
915=-0x1.d4da4dc17de72p-15
916=-0x1.af6b0e1cf8b3fp-14
917=0x1.7815855ef1849p-13
918=0x1.b66528527aaa1p-13
919=-0x1.42c5ed71bf5c6p-13
920=-0x1.f3dc047c72fe6p-16
921=-0x1.9e97c35890478p-15
922=0x1.dd00b2021fa59p-14
923=-0x1.4f66edb408942p-15
924=0x1.ff94b78611cc2p-14
925=-0x1.70f07b3d82479p-14
926=-0x1.42c02bb22e6cp-17
927=-0x1.ec7322b286e46p-16
928=0x1.27412cc2f7873p-14
929=-0x1.1db9dd296665p-16
930=0x1.068a4a1a50e2ap-16
931=-0x1.b9d447560d8a2p-18
942=0x1.85c667a098377p-13
943=-0x1.1f01c9eb18a88p-13
944=-0x1.9227303b2aa26p-16
945=-0x1.78980b1c6a572p-15
946=0x1.a69b7d8507a25p-14
947=-0x1.086b1bdee2779p-15
948=-0x1.97549eb2f70d7p-17
949=0x1.58c454511ac36p-14
950=-0x1.2b86799b08c3ap-15
951=-0x1.4572f067e2635p-15
952=0x1.7ccb0e9c5ba23p-14
953=-0x1.bed3eeab530ccp-16
954=-0x1.ec1adf1f36fdbp-10
955=0x1.113d9e5e3d6e1p-8
956=-0x1.2936ac837cbc7p-9
957=-0x1.96af61a24f608p-10
958=-0x1.587ffd967ffa2p-8
959=0x1.bda22eb888b71p-8
960=0x1.c20fadbd74687p-12
961=-0x1.4e0d6615167cp-12
962=-0x1.5b110c927619dp-14
963=-0x1.c25c938786032p-14
964=0x1.e6c3f807c0a97p-13
965=-0x1.ac3d7138efa78p-14
966=0x1.49db88fb0a312p-13
967=-0x1.dd9d48ecfa84dp-14
968=-0x1.40699a5f169fap-16
969=-0x1.87540e085a20fp-15
970=0x1.a4f90dcf34aacp-14
971=-0x1.e9abc67ace3dep-16
972=-0x1.02b30812c80dp-12
973=0x1.2df40d4686334p-11
974=-0x1.3f7c0d2f2f566p-12
975=-0x1.3aeb143223943p-12
976=0x1.2fd0ee27982b5p-11
977=-0x1.0afdc2d1f7bf7p-12
978=0x1.546c216f67e6bp-14
979=-0x1.d6ce1f3e22ebap-15
981=-0x1.0f135a7491d8dp-16
982=0x1.90ea9891f4401p-15
983=-0x1.9dcd9d32b82fp-20
990=0x1.f52a6394096dp-16
991=-0x1.1990845daed54p-16
994=-0x1.9a622b87c6dp-23
995=0x1.a2e1854834db9p-17
1008=0x1.9e6e3aba058d2p-19
1014=0x1.c39aa09c57fe4p-14
1015=-0x1.426a050f3c1aap-14
1016=-0x1.ad4731b5c91a7p-18
1017=-0x1.a8452f1e17edbp-16
1018=0x1.fc5051143e0b3p-15
1019=-0x1.9a7ee5f93857p-19
1032=0x1.31d98692e4785p-13
1033=-0x1.bc7c8e553b408p-14
1034=-0x1.fbeca1fc2e47cp-17
1035=-0x1.d39f956fe5cb1p-16
1036=0x1.4f7abf46b16bdp-14
1037=-0x1.b26398647fdbbp-16
1044=0x1.07f968bcb6dacp-16
1045=-0x1.7f115d586e992p-18
1048=-0x1.a6e092f388b34p-18
1049=0x1.135902fe9495cp-16
1050=0x1.f1b7a7323b6dbp-16
1051=-0x1.207ec9d48e847p-16
1054=0x1.72690cc02db95p-17
