#mdl#2#336
#rdr#3/0/0
1:b,
18:u:N1F0X0 = %X[0,0],
19:u:N1F0L1 = %X[-1,0],
#qrk#3
1:T,
1:I,
1:O,
#qrk#136
1:b,
13:u:N1F0X0 = 74,
15:u:N1F0L1 = _x-1,
13:u:N1F0X0 = 65,
13:u:N1F0L1 = 74,
13:u:N1F0X0 = 64,
13:u:N1F0L1 = 65,
14:u:N1F0X0 = 117,
13:u:N1F0L1 = 64,
13:u:N1F0X0 = 98,
14:u:N1F0L1 = 117,
13:u:N1F0X0 = 32,
13:u:N1F0L1 = 98,
13:u:N1F0X0 = 83,
13:u:N1F0L1 = 32,
13:u:N1F0X0 = 84,
13:u:N1F0L1 = 83,
14:u:N1F0X0 = 196,
13:u:N1F0L1 = 84,
13:u:N1F0X0 = 77,
14:u:N1F0L1 = 196,
13:u:N1F0L1 = 77,
13:u:N1F0X0 = 80,
13:u:N1F0X0 = 82,
13:u:N1F0L1 = 80,
13:u:N1F0X0 = 79,
13:u:N1F0L1 = 82,
13:u:N1F0X0 = 49,
13:u:N1F0L1 = 79,
13:u:N1F0L1 = 49,
13:u:N1F0X0 = 66,
13:u:N1F0X0 = 76,
13:u:N1F0L1 = 66,
13:u:N1F0X0 = 73,
13:u:N1F0L1 = 76,
13:u:N1F0L1 = 73,
14:u:N1F0X0 = 214,
14:u:N1F0L1 = 214,
13:u:N1F0X0 = 69,
13:u:N1F0X0 = 68,
13:u:N1F0L1 = 69,
13:u:N1F0X0 = 46,
13:u:N1F0L1 = 68,
13:u:N1F0X0 = 86,
13:u:N1F0L1 = 46,
13:u:N1F0L1 = 86,
13:u:N1F0X0 = 78,
13:u:N1F0X0 = 85,
13:u:N1F0L1 = 78,
13:u:N1F0L1 = 85,
13:u:N1F0X0 = 94,
13:u:N1F0X0 = 75,
13:u:N1F0L1 = 94,
13:u:N1F0L1 = 75,
13:u:N1F0X0 = 45,
13:u:N1F0X0 = 70,
13:u:N1F0L1 = 45,
13:u:N1F0L1 = 70,
14:u:N1F0X0 = 197,
14:u:N1F0L1 = 197,
13:u:N1F0X0 = 88,
13:u:N1F0L1 = 88,
13:u:N1F0X0 = 71,
13:u:N1F0L1 = 71,
14:u:N1F0X0 = 122,
14:u:N1F0L1 = 122,
13:u:N1F0X0 = 62,
14:u:N1F0X0 = 108,
13:u:N1F0L1 = 62,
14:u:N1F0X0 = 229,
14:u:N1F0L1 = 108,
14:u:N1F0X0 = 110,
14:u:N1F0L1 = 229,
14:u:N1F0X0 = 103,
14:u:N1F0L1 = 110,
14:u:N1F0X0 = 102,
14:u:N1F0L1 = 103,
14:u:N1F0L1 = 102,
13:u:N1F0X0 = 89,
13:u:N1F0L1 = 89,
13:u:N1F0X0 = 40,
13:u:N1F0L1 = 40,
13:u:N1F0X0 = 41,
13:u:N1F0L1 = 41,
14:u:N1F0X0 = 101,
14:u:N1F0L1 = 101,
14:u:N1F0X0 = 112,
14:u:N1F0L1 = 112,
14:u:N1F0X0 = 107,
14:u:N1F0L1 = 107,
13:u:N1F0X0 = 95,
13:u:N1F0L1 = 95,
14:u:N1F0X0 = 114,
14:u:N1F0X0 = 105,
14:u:N1F0L1 = 114,
14:u:N1F0L1 = 105,
14:u:N1F0X0 = 116,
14:u:N1F0L1 = 116,
13:u:N1F0X0 = 67,
13:u:N1F0L1 = 67,
14:u:N1F0X0 = 100,
14:u:N1F0L1 = 100,
14:u:N1F0X0 = 111,
14:u:N1F0L1 = 111,
13:u:N1F0X0 = 38,
13:u:N1F0L1 = 38,
13:u:N1F0X0 = 72,
13:u:N1F0L1 = 72,
14:u:N1F0X0 = 115,
13:u:N1F0X0 = 97,
14:u:N1F0L1 = 115,
13:u:N1F0L1 = 97,
13:u:N1F0X0 = 58,
13:u:N1F0L1 = 58,
13:u:N1F0X0 = 43,
13:u:N1F0L1 = 43,
14:u:N1F0X0 = 104,
14:u:N1F0L1 = 104,
13:u:N1F0X0 = 42,
13:u:N1F0L1 = 42,
13:u:N1F0X0 = 99,
13:u:N1F0L1 = 99,
13:u:N1F0X0 = 63,
13:u:N1F0L1 = 63,
13:u:N1F0X0 = 52,
13:u:N1F0L1 = 52,
14:u:N1F0X0 = 118,
14:u:N1F0L1 = 118,
13:u:N1F0X0 = 81,
13:u:N1F0L1 = 81,
14:u:N1F0X0 = 109,
14:u:N1F0L1 = 109,
14:u:N1F0X0 = 228,
14:u:N1F0L1 = 228,
14:u:N1F0X0 = 106,
14:u:N1F0L1 = 106,
0=-0x1.69ca32be9caeap-1
1=0x1.fab027334ea98p-2
2=-0x1.163adbdbfa202p-1
3=-0x1.d46903802d917p+0
4=0x1.2139d5989ceaap+1
5=0x1.fb7ba1e8d5beep-2
6=0x1.3307a6d8f9002p-1
7=-0x1.d360156eb1da7p+0
8=-0x1.6bf0e89710e39p-1
10=0x1.2f68bba4d0141p-5
11=-0x1.6efd14f1cb368p-5
12=0x1.dbb90b182e872p-9
13=-0x1.371ae41c93e61p-9
15=-0x1.d6fd3c4cf7f2bp-4
16=0x1.722a047522f0cp-2
17=-0x1.a9b04625e93bbp-3
18=-0x1.87bee9ddbc378p-5
19=0x1.991588c6454b6p-4
20=-0x1.79b12e8b36db6p-5
21=-0x1.c7a01657b5446p-4
22=0x1.e821a49f0d2d5p-3
23=-0x1.f045b65499554p-4
24=-0x1.8fbc4ecd50abcp-3
25=0x1.34b160d1031e3p-4
26=0x1.292e07ab593c3p-5
27=-0x1.6f36a78ee46fep-12
28=0x1.24481a39bac93p-7
29=-0x1.7dfa7e49289dbp-11
30=-0x1.0016386525737p-3
31=0x1.3559088e4aa2p-2
32=-0x1.5e6d1a6e89f16p-3
33=-0x1.093c4475b1dep-5
34=0x1.53deb564b8936p-4
35=-0x1.6dc62d3027c6fp-5
36=-0x1.266dba32fefcap-9
37=0x1.c6f94434eea9ep-7
38=-0x1.755b47b111f67p-8
39=-0x1.4593f3b496fa7p-2
40=-0x1.1f3b827757c6ap+1
41=0x1.48b0ecd27904cp+1
42=-0x1.2fa72a9698fd2p-5
44=0x1.473389cf3c314p-6
45=0x1.eb2c872db94a5p-5
46=0x1.b239ce1c40d38p-9
47=-0x1.c109ff51c7f9fp-4
48=0x1.47e672ebe51cep+1
49=-0x1.1f0de894a6815p+1
50=-0x1.40acf39581e5dp-2
51=0x1.2b49b2aa221p-5
52=0x1.92b2e961888dcp-4
53=-0x1.781510e2bc5bbp-3
54=-0x1.f37eb8c73e47p-4
55=0x1.ff47f83f524f4p-4
56=-0x1.0bd700f9976b6p-5
57=-0x1.ffa7122a11e82p-12
58=0x1.1ee548ff67fa1p-5
59=-0x1.030c9bc243447p-5
60=-0x1.85b29c7820c51p-3
61=0x1.9631537bc0bd6p-3
62=-0x1.16f0ef42ce4dp-4
63=-0x1.bc46b7d865f28p-11
64=0x1.a28115997a1ddp-5
65=-0x1.bc879f9e5a3bfp-5
66=-0x1.20229b9d0fba1p-5
67=0x1.280429d3ecd6ap-4
68=-0x1.fe557dce64e15p-6
69=-0x1.bec5f4606aa35p-5
70=0x1.b1a8c5acb7f99p-5
71=-0x1.0fe8d32e73035p-8
72=0x1.0831bd186e03dp-2
73=-0x1.2d0c9bcec0454p-4
74=-0x1.2cca0151e1569p-4
75=-0x1.83ab48a5d8adfp-4
76=0x1.27c0ed58f16adp-2
77=-0x1.4a020f3e7b521p-3
78=-0x1.a45eb5e2c270cp-4
79=0x1.5e583ecc4b6a2p-3
80=-0x1.ffe8964811418p-5
81=-0x1.0d0ca53eb8614p-5
82=0x1.a15afd68e3dedp-4
83=-0x1.56b0786132eafp-4
84=-0x1.40ccbb416ea2cp-3
85=0x1.5598e6f4389fbp-3
86=-0x1.f48640a450ddap-5
87=-0x1.8cadb86bd654cp-7
88=0x1.4fedee59c093fp-5
89=-0x1.7506887fda3abp-6
90=-0x1.694acd309acabp-4
91=0x1.6aea6b092e286p-3
92=-0x1.542c8c4ff5bfp-4
93=-0x1.5d0a1d5498d27p-7
94=-0x1.69958542e9be6p-4
95=0x1.c75b56969c297p-4
96=0x1.218738745034p-4
97=-0x1.2fbbeb6c4d81dp-5
98=-0x1.327cdacd78af7p-5
99=-0x1.286193e01cd92p-7
100=0x1.c291c21c66e39p-4
101=-0x1.b8707b5a2ce43p-4
102=-0x1.7cb33bcb831fep-5
103=0x1.9997ecc75817cp-5
104=-0x1.9ce2ded61b0a6p-8
105=-0x1.4bfb78632ef82p-5
106=0x1.f4578619d86ecp-4
107=-0x1.a992552ef97eep-4
108=-0x1.d0e80f1229e35p-4
109=0x1.9122cb502e467p-3
110=-0x1.e51179a9798b1p-5
111=-0x1.aef1109b327a5p-4
112=0x1.bc501b1393869p-4
113=-0x1.f5b5c3914f0cdp-6
114=-0x1.c6e6d670e851cp-5
115=0x1.b1a3345d7332ep-4
116=-0x1.6ba4992666911p-5
117=-0x1.5e46dbf947cbcp-5
118=0x1.6f4c2e16ad51dp-4
119=-0x1.4f9687107b53p-5
120=-0x1.5de880d3a2719p-4
121=0x1.07a9f07cff0d8p-2
122=-0x1.5430e24747056p-3
123=-0x1.4623fed84f678p-9
124=0x1.317f618a20ef1p-4
125=-0x1.3f781d8a1f531p-4
126=-0x1.4f743b503f59cp-3
127=0x1.5ec9fc40102bfp-3
128=-0x1.28cf9f7060135p-5
129=-0x1.fec2ec4868341p-9
130=0x1.f2d956a865e1ap-7
131=-0x1.639e05c2be699p-8
132=-0x1.41314b6891304p-4
133=0x1.425dcbc7bc95bp-4
134=-0x1.af8c74cf1a4f4p-8
135=0x1.43e73a6499a9fp-5
136=-0x1.abe3b93d18811p-6
137=-0x1.3030386e01169p-4
138=-0x1.6a4a97ffd9f04p-8
139=0x1.0497ec5fd5cfbp-6
140=-0x1.2e4d4cb58daa3p-8
141=-0x1.6228327d38ba7p-4
142=0x1.404e97a5c3eefp-3
143=-0x1.0617803c835e1p-4
144=-0x1.225782974708ep-4
145=0x1.e033bba701683p-3
146=-0x1.1d1b6f67238f1p-3
147=-0x1.54cea3ab1e1b2p-7
148=0x1.7fd9c60006c33p-5
149=-0x1.3fc424d5978ep-5
150=-0x1.17644b84abe33p-3
151=0x1.24c5027472decp-3
152=-0x1.072aa8260ccc5p-5
153=-0x1.58bf437555771p-5
154=0x1.4e1a1fb0623ebp-4
155=-0x1.12ba02c7d7853p-5
156=-0x1.eb3b6d59c4c82p-12
157=0x1.306098e1a29cdp-7
158=-0x1.6382ad56642c6p-11
160=0x1.2be831840e005p-4
161=-0x1.3f4b54eba3a07p-4
162=-0x1.a25c7f60ed539p-11
163=0x1.3a25a0ade5bcep-7
164=-0x1.0ca29cfddbe1ep-11
165=-0x1.2172a8ad03c9dp-4
166=0x1.9d27834a25cfap-10
167=0x1.189d907142b9ep-5
168=-0x1.22f56e4d1e40fp-5
169=0x1.529b122113e8ep-4
170=-0x1.5185bcd1720cdp-5
171=0x1.44a66fbd9461bp-5
173=-0x1.2a48d03e84fdbp-4
174=-0x1.624a2b3a9d26bp-5
175=0x1.6ecbb6421daccp-4
176=-0x1.4a92482606afep-5
177=-0x1.667a52ca48fc8p-4
178=0x1.356696b93f826p-3
179=-0x1.d7eabc2cd48aep-5
180=-0x1.07a870e511a08p-6
181=0x1.d93e1a1a2bd8ep-5
182=-0x1.7db7237b4c3edp-5
183=-0x1.4cdc9c1672a1ap-5
184=0x1.beec38d67818ep-11
185=0x1.31eaad922f3b5p-6
192=0x1.8338ccfe47602p-5
193=0x1.c444a8ae48b0cp-7
194=-0x1.8b1a468167365p-4
195=-0x1.96776981e4de6p-4
196=0x1.1db6433200b95p-4
197=0x1.eb18bb731e879p-7
198=-0x1.6aa11a89b5a5ap-6
199=0x1.09e74490f0042p-4
200=-0x1.2dc302b96db1ep-5
201=-0x1.4960e836ab975p-6
202=-0x1.53860bc6a54ccp-3
203=0x1.89429f8a8cef5p-3
204=-0x1.1fea7936d639p-8
205=0x1.0c032acaf739dp-6
206=-0x1.903c21ac55d3cp-8
207=-0x1.03cb3f6710c5cp-7
208=0x1.82901547dc76fp-6
209=-0x1.3e69069a4a1afp-7
210=-0x1.895a8c008a6eap-8
211=0x1.25f02fd2a195dp-6
212=-0x1.88eaed0fd9464p-8
216=-0x1.91c68814b0ba9p-8
218=0x1.668bad593b578p-7
219=-0x1.f02abfb51392p-9
220=0x1.f56557758fd07p-7
221=-0x1.6d0dcff5d251bp-8
226=0x1.4e526cf10ffebp-8
227=-0x1.2ec04213fb15cp-7
228=-0x1.c97dc20c725ddp-9
230=0x1.33060d225cdbcp-13
232=0x1.9921a006d74b7p-8
233=-0x1.a2fcf53283eebp-8
234=-0x1.3cbdccd9e045ep-7
235=0x1.2d582929d49f4p-8
236=0x1.ec352b97b0544p-11
237=-0x1.5fd4a958b59bp-9
238=-0x1.e63636d0b9fc4p-7
239=0x1.51356ed9a9973p-6
240=-0x1.09a50ae0dcce6p-5
241=0x1.1947240a5031ap-4
242=-0x1.f05c882058249p-6
243=-0x1.eebb51e7ad32cp-6
244=0x1.000f32661a913p-4
245=-0x1.b00b85698e0aep-6
246=-0x1.148f1fa4714cdp-4
247=0x1.29a0ce6d12277p-3
248=-0x1.265500a3e7415p-4
249=-0x1.315b7a7825e3fp-4
250=0x1.3cbda8e0e35a2p-3
251=-0x1.2fc25ab7d50d8p-4
252=-0x1.3b794d13a19fap-4
253=0x1.62a3e83d333b7p-3
254=-0x1.717106d4f915ap-4
255=-0x1.346e00a060bfp-4
256=0x1.47f0c53b9b9dap-7
257=0x1.5476d3c1dfb9dp-5
258=-0x1.75c6026a17a8cp-9
259=0x1.b09110c4ea81bp-7
260=-0x1.206757380d148p-8
261=-0x1.89f38ad665faep-9
262=0x1.0e0595c999276p-10
264=-0x1.714cf960229fbp-6
265=0x1.9dbf1d2ec0379p-4
266=-0x1.024f93723abfcp-4
267=-0x1.7a85fbc308b1ep-5
268=-0x1.92bec259efafap-5
269=0x1.bc95787455cabp-3
270=-0x1.66aa27a47ac6p-9
271=0x1.8d7f9bef24a55p-7
272=-0x1.c316fbfc0f7b1p-9
273=-0x1.021329c1892ap-8
274=0x1.260303ab20e69p-6
275=-0x1.08108de71f2abp-7
282=-0x1.c32b204aaecdep-8
283=0x1.3a00cd174758fp-6
284=-0x1.9f4179b9237a1p-8
288=-0x1.b45745cdb0e0fp-8
289=0x1.6d9b2eeb37145p-6
290=-0x1.3e1ed66137aaep-7
292=0x1.e0184ffc76b17p-9
295=0x1.d6b5e1482f659p-9
296=-0x1.130ed79b45bc1p-11
297=-0x1.b13a118b8f543p-11
298=0x1.6e32408b29655p-7
299=-0x1.1977c9dfd6bc7p-9
300=-0x1.d4ffe909bc979p-9
301=0x1.3d1d410ec7a4bp-6
302=-0x1.2e1c73b06baebp-7
303=-0x1.4d219a5e13bap-7
304=0x1.aa9f300b575b9p-6
305=-0x1.4570d1d73fd13p-7
306=-0x1.e7905115a8a38p-7
307=0x1.7cce4bb3da4bdp-5
308=-0x1.a45e7c95b13f9p-6
309=-0x1.866c930930814p-7
310=-0x1.1da109d84eb76p-4
311=0x1.a19aa90084566p-4
312=-0x1.495842a49439cp-10
313=0x1.1bb656c5d2794p-7
314=-0x1.d5120b476448p-18
316=0x1.b6af097ff0df3p-8
318=-0x1.19da3a07cba85p-11
319=0x1.7c56a361e5d48p-7
320=-0x1.e983103250ac8p-9
321=-0x1.cc4f7eb09e61ep-12
322=-0x1.f0c234e3afbe8p-6
323=0x1.2667607bf7e3fp-5
324=0x1.9f8a26f49fe2ap-3
325=-0x1.747a6813fa309p-5
326=-0x1.5a02f9915a955p-5
327=-0x1.f476ccc4bef54p-5
328=0x1.a86ed0e8db71ap-4
329=-0x1.2babdbe9606c7p-5
330=-0x1.a6569d500ab13p-11
331=0x1.6f1a11428949ap-7
332=-0x1.0c39e01bbb10cp-9
333=-0x1.aa5e23b980b5cp-7
334=0x1.42510f5ccbf7ep-5
335=-0x1.4b2c96987df42p-6
336=-0x1.01317ca386e84p-11
339=-0x1.79edeec551635p-7
340=-0x1.ba30cc21ea54ap-7
341=0x1.3899ffee1b7ep-5
343=0x1.5e1b3a83ca9cbp-8
346=0x1.9ff92b15f4116p-8
348=-0x1.464a9877ef2fdp-5
349=0x1.6d03c40949fc2p-4
350=-0x1.6301f6770d46cp-5
351=-0x1.62466c16765e3p-5
352=0x1.671a275269bc9p-4
353=-0x1.3b32e96ac599ep-5
354=-0x1.c115f56d73514p-8
355=0x1.4ff3f9f57eac5p-6
356=-0x1.f8e2294bcb479p-8
357=-0x1.1e3f2062ccd8fp-7
358=0x1.f562ea8b2005bp-6
359=-0x1.04cd68128a933p-6
361=0x1.6cdd0ff3da2efp-9
364=0x1.9e7113eee2c92p-9
366=-0x1.25cdb0e83ab4cp-9
367=0x1.792105ff542c6p-7
368=-0x1.b9f2082022dfdp-9
369=-0x1.1aac8c7810a83p-8
370=0x1.5937cec22b2d5p-6
371=-0x1.622d72b9effa3p-7
373=0x1.b401b1c7109cp-15
376=0x1.732c841e3c6cp-16
384=-0x1.fd6a095452b88p-14
385=0x1.064d04deb2d21p-7
386=-0x1.192675ff2584cp-12
387=-0x1.37de75e01d3b8p-12
388=0x1.2736d04eba5a3p-7
389=-0x1.9ace0d700701fp-11
391=0x1.4fe7e2911971ap-8
394=0x1.579b139b742b1p-8
