#mdl#2#1396
#rdr#18/10/0
1:b,
21:u:code-1LLL =%X[-3,0],
21:u:code-1LL  =%X[-2,0],
21:u:code-1L   =%X[-1,0],
20:u:code-1X   =%X[0,0],
20:u:code-1R   =%X[1,0],
20:u:code-1RR  =%X[2,0],
20:u:code-1RRR =%X[3,0],
13:*100:%x[ 0,1],
13:*100:%x[ 0,2],
13:*100:%x[ 0,3],
13:*100:%x[ 0,4],
13:*100:%x[ 0,5],
13:*100:%x[ 0,6],
13:*100:%x[ 0,7],
13:*100:%x[ 0,8],
13:*100:%x[ 0,9],
14:*100:%x[ 0,10],
#qrk#3
1:T,
1:I,
1:O,
#qrk#739
1:b,
17:u:code-1LLL =_x-3,
17:u:code-1LL  =_x-2,
17:u:code-1L   =_x-1,
15:u:code-1X   =76,
15:u:code-1R   =39,
15:u:code-1RR  =97,
16:u:code-1RRR =115,
7:*100:Lu,
9:*100:18:T,
9:*100:26:T,
9:*100:15:F,
9:*100:29:F,
9:*100:10:F,
8:*100:8:F,
9:*100:14:F,
9:*100:28:F,
8:*100:0:F,
17:u:code-1LLL =_x-2,
17:u:code-1LL  =_x-1,
15:u:code-1L   =76,
15:u:code-1X   =39,
15:u:code-1R   =97,
16:u:code-1RR  =115,
7:*100:Po,
8:*100:9:T,
9:*100:19:F,
8:*100:7:F,
9:*100:25:F,
8:*100:6:F,
9:*100:24:F,
9:*100:27:F,
8:*100:5:F,
17:u:code-1LLL =_x-1,
15:u:code-1LL  =76,
15:u:code-1L   =39,
15:u:code-1X   =97,
16:u:code-1R   =115,
16:u:code-1RRR =111,
7:*100:Ll,
9:*100:27:T,
9:*100:11:T,
9:*100:13:F,
15:u:code-1LLL =76,
15:u:code-1LL  =39,
15:u:code-1L   =97,
16:u:code-1X   =115,
16:u:code-1RR  =111,
15:u:code-1RRR =99,
8:*100:0:T,
9:*100:21:F,
8:*100:3:F,
9:*100:26:F,
9:*100:11:F,
9:*100:22:F,
15:u:code-1LLL =39,
15:u:code-1LL  =97,
16:u:code-1L   =115,
16:u:code-1R   =111,
15:u:code-1RR  =99,
16:u:code-1RRR =105,
8:*100:2:T,
8:*100:7:T,
9:*100:22:T,
9:*100:19:T,
8:*100:4:T,
9:*100:12:F,
8:*100:1:F,
15:u:code-1LLL =97,
16:u:code-1LL  =115,
16:u:code-1X   =111,
15:u:code-1R   =99,
16:u:code-1RR  =105,
15:u:code-1RRR =97,
16:u:code-1LLL =115,
16:u:code-1L   =111,
15:u:code-1X   =99,
16:u:code-1R   =105,
16:u:code-1RRR =122,
9:*100:12:T,
8:*100:2:F,
16:u:code-1LL  =111,
15:u:code-1L   =99,
16:u:code-1X   =105,
16:u:code-1RR  =122,
9:*100:25:T,
9:*100:13:T,
9:*100:17:F,
9:*100:16:F,
16:u:code-1LLL =111,
15:u:code-1LL  =99,
16:u:code-1L   =105,
16:u:code-1R   =122,
8:*100:3:T,
9:*100:14:T,
9:*100:20:T,
9:*100:24:T,
15:u:code-1LLL =99,
16:u:code-1LL  =105,
16:u:code-1X   =122,
16:u:code-1RRR =110,
16:u:code-1LLL =105,
16:u:code-1L   =122,
16:u:code-1RR  =110,
16:u:code-1RRR =101,
9:*100:16:T,
8:*100:1:T,
9:*100:15:T,
9:*100:10:T,
9:*100:21:T,
8:*100:4:F,
16:u:code-1LL  =122,
16:u:code-1R   =110,
16:u:code-1RR  =101,
15:u:code-1RRR =32,
8:*100:8:T,
16:u:code-1LLL =122,
16:u:code-1X   =110,
16:u:code-1R   =101,
15:u:code-1RR  =32,
15:u:code-1RRR =67,
9:*100:17:T,
16:u:code-1L   =110,
16:u:code-1X   =101,
15:u:code-1R   =32,
15:u:code-1RR  =67,
16:u:code-1RRR =114,
16:u:code-1LL  =110,
16:u:code-1L   =101,
15:u:code-1X   =32,
15:u:code-1R   =67,
16:u:code-1RR  =114,
7:*100:Zs,
16:u:code-1LLL =110,
16:u:code-1LL  =101,
15:u:code-1L   =32,
15:u:code-1X   =67,
16:u:code-1R   =114,
9:*100:23:F,
9:*100:20:F,
16:u:code-1LLL =101,
15:u:code-1LL  =32,
15:u:code-1L   =67,
16:u:code-1X   =114,
16:u:code-1RRR =116,
9:*100:29:T,
9:*100:28:T,
9:*100:18:F,
15:u:code-1LLL =32,
15:u:code-1LL  =67,
16:u:code-1L   =114,
16:u:code-1RR  =116,
15:u:code-1LLL =67,
16:u:code-1LL  =114,
16:u:code-1R   =116,
16:u:code-1RRR =118,
8:*100:9:F,
16:u:code-1LLL =114,
16:u:code-1X   =116,
16:u:code-1RR  =118,
16:u:code-1L   =116,
16:u:code-1R   =118,
16:u:code-1LL  =116,
16:u:code-1X   =118,
16:u:code-1LLL =116,
16:u:code-1L   =118,
16:u:code-1LL  =118,
16:u:code-1RRR =109,
16:u:code-1LLL =118,
16:u:code-1RR  =109,
16:u:code-1R   =109,
16:u:code-1X   =109,
16:u:code-1L   =109,
8:*100:5:T,
16:u:code-1LL  =109,
16:u:code-1LLL =109,
15:u:code-1RRR =40,
15:u:code-1RR  =40,
16:u:code-1RRR =100,
15:u:code-1R   =40,
16:u:code-1RR  =100,
15:u:code-1X   =40,
16:u:code-1R   =100,
7:*100:Ps,
15:u:code-1L   =40,
16:u:code-1X   =100,
15:u:code-1LL  =40,
16:u:code-1L   =100,
8:*100:6:T,
15:u:code-1LLL =40,
16:u:code-1LL  =100,
16:u:code-1RRR =103,
16:u:code-1LLL =100,
16:u:code-1RR  =103,
16:u:code-1RRR =117,
16:u:code-1R   =103,
16:u:code-1RR  =117,
16:u:code-1X   =103,
16:u:code-1R   =117,
16:u:code-1L   =103,
16:u:code-1X   =117,
9:*100:23:T,
16:u:code-1LL  =103,
16:u:code-1L   =117,
16:u:code-1LLL =103,
16:u:code-1LL  =117,
15:u:code-1RRR =39,
16:u:code-1LLL =117,
15:u:code-1RR  =39,
15:u:code-1RRR =41,
15:u:code-1RR  =41,
15:u:code-1R   =41,
15:u:code-1X   =41,
7:*100:Pe,
15:u:code-1L   =41,
15:u:code-1LL  =41,
15:u:code-1LLL =41,
16:u:code-1RRR =232,
16:u:code-1RR  =232,
16:u:code-1R   =232,
16:u:code-1X   =232,
16:u:code-1L   =232,
16:u:code-1LL  =232,
16:u:code-1LLL =232,
16:u:code-1RRR =108,
16:u:code-1RR  =108,
16:u:code-1R   =108,
16:u:code-1X   =108,
16:u:code-1L   =108,
16:u:code-1LL  =108,
16:u:code-1LLL =108,
16:u:code-1RRR =102,
16:u:code-1RR  =102,
16:u:code-1R   =102,
16:u:code-1X   =102,
16:u:code-1L   =102,
16:u:code-1LL  =102,
16:u:code-1LLL =102,
15:u:code-1RRR =46,
15:u:code-1RR  =46,
15:u:code-1R   =46,
15:u:code-1X   =46,
15:u:code-1L   =46,
15:u:code-1LL  =46,
15:u:code-1LLL =46,
16:u:code-1RRR =112,
16:u:code-1RR  =112,
16:u:code-1R   =112,
16:u:code-1X   =112,
16:u:code-1L   =112,
16:u:code-1LL  =112,
16:u:code-1LLL =112,
15:u:code-1RRR =98,
15:u:code-1RR  =98,
15:u:code-1R   =98,
15:u:code-1X   =98,
15:u:code-1L   =98,
15:u:code-1LL  =98,
16:u:code-1RRR =224,
15:u:code-1LLL =98,
16:u:code-1RR  =224,
16:u:code-1R   =224,
16:u:code-1X   =224,
16:u:code-1L   =224,
16:u:code-1LL  =224,
16:u:code-1LLL =224,
15:u:code-1RRR =76,
15:u:code-1RR  =76,
15:u:code-1R   =76,
15:u:code-1RRR =78,
15:u:code-1RR  =78,
15:u:code-1R   =78,
15:u:code-1X   =78,
15:u:code-1L   =78,
15:u:code-1LL  =78,
15:u:code-1LLL =78,
15:u:code-1RRR =44,
15:u:code-1RR  =44,
15:u:code-1R   =44,
15:u:code-1X   =44,
15:u:code-1L   =44,
15:u:code-1LL  =44,
15:u:code-1LLL =44,
16:u:code-1RRR =104,
16:u:code-1RR  =104,
16:u:code-1R   =104,
16:u:code-1X   =104,
16:u:code-1L   =104,
16:u:code-1LL  =104,
16:u:code-1LLL =104,
16:u:code-1RRR =113,
16:u:code-1RR  =113,
16:u:code-1R   =113,
16:u:code-1X   =113,
16:u:code-1L   =113,
16:u:code-1LL  =113,
16:u:code-1LLL =113,
15:u:code-1RRR =58,
15:u:code-1RR  =58,
15:u:code-1R   =58,
15:u:code-1RRR =65,
15:u:code-1X   =58,
15:u:code-1RR  =65,
15:u:code-1L   =58,
15:u:code-1R   =65,
15:u:code-1LL  =58,
15:u:code-1X   =65,
15:u:code-1LLL =58,
15:u:code-1L   =65,
15:u:code-1LL  =65,
15:u:code-1LLL =65,
15:u:code-1RRR =73,
15:u:code-1RR  =73,
15:u:code-1RRR =77,
15:u:code-1R   =73,
15:u:code-1RR  =77,
15:u:code-1X   =73,
15:u:code-1R   =77,
15:u:code-1L   =73,
15:u:code-1X   =77,
15:u:code-1RRR =69,
15:u:code-1LL  =73,
15:u:code-1L   =77,
15:u:code-1RR  =69,
15:u:code-1LLL =73,
15:u:code-1LL  =77,
15:u:code-1R   =69,
15:u:code-1LLL =77,
15:u:code-1X   =69,
15:u:code-1L   =69,
15:u:code-1LL  =69,
15:u:code-1LLL =69,
15:u:code-1RRR =51,
15:u:code-1RR  =51,
15:u:code-1R   =51,
15:u:code-1X   =51,
7:*100:Nd,
15:u:code-1L   =51,
15:u:code-1LL  =51,
15:u:code-1LLL =51,
15:u:code-1RRR =83,
15:u:code-1RR  =83,
15:u:code-1R   =83,
15:u:code-1X   =83,
15:u:code-1L   =83,
15:u:code-1LL  =83,
15:u:code-1LLL =83,
15:u:code-1RRR =68,
15:u:code-1RR  =68,
15:u:code-1R   =68,
15:u:code-1X   =68,
15:u:code-1L   =68,
15:u:code-1LL  =68,
15:u:code-1LLL =68,
16:u:code-1RRR =236,
16:u:code-1RR  =236,
16:u:code-1R   =236,
15:u:code-1RRR =49,
16:u:code-1X   =236,
15:u:code-1RR  =49,
15:u:code-1RRR =55,
16:u:code-1L   =236,
15:u:code-1R   =49,
15:u:code-1RR  =55,
16:u:code-1LL  =236,
15:u:code-1X   =49,
15:u:code-1R   =55,
16:u:code-1LLL =236,
15:u:code-1L   =49,
15:u:code-1X   =55,
15:u:code-1LL  =49,
15:u:code-1L   =55,
15:u:code-1LLL =49,
15:u:code-1LL  =55,
15:u:code-1LLL =55,
16:u:code-1RRR =107,
16:u:code-1RR  =107,
16:u:code-1R   =107,
16:u:code-1X   =107,
16:u:code-1L   =107,
16:u:code-1LL  =107,
16:u:code-1LLL =107,
16:u:code-1RRR =242,
16:u:code-1RR  =242,
16:u:code-1R   =242,
16:u:code-1X   =242,
16:u:code-1L   =242,
16:u:code-1LL  =242,
16:u:code-1LLL =242,
15:u:code-1RRR =85,
15:u:code-1RR  =85,
15:u:code-1R   =85,
15:u:code-1X   =85,
15:u:code-1L   =85,
15:u:code-1LL  =85,
15:u:code-1LLL =85,
15:u:code-1RRR =84,
15:u:code-1RR  =84,
15:u:code-1R   =84,
16:u:code-1RRR =120,
15:u:code-1X   =84,
16:u:code-1RR  =120,
15:u:code-1L   =84,
16:u:code-1R   =120,
15:u:code-1LL  =84,
16:u:code-1X   =120,
15:u:code-1LLL =84,
16:u:code-1L   =120,
16:u:code-1LL  =120,
16:u:code-1LLL =120,
15:u:code-1RRR =52,
15:u:code-1RR  =52,
15:u:code-1R   =52,
15:u:code-1X   =52,
15:u:code-1L   =52,
15:u:code-1LL  =52,
15:u:code-1LLL =52,
15:u:code-1RRR =72,
15:u:code-1RR  =72,
15:u:code-1R   =72,
15:u:code-1X   =72,
15:u:code-1L   =72,
15:u:code-1LL  =72,
15:u:code-1LLL =72,
15:u:code-1RRR =90,
15:u:code-1RR  =90,
15:u:code-1R   =90,
15:u:code-1X   =90,
15:u:code-1L   =90,
15:u:code-1LL  =90,
15:u:code-1LLL =90,
16:u:code-1RRR =121,
16:u:code-1RR  =121,
16:u:code-1R   =121,
16:u:code-1X   =121,
16:u:code-1L   =121,
16:u:code-1LL  =121,
16:u:code-1LLL =121,
15:u:code-1RRR =66,
15:u:code-1RR  =66,
15:u:code-1R   =66,
15:u:code-1X   =66,
15:u:code-1L   =66,
15:u:code-1LL  =66,
15:u:code-1LLL =66,
15:u:code-1RRR =79,
15:u:code-1RR  =79,
15:u:code-1R   =79,
15:u:code-1X   =79,
15:u:code-1L   =79,
15:u:code-1LL  =79,
15:u:code-1LLL =79,
16:u:code-1RRR =233,
16:u:code-1RR  =233,
16:u:code-1R   =233,
16:u:code-1X   =233,
16:u:code-1L   =233,
16:u:code-1LL  =233,
16:u:code-1LLL =233,
15:u:code-1RRR =80,
15:u:code-1RR  =80,
15:u:code-1R   =80,
15:u:code-1X   =80,
15:u:code-1L   =80,
15:u:code-1LL  =80,
15:u:code-1LLL =80,
15:u:code-1RRR =57,
15:u:code-1RR  =57,
15:u:code-1R   =57,
15:u:code-1RRR =56,
15:u:code-1X   =57,
15:u:code-1RR  =56,
15:u:code-1L   =57,
15:u:code-1R   =56,
15:u:code-1LL  =57,
15:u:code-1X   =56,
15:u:code-1LLL =57,
15:u:code-1L   =56,
15:u:code-1LL  =56,
15:u:code-1LLL =56,
16:u:code-1RRR =249,
16:u:code-1RR  =249,
16:u:code-1R   =249,
16:u:code-1X   =249,
16:u:code-1L   =249,
16:u:code-1LL  =249,
16:u:code-1LLL =249,
15:u:code-1RRR =63,
15:u:code-1RR  =63,
15:u:code-1R   =63,
15:u:code-1X   =63,
15:u:code-1L   =63,
15:u:code-1LL  =63,
15:u:code-1LLL =63,
15:u:code-1RRR =82,
15:u:code-1RR  =82,
15:u:code-1R   =82,
15:u:code-1X   =82,
15:u:code-1L   =82,
15:u:code-1LL  =82,
15:u:code-1LLL =82,
15:u:code-1RRR =59,
15:u:code-1RR  =59,
15:u:code-1R   =59,
15:u:code-1X   =59,
15:u:code-1L   =59,
15:u:code-1LL  =59,
15:u:code-1LLL =59,
15:u:code-1RRR =53,
15:u:code-1RR  =53,
15:u:code-1R   =53,
15:u:code-1X   =53,
15:u:code-1L   =53,
15:u:code-1LL  =53,
15:u:code-1LLL =53,
15:u:code-1RRR =45,
15:u:code-1RR  =45,
15:u:code-1R   =45,
15:u:code-1X   =45,
7:*100:Pd,
15:u:code-1L   =45,
15:u:code-1LL  =45,
15:u:code-1LLL =45,
15:u:code-1RRR =33,
15:u:code-1RR  =33,
15:u:code-1R   =33,
15:u:code-1X   =33,
15:u:code-1L   =33,
15:u:code-1LL  =33,
15:u:code-1LLL =33,
16:u:code-1RRR =119,
16:u:code-1RR  =119,
16:u:code-1R   =119,
16:u:code-1X   =119,
16:u:code-1L   =119,
16:u:code-1LL  =119,
16:u:code-1LLL =119,
15:u:code-1RRR =48,
15:u:code-1RR  =48,
15:u:code-1R   =48,
15:u:code-1X   =48,
15:u:code-1L   =48,
15:u:code-1RRR =47,
15:u:code-1LL  =48,
15:u:code-1RR  =47,
15:u:code-1LLL =48,
15:u:code-1R   =47,
15:u:code-1X   =47,
15:u:code-1L   =47,
15:u:code-1LL  =47,
15:u:code-1LLL =47,
15:u:code-1RRR =75,
15:u:code-1RR  =75,
15:u:code-1R   =75,
15:u:code-1X   =75,
15:u:code-1L   =75,
15:u:code-1LL  =75,
15:u:code-1LLL =75,
15:u:code-1RRR =91,
15:u:code-1RR  =91,
15:u:code-1R   =91,
15:u:code-1X   =91,
15:u:code-1L   =91,
15:u:code-1LL  =91,
15:u:code-1LLL =91,
15:u:code-1RRR =93,
15:u:code-1RR  =93,
15:u:code-1R   =93,
15:u:code-1X   =93,
15:u:code-1L   =93,
15:u:code-1LL  =93,
15:u:code-1LLL =93,
16:u:code-1RRR =186,
16:u:code-1RR  =186,
16:u:code-1R   =186,
16:u:code-1X   =186,
16:u:code-1L   =186,
16:u:code-1LL  =186,
16:u:code-1LLL =186,
15:u:code-1RRR =71,
15:u:code-1RR  =71,
15:u:code-1R   =71,
15:u:code-1X   =71,
15:u:code-1L   =71,
15:u:code-1LL  =71,
15:u:code-1LLL =71,
15:u:code-1RRR =81,
15:u:code-1RR  =81,
15:u:code-1R   =81,
15:u:code-1X   =81,
15:u:code-1L   =81,
15:u:code-1LL  =81,
15:u:code-1LLL =81,
15:u:code-1RRR =50,
15:u:code-1RR  =50,
15:u:code-1R   =50,
15:u:code-1X   =50,
15:u:code-1L   =50,
15:u:code-1LL  =50,
15:u:code-1LLL =50,
15:u:code-1RRR =70,
15:u:code-1RR  =70,
15:u:code-1R   =70,
15:u:code-1X   =70,
15:u:code-1L   =70,
15:u:code-1LL  =70,
15:u:code-1LLL =70,
15:u:code-1RRR =54,
15:u:code-1RR  =54,
15:u:code-1R   =54,
15:u:code-1RRR =37,
15:u:code-1X   =54,
15:u:code-1RR  =37,
15:u:code-1L   =54,
15:u:code-1R   =37,
15:u:code-1LL  =54,
15:u:code-1X   =37,
15:u:code-1LLL =54,
15:u:code-1L   =37,
15:u:code-1LL  =37,
15:u:code-1LLL =37,
16:u:code-1RRR =200,
16:u:code-1RR  =200,
16:u:code-1R   =200,
16:u:code-1X   =200,
16:u:code-1L   =200,
16:u:code-1LL  =200,
16:u:code-1LLL =200,
15:u:code-1RRR =34,
15:u:code-1RR  =34,
15:u:code-1R   =34,
15:u:code-1X   =34,
15:u:code-1L   =34,
15:u:code-1LL  =34,
15:u:code-1LLL =34,
15:u:code-1RRR =88,
15:u:code-1RR  =88,
15:u:code-1R   =88,
15:u:code-1X   =88,
15:u:code-1L   =88,
15:u:code-1LL  =88,
15:u:code-1LLL =88,
15:u:code-1RRR =87,
15:u:code-1RR  =87,
15:u:code-1R   =87,
15:u:code-1X   =87,
15:u:code-1L   =87,
15:u:code-1LL  =87,
15:u:code-1LLL =87,
15:u:code-1RRR =86,
15:u:code-1RR  =86,
15:u:code-1R   =86,
15:u:code-1X   =86,
15:u:code-1L   =86,
15:u:code-1LL  =86,
15:u:code-1LLL =86,
15:u:code-1RRR =89,
15:u:code-1RR  =89,
15:u:code-1R   =89,
15:u:code-1X   =89,
15:u:code-1L   =89,
15:u:code-1LL  =89,
15:u:code-1LLL =89,
15:u:code-1RRR =74,
15:u:code-1RR  =74,
15:u:code-1R   =74,
15:u:code-1X   =74,
15:u:code-1L   =74,
15:u:code-1LL  =74,
15:u:code-1LLL =74,
16:u:code-1RRR =228,
16:u:code-1RR  =228,
16:u:code-1R   =228,
16:u:code-1X   =228,
16:u:code-1L   =228,
16:u:code-1LL  =228,
16:u:code-1LLL =228,
16:u:code-1RRR =231,
16:u:code-1RR  =231,
16:u:code-1R   =231,
16:u:code-1X   =231,
16:u:code-1L   =231,
16:u:code-1LL  =231,
16:u:code-1LLL =231,
16:u:code-1RRR =201,
16:u:code-1RR  =201,
16:u:code-1R   =201,
16:u:code-1X   =201,
16:u:code-1L   =201,
16:u:code-1LL  =201,
16:u:code-1LLL =201,
16:u:code-1RRR =244,
16:u:code-1RR  =244,
16:u:code-1R   =244,
16:u:code-1X   =244,
16:u:code-1L   =244,
16:u:code-1LL  =244,
16:u:code-1LLL =244,
16:u:code-1RRR =322,
16:u:code-1RR  =322,
16:u:code-1R   =322,
16:u:code-1X   =322,
16:u:code-1L   =322,
16:u:code-1LL  =322,
16:u:code-1LLL =322,
16:u:code-1RRR =238,
16:u:code-1RR  =238,
16:u:code-1R   =238,
16:u:code-1X   =238,
16:u:code-1L   =238,
16:u:code-1LL  =238,
16:u:code-1LLL =238,
16:u:code-1RRR =235,
16:u:code-1RR  =235,
16:u:code-1R   =235,
16:u:code-1X   =235,
16:u:code-1L   =235,
16:u:code-1LL  =235,
16:u:code-1LLL =235,
16:u:code-1RRR =192,
16:u:code-1RR  =192,
16:u:code-1R   =192,
16:u:code-1X   =192,
16:u:code-1L   =192,
16:u:code-1LL  =192,
16:u:code-1LLL =192,
16:u:code-1RRR =106,
16:u:code-1RR  =106,
16:u:code-1R   =106,
16:u:code-1X   =106,
16:u:code-1L   =106,
16:u:code-1LL  =106,
16:u:code-1LLL =106,
17:u:code-1RRR =_x+1,
17:u:code-1RR  =_x+1,
17:u:code-1RRR =_x+2,
17:u:code-1R   =_x+1,
17:u:code-1RR  =_x+2,
17:u:code-1RRR =_x+3,
0=-0x1.f8c19a399ddbp-4
1=0x1.1c4cf64a5e965p-1
2=-0x1.70371af5cd4cfp-1
3=-0x1.2c259187ba53fp-3
4=-0x1.a842948c38de4p-5
5=0x1.61c97c8198db6p-6
7=-0x1.44cae8a452b94p+0
8=-0x1.2cfe2b7a9d674p-1
21=0x1.e5271905ef3f5p-8
25=-0x1.e7f6421fac03ap-5
26=-0x1.8fa37bbf70f72p-11
30=0x1.dfb7e1989e1f3p-6
31=0x1.a760e8ec33e54p-2
32=-0x1.0136cfbdfe1e6p-2
33=0x1.4abb9cdd6c58dp-3
34=-0x1.56ca0438bbba3p-2
36=-0x1.441677e6fcec8p-1
37=0x1.37d03eeb08fe3p+0
38=-0x1.c8ee240a1e574p-4
40=-0x1.0f2201b116734p-7
42=0x1.980a6defd9baap-1
43=-0x1.fe44eccdcd8b2p-4
44=-0x1.050a4ea24e32dp-3
46=0x1.c413011169dcp-5
47=-0x1.8b85ea2badd34p-4
48=-0x1.3cd2a9873731cp-3
49=0x1.e187ff866660ep-10
50=-0x1.ef51beea720ep-10
51=-0x1.98c56127abe4cp-7
52=-0x1.09bd47aeadc0ap-9
54=0x1.0f48bfcee38f2p-6
55=0x1.c2b249c86b907p-3
56=-0x1.79b2f60239a29p-3
57=0x1.1ac948df6538dp-3
58=0x1.27126b3ba27fbp-1
59=-0x1.43b0510282f0ep-3
60=0x1.0bd48e2ffa018p-8
61=-0x1.0aa27f8831f32p-3
62=0x1.4a886ba108377p-3
63=-0x1.8da434c175cafp-4
64=-0x1.0e6db56e65182p-5
65=-0x1.3f4e54eebcda2p-7
66=0x1.be4292a9862cbp-3
68=-0x1.df76e31c078eep-5
69=0x1.9e6f317fb3092p-5
70=-0x1.3520566e9639dp-3
71=0x1.2d8b9081f45c1p-5
72=-0x1.99896e5c095bbp-6
73=-0x1.4abef1c292923p-5
74=-0x1.54ce628792d7p-3
75=0x1.114e63b17efe7p-3
76=-0x1.1bd266cc7745fp-3
77=-0x1.8ef870d19e055p-5
78=0x1.820275566daap-9
79=0x1.99e6357429d7bp-6
80=-0x1.194acbf70b684p-3
81=-0x1.4fdbd67a0d3c1p-2
82=0x1.3233102489d01p+0
83=-0x1.ddff5487bd8e4p-7
84=0x1.c2b85308b4f38p-5
85=-0x1.0290479bf070bp-2
86=-0x1.0d6acc10b0b5p-5
87=0x1.764af9584114ap-4
88=-0x1.199c241f24b0ep-3
90=0x1.aa4edce8a50f1p-1
92=-0x1.8866be0f4dd02p-5
93=0x1.8c8934fbe570dp-2
94=-0x1.81d5b15d414b6p-6
95=0x1.0cf365cbefd18p-1
96=-0x1.f39aef0e855p-2
97=-0x1.a7eea74d5bd24p-4
98=-0x1.0b6f9c1967713p-1
99=0x1.cbf608c30e4bfp-3
100=-0x1.3dc7d2c07c0d2p-3
101=-0x1.0743a8a3461dbp-6
102=0x1.4e50b83aaa8e9p-3
104=-0x1.97d8851ca32c8p-4
105=0x1.2180a8e2e6cddp-4
106=0x1.e6a89dad4e836p-3
107=0x1.74f636fa2c7c6p-5
108=-0x1.c73400b867133p-3
109=-0x1.ea52575721cbap-3
110=-0x1.e46be06b54653p-4
111=0x1.099d784c78291p-6
112=-0x1.fc3872f7321e9p-4
113=-0x1.8b04b7c4837dep-5
114=-0x1.fce235b5213a2p-4
115=0x1.4614582cd12f8p-3
116=-0x1.9e59775768052p-4
118=-0x1.7c738c107750fp-4
119=-0x1.149a8997b22c1p-2
120=-0x1.d98add69e0462p-4
121=0x1.a1f823023bbd6p-4
122=0x1.d74a0dc02017p-7
124=-0x1.0a6741972c994p-2
125=-0x1.54c8e4f977d22p-5
126=0x1.37af33bd21ec4p-6
127=0x1.4d3d2f76ef0aep-5
128=-0x1.e6a71f602591p-4
129=0x1.6f3d79f8c3715p-6
130=0x1.84b4a8f59513bp-3
131=-0x1.622db848d6476p-4
132=-0x1.bdcc7016bdac5p-5
133=-0x1.3fba6b25bcb03p-4
134=-0x1.06e21a0cec3cbp-4
136=-0x1.b473d43511eecp-4
137=-0x1.519ae743733ep-11
138=0x1.ec77696b7a231p-5
139=0x1.78d75599e2dcep-11
140=-0x1.1117f133296e4p-4
141=0x1.2c0d86b0d8f53p-1
142=-0x1.22de227c3f9cbp-2
143=0x1.c304a30a8ada2p-4
144=-0x1.148a9fb499112p-1
145=0x1.b2a781e5b3d06p-4
146=-0x1.24f56f6b078dbp-2
148=-0x1.5129d83ca637p-4
149=-0x1.c780a7dbaaa54p-8
156=-0x1.36e1fd7bafe9dp-4
157=0x1.cc11d5e39fcb4p-4
159=-0x1.052aead263fdfp+1
160=0x1.98d0229b8dd42p+1
161=-0x1.511dc00e74ab5p-1
162=-0x1.bef48b430a61ep-8
163=0x1.d172da933ea75p-7
164=-0x1.1d37ddd83b0e7p-5
165=-0x1.56b7ba6189f5fp-4
166=0x1.05e1dc419656cp-3
168=0x1.130ede8b7dde1p+0
169=-0x1.42bef3a83ep-1
170=-0x1.4899157acc127p+0
171=0x1.caf33839e7867p-2
172=0x1.b1197b39847d8p-2
174=0x1.dd9addc560425p+0
175=-0x1.912a7b23a97f4p-1
176=-0x1.b722d54fa0624p-4
177=-0x1.69d315872bfffp-1
180=0x1.c2e8754f3940dp-3
181=-0x1.b3d97a035ff67p-7
183=0x1.bb1e5588049a9p-8
184=-0x1.be94d2b0cd773p-2
185=0x1.f18700fea5767p-2
186=0x1.c350bdb8d0275p-2
187=0x1.d072e19c5cd9cp-5
188=-0x1.236c4d3947c88p-1
189=-0x1.ea131f0fa0645p-1
190=-0x1.50d782a4fccccp-4
191=-0x1.9b4b2458b9fcbp-3
192=0x1.0a89e258ce69ap-5
193=-0x1.c57273c5e18fp-5
194=-0x1.23d39ec745d9ap-3
195=0x1.50996759888efp-4
196=0x1.7171474059da5p-5
197=-0x1.817c2fe738ccfp-3
198=0x1.f46ccf9a79be5p-3
199=-0x1.c7d7f8a834c72p-5
200=0x1.d436726a2e188p-7
201=-0x1.3f5859d7a66fcp-3
202=-0x1.af6ef77e079a7p-4
203=-0x1.95a51b0cb8c5ep-4
204=0x1.cb8796c5c9c73p-8
205=0x1.3f63e7416c0bp-3
206=-0x1.ca405248e1e55p-5
207=-0x1.15c6609929737p-4
208=-0x1.dabd68fc2b238p-3
209=0x1.01eafb9b7e3e1p-3
210=-0x1.351d95daeedf9p-3
211=0x1.26f075b26555bp-6
212=-0x1.50d265d44aa79p-4
214=-0x1.49d6ea651e67cp-3
215=-0x1.4b8716560a572p-4
217=0x1.95809a9bd8eap-4
218=-0x1.63698e24b8051p-3
219=0x1.1a7754fdd3813p-4
220=0x1.d5119adaa7a5ep-4
221=0x1.6b07cb966e4ccp-8
222=0x1.48264e9359121p-9
224=-0x1.fea195f4636a8p-4
225=-0x1.235586fbb69edp-3
226=-0x1.3b4a3dcdfb4d7p-3
227=-0x1.0184487d6b72ep-4
228=0x1.05555fcabff7dp-6
229=-0x1.8655e26c56696p-4
230=-0x1.3d8a358070de2p-4
231=-0x1.6e5b09616aa32p-10
232=-0x1.022c067dd01f7p+0
233=-0x1.c4d777c079629p-4
234=-0x1.4f64e46a20c06p-3
235=0x1.9138b2858d6bap-3
236=-0x1.bec106766fb9ep-5
237=0x1.9623a9cb0501p-5
238=-0x1.75c9c94af5766p-4
239=-0x1.7b76193b5f25cp-6
241=0x1.098ba1f5aeffp-5
242=-0x1.e17cf568dae6ep-4
243=-0x1.478647001e1bp-2
245=0x1.a19990d1b049dp-3
246=0x1.576d8a457be3ep-6
248=-0x1.d848aae35c122p-3
249=0x1.5510308c56d06p-3
250=-0x1.c9216d5129181p-3
251=-0x1.9bcabebe2f957p-5
252=0x1.c1438f617daf4p-7
253=0x1.d71bc8744d3d6p-6
254=-0x1.179113b4cf58cp-3
255=0x1.2c9f6f9bff686p-5
256=0x1.4d0997209f782p-4
257=-0x1.9c3d943430c56p-5
258=0x1.041c6aa8b17e5p-4
259=-0x1.3778a5bdbcef9p-6
260=-0x1.9bb1c72031e7ep-6
261=-0x1.60d89a97808c6p-5
262=-0x1.ec2b36437a55p-7
264=0x1.31d2390776515p-6
265=0x1.b509c09caad58p-3
266=-0x1.6d426897a84e9p-4
267=-0x1.12e1b942a80afp-2
268=0x1.de12801ea18a7p-9
269=-0x1.b34b535eb87d1p-3
270=-0x1.4d1829a8634f3p-2
271=-0x1.167da2c33de45p-7
272=0x1.3464da187ac03p-3
273=0x1.9d227ec6c2b0bp-2
274=-0x1.586e8486367b7p-3
275=-0x1.1dbb6d8584babp-6
279=0x1.e366073783a92p-3
280=-0x1.d9816c0e3e79fp-3
282=0x1.f4c3e60785faep+1
283=-0x1.ec5ef4c9002a1p+1
285=0x1.29c0f276b814ep-4
286=-0x1.03e994955759p-6
287=-0x1.b09cd1bbc8871p-5
288=-0x1.032cd082f1b38p-5
289=0x1.10ea3e26406e8p-5
291=0x1.aa98eb715f54fp-7
292=0x1.3a22f8908290fp-8
293=-0x1.403a7f423061cp-7
294=-0x1.210044142df5dp+0
295=0x1.305d48210ea63p+0
296=-0x1.188beb798c9c4p+0
297=-0x1.3737d90e2441ap-2
298=0x1.21fa49f945481p-1
299=-0x1.3dd671cf85934p-3
300=-0x1.8dc729eac1e91p+1
301=0x1.21611126458a8p+0
302=-0x1.0f0d0bb71551ap+0
303=0x1.9a3821a59e7adp-4
304=-0x1.1e2af5220d59dp+0
305=-0x1.6caefe8c5277ap-4
306=-0x1.6ddaac21012cep-3
307=0x1.5aac19185ffep-1
308=-0x1.70f317ef4baa2p-3
309=-0x1.0e8865454577fp+1
310=0x1.c491e2e8980dp-2
311=-0x1.79957a2e760ep-1
312=0x1.73f0c613c1043p-1
313=-0x1.c4949b746ef7bp-3
316=-0x1.8fd91c57bd428p-8
318=0x1.5ebda0d67a50ap-1
319=-0x1.0db3b863aa84cp-1
320=-0x1.11bad2da17ff6p-3
321=-0x1.aa6786e4bce7dp-1
322=-0x1.136d01f717cfp-4
323=-0x1.955dfe9256d3bp-9
324=-0x1.8184eaaa6c1c4p-3
325=-0x1.317de71051022p-4
326=-0x1.fd87eeb3371b1p-4
327=0x1.efd521d4fead9p-1
328=-0x1.9751da4b55e68p-2
329=-0x1.7eb5598902274p-7
330=0x1.948517813bc4ep-2
331=0x1.f022b50a5648ep-5
332=-0x1.0a1ddf6bcd697p-3
333=0x1.eae7ccf3c6cc8p-4
334=-0x1.0aae87647b597p-3
335=-0x1.37cf017b206e6p-3
336=-0x1.0c7097a35ee3ep-2
337=0x1.8159305e0c095p-3
338=-0x1.37623698469aap-6
339=0x1.042b4ded9a43p-1
340=-0x1.c3896b1762babp-2
341=-0x1.4b1f249deaa26p-5
345=-0x1.31d318a83596cp-1
346=0x1.328b53428ed38p-1
348=-0x1.ac5c5518bcef8p-3
349=0x1.77382662bc84bp-3
350=-0x1.0c0eec5b1ddfbp-5
351=-0x1.9fbd51d32d2cdp-3
352=0x1.c3a37a42e121ep-3
353=-0x1.300d786e64b49p-7
354=-0x1.078d2515d69b6p-7
355=0x1.4f9b4baa6b55dp-8
357=0x1.93fb908665bp-3
358=-0x1.3066916ee437ap-4
359=-0x1.7b51b84caab9cp-7
360=-0x1.5d2d375b249b1p-1
361=0x1.b8950b27a02a1p-2
362=-0x1.087a091c5e48cp-6
363=-0x1.669dbf05eb058p-1
364=0x1.fbd1c14bcc6ap-3
365=-0x1.a305aa8a817d2p-5
367=-0x1.16dcad95f5394p-4
368=-0x1.2447d9cb8201ap-3
369=-0x1.7c1e342779012p-4
370=-0x1.a2b793252cf6ap-4
371=-0x1.e458049366fcdp-5
372=-0x1.c95e0e6788c3dp-4
373=0x1.a25edc5a5c113p-3
374=-0x1.5a554c29724f6p-5
375=0x1.fb72500e0e13bp-4
376=-0x1.f3a9208439ea8p-7
377=0x1.16e780aab1b2bp-2
378=-0x1.9427ad26c2b04p-2
379=0x1.200f2c73e14b4p-4
380=-0x1.b070ebc32b196p-3
382=-0x1.bce5928b25661p-4
383=-0x1.90c88d46d02e6p-4
384=0x1.ac001b6ade01cp-2
385=-0x1.ef7dc4b4727b4p-3
386=-0x1.32df72dd86b8ep-3
387=0x1.066addbd38f16p-4
388=-0x1.73afe2936d56cp-8
389=-0x1.2c3fbd523c329p-3
390=-0x1.967d5ca28f3b4p-8
391=-0x1.1a974c860981ep-4
392=-0x1.1118e066c5d01p-4
393=0x1.9381ccce39bf4p-3
394=-0x1.77e2a1f68c1d9p-3
395=-0x1.007f3492d043dp-4
396=0x1.db27a5177293p-4
397=-0x1.260bb5dccc8c6p-3
398=-0x1.35ea303c86b35p-3
399=0x1.b0542b1dad98p-6
400=-0x1.cf21ae45cf4ap-4
401=-0x1.9846bfa682db2p-2
402=0x1.d86efa476625p-5
403=0x1.29052aeed4814p-2
404=0x1.129e1d2ce9252p-5
406=-0x1.1fb164e76d6e7p-4
407=-0x1.7d773d3c7586ap-8
408=0x1.c16dae6ebdc6fp-3
409=-0x1.0a7cc0560555ap-3
410=-0x1.6ac7b6664fee4p-3
411=0x1.f4f486168e092p-1
412=0x1.377627ffd7346p-4
413=-0x1.f7224175c2d71p-1
414=0x1.38ef3f4bad1d5p-3
415=-0x1.4fe4b6f459cf2p-4
416=0x1.6ed2ac92c3144p-4
417=-0x1.2e7f499c5d598p-4
418=-0x1.642686ecae64ep-4
419=-0x1.941f23ecbcffp-10
420=0x1.48090a2bb321bp-7
421=0x1.9418a613f5984p-4
422=-0x1.00da65cc0f632p-4
423=-0x1.3be7af8a23dp-6
424=0x1.24d38e8331863p-1
425=-0x1.5b31ba7b10155p-3
426=0x1.d4e9f86957248p-7
427=-0x1.13f4c7c68da8p-2
430=-0x1.9a52881054e2p-5
431=-0x1.c2feaaec4298p-14
435=0x1.9b8d794c98481p-12
436=-0x1.7c9019341c5e8p-7
437=-0x1.e3e784d10b1eap-9
438=0x1.1ae3a87a672aep-7
439=-0x1.052fca57c029cp-7
440=-0x1.cf007d0177156p-8
441=0x1.6c32821806702p-7
442=-0x1.29370452c2f5dp-5
443=-0x1.24b6b1523fffp-10
444=0x1.9305a6289b4cep-3
445=-0x1.14f95ff2c0288p-4
446=-0x1.7cf40006c05f3p-7
447=-0x1.20f68f5ad4389p-10
449=-0x1.07e0afe9fda5bp-6
450=-0x1.0f1870394e18ep-4
451=0x1.0ba09c568cc39p-5
452=-0x1.308e71fa662b9p-5
453=0x1.cba04e9aedc7ep-3
454=-0x1.6db01dd9f7228p-6
455=-0x1.32b67a0401773p-4
456=0x1.0fbca82e2cb1dp-4
457=0x1.618e848bafba7p-4
459=-0x1.3b74c392f6c73p-3
460=-0x1.6cb93aad23a6dp-4
462=-0x1.018a6df49b0a9p-3
463=0x1.7965a98321934p-5
464=-0x1.89582d8a77d6fp-6
465=-0x1.e73673e27c35ep-5
466=-0x1.09f03a0338fd2p-2
467=0x1.212d72c6714b8p-2
468=-0x1.0cfb2709bef45p-5
469=0x1.48fbc3fd76391p-2
470=-0x1.93b467285a6e8p-3
471=-0x1.1e3be53000dbcp-3
472=-0x1.1a15907c66057p-3
473=-0x1.360dc5b3213a7p-5
474=-0x1.ba2bc7137ff8fp-2
475=0x1.8c80bfe414d4fp-2
476=-0x1.17aace2b5266dp-4
477=-0x1.6b66d8bf3925p-2
478=0x1.ac4b19df91d8ap-1
479=-0x1.b10aca28a1088p-2
480=-0x1.6ef6565922bbp-7
481=0x1.2587054a6893ap-7
482=0x1.d633955e73dbbp-3
484=-0x1.b8bee84479328p-8
486=-0x1.50b8419d4d542p-3
487=0x1.841c824d4d5b8p-2
488=-0x1.1d1cf73107f67p-3
489=-0x1.50ddb8705a416p-4
490=0x1.42bc69d63a16p-6
491=-0x1.aec23856559a8p-2
493=0x1.598f31695dae9p-4
494=0x1.18c28a9d0b876p-2
495=-0x1.223c09cae940ap-5
496=-0x1.7e1400cd53cd3p-6
497=-0x1.34856399c6ccfp-7
498=-0x1.c0c5523974cf2p-3
499=0x1.e83299da6d098p-3
500=-0x1.70c7381a62dadp-4
501=0x1.2dc4a6f2b68c9p-4
502=0x1.0ad09fa954d3bp-4
503=0x1.5f6b84d56ee88p-3
504=-0x1.2115ba43a72f2p-4
505=0x1.39e95d6201654p-4
506=-0x1.d18268b6bfeecp-2
507=-0x1.f2b9fe1e36194p-6
508=-0x1.18a7825af0bc4p-6
510=0x1.b40d1874b4eb5p-3
511=0x1.2f1d1073c9bfep-6
512=-0x1.398d025d4b1efp-4
513=0x1.45b15a312be1bp-2
514=-0x1.235def43eab3ep-1
515=0x1.4037403de9fc6p-4
516=-0x1.10c2df1bd543ap-4
518=-0x1.bf999b598ad4cp-3
519=0x1.133352dba11bep-3
520=-0x1.99f921acb922cp-3
521=-0x1.4504ca1a92328p-7
522=-0x1.44b53ca84c3a9p-4
523=0x1.815452a1e88cbp-5
524=-0x1.cc0a070fa2bb6p-4
525=-0x1.8bc4af9f4434cp-5
526=-0x1.707742f6f7772p-2
527=-0x1.cc4b667a2813p-2
528=-0x1.01fba1e7b2c68p-10
529=0x1.f0dfee4c07db5p-5
530=-0x1.6e47308cc1292p-7
531=0x1.6baf9794e3c6fp-4
532=-0x1.d5dadf927f922p-3
533=-0x1.2299d32a357edp-5
534=-0x1.1338e3932f435p-4
535=0x1.47fd26497afb5p-4
536=-0x1.f1b685c4a10bfp-5
537=0x1.9dec1192fb8f8p-6
540=-0x1.0a986752d16cep-1
541=0x1.328e212aa153bp-1
542=-0x1.98b43cb7902b4p-5
543=0x1.85c682cc22928p-8
544=-0x1.7b1a53ac2c4dbp-5
546=0x1.fc262bc55771ep-9
547=-0x1.41ae8300f9877p-5
549=0x1.8ce2a43f9dfadp-6
551=-0x1.3710be1bd2be6p-7
552=0x1.34141ba5e1dbp-6
553=-0x1.c88595007f0eap-8
556=0x1.e767c051f8282p-6
557=-0x1.d8dcab4b1e51fp-6
558=0x1.50af54d361d7cp-4
559=-0x1.3dae932383e04p-4
560=-0x1.a96ae205d03ffp-8
561=-0x1.da164470286acp-4
562=0x1.6d66711375031p-4
563=-0x1.cf577ca1b0aebp-7
564=0x1.c8e0fe87043e6p-6
565=-0x1.c251179e612ffp-6
567=0x1.828cb59887e3cp-4
568=-0x1.b4ebbed4541e4p-4
570=0x1.6671c832e01fap-3
571=-0x1.934ef8f780658p-2
572=0x1.b0f68e3539bd8p-1
573=0x1.c7a54eb3d3733p-4
574=0x1.dddb49da1e599p-7
575=-0x1.72c6f692d71d2p-2
576=-0x1.260f8b85d1819p-1
577=-0x1.98cf633305f66p-5
578=-0x1.67cef32ddcba8p-6
579=0x1.46154eb3f80dp-2
580=-0x1.517b65da7b3fcp-4
581=-0x1.731542c54afb9p-4
582=0x1.89340d15e335ap-2
583=-0x1.3cf314790e79cp-3
584=-0x1.1767bc7b21fe6p-3
585=0x1.9fb0486399decp-4
586=0x1.686d45107374ep-10
588=-0x1.56986136f9c8fp-9
589=-0x1.e5c268568e8d7p-4
590=-0x1.379014e979066p-5
591=0x1.762c2a06a9813p-4
592=-0x1.a72543b6e6dd3p-5
593=-0x1.85275a106caccp-7
594=-0x1.b3b2e74d03494p-2
595=0x1.c062c4bc6211ep-2
597=-0x1.63b9ecabb9e6ap-6
598=0x1.56e457fbcf2e8p-3
599=-0x1.6b1ed7dcc2f3p-5
601=0x1.58b2d802f616cp-11
603=-0x1.ccf4cc3193756p-3
604=0x1.6c9d838b83fc5p-2
605=-0x1.e3008a8c11ed6p-5
606=-0x1.069a7774a9903p-1
607=0x1.0c6449915d68fp-3
608=-0x1.33891b1499aecp-4
609=0x1.998aab705e056p-7
610=0x1.23b09cd278c0ap-3
612=-0x1.a2821cf6354aap-4
613=-0x1.84db7dd80fb0fp-4
615=0x1.09e8202990642p-4
616=-0x1.31fc41161eeb5p-5
617=-0x1.e25723b5822c5p-7
618=-0x1.f546ecb1cf40dp-6
619=-0x1.f5c166e1363c4p-2
620=0x1.d74f31f0b4afdp-1
621=0x1.4fdd30752e589p-5
622=0x1.98fc6f86c00a3p-4
623=-0x1.161a74bce43e3p-1
625=-0x1.17e0821bf7445p-3
626=-0x1.9e05327d6c4bbp-3
627=0x1.9207d5bbc6382p-4
628=0x1.2bacf8d33fa8ap-6
629=-0x1.7474507274e48p-6
630=0x1.ebe054f034c47p-5
631=-0x1.ecd1f3bc04ed7p-3
632=-0x1.f3ccf57171139p-5
633=-0x1.8a7e867f0a6cep-4
634=0x1.bca543159af8bp-4
635=0x1.4986b3acb23d8p-8
636=0x1.473e946478961p-5
637=-0x1.5f0e8dcce81d6p-4
638=-0x1.0ce87dcf271b5p-5
639=0x1.3310b2897bdadp-4
640=-0x1.cb171c173453p-8
641=-0x1.3a6ef53a31008p-6
642=0x1.b0ad4526f5defp-3
643=-0x1.28fcf6694ca21p-1
644=0x1.0d5b2528b8646p-5
645=-0x1.967ff3f33bcfp-3
646=0x1.4ea7c893a3e76p-3
647=-0x1.a379d669a707ap-4
648=0x1.767a5a1ddbc64p-4
649=-0x1.e970abab04aafp-4
651=0x1.584f29e3bbdcp-8
652=0x1.b893939f22f4p-13
653=-0x1.ef24fff0323eep-7
654=0x1.657c005a95a1bp-3
655=-0x1.4743d7868c75bp-3
657=0x1.178e1c9bacb29p-5
658=-0x1.7baedb8c3293fp-7
659=-0x1.4fbc4d1dc02fp-5
663=0x1.893fdf5f09c89p-4
664=-0x1.47f2833717abfp-5
665=-0x1.f100308e7a4dap-9
666=-0x1.147d3205f91dfp-1
667=0x1.d9f995ab4fb7dp-3
668=-0x1.8e9fd616eccddp-4
669=0x1.9f19a326355cdp-1
670=-0x1.c6190e362976ep-2
671=0x1.c8b887b767f47p-4
672=-0x1.3f0d65d9bb8bp-5
673=-0x1.edc6d30a57531p-6
674=-0x1.9fb28f0d71b0ap-5
675=-0x1.0c49d98ee344cp-1
676=0x1.28e3ca2477af9p-1
677=-0x1.79ab11c443076p-3
678=-0x1.93ebee6a81985p-2
679=0x1.07fed6d673e99p-2
680=-0x1.c50a2baf27fcbp-2
681=-0x1.1824b8eee1a5ep-2
682=0x1.46913daa4f12dp-3
683=0x1.88adc6c924bcap-4
684=-0x1.f300488b3a8afp-4
685=-0x1.c73fe71c31bb6p-4
686=-0x1.87d298fb8434cp-7
687=-0x1.27d071fc8072ap-2
688=0x1.08849e75c51e3p-1
689=-0x1.81821b53cafdbp-3
690=-0x1.644df79abe426p-2
691=0x1.4764f364720f4p-2
692=-0x1.c3cff2a300435p-2
693=-0x1.cafda53101852p-5
694=0x1.a6abb51513a6dp-5
695=0x1.1c2430c036fc5p-3
696=-0x1.c56b083bf4794p-10
697=-0x1.6f7d1c65d66ecp-6
699=0x1.abe3986b15d52p-4
700=-0x1.903ccdc918ae9p-4
702=0x1.28d8969c919fep-1
703=-0x1.9ddb97ad5be67p-5
704=0x1.7c0b0fc9fd8bcp-3
706=-0x1.bd6eb04622b1dp-6
707=-0x1.0ed5abbff4616p-3
708=-0x1.c5c22591caf3bp-5
709=-0x1.3cfa34e29384p-7
710=-0x1.38fd2276e1a7dp-4
714=0x1.083ba2cc4a4b2p-6
715=-0x1.de933dd691646p-8
720=0x1.015f05d7465abp-4
721=-0x1.4f3311f219265p-4
723=-0x1.70ed1e07197e6p-3
724=0x1.291eed37abdaep-2
726=-0x1.367de3dc3f20ap-1
727=0x1.33b8ab500566ap-1
729=-0x1.42487c8d9d50cp-3
730=0x1.7e90b7bf3cabbp-3
732=0x1.46ed34115bc26p-5
734=-0x1.50ca670a9277p-5
735=0x1.8e5e8dd4f407fp-10
736=0x1.2f5ec43f49d5cp-5
737=-0x1.61e9a190eae4dp-5
738=0x1.c09a9a4b4fa78p-3
739=-0x1.4c8ed2daf53bep-2
740=0x1.18ccea5b166f4p-6
741=-0x1.ebc698615b061p-5
742=0x1.ac2662c8cb794p-3
743=-0x1.6e2f2570881afp-3
744=-0x1.5aef628bb02eap-7
745=-0x1.3eefc341f2d9cp-7
747=0x1.234ff04bf3f56p-3
748=-0x1.c2a60c8526553p-6
749=-0x1.680c023cc64e7p-4
750=-0x1.1f8416c29a276p-2
751=-0x1.56af3815a1266p-1
753=-0x1.02e4ce3850b6dp-1
754=0x1.c7afdf170757ap-4
756=0x1.10841dcf064ebp+0
757=-0x1.27c9e1895fffbp-2
758=-0x1.93e2ce792a90cp-6
759=0x1.313afdb50c0d1p-4
760=0x1.6ee17f580372p-5
762=0x1.e60a28d4cfb0cp-3
763=-0x1.7902e24d76e26p-3
764=0x1.7369a79807bcep-2
765=-0x1.376dfa1a69c91p-3
766=0x1.465e277243ep-3
767=-0x1.84bcd3a3347c8p-3
768=-0x1.7186e7b59c821p-5
769=-0x1.1f38d2f95cb42p-6
770=-0x1.5be1618a8757ap-5
771=-0x1.0e5e732434834p-5
772=0x1.0a13517474a1fp-2
773=-0x1.b4863e3122c66p-6
774=0x1.b92b54d54d273p-1
775=-0x1.df63664f9373ep-4
776=0x1.18c0e4b162672p-1
777=-0x1.fd98d11a70a7p-3
778=0x1.335c9119d258ap-1
779=-0x1.3df3f4b7d0ae4p-2
780=-0x1.29f26d185a8e8p-2
781=-0x1.0479f6cd93ad8p-5
782=-0x1.7e837372976b5p-6
783=-0x1.b2af25e17f6a2p-4
784=0x1.33aeaeae38b98p-5
785=-0x1.e04557f457704p-11
786=0x1.a625ce39463f4p-2
787=0x1.21d61c7af3842p-4
788=0x1.017a50ee3ed18p-2
789=-0x1.7efa940c92dabp-4
790=0x1.0362aceda429p-5
791=-0x1.3f17f3afbe688p-2
792=-0x1.88bb89ced821ep-2
793=-0x1.f8c10389cf589p-5
794=-0x1.78236274d97b8p-6
795=-0x1.52dad13abea9ep-4
796=0x1.04c6953620b45p-3
797=-0x1.1855b26aad79ep-5
798=-0x1.16595c2ad7e1cp-1
800=-0x1.68a4958ff599ep-1
801=-0x1.7a55b0be38692p-5
802=0x1.b1aabb47380dfp-3
803=0x1.207cb9ce7eb54p-3
805=-0x1.8bdf9afdf8223p-4
807=-0x1.b9853ab8c6cc5p-3
808=0x1.d998f284c4d58p-3
810=0x1.d51d90322b672p-4
811=-0x1.78d8d4145bea8p-4
813=-0x1.7054446785313p-5
814=0x1.3115789695784p-7
816=-0x1.a6af4625e0e49p-4
817=0x1.e9ce596a0b96ap-5
818=-0x1.081246c3646bdp-5
819=-0x1.1772dd61ef193p-3
820=0x1.bf2248a33c8aep-3
821=-0x1.4ec52754f3e98p-9
822=-0x1.ab851c6f19397p-1
823=0x1.1bf3fe328748ap+0
824=0x1.b782220c136d8p-10
825=0x1.327267d02eaf2p-2
826=-0x1.01f70163f08fep-3
828=-0x1.9140595388a62p-6
834=-0x1.8690df8045a36p-2
835=0x1.61b24069cafaap-2
836=-0x1.83a22bbfe19dp-5
837=-0x1.39a9bc39e3b1fp-4
838=0x1.af9ae04d48256p-4
840=-0x1.293c0d8b6583cp-4
841=0x1.3336b4421fc22p-2
842=-0x1.00fc15151ca06p-1
843=0x1.a3216c2f93116p-4
844=-0x1.5b33bd1d43043p-4
846=0x1.398ce90a68674p-7
847=-0x1.091e4994972bep-10
849=0x1.5e35f2444f2bp-2
850=-0x1.69a96202b9879p-2
851=0x1.654f70a3e0ed9p-4
852=-0x1.1ca9ad41913b1p-2
853=0x1.a1e66d5a654d7p-4
854=-0x1.1ee8f943e42b7p-3
855=-0x1.87630a63a6046p-5
856=-0x1.07f8ca56828c8p-11
857=-0x1.b5f211bb1ac1cp-7
858=-0x1.0b6b23fb96764p-1
859=0x1.c296475649778p-2
860=-0x1.0323aa9dc2a5p-6
862=0x1.89ddece7f2804p-7
863=-0x1.d848af7a07977p-5
864=0x1.b8d3321ef625fp-4
865=0x1.a1329598e1b88p-1
866=-0x1.6c64e31f235p-1
867=-0x1.c2442328abb34p-12
868=0x1.b0b9de3da7e84p-8
870=0x1.2bbbbbd1a786ap-4
871=-0x1.3401ee718865fp-5
873=0x1.bb783d9335f14p-10
874=0x1.e97aec618214ep-6
875=-0x1.4f36d98ded0e1p-6
876=-0x1.4cd02f9e01356p-2
877=0x1.5a282e3ac6d6ap-3
879=-0x1.d639c5bc1489fp-1
880=-0x1.4eca7bb62620dp+0
881=0x1.4259d340b553cp+1
885=-0x1.9e794a1bce8f4p-7
886=0x1.f0c9f546bbe7cp-7
888=-0x1.d639c5bc1489fp-1
889=-0x1.4eca7bb62620dp+0
890=0x1.4259d340b553cp+1
891=-0x1.e11b40793b953p-4
893=0x1.65ea5a40b1a1fp-1
894=-0x1.3d4f99f72828bp-1
895=-0x1.fde5a8ee6f3ep-1
896=0x1.057b36b3b1e85p+0
899=-0x1.b2ad9872e69fbp-1
900=-0x1.ad514ee178a8dp-12
901=0x1.241f4d7e28921p-5
903=-0x1.d61d37c1621e6p-6
904=0x1.438fe4e5e6ae8p-8
906=0x1.b908e9a07635bp+0
907=-0x1.a3349a2bf3ea8p+0
908=-0x1.157455aa46d4dp-4
909=0x1.23f58eb00cb68p-2
910=-0x1.01208f72e2d97p-2
912=0x1.3fdf2379c7eeap-6
913=-0x1.a3671942bfa0ep-7
915=0x1.10f18073f6328p-5
916=-0x1.26af061e8daap-9
918=-0x1.108ad497be76p-3
919=-0x1.c50ea42b70d5bp-4
920=0x1.64b88ec21289dp-4
922=0x1.36676d30d4221p-4
923=-0x1.0f53b2b3087f6p-3
924=0x1.a8f7adc011d0dp-3
925=-0x1.9011ac35f13cep-4
927=-0x1.eba5f2ae2ea7cp-8
928=0x1.3732194ea8c5cp-3
929=-0x1.59a22ce70e757p-4
930=-0x1.3c7d8109e0e21p-5
931=-0x1.3fe4edc8a6236p-5
932=-0x1.4cdab73b9df5ep-3
933=-0x1.e246bc5165efp-11
934=0x1.291e7511ffdabp-8
936=0x1.2eb80f9636239p-3
937=-0x1.33de2678a968ap-6
939=-0x1.8dcbc070ec643p-9
940=0x1.ab11faa947479p-5
941=-0x1.bbf3769da00f6p-4
942=-0x1.daebc9c02e13cp-2
943=0x1.14ef6d20bf5efp-2
944=-0x1.58ab4adc24081p-4
945=-0x1.1e1dc9234bab3p-1
946=0x1.3b5079e327b97p-1
948=-0x1.5e0e9935c6be5p-2
949=0x1.2fb7963e54181p-2
950=-0x1.754cc39f6d42fp-5
951=-0x1.a2cf268636564p-5
952=0x1.c8c10f95c092bp-5
954=-0x1.ba74576ae1c72p-3
955=0x1.b3147be8d521ap-1
956=-0x1.b025dde03aa8cp-2
957=-0x1.e9c93a139a3abp+0
958=0x1.3cabf0c32c45bp+0
959=-0x1.5f0209ebf927ap-2
960=0x1.d0fa009e755e7p-2
961=-0x1.147453108e2dbp-3
962=-0x1.d889c78fe51d5p-5
963=-0x1.b9a7b8510367ap-5
964=-0x1.1fecb563b323cp-5
966=-0x1.b8a202519e05cp-5
967=0x1.66e520fa302e2p-4
968=-0x1.763a2e7a57d7ep-6
969=-0x1.1bb203903066ep-4
970=0x1.3de81dabd59c7p-3
971=-0x1.1ae55ce5152c7p-4
972=0x1.130eebab0b838p-7
974=-0x1.2e060322e1471p-8
975=-0x1.1a5a135c84c5ap-6
976=-0x1.677b13cc4a014p-7
978=-0x1.f1323317d93a6p-7
979=0x1.007a3bec1eaa7p-3
980=-0x1.1dc0ad5db6e3fp-3
981=-0x1.e928b30266a2ap-3
982=0x1.1e12d9f9ec5c4p-1
983=-0x1.a22e9f826dcf6p-2
984=0x1.ea836a7fd9eeep-6
985=-0x1.166e816130694p-3
986=0x1.bb204baaceb16p-5
987=0x1.909c20e253b1p-8
988=-0x1.3338302ecf7bep-6
990=-0x1.83f2c7ed441adp-7
991=0x1.409aa65f2577cp-7
993=-0x1.d39ae648431dp-3
994=0x1.1c647893bf6bdp-2
996=-0x1.bb0d2fe9a770cp-1
997=0x1.8ac54f05351ecp-1
999=0x1.37b064a0ab673p-5
1000=-0x1.9229081b8d549p-5
1002=-0x1.c97bd208b0293p-7
1003=0x1.baf9aedb95457p-7
1005=0x1.6d1f2d681a1ebp-4
1007=-0x1.c60fe0689b763p-6
1008=-0x1.82997e2135f96p-3
1009=0x1.0e247c1f50a0ap-3
1011=0x1.1c5ba304b28c7p-6
1012=-0x1.1f9983dd6875fp-6
1015=-0x1.b49ebf50cc2f7p-7
1016=-0x1.c702f29a2575bp-4
1017=0x1.42c2695ff91b6p-2
1018=-0x1.47e4f3615e2ap-4
1019=0x1.ef118a89d9ed6p-6
1020=-0x1.7a284d0491a9fp-3
1021=-0x1.31b7b1dca55d5p-7
1022=-0x1.808d7d3455657p-3
1024=-0x1.fb1f21a509ca2p-4
1025=-0x1.41e6daebe26e8p-5
1026=0x1.3b57c3405ea1bp-6
1027=-0x1.8b254cde954a6p-8
1029=-0x1.60893ec294bedp-3
1030=0x1.95dc001e22ad8p-3
1031=-0x1.430eba143ef72p-6
1032=0x1.665a5232c66ep-4
1033=-0x1.75358e95a5d4cp-5
1036=0x1.8192c4b088dc1p-5
1037=-0x1.2203c64f88a6ap-7
1041=0x1.c4b5b072bf38dp-4
1042=-0x1.205e90820d68fp-3
1044=-0x1.6424c11b1f83ep-6
1045=0x1.b4f9edd9ba9bap-8
1047=0x1.302398c1ff688p-3
1048=-0x1.fb232fc85a3d7p-5
1049=-0x1.1dd23dc1b81d2p-7
1053=-0x1.68e54a4eac7a8p-7
1054=0x1.60ddf8b2ac78dp-9
1056=-0x1.962beed365edep-5
1057=0x1.3dbd76e85db66p-5
1060=0x1.e2624ae7780ep-15
1062=0x1.2cc6976d981a6p-3
1063=-0x1.a6cf4fbb374b6p-4
1064=-0x1.777a697013943p-6
1065=0x1.cad8c22a7dc8bp-5
1066=-0x1.84c7c0b54b2ecp-4
1068=0x1.76ad056386d57p-7
1071=-0x1.b9702c64ceed1p-3
1072=0x1.501937ac15214p-3
1074=-0x1.37c36757cc4dep-6
1075=-0x1.dca8bce24a9dp-9
1076=-0x1.4c627b56872d3p-8
1077=-0x1.3109de43af485p-4
1078=-0x1.63544885a46f1p-2
1079=-0x1.07abd70964072p-7
1080=-0x1.416c7b93257a8p-4
1081=0x1.40b2bc39bdfeap-2
1082=0x1.bb1a21d66b2d2p-4
1083=0x1.9b6d1f0f316dfp-4
1084=-0x1.c00c593e0e73bp-6
1085=-0x1.830a9007ebb9dp-5
1086=-0x1.331b57c8d4ad9p-3
1087=0x1.118702bf30155p-3
1089=0x1.ec0a128b14f09p-9
1098=-0x1.b13a59c412529p-7
1099=0x1.9d1aaeceb03d1p-5
1104=0x1.759791bf809d9p-9
1110=0x1.e15d092652021p-7
1111=-0x1.6e0cd107beee1p-5
1112=0x1.dc84cf98d3ef2p-6
1125=0x1.f28aa4ff3e203p+0
1126=-0x1.eaea481694ceap+0
1128=0x1.bdb1704ae91fcp-5
1129=-0x1.558544a9b3736p-8
1131=-0x1.8004883e4b7dbp-4
1132=0x1.7a67184e7e02fp-4
1134=0x1.be72ffa9fcb14p-7
1135=-0x1.1e52a3d3bd5a6p-5
1137=-0x1.dba5620d70386p-4
1138=0x1.ea209235556ap-5
1139=-0x1.204ffac41c2d7p-5
1140=0x1.9669798b551f8p-5
1141=0x1.a492a7ddcde77p-3
1142=-0x1.b0b507378e0eap-7
1143=-0x1.3d724add36135p-3
1144=0x1.dda15bbf19617p-5
1145=0x1.0587b70c00678p-5
1146=-0x1.48e02fa79a09ap-9
1147=-0x1.2ab1dbe57cf0ap-6
1149=-0x1.07dbfb474c3adp-4
1150=0x1.d97104545f2e9p-5
1152=0x1.1cd4becfe279dp-1
1153=-0x1.83aaf412409aap-2
1156=0x1.0d00a5ee958f9p-8
1158=-0x1.7c3ac4c1b0d71p-5
1159=0x1.3a0de4f3891cp-8
1164=0x1.1a46ae0261b7ep-1
1165=-0x1.a96d042d02051p-2
1170=-0x1.dba8e23306a21p-5
1171=0x1.2367bb77f5466p-4
1173=-0x1.ab2e321746812p-7
1174=0x1.56a6c3e5515e1p-5
1176=0x1.14ed209f66f65p-3
1177=-0x1.82c8fe18e292ap-5
1179=-0x1.b5bf7fcb4b9bap-3
1180=0x1.b32a314dcba6ep-3
1182=-0x1.58be4c088d583p-9
1185=-0x1.1fa3678bec82bp-7
1186=0x1.d58c271f6795ep-6
1188=0x1.35f098941812bp-3
1189=-0x1.f053125c5061p-4
1191=-0x1.7fe2bc20f1fa7p-4
1192=0x1.f2da860900497p-4
1197=-0x1.3b96a32f417c1p-2
1198=0x1.98588a9f4fbddp-2
1200=-0x1.5d0b797c927p-2
1201=0x1.360795a3cee5dp-2
1206=-0x1.b74fecf87edf5p-5
1207=0x1.2277c4d1980dep-4
1212=0x1.bc582d49ba75bp-4
1213=-0x1.47e9dab4ff5d5p-4
1224=0x1.c1b22b3942844p-12
1227=0x1.fc9f66c593b12p-1
1228=-0x1.af9d09aa6bee7p-1
1230=0x1.8aa787caaa811p+0
1231=-0x1.555c12039e4bfp+0
1233=0x1.9c626f17b9593p-4
1236=0x1.0178a3ce83419p+0
1237=-0x1.28e772158e94ap+0
1242=0x1.8f53adfed3ap-5
1257=-0x1.8da0831433174p-7
1258=0x1.ddd56f92800e8p-6
1260=0x1.400cccfe4e86ap-3
1261=-0x1.41ee4839a5ffep-3
1263=0x1.93364db315a5dp-4
1264=-0x1.cfa780e1999b1p-4
1272=0x1.b85d40188c26p-5
1273=-0x1.41a3416e191edp-4
1278=-0x1.10ef541d9941p-5
1279=0x1.a70d9d36a7988p-5
1281=-0x1.3b3f493292f78p-2
1282=0x1.2e0358d1e8be8p-2
1283=-0x1.37704583cb96ep-6
1284=-0x1.d6cc704f6dfcfp-3
1285=0x1.6001d68d5e3f6p-2
1287=0x1.307ed9ef19063p-2
1288=-0x1.523fd7f72996cp-2
1289=-0x1.4ede7cee66f8ap-4
1290=-0x1.44f9602b4db9p-5
1291=0x1.8fa0da8c381eep-6
1296=0x1.3ddb4333c9abbp-3
1297=-0x1.a4b8ad03e38fep-4
1305=-0x1.1884dc70b2596p-2
1306=0x1.0baebf144e0d3p-2
1308=-0x1.03052f58d00d1p-6
1309=0x1.9787cd05e5885p-6
1314=-0x1.136b32e19d653p-2
1315=0x1.0b240c20d5e44p-2
1317=-0x1.baea6e29f4899p-4
1318=0x1.1e8c78f455dadp-3
1320=0x1.a8937a3f1b357p-3
1321=-0x1.627a61b6fd089p-5
1322=-0x1.2063cebeb9c66p-2
1323=0x1.a939fc451fa11p-3
1324=-0x1.5be3d5462b69dp-3
1325=-0x1.ca0700c4a183fp-5
1326=-0x1.5e94772fc7145p-2
1327=0x1.4dfb037271d5p-2
1328=0x1.bf0934cd6cb0cp-9
1329=-0x1.bf07df52a2aep-2
1330=0x1.2a0a59ca8e03ep-1
1332=-0x1.b7c759b5e2e17p-4
1333=0x1.d916bf224940bp-4
1335=-0x1.ac21f750a8cbbp-4
1336=0x1.57ceb00347d8dp-3
1338=0x1.51d891e300b53p-6
1339=-0x1.02424e0212d08p-8
1341=-0x1.354032a23157ap-6
1342=0x1.8aff30371e0cap-6
1343=0x1.84f5db08a2a78p-9
1344=-0x1.a6135322fc786p-8
1345=0x1.546e6e1bedeeep-9
1347=-0x1.26f6d9b09f414p-3
1348=0x1.10c16257a2a5dp-3
1350=-0x1.e9408507f299p-4
1351=0x1.a5aa1cff81095p-5
1354=0x1.265d0aa61962cp-8
1368=-0x1.0435f08cb1febp-8
1369=0x1.d87e7f235ccfcp-9
1371=0x1.b4f22799d8446p-5
1372=-0x1.c413fa9a023b7p-5
1377=0x1.2032def292c1bp-4
1378=-0x1.01691449eb642p-4
1398=0x1.6efa188f893b7p-4
1399=-0x1.77e04996cfd5cp-5
1401=0x1.95a1ba3d34aa6p-2
1402=-0x1.639fb55639b2fp-2
1408=0x1.2cbb9f61bbb24p-8
1410=0x1.28d71507a3758p-3
1411=-0x1.eb5360b593955p-4
1413=-0x1.42ace6cf38d81p-5
1414=0x1.abea22627c9fep-5
1416=-0x1.1249636b14c7dp-6
1417=0x1.73e32bb6829ddp-5
1419=-0x1.1f3984b775748p-5
1420=0x1.5457af5c897acp-5
1422=-0x1.b49cd9a2874f5p-5
1423=0x1.d9893b6bccc1dp-5
1428=0x1.4cf4b4b72f23dp-5
1429=-0x1.bc0d47ad04ab6p-5
1431=-0x1.68c6fd16030f5p-3
1432=0x1.d6ea15268c70ep-3
1434=0x1.00c9bd845473fp-3
1435=-0x1.cbc04491918fap-8
1436=-0x1.42a20b4a1d38ep-2
1437=0x1.52720d4d7b21p+0
1438=-0x1.2a478b0770cfap+0
1439=-0x1.0fdbe0e1adabp-4
1440=-0x1.617e783b5f54dp-7
1442=0x1.97fb369046bap-5
1443=0x1.b728f61f1672fp-4
1444=-0x1.c4a9ee2e7c877p-4
1447=0x1.9b3083c5ec76cp-8
1449=0x1.5a181e7ad5ee7p-7
1452=0x1.135e50df4a34ep-7
1453=-0x1.66290d9ba61fcp-7
1455=0x1.91a96e64b60b3p-3
1456=-0x1.59a98779c0565p-3
1458=-0x1.bc2d520fe8898p-8
1459=0x1.f7c9f971f9b81p-8
1461=-0x1.073206171fc62p-3
1462=0x1.0bffa7d051cabp-3
1465=-0x1.d34c397b6d334p-10
1500=-0x1.ce80df199d2ap-9
1501=0x1.58e8786b83e42p-10
1503=0x1.84ea5d12bc9edp-2
1504=-0x1.7492701598f9ap-2
1506=0x1.443b8a0f77a31p-6
1524=-0x1.ca2f57c561f7bp-2
1525=0x1.dcb2045391c44p-2
1527=-0x1.aca97e61fe48ap-4
1528=0x1.00707daa6e6c1p-3
1530=-0x1.143de46b30c4ap-4
1531=0x1.57f55e830c15p-4
1536=0x1.84b5cf73cbe9cp-4
1537=-0x1.68a9f917054b5p-4
1539=-0x1.28335731f7f33p-3
1540=0x1.8a047a503487bp-3
1542=-0x1.d10088eca8fbp-4
1543=0x1.f83308b838558p-4
1545=-0x1.392ef4b821421p-3
1546=0x1.1e9e060138a83p-3
1548=-0x1.0d3321a38ba1ep-3
1549=0x1.7886bfa663abdp-3
1554=-0x1.cf3b1d672f168p-2
1555=0x1.089ecbb87786cp-1
1557=-0x1.f20d2fafa1c08p-6
1558=0x1.5e848f87dc906p-5
1560=0x1.c97a0cfe94acap-8
1566=-0x1.ce3b0117cd555p-4
1567=0x1.030d0276f4356p-3
1569=0x1.dbb85d0eef827p-3
1570=-0x1.c2623c940de5ep-5
1575=-0x1.54980ef584cep-6
1576=0x1.e1f77397a8a1ap-6
1578=0x1.23df920b2688ap-4
1579=-0x1.2cb567c159765p-5
1582=0x1.e5b55fbb93236p-8
1584=-0x1.90b30fc7f986p-2
1585=0x1.d8f2789fe181cp-2
1587=-0x1.b1927953edb0ep-5
1588=0x1.522dd73d24e06p-4
1593=-0x1.3ec1c043c815ep-5
1594=0x1.3d68ea04be8c5p-5
1596=0x1.48427a2d2bf48p-4
1597=-0x1.21933dca4de8p-4
1601=-0x1.d215ed312832ep-7
1602=-0x1.64842979ad9f8p-3
1603=0x1.b0dec251a6dcep-3
1606=0x1.1cd47e35fadacp-6
1608=-0x1.de1445b79623ap-2
1609=0x1.23a81425c96fbp+0
1610=-0x1.8417d3488c4b9p-3
1611=0x1.8a795792f9a31p-5
1612=-0x1.e4b1d9948eabcp-4
1613=-0x1.415027f736558p-5
1614=-0x1.7ed98e54902f3p+0
1615=0x1.3b6841586cae8p+0
1616=-0x1.74623328a07c6p-5
1617=-0x1.801b45f0feecap-6
1618=-0x1.ba221dcbc5fc4p-10
1620=-0x1.a9f3376b7d009p-5
1621=0x1.bc88d145d337dp-5
1623=0x1.508eee4886e4dp-4
1624=-0x1.5d74c7e7ee516p-4
1629=-0x1.9a78310f635aep-6
1630=0x1.a1d89b923336ep-10
1632=-0x1.ebed3f4c0d40dp-9
1633=0x1.6aae8e16e0c13p-9
1635=-0x1.4bb3d65d093aep-6
1636=0x1.6753740fc4c63p-7
1638=0x1.966e81ee1a21p-4
1639=-0x1.76ef5ac9f19d3p-4
1641=-0x1.bfd6c58d3f864p-4
1642=0x1.0442f04b6dc7ap-3
1644=0x1.fb39f201def15p-6
1645=-0x1.16f976ac4e423p-5
1647=-0x1.2595097ab7416p-8
1648=0x1.2f298fe8f7046p-6
1657=0x1.1bcb1975375a2p-11
1659=-0x1.461dd03e85eaep-10
1660=0x1.99bf41cb46a4ep-11
1662=-0x1.896380e3d1f29p-3
1663=0x1.a051cf91d7f45p-3
1680=-0x1.efe67fab0c2fap-7
1681=0x1.46573f3f068c1p-6
1686=-0x1.9e12e67f464f3p-7
1687=0x1.5b6834f7decd6p-5
1695=0x1.65d840c0465cep-4
1696=-0x1.58e381cc3cdfap-4
1704=0x1.2e9305d47a908p-2
1705=-0x1.0a21004d61604p-2
1707=0x1.4da4043d511d8p-4
1708=-0x1.5224ff44726cbp-4
1713=-0x1.356d0311755c7p-1
1714=0x1.758209945152dp-1
1716=-0x1.3dea200259e55p-4
1717=0x1.96ebe911002dp-4
1719=0x1.f2086b40f73e8p-5
1720=-0x1.f81ee53c0a85cp-5
1722=0x1.1d87f4d1c3abbp-9
1723=-0x1.6bea34b8ce03ap-9
1725=-0x1.addc140eb34d4p-2
1726=0x1.06be164374a75p-1
1728=0x1.100f0ed50695cp-3
1729=-0x1.d7fe177894b3ep-4
1731=0x1.681720b25bb46p-2
1732=-0x1.56a0b6620d0a2p-2
1734=0x1.a13b6fcb668d7p-3
1735=-0x1.9b77dc4b03249p-3
1749=0x1.b82bd7682e80cp-6
1750=-0x1.55c3cab3f011p-6
1753=0x1.17637be2df0a4p-11
1764=-0x1.85d71f537b9c3p-8
1765=0x1.affdfbfcddfc9p-7
1773=0x1.e0866da8eb49ap-5
1774=-0x1.e5b68bbf5977ep-5
1803=-0x1.0b288a7b15a22p-6
1804=0x1.ece1df069f966p-7
1815=-0x1.251f8a4886b77p-4
1816=0x1.3e4f414512d7ap-4
1821=0x1.0265b761e6eap-6
1822=-0x1.bfbb7051561edp-7
1827=-0x1.c10f9789c7826p-5
1828=0x1.b0c700800726p-5
1848=-0x1.481b0ed8874e3p-6
1849=0x1.8d7ee90b9065p-5
1851=-0x1.5c1378b889cf8p-5
1852=0x1.1227288c98714p-5
1854=0x1.80410c5ce09ep-3
1855=-0x1.62e2f9a4c8a62p-3
1857=0x1.fbd1288698ea1p-7
1858=-0x1.dc27f421af54cp-7
1863=-0x1.595d96b97d3b7p-4
1864=0x1.54e257df84ef1p-4
1867=0x1.316252a6d1cd2p-9
1872=-0x1.665bc0317923bp-6
1873=0x1.89afc7b891e73p-6
1887=0x1.68f1b19069eedp-5
1888=-0x1.44537300b3248p-5
1890=0x1.15a82404bc2c2p-5
1891=-0x1.064765a61ecf8p-5
1921=0x1.fdfd02b31db24p-15
1926=-0x1.5f9252d14ff4ep-4
1927=0x1.974ce6553ad69p-4
1938=-0x1.0122a2d14012fp-6
1939=0x1.d1098df37a1d1p-7
1941=-0x1.4822063bc4123p-9
1942=0x1.12c3c363016bfp-8
1944=-0x1.21c8d181ff644p-11
1945=0x1.2384204d5afb1p-11
1953=-0x1.48b0f606eda1fp-4
1954=0x1.9826e549f41bap-4
1956=-0x1.85b73976fd10ep-3
1957=0x1.abb16a0eba517p-3
1989=0x1.c0b859937755p-8
1990=-0x1.08db1f91c3b8fp-8
1992=0x1.789b2f1aa2f33p-9
1993=-0x1.6446f7708c61ap-8
1998=-0x1.b83284c8c6338p-4
1999=0x1.dfd359f21a6bdp-4
2004=0x1.1ccb5cf30c9e1p-4
2005=-0x1.3f8bc52cc493bp-6
2007=0x1.bc5c70291b24p-5
2008=-0x1.abd112861f9b6p-5
2010=0x1.2eae0e902c5adp-5
2011=-0x1.571a63c6e8ebdp-5
2013=0x1.fe7fb339910a8p-11
2014=-0x1.b7d81fa0a2805p-7
2019=-0x1.15ba340bc6a43p-4
2020=0x1.8c1d685d45786p-4
2022=0x1.558680061bb36p-5
2023=-0x1.54ed6ff7dc7bp-5
2025=-0x1.656c0e7ffe0b7p-6
2026=0x1.8461a75343e24p-5
2028=0x1.c6989270f503bp-12
2029=-0x1.4877fde64ad89p-12
2031=0x1.552c40d56ee27p-2
2032=-0x1.256f904eba5f9p-2
2034=-0x1.dbf5cb63feb81p-4
2035=0x1.4b95dd74411e3p-3
2037=0x1.107b5d6c4d438p-1
2038=-0x1.099e876c4f89ep-1
2040=-0x1.6859fa8b8d37ep-4
2041=0x1.d6ee1faab56abp-4
2043=-0x1.cf65bb4ab48ecp-9
2044=0x1.5a18d3c39fa47p-6
2100=-0x1.60e2354328f92p-6
2101=0x1.787d2f053caa6p-6
2106=-0x1.4ddef7e6de7f4p-6
2107=0x1.0bee3b9b016a2p-4
2109=-0x1.11935746f63fbp-4
2110=0x1.2c8e6dcbec53ep-4
2121=0x1.743bf86995c0dp-7
2122=-0x1.2e6895575e598p-7
2133=0x1.67790204b1d9ap-6
2134=-0x1.6eb434aca4e97p-6
2142=-0x1.e4e27b23be102p-3
2143=0x1.2537d2aae41c5p-2
2145=-0x1.5365e1be9e95ap-5
2146=0x1.8bb3896834482p-5
2152=0x1.19e69d99bd3b6p-9
2154=-0x1.c3d86193ff389p-3
2155=0x1.028c98a13fe0fp-2
2157=-0x1.b052bb7aa25b9p-7
2158=0x1.33a43fb4a4538p-6
2160=-0x1.4f6203c0dd7bap-4
2161=0x1.7e0b741aef80cp-4
2163=0x1.860107313ca71p-1
2164=-0x1.3a6600bc7412ap-1
2165=-0x1.def802eec4407p-3
2166=0x1.860107313ca71p-1
2167=-0x1.3a6600bc7412ap-1
2168=-0x1.def802eec4407p-3
2169=0x1.7b870f430df28p-11
2170=-0x1.8a8b0dcb6c19dp-5
2172=0x1.fa2a508552776p-1
2173=-0x1.106a73144b9a2p-1
2174=-0x1.1db526ba07b36p-3
2178=0x1.b4fc6a46e87fbp+0
2179=-0x1.b044984b1e42p+0
2181=-0x1.3e05add653e64p-4
2182=0x1.3a7eb0539c5ecp-4
2229=-0x1.b603adc787122p-2
2230=0x1.faf76dcba299ap-2
2232=-0x1.562410b3b9dfep-2
2233=0x1.88f6fc08affc8p-2
2235=-0x1.778114018cfa3p-1
2236=0x1.b4e5bb39a3d9bp-1
2238=-0x1.806b6332ed61dp-2
2239=0x1.1395212bff17p-1
2240=-0x1.061470dc3cce2p-6
2241=-0x1.7123aa20dfc45p-2
2242=0x1.d4f5c1354f207p-2
2244=0x1.aff00eabedf5cp-4
2245=-0x1.6f11b2246a6c4p-4
2247=0x1.4fb376175027ap-3
2248=-0x1.698397fe15ccfp-3
2250=0x1.9ea6325f76111p-4
2251=-0x1.a46093fe1242p-4
2253=0x1.59a8bb20f2ba7p-2
2254=-0x1.3da005b7def5ep-2
2256=-0x1.ac393872f3a43p-7
2257=0x1.b871f0a6b4a89p-6
2259=0x1.cc268400e64a2p-3
2260=-0x1.8ebf8928bab92p-3
2262=0x1.12793ecb971fcp+0
2263=-0x1.0926e54a3bcecp+0
2265=-0x1.9e96ce1a92ab1p-3
2266=0x1.e608949ebd7a2p-3
2268=-0x1.14af0dab8f1c3p-6
2269=0x1.aa887e212e75fp-6
2304=0x1.a1e2c534d288bp-2
2305=-0x1.983990f81861p-2
2310=0x1.4c7d91e5ab006p-5
2311=-0x1.31b119b8bc1f5p-5
2313=-0x1.9ff8a2ceb1286p-9
2314=0x1.02218a662b60fp-8
2316=0x1.aca9026eba1bep-4
2317=-0x1.937fc4243e03fp-4
2322=0x1.b90e51e43d03p-4
2323=-0x1.a28942e9153c9p-4
2361=-0x1.4545f34872adep-8
2362=0x1.cdf3963f71cc6p-7
2364=-0x1.c08307272f0edp-6
2365=0x1.cca94aed62504p-6
2367=-0x1.321c92fa4a3a6p-8
2368=0x1.75e14d9c08ef3p-8
2376=0x1.3923bcc74657dp-3
2377=-0x1.b76fd856b714ep-4
2403=0x1.10bdbca2cdad1p-4
2404=-0x1.d282b56efc672p-6
2407=0x1.f41918d6bb96cp-10
2409=-0x1.2b6c89e88944ep-2
2410=0x1.797b51fae9e1p-2
2412=0x1.a72a8d51f275ep-4
2413=-0x1.0462015543b2ap-4
2415=-0x1.1c34e83161acep-5
2416=0x1.dba0bd21edbc3p-5
2424=0x1.0372c0d1b591ep-6
2425=-0x1.ad7b985b63e7ap-7
2430=-0x1.31bc89cfaddacp-5
2431=0x1.4896c03416cc1p-5
2442=0x1.61e08defba2f4p-7
2443=-0x1.479efc89928adp-7
2445=0x1.3ab4c97a7a51p-4
2446=-0x1.1ce7e56522f4ep-4
2451=-0x1.d693dadf21452p-4
2452=0x1.2d78e27121612p-3
2454=-0x1.e00f37ab8a4bfp-7
2455=0x1.fe5445c76d0ep-7
2460=-0x1.3cf5fe5ea1b6cp-8
2461=0x1.d82ec696a54f5p-7
2463=0x1.c18379afb3534p-8
2464=-0x1.94c819426dac7p-6
2466=0x1.2b15398b81801p-1
2467=-0x1.1f239e1083c89p-1
2472=0x1.3fa7d51c0df91p-4
2473=-0x1.30ee510ef3c59p-4
2502=-0x1.b09927ae58a09p-7
2503=0x1.0914b8334e018p-7
2505=0x1.30facb12f1542p-3
2506=-0x1.d19c78548c54fp-4
2508=0x1.d01a0f153a1eap-13
2509=-0x1.1e1c384a8e032p-12
2511=0x1.66c530c1dc626p+0
2512=-0x1.0e6044f89cf08p+0
2514=0x1.ae1c8ee5f253bp+1
2515=-0x1.d88fad5739effp+1
2516=0x1.3d8e8526021ebp-10
2517=-0x1.cf92be6459e56p-3
2518=0x1.ffb3aeb522bb1p-3
2520=-0x1.537d311ffa554p-7
2521=0x1.188078b9264b2p-7
2535=-0x1.ab6b204fb9605p-11
2536=0x1.85ae11f4e3d7dp-10
2547=-0x1.6f14e84ef0e7p-4
2548=0x1.62452d74edd73p-4
2551=-0x1.534e43f43a2fcp-10
2553=0x1.d25e36d103895p-9
2554=-0x1.503eddad4768ap-9
2556=-0x1.2273d88042a67p-3
2557=0x1.2f5cb276ecb92p-3
2559=-0x1.c4513d4fdafp-6
2560=0x1.03147806bc80ep-5
2565=-0x1.a3a45b85b8ec6p-7
2566=0x1.a34befc973204p-7
2568=-0x1.94c6fe643dc8dp-7
2569=0x1.6dac38bfb04d3p-7
2574=-0x1.7ab07a818b2f8p-13
2575=0x1.1acf51d52ef53p-8
2613=0x1.a94574b613613p-9
