#mdl#2#810
#rdr#5/0/0
1:b,
18:u:N1F0X0 = %X[0,0],
19:u:N1F0L1 = %X[-1,0],
19:u:N1F0L2 = %X[-2,0],
18:u:N1F0R1 = %X[1,0],
#qrk#3
1:T,
1:I,
1:O,
#qrk#377
1:b,
13:u:N1F0X0 = 67,
15:u:N1F0L1 = _x-1,
15:u:N1F0L2 = _x-2,
14:u:N1F0R1 = 101,
14:u:N1F0X0 = 101,
13:u:N1F0L1 = 67,
15:u:N1F0L2 = _x-1,
14:u:N1F0R1 = 114,
14:u:N1F0X0 = 114,
14:u:N1F0L1 = 101,
13:u:N1F0L2 = 67,
14:u:N1F0R1 = 116,
14:u:N1F0X0 = 116,
14:u:N1F0L1 = 114,
14:u:N1F0L2 = 101,
14:u:N1F0L1 = 116,
14:u:N1F0L2 = 114,
14:u:N1F0R1 = 115,
14:u:N1F0X0 = 115,
14:u:N1F0L2 = 116,
13:u:N1F0R1 = 95,
13:u:N1F0X0 = 95,
14:u:N1F0L1 = 115,
13:u:N1F0R1 = 32,
13:u:N1F0X0 = 32,
13:u:N1F0L1 = 95,
14:u:N1F0L2 = 115,
13:u:N1F0L1 = 32,
13:u:N1F0L2 = 95,
13:u:N1F0L2 = 32,
13:u:N1F0R1 = 84,
13:u:N1F0X0 = 84,
14:u:N1F0R1 = 111,
14:u:N1F0X0 = 111,
13:u:N1F0L1 = 84,
14:u:N1F0R1 = 117,
14:u:N1F0X0 = 117,
14:u:N1F0L1 = 111,
13:u:N1F0L2 = 84,
14:u:N1F0R1 = 106,
14:u:N1F0X0 = 106,
14:u:N1F0L1 = 117,
14:u:N1F0L2 = 111,
14:u:N1F0L1 = 106,
14:u:N1F0L2 = 117,
14:u:N1F0L2 = 106,
13:u:N1F0R1 = 76,
13:u:N1F0X0 = 76,
13:u:N1F0L1 = 76,
13:u:N1F0L2 = 76,
13:u:N1F0R1 = 73,
13:u:N1F0X0 = 73,
13:u:N1F0L1 = 73,
13:u:N1F0L2 = 73,
14:u:N1F0R1 = 110,
14:u:N1F0X0 = 110,
14:u:N1F0R1 = 105,
14:u:N1F0X0 = 105,
14:u:N1F0L1 = 110,
14:u:N1F0L1 = 105,
14:u:N1F0L2 = 110,
14:u:N1F0L2 = 105,
13:u:N1F0R1 = 77,
13:u:N1F0X0 = 77,
13:u:N1F0R1 = 46,
13:u:N1F0X0 = 46,
13:u:N1F0L1 = 77,
13:u:N1F0L1 = 46,
13:u:N1F0L2 = 77,
13:u:N1F0L2 = 46,
13:u:N1F0R1 = 97,
13:u:N1F0X0 = 97,
13:u:N1F0L1 = 97,
13:u:N1F0L2 = 97,
13:u:N1F0R1 = 69,
13:u:N1F0X0 = 69,
13:u:N1F0L1 = 69,
13:u:N1F0L2 = 69,
13:u:N1F0R1 = 68,
13:u:N1F0X0 = 68,
13:u:N1F0R1 = 39,
13:u:N1F0X0 = 39,
13:u:N1F0L1 = 68,
13:u:N1F0L1 = 39,
13:u:N1F0L2 = 68,
13:u:N1F0L2 = 39,
14:u:N1F0R1 = 108,
14:u:N1F0X0 = 108,
14:u:N1F0L1 = 108,
14:u:N1F0L2 = 108,
13:u:N1F0R1 = 80,
13:u:N1F0X0 = 80,
13:u:N1F0L1 = 80,
13:u:N1F0L2 = 80,
13:u:N1F0R1 = 83,
13:u:N1F0X0 = 83,
13:u:N1F0L1 = 83,
13:u:N1F0L2 = 83,
13:u:N1F0R1 = 67,
13:u:N1F0R1 = 65,
13:u:N1F0X0 = 65,
13:u:N1F0L1 = 65,
13:u:N1F0L2 = 65,
14:u:N1F0R1 = 112,
14:u:N1F0X0 = 112,
14:u:N1F0L1 = 112,
14:u:N1F0R1 = 232,
14:u:N1F0X0 = 232,
14:u:N1F0L2 = 112,
14:u:N1F0L1 = 232,
14:u:N1F0L2 = 232,
13:u:N1F0R1 = 82,
13:u:N1F0X0 = 82,
13:u:N1F0R1 = 79,
13:u:N1F0X0 = 79,
13:u:N1F0L1 = 82,
13:u:N1F0L1 = 79,
13:u:N1F0L2 = 82,
13:u:N1F0L2 = 79,
13:u:N1F0R1 = 34,
13:u:N1F0X0 = 34,
13:u:N1F0L1 = 34,
13:u:N1F0L2 = 34,
13:u:N1F0R1 = 99,
13:u:N1F0X0 = 99,
13:u:N1F0L1 = 99,
13:u:N1F0L2 = 99,
13:u:N1F0R1 = 71,
13:u:N1F0X0 = 71,
13:u:N1F0L1 = 71,
13:u:N1F0L2 = 71,
14:u:N1F0R1 = 118,
14:u:N1F0X0 = 118,
14:u:N1F0L1 = 118,
14:u:N1F0L2 = 118,
14:u:N1F0R1 = 201,
14:u:N1F0X0 = 201,
14:u:N1F0L1 = 201,
14:u:N1F0L2 = 201,
14:u:N1F0R1 = 103,
14:u:N1F0X0 = 103,
14:u:N1F0L1 = 103,
14:u:N1F0L2 = 103,
13:u:N1F0R1 = 70,
13:u:N1F0X0 = 70,
13:u:N1F0L1 = 70,
13:u:N1F0L2 = 70,
14:u:N1F0R1 = 234,
14:u:N1F0X0 = 234,
14:u:N1F0R1 = 109,
14:u:N1F0X0 = 109,
14:u:N1F0L1 = 234,
14:u:N1F0L1 = 109,
14:u:N1F0L2 = 234,
14:u:N1F0L2 = 109,
13:u:N1F0R1 = 85,
13:u:N1F0X0 = 85,
13:u:N1F0L1 = 85,
13:u:N1F0L2 = 85,
14:u:N1F0R1 = 102,
14:u:N1F0X0 = 102,
14:u:N1F0L1 = 102,
14:u:N1F0L2 = 102,
14:u:N1F0R1 = 113,
14:u:N1F0X0 = 113,
14:u:N1F0L1 = 113,
14:u:N1F0L2 = 113,
14:u:N1F0R1 = 120,
14:u:N1F0X0 = 120,
14:u:N1F0L1 = 120,
14:u:N1F0L2 = 120,
13:u:N1F0R1 = 66,
13:u:N1F0X0 = 66,
13:u:N1F0L1 = 66,
13:u:N1F0L2 = 66,
14:u:N1F0R1 = 104,
14:u:N1F0X0 = 104,
14:u:N1F0L1 = 104,
14:u:N1F0L2 = 104,
14:u:N1F0R1 = 233,
14:u:N1F0X0 = 233,
14:u:N1F0L1 = 233,
14:u:N1F0L2 = 233,
13:u:N1F0R1 = 45,
13:u:N1F0X0 = 45,
13:u:N1F0L1 = 45,
13:u:N1F0L2 = 45,
13:u:N1F0R1 = 74,
13:u:N1F0X0 = 74,
13:u:N1F0L1 = 74,
13:u:N1F0L2 = 74,
14:u:N1F0R1 = 107,
14:u:N1F0X0 = 107,
14:u:N1F0L1 = 107,
14:u:N1F0L2 = 107,
13:u:N1F0R1 = 78,
13:u:N1F0X0 = 78,
13:u:N1F0L1 = 78,
13:u:N1F0L2 = 78,
14:u:N1F0R1 = 224,
14:u:N1F0X0 = 224,
14:u:N1F0L1 = 224,
14:u:N1F0L2 = 224,
13:u:N1F0R1 = 86,
13:u:N1F0X0 = 86,
13:u:N1F0L1 = 86,
13:u:N1F0L2 = 86,
13:u:N1F0R1 = 81,
13:u:N1F0X0 = 81,
13:u:N1F0L1 = 81,
13:u:N1F0L2 = 81,
13:u:N1F0R1 = 40,
13:u:N1F0X0 = 40,
13:u:N1F0L1 = 40,
13:u:N1F0L2 = 40,
14:u:N1F0R1 = 100,
14:u:N1F0X0 = 100,
14:u:N1F0L1 = 100,
14:u:N1F0L2 = 100,
14:u:N1F0R1 = 119,
14:u:N1F0X0 = 119,
14:u:N1F0L1 = 119,
14:u:N1F0L2 = 119,
13:u:N1F0R1 = 75,
13:u:N1F0X0 = 75,
13:u:N1F0L1 = 75,
14:u:N1F0R1 = 122,
14:u:N1F0X0 = 122,
13:u:N1F0L2 = 75,
14:u:N1F0L1 = 122,
14:u:N1F0L2 = 122,
13:u:N1F0R1 = 72,
13:u:N1F0X0 = 72,
13:u:N1F0L1 = 72,
13:u:N1F0L2 = 72,
14:u:N1F0R1 = 244,
14:u:N1F0X0 = 244,
14:u:N1F0L1 = 244,
14:u:N1F0L2 = 244,
14:u:N1F0R1 = 226,
14:u:N1F0X0 = 226,
14:u:N1F0L1 = 226,
14:u:N1F0L2 = 226,
13:u:N1F0R1 = 49,
13:u:N1F0X0 = 49,
13:u:N1F0R1 = 57,
13:u:N1F0X0 = 57,
13:u:N1F0L1 = 49,
13:u:N1F0R1 = 56,
13:u:N1F0X0 = 56,
13:u:N1F0L1 = 57,
13:u:N1F0L2 = 49,
13:u:N1F0R1 = 55,
13:u:N1F0X0 = 55,
13:u:N1F0L1 = 56,
13:u:N1F0L2 = 57,
13:u:N1F0L1 = 55,
13:u:N1F0L2 = 56,
13:u:N1F0L2 = 55,
13:u:N1F0R1 = 48,
13:u:N1F0X0 = 48,
13:u:N1F0L1 = 48,
13:u:N1F0L2 = 48,
13:u:N1F0R1 = 50,
13:u:N1F0X0 = 50,
13:u:N1F0L1 = 50,
13:u:N1F0L2 = 50,
13:u:N1F0R1 = 98,
13:u:N1F0X0 = 98,
13:u:N1F0L1 = 98,
13:u:N1F0L2 = 98,
14:u:N1F0R1 = 121,
14:u:N1F0X0 = 121,
14:u:N1F0L1 = 121,
14:u:N1F0L2 = 121,
13:u:N1F0R1 = 87,
13:u:N1F0X0 = 87,
13:u:N1F0L1 = 87,
13:u:N1F0L2 = 87,
14:u:N1F0R1 = 238,
14:u:N1F0X0 = 238,
14:u:N1F0L1 = 238,
14:u:N1F0L2 = 238,
14:u:N1F0R1 = 231,
14:u:N1F0X0 = 231,
14:u:N1F0L1 = 231,
14:u:N1F0L2 = 231,
13:u:N1F0R1 = 89,
13:u:N1F0X0 = 89,
13:u:N1F0L1 = 89,
13:u:N1F0L2 = 89,
14:u:N1F0R1 = 200,
14:u:N1F0X0 = 200,
14:u:N1F0L1 = 200,
14:u:N1F0L2 = 200,
13:u:N1F0R1 = 88,
13:u:N1F0X0 = 88,
13:u:N1F0L1 = 88,
13:u:N1F0L2 = 88,
13:u:N1F0R1 = 41,
13:u:N1F0X0 = 41,
13:u:N1F0L1 = 41,
13:u:N1F0L2 = 41,
13:u:N1F0R1 = 90,
13:u:N1F0X0 = 90,
13:u:N1F0L1 = 90,
13:u:N1F0L2 = 90,
13:u:N1F0R1 = 53,
13:u:N1F0X0 = 53,
13:u:N1F0L1 = 53,
13:u:N1F0L2 = 53,
13:u:N1F0R1 = 54,
13:u:N1F0X0 = 54,
13:u:N1F0L1 = 54,
13:u:N1F0L2 = 54,
13:u:N1F0R1 = 91,
13:u:N1F0X0 = 91,
15:u:N1F0R1 = 8230,
15:u:N1F0X0 = 8230,
13:u:N1F0L1 = 91,
13:u:N1F0R1 = 93,
13:u:N1F0X0 = 93,
15:u:N1F0L1 = 8230,
13:u:N1F0L2 = 91,
13:u:N1F0L1 = 93,
15:u:N1F0L2 = 8230,
13:u:N1F0L2 = 93,
13:u:N1F0R1 = 52,
13:u:N1F0X0 = 52,
13:u:N1F0L1 = 52,
13:u:N1F0L2 = 52,
14:u:N1F0R1 = 192,
14:u:N1F0X0 = 192,
14:u:N1F0L1 = 192,
14:u:N1F0L2 = 192,
14:u:N1F0R1 = 199,
14:u:N1F0X0 = 199,
14:u:N1F0L1 = 199,
14:u:N1F0L2 = 199,
14:u:N1F0R1 = 251,
14:u:N1F0X0 = 251,
14:u:N1F0L1 = 251,
14:u:N1F0L2 = 251,
14:u:N1F0R1 = 249,
14:u:N1F0X0 = 249,
14:u:N1F0L1 = 249,
14:u:N1F0L2 = 249,
13:u:N1F0R1 = 51,
13:u:N1F0X0 = 51,
13:u:N1F0L1 = 51,
13:u:N1F0L2 = 51,
14:u:N1F0R1 = 239,
14:u:N1F0X0 = 239,
14:u:N1F0L1 = 239,
14:u:N1F0L2 = 239,
13:u:N1F0R1 = 42,
13:u:N1F0X0 = 42,
13:u:N1F0L1 = 42,
13:u:N1F0L2 = 42,
14:u:N1F0R1 = 202,
14:u:N1F0X0 = 202,
14:u:N1F0L1 = 202,
14:u:N1F0L2 = 202,
13:u:N1F0R1 = 58,
13:u:N1F0X0 = 58,
13:u:N1F0L1 = 58,
13:u:N1F0L2 = 58,
14:u:N1F0R1 = 194,
14:u:N1F0X0 = 194,
14:u:N1F0L1 = 194,
14:u:N1F0L2 = 194,
13:u:N1F0R1 = 44,
13:u:N1F0X0 = 44,
13:u:N1F0L1 = 44,
13:u:N1F0L2 = 44,
15:u:N1F0R1 = _x+1,
0=-0x1.4d06a805a4c9p-1
1=0x1.88a34be6d391ap-2
2=0x1.1766f6b445aa4p-5
3=-0x1.d9d68889495fdp-1
4=0x1.1729a0e15eec6p+1
5=-0x1.d34d88c1ed958p-2
6=0x1.c8818be863f59p-1
7=-0x1.a00aa39e92831p+0
8=-0x1.a3ffe4b2006aap+0
9=0x1.6fbfbad62fd5dp-3
10=-0x1.1e5111147852bp-3
11=-0x1.43b6fd523f1dp-5
12=0x1.a6eb08266db9p-11
13=-0x1.68ac766e71813p-11
15=0x1.a6eb08266db9p-11
16=-0x1.68ac766e71813p-11
18=0x1.5e0569c9df341p-2
19=-0x1.9df288f4ca9e4p-6
20=-0x1.2720bdb69736dp-2
21=-0x1.6b23210fdcb2ep-1
22=0x1.16702a59c7106p+0
23=-0x1.87252372d82a2p-2
24=-0x1.80a4dbf6afc58p-3
25=0x1.e198d301597c2p-2
26=-0x1.1fd374fa466cap-2
30=-0x1.b9f8661e95d35p-5
31=0x1.9eff05e071a28p-3
32=-0x1.41c68dda091e7p-3
33=-0x1.21afd94fd528dp-2
34=0x1.cd974c617afbp-2
35=-0x1.5525e78cc43fp-3
36=-0x1.996ecab0c7c0cp-2
37=0x1.2316263e0ff29p-2
38=0x1.9f0aeb83b038dp-5
39=-0x1.2682e70b1785cp-5
40=0x1.333188d8b1688p-4
41=-0x1.1c2d801f7269cp-5
42=-0x1.5467efc079777p-4
43=0x1.c88d15ebfbc6ep-3
44=-0x1.3c176b673bc32p-3
45=-0x1.27ca0250dec4p-2
46=0x1.2d91d7903fd9p-1
47=-0x1.33762dfd4a8ap-2
48=-0x1.1d2b29745f36fp-3
49=0x1.40ba8ac764b7bp-3
50=-0x1.21d7e86aa3a2ap-5
51=-0x1.c9e9fe25e8937p-4
52=0x1.61446e88b2845p-3
53=-0x1.2ba89e96248d1p-4
54=-0x1.8688dda35946p-6
55=0x1.597ac46c07382p-5
56=-0x1.553edd9d7de5bp-6
57=-0x1.9366424aa5069p-4
58=0x1.461d46251b4dbp-3
59=-0x1.e61113a14a192p-5
60=-0x1.9d07bc70ca7edp-3
61=0x1.f4dd77393fa6dp-2
62=-0x1.250519b596a4bp-2
63=-0x1.0aed070a136d7p-1
64=0x1.936aeb0e81637p-1
65=-0x1.0fa748bd9850cp-2
66=-0x1.4fa7705cf926p-4
67=0x1.cae95cfac88cdp-4
68=-0x1.d5d8b1bb8b163p-6
69=0x1.8408ad1dcf918p-5
70=-0x1.c93df80dc518ap-4
71=0x1.475c385ef84bcp-6
72=0x1.ecc94a40ee746p+1
73=-0x1.e1c7f736805f6p+0
74=-0x1.498bc0d78eb09p+1
75=0x1.e20b71cbf886fp-8
76=-0x1.5376e40d8ba1ap-4
77=0x1.2ea88dd561cc5p-4
78=0x1.d6e691c87c9bap-3
79=0x1.e44977e76935p-2
80=-0x1.54d53b2cad034p-1
81=-0x1.5df9841db9d93p+1
82=-0x1.ac37ea6bd8654p+0
83=0x1.0225de2d7b54ap+2
84=0x1.d9a631b80fd46p-1
85=-0x1.473bf7377b384p+1
86=0x1.625c36f5a727fp-1
87=0x1.d1017239a01eap-8
88=0x1.7d2d9778ac425p-7
89=-0x1.6a6b27bab78d3p-6
90=0x1.5de39671afdbap-1
91=-0x1.2c1f3b9fff884p+0
92=-0x1.6eeef5b62725cp-2
93=0x1.450c9d489c7c9p-1
94=-0x1.2ef619be7d5d1p+0
95=-0x1.1f5982ecdce97p-4
96=-0x1.4493a54c86ad1p-1
97=0x1.f01b23431c397p-1
98=-0x1.d13dfb30c932bp-1
99=-0x1.2bbc344d0cdabp-6
100=0x1.29c88fbb851a6p-6
101=-0x1.13f169acb6d75p-10
102=0x1.e4313736f6c24p-7
103=0x1.b6ce5dc7140b8p-8
104=-0x1.7630683059a46p-6
105=0x1.166b22d86db54p-5
106=-0x1.305287f03d234p-5
107=-0x1.38d023d40b65dp-4
108=-0x1.54f3e14334e56p-3
109=0x1.4697e59ec3986p-2
110=-0x1.3592eb63cb015p-3
111=-0x1.777c5cadc9d07p-5
112=0x1.3d0212a032e02p-4
113=-0x1.f403363f794eep-6
114=-0x1.710bc0d37c62p-6
115=0x1.0dd002c039691p-3
116=-0x1.05fe40f12bb69p-3
117=-0x1.7a1f2a0f32dfbp-3
118=0x1.6cf8155f85ebdp-2
119=-0x1.5d280219519dcp-3
120=-0x1.5b508bfd4135ep-3
121=0x1.326d8f560b44fp-2
122=-0x1.06e194184e05p-3
123=-0x1.e59092eb2fb55p-6
124=0x1.d68b43ff3b4cdp-5
125=-0x1.b23e005f0c945p-6
126=-0x1.2006bc131117fp-7
127=0x1.3c884fa51a308p-6
128=-0x1.2aee3d49a4912p-7
129=-0x1.6ba18fe7b75b2p-7
130=0x1.686ce9579abecp-6
131=-0x1.3aa8595f0983cp-7
132=-0x1.019919c7f8cabp-2
133=0x1.981301d003afdp-2
134=-0x1.2a4ad1798e773p-3
135=-0x1.5851f44e6ded6p-3
136=0x1.089641c35c3c6p-2
137=-0x1.3871cfe67288cp-4
138=-0x1.f0abe6143d26ap-7
139=0x1.10295508fb25ap-5
140=-0x1.145863ad8585dp-6
141=-0x1.eb4de629ca1b7p-5
142=0x1.4f6789a9b7c83p-4
143=-0x1.4cddac3a16f24p-6
144=-0x1.43936c44eee46p-10
145=0x1.1bea35cd7c10bp-8
146=-0x1.126f494b99a1ep-10
147=-0x1.5bec332b55227p-4
148=-0x1.502426677b178p-5
149=0x1.05f8db9bcb0fcp-3
150=0x1.c19b5bf073dcfp-2
151=-0x1.6b2c5be76f919p-2
152=-0x1.59c7beef194bbp-4
153=-0x1.2951fe63675c9p-1
154=0x1.1f65de576433bp+0
155=-0x1.186a787eaf25ep-1
156=0x1.99dc65fcf567ep-6
157=-0x1.9a92db915dc12p-4
158=0x1.07530200c0968p-3
159=-0x1.fdf7c9350119cp-6
160=0x1.af09534831cdp-8
161=0x1.ea42a5fa1bfe1p-7
162=0x1.9e3ce7e014112p-4
163=-0x1.e6d8b5a50c45cp-5
164=-0x1.5b78150c532dp-5
165=-0x1.0b2caed0269b9p-2
166=0x1.482cf2075eda3p-2
167=-0x1.f13b2b27ecf39p-5
168=-0x1.d8d0f433156edp-5
169=0x1.d1e83cc2918bcp-6
170=0x1.647bf30be4fe5p-6
171=0x1.7aba652bc90d4p-4
172=0x1.d09370bbf1d26p-4
173=-0x1.88caae0ca4392p-3
174=-0x1.0b1c1443fdad4p-1
175=0x1.8da6f7a80746ap-1
176=-0x1.129aaaf7fb21cp-2
177=-0x1.5ba303814d84ap-5
178=0x1.6534d621b459fp-3
179=-0x1.34076b2c4646ep-3
180=-0x1.092238789dfeep-2
181=0x1.0b4b806466b8bp-1
182=-0x1.0c204904ebc69p-2
183=-0x1.db998b5aabee8p-3
184=0x1.4dc51db424cf7p-2
185=-0x1.c993bf771eed7p-4
186=-0x1.237bbf7ecb47bp-3
187=0x1.81204ccfbadc4p-2
188=-0x1.a77fc6b2a85e7p-3
189=0x1.350febfc2fab2p-7
190=0x1.4729e91fa4659p-5
191=-0x1.246fcbf4a11c6p-5
192=0x1.b5439387e3c0dp-8
193=0x1.f60cf1eda259cp-5
194=-0x1.3848124aa2edap-5
195=-0x1.4a2dd28646aabp-6
196=-0x1.f62b3b2bd6bffp-8
197=0x1.cff4802bbafe1p-6
198=0x1.deea4422bf52p-4
199=-0x1.6bb594bf8888fp-4
200=-0x1.b5a3bcd128ac6p-6
201=0x1.d608e16f18384p-7
202=-0x1.a51b299904505p-8
203=-0x1.b08fd3f7456bcp-8
204=-0x1.f424ffd35b5aap-5
205=0x1.1a6abb2bd49ep-4
206=-0x1.bfa154f2e25d9p-8
207=-0x1.3b9d618828c8ep-3
208=0x1.c0ce27f5411a5p-3
209=-0x1.1604aee4e1cadp-4
210=-0x1.5f89f36093ec3p-9
211=-0x1.30817b58195eap-10
212=0x1.17eda0fe17803p-8
213=-0x1.cb0128d5f6564p-5
214=0x1.591b27129d66cp-4
215=-0x1.d48ed8619bac6p-6
217=0x1.07977f8d55cfbp-10
218=-0x1.d781a8bdde1bcp-11
219=0x1.c81ad76fd2211p-3
220=-0x1.7d04c31fbfa8fp-4
221=-0x1.fa18cc65ea4e9p-4
222=-0x1.a19e275d56fcap-2
223=0x1.343e41ab9794bp-1
224=-0x1.ad449fd0e8ac3p-3
225=-0x1.6e4ce06795633p-3
226=0x1.bda56af2e4256p-3
227=-0x1.dc23cee264b87p-5
228=-0x1.77dd6d6f06469p-3
229=0x1.8b3128a17d8d7p-2
230=-0x1.5afe6ba8431efp-3
231=-0x1.5326330142ca7p-5
232=0x1.99e638d84a917p-7
233=0x1.93a3d6c50c23fp-6
234=0x1.3e0782fd5641fp-3
235=-0x1.90b4e1bd81c98p-4
236=-0x1.d69cc0cfc6d97p-5
237=-0x1.3e7496a148a5cp-2
238=0x1.a26925b80a74p-2
239=-0x1.9e0783c1537cep-4
240=-0x1.56b5bdb76ad61p-5
241=0x1.bac3cd05487ep-6
242=0x1.e66fd3a4d4cb2p-7
243=-0x1.ba6a7bffa45p-6
244=-0x1.3664d8e2b4da5p-7
245=0x1.2bc4c7a4a1955p-5
246=0x1.289e45e93ee7cp-3
247=-0x1.d2b264e8e5d0ep-4
248=-0x1.ea15b5a29a691p-6
249=0x1.682d6e358eb5ap-4
250=-0x1.c1ada5a517b19p-5
251=-0x1.06746dcdda6bcp-5
252=-0x1.c2456f2aab0bbp-3
253=0x1.0a2427c4dd4fcp+0
254=-0x1.a2fd7bb93248fp-1
255=-0x1.3465eaa3a2c0bp-3
256=0x1.69e2db7e5c8a8p-2
257=-0x1.9c79ec41a00d6p-3
258=0x1.3468d03fadca3p-2
259=-0x1.2f2398920dd9ep-2
260=-0x1.d1bab5a32bc8cp-8
261=-0x1.9f40293788049p-5
262=0x1.3e9c6ec7b691fp-4
263=-0x1.d79f199203844p-6
265=-0x1.cc189e585b2d2p-10
266=0x1.988846b2ace7p-9
267=0x1.4dda127b4ce23p-5
268=0x1.252f056dca748p-7
269=-0x1.aed7e4349013cp-4
270=-0x1.59f756bb63503p-2
271=0x1.e42478c644504p-2
272=-0x1.246454fc215e9p-3
273=-0x1.3eb81cf91faa5p-3
274=0x1.7fc5ff2caf507p-3
275=-0x1.378520d4650ebp-5
276=-0x1.282166edc03cfp-4
277=0x1.bfef8374eda9p-4
278=-0x1.15310eb6ed5acp-5
279=-0x1.5a55ddec537ap-6
280=-0x1.2398dbce3b3bcp-7
281=0x1.046062c3de087p-5
282=0x1.0c0018ae5a58ep-3
283=-0x1.bd789aea51839p-4
284=-0x1.60da319d6fe5fp-6
285=-0x1.5510eaeda95f4p-4
286=0x1.542dd8b274c27p-3
287=-0x1.4ea192a33f53cp-4
288=-0x1.5b23dac07b894p-4
289=0x1.2cadd8a8a499ep-3
290=-0x1.f1cbb2c77e27ep-5
291=-0x1.d898db31187f9p-6
292=0x1.358490792eb3ep-7
293=0x1.7734963b1306p-7
294=0x1.5a17f7783beb1p-4
295=-0x1.bf9f5000b9b64p-5
296=-0x1.e45a7448b763p-6
297=-0x1.ff0b3124ee33cp-4
298=0x1.c774a575776b6p-3
299=-0x1.8d481a34142fep-4
300=-0x1.e885b6e477fb8p-5
301=0x1.1ea4f94e8c8b5p-4
302=-0x1.c5ab6dbba1023p-7
303=-0x1.773987465783ap-5
304=0x1.babc0d2b9dc37p-8
305=0x1.2533c71c6665bp-5
306=-0x1.cb6d59831e1a8p-6
307=0x1.ae32c7f691a05p-8
308=0x1.7ccf209adc899p-6
309=0x1.a1fc1258cd37cp-4
310=-0x1.19d44cd6a73d1p-4
311=-0x1.1a54d199532fep-5
312=-0x1.863645b65fe26p-4
313=0x1.4dccbb0b4b0bbp-3
314=-0x1.eb211d2b26ea4p-5
315=-0x1.3efb203bf73d1p-4
316=0x1.12540f7a53637p-3
317=-0x1.c0b603174202p-5
319=0x1.a0484c24dec12p-6
320=-0x1.bd69db3e77e9bp-6
321=-0x1.5a1b6c03283e7p-5
322=0x1.4079028768512p-4
323=-0x1.1c329eb18b411p-5
324=-0x1.1ef9b445656efp-5
325=0x1.f93488368773ep-5
326=-0x1.9f2db32e09b14p-6
327=-0x1.42c3bfdcdc604p-7
328=0x1.6f069b445e6c6p-6
329=-0x1.7784c0080dea2p-7
330=-0x1.003902356bff5p-6
331=0x1.337466a02a1a4p-5
332=-0x1.4c24c13a9e906p-6
333=-0x1.baa13f55cbb5p-6
334=0x1.dcb85bddb6027p-5
335=-0x1.e98783b165fdep-6
336=-0x1.3580cd4fae115p-5
337=0x1.8898d6fbaa73dp-5
338=-0x1.21d03d477ce7dp-7
339=-0x1.c61d9ddebdffap-8
341=0x1.f2055d6cbd884p-9
342=-0x1.737b357d23838p-7
343=0x1.c28976e28f5c9p-7
344=-0x1.1f197a4194edcp-9
345=0x1.07834d1cd702ep-9
346=0x1.351d1ffc08cf4p-8
347=-0x1.20528c1352e0ap-6
348=-0x1.bf1946fff12d6p-11
350=0x1.b76ccc6e2b2cbp-9
351=0x1.031e0e263bf8cp-5
352=0x1.0f345ce84f5ffp-7
353=-0x1.50afdf64fc9f9p-5
354=-0x1.33aa763e38e48p-5
355=0x1.18af4a5d05597p-4
356=-0x1.e620484369528p-6
357=-0x1.2a435d664c636p-3
358=0x1.a28294d4650f6p-3
359=-0x1.d5655d5a89653p-5
360=-0x1.21d23b60b946ap-5
361=0x1.e2980979c216ap-5
362=-0x1.6c43a77dd753fp-6
363=-0x1.128b6ee36ca18p-6
364=0x1.ef2db95de97c6p-8
365=0x1.06c6774aea163p-7
366=-0x1.f3444df86de52p-7
367=-0x1.96c1755465c89p-9
368=0x1.311da0b9c23f2p-6
369=0x1.4a7e5a8fc6bap-4
370=-0x1.b1e1697fa13bcp-7
371=-0x1.0e766d30e5e82p-4
372=0x1.add55d4fe9f13p-5
373=-0x1.e515529fa965p-5
374=0x1.d1f86fb857f8p-8
376=-0x1.7eb324e1871e4p-11
377=0x1.9607656addfacp-15
378=-0x1.f0d7785d1d415p-6
379=0x1.109f419b3d348p-4
380=-0x1.3a7aafee1c69bp-5
381=-0x1.c71ad0d64ac35p-5
382=0x1.97f108796bf84p-4
383=-0x1.5e2345c2700d2p-5
384=-0x1.b2b8943bd697ep-5
385=0x1.5cf42f625a7b9p-4
386=-0x1.b96e3b93b4447p-6
387=-0x1.a0c048c7e8b64p-6
388=0x1.1d190f7edf876p-5
389=-0x1.31e92795fbf1ap-7
390=-0x1.1bca7bb78b56fp-9
391=0x1.a8662532c61f8p-10
393=0x1.5afce3cc49876p-8
394=-0x1.c1adcca06761ep-11
395=-0x1.a488b56dcebfbp-9
396=-0x1.48358c42fb586p-7
397=0x1.4512227b538c5p-6
398=-0x1.1ad30e5182bbbp-7
399=-0x1.213d7e833b8eap-7
400=0x1.9cc60673c37ecp-7
401=-0x1.ce2fcff3815b6p-10
402=0x1.6019abefd496ap-8
403=0x1.4f533c5151288p-11
404=-0x1.6dc2129d50e6p-7
405=-0x1.bf780af5a5c5ap-6
406=0x1.8320381f7e876p-5
407=-0x1.318070951cf86p-6
408=-0x1.1453b8bdf0514p-6
409=0x1.2151239039935p-5
410=-0x1.190699ae4886p-6
411=-0x1.b126ad6d3d032p-6
412=0x1.613bed8e16e32p-5
413=-0x1.f81271f56ce51p-7
416=-0x1.397d53cb38294p-12
417=-0x1.0e288115524bdp-9
418=0x1.5f76dcb263b4fp-8
419=-0x1.fcfe2cd29bc3ep-10
420=-0x1.7d36a975d599cp-9
421=0x1.906a709261724p-8
422=-0x1.9c8f8c92ea96p-10
423=-0x1.379d10a57034bp-9
424=0x1.9746ef7499e4p-8
425=-0x1.001d8512745c2p-9
426=-0x1.3169b8e78f3aap-7
427=0x1.8684e3da476a3p-6
428=-0x1.5b349a50dbc71p-7
429=-0x1.dd8fd684f8542p-7
430=0x1.d9bf834042f19p-6
431=-0x1.ab5f469318f14p-7
432=-0x1.19c0e943ee945p-6
433=0x1.ed2793b477942p-6
434=-0x1.7308ebeba4ab1p-7
435=-0x1.2d0e419c41bf3p-6
436=0x1.ba768d17709c7p-6
437=-0x1.8bc613103f65bp-8
438=-0x1.5f0e0b8943283p-8
439=0x1.7c4a35541ed81p-9
440=0x1.1dcff4c31005p-13
441=0x1.d74617eb734a3p-7
443=-0x1.fc2b9d754edeep-8
444=-0x1.f4f757eec462ep-7
445=0x1.080ed492bfa6cp-5
446=-0x1.005a0879e2cb8p-6
447=-0x1.c9de776a441bbp-7
448=0x1.9fcc66cdea50cp-6
449=-0x1.4b2a6cc91be59p-7
450=0x1.72d52e66db002p-9
451=-0x1.0533e6027205ep-9
453=-0x1.3b2e16eff67a2p-9
454=0x1.8f01df425da96p-8
455=-0x1.1f6485be38482p-9
456=-0x1.a2d92018f6c61p-5
457=0x1.9a99bd3eb7015p-4
458=-0x1.87b6600a5a183p-5
459=-0x1.ef7866da68156p-5
460=0x1.cb824f1f36ad1p-4
461=-0x1.9ce83d09e8226p-5
462=-0x1.4fa6eb3213f57p-9
463=0x1.6f451d6c5018fp-8
464=-0x1.bec058df40c54p-10
465=-0x1.215f08620707ap-4
466=0x1.c57e6de5136a3p-4
467=-0x1.3d9ad0abfb9d2p-5
468=-0x1.fd6a814d90e0fp-9
469=0x1.228f0ab2c5e2fp-8
471=-0x1.66b3056b5b131p-5
472=0x1.b2ba63105dcadp-5
473=-0x1.dc441780fe13p-7
474=-0x1.099dce0234949p-6
475=0x1.f5c43218e4a9bp-9
476=0x1.b65fe61b0ea2ap-7
477=0x1.2d248b76e03c3p-4
478=-0x1.8bb19647a78c8p-5
479=-0x1.76a2509a26daep-6
480=-0x1.ed2e28969ab65p-4
481=0x1.54d4df6750d42p-3
482=-0x1.7c7369ae8315ep-5
483=-0x1.aefc1bf5c3f7ap-5
484=0x1.50a6f7a54c13cp-5
485=0x1.c9a6488d66285p-8
486=-0x1.cbb0f0fffdf4bp-7
487=0x1.2be8ae1e98c57p-5
488=-0x1.298978ae04bafp-6
489=-0x1.90eec0544a247p-6
490=0x1.ebf82da3c57aep-5
491=-0x1.18dcd31f833ffp-5
492=-0x1.7dc9bfff8bc16p-7
493=0x1.a55dedf0846b6p-6
494=-0x1.b4644c308db0ep-7
495=-0x1.4c7271fffa1f8p-6
496=0x1.196301ebdaa62p-4
497=-0x1.8d1593a7424e8p-5
498=-0x1.c3cf4e1d7112dp-8
499=0x1.211a931171ce9p-6
500=-0x1.eebfc6e908177p-8
501=-0x1.741b391f14a42p-7
502=0x1.61d70bc498782p-6
503=-0x1.15692349802ap-7
504=-0x1.90e4db40b8a6bp-7
505=0x1.5b27bbb5c2d0ap-6
506=-0x1.e51530e77efd1p-8
507=-0x1.5fb39f9c7e851p-7
508=0x1.1d4cc35dbb198p-5
509=-0x1.7c1b13291e303p-6
510=-0x1.bb218f1ba001ap-9
511=0x1.e5ffc908a189ep-7
512=-0x1.476e1b7bcee2cp-7
513=-0x1.690a4e2040e1fp-6
514=0x1.1f3db71d3d7e6p-5
515=-0x1.7d9a69f5a3321p-7
516=0x1.e8116385a1c08p-13
517=-0x1.71b78f3200e59p-10
518=0x1.63ef60b15ad4ap-10
520=0x1.1a8784eacc69fp-9
521=-0x1.b15052837092fp-11
522=-0x1.a39c17d2fa135p-11
523=-0x1.093be7ad7eddcp-10
524=0x1.7375798878281p-9
525=0x1.12d174bfa3ce6p-6
526=-0x1.7b629bbc394p-7
527=-0x1.fffa8562e6cccp-9
528=-0x1.eb82b4927af82p-7
529=0x1.eb27ba2173082p-6
530=-0x1.c70247a0dd084p-7
531=-0x1.74874189a8c68p-7
532=0x1.35013def7856cp-6
533=-0x1.631efb6827cdfp-8
534=0x1.227f03bf861acp-8
535=0x1.ed93f5c0971acp-11
536=-0x1.d47eb6796ae2cp-8
537=-0x1.303d407b19bbap-6
538=0x1.0982410cac88bp-5
539=-0x1.9afe99d40a09cp-7
540=-0x1.641e2bef462bcp-7
541=0x1.6313af9ac7a26p-6
542=-0x1.1fdb7ef311bbfp-7
543=-0x1.f01df54848334p-7
544=0x1.90ab2b16082a3p-6
545=-0x1.06a8777b53805p-7
546=0x1.098ee6fd9d612p-8
547=0x1.bdf52960028ap-6
548=-0x1.2fec10e19dafcp-5
549=-0x1.53ecdf69502p-4
550=0x1.09fd338bbf992p-3
551=-0x1.79a0d4d576389p-5
552=-0x1.7152c0cfe4c91p-5
553=0x1.0cb0270c82eb8p-4
554=-0x1.6c3c8e94e791bp-6
555=-0x1.bc806773b67b5p-6
556=0x1.a0c07643e0962p-5
557=-0x1.6dd184585814fp-6
558=-0x1.c4f23d0f3f739p-9
559=-0x1.d1a711ac3bc22p-13
560=0x1.28da2630cc08p-8
561=0x1.603f7b117777cp-8
562=-0x1.4ea25a330be46p-8
563=-0x1.0062c9e707184p-14
564=-0x1.0056f6c2b8f13p-10
565=-0x1.0173f38e1ef56p-7
566=0x1.3f6ffdeddb76ap-7
570=-0x1.8d153980cec44p-10
572=0x1.457a20958b1cp-9
573=0x1.d35e061635167p-7
574=-0x1.71c72384acf1bp-7
575=-0x1.ae9174b9a97acp-10
576=-0x1.05bb34e7d1b8ep-6
577=0x1.37fe980fc443cp-5
578=-0x1.5312fa7c043b5p-6
579=-0x1.1b450f77451dep-9
580=0x1.204b750732f49p-8
581=-0x1.965176bbf68ecp-11
582=-0x1.5d9114d5c4f8ap-11
583=0x1.a6d26d8df1559p-9
584=-0x1.39ebc60ed5db1p-10
585=-0x1.4326e3fca1913p-9
586=0x1.2610bc74b846fp-8
587=-0x1.c635113aa973cp-12
588=-0x1.bf975ed3c9127p-11
589=0x1.1ea9512072f18p-9
590=-0x1.62bc03cd4dc08p-13
591=-0x1.feab75857475ap-10
592=0x1.2f8ca581133e4p-8
593=-0x1.58f811ac37969p-10
594=-0x1.2951552e31122p-6
595=0x1.6cbf41c08c8bcp-6
596=-0x1.a1d792adec29dp-9
597=0x1.42f29a0f9121cp-11
598=0x1.2ad8930ec512cp-7
599=-0x1.2b777f664ea02p-6
600=-0x1.ae8d51b94e44cp-5
601=0x1.6ebf93f29bdc3p-4
602=-0x1.2a9a40d6387d8p-5
603=-0x1.de79031137bcbp-6
604=0x1.697b204cefc19p-5
605=-0x1.01a7de7572557p-6
606=-0x1.7037b2a1c18eep-9
607=0x1.56420531172fcp-7
608=-0x1.8aef62f0c9763p-8
609=-0x1.08644af22de86p-6
610=0x1.1602702e97e23p-5
611=-0x1.0c7194af4f474p-6
612=0x1.914210ebc146ep-10
613=-0x1.130024b9d08cap-8
614=0x1.40641a503419ap-10
618=-0x1.4bac981e23f89p-11
620=0x1.0a02ae60a5aacp-10
621=0x1.4129cb5ad0cc4p-7
622=-0x1.0ab5d99ea9bcbp-11
623=-0x1.bdeb07cc6545cp-9
624=-0x1.7b2cd41c1baaep-7
625=0x1.792bc6b69afdbp-6
626=-0x1.4986afc918affp-7
627=-0x1.497dfa172f9dcp-7
628=0x1.0311c06012e96p-6
629=-0x1.0650435dd5034p-8
630=-0x1.0721eef2f3649p-8
631=-0x1.0625c5e215f75p-9
632=0x1.e767af83a17ebp-8
633=0x1.1f5faf6a08497p-5
634=-0x1.e7070558f5e04p-6
635=-0x1.11596b44eae32p-8
636=-0x1.7c35c07bffe21p-6
637=0x1.7938161c47793p-5
638=-0x1.6212cf9e14ff1p-6
639=-0x1.941d9578de313p-6
640=0x1.1498d6e440ca6p-5
641=-0x1.f664876921baep-8
644=0x1.c34a0c23eb9bcp-12
645=0x1.0278a280b3418p-7
647=-0x1.bb26e1e51218p-8
648=0x1.1797911af4d5fp-7
649=-0x1.583a3eca9cee3p-9
650=-0x1.1c6d1f7f1a17cp-8
654=-0x1.1f6edf4bfcf49p-6
655=0x1.33e1712f355dp-5
656=-0x1.2b5983f4e2aebp-6
657=-0x1.c6f30e48358b7p-6
658=0x1.0558adcd4a8e1p-4
659=-0x1.e9c68cc3419afp-6
660=-0x1.4faa38ff4b59ap-5
661=0x1.37fbae2e028b3p-4
662=-0x1.15a929029c961p-5
663=-0x1.43b235853a829p-7
664=0x1.1298e81152e18p-6
665=-0x1.dc89324a6628bp-8
667=0x1.6656c9544c332p-13
669=-0x1.f096f6ed17fdcp-15
670=0x1.7fe3bce3d4b36p-11
676=0x1.ad1123cf6adaap-14
681=0x1.67a468b663944p-10
682=-0x1.c5b1f4052d566p-14
684=-0x1.1f21701494eccp-10
685=0x1.9e1691d1acb2p-9
686=-0x1.32bdb4fd50257p-11
687=-0x1.2787f979df3cbp-10
688=0x1.33bd7f22a39bp-8
689=-0x1.343606044e2aep-9
690=-0x1.dc18ed1947d93p-8
691=0x1.741cca5e930aap-7
692=-0x1.6e01a9a5e9fa3p-9
693=-0x1.3d1b9c51b9cb5p-10
694=0x1.7b28c1003886ep-9
695=-0x1.e8e355cc8b49ep-13
697=-0x1.83ce33e9f46eap-11
698=0x1.c6dca237ea88ap-11
702=-0x1.464d8be9ed859p-10
704=0x1.bd80cea2cbc4ap-11
705=0x1.eda1e5f9a888dp-8
706=-0x1.49c0a5479ad3fp-8
707=-0x1.31e63a3558018p-10
708=-0x1.7a5055d9f966ep-8
709=0x1.79717b0e46ee2p-7
710=-0x1.01bf21570baap-8
711=-0x1.da7474a50ce0dp-9
712=0x1.00c7e46fc7fb3p-7
713=-0x1.1dd08f21bb6ffp-9
714=0x1.ce748a5d024p-23
717=-0x1.89149fd7c3fa6p-11
718=0x1.45bfde161165ep-9
719=-0x1.5f691b7247f32p-12
720=-0x1.8cd3c286330a6p-11
721=0x1.435e6ce33c658p-8
722=-0x1.63fbdcee25421p-9
723=-0x1.67d180ca7c5d1p-9
724=0x1.8daecd9945f09p-9
727=0x1.4f5f07fbe0382p-10
728=-0x1.c4a0911b57914p-14
729=-0x1.67c76dbf0bd1ep-12
730=0x1.ca4deb390c8aep-10
732=-0x1.ceb282a1e27e2p-14
733=0x1.8cbcf3d3881cep-10
734=-0x1.feeabfa05375fp-14
735=-0x1.64aaeca405fe9p-10
736=0x1.cd0c31bb275dfp-10
741=0x1.b0428b2ce9f12p-11
743=-0x1.08f475d00b634p-10
745=0x1.c876c8d864319p-12
746=-0x1.ef536d2e22859p-11
747=-0x1.05ce803f59c36p-8
748=0x1.1fac16152b89ep-7
749=-0x1.af2476657fc45p-9
750=-0x1.97f4c657900ddp-9
751=0x1.8f6467ba89046p-8
752=-0x1.a100b7e66210bp-10
757=0x1.0de48e1ac51aap-8
758=-0x1.64712866ff94p-9
759=-0x1.7bef4d1f25ba5p-8
760=0x1.9430b68b60029p-7
761=-0x1.4fb61d08cff9p-8
762=-0x1.0bd05d8d049fdp-9
763=0x1.60e25e00fee68p-8
764=-0x1.e00749c71370fp-10
771=-0x1.ad994bbe2abc8p-11
772=0x1.702bf324f728fp-8
773=-0x1.bb798d7cceff1p-9
774=-0x1.2064169cffbdfp-8
775=0x1.8643757649173p-8
776=-0x1.26883bb9e4d2ep-13
777=-0x1.a3cd4d9bb7fd8p-15
778=0x1.d61ae5d5d48b8p-9
779=-0x1.178d4f750cec6p-9
784=0x1.1608953d8f66ep-10
785=-0x1.9060b6fcca004p-11
786=-0x1.4abcc70e1ade3p-8
787=0x1.e783ccdaa887fp-7
788=-0x1.13d6124ce0b4ap-7
789=-0x1.b385b6670a449p-7
790=0x1.9e89a53f164e6p-6
791=-0x1.5b2f929fbd2f6p-7
792=-0x1.60489ac3b1f43p-10
793=0x1.acb1b3c433839p-8
794=-0x1.e9e573884c538p-9
795=-0x1.3d92da008b64cp-8
796=0x1.bd4a9cb559077p-8
797=-0x1.42f50dcdb5c84p-11
801=-0x1.db478ec080f6ap-10
802=0x1.3556232e2fe9ap-8
803=-0x1.818a5cf4397c9p-10
804=-0x1.490766194ebe7p-10
805=0x1.9e04c3e432fa5p-9
806=-0x1.3396fff10a819p-11
810=-0x1.e16782b5f1777p-9
811=0x1.76540782621ecp-7
812=-0x1.bd6a366ff1b4ep-8
813=-0x1.2f17f9a83aca8p-7
814=0x1.1a4a52c16b32dp-6
815=-0x1.aa73624678d27p-8
816=-0x1.fe8ad4251da88p-8
817=0x1.04174abcdb416p-6
818=-0x1.7d2e52a3ab7p-8
819=-0x1.5dde0ee30151fp-7
820=0x1.472c299bcda42p-6
821=-0x1.05ea5aec2556dp-7
822=-0x1.53777b2d3e095p-10
823=0x1.642636ed6db1bp-8
824=-0x1.774221c8c2a83p-9
825=-0x1.857f7fa6f2938p-8
826=0x1.4ae7429285a82p-7
827=-0x1.4f9094c0935afp-9
828=-0x1.e9706cbc3d705p-9
829=0x1.49b93c886c763p-8
830=-0x1.e7fe18e3e6d68p-13
831=-0x1.73cd0e1981842p-10
832=0x1.68c6015e22886p-9
833=-0x1.3d2f8c026d157p-13
862=0x1.a015008636bcdp-13
865=0x1.b88ef1bac3fefp-13
874=0x1.e19b2d7d4fde5p-14
877=0x1.be9b435b6cee4p-11
879=-0x1.37b7bb93b743cp-11
880=0x1.a661f1ac7946cp-11
895=0x1.3575626f09a9p-11
897=-0x1.0eea967cc29a7p-12
898=0x1.18546cdd4d516p-9
899=-0x1.1496e404e1b09p-11
904=0x1.fde7cfb0cde46p-14
925=0x1.cb50de069b69p-16
927=-0x1.f9a3852491712p-14
928=0x1.1c9b03ca65924p-12
933=-0x1.81c850b14d856p-12
934=0x1.31b2b8f389e0fp-11
937=0x1.3cc8b26874207p-9
938=-0x1.0e72785b0e40ep-9
939=-0x1.45413571986dp-12
940=0x1.2e2a8c34b962cp-12
949=0x1.df772924562e5p-11
950=-0x1.add2c5833896p-12
964=0x1.631391b07e8edp-10
965=-0x1.d34f4628fa3d5p-12
967=0x1.c41fded2b063bp-10
968=-0x1.9e3a99fd0e921p-11
970=0x1.f1c032b9863c5p-10
971=-0x1.92e4d54c2460ap-11
972=-0x1.18d35bff6c2d5p-9
973=0x1.3968b8b8f1a52p-9
975=-0x1.a2e159d6fba6dp-10
976=0x1.d91c939db7762p-10
978=-0x1.1c2c92110834p-9
979=0x1.3c5f8d5cba368p-9
994=0x1.048cee48e7bcp-12
995=-0x1.b5befe3cb32d9p-12
996=-0x1.08fa8bb85406bp-10
997=0x1.79c2d9437f8bp-9
998=-0x1.1657f1427be7p-11
1002=-0x1.d5d15780a1128p-13
1004=0x1.ec423f8b202c6p-12
1005=0x1.d0a57c2a5402cp-12
1006=-0x1.5ebc3a3766975p-12
1009=-0x1.54981f5d78663p-10
1010=0x1.e1ec954469d08p-10
1021=0x1.e3d7e7459d5a4p-11
1022=-0x1.e54b401ec7532p-14
1033=0x1.e9c2dc911ad81p-11
1038=0x1.646924ce1a2f5p-13
1041=-0x1.02e1f88fa31e3p-8
1042=0x1.86fbd9e3eb467p-8
1043=-0x1.3f9c86778873bp-11
1053=-0x1.18de3317f16bap-13
1054=0x1.5a1ee526f33b9p-11
1060=0x1.382b4755331a3p-11
1061=-0x1.2ca01a7696ad9p-11
