#mdl#2#384
#rdr#3/0/0
1:b,
18:u:N1F0X0 = %X[0,0],
19:u:N1F0L1 = %X[-1,0],
#qrk#3
1:T,
1:O,
1:I,
#qrk#190
1:b,
16:u:N1F0X0 = 42567,
15:u:N1F0L1 = _x-1,
13:u:N1F0X0 = 32,
16:u:N1F0L1 = 42567,
15:u:N1F0X0 = 1074,
13:u:N1F0L1 = 32,
15:u:N1F0X0 = 1100,
15:u:N1F0L1 = 1074,
15:u:N1F0X0 = 1083,
15:u:N1F0L1 = 1100,
15:u:N1F0X0 = 1123,
15:u:N1F0L1 = 1083,
15:u:N1F0X0 = 1079,
15:u:N1F0L1 = 1123,
15:u:N1F0X0 = 1098,
15:u:N1F0L1 = 1079,
15:u:N1F0L1 = 1098,
15:u:N1F0X0 = 1082,
15:u:N1F0X0 = 1086,
15:u:N1F0L1 = 1082,
15:u:N1F0X0 = 1088,
15:u:N1F0L1 = 1086,
15:u:N1F0X0 = 1072,
15:u:N1F0L1 = 1088,
15:u:N1F0X0 = 1073,
15:u:N1F0L1 = 1072,
15:u:N1F0L1 = 1073,
15:u:N1F0X0 = 1080,
15:u:N1F0X0 = 1155,
15:u:N1F0L1 = 1080,
15:u:N1F0X0 = 1089,
15:u:N1F0L1 = 1155,
15:u:N1F0L1 = 1089,
15:u:N1F0X0 = 1087,
15:u:N1F0L1 = 1087,
15:u:N1F0X0 = 1076,
15:u:N1F0X0 = 1077,
15:u:N1F0L1 = 1076,
15:u:N1F0L1 = 1077,
15:u:N1F0X0 = 1075,
15:u:N1F0L1 = 1075,
16:u:N1F0X0 = 42566,
16:u:N1F0L1 = 42566,
15:u:N1F0X0 = 1085,
15:u:N1F0L1 = 1085,
15:u:N1F0X0 = 1127,
15:u:N1F0L1 = 1127,
15:u:N1F0X0 = 1084,
15:u:N1F0L1 = 1084,
15:u:N1F0X0 = 1091,
15:u:N1F0L1 = 1091,
15:u:N1F0X0 = 1078,
15:u:N1F0L1 = 1078,
15:u:N1F0X0 = 1097,
15:u:N1F0L1 = 1097,
15:u:N1F0X0 = 1131,
15:u:N1F0L1 = 1131,
15:u:N1F0X0 = 1093,
15:u:N1F0L1 = 1093,
15:u:N1F0X0 = 1095,
15:u:N1F0L1 = 1095,
15:u:N1F0X0 = 1081,
15:u:N1F0L1 = 1081,
15:u:N1F0X0 = 1090,
15:u:N1F0L1 = 1090,
15:u:N1F0X0 = 1096,
15:u:N1F0L1 = 1096,
15:u:N1F0X0 = 1133,
15:u:N1F0L1 = 1133,
16:u:N1F0X0 = 42577,
16:u:N1F0L1 = 42577,
15:u:N1F0X0 = 1094,
15:u:N1F0L1 = 1094,
15:u:N1F0X0 = 1157,
15:u:N1F0L1 = 1157,
15:u:N1F0X0 = 1102,
15:u:N1F0L1 = 1102,
16:u:N1F0X0 = 11750,
15:u:N1F0X0 = 1159,
16:u:N1F0L1 = 11750,
15:u:N1F0L1 = 1159,
16:u:N1F0X0 = 11757,
16:u:N1F0L1 = 11757,
15:u:N1F0X0 = 1109,
15:u:N1F0L1 = 1109,
15:u:N1F0X0 = 1092,
15:u:N1F0L1 = 1092,
15:u:N1F0X0 = 1156,
15:u:N1F0L1 = 1156,
15:u:N1F0X0 = 1058,
15:u:N1F0L1 = 1058,
16:u:N1F0X0 = 11753,
16:u:N1F0L1 = 11753,
15:u:N1F0X0 = 1057,
15:u:N1F0L1 = 1057,
15:u:N1F0X0 = 1129,
15:u:N1F0L1 = 1129,
16:u:N1F0X0 = 11755,
16:u:N1F0L1 = 11755,
16:u:N1F0X0 = 42569,
16:u:N1F0L1 = 42569,
14:u:N1F0X0 = 774,
14:u:N1F0L1 = 774,
15:u:N1F0X0 = 1042,
15:u:N1F0L1 = 1042,
15:u:N1F0X0 = 1120,
15:u:N1F0L1 = 1120,
15:u:N1F0X0 = 1055,
15:u:N1F0L1 = 1055,
15:u:N1F0X0 = 1045,
15:u:N1F0L1 = 1045,
15:u:N1F0X0 = 1053,
15:u:N1F0L1 = 1053,
15:u:N1F0X0 = 1110,
15:u:N1F0L1 = 1110,
15:u:N1F0X0 = 1054,
15:u:N1F0L1 = 1054,
15:u:N1F0X0 = 1048,
15:u:N1F0L1 = 1048,
15:u:N1F0X0 = 1040,
15:u:N1F0L1 = 1040,
15:u:N1F0X0 = 1050,
15:u:N1F0L1 = 1050,
15:u:N1F0X0 = 1043,
15:u:N1F0L1 = 1043,
15:u:N1F0X0 = 1060,
15:u:N1F0L1 = 1060,
15:u:N1F0X0 = 1044,
15:u:N1F0L1 = 1044,
16:u:N1F0X0 = 11756,
16:u:N1F0L1 = 11756,
16:u:N1F0X0 = 42623,
16:u:N1F0L1 = 42623,
15:u:N1F0X0 = 1141,
15:u:N1F0L1 = 1141,
14:u:N1F0X0 = 776,
14:u:N1F0L1 = 776,
15:u:N1F0X0 = 1041,
15:u:N1F0L1 = 1041,
15:u:N1F0X0 = 1121,
15:u:N1F0L1 = 1121,
16:u:N1F0X0 = 11761,
16:u:N1F0L1 = 11761,
15:u:N1F0X0 = 1046,
15:u:N1F0L1 = 1046,
16:u:N1F0X0 = 11744,
16:u:N1F0L1 = 11744,
13:u:N1F0X0 = 63,
13:u:N1F0L1 = 63,
13:u:N1F0X0 = 46,
13:u:N1F0X0 = 45,
13:u:N1F0L1 = 46,
13:u:N1F0L1 = 45,
15:u:N1F0X0 = 1122,
15:u:N1F0L1 = 1122,
15:u:N1F0X0 = 1070,
15:u:N1F0L1 = 1070,
15:u:N1F0X0 = 1064,
15:u:N1F0L1 = 1064,
15:u:N1F0X0 = 1047,
15:u:N1F0L1 = 1047,
16:u:N1F0X0 = 11745,
16:u:N1F0L1 = 11745,
15:u:N1F0X0 = 1056,
15:u:N1F0L1 = 1056,
15:u:N1F0X0 = 1063,
15:u:N1F0L1 = 1063,
16:u:N1F0X0 = 11751,
16:u:N1F0L1 = 11751,
15:u:N1F0X0 = 1062,
15:u:N1F0L1 = 1062,
16:u:N1F0X0 = 42585,
16:u:N1F0L1 = 42585,
15:u:N1F0X0 = 1139,
15:u:N1F0L1 = 1139,
16:u:N1F0X0 = 11759,
16:u:N1F0L1 = 11759,
15:u:N1F0X0 = 1099,
15:u:N1F0L1 = 1099,
16:u:N1F0X0 = 11758,
16:u:N1F0L1 = 11758,
16:u:N1F0X0 = 11760,
16:u:N1F0L1 = 11760,
13:u:N1F0X0 = 61,
13:u:N1F0L1 = 61,
15:u:N1F0X0 = 1052,
15:u:N1F0L1 = 1052,
16:u:N1F0X0 = 11768,
16:u:N1F0L1 = 11768,
0=-0x1.26809cd7dbffp+0
1=-0x1.a0b6b656af85ap-1
2=0x1.d36e12aa9ccffp-1
3=0x1.c4c698e01cb46p+0
4=-0x1.214052f530521p+0
5=-0x1.a60c13deba91dp+0
6=-0x1.9e0ebd148b5a1p+0
7=0x1.c6b6cd5fc0c2ap-1
8=0x1.441250cc66429p+1
9=0x1.131dab23d2f21p-3
10=-0x1.25ec4b681db9ap-5
11=-0x1.9848a8b532bb4p-4
12=0x1.2f4815ddc06e2p-13
14=-0x1.5d8f8a4536112p-14
15=-0x1.44408d1bbcb03p-1
16=0x1.5abdfb0d6d345p+1
17=-0x1.1082c81d89a16p+1
18=-0x1.4f749d0d7c7c1p-5
19=0x1.71d17f7384acfp-4
20=-0x1.90313a1cdb05p-5
21=0x1.3f5b029a740b5p-3
22=-0x1.21e15593538bfp-3
23=0x1.3c2863fd4f434p-7
24=0x1.5e885d1017c92p+1
25=-0x1.48ef6aeffd29cp-1
26=-0x1.128745986139ap+1
27=-0x1.348a2a090462bp-4
28=-0x1.3c3dfd5c39e45p-4
29=0x1.38e2699566df1p-3
30=-0x1.5120c251b3206p-3
31=-0x1.37caf678860d8p-3
32=0x1.44b50756806dep-2
33=-0x1.048451b7715ddp-4
34=-0x1.aa11f0de14756p-4
35=0x1.57c9772d8aa16p-3
36=-0x1.15a8e1bec2bbap-4
37=0x1.8bd59577d5a93p-5
38=0x1.296f90f3b7251p-6
39=-0x1.c3f1e9b056588p-5
40=-0x1.0d35af1c5f469p-3
41=0x1.93a9643d2e51bp-3
42=-0x1.b3669b0263a3p-4
43=-0x1.acdcdfbebcab5p-4
44=0x1.b0a0134357db6p-3
45=-0x1.b9e10b2818656p-9
46=-0x1.8831908245f5dp-5
47=0x1.976106670cdd5p-5
48=-0x1.0bf4e8c03f11ep-3
49=-0x1.06c0bfa649bd5p-7
50=0x1.bb5fe90766bd5p-4
51=-0x1.016f3864fbf47p-2
52=-0x1.13d761be5664dp-2
53=0x1.0ac2e28a5b239p-1
54=-0x1.96d7f59366355p-5
55=-0x1.2dc41c5dc431bp-5
56=0x1.634ab4be24a65p-4
57=-0x1.c688e8f4c23bap-3
58=0x1.ea0506e89fc3p-2
59=-0x1.0aaafd0505b2dp-2
60=0x1.37919b8e64a4cp-8
61=-0x1.2d674b6d77debp-4
62=0x1.9ec9b8c4fe7fbp-5
63=-0x1.950b0380f257ep-5
64=-0x1.0ace5605f2b76p-2
65=0x1.fb70fc2c1f9adp-3
66=-0x1.49ddd713d3364p-4
67=-0x1.314df255b4786p-4
68=0x1.3e143a978b92fp-3
69=-0x1.4eb28ddce7f28p-5
70=-0x1.004d893151b8fp-3
71=0x1.57182a33617bep-3
72=-0x1.1062250bf2febp-2
73=-0x1.5e247e55bc677p-6
74=0x1.ccb132b06206fp-3
75=-0x1.31e9676e90dfcp-3
76=-0x1.b75d5ae0b83cap-3
77=0x1.74e28c1908767p-2
78=-0x1.0f61c5beb2e1cp-3
79=-0x1.0925991361c18p-3
80=0x1.0c82da5a6e286p-2
81=0x1.13927a4af4916p-4
82=-0x1.121452affd254p-4
83=0x1.cff2aca897e65p-8
84=-0x1.a7b39a90a2b53p-3
85=0x1.d5535e76b0131p-6
86=0x1.160229dbff60bp-3
87=-0x1.50b97cc88c3d2p-4
88=-0x1.25d75f6bcf443p-4
89=0x1.3bc6c3fcf57bp-3
90=0x1.1b5977d68046ap-6
91=-0x1.193186e109165p-2
92=0x1.b4eff287f271fp-3
93=-0x1.2b8dc42a8918fp-4
94=-0x1.0d3b0b9f0da22p-4
95=0x1.1ce2bdc793183p-3
96=-0x1.116acb6db7db3p-2
97=0x1.9109010b0cbbdp-3
98=0x1.229c7fdb3704bp-4
99=0x1.4d293c9a845cfp-3
100=-0x1.63ef0573cbc66p-3
101=0x1.831122eb39748p-6
102=-0x1.10f5964747e25p-4
103=-0x1.fd5fb4fbce52bp-5
104=0x1.08510e455f409p-3
105=-0x1.95d9f10606861p-3
106=-0x1.4f37a603840b5p-3
107=0x1.72c7f676292a9p-2
108=0x1.2c666ddd5ca41p-3
109=-0x1.005a970a3728bp-4
110=-0x1.6ec0f07f36302p-4
111=-0x1.6eeaa6f75f67cp-4
112=-0x1.2048dbc7814a6p-4
113=0x1.4818174238127p-3
114=-0x1.78274b6ca47e8p-7
115=-0x1.f64d975e8c658p-4
116=0x1.9e32919dd568fp-4
117=-0x1.8e25106ddc5c2p-4
118=-0x1.18e59a91a4e69p-2
119=0x1.8b7c36ff2c68p-2
120=-0x1.0afbc58f6baadp-3
121=-0x1.f400c2e2a7c79p-4
122=0x1.02bd3e71c39dep-2
123=-0x1.095b7876722fdp-2
124=0x1.005a942d3c9d9p-2
125=0x1.c507baa671d7cp-6
126=0x1.a11852637273dp-5
127=-0x1.122fd7a953ea5p-4
128=0x1.fcac7c6ace142p-7
129=-0x1.478078239a8cbp-4
130=-0x1.199036c7d719fp-4
131=0x1.3106ad58808d4p-3
132=0x1.eab901d51d69fp-8
133=-0x1.be8d6180e8ecap-10
134=-0x1.37a09de0a3d8ap-8
135=-0x1.26d58341318cfp-9
136=0x1.cac488d832323p-9
137=-0x1.1ddf422b0f634p-14
138=0x1.9abe404310393p-4
139=-0x1.3cd9420eb49aep-3
140=0x1.b341921a5e9cp-5
141=-0x1.59133fcb95af5p-3
142=-0x1.3661ca6ad4adap-3
143=0x1.47f9b00c99071p-2
144=-0x1.0ad7e6d10a71cp-4
145=-0x1.15a7074a94b3p-4
146=0x1.10bdccf0974fap-3
147=-0x1.a6d4c409763cep-5
148=0x1.931727e1dbc05p-4
149=-0x1.a473a3e11709p-5
150=-0x1.14c0b6361a744p-7
151=-0x1.ef85ce179d911p-4
152=0x1.8b2ecf3713ad8p-4
153=-0x1.0603b27fb6de1p-3
154=-0x1.efeb341baf611p-4
155=0x1.fe77a27056374p-3
156=-0x1.a8403671f8778p-5
157=-0x1.08644a73fc1c2p-4
158=0x1.dd81117287cep-4
159=-0x1.c2c493bc4bdf1p-5
160=0x1.11e7d4bdc9701p-5
161=0x1.513dfb7e6a893p-6
162=0x1.48f9ccc9f2d96p-5
163=-0x1.01c5fb14aeb0ap-4
164=0x1.7131a3a89767cp-6
165=-0x1.2151143f8699bp-4
166=-0x1.06ee3c61cfbd7p-4
167=0x1.149dfe3372e9dp-3
168=-0x1.2438be4a0016fp-7
169=-0x1.2fd4d0fe9a713p-7
170=0x1.2df976ba8b0afp-6
171=-0x1.213627600f0bep-7
172=-0x1.09eac4ad8bd37p-7
173=0x1.1983251d0b364p-6
174=-0x1.a9eddc73e79ccp-5
175=-0x1.bc1b001210688p-5
176=0x1.b4011a088b747p-4
177=-0x1.6d286511428c1p-5
178=0x1.492bc4f40ee47p-5
179=0x1.60de85cf2dbb1p-8
180=-0x1.1544d5908bd8dp-7
181=-0x1.20758da5e6034p-5
182=0x1.67c01a9527dacp-5
183=-0x1.2e8cf97a7d385p-5
184=-0x1.211f1c9ab4e8cp-5
185=0x1.28d2b6d0287e6p-4
186=0x1.1e4b318c1c734p-8
187=-0x1.693058ccc3defp-5
188=0x1.e93b3cfe14573p-6
189=-0x1.8a237e246f0a5p-5
190=-0x1.5924c43ba8a2p-5
191=0x1.72a0ccf59b479p-4
196=0x1.1794f3d108bb6p-12
197=-0x1.23fd7c0b5dc6cp-13
198=-0x1.61f6dc80f55c6p-4
199=-0x1.8b2f2225d487cp-3
200=0x1.2df1610625cd2p-2
201=-0x1.8e35fd46321dep-3
202=-0x1.9c279279147e7p-3
203=0x1.956df2d10725fp-2
204=-0x1.07209113b1a9p-4
205=-0x1.3ca89e6911b48p-4
206=0x1.2262eda129675p-3
207=-0x1.2f07117eb0b9ap-4
208=-0x1.1184d8e2fe102p-4
209=0x1.20c44b139f1edp-3
210=-0x1.31ec87f4ce8bap-6
211=-0x1.e944ca6ad73a9p-6
212=0x1.8f9200baf1c4ep-5
213=-0x1.75365e00e9bf8p-6
214=0x1.cbd73656e4761p-6
215=-0x1.0bb30bcc61ee3p-8
216=-0x1.86598e69a1e1cp-5
217=-0x1.9a0586484cbe3p-5
218=0x1.912c361e86c34p-4
219=-0x1.47ba9e072b94ap-5
220=0x1.b64b7ee3b674p-5
221=-0x1.586190d78b363p-7
222=-0x1.38311c38f674cp-8
223=-0x1.7f5717704717bp-6
224=0x1.cf516473fee05p-6
225=-0x1.95a2ec5644a9ap-6
226=-0x1.7e5e85766cac5p-6
227=0x1.8bfa1071778cdp-5
228=-0x1.017d94352d65p-7
229=-0x1.1cf66c4337041p-7
230=0x1.132caf526ffb2p-6
231=-0x1.81201d365a59ap-8
232=0x1.494e84cfd3411p-7
233=-0x1.c8156bed8ac03p-10
234=-0x1.385e05b9fae84p-7
235=-0x1.db2b21b9e4fcp-7
236=0x1.8db742d02db99p-6
237=-0x1.9b99b76f4e453p-7
238=0x1.cb11bf1cc2d76p-8
239=0x1.55a78cece74c5p-8
243=-0x1.d8da45843e90ap-11
244=-0x1.eb953bbb556dfp-11
245=0x1.10b15901d335bp-9
249=-0x1.af095519f1d2bp-11
251=0x1.5abd2e54c1eecp-11
253=-0x1.587ecba45cfc4p-17
254=0x1.f720d73734b69p-13
255=-0x1.148b9bb8f414cp-17
256=-0x1.bf8f9b255c86cp-16
257=0x1.327e0518efc44p-12
258=-0x1.1eee5161b7eacp-10
259=-0x1.94ea77ede44acp-9
260=0x1.2b2cb2b98a0ecp-8
261=-0x1.9f4f245a50978p-9
262=-0x1.738187552b7fcp-9
263=0x1.99331230b526ep-8
264=0x1.d174427de9f7bp-9
265=-0x1.1fa69318a75e7p-9
266=-0x1.26fe5b10ecd03p-11
267=-0x1.7b701a407ee02p-9
268=-0x1.3188621c86d28p-9
269=0x1.6646fa8779f3ep-8
270=-0x1.a90aaf4b8bcc1p-9
271=-0x1.ed517c683ffabp-9
272=0x1.daf8d232dcfe4p-8
273=-0x1.2daf15e44616dp-9
274=0x1.62b76f8f22e53p-8
275=-0x1.a5cd3bcc59ea6p-9
276=0x1.d8fd8be6a134fp-10
277=-0x1.06da5814a76c4p-12
278=-0x1.52573c04ce01p-10
279=-0x1.1623a0cc6e55cp-11
280=-0x1.dc772467d468ep-12
281=0x1.3d31ad14f1f83p-10
288=0x1.93c05fada5e02p-10
289=-0x1.9be77877d8374p-13
290=-0x1.1c8600e82e07ep-10
291=-0x1.057af35961f3ep-11
292=-0x1.9024ea5df1046p-12
293=0x1.259a2ccaba8e9p-10
294=0x1.795714c09ed8ep-11
295=-0x1.d689b67ddf2dbp-7
296=0x1.b3fc3345f9f69p-7
297=-0x1.7a9d81ac99445p-7
298=0x1.e61b22e973f92p-7
299=-0x1.04e82cd344187p-9
306=-0x1.1c00975cb849ap-11
307=-0x1.e6dade5455e8p-10
308=0x1.56d101fe8888ap-9
309=-0x1.02eb49e89dc07p-9
310=-0x1.931fe0e50eaf6p-10
311=0x1.eb4c6edd3d2c5p-9
314=0x1.2a6c405c12b35p-14
318=0x1.74e21b014c2dap-9
319=-0x1.13ca127cab298p-11
320=-0x1.0c18fb908ce6ap-9
321=-0x1.04ee9e081dc3p-10
322=-0x1.daaa1aac2a76p-11
323=0x1.18b74e6107b53p-9
324=0x1.1df28719e470bp-11
326=-0x1.6f9fd0beb17fp-12
327=-0x1.ada400b62dc3bp-14
329=0x1.21d334af6e154p-12
330=0x1.d04294cdb88eap-9
331=-0x1.7056fe9cdd121p-11
332=-0x1.4f221a44b8d83p-9
333=-0x1.726c21432226fp-10
334=-0x1.1263e720ec158p-10
335=0x1.601acf46d9f96p-9
336=0x1.3a462b77836c8p-10
337=-0x1.fd6a8869a6c46p-14
338=-0x1.b1b683c3eda41p-11
339=-0x1.e1a7b70d1e8e4p-12
340=-0x1.58d4f07f89bdap-12
341=0x1.0cffee31d1172p-10
342=0x1.e9b1c720b6523p-11
343=-0x1.691d9f950e09cp-15
344=-0x1.507ec91e41b1p-11
345=-0x1.cb496ab787942p-13
346=-0x1.54f5273af17f5p-13
347=0x1.4789a724a43e8p-11
348=0x1.8be598d6514f5p-8
349=-0x1.5c156b62853adp-9
350=-0x1.b6bb79a5c1c9cp-9
351=-0x1.c1c3e2ce184a2p-9
352=0x1.15198e0cac037p-9
353=0x1.e7301bacb4f94p-11
354=0x1.726db0f3407f9p-10
355=-0x1.662c327dacba1p-13
356=-0x1.02ffdb39105f7p-10
357=-0x1.17058bedce317p-11
358=-0x1.7182da5d8fd7bp-12
359=0x1.270e6df2277a4p-10
366=0x1.c9d0bb819c7ebp-11
367=-0x1.225c551a79e0ep-15
368=-0x1.366e2632fe979p-11
369=-0x1.1113745c244d6p-12
370=-0x1.d0e3ceac07cb8p-17
371=0x1.231a016cde576p-11
372=0x1.885d6526857cp-13
374=-0x1.6722c918831cbp-14
377=0x1.e0bd7aaee8f7cp-15
378=0x1.dbbd23478b25p-10
379=-0x1.188082a98026fp-12
380=-0x1.51c8c2b7c1cd2p-10
381=-0x1.5f5a0b74be8d4p-11
382=-0x1.f7e03c5c11efcp-12
383=0x1.6b9a915ded419p-10
390=0x1.09f76407b5e7ap-12
392=-0x1.17b480e7feeep-13
395=0x1.14a9b83485a8ap-13
396=-0x1.87215110beaf6p-14
397=-0x1.ee232ad1266f5p-14
398=0x1.ee893c1d64425p-12
399=-0x1.0e7e0d4e879cep-13
400=-0x1.18172cb90a81ap-13
401=0x1.21a1f1ac3c23dp-11
404=0x1.9c350c189c16p-18
407=0x1.976dead9f32ecp-15
408=-0x1.80f979cf8595p-12
409=-0x1.1979244b5983ap-11
410=0x1.21db95261b9e2p-10
411=-0x1.33ffe54305068p-11
412=-0x1.bb2c1ea7b7d6ep-13
413=0x1.1f7f3ebca271ep-10
420=0x1.a78794714d3b7p-10
421=-0x1.cf72d68191a82p-13
422=-0x1.2a3d33012770cp-10
423=-0x1.3307b1a3bababp-11
424=-0x1.07869bca12c0cp-11
425=0x1.5935d109d9a09p-10
429=-0x1.9ffc6e2fad1dcp-15
430=-0x1.eff1ea05fbc5cp-17
431=0x1.402ae2a59731ap-12
452=0x1.cb3ec268144ffp-13
455=0x1.d55fd1932e334p-13
461=0x1.d7d643ab6d7c1p-14
474=0x1.07859a282a3d4p-13
476=-0x1.4b4475cbd19c2p-15
479=0x1.548e07225ea33p-15
498=0x1.729a3f211b0c8p-10
499=-0x1.4e2a7f88d22c4p-13
500=-0x1.058d7bd3e5e6p-10
501=-0x1.c9d432c32194dp-12
502=-0x1.3d63ec46bfcc5p-12
503=0x1.fed43dd0ad752p-11
504=0x1.8a5291bbcce72p-13
506=-0x1.64578bafa29ddp-14
509=0x1.57d7acad65db2p-14
