#mdl#2#1491
#rdr#18/10/0
1:b,
21:u:code-1LLL =%X[-3,0],
21:u:code-1LL  =%X[-2,0],
21:u:code-1L   =%X[-1,0],
20:u:code-1X   =%X[0,0],
20:u:code-1R   =%X[1,0],
20:u:code-1RR  =%X[2,0],
20:u:code-1RRR =%X[3,0],
13:*100:%x[ 0,1],
13:*100:%x[ 0,2],
13:*100:%x[ 0,3],
13:*100:%x[ 0,4],
13:*100:%x[ 0,5],
13:*100:%x[ 0,6],
13:*100:%x[ 0,7],
13:*100:%x[ 0,8],
13:*100:%x[ 0,9],
14:*100:%x[ 0,10],
#qrk#3
1:T,
1:O,
1:I,
#qrk#739
1:b,
17:u:code-1LLL =_x-3,
17:u:code-1LL  =_x-2,
17:u:code-1L   =_x-1,
18:u:code-1X   =42567,
15:u:code-1R   =32,
17:u:code-1RR  =1074,
17:u:code-1RRR =1100,
7:*100:Ll,
8:*100:9:T,
9:*100:29:T,
9:*100:23:F,
8:*100:6:F,
9:*100:15:F,
9:*100:21:F,
8:*100:0:F,
9:*100:17:F,
8:*100:2:F,
17:u:code-1LLL =_x-2,
17:u:code-1LL  =_x-1,
18:u:code-1L   =42567,
15:u:code-1X   =32,
17:u:code-1R   =1074,
17:u:code-1RR  =1100,
17:u:code-1RRR =1083,
7:*100:Zs,
8:*100:7:T,
9:*100:16:T,
9:*100:26:T,
9:*100:19:F,
9:*100:22:F,
8:*100:1:F,
9:*100:13:F,
9:*100:11:F,
17:u:code-1LLL =_x-1,
18:u:code-1LL  =42567,
15:u:code-1L   =32,
17:u:code-1X   =1074,
17:u:code-1R   =1100,
17:u:code-1RR  =1083,
17:u:code-1RRR =1123,
9:*100:10:T,
9:*100:20:F,
9:*100:18:F,
9:*100:26:F,
9:*100:25:F,
9:*100:16:F,
9:*100:29:F,
9:*100:27:F,
18:u:code-1LLL =42567,
15:u:code-1LL  =32,
17:u:code-1L   =1074,
17:u:code-1X   =1100,
17:u:code-1R   =1083,
17:u:code-1RR  =1123,
17:u:code-1RRR =1079,
9:*100:28:T,
9:*100:24:T,
15:u:code-1LLL =32,
17:u:code-1LL  =1074,
17:u:code-1L   =1100,
17:u:code-1X   =1083,
17:u:code-1R   =1123,
17:u:code-1RR  =1079,
17:u:code-1RRR =1098,
8:*100:1:T,
8:*100:8:T,
9:*100:25:T,
8:*100:7:F,
17:u:code-1LLL =1074,
17:u:code-1LL  =1100,
17:u:code-1L   =1083,
17:u:code-1X   =1123,
17:u:code-1R   =1079,
17:u:code-1RR  =1098,
15:u:code-1RRR =32,
9:*100:14:T,
8:*100:9:F,
9:*100:10:F,
17:u:code-1LLL =1100,
17:u:code-1LL  =1083,
17:u:code-1L   =1123,
17:u:code-1X   =1079,
17:u:code-1R   =1098,
15:u:code-1RR  =32,
17:u:code-1RRR =1074,
9:*100:18:T,
9:*100:12:F,
9:*100:28:F,
17:u:code-1LLL =1083,
17:u:code-1LL  =1123,
17:u:code-1L   =1079,
17:u:code-1X   =1098,
9:*100:13:T,
9:*100:22:T,
9:*100:11:T,
17:u:code-1LLL =1123,
17:u:code-1LL  =1079,
17:u:code-1L   =1098,
9:*100:17:T,
8:*100:8:F,
17:u:code-1LLL =1079,
17:u:code-1LL  =1098,
17:u:code-1RRR =1082,
9:*100:24:F,
17:u:code-1LLL =1098,
17:u:code-1RR  =1082,
17:u:code-1RRR =1086,
17:u:code-1R   =1082,
17:u:code-1RR  =1086,
17:u:code-1RRR =1088,
17:u:code-1X   =1082,
17:u:code-1R   =1086,
17:u:code-1RR  =1088,
17:u:code-1RRR =1072,
17:u:code-1L   =1082,
17:u:code-1X   =1086,
17:u:code-1R   =1088,
17:u:code-1RR  =1072,
17:u:code-1RRR =1073,
9:*100:15:T,
17:u:code-1LL  =1082,
17:u:code-1L   =1086,
17:u:code-1X   =1088,
17:u:code-1R   =1072,
17:u:code-1RR  =1073,
9:*100:27:T,
8:*100:4:F,
17:u:code-1LLL =1082,
17:u:code-1LL  =1086,
17:u:code-1L   =1088,
17:u:code-1X   =1072,
17:u:code-1R   =1073,
17:u:code-1LLL =1086,
17:u:code-1LL  =1088,
17:u:code-1L   =1072,
17:u:code-1X   =1073,
17:u:code-1RRR =1080,
9:*100:12:T,
9:*100:14:F,
17:u:code-1LLL =1088,
17:u:code-1LL  =1072,
17:u:code-1L   =1073,
17:u:code-1RR  =1080,
17:u:code-1RRR =1155,
8:*100:5:F,
17:u:code-1LLL =1072,
17:u:code-1LL  =1073,
17:u:code-1R   =1080,
17:u:code-1RR  =1155,
17:u:code-1RRR =1089,
8:*100:3:F,
17:u:code-1LLL =1073,
17:u:code-1X   =1080,
17:u:code-1R   =1155,
17:u:code-1RR  =1089,
17:u:code-1L   =1080,
17:u:code-1X   =1155,
17:u:code-1R   =1089,
7:*100:Mn,
8:*100:6:T,
8:*100:2:T,
17:u:code-1LL  =1080,
17:u:code-1L   =1155,
17:u:code-1X   =1089,
17:u:code-1RRR =1087,
9:*100:19:T,
9:*100:20:T,
8:*100:4:T,
17:u:code-1LLL =1080,
17:u:code-1LL  =1155,
17:u:code-1L   =1089,
17:u:code-1RR  =1087,
8:*100:5:T,
17:u:code-1LLL =1155,
17:u:code-1LL  =1089,
17:u:code-1R   =1087,
17:u:code-1LLL =1089,
17:u:code-1X   =1087,
17:u:code-1L   =1087,
17:u:code-1RRR =1076,
17:u:code-1LL  =1087,
17:u:code-1RR  =1076,
17:u:code-1RRR =1077,
17:u:code-1LLL =1087,
17:u:code-1R   =1076,
17:u:code-1RR  =1077,
17:u:code-1X   =1076,
17:u:code-1R   =1077,
18:u:code-1RRR =42567,
17:u:code-1L   =1076,
17:u:code-1X   =1077,
18:u:code-1RR  =42567,
17:u:code-1LL  =1076,
17:u:code-1L   =1077,
18:u:code-1R   =42567,
17:u:code-1LLL =1076,
17:u:code-1LL  =1077,
17:u:code-1LLL =1077,
9:*100:23:T,
8:*100:0:T,
9:*100:21:T,
17:u:code-1RRR =1075,
17:u:code-1RR  =1075,
17:u:code-1R   =1075,
17:u:code-1X   =1075,
17:u:code-1L   =1075,
17:u:code-1LL  =1075,
17:u:code-1LLL =1075,
18:u:code-1RRR =42566,
18:u:code-1RR  =42566,
18:u:code-1R   =42566,
18:u:code-1X   =42566,
7:*100:Lu,
18:u:code-1L   =42566,
18:u:code-1LL  =42566,
18:u:code-1LLL =42566,
17:u:code-1RRR =1085,
17:u:code-1RR  =1085,
17:u:code-1R   =1085,
17:u:code-1X   =1085,
17:u:code-1RRR =1127,
17:u:code-1L   =1085,
17:u:code-1RR  =1127,
17:u:code-1LL  =1085,
17:u:code-1R   =1127,
17:u:code-1LLL =1085,
17:u:code-1X   =1127,
17:u:code-1RRR =1084,
17:u:code-1L   =1127,
17:u:code-1RR  =1084,
17:u:code-1LL  =1127,
17:u:code-1R   =1084,
17:u:code-1RRR =1091,
17:u:code-1LLL =1127,
17:u:code-1X   =1084,
17:u:code-1RR  =1091,
17:u:code-1L   =1084,
17:u:code-1R   =1091,
17:u:code-1LL  =1084,
17:u:code-1X   =1091,
17:u:code-1LLL =1084,
17:u:code-1L   =1091,
17:u:code-1LL  =1091,
17:u:code-1LLL =1091,
17:u:code-1RRR =1078,
17:u:code-1RR  =1078,
8:*100:3:T,
17:u:code-1R   =1078,
17:u:code-1X   =1078,
17:u:code-1L   =1078,
17:u:code-1LL  =1078,
17:u:code-1LLL =1078,
17:u:code-1RRR =1097,
17:u:code-1RR  =1097,
17:u:code-1R   =1097,
17:u:code-1X   =1097,
17:u:code-1L   =1097,
17:u:code-1LL  =1097,
17:u:code-1LLL =1097,
17:u:code-1RRR =1131,
17:u:code-1RR  =1131,
17:u:code-1R   =1131,
17:u:code-1X   =1131,
17:u:code-1RRR =1093,
17:u:code-1L   =1131,
17:u:code-1RR  =1093,
17:u:code-1LL  =1131,
17:u:code-1R   =1093,
17:u:code-1LLL =1131,
17:u:code-1X   =1093,
17:u:code-1L   =1093,
17:u:code-1LL  =1093,
17:u:code-1RRR =1095,
17:u:code-1LLL =1093,
17:u:code-1RR  =1095,
17:u:code-1R   =1095,
17:u:code-1X   =1095,
17:u:code-1L   =1095,
17:u:code-1LL  =1095,
17:u:code-1LLL =1095,
17:u:code-1RRR =1081,
17:u:code-1RR  =1081,
17:u:code-1R   =1081,
17:u:code-1X   =1081,
17:u:code-1L   =1081,
17:u:code-1LL  =1081,
17:u:code-1LLL =1081,
17:u:code-1RRR =1090,
17:u:code-1RR  =1090,
17:u:code-1R   =1090,
17:u:code-1X   =1090,
17:u:code-1L   =1090,
17:u:code-1LL  =1090,
17:u:code-1RRR =1096,
17:u:code-1LLL =1090,
17:u:code-1RR  =1096,
17:u:code-1R   =1096,
17:u:code-1X   =1096,
17:u:code-1RRR =1133,
17:u:code-1L   =1096,
17:u:code-1RR  =1133,
17:u:code-1LL  =1096,
17:u:code-1R   =1133,
17:u:code-1LLL =1096,
17:u:code-1X   =1133,
17:u:code-1L   =1133,
17:u:code-1LL  =1133,
17:u:code-1LLL =1133,
18:u:code-1RRR =42577,
18:u:code-1RR  =42577,
18:u:code-1R   =42577,
18:u:code-1X   =42577,
18:u:code-1L   =42577,
18:u:code-1LL  =42577,
18:u:code-1LLL =42577,
17:u:code-1RRR =1094,
17:u:code-1RR  =1094,
17:u:code-1R   =1094,
17:u:code-1X   =1094,
17:u:code-1L   =1094,
17:u:code-1LL  =1094,
17:u:code-1LLL =1094,
17:u:code-1RRR =1157,
17:u:code-1RR  =1157,
17:u:code-1R   =1157,
17:u:code-1X   =1157,
17:u:code-1L   =1157,
17:u:code-1LL  =1157,
17:u:code-1LLL =1157,
17:u:code-1RRR =1102,
17:u:code-1RR  =1102,
17:u:code-1R   =1102,
17:u:code-1X   =1102,
17:u:code-1L   =1102,
17:u:code-1LL  =1102,
17:u:code-1LLL =1102,
18:u:code-1RRR =11750,
18:u:code-1RR  =11750,
17:u:code-1RRR =1159,
18:u:code-1R   =11750,
17:u:code-1RR  =1159,
18:u:code-1X   =11750,
17:u:code-1R   =1159,
18:u:code-1L   =11750,
17:u:code-1X   =1159,
18:u:code-1LL  =11750,
17:u:code-1L   =1159,
18:u:code-1LLL =11750,
17:u:code-1LL  =1159,
17:u:code-1LLL =1159,
18:u:code-1RRR =11757,
18:u:code-1RR  =11757,
18:u:code-1R   =11757,
18:u:code-1X   =11757,
18:u:code-1L   =11757,
18:u:code-1LL  =11757,
18:u:code-1LLL =11757,
17:u:code-1RRR =1109,
17:u:code-1RR  =1109,
17:u:code-1R   =1109,
17:u:code-1X   =1109,
17:u:code-1L   =1109,
17:u:code-1LL  =1109,
17:u:code-1LLL =1109,
17:u:code-1RRR =1092,
17:u:code-1RR  =1092,
17:u:code-1R   =1092,
17:u:code-1X   =1092,
17:u:code-1L   =1092,
17:u:code-1LL  =1092,
17:u:code-1LLL =1092,
17:u:code-1RRR =1156,
17:u:code-1RR  =1156,
17:u:code-1R   =1156,
17:u:code-1X   =1156,
17:u:code-1L   =1156,
17:u:code-1LL  =1156,
17:u:code-1LLL =1156,
17:u:code-1RRR =1058,
17:u:code-1RR  =1058,
17:u:code-1R   =1058,
17:u:code-1X   =1058,
17:u:code-1L   =1058,
17:u:code-1LL  =1058,
17:u:code-1LLL =1058,
18:u:code-1RRR =11753,
18:u:code-1RR  =11753,
18:u:code-1R   =11753,
18:u:code-1X   =11753,
18:u:code-1L   =11753,
18:u:code-1LL  =11753,
18:u:code-1LLL =11753,
17:u:code-1RRR =1057,
17:u:code-1RR  =1057,
17:u:code-1R   =1057,
17:u:code-1X   =1057,
17:u:code-1L   =1057,
17:u:code-1LL  =1057,
17:u:code-1LLL =1057,
17:u:code-1RRR =1129,
17:u:code-1RR  =1129,
17:u:code-1R   =1129,
17:u:code-1X   =1129,
17:u:code-1L   =1129,
17:u:code-1LL  =1129,
17:u:code-1LLL =1129,
18:u:code-1RRR =11755,
18:u:code-1RR  =11755,
18:u:code-1R   =11755,
18:u:code-1X   =11755,
18:u:code-1L   =11755,
18:u:code-1LL  =11755,
18:u:code-1LLL =11755,
18:u:code-1RRR =42569,
18:u:code-1RR  =42569,
18:u:code-1R   =42569,
18:u:code-1X   =42569,
18:u:code-1L   =42569,
18:u:code-1LL  =42569,
18:u:code-1LLL =42569,
16:u:code-1RRR =774,
16:u:code-1RR  =774,
16:u:code-1R   =774,
16:u:code-1X   =774,
16:u:code-1L   =774,
16:u:code-1LL  =774,
16:u:code-1LLL =774,
17:u:code-1RRR =1042,
17:u:code-1RR  =1042,
17:u:code-1R   =1042,
17:u:code-1X   =1042,
17:u:code-1L   =1042,
17:u:code-1LL  =1042,
17:u:code-1LLL =1042,
17:u:code-1RRR =1120,
17:u:code-1RR  =1120,
17:u:code-1R   =1120,
17:u:code-1X   =1120,
17:u:code-1L   =1120,
17:u:code-1LL  =1120,
17:u:code-1LLL =1120,
17:u:code-1RRR =1055,
17:u:code-1RR  =1055,
17:u:code-1R   =1055,
17:u:code-1X   =1055,
17:u:code-1L   =1055,
17:u:code-1LL  =1055,
17:u:code-1LLL =1055,
17:u:code-1RRR =1045,
17:u:code-1RR  =1045,
17:u:code-1R   =1045,
17:u:code-1X   =1045,
17:u:code-1L   =1045,
17:u:code-1LL  =1045,
17:u:code-1LLL =1045,
17:u:code-1RRR =1053,
17:u:code-1RR  =1053,
17:u:code-1R   =1053,
17:u:code-1X   =1053,
17:u:code-1L   =1053,
17:u:code-1LL  =1053,
17:u:code-1LLL =1053,
17:u:code-1RRR =1110,
17:u:code-1RR  =1110,
17:u:code-1R   =1110,
17:u:code-1X   =1110,
17:u:code-1L   =1110,
17:u:code-1LL  =1110,
17:u:code-1LLL =1110,
17:u:code-1RRR =1054,
17:u:code-1RR  =1054,
17:u:code-1R   =1054,
17:u:code-1X   =1054,
17:u:code-1L   =1054,
17:u:code-1LL  =1054,
17:u:code-1LLL =1054,
17:u:code-1RRR =1048,
17:u:code-1RR  =1048,
17:u:code-1R   =1048,
17:u:code-1X   =1048,
17:u:code-1L   =1048,
17:u:code-1LL  =1048,
17:u:code-1LLL =1048,
17:u:code-1RRR =1040,
17:u:code-1RR  =1040,
17:u:code-1R   =1040,
17:u:code-1X   =1040,
17:u:code-1L   =1040,
17:u:code-1LL  =1040,
17:u:code-1LLL =1040,
17:u:code-1RRR =1050,
17:u:code-1RR  =1050,
17:u:code-1R   =1050,
17:u:code-1X   =1050,
17:u:code-1L   =1050,
17:u:code-1LL  =1050,
17:u:code-1LLL =1050,
17:u:code-1RRR =1043,
17:u:code-1RR  =1043,
17:u:code-1R   =1043,
17:u:code-1X   =1043,
17:u:code-1L   =1043,
17:u:code-1LL  =1043,
17:u:code-1LLL =1043,
17:u:code-1RRR =1060,
17:u:code-1RR  =1060,
17:u:code-1R   =1060,
17:u:code-1X   =1060,
17:u:code-1L   =1060,
17:u:code-1LL  =1060,
17:u:code-1LLL =1060,
17:u:code-1RRR =1044,
17:u:code-1RR  =1044,
17:u:code-1R   =1044,
17:u:code-1X   =1044,
17:u:code-1L   =1044,
17:u:code-1LL  =1044,
17:u:code-1LLL =1044,
18:u:code-1RRR =11756,
18:u:code-1RR  =11756,
18:u:code-1R   =11756,
18:u:code-1X   =11756,
18:u:code-1L   =11756,
18:u:code-1LL  =11756,
18:u:code-1LLL =11756,
18:u:code-1RRR =42623,
18:u:code-1RR  =42623,
18:u:code-1R   =42623,
18:u:code-1X   =42623,
7:*100:Lm,
18:u:code-1L   =42623,
18:u:code-1LL  =42623,
18:u:code-1LLL =42623,
17:u:code-1RRR =1141,
17:u:code-1RR  =1141,
17:u:code-1R   =1141,
17:u:code-1X   =1141,
17:u:code-1L   =1141,
17:u:code-1LL  =1141,
17:u:code-1LLL =1141,
16:u:code-1RRR =776,
16:u:code-1RR  =776,
16:u:code-1R   =776,
16:u:code-1X   =776,
16:u:code-1L   =776,
16:u:code-1LL  =776,
16:u:code-1LLL =776,
17:u:code-1RRR =1041,
17:u:code-1RR  =1041,
17:u:code-1R   =1041,
17:u:code-1X   =1041,
17:u:code-1L   =1041,
17:u:code-1LL  =1041,
17:u:code-1LLL =1041,
17:u:code-1RRR =1121,
17:u:code-1RR  =1121,
17:u:code-1R   =1121,
17:u:code-1X   =1121,
17:u:code-1L   =1121,
17:u:code-1LL  =1121,
17:u:code-1LLL =1121,
18:u:code-1RRR =11761,
18:u:code-1RR  =11761,
18:u:code-1R   =11761,
18:u:code-1X   =11761,
18:u:code-1L   =11761,
18:u:code-1LL  =11761,
18:u:code-1LLL =11761,
17:u:code-1RRR =1046,
17:u:code-1RR  =1046,
17:u:code-1R   =1046,
17:u:code-1X   =1046,
17:u:code-1L   =1046,
17:u:code-1LL  =1046,
17:u:code-1LLL =1046,
18:u:code-1RRR =11744,
18:u:code-1RR  =11744,
18:u:code-1R   =11744,
18:u:code-1X   =11744,
18:u:code-1L   =11744,
18:u:code-1LL  =11744,
18:u:code-1LLL =11744,
15:u:code-1RRR =63,
15:u:code-1RR  =63,
15:u:code-1R   =63,
15:u:code-1X   =63,
7:*100:Po,
15:u:code-1L   =63,
15:u:code-1LL  =63,
15:u:code-1LLL =63,
15:u:code-1RRR =46,
15:u:code-1RR  =46,
15:u:code-1RRR =45,
15:u:code-1R   =46,
15:u:code-1RR  =45,
15:u:code-1X   =46,
15:u:code-1R   =45,
15:u:code-1L   =46,
15:u:code-1X   =45,
7:*100:Pd,
15:u:code-1LL  =46,
15:u:code-1L   =45,
15:u:code-1LLL =46,
15:u:code-1LL  =45,
15:u:code-1LLL =45,
17:u:code-1RRR =1122,
17:u:code-1RR  =1122,
17:u:code-1R   =1122,
17:u:code-1X   =1122,
17:u:code-1L   =1122,
17:u:code-1LL  =1122,
17:u:code-1LLL =1122,
17:u:code-1RRR =1070,
17:u:code-1RR  =1070,
17:u:code-1R   =1070,
17:u:code-1X   =1070,
17:u:code-1L   =1070,
17:u:code-1LL  =1070,
17:u:code-1LLL =1070,
17:u:code-1RRR =1064,
17:u:code-1RR  =1064,
17:u:code-1R   =1064,
17:u:code-1X   =1064,
17:u:code-1L   =1064,
17:u:code-1LL  =1064,
17:u:code-1LLL =1064,
17:u:code-1RRR =1047,
17:u:code-1RR  =1047,
17:u:code-1R   =1047,
17:u:code-1X   =1047,
17:u:code-1L   =1047,
17:u:code-1LL  =1047,
17:u:code-1LLL =1047,
18:u:code-1RRR =11745,
18:u:code-1RR  =11745,
18:u:code-1R   =11745,
18:u:code-1X   =11745,
18:u:code-1L   =11745,
18:u:code-1LL  =11745,
18:u:code-1LLL =11745,
17:u:code-1RRR =1056,
17:u:code-1RR  =1056,
17:u:code-1R   =1056,
17:u:code-1X   =1056,
17:u:code-1L   =1056,
17:u:code-1LL  =1056,
17:u:code-1LLL =1056,
17:u:code-1RRR =1063,
17:u:code-1RR  =1063,
17:u:code-1R   =1063,
17:u:code-1X   =1063,
17:u:code-1L   =1063,
17:u:code-1LL  =1063,
17:u:code-1LLL =1063,
18:u:code-1RRR =11751,
18:u:code-1RR  =11751,
18:u:code-1R   =11751,
18:u:code-1X   =11751,
18:u:code-1L   =11751,
18:u:code-1LL  =11751,
18:u:code-1LLL =11751,
17:u:code-1RRR =1062,
17:u:code-1RR  =1062,
17:u:code-1R   =1062,
17:u:code-1X   =1062,
17:u:code-1L   =1062,
17:u:code-1LL  =1062,
17:u:code-1LLL =1062,
18:u:code-1RRR =42585,
18:u:code-1RR  =42585,
18:u:code-1R   =42585,
18:u:code-1X   =42585,
18:u:code-1L   =42585,
18:u:code-1LL  =42585,
18:u:code-1LLL =42585,
17:u:code-1RRR =1139,
17:u:code-1RR  =1139,
17:u:code-1R   =1139,
17:u:code-1X   =1139,
17:u:code-1L   =1139,
17:u:code-1LL  =1139,
17:u:code-1LLL =1139,
18:u:code-1RRR =11759,
18:u:code-1RR  =11759,
18:u:code-1R   =11759,
18:u:code-1X   =11759,
18:u:code-1L   =11759,
18:u:code-1LL  =11759,
18:u:code-1LLL =11759,
17:u:code-1RRR =1099,
17:u:code-1RR  =1099,
17:u:code-1R   =1099,
17:u:code-1X   =1099,
17:u:code-1L   =1099,
17:u:code-1LL  =1099,
17:u:code-1LLL =1099,
18:u:code-1RRR =11758,
18:u:code-1RR  =11758,
18:u:code-1R   =11758,
18:u:code-1X   =11758,
18:u:code-1L   =11758,
18:u:code-1LL  =11758,
18:u:code-1LLL =11758,
18:u:code-1RRR =11760,
18:u:code-1RR  =11760,
18:u:code-1R   =11760,
18:u:code-1X   =11760,
18:u:code-1L   =11760,
18:u:code-1LL  =11760,
18:u:code-1LLL =11760,
15:u:code-1RRR =61,
15:u:code-1RR  =61,
15:u:code-1R   =61,
15:u:code-1X   =61,
7:*100:Sm,
15:u:code-1L   =61,
15:u:code-1LL  =61,
15:u:code-1LLL =61,
17:u:code-1RRR =1052,
17:u:code-1RR  =1052,
17:u:code-1R   =1052,
17:u:code-1X   =1052,
17:u:code-1L   =1052,
17:u:code-1LL  =1052,
17:u:code-1LLL =1052,
18:u:code-1RRR =11768,
18:u:code-1RR  =11768,
18:u:code-1R   =11768,
18:u:code-1X   =11768,
18:u:code-1L   =11768,
18:u:code-1LL  =11768,
18:u:code-1LLL =11768,
17:u:code-1RRR =_x+1,
17:u:code-1RR  =_x+1,
17:u:code-1RRR =_x+2,
17:u:code-1R   =_x+1,
17:u:code-1RR  =_x+2,
17:u:code-1RRR =_x+3,
0=-0x1.4530bb4042869p-2
1=-0x1.9c60a69724c4ap-4
2=0x1.61c3b4342afc3p-3
3=0x1.54be7acad9606p-1
4=-0x1.08fb38330873ap-2
5=-0x1.3ff119eb58029p-1
6=-0x1.63c2df349a66p-1
7=0x1.7bea39cf46685p-3
8=0x1.8c481e84b1b2dp-1
9=0x1.e5117501cfcb7p-10
11=-0x1.dbc34d21aac9ep-10
12=0x1.e5117501cfcb7p-10
14=-0x1.dbc34d21aac9ep-10
15=0x1.e5117501cfcb7p-10
17=-0x1.dbc34d21aac9ep-10
18=0x1.240191058f354p-4
19=-0x1.a1795552b3b73p-8
20=-0x1.2d8c8b2aa64a8p-4
21=-0x1.cd600d85a3b08p-5
22=-0x1.992ba5c7a50d4p-3
23=0x1.d8b0fe4733f77p-3
24=-0x1.f8df5e732579bp-8
25=-0x1.1efe4f2d70c43p-6
26=0x1.b9aae077c3ec6p-6
27=0x1.27558043a5a2p-8
28=-0x1.3815ef077a011p-7
29=0x1.1efc7446f920cp-10
30=-0x1.f9cdade3b91dbp-3
31=-0x1.a20872f5acc92p-1
32=0x1.37873191c20b2p-1
33=-0x1.0df3d1570a8d2p-2
34=-0x1.932cb94e4626fp-3
35=0x1.83f1e96d761ebp-3
36=0x1.3d1300585f4d5p-1
37=-0x1.4f083390aa57cp-3
38=-0x1.4339c7b0e4f1ap-1
39=-0x1.505e2fa192515p-1
40=-0x1.aedd19bb83464p-1
41=0x1.4dcc880b9c3dap+0
42=-0x1.8542e2bf5ea23p-3
43=-0x1.6bc3a487ac562p-5
44=0x1.acf77c3cff304p-3
45=-0x1.b8852b0937428p-4
46=0x1.1eea9c75c5f7ap-6
47=0x1.a5c9bd3e1f6eep-3
48=-0x1.5401b596d50b5p-5
49=-0x1.e9d8f44d23fbap-6
50=-0x1.7bb7cd505136cp-4
51=-0x1.a861c28eddedep-5
52=-0x1.9d8f5eaefb03cp-5
53=0x1.63f6d772fd2f2p-4
54=-0x1.071d716a0dcc5p-2
55=-0x1.b0ac10802e2cep-4
56=0x1.5d22747b5aff9p-2
57=-0x1.14e2943bf3606p-3
58=-0x1.7f7b49d1fb92ap-6
59=0x1.209b55868fa39p-2
60=-0x1.f4544a8c4e195p-5
61=-0x1.7602ffe968914p-5
62=-0x1.fe5442606a087p-4
63=-0x1.2924ffdac37cp-4
64=-0x1.ef1907c9c1964p-7
65=0x1.e0617d8e67ea6p-4
66=-0x1.a505febe355c8p-4
67=0x1.98ff700da5315p-6
68=0x1.b0f6d823e0659p-5
69=-0x1.a267d6a510abap-3
70=0x1.0f59e01ba40ecp-3
71=0x1.73130d335cc39p-2
72=0x1.fbf4f6dfd7f54p-4
73=-0x1.0852e116cad63p-5
74=-0x1.4eb730f20a46bp-5
75=-0x1.4d532298f6e9fp-5
76=-0x1.5eb0fd3735a28p-4
77=-0x1.60d15c14ab41ep-4
80=0x1.2b230ceddf6bfp-5
81=-0x1.316fb56d767ecp-4
83=0x1.d2ad2af965e87p-4
84=0x1.1db34af99cfd1p-3
85=-0x1.4dbf07eb32a38p-5
86=-0x1.181bc63db00c8p-3
87=-0x1.be0eb1fe65dc8p-4
88=0x1.a85f21165544bp-5
89=0x1.e94d7af4d7d26p-6
90=-0x1.779497c0f0332p-5
91=-0x1.f937d2e70e4a4p-6
92=0x1.3e6e1352653d2p-4
93=-0x1.4b06d3d56816ep-3
94=-0x1.cf86b5a9342bap-7
95=0x1.4a4223f9061bfp-2
96=0x1.6c83dd57af881p-3
97=-0x1.fb91e80297278p-6
98=-0x1.4c5845fb7af42p-4
99=-0x1.e5302ccfcf318p-5
100=0x1.5b7995245447dp-6
101=-0x1.69cfa127b7c5cp-4
102=-0x1.ac4836248f06ap-5
103=0x1.72e956b927143p-5
104=0x1.e22ff57900b34p-6
105=-0x1.5bc41aa1d7b84p-4
106=0x1.0371b3d89c7e7p-3
107=0x1.5e332aa179a5cp-4
108=0x1.f5b751397870ep-4
109=-0x1.3e87bf1f65d13p-5
110=-0x1.b32f3a42bbe78p-4
111=-0x1.b86b732c4395p-4
112=-0x1.3b677e038b9bcp-5
113=0x1.16b66d001049cp-4
114=-0x1.f3e12b3a6d37ap-5
115=0x1.1901b74d5141p-6
116=0x1.a43676165b545p-5
117=-0x1.b9ba1219ffa89p-4
118=0x1.529eb05723d12p-5
119=0x1.bf320ae87a605p-4
120=0x1.5388b4fc5f5a2p-4
121=-0x1.4bd3c0422cb17p-5
122=-0x1.886dc7e0ca411p-5
123=-0x1.b014759f6980bp-4
124=0x1.7d43b48b3164cp-5
125=0x1.eefac87b1b632p-5
126=-0x1.097e136e4fb58p-4
127=-0x1.c0989c98860a3p-6
128=0x1.3eb7fb634b35ap-4
129=-0x1.4704374d41274p-4
130=-0x1.897e688686a72p-7
131=0x1.459ca1a9e5336p-5
132=0x1.268513fb4b8f1p-3
133=-0x1.8dc586594286ep-5
134=-0x1.057c7f1873c27p-3
135=-0x1.2d1d82629f196p-3
136=0x1.808df320a0096p-5
137=0x1.303874b9cdd74p-3
138=-0x1.dd10fb5bee808p-4
139=-0x1.66e50262a7c2p-5
140=0x1.912945f462871p-4
141=-0x1.e18ad4e8e6628p-4
142=0x1.196d20e4d2606p-4
143=0x1.dd08a081d52edp-3
144=0x1.876b1a7d61b6fp-6
145=-0x1.749ac1fb10f86p-6
146=-0x1.007d2764e6adcp-5
147=-0x1.fabed11d38d18p-6
148=-0x1.a0439640db2dep-4
149=-0x1.7deba44475526p-6
156=-0x1.1a02c1a0bd39ap-7
157=0x1.0ee8f1b563764p-5
158=-0x1.a98528abb12b6p-6
159=-0x1.0efbfb12eb08cp-3
160=0x1.97a6b26d050b2p-1
161=-0x1.c1b4b536338dap-1
162=-0x1.3fb0bda607f3cp-7
163=0x1.f770a1a2920cp-6
164=-0x1.1bcb5e089e7c6p-10
165=-0x1.4a617b0e89c86p-7
166=0x1.04f5ea729685p-7
167=0x1.025915cd9116p-9
168=-0x1.c4d0ad542fcfep-9
169=0x1.6849f29872fa3p-7
170=-0x1.de070d0b7a5abp-9
171=-0x1.0efbfb12eb08cp-3
172=0x1.97a6b26d050b2p-1
173=-0x1.c1b4b536338dap-1
174=-0x1.3c8cfa234e0e8p-5
175=0x1.2b3dd1dfe3a11p-3
176=-0x1.bac4b9364170cp-3
177=-0x1.31557a8b75c0ap-5
178=-0x1.095c0b7124574p-2
179=-0x1.fd5539a27357cp-6
180=-0x1.d4188b20bb133p-5
181=0x1.c77f44064ff7cp-1
182=-0x1.6ccca5e62a812p-1
183=-0x1.e9eb01bd89e0ep-3
184=0x1.019dbe8b4e473p-3
185=0x1.5198081a86bb2p-3
186=-0x1.00808303ffa7dp-4
187=0x1.144708f337f2fp-6
188=-0x1.7d7555203ee9p-3
189=-0x1.138d43a70e492p-4
190=-0x1.b8ae1c04cc2a2p-4
191=-0x1.3c9fcfeb57c85p-4
192=-0x1.3d8076ff9b6c6p-3
193=0x1.d8e7e4c238f62p-3
194=0x1.402b15e3328c4p-2
195=-0x1.3da49545bae2p-2
196=0x1.5095f358d561p-3
197=0x1.e6afb1e0b6f0ep-3
198=-0x1.3c1b4d3a5322ap-4
199=-0x1.8a95a73fa6de8p-4
200=-0x1.153d43bbaf763p-2
201=-0x1.7a47de4bdc00ap-4
202=-0x1.614a5605318e7p-3
203=-0x1.18f39fbc37fbbp-3
204=-0x1.96e1d12d0d492p-3
205=0x1.59e2f27628c3ap-2
206=0x1.2241498d17a4cp-1
207=-0x1.f36f5528bfb7p-4
208=-0x1.c7591d58915d6p-5
209=0x1.b9aea4981bf89p-3
210=-0x1.28d4603857652p-5
211=-0x1.22615c559834fp-5
213=-0x1.07c32e199b281p-6
214=-0x1.e3dc011e1942ap-6
215=-0x1.bbc2c65c13fc4p-4
216=-0x1.69b3177c76b26p-4
217=-0x1.4afd06c12a208p-4
218=0x1.1fe828f90a9cep-2
219=0x1.120a221a56e6bp-8
220=0x1.1c779e061fc9ap-6
221=-0x1.27581d2a6aa56p-8
222=-0x1.f6089b8bdac97p-5
223=0x1.18c5a44b2c37ep-3
224=-0x1.0d350c78615d7p-7
225=0x1.6349d1676e978p-3
226=-0x1.2b584cb0863ccp-5
227=-0x1.8d6e03ea2d487p-4
228=-0x1.a109a2d62d281p-4
229=-0x1.2977f7f1bf86cp-6
230=0x1.168f845702f08p-4
231=-0x1.6a16f8d4be8fp-15
232=-0x1.feea34041448cp-6
233=0x1.a56acbc533ab3p-6
234=-0x1.02a9d1aa1e5cfp-5
235=-0x1.12ee50be97b52p-5
236=-0x1.47e626d037d5p-3
237=0x1.0cc327a8a1de2p-3
238=-0x1.884bb6d707037p-5
239=-0x1.42f135968c573p-3
240=-0x1.10c96aa6ee9d3p-3
241=0x1.01c8f9622fdc2p-4
242=0x1.c7ac57a07cc96p-3
243=-0x1.5eb5e63fbdc1ap-8
244=0x1.5d43c170543dep-10
245=0x1.fa8ec3b61efe4p-8
246=-0x1.173792b66e836p-4
248=0x1.5590e29523a9p-5
249=0x1.b1f4f94051176p-3
250=-0x1.8513aef5da7a2p-5
251=-0x1.0939f29b1b976p-4
252=-0x1.a2bfd2b7610c6p-4
253=0x1.5d88f5dd7ca96p-4
254=0x1.9f77803cc92afp-6
255=-0x1.7059106ef284bp-8
256=-0x1.0a81d0598937cp-5
257=0x1.48f1cdb99b433p-5
258=-0x1.83fcd74676da4p-5
259=-0x1.accb47196b3b8p-5
260=-0x1.035cbdfed978p-3
261=0x1.3d54bb23490f4p-3
262=-0x1.d5ac07684c126p-5
263=-0x1.2ca3fc72d75e4p-3
264=-0x1.7037b15b35773p-3
265=0x1.c3a17316bba7p-5
266=0x1.e70a99193ec8p-3
267=0x1.2d4fe988e652dp-3
268=-0x1.0dfa1bccb7f32p-4
269=-0x1.c8df39f71ae3cp-4
270=-0x1.b87cb2e6ef97p-4
271=-0x1.ac892f6165441p-5
272=0x1.64160f7b9f0d9p-4
273=0x1.a3126af7a234p-2
274=-0x1.213e3730d86bdp-4
275=-0x1.c7b35f10a8f74p-3
276=-0x1.c6f09e381655ep-3
278=0x1.83c2a82245eeep-6
282=0x1.ac4df3ad8e4dbp-6
284=-0x1.f2555cf067a18p-6
285=0x1.b3362d6feb30fp-1
286=-0x1.efb9fb9d613aap-4
287=-0x1.e893dc46d5142p-1
288=0x1.957a9e9ca53dfp-6
289=-0x1.bc242f3d20b29p-6
290=0x1.d9a87d622f1bep-9
291=0x1.3cbbec5274d04p-10
292=-0x1.02bf37ace1fa4p-6
293=0x1.d8f5e099e7bcp-7
294=0x1.2fd5bf001a2fap-7
296=-0x1.054805e24d51dp-10
297=0x1.78af8ad7c1224p-9
298=-0x1.ac3d99c64a102p-8
299=0x1.dd1de56b78c9ap-8
300=0x1.725011c29e1ap-1
301=-0x1.1735e069f0241p-3
302=-0x1.86ab235248dd4p-1
303=-0x1.92bf99e77a551p-5
304=-0x1.19b8ccb98743ep-6
305=-0x1.cec17d5839eccp-5
306=0x1.e0e1ecd25d15fp-1
307=-0x1.7909e3b1e52cp-5
308=-0x1.e077baab3ce88p-3
309=-0x1.ca956cf74630fp-3
310=-0x1.bbd3076493663p-5
311=-0x1.157eeb072fabdp-1
312=0x1.24cdfc2c0a05ep-2
313=-0x1.f8713c395c492p-5
314=-0x1.70dfd14a153eap-3
315=-0x1.8f201a7ab2022p-5
316=-0x1.573f8b0c43c3ep-5
317=-0x1.92cebeebb1b4p-4
318=0x1.f7116e31b5c9dp-2
319=-0x1.854963edf9423p-5
320=-0x1.69f430005e4p-3
321=-0x1.c68195e6798a9p-3
322=-0x1.4f974340d2cfap-5
323=0x1.11cc25ac9d0c5p-5
324=0x1.c98a8246c949cp-3
325=-0x1.44b2a4b19afdcp-5
326=-0x1.ff899018ef464p-6
327=-0x1.707c5df921d8fp-5
328=-0x1.9d0954171608dp-5
329=-0x1.4ca9647f673b3p-3
330=0x1.9a0fee03bd439p-2
331=-0x1.9c5c41e1d0d56p-5
332=-0x1.15140be4ef416p-3
333=-0x1.9260f27fcb50cp-3
334=0x1.f9c037f664f81p-5
335=0x1.403c661d87763p-4
336=0x1.28932d422a73p-3
337=-0x1.ee65ff87b0172p-5
338=-0x1.d28c0887e3592p-6
339=-0x1.f1f1a668579bep-5
340=-0x1.ca1c2216ac985p-5
341=-0x1.6271b89dd6ebp-6
342=0x1.672fa92db88dep-2
343=-0x1.c1cb1f18ed01p-5
344=-0x1.644348e5d16dbp-3
345=-0x1.9aa45c6010466p-3
346=0x1.12576c69799d5p-7
347=0x1.68ae51e2a0e24p-4
348=0x1.a0eede94951a8p-4
349=-0x1.f182cb20f53f4p-5
350=-0x1.09265dd0a99bcp-3
351=-0x1.6b16c5b1c0d0bp-5
352=-0x1.ac8abc1f68c57p-5
353=-0x1.c033e7cec0304p-4
354=0x1.a05252a0813f5p-2
355=-0x1.82ff120c526p-5
356=-0x1.0c77eb4825b9cp-3
357=-0x1.6b3025b18d9d2p-3
358=0x1.a50a92ae4a258p-5
359=0x1.4ad44164dfd8cp-4
360=0x1.6aca1e88f2ce6p-3
361=-0x1.ea0952e74241cp-5
362=-0x1.1a168a6e55b13p-6
363=-0x1.b8aa9512faae4p-5
364=-0x1.8ff25fd7fcb46p-5
365=-0x1.6747cbfe8c513p-3
366=0x1.7a68f2734b043p-2
367=-0x1.c37921663e3a8p-5
368=-0x1.a7f41c4120048p-3
369=-0x1.05851fc1fdbecp-2
371=0x1.1687cf46bc1aap-2
372=0x1.52b850d4623eap-4
373=-0x1.a23ac9fa41ffdp-5
374=0x1.36ab052af067ap-6
375=-0x1.56a382c00e9fp-5
376=-0x1.1286a2c722a9ep-5
377=-0x1.ce658a33944ecp-5
378=0x1.b1e15aeb6456fp-3
379=-0x1.628704e4be81ap-5
380=-0x1.54ea9c362af92p-3
381=-0x1.56e1d43956fcep-3
382=0x1.ad7b3691e041ep-8
383=0x1.cded14edd0caep-3
384=-0x1.bfb352f336baap-5
385=-0x1.e6b24537129d9p-6
386=0x1.65581efe12a14p-4
387=-0x1.b30365fe0072ap-4
388=0x1.e33df5aa6ba0ap-4
389=0x1.4f367c394c741p-3
390=0x1.3b5955c0280a8p-4
391=-0x1.5f9b1cc42f41cp-5
392=-0x1.121056f9131dbp-4
393=-0x1.64d3db573e34cp-4
394=-0x1.7f03132fff544p-4
395=0x1.cfa3450d33f15p-9
396=-0x1.8cd89963e09e2p-7
398=0x1.a8e89e9027554p-8
399=-0x1.3d86d2ffa9c2bp-2
401=0x1.0407b6c127b63p-2
402=-0x1.efc48d7b0abe9p-6
403=-0x1.aa233e0389122p-6
404=0x1.c6daf8a831913p-5
405=-0x1.4afbaac75fd6ep-6
406=-0x1.749f00a329dbbp-7
407=0x1.f2997743d95b6p-6
408=-0x1.98f470b3076d3p-8
409=-0x1.db2e0156a8561p-8
410=0x1.f89061b387e97p-7
411=-0x1.3d675f52129b1p-7
412=-0x1.4e3ee98a84656p-9
413=0x1.96fffb5364249p-7
415=0x1.7ddab3484adcdp-8
416=-0x1.b279b33a989d7p-9
417=-0x1.178eeae2b21cp-2
418=-0x1.24669ee9a15a2p-3
419=0x1.8910ebd4f18dep-2
420=-0x1.13dec29dda22ep-4
421=-0x1.c164292ed15cap-5
422=0x1.ddd86fd1736e5p-4
423=-0x1.ddc92569d33ap-4
424=-0x1.53dcdf9b46751p-5
425=-0x1.29f1212ec01b8p-3
426=-0x1.9223f3c8b258cp-4
427=-0x1.e2983b15d8caap-5
428=0x1.45332f400aff2p-2
429=-0x1.1bd054b2a884p-4
430=-0x1.7c2e593c631e6p-7
431=0x1.4ad9a0116fa2ap-4
432=-0x1.d5b586c21c61ep-7
433=-0x1.b8588e8a3291cp-7
434=0x1.8852a78229889p-6
435=-0x1.89e02abe03d83p-6
436=-0x1.622cbb482a9e8p-7
437=-0x1.de2b10997ff9ap-5
438=-0x1.e80fd376765c2p-6
439=0x1.92e0f5174f154p-7
440=0x1.4358009662acdp-4
441=-0x1.1850b2bf86a6ap-7
442=-0x1.9a78aac923701p-4
443=0x1.0ce6ec2552d2ep-4
444=-0x1.e30ebf940378fp-6
445=-0x1.548a840305a1p-5
446=0x1.7f9e706e29261p-5
447=-0x1.c50fa4f50e3e7p-7
448=0x1.d023bf9d10fe8p-9
449=0x1.79d518dd5c13ep-7
450=-0x1.9db33e29fc376p-7
451=-0x1.6139c7a34752cp-6
452=0x1.4ff600ae7cc8p-6
453=-0x1.756e09635d18p-7
455=0x1.de5be0e73270ep-7
456=0x1.8cd2886aadcf8p-8
457=0x1.9e64b08815a4cp-8
458=-0x1.3f14f649da75ap-9
459=-0x1.6e25035aa5f99p-6
460=-0x1.280832220fbe8p-6
461=0x1.1b3d499c24f78p-5
462=-0x1.b6ac444c1b838p-4
464=0x1.2e10e2293d0cep-3
465=-0x1.cd240e3fb04d1p-6
466=-0x1.4d0fcf927e1acp-4
467=-0x1.009ef364b62cap-5
468=-0x1.dd78c25920159p-6
469=-0x1.270c343ff368dp-5
470=-0x1.10d5218e03174p-5
471=-0x1.31cf5c416be09p-4
472=0x1.df0ac6a5c618p-4
473=0x1.ca870e2256f67p-3
474=-0x1.1eca7390d2e88p-4
475=0x1.568083efd4738p-7
476=0x1.2b22edd5692a8p-4
477=-0x1.3fd4fefd50437p-6
478=-0x1.82468948c74bp-7
479=0x1.5391619e4ebc7p-8
480=-0x1.422960169b175p-6
481=-0x1.851de275d5be6p-6
482=-0x1.b2b36245ba728p-6
483=-0x1.34724839eb00cp-5
484=0x1.094e3efa41212p-4
485=0x1.8530624e05a1ap-4
486=-0x1.0036dcfddc769p-3
488=0x1.25712247c86fcp-3
489=-0x1.390527e4551aep-7
490=-0x1.0300d0def1fcap-4
491=-0x1.4427d95aa9c96p-3
492=-0x1.1926c5bf6613cp-5
493=-0x1.3ce15bef7f3e3p-5
494=-0x1.419eea5e7d33fp-5
495=-0x1.afe226c561ef6p-4
496=0x1.b99e7ea0fafe6p-4
497=0x1.0f60e7dedc026p-2
498=0x1.96d34701ee56ep-7
499=-0x1.ee8cfadd0e39p-5
500=-0x1.99147f08040c4p-4
501=-0x1.aee0ee22461dbp-5
502=0x1.9f4d76c5a7da3p-6
503=-0x1.9b8000a5f9034p-6
504=0x1.58143a01ee8d4p-2
505=-0x1.b4f67b456ba49p-5
506=-0x1.41efe99135bc7p-3
507=-0x1.5d273f0457a99p-3
508=0x1.b24bb488f90ecp-8
509=0x1.ae83e36caf00bp-5
510=-0x1.56d9fb869e5c1p-5
511=-0x1.4f0169296d02p-7
512=0x1.309bcb443b2f2p-5
513=0x1.ccb7cfa088877p-8
514=-0x1.33e3a349207f7p-7
515=0x1.f07f215b7decep-10
516=-0x1.df35796fe2722p-6
517=-0x1.1a202ce039fedp-6
518=0x1.6c92a945b8c7bp-5
520=-0x1.8aef7f53a679ep-6
521=0x1.3835fb9a0d0a1p-6
522=0x1.589d2783a052dp-9
523=0x1.9eb76b50ec22p-8
524=-0x1.76002f10b4128p-7
525=-0x1.928f540007258p-7
526=0x1.457629074887fp-7
527=0x1.a456f21d5c6c7p-7
528=-0x1.04c8e64617396p-4
529=-0x1.8dea23be6e91p-6
530=0x1.650a3eed9acb5p-4
531=-0x1.b5b2fd611d6c7p-3
532=-0x1.a13c0a873c5e6p-5
533=0x1.455b1d83d1d4bp-2
534=-0x1.9d7342579a7b8p-5
535=-0x1.8d4a6374a2539p-5
536=-0x1.705160c4affe2p-4
537=-0x1.228954dabbd6dp-4
538=-0x1.73eab17f8b868p-5
539=-0x1.4ae2c4dcc8fedp-3
540=-0x1.d5591f395f03p-4
541=-0x1.9c1d7aa5cf16dp-7
542=0x1.015c4764a6236p-2
543=-0x1.bad4e2020a169p-6
544=-0x1.aa36031fe3fe3p-5
545=0x1.2b6f483937a36p-5
546=-0x1.cbd904e1f1186p-4
547=0x1.799efe10206fbp-8
548=0x1.e20a7122cee12p-4
549=0x1.1bdba7288c72ap-2
550=-0x1.73d351fb7cfc5p-5
551=-0x1.6dda21142bcbfp-3
552=-0x1.32b2bb686e754p-3
553=-0x1.35d7be5401c74p-6
554=0x1.6da924c13d7d2p-5
555=-0x1.7d6d32e69e2ecp-3
556=-0x1.33fab2fc9801p-5
557=0x1.a9da4a6385038p-4
558=-0x1.9bc361889ce0ep-6
559=-0x1.d7618b3eed1d3p-6
560=-0x1.e083ef0f21bcap-6
561=-0x1.4a869ed2c746dp-4
562=-0x1.94aa7d5d9afb1p-6
563=-0x1.31df77d6306fp-4
564=-0x1.a9fad51c8fe6cp-4
565=-0x1.675b1748653ep-7
566=0x1.795c83b7708b9p-3
567=-0x1.2312d6c706b96p-6
568=0x1.f49f7d056dc3ep-11
569=0x1.4494e1c05973p-7
570=-0x1.cd171915f3668p-6
571=-0x1.ee465edb779dcp-7
572=0x1.275b9c11ff901p-5
573=-0x1.be95bf4625c43p-5
574=-0x1.7f1e879b76cp-8
575=0x1.6ab3cbe9b11b2p-5
577=-0x1.5fe5ff837adf6p-5
578=0x1.024a3bc554468p-5
579=-0x1.593a198735f1ap-6
580=-0x1.fffa43c747ce4p-5
581=0x1.0f151ff990202p-4
582=-0x1.70b4bb459a8acp-4
583=-0x1.ce18da9620196p-5
584=0x1.0e1018680cc3dp-3
585=-0x1.2769bb5bd52bap-10
586=-0x1.edb51531fc5f6p-8
587=0x1.34fe0e73df768p-7
588=-0x1.ead4972811ad6p-4
589=-0x1.451e2d4c3ef25p-7
590=0x1.8de01f05c3ddcp-4
591=-0x1.b5d0b4d725e8p-8
592=-0x1.617157ab6426fp-5
593=-0x1.5bc38ec548fb2p-3
594=-0x1.d64a5519e2bd4p-6
595=-0x1.d701dec76b72fp-6
596=-0x1.121aba5efa5cp-5
597=-0x1.c21d26409f62cp-4
598=0x1.e34d446de0072p-5
599=0x1.9e7996c42cea8p-3
600=0x1.e54989ee91d4p-5
601=-0x1.c545e28e6d292p-6
602=-0x1.18f0aa3e81dc3p-5
603=-0x1.0f2329dcc4221p-5
604=-0x1.befc8e30fd562p-5
605=-0x1.bd3f692ce8c09p-5
606=0x1.ca46bcb5f2872p-3
607=-0x1.62c50c24cf64bp-5
608=-0x1.2bdd935b38268p-4
609=-0x1.b94bb7e16ebaap-4
610=0x1.a6f443791496cp-4
611=0x1.f862851775995p-5
612=0x1.2a48cbcb9ad04p-4
613=-0x1.c2b65bb6beb6p-5
614=0x1.19642640b634cp-6
615=-0x1.8686dc71b2f5cp-5
616=-0x1.80d8f7e07f284p-5
617=-0x1.4430169e49d1ep-4
618=0x1.f0602ac5c7d15p-3
619=-0x1.97783eb00c767p-5
620=-0x1.6ac8a02688e48p-3
621=-0x1.6742257846e5ep-3
622=0x1.b3f85272845dfp-7
623=0x1.7cbd9e22cdcf4p-3
624=-0x1.b2910ed0743a4p-10
625=-0x1.8435fe41441dcp-8
626=0x1.2dbf24638d32cp-7
627=0x1.d2b484b3a28p-19
628=-0x1.3035e205daafep-6
629=0x1.57ec515916fc1p-7
630=-0x1.c99d5a31fe37p-5
631=-0x1.89d6ddea3b421p-8
632=0x1.0126b434f4f1ep-4
633=-0x1.e591d0952936cp-5
634=-0x1.8040ed8b14c98p-5
635=0x1.9d3426484dcabp-4
636=-0x1.2a20ac7e9df21p-3
637=0x1.c2eeef2cfe6aap-9
638=0x1.51c6504ff6c28p-4
639=-0x1.0ff03a7a55c92p-6
640=-0x1.8027782dbc69ap-5
641=-0x1.906a972e7972cp-3
642=-0x1.becf348e550f6p-5
643=-0x1.1f6e53d53d81ap-4
644=-0x1.45ad26bb23c34p-4
645=-0x1.9485bb383e2fcp-4
646=0x1.29f6717ecfb66p-3
647=0x1.e5464f676c6e8p-3
648=-0x1.11b0edc732afdp-3
649=0x1.1bbe1b6a0d5fcp-7
650=0x1.33a07f4815e71p-4
651=-0x1.6fdc5b040ad04p-6
652=-0x1.00fb6646ee8d9p-5
653=-0x1.a0fa84cbfa71p-4
654=-0x1.0a63ee6b8db91p-4
655=-0x1.275b5ef2e559cp-5
656=-0x1.9ceda10ceadc6p-4
657=-0x1.3453fcd950e22p-4
658=0x1.727b9d9d1b0cbp-4
659=0x1.9c98cf860ab98p-3
660=-0x1.9f6dbf37e5b6p-4
661=-0x1.0df8fffd7cd6p-5
662=0x1.67409001c85c4p-3
663=-0x1.13169f64cb8cbp-6
664=-0x1.21ebcb4da6a86p-6
665=-0x1.8f13f3757e6ep-6
666=-0x1.24ac26636b0e9p-5
667=-0x1.eb3b71b3e293ep-7
668=-0x1.4ba6cfb87f35bp-4
669=-0x1.a528fd0a830ccp-5
670=-0x1.7acd00652fa24p-5
671=0x1.a4b91fd69c61cp-3
672=-0x1.4466e0bd8af89p-6
673=0x1.40fcf957eef8bp-6
674=0x1.321f2926406a4p-9
675=-0x1.fe8c8f49320d5p-8
676=-0x1.bac36bba4d037p-7
677=0x1.493c49ff63cf2p-6
678=-0x1.81f4deb0267a7p-5
679=0x1.8dc729aa28673p-5
680=0x1.7995035a6efa2p-5
681=-0x1.e63e082672f47p-4
682=0x1.1b5692dca3d0ap-3
683=0x1.09210efa6ff99p-3
684=-0x1.fe92c699c016ap-6
685=-0x1.9e5d82c164ce2p-7
686=-0x1.9c4b8f5424f58p-4
687=-0x1.187a7917d95f9p-5
688=-0x1.5d27d8d2f69d9p-4
689=-0x1.38542f635d849p-5
690=-0x1.36c19c0ea9d42p-4
691=0x1.7e9ecc919cd8dp-3
692=0x1.5e68e47780d86p-3
693=-0x1.804840f552b01p-5
694=-0x1.876641f98a3bp-6
695=0x1.4d7b42f80a97ep-4
696=-0x1.3d1ddd704bd36p-5
697=0x1.5acb60a8beedfp-5
698=-0x1.ee999dfdc43b4p-10
699=0x1.3a9de6c04d47p-5
700=-0x1.1844214f91737p-5
701=-0x1.0c2cf3152b6b4p-4
702=-0x1.556c6035fd562p-4
703=0x1.85dba9801b967p-7
704=0x1.28c54eadfd53ep-3
705=-0x1.4a0e80d343ea2p-6
706=-0x1.7bd639ac90642p-8
707=0x1.66af2a43ff1f6p-6
708=0x1.20592cf0ea733p-4
709=-0x1.5d0654826383fp-5
710=-0x1.d0c16f0f1327cp-7
711=-0x1.22c344f59a369p-8
712=0x1.644d7d89f5fa5p-10
713=0x1.2760b470a8c5p-8
714=0x1.ddcfc20f60c4ep-5
715=-0x1.a250afe146276p-4
716=0x1.27159f81b6b59p-5
717=-0x1.17d6160ac1b26p-4
718=-0x1.6bd29989946cap-5
719=0x1.af31347fce385p-4
720=0x1.c0c2ae903df6bp-3
721=-0x1.591cf51e18ab2p-5
722=-0x1.1976ea1c70516p-3
723=-0x1.14b6b45392182p-3
725=0x1.4660b5e11a56ap-9
726=-0x1.6f690322fd63bp-4
727=-0x1.4c9cf3f135023p-8
728=0x1.8d6ac0ae0dbe8p-5
729=0x1.d320da110aebp-11
730=-0x1.513cbf2c89ac6p-10
731=0x1.3ae3b212a5698p-10
732=0x1.6cbb9fa794a9p-10
733=0x1.a8ef1fee7541ap-6
734=-0x1.5c8a2da34daf9p-5
736=0x1.82f1f43076ccbp-9
737=-0x1.4e95860d1bff8p-7
738=0x1.149ce1a25725fp-6
739=-0x1.04c9e0450115fp-10
740=-0x1.398b994dc57c4p-6
741=0x1.be8eb63fd375cp-8
742=-0x1.4a3fd6f4a4981p-8
743=-0x1.ab997579cf322p-7
744=-0x1.9774b4a543d0ap-9
745=-0x1.5f1203f8bb6c5p-6
746=0x1.8afc860c14b18p-6
747=-0x1.a65b6bf6c48d6p-6
748=-0x1.9365e70304443p-6
749=0x1.a709716e08b74p-5
750=-0x1.2541c0596d348p-9
751=0x1.abdafa21c6cafp-7
752=-0x1.24fdadc89616cp-8
753=-0x1.2d079bcf71d1fp-6
754=-0x1.14cbe540e617p-6
755=0x1.11ff4fe117288p-5
756=-0x1.c7898435c6cf5p-6
757=-0x1.8f2625346c7eap-7
758=0x1.3b5c4f8052692p-5
759=-0x1.c1998a506f544p-5
760=-0x1.b049c212c419ep-5
761=0x1.df8c19ba04e0cp-5
762=0x1.2af282a574672p-7
763=0x1.90fe5ddc62892p-8
764=-0x1.19d9742ab8c9dp-8
765=-0x1.113f732682c67p-6
766=0x1.073cd5036dd1bp-11
767=0x1.4b873973e59d6p-6
768=-0x1.ff321964af3c8p-12
769=0x1.614d4682bdf6fp-9
770=-0x1.3ee3a4bb4d07bp-7
771=-0x1.66d8dc8cf426p-4
772=-0x1.b45e26a5c514p-6
773=0x1.1547c30e6091p-3
774=-0x1.704365dd5fcacp-4
775=-0x1.a681a3e0f3948p-5
776=0x1.05da8e3e0814bp-2
777=-0x1.e16131a64cca7p-7
778=-0x1.c16d190a9128ap-7
779=-0x1.48981403470bfp-6
780=-0x1.24d4b272cada5p-6
781=0x1.2a169e1752828p-8
782=-0x1.032ffa1d439dap-4
783=-0x1.a1752999e6934p-7
784=0x1.adc14cb992a4dp-7
786=-0x1.0634484dcbda2p-3
787=-0x1.1b827ea56cabdp-7
788=0x1.3b0dfb1777f7bp-4
789=-0x1.2f7492ba6ccbfp-8
790=-0x1.69b3eb5b146a6p-6
791=0x1.2636c4217bf3ap-6
792=-0x1.0e3bf26938dacp-7
793=-0x1.f91b7a6a0dd81p-7
794=0x1.fafeab9e1045p-6
795=0x1.e58d162702084p-10
796=-0x1.080d901a04252p-8
797=-0x1.7e66517713948p-10
798=-0x1.cbbc877fb4878p-3
799=0x1.7aeea94b867dap-8
800=0x1.04838a0170ca6p-3
801=-0x1.83b77e643bb4cp-4
802=-0x1.6331e2325329fp-4
803=0x1.8eec6248d3d91p-4
804=-0x1.5ec38626f4272p-5
805=-0x1.882723df1b8d4p-5
806=-0x1.9842f8b5566fp-5
807=-0x1.c639a1e4c6e6ap-4
808=0x1.4106cd7e0976cp-3
809=0x1.67b5a5e942febp-4
810=-0x1.77ac7686ec7bp-6
811=-0x1.112391da21749p-5
812=0x1.cf69185f83c26p-5
813=-0x1.497e4d40bc0ep-5
814=-0x1.f0aa86db289dp-6
815=0x1.e8329cca8cb89p-8
816=0x1.db3df84482f52p-4
817=-0x1.3c89e8e49959p-5
818=-0x1.fef5f0ec51dbep-4
819=-0x1.beddae053515dp-4
820=0x1.ce15078ee9ff6p-5
821=0x1.a7571b4cc0efdp-4
822=0x1.c33287886ade7p-7
823=-0x1.28680a2827cb6p-8
824=-0x1.f49a704d3d486p-10
825=0x1.5a863982d55e7p-6
826=-0x1.1396f60736e46p-6
827=0x1.c5b39bb2c2dd8p-8
828=-0x1.8de66a009b2c6p-6
829=-0x1.8651a32dfffd4p-6
830=0x1.8f52a6674f75fp-5
831=-0x1.15a190919cfd3p-6
832=-0x1.466c70a713df8p-5
833=0x1.1d80d9c462b63p-4
834=-0x1.c09fbfd66ce8ep-9
835=0x1.fe629afc960acp-6
836=-0x1.d982a6a130826p-7
837=-0x1.61366142fd714p-6
838=-0x1.acfa7df0f27bep-7
839=0x1.30a927e554f9ep-5
840=-0x1.1ce7208e2e0d2p-4
841=-0x1.96b2e78eb4716p-5
842=0x1.62a038184b8d6p-4
843=-0x1.e50c28be8fccdp-5
844=0x1.777170f1805bp-6
845=0x1.8c04700ce2ddep-7
846=0x1.afd282b65abdap-6
847=-0x1.aad6b68a7cfe7p-7
848=-0x1.f82c64fd9be62p-8
849=-0x1.2477ed62d96c2p-5
850=-0x1.3ccf4562da3dp-6
851=0x1.b5399bf17d536p-5
852=-0x1.36a3b23fdd8e4p-4
853=0x1.bfe6670c89587p-6
854=0x1.2a856ed38eaa1p-5
855=-0x1.a292c8dd7ec1ep-8
856=-0x1.2e73d4bc442f2p-5
857=-0x1.1f69923fa31b6p-3
858=-0x1.72f0d076a1164p-6
859=-0x1.a61f47b3f1974p-6
860=-0x1.01782e0aff3b5p-5
861=-0x1.8bce0a386b314p-5
862=0x1.380b852b42869p-4
863=0x1.d33a39df77142p-4
864=0x1.1559074aad776p-5
865=-0x1.f668a48fd6986p-5
866=0x1.4bbc2b56eee62p-6
867=-0x1.9b0b06e6d025ep-5
868=-0x1.0417a95b3e908p-4
869=-0x1.280e4f460937dp-3
870=0x1.058c5bd9b873cp-2
871=-0x1.ffde75ccfaef7p-5
872=-0x1.4e53fcff35cdbp-3
873=-0x1.90fdc5143097dp-3
874=0x1.51e0b5865c4c6p-4
875=0x1.0e4de68ed8773p-2
876=-0x1.138f52c72ccecp-5
877=-0x1.0aa5a100e6b02p-6
878=0x1.9f2d892965f9cp-6
879=0x1.743168908b44ep-5
880=-0x1.25a1eac8300a2p-5
881=-0x1.164448c78a5a7p-5
882=-0x1.328150d9602ebp-5
883=-0x1.d26769a0344ebp-7
884=0x1.a11c685fc134cp-5
885=-0x1.7fb56d3bdfef8p-6
886=-0x1.e424ea93eb717p-7
887=0x1.340b44fa5aa04p-5
888=-0x1.e22028c1e72p-9
889=-0x1.99443f580203ap-7
890=0x1.060fb292967cp-6
891=0x1.548e154511b9ep-4
892=-0x1.fe9b18f6c9212p-6
893=-0x1.30d8854568098p-6
894=-0x1.ca5303fbe5a1cp-6
895=-0x1.64834e792c1d8p-6
896=-0x1.87f4957b5aeedp-5
897=0x1.697debb9e826ep-3
898=-0x1.e91ddf09722abp-6
899=-0x1.d91d5fa8937f5p-4
900=-0x1.ed148a0542e7p-4
902=0x1.a4c014bcf28f2p-4
903=-0x1.5c23351cb9614p-5
904=0x1.132503d3e1a68p-6
905=0x1.6c14736db2068p-6
906=-0x1.9278ff34bff8ep-7
907=-0x1.906fef21a77b5p-13
908=0x1.8324446c5c38p-8
909=-0x1.7b6fae040428dp-6
910=0x1.db94ee9788a92p-5
912=-0x1.c0bff0d66e0d4p-8
913=0x1.022775b08e9d3p-5
914=-0x1.ce637963a617ap-6
915=-0x1.a24adcbb61fedp-7
917=0x1.ff22575ff0462p-7
918=-0x1.9d23362aac801p-4
919=-0x1.dc3c51e30d324p-5
920=0x1.a809a584739eep-4
921=-0x1.7c6fc16d73042p-4
922=0x1.37c2a4859cfd6p-6
923=0x1.627671732defep-3
924=0x1.7b43e71ab3de2p-6
925=-0x1.7ee3d64571afdp-6
926=-0x1.97699208b54b3p-5
927=-0x1.87ecea3b571b7p-5
928=-0x1.db63cd78a19b2p-5
929=0x1.56100aa01affep-5
930=-0x1.b94f5119a4448p-11
931=-0x1.981c3f09b03cfp-9
932=0x1.af5a03f984436p-9
933=0x1.4f87baa42b5e5p-4
934=-0x1.9e3af44bccba4p-5
935=0x1.2a6e0c264c35p-10
936=0x1.f5b439938bfb8p-6
937=-0x1.b8bec852ff19ap-8
938=-0x1.a1dfb1e5c5c14p-6
940=-0x1.a78d3250275dep-7
941=0x1.8f7208c72ba3p-6
942=-0x1.1ddef5c2d7cc3p-4
943=0x1.04973a0c277abp-5
944=0x1.30b657a1f9d12p-4
945=-0x1.a83341e0ef1e5p-5
946=-0x1.973a923cb4769p-5
947=0x1.a7b54061c5d1fp-4
948=-0x1.782a42e7f2c4ap-7
949=0x1.546aff0b9e162p-5
950=-0x1.df9b51ddff79cp-8
951=-0x1.1ec5bb2cc3522p-4
952=-0x1.a6f721a8433a1p-4
953=0x1.66dd9993fd458p-3
954=-0x1.0cb4b25672237p-4
955=-0x1.2dd94f4247c2ep-4
956=0x1.35eb5032ca2a6p-3
957=-0x1.e581323f39731p-9
959=-0x1.96946ffe1c98ep-8
960=-0x1.1b8d8a301a253p-8
961=-0x1.f72726961cddcp-6
963=-0x1.3c5c2910ca35fp-3
965=0x1.0ed922ca1e064p-3
966=-0x1.f148a970ceacep-4
967=0x1.11a046efa66bbp-3
968=0x1.7220e75395456p-3
969=-0x1.811dc48dd4d08p-6
970=-0x1.03def87acc9ecp-5
971=-0x1.e2c40a6912881p-5
972=-0x1.ccf1fcb928a61p-6
973=-0x1.cb47299cff38ap-4
974=0x1.5bd8caa7b22e8p-5
975=-0x1.0894c472147e6p-3
976=0x1.8785d4a04629dp-9
977=0x1.8a4cd33b1cb8dp-4
978=-0x1.c30e9ba2cffd2p-4
979=0x1.b2f001d1e8225p-4
980=0x1.695b6cefbf05cp-3
981=-0x1.eac15fea5a2b1p-7
982=-0x1.fbcd0fb934705p-7
983=-0x1.1c1cde7a52bdcp-6
984=-0x1.560b7f33a8951p-6
985=-0x1.43584b1f20fe6p-4
986=-0x1.c0738e247412cp-6
987=0x1.8d7d98c7b5763p-5
988=-0x1.4ff1f7efba524p-9
989=-0x1.2e1627f17090dp-4
990=-0x1.18b54d0ddbc07p-6
991=-0x1.a51b80a65a32fp-7
992=0x1.0117e57cd436ap-5
993=0x1.1320c9994cb7dp-5
994=-0x1.2ab7baad2ee84p-5
995=-0x1.2a8f79425e33dp-9
996=-0x1.abdb5fdfe8983p-11
997=0x1.0037273de9c2ap-7
998=-0x1.4df4582d42ec1p-13
999=-0x1.149d6599d980ep-3
1000=-0x1.80bb0a2d8a79ap-6
1001=0x1.55fda9694c4acp-4
1002=-0x1.431c85b30e80ap-5
1003=-0x1.a12c6a0de6e48p-5
1004=0x1.9a3b2b911f00cp-8
1005=-0x1.176d9fef83089p-5
1006=-0x1.2bb2d5d601bf8p-5
1007=-0x1.392a92093ece1p-4
1008=-0x1.e19a44384868ep-5
1009=0x1.fc5227677663bp-5
1010=0x1.65649c3dda83ep-3
1011=0x1.22e9e5b02c9b5p-4
1012=-0x1.3e9ab26e0dc02p-6
1013=-0x1.e5f41c6e6b56p-5
1014=-0x1.14bc26aeb090cp-9
1015=-0x1.3fa04bd40c4c1p-7
1016=-0x1.b00c229c27c04p-4
1017=0x1.fbed8e0c53ca4p-4
1018=-0x1.33e3dcf66d029p-7
1019=-0x1.015f2bee3f18p-4
1020=-0x1.379b654a06f6dp-5
1021=-0x1.b93c7bc2b7b0fp-6
1022=0x1.c990eecc64e4ep-4
1023=-0x1.282d105e69d4bp-3
1024=0x1.50044c9319bfep-5
1025=0x1.0196d72cbd272p-5
1026=-0x1.3f42e105eae96p-4
1027=0x1.77dbc344f5e34p-4
1028=0x1.9bc20f70a54d1p-7
1029=-0x1.6c887387bcb4cp-6
1030=-0x1.0396817454bbfp-6
1031=-0x1.3706899a74337p-5
1032=-0x1.62d65cbd54392p-5
1034=0x1.c14ce3abefdd4p-4
1035=-0x1.37185a20dd31cp-6
1036=0x1.65271e2b9abb8p-8
1037=0x1.76c6191f89b05p-7
1038=-0x1.4389110828863p-6
1039=0x1.1bf3ed89d8528p-8
1040=0x1.141791589054bp-7
1041=-0x1.a7ffa5b6749a2p-5
1042=-0x1.82c9dcf1c3d5ap-6
1043=0x1.1486b05dcae48p-4
1044=0x1.3616436b76e44p-7
1045=-0x1.c6d4023b310dep-7
1046=0x1.34d297a2b2dafp-7
1047=-0x1.7a0d444a03dddp-4
1048=-0x1.9ae7f65f51dafp-5
1049=0x1.1a36847da9c45p-3
1050=-0x1.949e27a186996p-6
1051=-0x1.8b1f919f35bb9p-6
1052=0x1.475b862ac5f0cp-5
1053=-0x1.cb0b9ce909bf8p-6
1054=-0x1.2ad82d90ba84bp-6
1055=-0x1.5cfd1e1d9cecp-4
1056=-0x1.323777e54d20fp-5
1057=-0x1.c0a7cf9a212p-7
1058=0x1.00e2435ae75aep-3
1059=0x1.31dbe8358a49ap-8
1062=-0x1.a5ae5416d2611p-6
1063=0x1.f209e80cc345p-10
1064=0x1.9a279401dbe2fp-7
1065=-0x1.7b6db1d932cd6p-7
1066=0x1.d51db30565646p-6
1067=-0x1.55567ba022bcap-6
1068=0x1.1457824dc93dep-7
1069=-0x1.7d1513ed0179dp-9
1070=0x1.15b6abe56013cp-10
1071=0x1.a9a5233a3fdfp-6
1072=-0x1.176c523418909p-5
1074=-0x1.0060780f0188dp-4
1075=-0x1.771748a93dfd7p-7
1076=0x1.0ca2f20dbb19cp-4
1077=-0x1.c7c836ec1c94fp-8
1078=0x1.23f1d533e1b8ap-7
1079=-0x1.11ecdaaff4214p-8
1080=-0x1.d894246aa91f2p-7
1081=-0x1.7328ddc47c8d8p-8
1082=0x1.88e54562d0ea2p-6
1083=0x1.914ab65f8bbfep-10
1084=-0x1.fe273514c5ec2p-8
1085=0x1.905138126025p-8
1086=-0x1.56a2264a584e9p-13
1087=-0x1.42699e3d6f7dp-6
1088=0x1.97cb30c91eb47p-6
1089=-0x1.000885babba42p-6
1090=-0x1.29bd33b2bee29p-5
1091=0x1.ccd3ef6bd8a7cp-5
1092=-0x1.0ed02f88776a5p-7
1093=0x1.b756fa122bea5p-11
1094=0x1.15dd0f7b4887fp-7
1095=-0x1.4d3edae26c56bp-6
1096=0x1.75519f189e6c6p-6
1098=-0x1.7ccd8b028e49ep-6
1099=-0x1.bb3e8652aa3ep-5
1100=0x1.ef0726c023b3fp-5
1101=0x1.cdddacf5368d5p-8
1102=-0x1.2e6c13aecae07p-6
1104=-0x1.7baaceb56bbc9p-8
1105=-0x1.dd27c3b6745f2p-8
1106=0x1.36cd4ff4b1cccp-7
1107=-0x1.0207bbef63194p-4
1108=-0x1.4a3603e02b0d2p-6
1109=0x1.2033ad0f7fe8dp-4
1110=-0x1.4bfa6acd9dcf2p-6
1111=-0x1.b3755e6e4fdf9p-5
1112=0x1.7ecc0e6f3e5bcp-5
1113=-0x1.6f4063b363bf7p-8
1114=-0x1.84f258b6e9209p-7
1115=0x1.1fe2abaf88565p-6
1116=-0x1.72c180419156cp-6
1118=0x1.427281fdad93ep-6
1119=-0x1.152d1fa694458p-4
1120=0x1.6e37f08e78d34p-5
1121=0x1.2382e517c202p-5
1122=-0x1.23f708e4cd406p-8
1123=0x1.bb55bac69ef2ep-5
1124=-0x1.dd3e91c9f945p-5
1125=0x1.390e709d045adp-8
1126=-0x1.cec5eae93de9fp-7
1127=0x1.e38aeee6f0d03p-8
1128=0x1.fb25b1a636403p-5
1129=-0x1.1e71dfd99aa4p-5
1130=-0x1.e622cc8a91a2ep-5
1131=-0x1.af86a2259636ap-5
1133=0x1.acbb620080797p-5
1134=-0x1.510474ac97266p-4
1135=-0x1.d059b04041ebep-6
1136=0x1.20f8c96c5de17p-4
1137=-0x1.4318a59b45a0ap-4
1138=0x1.ad786b17c927ap-6
1139=0x1.b12fddc3b5d01p-3
1140=-0x1.fc12a381ae83ap-7
1141=-0x1.f8a62bbbe8a14p-7
1142=-0x1.51ec46f021f06p-6
1143=-0x1.3d9d2882b4d53p-6
1144=-0x1.b90bf5dd190dep-5
1145=-0x1.f347dcf1a3d66p-6
1146=-0x1.783cc3c59c1b3p-4
1147=0x1.9d494ac437bc3p-5
1148=0x1.d613cfe5f757bp-5
1149=-0x1.7b5899b7d6797p-6
1150=-0x1.2ec090e2b414fp-4
1151=0x1.814293fcd8f01p-6
1152=-0x1.41501938ac396p-6
1153=-0x1.370fbeaea1767p-5
1154=-0x1.69ad50f6640e5p-6
1155=-0x1.ae63c35e1f0b2p-5
1156=0x1.fcb35758f465p-4
1157=0x1.0b602dd4bc88fp-4
1158=-0x1.004983a9e145p-3
1159=-0x1.067fffd8667fcp-6
1160=0x1.281a37d2e99e8p-4
1161=-0x1.4c38b3d690f21p-4
1162=-0x1.6779e5527938p-9
1163=0x1.98521e99a3547p-4
1164=-0x1.5b14c837c5aadp-6
1165=-0x1.62e85212ca47cp-6
1166=-0x1.0234db1a90c1cp-5
1167=-0x1.2b8cadf19f56p-5
1168=0x1.12d0580cc381fp-7
1169=0x1.2046bd2bbb0dep-4
1170=-0x1.47e9570ce820cp-9
1172=0x1.03f270d0ae85cp-9
1173=0x1.01cadbe710fafp-12
1174=-0x1.a878cc39315c4p-9
1175=0x1.a5d85b8e609b6p-9
1176=-0x1.13a13b3e88d58p-12
1177=0x1.13dc8618c4b9dp-7
1178=-0x1.e7780fbe52ac8p-13
1180=-0x1.363a7504bbcd2p-6
1181=0x1.9249cb0dff14fp-6
1182=-0x1.17077c23bbfd5p-5
1183=-0x1.efec8d88e3377p-7
1184=0x1.8d4a6441deaaep-5
1185=-0x1.6bfe7845767fcp-7
1186=0x1.a394e197ee425p-9
1188=0x1.bb8690d70c74dp-9
1189=-0x1.6ffb27ccc7d62p-9
1190=-0x1.ad88e7ea22c9ep-11
1198=0x1.3e1322e4bcac2p-10
1199=-0x1.e98d8f97f79aap-11
1200=0x1.bd29d2a9296afp-10
1202=-0x1.1d5a33a53e11fp-10
1203=0x1.88f055f91db32p-8
1205=-0x1.2e0d7cea047ecp-8
1209=0x1.5508fb311d72p-7
1211=-0x1.7e65aadd429eep-10
1212=-0x1.2fd26d4ac82b2p-9
1214=-0x1.87dde43569174p-10
1215=-0x1.ef798014a3cap-13
1218=0x1.ff89e9682794ap-11
1220=-0x1.f372529bdb498p-11
1224=-0x1.0fdfeac750ae3p-8
1225=0x1.4bff8a7fc9e9bp-16
1226=0x1.14fc5aae0f52cp-11
1227=-0x1.25b89dad8ef56p-7
1228=-0x1.93fec76c15ff1p-6
1229=0x1.75eb549f89068p-6
1230=-0x1.8a4b4afe5fec8p-6
1231=0x1.266f091e320a2p-5
1233=0x1.ee83c638d9d3fp-7
1234=-0x1.a6cffa380ab77p-5
1235=0x1.2a5b3bef47dbap-5
1237=-0x1.162c69d996b28p-8
1238=0x1.67163f1a4e176p-8
1239=-0x1.e434df8dcd3a7p-5
1240=-0x1.9217a88d9a291p-6
1241=0x1.21e2e5eff0d7p-4
1242=-0x1.03d6c59a4009cp-7
1243=0x1.d2d55c5bfdd53p-8
1245=-0x1.a17e748401b26p-6
1246=0x1.7f41f7615883cp-7
1247=0x1.05997d88a823ep-6
1248=0x1.619e62239320dp-8
1249=-0x1.7ebfabf757b1bp-7
1250=0x1.ebdee9ac386b6p-8
1251=0x1.8635b082b6463p-6
1252=-0x1.b3478b8005b19p-8
1253=-0x1.cec383ca8bcb4p-10
1254=-0x1.e9677efc16088p-7
1255=-0x1.30ef246f23aeap-7
1256=0x1.69bcdc69f905cp-6
1257=-0x1.96964c5a8febfp-8
1258=0x1.13b68a9830062p-7
1259=0x1.94efa81c7752p-10
1260=-0x1.313504524585cp-7
1261=0x1.37f3606e448c1p-6
1262=-0x1.2c7157a3c09e3p-6
1263=0x1.2f8f7b7bfc8c4p-8
1264=0x1.41d8f35ef8483p-8
1265=-0x1.1997aa90ecf86p-6
1266=0x1.e5da282b98e27p-6
1267=-0x1.f3d08c0dde0ap-12
1268=-0x1.1e307e66e1842p-5
1269=0x1.5db87a974fb4ap-8
1270=0x1.80a5108027ad2p-8
1271=-0x1.eca6f2c162fafp-10
1272=0x1.c68b12efb476p-8
1273=-0x1.c33e3d63215adp-9
1274=0x1.498f40ba272e8p-12
1275=-0x1.b718c5294837ap-7
1276=0x1.2ac84b5c052fcp-6
1278=-0x1.9d90763e3d207p-6
1279=-0x1.0a5c44bb16272p-5
1280=0x1.88ec759a28a4ep-5
1281=-0x1.e5766563f681p-7
1282=-0x1.41a4bdf25970ep-7
1283=0x1.49b701fea7a0bp-6
1284=-0x1.12e0fd3dca4efp-5
1285=-0x1.450ce9890e6cp-6
1286=0x1.887a4da00618ap-5
1287=-0x1.09c3b690b22a8p-6
1288=-0x1.2e6752e9e424cp-7
1289=0x1.eb2ab15b11ad5p-7
1290=-0x1.70488c4991c78p-6
1292=0x1.b7e1df7c0a4d4p-6
1293=-0x1.3f4dcb620098ep-5
1294=-0x1.6bb1f7f1b69c2p-5
1295=0x1.5d7e37fccfb37p-4
1296=0x1.de19199abba9dp-7
1298=-0x1.aaf61b6a2b774p-13
1299=-0x1.28d095b21531ep-5
1300=0x1.811e440634ff8p-9
1301=0x1.c707f59018157p-6
1302=0x1.4ccfdbf73cb71p-9
1303=-0x1.fc045f6ce1dd1p-8
1304=0x1.7d24db530c213p-9
1305=-0x1.b8ca50c8394bep-7
1307=0x1.117f7cfbbde85p-7
1308=-0x1.a726cd64c1001p-9
1309=-0x1.1305a75dc9dc4p-7
1310=0x1.d7a71070543b6p-7
1311=-0x1.778e54a490463p-7
1312=0x1.eca73a76e7fc4p-8
1313=0x1.0901d6ef2bb7cp-8
1314=-0x1.a0933523af65ep-5
1315=-0x1.ac6cedddfd7abp-6
1316=0x1.9aa085e7e6331p-4
1317=-0x1.9f6f5898f8428p-6
1318=-0x1.9b45e276f0744p-6
1319=0x1.a78b70a13ac69p-4
1320=-0x1.8bd078cba98eap-7
1321=-0x1.ab07d4c9fa086p-8
1322=-0x1.4b1ce3430c7e7p-6
1323=-0x1.255314326c845p-6
1324=-0x1.31d6187669202p-6
1325=0x1.56e8f09a90c94p-9
1326=0x1.b9b520ba8f959p-8
1327=0x1.79d551380cccap-6
1328=-0x1.0f79c5dcd8bc6p-5
1329=0x1.3cbba8498760ep-7
1330=-0x1.af458c1c76ddcp-7
1332=-0x1.8160183adf2cep-7
1333=-0x1.68f675df0d778p-7
1334=0x1.7f9886acfa94bp-6
1336=0x1.3f322335774afp-6
1337=-0x1.62c6c3aa78fd8p-10
1338=0x1.bb62b5c4ed5e7p-6
1340=-0x1.147b51abf44a3p-5
1343=0x1.e3263d76b0dd9p-12
1346=0x1.1753ccc4c5a0fp-12
1350=-0x1.743e6b3b75e9ap-10
1351=-0x1.2731babc0f4a6p-10
1352=0x1.fd5c908b94fe2p-9
1355=0x1.a31679d761b9p-10
1357=0x1.334a6245d82fp-14
1359=0x1.563db5c3e7afbp-10
1363=-0x1.6adc0f6e9e125p-9
1364=0x1.04b9b990ae1d6p-8
1365=-0x1.667539e8a5af1p-9
1366=0x1.6c753c06c8642p-13
1368=-0x1.4c66868902271p-10
1369=-0x1.7eb3b0f1d9ea2p-7
1370=0x1.80da258614adep-7
1371=-0x1.d16c57f6bb758p-7
1372=-0x1.0384fd7f6daf8p-7
1373=0x1.73f7fd2d89b49p-6
1374=-0x1.47a161cb6a804p-9
1376=0x1.103cce6da9044p-10
1377=-0x1.314ddda40b302p-7
1378=0x1.d36e0be42ad96p-8
1381=-0x1.fdb73618e20b8p-10
1383=0x1.64f2ee8a1a8d1p-6
1385=-0x1.792503536ed29p-6
1386=-0x1.0a36fea109991p-8
1389=-0x1.8dcc2871801afp-8
1391=0x1.0aca650f3bf8p-9
1393=-0x1.b1f056e31026p-8
1394=0x1.3f304f0fd30d4p-8
1395=-0x1.813af4400ac7ap-8
1396=-0x1.a2996b99c1b07p-8
1397=0x1.af6e7ebbc262cp-7
1398=-0x1.75d16e2cffc57p-8
1399=0x1.1e541cf02a96dp-7
1400=-0x1.02baf881f763ep-16
1402=0x1.ed09114bea54cp-7
1403=-0x1.256b319d8d746p-8
1404=0x1.cb4a88253233fp-7
1406=-0x1.e84893f035e78p-7
1407=0x1.bf3a7a4413f3p-7
1408=-0x1.6f3af8e5c825bp-8
1409=-0x1.29a0d3ce452ap-7
1410=-0x1.289ee615042d8p-7
1412=0x1.07f7f9cacc1e2p-7
1413=-0x1.4557c6cc9d135p-7
1414=-0x1.4d397b781c6d1p-7
1415=0x1.0bc35f2182af9p-6
1416=-0x1.88f33b7f70d8fp-7
1417=-0x1.ad2f68c270bc4p-8
1418=0x1.28ab8ecc7d8e2p-6
1419=-0x1.aface769bfa5ap-8
1420=-0x1.1eea02a9676c2p-9
1421=0x1.4ddb1ad8c4ec9p-8
1422=-0x1.667e3e4fc84e7p-9
1423=-0x1.23d4152b73736p-9
1424=0x1.71fe048a0953ep-8
1446=-0x1.684a4516c73acp-6
1447=-0x1.d012f42e1c48fp-8
1448=0x1.90b65500da956p-6
1449=-0x1.0beca0022d627p-6
1450=-0x1.089fbbdc8576bp-6
1451=0x1.edbabc0e657fcp-6
1452=-0x1.d4f8cae2970c5p-6
1453=-0x1.86618870bc187p-7
1454=0x1.317123a5fae5ep-5
1455=-0x1.e071d4df405cap-6
1456=-0x1.d8488f2d909e5p-5
1457=0x1.804a782f46fe2p-5
1458=-0x1.e4de05eb0293dp-5
1459=-0x1.335c242df3f9dp-5
1460=0x1.7842ab695bf92p-4
1461=-0x1.335b40b057d3ap-5
1462=0x1.907deced41ce2p-5
1463=0x1.17ebf2c397c9ep-9
1464=-0x1.e1588b4ed2af6p-8
1465=-0x1.19cf723e00c9p-8
1466=0x1.7e47197745b01p-7
1467=0x1.b62d83d9005bep-5
1468=-0x1.52e7e371811eep-7
1469=-0x1.57f4d6c3a8405p-11
1470=-0x1.87eb63c895efbp-7
1471=-0x1.2d1745f5729b8p-8
1472=0x1.cc5c0e077a473p-7
1473=-0x1.5f01ee96a2588p-8
1474=-0x1.6e167d079e13p-7
1475=0x1.67a0de072884ep-7
1476=-0x1.362523a263691p-5
1477=-0x1.a5e12ccf59667p-6
1478=0x1.0c893357fc396p-4
1479=-0x1.5167574fc68bdp-12
1481=0x1.6450d6d682c6ap-9
1482=-0x1.8cfaa45737914p-7
1483=-0x1.4d1e5b960351bp-7
1484=0x1.6eb221278a92ap-6
1485=-0x1.284fc83a98612p-9
1486=-0x1.523e4ca34e9c2p-8
1487=0x1.7d288e7e1f188p-7
1488=-0x1.545af64428be3p-7
1489=0x1.d17bc35641b2p-7
1490=-0x1.7b8486d83f7dcp-7
1491=-0x1.342c160431093p-8
1493=0x1.dd1e66536cab7p-8
1494=0x1.e583d843c64c8p-6
1495=0x1.094c76522ecd6p-8
1496=-0x1.ac6dabc8b1d7cp-7
1497=-0x1.b6a6dfabe1284p-10
1498=-0x1.28dedf4cd5c12p-7
1499=0x1.6b4ea096e24cep-7
1500=-0x1.57d576b678facp-8
1501=0x1.41f8cfc48dce4p-9
1502=0x1.125b983f9b877p-8
1503=0x1.1f6e29b6ff246p-6
1505=-0x1.47e5aebbef1d4p-7
1506=-0x1.8949131b86f76p-10
1507=0x1.41c3b00e245fep-11
1508=0x1.7e3b32a7e862bp-10
1510=-0x1.b5807f2cecb62p-9
1511=0x1.28ea38b07a4f5p-8
1512=-0x1.9add819cceebbp-9
1513=0x1.95a7a12989c28p-8
1515=0x1.31c62c4f70269p-9
1516=-0x1.475e29f7fb574p-7
1517=0x1.8faab0865d0c2p-8
1518=-0x1.ee3af2de79b58p-7
1519=-0x1.d6164d28f12d4p-8
1520=0x1.7193d628f3448p-6
1521=-0x1.ea92cc206502ep-8
1522=0x1.e445cb2c8d458p-7
1523=-0x1.9b80c3290f2a8p-8
1524=0x1.c24610b5946ap-6
1526=-0x1.45333c14bfdb4p-6
1527=-0x1.69683977ec742p-8
1528=0x1.f325be0772a3ep-11
1529=0x1.caff7a3317f9ap-9
1530=-0x1.bfddde985f44ep-11
1532=0x1.31906285e09f9p-10
1533=-0x1.3fb3b9737b8aap-8
1534=-0x1.279b282eba495p-7
1535=0x1.68e0627e07411p-7
1536=-0x1.ccf1f695c1cap-8
1538=0x1.081bdc597a59cp-8
1539=-0x1.1d4fcae4ce4acp-10
1540=-0x1.960d2b4b9586bp-8
1541=0x1.7c672db829be5p-8
1542=-0x1.21917a12586c4p-7
1543=-0x1.47c9cbf6cd8f7p-8
1544=0x1.f17fa784ce26ap-7
1545=-0x1.a77b875c83117p-9
1546=0x1.818215d648dabp-8
1547=-0x1.b5f48960ef29p-15
1548=0x1.a49a33d5191e2p-8
1550=-0x1.c1fe4a681aa24p-8
1555=0x1.1acdb18a8f67ap-10
1556=-0x1.1815e1ff71696p-11
1558=-0x1.07dd2f2e3f206p-10
1559=0x1.7916bb782fcap-12
1560=-0x1.9ef880f811afdp-8
1561=-0x1.86969cb9d3531p-6
1562=0x1.07270b21d3e73p-5
1563=-0x1.eb4ffaad9145p-9
1564=0x1.2fc3c673e46d4p-10
1565=0x1.d11f7b9126321p-9
1566=0x1.70d596eea0334p-12
1570=0x1.27980744a0e1ap-14
1573=-0x1.60bfcbb2561c4p-12
1574=0x1.93b45a041722ap-10
1582=-0x1.41487b4b47fa3p-9
1583=0x1.07ce31f5a06dp-8
1584=-0x1.aad2970bdb337p-9
1585=0x1.8a0a1a1b0bcc6p-12
1586=0x1.8c64f3445234dp-11
1587=0x1.5fed53ee873d6p-9
1589=-0x1.f9c826c45a5a4p-12
1590=-0x1.1224d861fb4b5p-9
1592=0x1.c7b0d3d44587fp-10
1612=-0x1.0d7f99f099467p-8
1613=0x1.87d6baa018dc8p-8
1616=0x1.3aab3e28459d6p-11
1617=-0x1.771aa47fcf393p-9
1618=-0x1.4a791bee7e1a4p-8
1619=0x1.42f5e9aed2ee4p-7
1623=-0x1.d92b983daaddp-9
1625=0x1.8fec6ab17e1bep-9
1649=0x1.6564356f9a92ep-13
1662=-0x1.4b5d3751a54bp-15
1694=0x1.891c4428e7e06p-12
1705=-0x1.6f6530ec0b3f2p-13
1706=0x1.1c4cb87c1745dp-10
1707=-0x1.89e7bc8fc3bf7p-11
1708=-0x1.9306df413f343p-7
1709=0x1.f8121010b91ep-7
1786=-0x1.51b0191a5e572p-10
1787=0x1.64443286764d8p-10
1789=0x1.688ed45ca482fp-11
1791=0x1.5ae503ad00e88p-11
1792=-0x1.07d01ddd2080dp-8
1793=0x1.a151206b4db54p-11
1794=-0x1.0c60951786a8fp-9
1795=0x1.c762081bb2f1ap-8
1796=-0x1.e9e2413e8977dp-10
1797=0x1.6de9d6670e93cp-7
1799=-0x1.7e01a3c98b096p-7
1801=0x1.a7427fb645f16p-9
1802=-0x1.cd97595e78519p-11
1829=0x1.012aa58c5f954p-10
1883=0x1.905ffdbe36ffbp-14
1884=-0x1.04d1cfcc51e64p-14
1886=0x1.7361458f6ccfbp-13
1984=0x1.7e7366d01b5c7p-11
1986=0x1.fb3fb718deef1p-12
1988=-0x1.c08bf3b4564a8p-11
2150=0x1.221fbe50c0438p-12
2153=0x1.30de996e0e5b4p-12
2344=-0x1.590e93ae4d9bcp-14
2345=0x1.688d0139112bcp-11
2346=-0x1.a32087dcd6d0ep-16
2347=-0x1.3f73e85e64ffp-11
2348=0x1.6141cf44f311ep-9
2349=-0x1.5c42d08ea3a52p-13
2350=-0x1.c1b54e496881ep-11
2351=0x1.c1f354b3075cep-9
2352=-0x1.cb19c4f41a724p-13
2353=-0x1.707992e0bf58ep-10
2354=0x1.044b350b2aa4fp-8
2358=-0x1.a1eeb1307d926p-15
2362=-0x1.e47da6ea41043p-11
2363=0x1.a2674e48f56cp-8
2364=-0x1.4d9c3683d1b26p-11
2366=0x1.0657d8960c462p-9
