#mdl#2#736
#rdr#18/10/0
1:b,
21:u:code-1LLL =%X[-3,0],
21:u:code-1LL  =%X[-2,0],
21:u:code-1L   =%X[-1,0],
20:u:code-1X   =%X[0,0],
20:u:code-1R   =%X[1,0],
20:u:code-1RR  =%X[2,0],
20:u:code-1RRR =%X[3,0],
13:*100:%x[ 0,1],
13:*100:%x[ 0,2],
13:*100:%x[ 0,3],
13:*100:%x[ 0,4],
13:*100:%x[ 0,5],
13:*100:%x[ 0,6],
13:*100:%x[ 0,7],
13:*100:%x[ 0,8],
13:*100:%x[ 0,9],
14:*100:%x[ 0,10],
#qrk#3
1:T,
1:I,
1:O,
#qrk#635
1:b,
17:u:code-1LLL =_x-3,
17:u:code-1LL  =_x-2,
17:u:code-1L   =_x-1,
15:u:code-1X   =84,
16:u:code-1R   =111,
16:u:code-1RR  =108,
16:u:code-1RRR =101,
7:*100:Lu,
8:*100:7:T,
9:*100:25:T,
9:*100:24:F,
9:*100:21:F,
9:*100:16:F,
8:*100:1:F,
9:*100:14:F,
9:*100:18:F,
9:*100:15:F,
17:u:code-1LLL =_x-2,
17:u:code-1LL  =_x-1,
15:u:code-1L   =84,
16:u:code-1X   =111,
16:u:code-1R   =108,
16:u:code-1RR  =101,
16:u:code-1RRR =114,
7:*100:Ll,
9:*100:22:T,
8:*100:1:T,
8:*100:9:F,
9:*100:11:F,
9:*100:13:F,
8:*100:2:F,
8:*100:8:F,
9:*100:27:F,
17:u:code-1LLL =_x-1,
15:u:code-1LL  =84,
16:u:code-1L   =111,
16:u:code-1X   =108,
16:u:code-1R   =101,
16:u:code-1RR  =114,
15:u:code-1RRR =97,
9:*100:18:T,
8:*100:0:T,
8:*100:5:T,
9:*100:17:F,
9:*100:29:F,
8:*100:7:F,
8:*100:3:F,
15:u:code-1LLL =84,
16:u:code-1LL  =111,
16:u:code-1L   =108,
16:u:code-1X   =101,
16:u:code-1R   =114,
15:u:code-1RR  =97,
16:u:code-1RRR =110,
9:*100:11:T,
9:*100:23:F,
8:*100:0:F,
9:*100:10:F,
16:u:code-1LLL =111,
16:u:code-1LL  =108,
16:u:code-1L   =101,
16:u:code-1X   =114,
15:u:code-1R   =97,
16:u:code-1RR  =110,
15:u:code-1RRR =99,
9:*100:29:T,
8:*100:5:F,
9:*100:25:F,
9:*100:19:F,
9:*100:22:F,
16:u:code-1LLL =108,
16:u:code-1LL  =101,
16:u:code-1L   =114,
15:u:code-1X   =97,
16:u:code-1R   =110,
15:u:code-1RR  =99,
16:u:code-1RRR =105,
9:*100:21:T,
8:*100:4:T,
16:u:code-1LLL =101,
16:u:code-1LL  =114,
15:u:code-1L   =97,
16:u:code-1X   =110,
15:u:code-1R   =99,
16:u:code-1RR  =105,
16:u:code-1RRR =106,
8:*100:6:T,
16:u:code-1LLL =114,
15:u:code-1LL  =97,
16:u:code-1L   =110,
15:u:code-1X   =99,
16:u:code-1R   =105,
16:u:code-1RR  =106,
16:u:code-1RRR =111,
8:*100:2:T,
9:*100:19:T,
9:*100:24:T,
15:u:code-1LLL =97,
16:u:code-1LL  =110,
15:u:code-1L   =99,
16:u:code-1X   =105,
16:u:code-1R   =106,
16:u:code-1RR  =111,
16:u:code-1RRR =115,
8:*100:6:F,
16:u:code-1LLL =110,
15:u:code-1LL  =99,
16:u:code-1L   =105,
16:u:code-1X   =106,
16:u:code-1RR  =115,
15:u:code-1RRR =32,
9:*100:23:T,
9:*100:12:T,
15:u:code-1LLL =99,
16:u:code-1LL  =105,
16:u:code-1L   =106,
16:u:code-1R   =115,
15:u:code-1RR  =32,
16:u:code-1RRR =382,
9:*100:26:T,
8:*100:9:T,
16:u:code-1LLL =105,
16:u:code-1LL  =106,
16:u:code-1X   =115,
15:u:code-1R   =32,
16:u:code-1RR  =382,
16:u:code-1RRR =109,
9:*100:27:T,
16:u:code-1LLL =106,
16:u:code-1L   =115,
15:u:code-1X   =32,
16:u:code-1R   =382,
16:u:code-1RR  =109,
7:*100:Zs,
9:*100:20:F,
16:u:code-1LL  =115,
15:u:code-1L   =32,
16:u:code-1X   =382,
16:u:code-1R   =109,
16:u:code-1RRR =103,
16:u:code-1LLL =115,
15:u:code-1LL  =32,
16:u:code-1L   =382,
16:u:code-1X   =109,
16:u:code-1RR  =103,
16:u:code-1RRR =117,
9:*100:16:T,
15:u:code-1LLL =32,
16:u:code-1LL  =382,
16:u:code-1L   =109,
16:u:code-1R   =103,
16:u:code-1RR  =117,
8:*100:8:T,
16:u:code-1LLL =382,
16:u:code-1LL  =109,
16:u:code-1X   =103,
16:u:code-1R   =117,
9:*100:15:T,
16:u:code-1LLL =109,
16:u:code-1L   =103,
16:u:code-1X   =117,
8:*100:4:F,
16:u:code-1LL  =103,
16:u:code-1L   =117,
16:u:code-1RRR =112,
9:*100:13:T,
16:u:code-1LLL =103,
16:u:code-1LL  =117,
16:u:code-1RR  =112,
16:u:code-1LLL =117,
16:u:code-1R   =112,
8:*100:3:T,
16:u:code-1X   =112,
16:u:code-1RRR =107,
9:*100:26:F,
16:u:code-1L   =112,
16:u:code-1RR  =107,
9:*100:20:T,
16:u:code-1LL  =112,
16:u:code-1R   =107,
16:u:code-1RRR =108,
16:u:code-1LLL =112,
16:u:code-1X   =107,
15:u:code-1RRR =98,
16:u:code-1L   =107,
15:u:code-1RR  =98,
16:u:code-1RRR =116,
9:*100:12:F,
16:u:code-1LL  =107,
15:u:code-1R   =98,
16:u:code-1RR  =116,
16:u:code-1LLL =107,
15:u:code-1X   =98,
16:u:code-1R   =116,
15:u:code-1L   =98,
16:u:code-1X   =116,
15:u:code-1LL  =98,
16:u:code-1L   =116,
15:u:code-1LLL =98,
16:u:code-1LL  =116,
16:u:code-1RRR =353,
16:u:code-1LLL =116,
16:u:code-1RR  =353,
16:u:code-1RRR =121,
9:*100:28:F,
16:u:code-1R   =353,
16:u:code-1RR  =121,
9:*100:14:T,
16:u:code-1X   =353,
16:u:code-1R   =121,
9:*100:17:T,
16:u:code-1L   =353,
16:u:code-1X   =121,
16:u:code-1LL  =353,
16:u:code-1L   =121,
16:u:code-1LLL =353,
16:u:code-1LL  =121,
16:u:code-1LLL =121,
15:u:code-1RRR =86,
15:u:code-1RR  =86,
15:u:code-1RRR =46,
15:u:code-1R   =86,
15:u:code-1RR  =46,
15:u:code-1X   =86,
15:u:code-1R   =46,
15:u:code-1RRR =74,
15:u:code-1L   =86,
15:u:code-1X   =46,
15:u:code-1RR  =74,
7:*100:Po,
15:u:code-1LL  =86,
15:u:code-1L   =46,
15:u:code-1R   =74,
9:*100:10:T,
15:u:code-1LLL =86,
15:u:code-1LL  =46,
15:u:code-1X   =74,
15:u:code-1LLL =46,
15:u:code-1L   =74,
15:u:code-1LL  =74,
15:u:code-1LLL =74,
16:u:code-1RRR =279,
16:u:code-1RR  =279,
16:u:code-1R   =279,
15:u:code-1RRR =82,
16:u:code-1X   =279,
15:u:code-1RR  =82,
16:u:code-1L   =279,
15:u:code-1R   =82,
16:u:code-1LL  =279,
15:u:code-1X   =82,
16:u:code-1LLL =279,
15:u:code-1L   =82,
15:u:code-1LL  =82,
15:u:code-1LLL =82,
16:u:code-1RRR =100,
16:u:code-1RR  =100,
16:u:code-1R   =100,
16:u:code-1X   =100,
16:u:code-1L   =100,
16:u:code-1LL  =100,
16:u:code-1LLL =100,
16:u:code-1RRR =303,
16:u:code-1RR  =303,
16:u:code-1R   =303,
16:u:code-1X   =303,
16:u:code-1L   =303,
16:u:code-1LL  =303,
16:u:code-1LLL =303,
15:u:code-1RRR =68,
15:u:code-1RR  =68,
15:u:code-1R   =68,
15:u:code-1X   =68,
15:u:code-1L   =68,
15:u:code-1LL  =68,
15:u:code-1LLL =68,
16:u:code-1RRR =118,
16:u:code-1RR  =118,
16:u:code-1R   =118,
16:u:code-1X   =118,
16:u:code-1L   =118,
16:u:code-1LL  =118,
16:u:code-1LLL =118,
9:*100:28:T,
15:u:code-1RRR =75,
15:u:code-1RR  =75,
15:u:code-1R   =75,
15:u:code-1X   =75,
15:u:code-1L   =75,
15:u:code-1LL  =75,
15:u:code-1LLL =75,
15:u:code-1RRR =50,
15:u:code-1RR  =50,
15:u:code-1RRR =48,
15:u:code-1R   =50,
15:u:code-1RR  =48,
15:u:code-1RRR =49,
15:u:code-1X   =50,
15:u:code-1R   =48,
15:u:code-1RR  =49,
15:u:code-1RRR =54,
7:*100:Nd,
15:u:code-1L   =50,
15:u:code-1X   =48,
15:u:code-1R   =49,
15:u:code-1RR  =54,
15:u:code-1RRR =45,
15:u:code-1LL  =50,
15:u:code-1L   =48,
15:u:code-1X   =49,
15:u:code-1R   =54,
15:u:code-1RR  =45,
16:u:code-1RRR =371,
15:u:code-1LLL =50,
15:u:code-1LL  =48,
15:u:code-1L   =49,
15:u:code-1X   =54,
15:u:code-1R   =45,
16:u:code-1RR  =371,
15:u:code-1LLL =48,
15:u:code-1LL  =49,
15:u:code-1L   =54,
15:u:code-1X   =45,
16:u:code-1R   =371,
7:*100:Pd,
15:u:code-1LLL =49,
15:u:code-1LL  =54,
15:u:code-1L   =45,
16:u:code-1X   =371,
15:u:code-1LLL =54,
15:u:code-1LL  =45,
16:u:code-1L   =371,
15:u:code-1RRR =84,
15:u:code-1LLL =45,
16:u:code-1LL  =371,
15:u:code-1RR  =84,
16:u:code-1LLL =371,
15:u:code-1R   =84,
17:u:code-1RRR =8222,
17:u:code-1RR  =8222,
16:u:code-1RRR =352,
17:u:code-1R   =8222,
16:u:code-1RR  =352,
17:u:code-1X   =8222,
16:u:code-1R   =352,
7:*100:Ps,
17:u:code-1L   =8222,
16:u:code-1X   =352,
17:u:code-1LL  =8222,
16:u:code-1L   =352,
17:u:code-1LLL =8222,
16:u:code-1LL  =352,
16:u:code-1LLL =352,
16:u:code-1RRR =363,
16:u:code-1RR  =363,
16:u:code-1R   =363,
16:u:code-1X   =363,
16:u:code-1L   =363,
16:u:code-1RRR =261,
16:u:code-1LL  =363,
16:u:code-1RR  =261,
15:u:code-1RRR =44,
16:u:code-1LLL =363,
16:u:code-1R   =261,
15:u:code-1RR  =44,
16:u:code-1X   =261,
15:u:code-1R   =44,
16:u:code-1L   =261,
15:u:code-1X   =44,
16:u:code-1LL  =261,
15:u:code-1L   =44,
16:u:code-1LLL =261,
15:u:code-1LL  =44,
15:u:code-1LLL =44,
15:u:code-1RRR =88,
15:u:code-1RR  =88,
15:u:code-1R   =88,
15:u:code-1X   =88,
15:u:code-1L   =88,
15:u:code-1LL  =88,
15:u:code-1LLL =88,
17:u:code-1RRR =8211,
17:u:code-1RR  =8211,
17:u:code-1R   =8211,
15:u:code-1RRR =72,
17:u:code-1X   =8211,
15:u:code-1RR  =72,
17:u:code-1L   =8211,
15:u:code-1R   =72,
17:u:code-1LL  =8211,
15:u:code-1X   =72,
17:u:code-1LLL =8211,
15:u:code-1L   =72,
15:u:code-1LL  =72,
15:u:code-1LLL =72,
15:u:code-1RRR =76,
15:u:code-1RR  =76,
15:u:code-1R   =76,
15:u:code-1X   =76,
15:u:code-1L   =76,
15:u:code-1LL  =76,
15:u:code-1LLL =76,
16:u:code-1RRR =269,
16:u:code-1RR  =269,
16:u:code-1R   =269,
16:u:code-1X   =269,
16:u:code-1L   =269,
16:u:code-1LL  =269,
16:u:code-1LLL =269,
17:u:code-1RRR =8220,
17:u:code-1RR  =8220,
17:u:code-1R   =8220,
17:u:code-1X   =8220,
7:*100:Pi,
17:u:code-1L   =8220,
17:u:code-1LL  =8220,
15:u:code-1RRR =66,
17:u:code-1LLL =8220,
15:u:code-1RR  =66,
15:u:code-1RRR =78,
15:u:code-1R   =66,
15:u:code-1RR  =78,
15:u:code-1RRR =83,
15:u:code-1X   =66,
15:u:code-1R   =78,
15:u:code-1RR  =83,
15:u:code-1L   =66,
15:u:code-1X   =78,
15:u:code-1R   =83,
15:u:code-1LL  =66,
15:u:code-1L   =78,
15:u:code-1X   =83,
15:u:code-1LLL =66,
15:u:code-1LL  =78,
15:u:code-1L   =83,
15:u:code-1LLL =78,
15:u:code-1LL  =83,
15:u:code-1LLL =83,
16:u:code-1RRR =104,
16:u:code-1RR  =104,
16:u:code-1R   =104,
16:u:code-1X   =104,
16:u:code-1L   =104,
16:u:code-1LL  =104,
16:u:code-1LLL =104,
16:u:code-1RRR =102,
16:u:code-1RR  =102,
16:u:code-1R   =102,
16:u:code-1X   =102,
16:u:code-1L   =102,
16:u:code-1LL  =102,
16:u:code-1LLL =102,
16:u:code-1RRR =281,
16:u:code-1RR  =281,
16:u:code-1R   =281,
16:u:code-1X   =281,
16:u:code-1L   =281,
16:u:code-1LL  =281,
16:u:code-1LLL =281,
15:u:code-1RRR =65,
15:u:code-1RR  =65,
15:u:code-1R   =65,
15:u:code-1X   =65,
15:u:code-1L   =65,
15:u:code-1LL  =65,
15:u:code-1LLL =65,
16:u:code-1RRR =302,
16:u:code-1RR  =302,
16:u:code-1R   =302,
16:u:code-1X   =302,
16:u:code-1L   =302,
16:u:code-1LL  =302,
16:u:code-1LLL =302,
15:u:code-1RRR =77,
15:u:code-1RR  =77,
15:u:code-1R   =77,
15:u:code-1X   =77,
15:u:code-1L   =77,
15:u:code-1LL  =77,
15:u:code-1LLL =77,
15:u:code-1RRR =73,
15:u:code-1RR  =73,
15:u:code-1R   =73,
15:u:code-1X   =73,
15:u:code-1L   =73,
15:u:code-1LL  =73,
15:u:code-1LLL =73,
16:u:code-1RRR =122,
16:u:code-1RR  =122,
16:u:code-1R   =122,
16:u:code-1X   =122,
16:u:code-1L   =122,
16:u:code-1LL  =122,
16:u:code-1LLL =122,
15:u:code-1RRR =80,
15:u:code-1RR  =80,
15:u:code-1R   =80,
15:u:code-1X   =80,
15:u:code-1L   =80,
15:u:code-1LL  =80,
15:u:code-1LLL =80,
16:u:code-1RRR =268,
16:u:code-1RR  =268,
16:u:code-1R   =268,
16:u:code-1X   =268,
16:u:code-1L   =268,
16:u:code-1LL  =268,
16:u:code-1LLL =268,
16:u:code-1RRR =362,
16:u:code-1RR  =362,
16:u:code-1R   =362,
16:u:code-1X   =362,
15:u:code-1RRR =85,
16:u:code-1L   =362,
15:u:code-1RR  =85,
16:u:code-1LL  =362,
15:u:code-1R   =85,
16:u:code-1LLL =362,
15:u:code-1X   =85,
15:u:code-1RRR =52,
15:u:code-1L   =85,
15:u:code-1RR  =52,
15:u:code-1LL  =85,
15:u:code-1R   =52,
15:u:code-1RRR =51,
15:u:code-1LLL =85,
15:u:code-1X   =52,
15:u:code-1RR  =51,
15:u:code-1L   =52,
15:u:code-1R   =51,
15:u:code-1LL  =52,
15:u:code-1X   =51,
15:u:code-1LLL =52,
15:u:code-1L   =51,
15:u:code-1LL  =51,
15:u:code-1LLL =51,
15:u:code-1RRR =58,
15:u:code-1RR  =58,
15:u:code-1R   =58,
15:u:code-1X   =58,
15:u:code-1L   =58,
15:u:code-1LL  =58,
15:u:code-1LLL =58,
15:u:code-1RRR =40,
15:u:code-1RR  =40,
15:u:code-1R   =40,
15:u:code-1X   =40,
15:u:code-1L   =40,
15:u:code-1LL  =40,
15:u:code-1LLL =40,
15:u:code-1RRR =41,
15:u:code-1RR  =41,
15:u:code-1R   =41,
15:u:code-1X   =41,
7:*100:Pe,
15:u:code-1L   =41,
15:u:code-1LL  =41,
15:u:code-1LLL =41,
15:u:code-1RRR =71,
15:u:code-1RR  =71,
15:u:code-1R   =71,
15:u:code-1X   =71,
15:u:code-1L   =71,
15:u:code-1LL  =71,
15:u:code-1LLL =71,
16:u:code-1RRR =119,
16:u:code-1RR  =119,
16:u:code-1R   =119,
16:u:code-1X   =119,
16:u:code-1L   =119,
16:u:code-1LL  =119,
16:u:code-1LLL =119,
15:u:code-1RRR =70,
15:u:code-1RR  =70,
15:u:code-1R   =70,
15:u:code-1X   =70,
15:u:code-1L   =70,
15:u:code-1LL  =70,
15:u:code-1LLL =70,
15:u:code-1RRR =69,
15:u:code-1RR  =69,
15:u:code-1R   =69,
15:u:code-1X   =69,
15:u:code-1L   =69,
15:u:code-1LL  =69,
15:u:code-1LLL =69,
15:u:code-1RRR =79,
15:u:code-1RR  =79,
15:u:code-1R   =79,
15:u:code-1X   =79,
15:u:code-1L   =79,
15:u:code-1LL  =79,
15:u:code-1LLL =79,
15:u:code-1RRR =63,
15:u:code-1RR  =63,
15:u:code-1R   =63,
15:u:code-1X   =63,
15:u:code-1L   =63,
15:u:code-1LL  =63,
15:u:code-1LLL =63,
16:u:code-1RRR =381,
16:u:code-1RR  =381,
16:u:code-1R   =381,
16:u:code-1X   =381,
16:u:code-1L   =381,
16:u:code-1LL  =381,
16:u:code-1LLL =381,
15:u:code-1RRR =87,
15:u:code-1RR  =87,
15:u:code-1R   =87,
15:u:code-1X   =87,
15:u:code-1L   =87,
15:u:code-1LL  =87,
15:u:code-1LLL =87,
15:u:code-1RRR =67,
15:u:code-1RR  =67,
15:u:code-1R   =67,
15:u:code-1X   =67,
15:u:code-1L   =67,
15:u:code-1LL  =67,
15:u:code-1LLL =67,
15:u:code-1RRR =59,
15:u:code-1RR  =59,
15:u:code-1R   =59,
15:u:code-1X   =59,
15:u:code-1L   =59,
15:u:code-1LL  =59,
15:u:code-1LLL =59,
17:u:code-1RRR =_x+1,
17:u:code-1RR  =_x+1,
17:u:code-1RRR =_x+2,
17:u:code-1R   =_x+1,
17:u:code-1RR  =_x+2,
17:u:code-1RRR =_x+3,
0=-0x1.c87b2fb7ed30ap-5
1=0x1.40f8978d0e873p-2
3=-0x1.61f77b942c328p-4
4=0x1.cc59ada141cabp-3
5=-0x1.d66d47e3b80cep-5
6=0x1.126585695ac85p-2
7=-0x1.08d0bdefbc3fbp-1
8=-0x1.86a2355ca30c1p-2
21=0x1.3be86174992cap-4
22=-0x1.6d4ac133871aap-5
27=0x1.1c6dba57ee07fp-3
28=-0x1.222d7e1055858p-3
30=-0x1.6bf6d38329033p-7
31=0x1.d3c3138a2b00ep-8
32=-0x1.6371895cf3cf6p-5
34=-0x1.f1f011fe5ea96p-7
36=-0x1.288ef3783fdbp-5
37=0x1.acba5e3adcfd5p-3
39=0x1.3adf4838191aep-7
42=0x1.fdefb752d55ccp-11
46=0x1.152055c9509bbp-2
47=0x1.9dcb37603b25bp-3
49=-0x1.03ca88f72cd07p-4
50=-0x1.04e9ed5fcb75p-3
53=-0x1.e388235db87dfp-7
54=-0x1.62ba376d9203fp-2
55=0x1.bc3c69fc4358fp-2
57=-0x1.a8e745c16d126p-2
58=0x1.a488858e456fep-1
61=-0x1.edca2a980aa61p-3
66=0x1.8d4e2e077adfap-3
67=-0x1.434b620777ea1p-5
68=-0x1.569b8838f9482p-5
69=0x1.1730fd77cbec4p-3
71=0x1.bbe4ef3b63d88p-5
72=-0x1.5f172b2c6c22cp-2
74=-0x1.33717934f3413p-3
75=0x1.927ae240e8b9p-2
76=-0x1.e11214706a25dp-4
77=-0x1.25c548a152f8dp-6
78=0x1.9ffdba6304587p-4
79=0x1.7d13ab171d3bfp-7
80=-0x1.992262b43a7c4p-4
81=0x1.0d805d48ff3a4p-3
84=-0x1.12e1a91ca31fap-2
85=0x1.589fd45af14p-5
86=-0x1.f0c2368650adfp-6
87=0x1.7534256091aaep-2
88=-0x1.b56bb439dcde7p-4
90=0x1.ce2e759a464b9p-1
91=-0x1.0cffa97df96c7p-2
92=-0x1.1e01adda5ae79p-4
93=0x1.5f64f7aa2d927p-3
94=-0x1.7d8f340825acep-4
95=-0x1.2d932aa7c26f4p-3
96=-0x1.1e12bebd2931ap-4
98=0x1.530ae05d4da4bp-6
99=0x1.546935ff91c96p-1
100=-0x1.cad747dd3de9cp-4
102=0x1.6e80934e4d7dfp-3
103=0x1.a5f7e8a82d8b7p-6
104=-0x1.d51d0fed493a6p-5
105=0x1.5104c864e26a5p-3
106=-0x1.f6915a230a56cp-5
107=-0x1.3f7b79265b135p-3
108=-0x1.a6ab2f9333ae8p-4
109=0x1.f67ddda28b55cp-4
110=0x1.42ba41f235bd8p-6
111=0x1.8b4e5ad805b85p-4
112=-0x1.812eaeeb4e566p-4
114=0x1.f01ae1cc11306p-2
115=-0x1.7d398dbb82165p-2
116=-0x1.5d0ba8dbefe97p-8
117=0x1.5049af91b2194p-2
118=-0x1.b0d023dc2067ap-3
119=-0x1.95fb7a456fed4p-6
123=0x1.1fc8e171e235p-4
129=-0x1.b48ae40cb12e7p-3
130=0x1.f68d50ae27adap-8
133=0x1.0c713a5b075b7p-5
135=0x1.cd813afdeb86bp-6
136=-0x1.b28b2f5ecfa49p-5
137=-0x1.3b9e400453b5dp-6
138=0x1.93ccc17408d08p-2
139=-0x1.1fba587717428p-2
140=-0x1.cd955ead369cbp-6
141=0x1.cfad9ee3dd62fp-2
142=-0x1.03db8a8adbf1ap-1
143=-0x1.38e6ac54ec805p-4
144=-0x1.9a30217c580aep-5
145=0x1.c7a9bf128aabap-5
148=-0x1.4441399eec751p-7
159=-0x1.461ee4cf1e34bp-5
160=0x1.89a277085e66ep-4
168=0x1.0e7e83506ab72p-3
169=-0x1.f7ee0131987cp-4
171=-0x1.1fcdb1404b197p+0
172=0x1.9d673d251064fp+0
173=-0x1.8fcbcacd1fa9ap-1
174=-0x1.ecd5deece0133p-4
175=0x1.b189e2897fdf7p-2
176=-0x1.183dfa3af80c8p-3
177=-0x1.14d145e480aabp+1
178=0x1.6c66dbccdc286p+0
179=-0x1.2e8515595ecddp-1
180=0x1.53c1f1f5392f1p-1
181=-0x1.db2e288501246p-2
182=-0x1.b7a799f57b043p-6
183=-0x1.1e9f9973ed449p-2
184=0x1.62055d7acd513p-3
185=-0x1.028175a1bee7dp-4
186=-0x1.764a8e0f3e8ebp-6
187=0x1.1c7e9184f45b1p-3
188=-0x1.b1babfd1f2aa4p-9
189=-0x1.b87532d43517bp-4
190=0x1.9fedc9d65c778p-3
192=-0x1.0623fc7e1c4b4p-4
193=-0x1.7994746f83057p-4
194=-0x1.84eb0574b9a66p-4
195=0x1.786f336fe8006p-3
196=-0x1.b69e1b8f69e22p-5
197=-0x1.0178505485d68p-3
198=-0x1.d426c25cda19p-3
199=0x1.68cb56866807fp-4
200=-0x1.b9d2736a4a60cp-5
201=-0x1.0d56a91bd4c54p-3
202=-0x1.3755ffbf62206p-6
204=0x1.b63da840e19d2p-1
205=-0x1.71c9405c1df93p-3
207=-0x1.6397502f5b6edp-11
208=0x1.966e185af8653p-7
209=-0x1.6383422fd0827p-5
210=0x1.1ba16f2b9f438p-4
212=-0x1.397c703d3cc3p-6
213=-0x1.0bf2843e8c004p-4
214=0x1.2240a71cee3f5p-3
217=-0x1.108788d83ebe1p-4
218=-0x1.cb393e87445e2p-6
219=-0x1.70319c62750acp-7
220=0x1.4f4edff25a1a6p-4
221=-0x1.aafb5afda5296p-5
222=0x1.8db0e79ac21fbp-5
223=0x1.9faad6350f2bp-2
224=0x1.af4bc445d26bep-4
225=-0x1.25fa082902a0cp-5
227=-0x1.3e07280ba76d6p-3
228=-0x1.ef2433a3f11cap-7
229=-0x1.353aa922c6708p-5
230=-0x1.a2951f2a22dc1p-5
231=-0x1.54289f7e5c288p-4
232=0x1.4357f8bcab49cp-3
233=-0x1.923c3a834dd76p-5
234=-0x1.2e9b672345f2cp-5
237=0x1.6ae5b5cdabd21p-6
238=0x1.10c212b4fccdfp-3
239=-0x1.e35e17d4be76p-6
240=-0x1.9b19ffe3ff29ap-4
241=-0x1.2dc53a5c67192p-5
242=-0x1.8abf9f5933c7ap-7
243=-0x1.b3e50b4419f2cp-14
244=0x1.0f807fabf8b8p-5
245=-0x1.d0fffeb5a50e8p-5
246=-0x1.6f9c04404c5f2p-8
247=-0x1.fa3deaeb2c5bep-5
248=-0x1.e2e809884e0c7p-3
249=-0x1.b29738641b808p-9
250=0x1.e56118ca4adap-4
251=0x1.edbc7414a348bp-4
253=-0x1.6a16e589b8c04p-5
257=-0x1.3b390e71fac8ep-5
258=-0x1.7526b23ff7478p-4
259=0x1.3f74221ccbe53p-3
260=-0x1.4bfba64016ab8p-4
261=-0x1.415712f35e216p-5
262=0x1.928c82d692bb9p-8
264=0x1.05ede1b21541fp-2
265=-0x1.246d4ffec8827p-4
267=0x1.50984fe93a524p-9
268=-0x1.bd4effb5fc2acp-10
270=-0x1.26385ff216f5bp-5
271=-0x1.eb111366a7be2p-3
272=0x1.48bf067d081e8p-6
273=-0x1.0beed8c85439ap-4
274=0x1.bfda3fa2b48d5p-3
276=0x1.830225cfeae45p-2
277=-0x1.68864c62a74e8p-4
278=-0x1.39db230399c74p-7
291=0x1.1f63c34cfbe5dp-4
292=-0x1.8476bfa6e8d7ep-6
294=0x1.2fc3a2c2b494p-8
295=-0x1.8168df6254bdcp-5
296=0x1.5fa992531b6a1p-5
298=0x1.4313ffbc47de4p-9
300=0x1.68ab0fdf3902cp-3
301=-0x1.784570f368b8dp-2
303=0x1.900b7d3509588p-2
304=-0x1.c9d9215c32408p-4
305=0x1.7be092d494876p-4
307=0x1.6b8a33f329b27p-6
308=-0x1.704e145efbb1bp-6
309=-0x1.613baa597d3f8p-9
312=0x1.3edbb6f6a4221p-2
313=-0x1.6d20db84a535fp-4
314=-0x1.e3dda8e538e43p-5
315=-0x1.01400de60d00ap-2
316=-0x1.8279293228868p-3
317=-0x1.c88167ce91403p-3
318=-0x1.83cd867da5601p-3
319=0x1.9a596aa6bad2cp-6
321=0x1.2403b3cdaafb2p+0
322=-0x1.08a2f406b82f3p-2
323=-0x1.2753e262773efp-6
324=0x1.dd73e518072e9p-4
325=-0x1.17f68e0fa9275p-3
326=-0x1.89dab0cd88ee3p-6
327=0x1.4437550c10353p-1
328=-0x1.af24d3299282dp-5
329=0x1.19f4f5213cf98p-1
330=0x1.4e9374f5975fcp-7
331=-0x1.9ce7a35e4ebf7p-5
332=-0x1.21ff7ea0cb65dp-4
333=-0x1.206459001903ep-2
335=-0x1.182cba7f46e9cp-3
337=0x1.617b5cb74e31p-5
338=-0x1.083ca31e4c963p-7
339=0x1.c3627bfac027p-9
340=-0x1.d91e34a6bdep-7
341=-0x1.8e2f844466a9p-4
343=0x1.ead71c475c762p-4
344=0x1.169ccc6371894p-7
348=-0x1.61638f494b85dp-6
349=0x1.39e5896754cd4p-5
351=0x1.a59392fac7c6bp-5
352=-0x1.b15bb35e2f1eep-5
353=0x1.65f24577ba9bbp-5
354=-0x1.cf27e8adcdf82p-4
355=0x1.1879abedad7d5p-3
358=-0x1.18e792c1b7886p-5
359=-0x1.3e85d0a77d81ap-5
361=0x1.1638d01fc4883p-4
362=-0x1.742b423adfad9p-5
363=-0x1.907f38214c242p-4
364=0x1.3511825f10ca8p-7
365=-0x1.55c14c6f9c9bcp-4
366=0x1.fb2166c09266ep-5
367=0x1.1c9960a28fa89p-6
368=0x1.ff38e22825a98p-7
370=-0x1.f6f057d2d8a99p-5
371=-0x1.c22a9aa01814p-6
372=-0x1.8c42b72d432bbp-6
373=0x1.c64ca2530c4f7p-5
374=-0x1.805d9853a3c22p-6
375=-0x1.80c605941104fp-5
377=-0x1.44ab14a605c26p-5
378=0x1.0b68d6ff23ba2p-7
379=0x1.76a821a5259c5p-4
387=0x1.652cef94d48cbp-3
388=-0x1.51ac33aecfe65p-3
393=-0x1.d383efa585bd8p-9
394=0x1.75e770098af5cp-4
395=-0x1.cb7cea279a044p-8
396=0x1.48797eec69f64p-8
399=-0x1.dfc60333eeb7p-5
400=0x1.f6a08e2d0a24cp-8
405=-0x1.85389f87b8adcp-2
406=0x1.b03fb5325abddp-2
407=-0x1.ca6d7544d304bp-4
408=-0x1.dbc0d43c7bc77p-2
409=0x1.0039ee0ae1e87p+0
410=-0x1.74f4e8e99696p-8
411=0x1.d9f9042622925p-7
412=0x1.a330515cb476ap-9
414=-0x1.6d0c4e01b83c2p-6
415=-0x1.08082caec7bf5p-4
416=-0x1.86398335b0526p-6
417=0x1.8c33bc8826e88p-5
418=-0x1.8d98126282baap-9
419=-0x1.9b9d466834cbep-5
420=0x1.412f91e2f0c2ep-4
421=-0x1.154bad0e560eep-3
422=0x1.38e952e994e4fp-6
424=0x1.16083e209b66ep-3
425=-0x1.5064ce9009c7p-8
426=0x1.341d7f31193ap-4
427=-0x1.ac70f3e6fd5a4p-4
428=-0x1.102449c97ddfdp-4
430=0x1.7d363b6e00864p-5
431=-0x1.64dc689a8f282p-6
433=-0x1.b856611d319b9p-4
434=-0x1.02c42d0d52ab6p-4
435=0x1.6e880802262a1p-4
436=0x1.559effc6b47c2p-3
437=0x1.2e308fc3f2858p-6
438=-0x1.e4f46a326aceep-5
439=-0x1.c1e26873267abp-6
440=-0x1.647e674575a1ap-6
441=-0x1.25f33b8ae5524p-10
442=0x1.660ff8aa29d8dp-5
443=-0x1.35db61bbe53f8p-8
444=0x1.b4a3c5f89d312p-2
445=-0x1.8825213116544p-2
447=-0x1.26a27efa2b3eep-5
448=0x1.608d043ba5eeap-2
449=-0x1.9ad9998f0628p-15
450=-0x1.6ce34448c9b79p-3
451=-0x1.b39283fa762aep-8
456=0x1.3be77afb2aaa7p-5
460=0x1.d09d800db4bb4p-7
462=-0x1.d9dec7ee7b31ep-3
463=0x1.170bda87705e5p-2
474=-0x1.01c06990fcd32p-3
475=0x1.8ab0258d30c44p-3
477=-0x1.22e944fd1cac2p-2
478=0x1.c360e44beeed6p-4
480=0x1.225d4d58da709p-5
481=0x1.7ce65cfd3fbe4p-5
483=-0x1.403542ecd1825p-5
486=0x1.2b16286214a2dp-4
487=-0x1.b60897aee918cp-10
489=0x1.38f5d65536d2ep-4
491=0x1.78f4180de5b84p-3
492=0x1.d548f775235f5p-5
494=-0x1.088c3a82fc92ap-4
495=-0x1.ece97ec20a435p-6
496=-0x1.58394c615ba88p-6
497=-0x1.9e2233d24da4cp-8
498=0x1.a0954924202d2p-4
499=0x1.9e7d40342fecdp-5
500=-0x1.f79eda6bd5382p-5
501=0x1.24e0bb93be805p-3
502=0x1.8746e856ef471p-5
503=-0x1.26957d024c665p-4
504=-0x1.9c3a6481ff12cp-5
508=-0x1.457c425061db6p-5
510=0x1.6063c3350f50ep-3
512=-0x1.54e9fd3cb523dp-4
513=-0x1.0e0757e4b13fp-2
514=0x1.7bb3ee284d57cp-8
515=-0x1.8732dfdd17584p-4
517=-0x1.56e5d68de748cp-7
519=0x1.3acf5ad803f87p-1
520=-0x1.59810c7c70371p-3
521=-0x1.8ceb154ed8d6cp-6
522=0x1.098cd9256b38p-13
523=0x1.4d26562ea440cp-5
524=-0x1.2d8321bb84cb7p-3
525=-0x1.054fab0a3ab9fp-3
526=-0x1.7514cb98c5dd2p-7
527=-0x1.2210b324c8106p-6
528=0x1.8efaa99dea5a4p-6
529=0x1.00cc239b29d1fp-3
530=-0x1.84e18d91124a4p-7
532=-0x1.afab9dbbdcfc8p-4
533=-0x1.8c43e2cc50cp-6
544=0x1.ad75c7b8d5d8p-5
545=-0x1.34668b622099p-10
552=-0x1.0d8b67a3d3098p-5
553=0x1.28fe2578540cep-6
555=-0x1.4cfb935d2aedap-3
556=0x1.fbc8c645a86b2p-3
557=-0x1.014b4c686157dp-5
558=-0x1.c3108b1165b57p-4
559=0x1.7a3b7100b55f6p-4
561=-0x1.83e428ea96c2ep-7
562=0x1.75c4264e94aaap-4
567=-0x1.ec25a69c713aap-5
570=0x1.0eece19fea52dp-2
571=-0x1.52ad3e907a512p-3
572=0x1.a917835863ed6p-2
573=-0x1.16a0ba1dae675p-4
574=0x1.5017005b6f4c8p-4
576=-0x1.dd64e01b53175p-4
577=-0x1.116dfc98e0d65p-6
578=-0x1.8334823b1c02dp-4
586=0x1.769aae51f9c8fp-6
594=0x1.31379bf799b84p-7
595=-0x1.1f628b9d0ff55p-7
604=-0x1.1bcfd5aea80dcp-5
605=-0x1.b1e2935976f7ep-3
606=0x1.17d0dcb632201p-2
608=0x1.001a92fd937ap-3
609=-0x1.7639286408f12p-4
610=-0x1.1d7c9d39a2e68p-8
611=-0x1.395d7c8f5af9cp-5
615=0x1.a5dba4db4dd96p-6
616=-0x1.7eee10e5dedd2p-5
618=-0x1.970205e28277cp-9
619=0x1.a3c5fe2369349p-6
625=0x1.b536493b3592dp-7
630=-0x1.776e4d1d7875p-13
636=0x1.6bb143fb2971ep-2
637=-0x1.edb1aeaa7edf6p-6
638=0x1.64055885ccf82p-1
641=-0x1.a40709802c6b6p-5
642=-0x1.20aacfc8840a5p-2
643=-0x1.549d4749fbe8cp-5
644=-0x1.94cda54319d86p-3
645=-0x1.517fa063e0e96p-5
646=0x1.9ae5a07980784p-4
647=-0x1.1a2c0a62471b1p-5
648=-0x1.1d5ed7af7daf4p-4
650=-0x1.1b707d64a49ccp-4
652=0x1.bb1c8432d3584p-4
655=-0x1.1dd32db23e99dp-5
657=-0x1.0f41ece8fb893p-2
658=0x1.684be0bb2173cp-2
659=-0x1.0fdb039e1d84ap-5
660=-0x1.6d66112c610b1p-4
661=0x1.11a024d4b2f36p-3
662=0x1.68ce6bab045c7p-7
663=-0x1.861676718900cp-4
664=0x1.9577a9f9941c5p-5
665=-0x1.a45797eefc877p-4
667=-0x1.7e71f5f44cbd7p-6
678=-0x1.ee07311e7fb37p-4
679=0x1.8b235587dab6ap-3
680=-0x1.c650308953babp-5
684=0x1.a6daa3c0a6fcep-5
685=-0x1.101527b85c15ap-5
690=0x1.601bccc42d06dp-3
691=-0x1.c0ade718779ap-7
692=-0x1.09f7b2333ec34p-5
693=0x1.bb3ec6a927139p-4
694=-0x1.182a8cd751588p-3
695=0x1.0c86ce3d08d12p-7
696=-0x1.9bed968163dfep-6
697=0x1.828466614d6a3p-4
698=-0x1.0da89339ef1bdp-4
699=0x1.6d3b73f4f1493p-2
700=-0x1.20c00c2a6e5dbp-3
701=-0x1.daedcaeb053bp-5
708=-0x1.d370eebf17cd4p-4
709=0x1.cd14064ca3e06p-4
714=0x1.2f1135dc20b94p-5
717=-0x1.0165999f13e6ep-4
718=0x1.d2bc5fdade882p-4
723=0x1.4969913f69287p-5
724=-0x1.88c1af0b61877p-4
725=0x1.d7081510f617bp-2
727=0x1.5e9052ca38fa6p-5
728=-0x1.6a8a6efbd311ep-10
729=-0x1.cf44c1c5f579p-5
730=-0x1.92baf85ae064ep-6
731=-0x1.c4fd27268aed6p-4
732=-0x1.69a194c421ec2p-3
733=0x1.e3f3f6f783b76p-3
735=-0x1.0ab15940b9691p-3
736=0x1.d5abf902003c4p-2
737=-0x1.c94bfa3907e1ap-6
739=-0x1.3f51f5548b28bp-7
751=0x1.6cee8a6d7623ap-6
754=0x1.a732e4abe6e14p-8
756=0x1.d110e1c6d7286p-4
757=0x1.3b11d879b1f31p-2
758=-0x1.344e994bb7064p-1
766=0x1.9b1a1ee86526p-7
767=-0x1.13c02f1ce4cc8p-4
770=0x1.e892a96274d7p-5
774=-0x1.d5588cf8907b8p-7
775=0x1.16753513a46d8p-5
778=-0x1.e418a0bd4a1eap-4
781=0x1.95ca6037289e8p-3
790=-0x1.df26b9d798ad6p-7
792=-0x1.deba08ffb8999p-3
793=0x1.641e4a9774b33p-2
794=-0x1.d0df638cccd54p-5
795=0x1.c7dcb72e4d0e7p-3
796=0x1.368febb0c40a9p-2
797=-0x1.59947b1ebe096p-2
801=-0x1.0cf8776ee967ep-4
802=0x1.03a1b858923bdp-4
804=-0x1.281ee1626f6bdp-5
805=0x1.5a0ecc0fab246p-6
808=-0x1.303e3af26960cp-4
809=-0x1.5860debf10196p-5
811=0x1.937986aacb792p-4
812=0x1.91639bfa4649dp-4
816=0x1.6f6579d362c21p-7
817=-0x1.10e53a9122977p-6
819=0x1.47a284fd1af4ep-4
820=-0x1.17353532b312p-9
822=-0x1.6f49dede42013p-2
823=-0x1.3c88c0c6c58aap-1
824=0x1.fc0e2465b079dp-1
829=0x1.60171fd3fdb3p-11
831=-0x1.6f49dede42013p-2
832=-0x1.3c88c0c6c58aap-1
833=0x1.fc0e2465b079dp-1
834=-0x1.c70682487d4acp-7
836=0x1.6964a0974d963p-2
837=-0x1.04448a647a1dbp-2
838=-0x1.11fd028ea8777p-1
839=0x1.1e2a5b113d637p+0
842=-0x1.368bcb14104d7p-2
843=-0x1.744b06c6454fep-4
844=0x1.14bfb660a20c4p-3
846=-0x1.d3f102fca6193p-3
847=0x1.b096f2dc7a824p-3
848=-0x1.cd56e8edf2c84p-5
851=0x1.2df1abf82f2a6p-8
858=0x1.fdf740f07946bp-1
859=-0x1.dea9a03fb265p-1
860=-0x1.b9b82fdb1372p-9
861=-0x1.87f305a626e9p-5
862=0x1.fb2d526164ff8p-5
870=0x1.867adec58c04cp-6
873=-0x1.2f3160f68a198p-2
874=0x1.2d0dd0211f3ccp-1
875=-0x1.4b55e6d7c1e4cp-4
885=-0x1.d187429d244e7p-6
886=0x1.43be3ffe759bdp-4
888=0x1.921b5ad27b73bp-6
891=-0x1.355a47917e7ecp-2
892=0x1.e8631cdde0a34p-2
895=-0x1.50f807c8113c3p-4
897=0x1.ce20f95ba1f04p-2
898=-0x1.1cd256ffa0e3ap-5
900=-0x1.ff24a29c6f377p-4
901=0x1.7566f8342e6f4p-4
907=0x1.7568f2f916ccep-8
912=-0x1.5b5189ebb433p-10
916=0x1.70041fa9e7fc2p-7
919=0x1.e28938ff7ef1p-3
922=-0x1.8ae13f8a4b2f1p-4
933=0x1.d7061863ee6a9p-7
939=-0x1.5f8f4f750bb67p-4
940=0x1.e381183ead46cp-5
943=0x1.62ed4dffdcb7cp-3
945=-0x1.9471f7db4eeecp-7
951=0x1.e423542306843p-6
952=-0x1.17618d3345834p-5
957=-0x1.075cc8f558f67p-5
958=0x1.7b99cbf97239cp-4
960=0x1.2b858e2b599bep-4
963=-0x1.0822330dee07ap-5
966=0x1.5931a63aa755cp-7
967=0x1.3936d92428418p-5
969=0x1.31cb9f70666ap-10
970=-0x1.6388cf1b5855fp-5
971=-0x1.c5b3422389b6cp-6
975=-0x1.49c6bda1e263bp-5
976=0x1.c835edcdc6d1fp-5
978=0x1.03a6d09a535dbp-3
979=-0x1.eb87114567cbbp-4
981=-0x1.9b5b90f967bccp-4
982=0x1.320882c42a8b4p-4
986=-0x1.17def5abd9911p-6
988=0x1.72bbd85100017p-4
990=-0x1.772898f568dcfp-5
991=-0x1.10e137bf95792p-8
1003=0x1.9c67061e910bap-8
1012=0x1.53eed27aee4b7p-6
1023=0x1.8ff19b77f5aafp-5
1024=-0x1.3368d8066a24dp-7
1029=-0x1.595a654b410e2p-7
1030=0x1.91154f3d8d97dp-8
1031=-0x1.f12aabbaef344p-4
1032=0x1.c225b7d6b83dp-6
1034=0x1.17ac2a20e61b2p-5
1041=0x1.78fa29e086b3dp-3
1042=-0x1.4cc3ee70d9b91p-3
1044=-0x1.2c5d203a26ee8p-2
1045=0x1.4b0d2a94ac8c7p-2
1047=-0x1.54563c2ff5c75p-2
1048=0x1.55a9b4c49b184p-1
1051=-0x1.6ec519e4555f7p-5
1056=0x1.499797939f93dp-5
1057=-0x1.ea122475b164fp-6
1059=-0x1.b735e1ecac91ep-8
1068=0x1.b310642602b6dp-5
1069=-0x1.d0667f62292a6p-6
1075=0x1.27920c4ce9cap-10
1080=0x1.ea3c01263be79p-5
1081=-0x1.62d80482c280ep-5
1083=-0x1.b719a8e0486bap-8
1084=0x1.7ae68b874b784p-9
1086=0x1.8093fe5fc79d5p-4
1087=0x1.a50922871ea96p-10
1088=-0x1.dd02563a18114p-9
1089=-0x1.ec46428e878bcp-8
1104=0x1.56e0858a5ebe3p-5
1105=-0x1.7fe79d03d4a4cp-6
1107=0x1.2ced479090ad1p-5
1108=-0x1.f00a31357b416p-10
1140=0x1.0fa30618ea674p-7
1143=0x1.2f8da2e11e02dp-2
1144=-0x1.c263be277f3dbp-4
1145=-0x1.0c2454fdd6835p-7
1146=-0x1.a13909376556bp-4
1149=-0x1.8b0fdae8036a3p-6
1152=0x1.fd720c0e22d9fp-2
1153=-0x1.593e1c572a7c9p-5
1161=-0x1.5a482cc4c0e4bp-5
1162=0x1.065fd7c508caap-4
1164=-0x1.26fb0918d3f7p-5
1165=0x1.0c0e523712c7ep-2
1168=-0x1.da9fb6ad1cc32p-4
1179=-0x1.0cde9a0d0ca12p-3
1180=0x1.18537a484ad84p-3
1181=-0x1.24942e5fc7772p-7
1182=-0x1.066d2d17d04ep-4
1183=0x1.4e42d2f44e08ep-3
1184=-0x1.22096d71e40e9p-3
1185=-0x1.341ecf378c78cp-6
1186=0x1.d40c3bb865181p-4
1187=0x1.662ec672297f5p-5
1191=-0x1.0d4d6f5f1cc11p-5
1192=0x1.21b304b2194p-5
1200=-0x1.1c8731e70d378p-3
1201=0x1.4488142619e6p-3
1204=0x1.8d24d59e061b8p-10
1230=0x1.d253af64adaddp-2
1231=-0x1.cedb0bf62d503p-4
1232=-0x1.6b6301d56ddfcp-3
1236=-0x1.e5d208b1440c6p-7
1237=0x1.210ecea6fd954p-6
1239=0x1.14e7d21817339p-2
1240=-0x1.c4b9d779a0f0fp-3
1245=0x1.22a5284fccc5bp+0
1246=-0x1.f001bf0568a94p-1
1247=-0x1.9a1a0fd639411p-4
1248=0x1.540d474053406p-2
1251=0x1.40d56be4c8aa9p+0
1252=-0x1.0e36acba7b066p+0
1253=-0x1.579c5709d4f2bp-4
1254=-0x1.c713bc7a1a8f9p-2
1266=0x1.6b51de38fc272p-6
1267=-0x1.c56d0b40a1d31p-4
1268=0x1.0db31d9c1d6bp-4
1269=0x1.2e683724004dfp-2
1270=-0x1.edb25fc87e83p-4
1271=0x1.3dd8a123758bbp-1
1274=-0x1.815954247e9e7p-7
1275=-0x1.095ce0536af1ep-4
1277=-0x1.19604d678e94ep-3
1287=-0x1.ea115e9832b3fp-7
1288=0x1.7cdb167e492bbp-6
1290=-0x1.8856a20c50054p-9
1291=0x1.db9f060ef85a4p-8
1317=-0x1.28db63eeb42ccp-6
1318=0x1.0f4b2bfbae0e7p-6
1329=0x1.94cd1862b7094p-4
1330=-0x1.bee29522a11c4p-4
1356=0x1.40e91d05c419ap-7
1374=-0x1.afae81e6ce692p-5
1375=0x1.12f4819f911cfp-5
1413=-0x1.8b26945265362p-4
1414=0x1.b13b6d608be96p-4
1461=-0x1.8b7979ad19ed6p-7
1462=0x1.cccbe13adea36p-7
1479=-0x1.86674251a2434p-7
1480=0x1.d8b0311177cc6p-7
1488=-0x1.098f622ecf737p-2
1489=0x1.3e02204df6653p-2
1491=-0x1.a6388d01a0052p-3
1495=0x1.21593c9f41edep-2
1500=-0x1.fbd09e361f35p-4
1501=0x1.1bf9cb2ed612p-3
1503=-0x1.00de7874f1dbap-3
1504=0x1.2f11320e1a60bp-3
1506=-0x1.9b352bc47aefdp-7
1507=0x1.150ac8f9dd235p-6
1509=-0x1.9b352bc47aefdp-7
1510=0x1.150ac8f9dd235p-6
1512=-0x1.9c2f8e2cb1f02p-7
1513=0x1.1c8fef8bf96f9p-6
1560=0x1.7b636a17ea6e9p-4
1561=-0x1.fe3c732268814p-5
1566=0x1.7ebcc2fdebe2fp-4
1567=-0x1.01153f88b9393p-4
1572=0x1.9ce45d5d9cb23p-4
1573=-0x1.484038caf3fd8p-5
1584=0x1.008aa82c700b4p-3
1585=-0x1.d3b562b844ae6p-4
1587=-0x1.9efa618b1bbbcp-4
1588=0x1.0045835b78838p-3
1599=0x1.ea68dfd2cf087p-6
1650=0x1.a7f5baf59f542p-1
1651=-0x1.a121add34c60ep-1
1677=0x1.d48dc833646d4p-5
1678=-0x1.42b68f234f228p-5
1701=0x1.25c2fd1b46ca6p-4
1702=-0x1.e9f9675f4badp-6
1705=0x1.34c0f6f12cd98p-7
1711=0x1.0bc345f1ed4cp-4
1712=-0x1.3a5b42b30a1fdp-3
1713=0x1.ad83619cff961p-7
1714=-0x1.005b33c627dd2p-6
1716=0x1.65a99581674cfp-1
1717=-0x1.2a0ee827c8fa1p-1
1718=-0x1.0726c1f5d8085p-5
1723=-0x1.1dfedbcd6ea3cp-6
1725=-0x1.2f13cdac33c74p-8
1728=0x1.9d364bb373abfp-5
1729=-0x1.447a086aff6ccp-5
1740=-0x1.3c2f4daeb90aep-6
1741=0x1.ffdc3890bd8c5p-6
1743=-0x1.b08ff172b00dfp-8
1744=0x1.982592591bcf5p-7
1746=-0x1.c7e609cb0db99p-5
1747=0x1.0fa1a9cc60feep-4
1848=0x1.a25473a276ea8p-1
1849=-0x1.4401677da3c18p-1
1850=-0x1.157c16cae6e04p-4
1851=0x1.a25473a276ea8p-1
1852=-0x1.4401677da3c18p-1
1853=-0x1.157c16cae6e04p-4
1854=0x1.288565fcf2985p-5
1855=-0x1.a217fd72e95e8p-8
1857=0x1.64222c138cc62p-1
1858=-0x1.037fa363cad09p-1
1859=-0x1.1be01d9ab17fep-5
1887=0x1.1c67cec94a9e9p-4
1888=-0x1.d4f0eee07ec14p-7
1905=0x1.fcbf355244044p-5
1906=-0x1.e639e7d052746p-6
1914=0x1.85b743c478069p-4
1915=-0x1.18d642c0c69adp-4
2010=-0x1.42b62319d2cfep-5
2011=0x1.7e4a3b962a6eep-5
2070=-0x1.4752302342897p-6
2071=0x1.089cde140a0b1p-5
2073=-0x1.ca76017a588c5p-5
2074=0x1.fd48c46775d13p-5
2238=0x1.a1cd70d76d4f8p-9
2262=0x1.ca63afd421dfdp-1
2263=-0x1.c88422cedb7bfp-1
2280=0x1.37b3a9bfc9e33p-1
2281=-0x1.ea07a2e8a7048p-2
2282=-0x1.1415732989c9ep-6
2283=0x1.37b3a9bfc9e33p-1
2284=-0x1.ea07a2e8a7048p-2
2285=-0x1.1415732989c9ep-6
2289=0x1.3e86c8c3a0843p-1
2290=-0x1.e91a215b58ba8p-2
2291=-0x1.0104d03f7431cp-6
